#Parameter# /vanilla-lstm-builder/_0 {128,64} 131073 ZERO_GRAD
+1.99980348e-01 -6.73193112e-02 +5.07381074e-02 -5.93993962e-02 -2.09126826e-02 -4.59978431e-01 +4.83109578e-02 -3.97580713e-01 +5.99086136e-02 -4.26427945e-02 -1.11316055e-01 -4.95394953e-02 +2.43876241e-02 +1.82627186e-01 -1.21386409e-01 -4.81696755e-01 -9.42319557e-02 +2.75709718e-01 -1.90061182e-01 +1.52353495e-01 -4.00746286e-01 +1.42662421e-01 -1.58543885e-02 -1.34336531e-01 -4.17721987e-01 +9.07094181e-02 -1.31028444e-01 +4.87506576e-02 +9.31222215e-02 +8.43232796e-02 -3.34153801e-01 -3.33430052e-01 -1.41170949e-01 -4.44244683e-01 +1.79288715e-01 -4.55608219e-01 -2.10686669e-01 +5.47745764e-01 -4.59972858e-01 +3.64771008e-01 +4.96681444e-02 -4.56169933e-01 -7.13518262e-01 +2.03407764e-01 +3.18487346e-01 -2.55734086e-01 +7.89903641e-01 +4.83914241e-02 -4.87034380e-01 -4.09252495e-01 -3.63491595e-01 +2.15729043e-01 +5.82336724e-01 +2.23986149e-01 +9.04828459e-02 -1.65406168e-01 +5.45791864e-01 -2.95708001e-01 -1.93685237e-02 +1.49638861e-01 +1.16215423e-01 +1.57217056e-01 -3.94640505e-01 -5.94890304e-03 -4.92618561e-01 -7.60525048e-01 +6.41049072e-02 -3.11254114e-01 +8.32622275e-02 -4.35098827e-01 -6.01109445e-01 -3.13995779e-01 -8.21568906e-01 -6.07904494e-01 -6.23102307e-01 +6.79729059e-02 -4.65819895e-01 -9.66597676e-01 +3.14856440e-01 +1.11445852e-01 -5.98000467e-01 +3.12121529e-02 +1.41245991e-01 +1.57687247e-01 -1.59286365e-01 +5.35947144e-01 +3.12599808e-01 +5.44784546e-01 +2.80315220e-01 -2.13179290e-01 -5.48237205e-01 -1.31798580e-01 +4.02475864e-01 +8.22978243e-02 -1.04141915e+00 -3.56375873e-01 -3.03825438e-01 +1.55660704e-01 -7.73237869e-02 +2.78238893e-01 -1.68422624e-01 -1.21141978e-01 -8.12175870e-02 -3.73140834e-02 +1.90895736e-01 +2.74652150e-02 +1.53916806e-01 -2.09143162e-01 +8.02100599e-02 -1.13412023e-01 +8.92979503e-02 -7.24065900e-02 -5.76584190e-02 +3.18831950e-01 +2.61563092e-01 +6.43028393e-02 +1.07464686e-01 -1.18498601e-01 +3.07228770e-02 -1.07246684e-02 +7.72715658e-02 +4.43845183e-01 +1.61590409e-02 +2.85707980e-01 +7.29563013e-02 -9.48214903e-02 -2.83160154e-02 -1.01363860e-01 +2.88250923e-01 -1.17674857e-01 -2.58754492e-02 +1.67080402e-01 -1.95039570e-01 +3.37780267e-01 -5.53968966e-01 +4.58751470e-01 +1.20919747e-02 +4.00266021e-01 +1.18920514e-02 -1.20059319e-01 +9.84270498e-02 -3.21109056e-01 +2.65072018e-01 -1.47628024e-01 -6.04945906e-02 -2.02634502e-02 +5.07904403e-02 +2.78194010e-01 -1.42122686e-01 +2.49175519e-01 +7.30302930e-02 +2.47897178e-01 -9.19985846e-02 -5.72377145e-02 +9.61162150e-02 +4.60700870e-01 -1.08271047e-01 +4.06883746e-01 +9.20817703e-02 +4.55641896e-02 +1.51362956e-01 +4.85704452e-01 +4.48726863e-01 +2.83165388e-02 -7.96684146e-01 +1.34980991e-01 +6.78681195e-01 -7.73513317e-02 +2.41717651e-01 -2.86837429e-01 -1.28363535e-01 +7.91250050e-01 +5.24225086e-02 +5.35966039e-01 -5.08042350e-02 -9.70114097e-02 +2.23079011e-01 -3.66514564e-01 +4.96613001e-03 -2.95024753e-01 -1.05249668e-02 -1.38803646e-01 +1.73613094e-02 +2.79053926e-01 +1.13381416e-01 +1.16582006e-01 -3.22776675e-01 +1.80496555e-02 +5.27911961e-01 -2.01666236e-01 -8.53221193e-02 +2.43921503e-01 +2.06007153e-01 -3.37501317e-01 -5.29407203e-01 -2.45621666e-01 +2.48577148e-01 -4.70540114e-02 +6.89487718e-03 +5.13846993e-01 -2.10514799e-01 -9.03793275e-02 +5.76024577e-02 -3.81680615e-02 -3.30325574e-01 -9.91685539e-02 +3.19362134e-01 +1.37867078e-01 +9.55500379e-02 -1.90074667e-01 -7.96330929e-01 +4.36860114e-01 +2.23714590e-01 +4.00441080e-01 +4.52338941e-02 +2.01683238e-01 +4.47807491e-01 +1.88009426e-01 +4.39075619e-01 +3.27010423e-01 -5.68165481e-02 -2.62601059e-02 +4.18666214e-01 +1.53016478e-01 +7.59340599e-02 +6.60504624e-02 +5.23191057e-02 +7.52613693e-02 +2.14539155e-01 +3.85020822e-01 -2.38437802e-02 +1.67237334e-02 -6.00013584e-02 -1.21015668e-01 +4.76966798e-01 +2.18576789e-01 +2.46974807e-02 +1.39357328e-01 +4.40457277e-03 -1.95357397e-01 +5.36620282e-02 +1.98057160e-01 -3.25646810e-02 -8.30047578e-02 -1.88684821e-01 -1.10195421e-01 -1.77970901e-01 +4.62502763e-02 +3.99869800e-01 -3.54336381e-01 -7.42281042e-03 -1.07457191e-01 -3.09272826e-01 -1.65468082e-01 +4.07323018e-02 +1.19891420e-01 -2.01217949e-01 -5.32793224e-01 +6.43482581e-02 +3.41305375e-01 +1.64379515e-02 +3.02036554e-01 -2.51607597e-01 +6.82092905e-02 -1.63868576e-01 -3.69122058e-01 -3.33548427e-01 -1.92622885e-01 -7.73286223e-02 -1.37399852e-01 -9.68599841e-02 +9.13614184e-02 +1.94675520e-01 -3.85833621e-01 +2.27904946e-01 -2.19642565e-01 -2.42337570e-01 +1.32467777e-01 +3.21774483e-02 -1.58644348e-01 -4.99822110e-01 +4.25229549e-01 -1.59964949e-01 -2.79306233e-01 +2.99897194e-01 -7.22975254e-01 -7.02109858e-02 -2.98608929e-01 -1.37643635e-01 +6.53306246e-01 -2.61622071e-01 +1.82402760e-01 +9.62341800e-02 +2.59834588e-01 -4.06957388e-01 -6.14586025e-02 +5.75874038e-02 -3.42213333e-01 -2.04652712e-01 -3.50340962e-01 +3.49639177e-01 -5.26541948e-01 -1.12295888e-01 +2.16153219e-01 -3.77681553e-01 +6.49825782e-02 -1.82116494e-01 -8.78051966e-02 +5.76342456e-02 -3.35980266e-01 -2.44874284e-01 -5.15699722e-02 -2.22683474e-01 -3.48570913e-01 +4.63818818e-01 -1.35296255e-01 -4.31760579e-01 +4.47987348e-01 +9.62856263e-02 -3.37408870e-01 -4.03293222e-02 +4.00586456e-01 +3.10249925e-01 +7.99048722e-01 +4.68068182e-01 -1.07143059e-01 -2.40179047e-01 +2.56591856e-01 -3.21351826e-01 +5.26390016e-01 -2.81772427e-02 +7.28358924e-01 +5.26076257e-02 -2.32004732e-01 -6.66939795e-01 +4.32985425e-01 +2.28268147e-01 -1.76907107e-02 -1.27111986e-01 -3.00115615e-01 -6.52078509e-01 -1.02088377e-01 -3.59730363e-01 -3.25577915e-01 -7.18521595e-01 +4.15806830e-01 +2.61765361e-01 -5.60682833e-01 +1.69721127e-01 +9.22107920e-02 -1.13528937e-01 +2.09817246e-01 +1.49915278e-01 -8.71244296e-02 -6.17952868e-02 -9.10178274e-02 -2.85347342e-01 -1.15592502e-01 -1.24651138e-02 +1.07900277e-02 +7.34565184e-02 -5.63228726e-02 -4.69088137e-01 -4.12198633e-01 -1.20595790e-01 -1.01654507e-01 -8.16777274e-02 -1.22623265e-01 +6.70126751e-02 +1.45443231e-02 +1.24003924e-01 -1.03471875e-01 +2.14168787e-01 +1.80044025e-01 +1.79874882e-01 +1.45137295e-01 -4.95053858e-01 +2.25616068e-01 +1.14382632e-01 +1.20086618e-01 +2.22492106e-02 -2.98275948e-01 -3.55230737e-03 +2.68939018e-01 +3.45852733e-01 +1.67304039e-01 -9.79824662e-02 -2.32237026e-01 -3.03921252e-01 +1.50641456e-01 -1.08701065e-01 -1.28856286e-01 -3.56087595e-01 +2.02344880e-01 +1.23234399e-01 -3.41872990e-01 -2.16277957e-01 +1.27219632e-01 -1.44155920e-01 -3.74111503e-01 -2.98533104e-02 +3.98848921e-01 -2.88074315e-01 +2.78825276e-02 +1.75287381e-01 +5.36666155e-01 +1.65439948e-01 +4.19432700e-01 -1.40062839e-01 -3.56772959e-01 -3.10475640e-02 -3.16483118e-02 -3.30705404e-01 +5.02664328e-01 -6.01252556e-01 -1.79771408e-01 -3.81622881e-01 +2.18614310e-01 -5.25089279e-02 +2.04468191e-01 -5.72010100e-01 +7.72894472e-02 +2.75966763e-01 -9.43406299e-02 +9.19741616e-02 -5.87238193e-01 -4.90900315e-02 -2.10150123e-01 +2.13092305e-02 +1.01433739e-01 +1.37856856e-01 +1.12539627e-01 -2.32392877e-01 -2.95815915e-01 +1.24031715e-01 +1.68664366e-01 -2.38088951e-01 -4.38774340e-02 +5.00935912e-01 -4.29405868e-01 +6.87141046e-02 -5.05153418e-01 +4.60643172e-02 -3.30169201e-01 +5.03503606e-02 -1.85816929e-01 -3.21276784e-01 +4.30511057e-01 -1.93562135e-02 -2.62797773e-01 -3.22764724e-01 +5.28864264e-02 -1.28101498e-01 -4.70991015e-01 -2.27167219e-01 -5.27330264e-02 -1.78314298e-01 -1.50914252e-01 -1.64369851e-01 -1.15604989e-01 -2.44278938e-01 -7.74550378e-01 +1.70629814e-01 +1.14266358e-01 -5.71993887e-02 +2.01386735e-01 +7.77716115e-02 -3.50642800e-02 -2.63185799e-01 +3.97382200e-01 +3.52369308e-01 +2.65163839e-01 +5.59171855e-01 -2.00886294e-01 +8.90842080e-03 -7.71789253e-02 +2.77614500e-02 +3.35520387e-01 -8.20818186e-01 -1.22968450e-01 -3.62934679e-01 +1.48951337e-02 -3.62317637e-02 +1.83657855e-01 -4.27389629e-02 -4.78545167e-02 -9.97243077e-02 +1.34071797e-01 +6.06183633e-02 -3.43203992e-02 +8.50894824e-02 -1.73014387e-01 -2.19119098e-02 +1.07068077e-01 +1.90507174e-01 -2.74420202e-01 +2.86899526e-02 +1.54901698e-01 +3.20448041e-01 +4.40774038e-02 +5.12517430e-02 +4.60515693e-02 +1.06113598e-01 -2.32718825e-01 -1.10498466e-01 +1.88289389e-01 +2.78627604e-01 +8.33599940e-02 +1.88070983e-01 -1.20791644e-01 -8.36431980e-02 -5.90165555e-02 +1.49750873e-01 +1.03845544e-01 +1.52712286e-01 +2.15641171e-01 -1.42030999e-01 +9.38749984e-02 -6.30058467e-01 +5.26240587e-01 +2.44263232e-01 +3.11369836e-01 +1.35918424e-01 +2.28213921e-01 +3.34650464e-02 +3.89972329e-01 +1.56940371e-01 +4.75404501e-01 +4.18264389e-01 +1.79901958e-01 -1.83605611e-01 +1.02600493e-01 -1.81095108e-01 -2.09763303e-01 -2.38806978e-01 -7.97314104e-03 +1.61476955e-01 +6.98677897e-02 -1.50463700e-01 +2.78959781e-01 +9.07903239e-02 -3.02680582e-01 +3.72269124e-01 -7.63151348e-02 +2.70515323e-01 +1.80859901e-02 -1.93408966e-01 +1.71240821e-01 -2.46011242e-01 -1.76589459e-01 +3.23332667e-01 +8.19621682e-02 -2.88943052e-01 -1.00646839e-01 +6.26112223e-02 +7.42048800e-01 -6.23830818e-02 +4.95680422e-01 -3.24308930e-04 +1.03034842e+00 -1.76163837e-01 -1.73923552e-01 -1.48140818e-01 -1.87928021e-01 +2.96917967e-02 -5.74057937e-01 -2.52814770e-01 +9.07686353e-01 +2.82988042e-01 +4.07777429e-01 -6.96988106e-01 +8.90303195e-01 +3.70321751e-01 +3.31107438e-01 -4.69575226e-01 +4.26548481e-01 -6.74205720e-02 +4.43778247e-01 -1.26574308e-01 -7.20143378e-01 -1.19467296e-01 +3.93071413e-01 +2.24671587e-01 +1.82076633e-01 -1.19800419e-01 -2.22658422e-02 +3.57363731e-01 +1.30040437e-01 +1.73492953e-01 +9.05952692e-01 +1.74077004e-01 -1.06815621e-01 +7.19628558e-02 +6.00061342e-02 -6.18324041e-01 +2.90501952e-01 +4.92645234e-01 -7.08325148e-01 -1.64715409e-01 -2.17715338e-01 -5.56853831e-01 +3.69548857e-01 -1.66034177e-01 +2.71932989e-01 +1.72464326e-01 -3.25987875e-01 +3.81461829e-01 +4.26012605e-01 +1.65652961e-01 +2.53008664e-01 +1.03998393e-01 +1.15566529e-01 +1.94576502e-01 +2.93065578e-01 +3.67214940e-02 +1.73978359e-01 +1.13155559e-01 -6.87360018e-02 +1.63986146e-01 +4.00514960e-01 +1.07690103e-01 -2.73635350e-02 -1.04672171e-01 -1.00091852e-01 -1.61492437e-01 +1.72880962e-01 -1.80016831e-01 -1.17203228e-01 -8.69463906e-02 -1.32317785e-02 +7.67057762e-03 +2.80147437e-02 +2.18642905e-01 -3.60624492e-01 +5.22606112e-02 -2.37400651e-01 -3.44991386e-01 -1.20165676e-01 +3.42168748e-01 +2.42238969e-01 -1.81730136e-01 +2.36904621e-01 +2.20146209e-01 -2.68223792e-01 -8.09575692e-02 -5.49311697e-01 +2.33333573e-01 -3.48968238e-01 -6.00523688e-02 -5.38314506e-03 +1.16318958e-02 -3.17870855e-01 -3.05337291e-02 +4.91128474e-01 +2.14667782e-01 +8.00470412e-02 +4.28414941e-01 -6.43420517e-02 -1.98972132e-02 +1.74867809e-01 -2.78636247e-01 -6.03720099e-02 +1.34474620e-01 -4.31172503e-03 +5.37887275e-01 +3.10112208e-01 +3.30514498e-02 +2.47460634e-01 +1.28632545e-01 +5.92930794e-01 -1.05683086e-02 -2.78297570e-02 +8.21569785e-02 +4.39585865e-01 +8.99593085e-02 +4.02668901e-02 -4.88739371e-01 +2.88068652e-01 +1.47542730e-01 -1.34057626e-02 -4.93586957e-01 -3.83495539e-02 +4.18824852e-01 +2.59688288e-01 -5.78607023e-01 +3.75711948e-01 -1.01628911e+00 +2.44133234e-01 -2.81456977e-01 +7.34844729e-02 -4.72263545e-01 -1.22637339e-01 -9.31168790e-04 -5.15963361e-02 +5.49016381e-03 -1.21009666e-02 -3.12478215e-01 -6.89087156e-03 -1.00232184e+00 +7.75871575e-02 +8.46116662e-01 -3.47197831e-01 -8.63370746e-02 +3.79196376e-01 -2.56842345e-01 +1.98572084e-01 +1.15097910e-01 -9.63110663e-03 -5.43589354e-01 +4.56032991e-01 -8.84848237e-02 -2.26483330e-01 +3.50489765e-02 -5.50412796e-02 -9.25366860e-03 -2.26109043e-01 +9.98506323e-02 +7.63401210e-01 +1.74163338e-02 -1.32487148e-01 -2.22141474e-01 +1.65896818e-01 +1.42835692e-01 +1.49644375e-01 +4.93214071e-01 -4.60864939e-02 +4.14294630e-01 -1.70397952e-01 -2.75221109e-01 -4.19027537e-01 -5.61376810e-01 +2.06349924e-01 -2.13527873e-01 -4.37737793e-01 +6.81387484e-02 +5.15490472e-01 +2.67327964e-01 +1.22000158e-01 +1.58564113e-02 +9.41001624e-02 +1.23976812e-01 +4.65497859e-02 -1.54437507e-02 -9.21043754e-02 +1.11678317e-01 +7.82382265e-02 +1.33142292e-01 +2.15165392e-01 -6.25369884e-03 -1.29413903e-02 -3.91868800e-02 +7.31645748e-02 +2.77433246e-02 -1.24742292e-01 -5.68345264e-02 +2.27049049e-02 -8.19029212e-02 -9.80532840e-02 +1.45069748e-01 -2.03900650e-01 +2.05303952e-01 +2.57793456e-01 +1.77416787e-01 +1.18747227e-01 -1.59918424e-02 -1.18692592e-01 -5.06986156e-02 -2.18453109e-01 +3.00755799e-01 -7.83468634e-02 +1.09962761e-01 +2.12976754e-01 -9.41809788e-02 +4.52348799e-01 -2.55586416e-01 -1.03279255e-01 -5.85653603e-01 -2.39822328e-01 +1.12434924e-01 -1.90074652e-01 +1.42896995e-02 -3.57648060e-02 -8.83732140e-01 +2.12615550e-01 +8.51705745e-02 +9.64587182e-02 -5.49906604e-02 +4.04067747e-02 +1.40025139e-01 +1.33860871e-01 +3.20904963e-02 -3.67926627e-01 -3.17895234e-01 -2.13449165e-01 -3.67516190e-01 -1.28358096e-01 -4.98782724e-01 -2.80555035e-03 -4.01193015e-02 -3.46324146e-01 -2.79949814e-01 -7.84218833e-02 -4.26864266e-01 -1.80803463e-01 -3.43011729e-02 -3.67915370e-02 -4.48093235e-01 -1.71634048e-01 -3.39785367e-02 -5.64656496e-01 -1.27494782e-01 +3.70331466e-01 +4.76306677e-01 -2.49000564e-01 +5.62627971e-01 -1.05293699e-01 -4.15224761e-01 -2.39143163e-01 +4.70633209e-02 -3.25421363e-01 -2.49674276e-01 -1.23880014e-01 -6.23246096e-03 +2.16344431e-01 -3.97309214e-02 +2.29953587e-01 +9.54505801e-01 -2.45325238e-01 +3.24297249e-02 +4.33926433e-01 -2.82069802e-01 +1.60031527e-01 +1.72531769e-01 -2.25346923e-01 -2.83504337e-01 -3.73054624e-01 +2.75683347e-02 -3.72833639e-01 +1.61429644e-01 +9.02378708e-02 -3.51657867e-01 +1.25826776e-01 -5.54716438e-02 +1.44169286e-01 +5.46984337e-02 -4.58666980e-01 -2.34936848e-01 -1.38085321e-01 -2.23960742e-01 -7.88144693e-02 -5.27111888e-01 -7.66474307e-01 -6.61497653e-01 -1.48920547e-02 -6.69126213e-02 +1.37972593e-01 +2.69979499e-02 +1.52272776e-01 +2.88510859e-01 -3.01735818e-01 +2.71821737e-01 +4.12872255e-01 +2.19786987e-02 -4.16368805e-03 -2.99549341e-01 -4.20618318e-02 -2.83546776e-01 +1.23021804e-01 +3.20557877e-02 -1.75850928e-01 +2.21136406e-01 +1.69155076e-02 +1.08428501e-01 -3.82722579e-02 +8.59854072e-02 +2.81920452e-02 -2.43319556e-01 -6.59761429e-02 -4.62737679e-02 -1.69534013e-01 -3.57122034e-01 +3.07191312e-01 +2.50122752e-02 -1.05187953e-01 +5.90671077e-02 +1.92163344e-02 -7.02841580e-02 -9.69908461e-02 +8.73131528e-02 -2.79689655e-02 +1.45379260e-01 -1.50098100e-01 -1.58538088e-01 +9.49357897e-02 +9.52018350e-02 +2.86694288e-01 +1.74917400e-01 -3.73049617e-01 -2.17402369e-01 +1.36315152e-01 +8.12546760e-02 +9.71013233e-02 -1.56852871e-01 -9.31962132e-02 +1.65031731e-01 +1.57596439e-01 -1.06320578e-04 +4.19198722e-03 +4.88966480e-02 +1.21178083e-01 -2.26301998e-01 +3.60426575e-01 -1.99731323e-03 +2.49924868e-01 +9.81989130e-02 -6.65632010e-01 -3.90331507e-01 +1.92505270e-01 -3.63431603e-01 +1.89495191e-01 -2.36251041e-01 -8.17905664e-02 -4.38386738e-01 -1.45315588e-01 +3.58837396e-01 -4.55570370e-01 +1.75551962e-04 -6.88153207e-02 -5.44376075e-02 +3.28787006e-02 -2.01377496e-01 +1.17002279e-01 -5.76008745e-02 +1.38230130e-01 -4.55912054e-01 -1.07933603e-01 +1.32082954e-01 -2.49333099e-01 -6.54005647e-01 -2.09879596e-02 +4.10167366e-01 -2.15374768e-01 +3.38371336e-01 -4.29673553e-01 -4.31901872e-01 -8.15285593e-02 -5.91755379e-03 +4.22474980e-01 -1.98620006e-01 -7.18600154e-01 +3.71667445e-02 +1.75023124e-01 +1.57684430e-01 -2.80114502e-01 -6.73711533e-03 +6.88638508e-01 -6.64725721e-01 +1.96171850e-02 -3.73262227e-01 +1.03090540e-01 -1.32981375e-01 -3.00348401e-01 +2.29070976e-01 -6.66780770e-02 +4.96009529e-01 -2.79681861e-01 -1.10082217e-01 -3.90468121e-01 -3.80589932e-01 -4.88955863e-02 +9.36330855e-02 +3.14018339e-01 -2.80759782e-01 -2.74449289e-01 -5.70540912e-02 -2.99633592e-02 +4.50201333e-02 +2.22245194e-02 +8.47047940e-02 -1.30450667e-03 -3.97328943e-01 -2.05369189e-01 -2.48898223e-01 +1.15286738e-01 -2.64607728e-01 +3.77971739e-01 -8.60235244e-02 -3.22842300e-01 +2.62190819e-01 +2.39239305e-01 -2.59080857e-01 -5.50395250e-01 -7.65663087e-02 +3.66581418e-02 -7.56197199e-02 +6.30063340e-02 +1.28488868e-01 -1.43039286e-01 -3.16304602e-02 +2.96835080e-02 +7.34705478e-02 +1.19567893e-01 -1.32407919e-01 -3.62504989e-01 +6.16005547e-02 -2.90439606e-01 -1.63525969e-01 -9.84230787e-02 +1.26905125e-02 +2.88074106e-01 +7.81243742e-02 -7.29044341e-03 +5.65875173e-02 +2.76704490e-01 +8.57477337e-02 +1.47597298e-01 -3.24326068e-01 +2.13629872e-01 -1.48265049e-01 +6.88888505e-02 +2.57436633e-01 -9.64118019e-02 +2.31727101e-02 +1.13982745e-01 +5.64158633e-02 +2.50640541e-01 +6.10602260e-01 -1.78270042e-01 +3.19705784e-01 -4.73299660e-02 -3.68595898e-01 -2.81467568e-02 +2.79926568e-01 +7.18475282e-02 -2.06403241e-01 +1.06875801e+00 -2.35731918e-02 +3.42180520e-01 -2.09083613e-02 +9.32841301e-02 -4.18096920e-03 -1.53237730e-01 +2.55825724e-02 +2.01813325e-01 -3.70453060e-01 +9.80443507e-02 +5.52647412e-02 +9.41855181e-03 -1.79616988e-01 +3.06008905e-01 -2.55058944e-01 -4.34803441e-02 +4.23734039e-01 +1.83652863e-01 +7.58651122e-02 +7.92843401e-02 +2.10570395e-01 -2.38220487e-02 -9.06157568e-02 +2.02075139e-01 +5.75099468e-01 +3.48244444e-03 -9.33498740e-02 +2.95370013e-01 -1.16547906e+00 +9.59462225e-02 +1.93430223e-02 +5.91757596e-02 +1.07397050e-01 +4.05947745e-01 -5.41772954e-02 +3.13337922e-01 -3.66157323e-01 -8.87463167e-02 -2.67110504e-02 +5.84716678e-01 +3.86979312e-01 -2.12420989e-02 +1.43942639e-01 -1.16213426e-01 +4.63982433e-01 +2.63551176e-01 -1.24527490e+00 +3.88038099e-01 -2.59702235e-01 +3.42600122e-02 -4.05822694e-01 +2.80662835e-01 +1.18606403e-01 -3.38465601e-01 +3.47761273e-01 +2.58194625e-01 +1.57823369e-01 +9.30688307e-02 -7.02371776e-01 -3.26787710e-01 -3.32479924e-01 +3.02078784e-01 -3.28802198e-01 +5.31872272e-01 -2.41673619e-01 -6.46926090e-02 +8.29390809e-02 +2.51741707e-03 -6.40844345e-01 +1.96038917e-01 +8.21225643e-02 +3.11696410e-01 -1.89678743e-01 +2.28457022e-02 +3.95680904e-01 -6.03668466e-02 -3.32456291e-01 +2.83944845e-01 -5.31208575e-01 +8.51114020e-02 +4.56406951e-01 +2.85592258e-01 -1.76461965e-01 +3.73529404e-01 -1.69339791e-01 +3.29216838e-01 +5.37203550e-02 +1.83300108e-01 -2.20992919e-02 -1.42187640e-01 +4.68813404e-02 -2.26265416e-01 +1.93570524e-01 -1.95170298e-01 -7.56954700e-02 +1.03008159e-01 +1.28948584e-01 -3.07158232e-01 -1.93320900e-01 -1.57694519e-01 +1.64850742e-01 +5.17112054e-02 +1.10195972e-01 +2.66109351e-02 +9.14089475e-03 -1.32831290e-01 -6.79330602e-02 -1.19481990e-02 +2.41258159e-01 +1.69852018e-01 -3.19303215e-01 -1.76735401e-01 -8.52854457e-03 +1.10557191e-01 +1.76442325e-01 +3.86969782e-02 -1.51967674e-01 -2.08347514e-01 +1.78983212e-01 +1.48336262e-01 +2.31209710e-01 +4.66754377e-01 -1.51937842e-01 +2.02847600e-01 +1.95988819e-01 -2.72272676e-02 -1.53584331e-01 +4.51268435e-01 +1.17757894e-01 -2.40167081e-01 +4.39502090e-01 -1.30995870e-01 -8.99545755e-03 -2.57103503e-01 +4.59108092e-02 +3.95851284e-01 +5.60867786e-01 -2.23963469e-01 -2.70787552e-02 +1.38156965e-01 -4.82386611e-02 +5.91668896e-02 -1.54712290e-01 -7.61953741e-02 -3.41269560e-02 -1.79455131e-02 +2.31973484e-01 +1.10936053e-01 +1.11662954e-01 +1.65342644e-01 -3.68802547e-01 -3.07001639e-02 +2.13859886e-01 -5.47190666e-01 -2.32270017e-01 -1.02627780e-02 -1.46430910e-01 +3.97443563e-01 +2.98247755e-01 -2.20198080e-01 -3.67449015e-01 -2.24399730e-03 -2.77547479e-01 +9.98025239e-02 +2.08319083e-01 +3.07222158e-01 +4.34469700e-01 -6.58567488e-01 +2.52062857e-01 +6.40491545e-01 +8.37881714e-02 +3.90942842e-01 -1.33747026e-01 +1.02881908e-01 +1.55045450e-01 +1.75518189e-02 -4.43891808e-02 +8.81910175e-02 +5.06516337e-01 -4.03890133e-01 +3.97931397e-01 -4.52353321e-02 -4.64886248e-01 +5.62416255e-01 +5.44099092e-01 +1.15064360e-01 -2.03425542e-01 +3.63814443e-01 +4.52863932e-01 +1.45043567e-01 +5.18554263e-02 +9.48739886e-01 +1.86439261e-01 +4.54102516e-01 -2.83584416e-01 +1.66421384e-01 +5.40003538e-01 -4.69058268e-02 -3.52025479e-01 +2.26828054e-01 -1.53008252e-01 -3.52749318e-01 -1.48542985e-01 -4.49855745e-01 -1.24408834e-01 +3.50231528e-01 +2.48412937e-01 +1.71701059e-01 +8.84740353e-02 +4.54318196e-01 +5.37338197e-01 +1.36997283e-01 +1.36113614e-01 -1.21946476e-01 -9.35773831e-03 -1.17239356e-01 +2.61802878e-02 +3.49133611e-02 +1.95872575e-01 -1.51018307e-01 -2.08997995e-01 -9.12419930e-02 -1.00510970e-01 +1.37040719e-01 +7.37478063e-02 +2.53370434e-01 +1.68195561e-01 +4.69984040e-02 +7.25857392e-02 -3.32333207e-01 -2.44529784e-01 +1.03268288e-01 -3.04809809e-01 +1.40700370e-01 -2.44659588e-01 -3.23060423e-01 +1.77425057e-01 -1.84184343e-01 -6.22891150e-02 -1.77754328e-01 -1.13148175e-01 +9.16810855e-02 +4.02565487e-02 -4.36870791e-02 -1.21811718e-01 +3.65836103e-03 -1.24226958e-01 +3.93504202e-02 -2.78732236e-02 -3.74024004e-01 -2.73980618e-01 +4.50565875e-01 -9.26709846e-02 +1.61696061e-01 -2.43134778e-02 +2.82885462e-01 +3.58802527e-01 +2.67183334e-01 -2.76294649e-02 +4.79677111e-01 +4.57493812e-01 -3.16848785e-01 +2.49033067e-02 +3.12583864e-01 +4.00388002e-01 -1.69002250e-01 -4.92161103e-02 -1.80161536e-01 +2.09059805e-01 +3.68940175e-01 -5.32997966e-01 +6.91992164e-01 +9.62990671e-02 +3.62953454e-01 +2.36998305e-01 -5.20255923e-01 +9.19618756e-02 +4.59046692e-01 -2.45533153e-01 +3.82762291e-02 -4.83131051e-01 -1.11921921e-01 -6.60315216e-01 +2.76448011e-01 -6.73358381e-01 +7.92894363e-02 +7.80468658e-02 +9.14945185e-01 -6.53713942e-01 +2.86196858e-01 -5.37543058e-01 +2.59773910e-01 -3.06949377e-01 -6.17247485e-02 -3.42100114e-01 -1.04573131e+00 +1.99641272e-01 +1.43507525e-01 -2.33327895e-01 +1.18435323e+00 +3.08555067e-01 +3.10090810e-01 -7.25334883e-01 +3.49243760e-01 +4.77319181e-01 -2.51391292e-01 -7.16208041e-01 +2.78933793e-01 -2.21684575e-01 -5.47922611e-01 -3.71775717e-01 -3.14441144e-01 +4.25935179e-01 +8.41945261e-02 +1.23336606e-01 +6.90610051e-01 -4.64153290e-01 -1.16272986e-01 +1.94670379e-01 +3.12128365e-01 +6.51276931e-02 +1.91321805e-01 +1.71668380e-01 +5.86624324e-01 +5.19491494e-01 -1.09714046e-01 -5.36543846e-01 -3.51744950e-01 +2.55295664e-01 +2.98406947e-02 -6.52635321e-02 +7.73127198e-01 +5.35502248e-02 +8.74713898e-01 -1.82340145e-01 +6.19240820e-01 +9.34593320e-01 +3.19758236e-01 -9.15054604e-02 +7.40586162e-01 +4.60718662e-01 +2.16639102e-01 -1.14394642e-01 +2.86310315e-02 +1.35490179e-01 +1.07363872e-01 +4.80283380e-01 +6.64920881e-02 +3.36669646e-02 -2.73808790e-03 +4.41522926e-01 +1.37753829e-01 -2.71452188e-01 +1.00032762e-01 +8.56773853e-02 +1.03850495e-02 -1.74804389e-01 +1.03628621e-01 -1.30078001e-02 -2.14504730e-02 -1.00342996e-01 +3.62232774e-02 +1.33266956e-01 -1.68585092e-01 +3.13378006e-01 +1.37536466e-01 +1.91452214e-03 +7.81435817e-02 -1.55349568e-01 +4.70495820e-02 +2.04439387e-01 -4.76657338e-02 +1.45261049e-01 +5.97291768e-01 -4.60812971e-02 -1.12182505e-01 -5.92121668e-02 +1.75782770e-01 +4.60684039e-02 +4.92205936e-03 -1.52969494e-01 +4.25260454e-01 +7.61832204e-03 -3.08086306e-01 -2.71859735e-01 +1.59073666e-01 -8.02749395e-02 -1.09239586e-01 -8.57555941e-02 +5.34835607e-02 +1.97637081e-01 +2.66086847e-01 -3.98365617e-01 +6.03893399e-02 +3.14777315e-01 +3.12174961e-04 +6.88285157e-02 +8.94005299e-02 +3.30280006e-01 +2.48833030e-01 +2.65441881e-03 -1.64444566e-01 +1.61402985e-01 -1.43017503e-03 -3.18669975e-01 +4.62212980e-01 +8.25419724e-01 +2.71748513e-01 -3.99123877e-01 +5.12621403e-01 +1.34194708e+00 +2.17310995e-01 +1.95570797e-01 -1.06293464e+00 +1.65110499e-01 +1.61489740e-01 +1.50093734e-01 +1.19671077e-01 +8.62466693e-02 +5.64257987e-02 -5.63565075e-01 -5.63438773e-01 -4.17353451e-01 +8.18085313e-01 +5.04226722e-02 -5.46667695e-01 +4.67078358e-01 -2.71554827e-03 -5.10562286e-02 -2.12376192e-01 -1.75727084e-01 -5.05297363e-01 +7.31132971e-03 -1.07824914e-01 +1.66804671e-01 +3.82484198e-01 +1.85903043e-01 +1.28529206e-01 +5.66210151e-02 -5.20624556e-02 -1.80551469e-01 +1.60914674e-01 -2.02451706e-01 +3.55270326e-01 -8.93513858e-01 +1.08737499e-01 -3.33498657e-01 +4.04425591e-01 -1.40453979e-01 -5.67158461e-01 +4.17094715e-02 +1.02442324e-01 -2.97671080e-01 -3.52750160e-03 -4.16372158e-03 -1.30151669e-02 +4.77203391e-02 +3.00711781e-01 +1.26965269e-01 +3.08678746e-01 -1.47038668e-01 -3.99555713e-01 -1.33288115e-01 -3.04020613e-01 -2.41933033e-01 -3.15586120e-01 +4.90579344e-02 +4.59420979e-01 +1.80195272e-01 -4.57519814e-02 -6.69910386e-02 +1.59778967e-01 -2.70333383e-02 +2.06933379e-01 +3.60098714e-03 +1.09837182e-01 +1.44294083e-01 -1.51069283e-01 +2.49271348e-01 +6.30585402e-02 -1.00957394e-01 -1.77904397e-01 -7.38781989e-02 -1.31492332e-01 +1.29610330e-01 +2.14961037e-01 +2.65796512e-01 -6.17634505e-02 +2.36154303e-01 -3.40721130e-01 +2.19578043e-01 +1.26051724e-01 +3.41031671e-01 +1.51444718e-01 +3.09266627e-01 +1.68855608e-01 +1.15186557e-01 -4.40323144e-01 -3.18849832e-02 +1.24198815e-03 +8.20928663e-02 -3.49965185e-01 -9.02212635e-02 -1.89935923e-01 +3.05288322e-02 -3.13326657e-01 +1.14785016e-01 -2.97582507e-01 -2.50107050e-01 -1.04960509e-01 +1.49129227e-01 -1.83500111e-01 -2.32799411e-01 -7.76667446e-02 -3.10972482e-01 -1.59940906e-02 -8.27862993e-02 +1.42883256e-01 +3.10952753e-01 -4.70707119e-01 -4.56471860e-01 +7.13330433e-02 -1.67137459e-01 -1.15975715e-01 +2.79363751e-01 +1.76369309e-01 +3.66614424e-02 -6.68205142e-01 -1.26520932e-01 -3.58238518e-01 +3.12179122e-02 -2.09417269e-01 -6.79665850e-03 +2.61778216e-04 -3.61014694e-01 +5.79354942e-01 +2.08119005e-01 -1.63033292e-01 -3.02646548e-01 -3.11009228e-01 -7.46444911e-02 +1.42934648e-02 -3.55071217e-01 -3.01258296e-01 +5.33095419e-01 -4.96589281e-02 +5.86731210e-02 -1.40016288e-01 -2.00095430e-01 -2.37812195e-02 +4.07754481e-01 +1.32394314e-01 -7.25389421e-02 +1.15516409e-01 +2.14019969e-01 -2.11010396e-01 -5.88540196e-01 +4.95852709e-01 +2.95459360e-01 -1.67159587e-01 -5.05717881e-02 +3.24336827e-01 +2.95829326e-01 -7.28256881e-01 +7.08207190e-02 +5.07026911e-01 +5.58984518e-01 -1.84628949e-01 -3.67923081e-01 +1.33033812e-01 +3.46177369e-01 -6.24499083e-01 +6.22272193e-01 -2.31656149e-01 +3.05141598e-01 -7.19951332e-01 -8.77141654e-02 +4.24415439e-01 -6.29091442e-01 -3.79307389e-01 -1.56402439e-01 +5.68929985e-02 +3.42047036e-01 -4.90590900e-01 -3.26723069e-01 -4.10198659e-01 -3.16905707e-01 -5.50024509e-01 -7.15402007e-01 -2.14070082e-01 +1.23631731e-01 -6.73018873e-01 -4.96127494e-02 -1.46198437e-01 +1.35446683e-01 -1.36055961e-01 -1.98277742e-01 -3.50037217e-02 +2.26425864e-02 -6.03265055e-02 -1.32544607e-01 -6.54640019e-01 -8.24027285e-02 +3.04585267e-02 +1.16653316e-01 +1.37000203e-01 -1.15245067e-01 -1.55761436e-01 +2.17354327e-01 -8.79928097e-02 +7.50709102e-02 +2.26248637e-01 -1.65715337e-01 -3.03996224e-02 -1.57098740e-01 +2.15675324e-01 +1.23505399e-01 +1.60282366e-02 +7.82535151e-02 +2.95732841e-02 -3.08524668e-01 -1.65390763e-02 +2.61854529e-02 +6.33630529e-02 +7.56125078e-02 +6.08156770e-02 -1.18306376e-01 +7.53037035e-02 +1.45939246e-01 +2.34527811e-01 +1.00438856e-01 -4.45162505e-02 -2.24871084e-01 +3.01110774e-01 -3.44034970e-01 +7.23866701e-01 -1.26980439e-01 +6.85114026e-01 +3.69368494e-01 +1.40591055e-01 +6.97615370e-02 +9.83498842e-02 +9.69058797e-02 +2.98817366e-01 +1.18380241e-01 +4.19799536e-01 +2.92333722e-01 +3.60815078e-01 +4.78326321e-01 +5.75461388e-01 -3.46278965e-01 +7.63058186e-01 +9.43263173e-02 -1.47187516e-01 +8.19992945e-02 +6.33111000e-01 -1.51442885e-01 +3.37495625e-01 +3.97232771e-02 +1.73772961e-01 +1.86384216e-01 +4.21319336e-01 +3.79441172e-01 +7.32482851e-01 -8.09481263e-01 -4.66006666e-01 +3.14777076e-01 +3.46150726e-01 +1.28006926e-02 -2.91987240e-01 +5.82005560e-01 +1.00655481e-01 -2.24876627e-01 +3.60969990e-01 +2.89521039e-01 +2.48937368e-01 +1.58342004e-01 -1.18487306e-01 +4.18832242e-01 -5.31111704e-03 -2.47266129e-01 -2.02897444e-01 +4.51558948e-01 +1.05122991e-01 +1.01738162e-01 +1.47913083e-01 -2.89143443e-01 +3.38085115e-01 +3.28949571e-01 -3.79218489e-01 +1.15223743e-01 +4.04639393e-02 +6.65689483e-02 -5.01408041e-01 -2.63199627e-01 -3.61113429e-01 +3.75013620e-01 -1.26212388e-01 +3.61414164e-01 +7.84317791e-01 +6.64577007e-01 -1.02550045e-01 +9.93237197e-01 +7.71911666e-02 +2.36988083e-01 -1.76147942e-03 +8.75476301e-01 +4.50144351e-01 +6.37457490e-01 +5.20381987e-01 -1.58037953e-02 +6.18464172e-01 +4.73167241e-01 +2.05155835e-01 -1.45097021e-02 +4.27458733e-01 +5.27146280e-01 +6.76375389e-01 +2.98332095e-01 +4.61168915e-01 +2.60121644e-01 -1.97382301e-01 +1.02661870e-01 +1.84468746e-01 +4.08065617e-02 +2.28082448e-01 +5.21577448e-02 -9.04973671e-02 +1.98560238e-01 +2.81140655e-01 +2.23427668e-01 +2.83913463e-01 -1.14666127e-01 -1.81607440e-01 +8.06563735e-01 +2.44717196e-01 +1.87767982e-01 +3.24781597e-01 +4.04523939e-01 -2.20562797e-02 +9.63927731e-02 +1.53336644e-01 -1.18193299e-01 +3.71080101e-01 -8.24767649e-02 +2.91300025e-02 +2.17540026e-01 -3.97704870e-01 -5.67277856e-02 -2.08181933e-01 +4.11001667e-02 -1.04076117e-02 +8.87459144e-02 -9.22271162e-02 -8.96804035e-03 +7.15139657e-02 -2.05554254e-02 +1.62481382e-01 +1.00742042e-01 +3.69140625e-01 +4.75201085e-02 -2.38752458e-02 -5.14909267e-01 +5.60730577e-01 -1.68573871e-01 +7.01734424e-03 -1.74905449e-01 -1.14108786e-01 +1.14371747e-01 +2.18931958e-01 -1.40537962e-01 +5.81440389e-01 +4.24973696e-01 -1.95480324e-02 +2.07606196e-01 +8.61847922e-02 -2.25899160e-01 -1.58286884e-01 -2.67854661e-01 +1.54020146e-01 -1.71904638e-01 +1.14595734e-01 -1.62506893e-01 +3.65064353e-01 +1.20417550e-01 -1.64663196e-01 +2.77572781e-01 -2.50510067e-01 +1.03187688e-01 +1.69057652e-01 +4.96731214e-02 +3.80107999e-01 -3.62554848e-01 -1.01624906e-01 -2.49373600e-01 +4.66990024e-02 -1.55414701e-01 -5.08640409e-01 +2.37190165e-02 +9.43311751e-01 -4.39885914e-01 -4.48609293e-01 -2.19418794e-01 -5.88769428e-02 -6.22623086e-01 -2.80864388e-01 +3.47569436e-02 -8.08904827e-01 -1.27533615e-01 -6.94229603e-01 -4.65637743e-01 +8.54433179e-01 -4.08709854e-01 +2.06248924e-01 -4.32845235e-01 +4.32908684e-01 -1.12336203e-01 +1.43760666e-01 -1.82662115e-01 +5.77514805e-03 +8.44642147e-02 -1.89956948e-01 +1.14912994e-01 -6.50909310e-03 +4.97957200e-01 +5.23754917e-02 +3.22006494e-01 +8.84505153e-01 -3.00431579e-01 -1.34567022e-01 +2.58567065e-01 +5.90188265e-01 +4.90119666e-01 -3.69777121e-02 -3.55592579e-01 +3.32630426e-01 +6.84170663e-01 -2.03462273e-01 -4.43592429e-01 -3.18139702e-01 -1.38654500e-01 -3.96153867e-01 -4.05781358e-01 +3.09254348e-01 -6.37553334e-01 +6.51447594e-01 +3.62905830e-01 +5.16007878e-02 +4.09339339e-01 -1.45836502e-01 +2.05398604e-01 +3.06545794e-01 +4.61572051e-01 +1.35134906e-01 +9.29925311e-03 +5.54365106e-02 -5.88264093e-02 +1.26366140e-02 +5.51871777e-01 +2.33860359e-01 +2.20746517e-01 +5.63905537e-02 +1.90078378e-01 +8.16458389e-02 -2.77965397e-01 -1.18801489e-01 +1.49310390e-02 -1.01115920e-01 -1.94554836e-01 +1.27527386e-01 +1.05311543e-01 -2.07130872e-02 +1.40231892e-01 +1.16466098e-02 +1.62200838e-01 +8.10247287e-02 +7.74584189e-02 +2.05107212e-01 +6.46900982e-02 +1.73623100e-01 -2.27672935e-01 -1.29966050e-01 +1.77994817e-01 +3.96260530e-01 -1.58623353e-01 -1.12390414e-01 +3.12714428e-01 +2.01022595e-01 -2.04751119e-01 -2.44059358e-02 -5.33706307e-01 +6.98032081e-02 -9.71052796e-02 -2.79617190e-01 -5.46741843e-01 +2.41148189e-01 -4.02835943e-02 +2.04234570e-01 -2.04800308e-01 +1.59788981e-01 +6.72908783e-01 -1.38103208e-02 +2.41523221e-01 +4.45927158e-02 -2.53710479e-01 +1.43643051e-01 -2.99450129e-01 -9.47413817e-02 -2.31521115e-01 -3.73976491e-02 -4.37647462e-01 +3.91847372e-01 +4.30149555e-01 -3.34749967e-01 +3.39632541e-01 -3.04530501e-01 +4.75531429e-01 -1.22266717e-01 -1.68191105e-01 -6.61812797e-02 +4.84227575e-02 +7.61826560e-02 -9.15526032e-01 +1.33383516e-02 -1.28917903e-01 +3.06414694e-01 -2.76926696e-01 +6.13038898e-01 -6.00822978e-02 -2.38485947e-01 -1.02303075e-02 +1.56511486e-01 -3.25197190e-01 +1.54679427e-02 -1.14333360e-02 -4.23248082e-01 -2.53314676e-04 +2.03764997e-02 -5.22043630e-02 +1.05516720e+00 -6.91452548e-02 -3.87095148e-03 -1.87489539e-01 +1.22594762e+00 +8.23896229e-02 +3.24212581e-01 -6.98701203e-01 +5.06176174e-01 -2.19484746e-01 +5.10200299e-02 +8.16434845e-02 -2.02925473e-01 -1.02043577e-01 +2.05692783e-01 -3.24761361e-01 -9.94406864e-02 -4.27760482e-01 +1.67453170e-01 -3.61870795e-01 +3.43567103e-01 +1.51967794e-01 +3.28919291e-01 +1.29717821e-02 -7.56287649e-02 -2.27471679e-01 +1.28603742e-01 -2.01258212e-01 -7.03912154e-02 -1.32739231e-01 -3.22813958e-01 -1.13233022e-01 -6.37086704e-02 -4.91269559e-01 -8.58378597e-03 -2.20501889e-02 +5.25330186e-01 +6.00522041e-01 +1.16130747e-01 -2.83550143e-01 +5.43619037e-01 +3.21586549e-01 +2.43302524e-01 +8.80289376e-02 +1.19657010e-01 -7.25773349e-02 -3.58611606e-02 +5.28681055e-02 +2.90440097e-02 +1.76611587e-01 +3.10227810e-03 -2.17735857e-01 +8.43099803e-02 +3.81439105e-02 -1.45289406e-01 -3.35634276e-02 -5.39886914e-02 -2.97560900e-01 +1.78773001e-01 -1.59740329e-01 -3.52067709e-01 -1.41106397e-01 +4.29628015e-01 +2.44829431e-02 -2.18708254e-02 +8.12080353e-02 +1.98386341e-01 +4.55928706e-02 -8.58617723e-02 -2.50073731e-01 -7.26621971e-02 +1.72977597e-01 +8.47194567e-02 -1.23867579e-01 -6.83510453e-02 -6.92005381e-02 +2.03567848e-01 +4.87649381e-01 -2.20711052e-01 +2.95395136e-01 -1.40204176e-01 +1.60889119e-01 -3.43415946e-01 +9.98068005e-02 -8.35409760e-03 -2.39292786e-01 +1.42695412e-01 +1.90068528e-01 +2.58891910e-01 -6.48467064e-01 -7.06158057e-02 -1.41305462e-01 -2.92394459e-01 +1.08309418e-01 -3.79191071e-01 +3.08164030e-01 -2.22368404e-01 +3.46671790e-02 +1.40767887e-01 +3.37974310e-01 -5.16463161e-01 +1.22313641e-01 +2.42229149e-01 -8.14828873e-02 +2.96357870e-01 -2.00434491e-01 +7.11088061e-01 -1.82418942e-01 -1.90077007e-01 +4.18908864e-01 -1.43157721e-01 +2.27556229e-01 -9.09071207e-01 -6.53998911e-01 -2.81131893e-01 +1.37252912e-01 -2.55145460e-01 +2.41798423e-02 +1.11887015e-01 -3.74609113e-01 -2.53153533e-01 +2.95825154e-02 +4.33430746e-02 -6.17294490e-01 -2.56239828e-02 -2.63287514e-01 -3.51390779e-01 -9.36522931e-02 -7.87734270e-01 +3.25452596e-01 +1.80512339e-01 -6.03214383e-01 -7.05334127e-01 -3.91166896e-01 -1.39400899e-01 +5.83464265e-01 -4.37536031e-01 +2.62751952e-02 +2.31793642e-01 +1.51924595e-01 +3.42713982e-01 +2.15587746e-02 -7.02295545e-03 -2.37480365e-02 -5.49415767e-01 +1.51945516e-01 +3.52243073e-02 -4.79385018e-01 -1.74224481e-01 -5.03032148e-01 +2.74837524e-01 -4.67785567e-01 +2.64741957e-01 -5.46388477e-02 -2.09217802e-01 +4.52537775e-01 -3.70473593e-01 -3.74761760e-01 -4.90250997e-02 -2.53190190e-01 -3.20091248e-02 -4.07555401e-01 +1.71897411e-02 -2.32388541e-01 -9.28795397e-01 +1.99763358e-01 +1.76985100e-01 +1.80178136e-02 -2.82501131e-01 -3.03304762e-01 -1.80409662e-02 -2.97268201e-02 -1.90048337e-01 +1.06770918e-01 -8.53849947e-02 -2.44171500e-01 -1.06856443e-01 +1.50518427e-02 -8.94546062e-02 -1.00537002e-01 -1.18326142e-01 +2.43562385e-02 -1.31376743e-01 -1.38429999e-01 +2.72969544e-01 +2.61255294e-01 +3.61022763e-02 -3.19532752e-02 +2.20170781e-01 +2.45261751e-02 -3.70448947e-01 -5.71626052e-02 +2.20268089e-02 -6.59368560e-02 +1.00428089e-01 +2.86844242e-02 +4.28216644e-02 +4.22221452e-01 -1.49076417e-01 -2.43789941e-01 +7.74967670e-02 -1.95450097e-01 +2.10464254e-01 -5.51180303e-01 +1.13229670e-01 +1.33519217e-01 -3.27284709e-02 -5.76549582e-02 -8.16790387e-02 +1.97412118e-01 +3.07175028e-03 +2.11982742e-01 -1.09356500e-01 +2.36278147e-01 -5.25339842e-02 +9.26513597e-02 +9.79103446e-02 -1.89578161e-01 -8.83857533e-02 +5.20513859e-03 +3.25493068e-01 +2.03394309e-01 +3.46832514e-01 +1.44117875e-02 -1.59524649e-01 +1.05531096e-01 +1.81633115e-01 -3.34882259e-01 +1.41222656e-01 +4.55866475e-03 +1.74063742e-01 -5.28856218e-01 -8.60928074e-02 -5.53425848e-01 -5.45727789e-01 +3.55500042e-01 +2.62417197e-01 -5.71377501e-02 +8.32414478e-02 +2.34395087e-01 +3.90135497e-02 -3.89438838e-01 -2.00183481e-01 -4.53322604e-02 +3.15296888e-01 +1.20981373e-01 -4.62854892e-01 +4.89522293e-02 -6.06846094e-01 -3.82908672e-01 -5.87458387e-02 +1.92726567e-01 -9.44733173e-02 +3.37160438e-01 -9.56296265e-01 +2.41220340e-01 -2.45321289e-01 +4.42533553e-01 -1.32779796e-02 -7.56456912e-01 -2.97635198e-01 -3.59663129e-01 -3.16317379e-01 -2.82527000e-01 -5.46102822e-01 -1.11937448e-01 -9.70430970e-01 -4.48795930e-02 +1.26707628e-01 +7.81419456e-01 -3.14932615e-01 +3.30025792e-01 +6.10167868e-02 -2.04637781e-01 +2.38751560e-01 +5.71521595e-02 +2.10979152e-02 -3.59159321e-01 -9.09383774e-01 +9.23908316e-04 +4.17405337e-01 +1.26800388e-01 -1.02575846e-01 +2.35808864e-01 +1.58040807e-01 -2.95304328e-01 +1.97722331e-01 -2.56907076e-01 +2.96861261e-01 +3.08955163e-01 +4.66327965e-01 -7.60789216e-02 -4.64608639e-01 +4.95072931e-01 +3.02795619e-01 -1.61258131e-01 -7.52650574e-02 -6.82199150e-02 -9.60131437e-02 -8.31027776e-02 -1.06707409e-01 +1.36551768e-01 -5.36820255e-02 +4.16345209e-01 -9.55852419e-02 -1.82225555e-01 +6.94838632e-03 +3.12141269e-01 -1.29969820e-01 +9.04680043e-02 +2.00697526e-01 +3.97443026e-02 +8.35968331e-02 +2.80628026e-01 -3.89155522e-02 +3.29832256e-01 +6.63761199e-02 -6.71244413e-02 -2.74580419e-01 +2.16975793e-01 -2.19640836e-01 -2.01647982e-01 +1.30236328e-01 -3.10845822e-01 -2.27718297e-02 +2.22205639e-01 +3.36709589e-01 -1.53121039e-01 -2.62857974e-01 +2.87020743e-01 -2.54036844e-01 +2.90714324e-01 -2.12751269e-01 -7.16253296e-02 +6.18619174e-02 +6.40748888e-02 -2.89514989e-01 -3.14049311e-02 -5.19922152e-02 +4.30768669e-01 -1.01929205e-02 -6.28566563e-01 -2.41364017e-01 -1.83164075e-01 -2.44116068e-01 -7.51251951e-02 +4.13215190e-01 +7.24825412e-02 -3.41890194e-02 -2.68364549e-01 +6.15069568e-01 -1.10834777e-01 +2.72814184e-01 -1.12840138e-01 +7.01433942e-02 +1.06615707e-01 -5.54195456e-02 +5.59579991e-02 +1.51351869e-01 -4.70882617e-02 -9.89416912e-02 +5.73480017e-02 +7.82142277e-04 -3.96288395e-01 +7.91247010e-01 -2.60405689e-01 -3.30332041e-01 -1.07893281e-01 -3.05382639e-01 +8.26993585e-01 +8.84135813e-02 -2.64545709e-01 -1.39523315e+00 +3.25134128e-01 +6.48315102e-02 +4.18248959e-02 -3.98614854e-01 -6.52751178e-02 +4.07396436e-01 -5.42016566e-01 +8.22204471e-01 +1.40854239e-01 -1.31997526e-01 +5.85865557e-01 -1.13824058e+00 -7.92211056e-01 -2.82936633e-01 +6.40973628e-01 -2.57665902e-01 -2.34946236e-01 -4.04773384e-01 +2.49248013e-01 -2.83244431e-01 +1.37114927e-01 +2.21791118e-01 +4.01500314e-01 +3.98648530e-01 -1.47466838e-01 +1.75050944e-01 -6.06623329e-02 +1.89777032e-01 +5.92986345e-01 -1.00389272e-01 +3.25619012e-01 -2.95170665e-01 -1.59391165e-01 -3.77701253e-01 -4.98844713e-01 -2.38259528e-02 -1.27946272e-01 +6.53015554e-01 +1.34042695e-01 +2.28604808e-01 -3.91362756e-01 +3.23747784e-01 -1.28300086e-01 -3.27149957e-01 -5.49096689e-02 -3.17627758e-01 +2.92306691e-01 +1.06036868e-02 -1.45824865e-01 +1.95535481e-01 +1.83127865e-01 +1.98826343e-01 -3.07281226e-01 +4.55854647e-02 +7.34461769e-02 +8.32256228e-02 -1.51717678e-01 -5.62645197e-01 -1.54943436e-01 +6.18916377e-02 -4.86268476e-02 -6.79589924e-04 -1.07758895e-01 -4.58778888e-01 +1.88382193e-01 +6.33979291e-02 +1.85302019e-01 -1.90446392e-01 +3.63270864e-02 -2.33637094e-02 -1.69762298e-02 +2.88366795e-01 -1.87065154e-01 +1.00886643e-01 -1.34352162e-01 -2.30475381e-01 +2.33856589e-02 -1.78452387e-01 +4.28066440e-02 +4.80197482e-02 +2.75861412e-01 -1.33157089e-01 -3.33612710e-02 +2.12210819e-01 -1.77856699e-01 +3.74651372e-01 -3.43139648e-01 +9.51746479e-02 -2.29383841e-01 -5.99758551e-02 -2.18630601e-02 -2.59597063e-01 +7.91283771e-02 +1.13943234e-01 +1.51525356e-03 -1.89992570e-04 +1.94035202e-01 +3.43122512e-01 -5.07837124e-02 +4.05288897e-02 -2.01832484e-02 +6.51568174e-02 -1.74889654e-01 -3.70662838e-01 -1.34296477e-01 +1.24623023e-01 -2.46313184e-01 +1.00500353e-01 +4.31923829e-02 +9.82102603e-02 -5.42114004e-02 -1.51503474e-01 +6.12129783e-03 -2.27615926e-02 -3.70777458e-01 -4.67632487e-02 -5.75269818e-01 -8.91856179e-02 -3.33987139e-02 +2.49348655e-01 -4.15682495e-01 +9.40877795e-02 +2.09181353e-01 +8.32040906e-02 -4.83222485e-01 -3.23428005e-01 +4.81631570e-02 +1.60917640e-01 +1.45533502e-01 -7.11037293e-02 +3.94818038e-01 +8.57621208e-02 -2.26063058e-01 -2.54991710e-01 -1.31098107e-01 +1.03306317e+00 -7.23502040e-02 -7.05833256e-01 +7.09450901e-01 -1.56999543e-01 +9.08852875e-01 -5.38024962e-01 -1.88461483e-01 +5.66060245e-01 -3.06673557e-01 -1.85851574e-01 -2.50265867e-01 +5.17572641e-01 -8.10623635e-03 -3.07527602e-01 -2.23117135e-03 -3.58379394e-01 -2.48495638e-01 -5.14516979e-02 +5.13826646e-02 -6.28377199e-01 -4.12962407e-01 +5.18146813e-01 -1.44544631e-01 +5.70786476e-01 -1.93184823e-01 -2.14539751e-01 +4.82961833e-01 +3.84397209e-02 -7.40443245e-02 +9.23097655e-02 +3.10713071e-02 +1.98838353e-01 +6.81828558e-02 -2.58456737e-01 +2.46690854e-01 +4.31396961e-01 +1.73232928e-01 +2.84992039e-01 -3.88512045e-01 +8.27854425e-02 -1.80717275e-01 +1.10853709e-01 -2.41861328e-01 -1.27127126e-01 +4.42445725e-02 +8.59014913e-02 +3.60468999e-02 +1.53595567e-01 +3.31007272e-01 +1.57224759e-01 +4.81364019e-02 +1.14315979e-01 +1.70997635e-01 -8.67037941e-03 -1.52859136e-01 +2.51517355e-01 +4.32769395e-02 -2.89984286e-01 -2.60233939e-01 -1.18726827e-01 -2.25972403e-02 +5.69259748e-02 +2.82240093e-01 -4.65719044e-01 +1.02305651e-01 +1.83803946e-01 +3.33719581e-01 +1.20291010e-01 -5.87956011e-01 +1.36704206e-01 -3.11136901e-01 -4.20910008e-02 +1.11465119e-01 +2.56605029e-01 -8.63657668e-02 -1.12307807e-02 -3.38865593e-02 +1.02348112e-01 +2.49414034e-02 -2.90334165e-01 +1.79326028e-01 -6.35372996e-01 +1.05253570e-01 -9.68377516e-02 +1.90363854e-01 +6.42383993e-02 +6.20355830e-02 +2.10528970e-01 -2.13108733e-01 +2.43872136e-01 +4.24949914e-01 +3.41832519e-01 +1.48565978e-01 +1.34211630e-01 -7.23209009e-02 -4.11162600e-02 +8.35451484e-02 +2.19981018e-02 -2.21752241e-01 +3.46793324e-01 +7.67804444e-01 +3.49700093e-01 -2.42062926e-01 +2.90398240e-01 -7.52921999e-02 +7.33426988e-01 +3.51573765e-01 +5.65836653e-02 +4.97023501e-02 +6.12855792e-01 -2.36628816e-01 +5.72483063e-01 -2.75303245e-01 -5.80340624e-01 -4.29665357e-01 +1.69250369e-01 -3.21340151e-02 +3.16837519e-01 +2.49483973e-01 -3.97104472e-02 -6.59223914e-01 +4.40630555e-01 -5.18910885e-01 -6.75448850e-02 +3.80269408e-01 +9.63535309e-02 +4.69853207e-02 +1.77209646e-01 -1.31662190e-01 +2.81473637e-01 +5.43349028e-01 -2.16011733e-01 -2.83701003e-01 +3.80887955e-01 -2.90119648e-01 +4.44596291e-01 +3.75896782e-01 -1.36547372e-01 +1.17654838e-01 -3.04377943e-01 +1.35860905e-01 -1.07330129e-01 -5.57941943e-02 +1.33808672e-01 -1.80020988e-01 -4.46301877e-01 -2.15988740e-01 +5.48497997e-02 +6.96897209e-01 -1.53528720e-01 +8.78362954e-02 +2.27588549e-01 +2.18362316e-01 +4.93795753e-01 +1.42979607e-01 -7.37013370e-02 +1.74728110e-01 +4.82158273e-01 +3.10721427e-01 +5.29129863e-01 +3.01530957e-01 -2.56578475e-01 +1.96226478e-01 -7.08657205e-02 -1.72815159e-01 +1.60964012e-01 -3.13861668e-01 +5.07001698e-01 -7.36143440e-02 -1.61049008e-01 +1.93368092e-01 +5.75872064e-02 -6.42322423e-03 +5.60377479e-01 +2.68747300e-01 -6.46594306e-03 +2.39760414e-01 +3.32800262e-02 -6.94023669e-02 -1.01855792e-01 -1.29616514e-01 +7.59292021e-02 -4.08467427e-02 +1.68384075e-01 +4.10965115e-01 -3.89109626e-02 +1.52171329e-01 +7.65977576e-02 +2.34072044e-01 +1.14135623e-01 -2.05629542e-01 +2.79959142e-01 -3.22467923e-01 -1.36759775e-02 +1.02545284e-01 -4.22927558e-01 +1.83076888e-01 +5.49732745e-02 +6.23143464e-03 +7.52805173e-02 +1.71246886e-01 +4.49917763e-02 +1.20560035e-01 -2.99080104e-01 +1.67647198e-01 +1.00402527e-01 +9.68818516e-02 -2.28933319e-01 -1.15333110e-01 -8.48676115e-02 -3.24697107e-01 +6.17481768e-01 +2.51170278e-01 +4.93123122e-02 +1.32938977e-02 +4.31886971e-01 -2.43405432e-01 +1.71387434e-01 +3.37380588e-01 +3.15098256e-01 -7.59664644e-03 +7.43677020e-02 +2.64375180e-01 +3.50108653e-01 +2.44923830e-01 +5.38553834e-01 -1.82953000e-01 +6.85543716e-01 +1.70835629e-01 +1.39986336e-01 -9.23361927e-02 +4.90532726e-01 +1.47535577e-01 +7.53057182e-01 +3.05435985e-01 +5.89989662e-01 +1.92723110e-01 +3.56403440e-01 +1.35293290e-01 +1.02291620e+00 -4.99608696e-01 -6.36526048e-01 +3.31203192e-02 +3.70564222e-01 +9.93888676e-02 +3.04057866e-01 +2.04784706e-01 -2.80823976e-01 -7.62025774e-01 +7.57520080e-01 -1.49755612e-01 +2.13134453e-01 +4.50475395e-01 +2.88915366e-01 +1.70961857e-01 +2.51357168e-01 +2.56472915e-01 +1.15325980e-01 +7.91628957e-01 -5.77577174e-01 +6.73912883e-01 -2.51816124e-01 -4.60692346e-01 +6.95734978e-01 +4.48264182e-01 -2.05755457e-01 -2.83836901e-01 -2.98177507e-02 +3.18650365e-01 -7.75167763e-01 +9.51856002e-02 +4.28558409e-01 +6.72701418e-01 +7.53466412e-03 -1.43859252e-01 +6.09347403e-01 +5.86524487e-01 -1.70437410e-01 +1.20034575e-01 +2.96229929e-01 -3.58584166e-01 -1.82788998e-01 +1.37804973e+00 +5.12562394e-01 +1.79139078e-01 +8.15677464e-01 +1.54481351e-01 +8.93565893e-01 +4.51265186e-01 +5.92834949e-01 +2.17021421e-01 +4.77003098e-01 +7.14657485e-01 +2.38457561e-01 +1.53181525e-02 +9.09310281e-01 +5.89000702e-01 +2.16910377e-01 +3.23899165e-02 +3.76948297e-01 -7.46194348e-02 +4.72519577e-01 +2.34347865e-01 +6.47980869e-02 +1.40377179e-01 +1.81555375e-01 +2.59204730e-02 +2.60632634e-01 -1.19854942e-01 -2.01499581e-01 +2.70092517e-01 +1.21221021e-01 +2.85291731e-01 +1.63229436e-01 +3.39386493e-01 -2.00035676e-01 +2.43380800e-01 -9.97244939e-03 +5.25432266e-02 +2.39542022e-01 -1.43970072e-01 +6.36898447e-03 +1.44453883e-01 -9.39989090e-02 +1.14017129e-01 -9.43574309e-02 -5.50980195e-02 -5.36713600e-02 +1.53255686e-01 +2.85778493e-02 +1.17945231e-01 +9.39161628e-02 -1.55450776e-01 +3.63602161e-01 -2.37295181e-01 -2.63372719e-01 -9.77870151e-02 -2.67128557e-01 +3.60814482e-01 -4.65997517e-01 -5.66944741e-02 -3.43653232e-01 -3.75162554e-03 -1.96605608e-01 +3.83385569e-01 +2.55925834e-01 +2.78595746e-01 +2.20917016e-01 -1.89741895e-01 -2.78367013e-01 -4.26644474e-01 -4.29777145e-01 +3.63403223e-02 -2.40590036e-01 -1.21003307e-01 -3.59955311e-01 -1.45335972e-01 -4.59781289e-02 -2.10184619e-01 -3.87350857e-01 -2.86611449e-02 +1.21550925e-01 -4.67498958e-01 +1.46531269e-01 -3.49806041e-01 -8.40410650e-01 +7.22451881e-02 +1.06598623e-01 +2.02634513e-01 -5.85310049e-02 -1.75362617e-01 -2.00325981e-01 +1.74787119e-01 +2.52619475e-01 -3.62295717e-01 -3.18944454e-01 +8.72640684e-02 +1.20230764e-01 +8.06443036e-01 -4.96549606e-01 -2.68483371e-01 +2.27670390e-02 -1.43075988e-01 +5.11267543e-01 -3.11429590e-01 -4.22753841e-01 +3.21554035e-01 -4.42451984e-01 +4.04813647e-01 -3.50557774e-01 +3.38660121e-01 +2.49168903e-01 -4.90698665e-01 +3.77186567e-01 -1.23614952e-01 -3.64413649e-01 -3.41880396e-02 -1.67387858e-01 -1.92717820e-01 -2.95455754e-01 -4.57892001e-01 -8.29814821e-02 -1.85107663e-01 -1.12626004e+00 +1.68765724e-01 +3.64366233e-01 -2.46354118e-01 -4.28548843e-01 -3.28477055e-01 -1.99517041e-01 +2.61612982e-01 -1.43548310e-01 -4.47966874e-01 -3.04125518e-01 +4.57313240e-01 -2.46597230e-01 +9.18239579e-02 -4.35741544e-01 +2.34457687e-01 +2.39584699e-01 +1.39102310e-01 -2.87812680e-01 -4.83595759e-01 +5.23610264e-02 -1.55093223e-01 +9.30446479e-03 -2.63878912e-01 -6.21193945e-01 -1.28446147e-01 -1.09042831e-01 -5.48570743e-03 +4.04502032e-03 +8.88576955e-02 +1.32346645e-01 +1.94060411e-02 +2.71859825e-01 +7.86506981e-02 +1.59696564e-01 -3.43967259e-01 -1.19572908e-01 +2.44306009e-02 -4.17969674e-02 -5.07981256e-02 -3.01210303e-02 -9.12849233e-02 -1.89659879e-01 +2.57484227e-01 -2.31091291e-01 -5.83171882e-02 +2.81088293e-01 +2.79723704e-01 -1.52176425e-01 -4.13679600e-01 +3.10091108e-01 -9.98902991e-02 +1.09541789e-01 +3.97714943e-01 +1.66465193e-01 -1.90961927e-01 -1.20242506e-01 -3.61050814e-02 -8.39944333e-02 -4.79269400e-02 +5.40286936e-02 -1.74916200e-02 -1.14194043e-01 +3.45478624e-01 -1.23188779e-01 -2.64089573e-02 +1.04484141e-01 +1.81555957e-01 -3.86702418e-01 +2.66320795e-01 -2.07256433e-02 -8.20434913e-02 -5.99777937e-01 +5.75690418e-02 +1.44739494e-01 -3.55519921e-01 -1.45720854e-01 -4.79013711e-01 -3.70329797e-01 +1.29682988e-01 -6.29911065e-01 -1.89642221e-01 -1.42864183e-01 +1.57146916e-01 +1.18179455e-01 +4.35981542e-01 -3.78122836e-01 -3.65746707e-01 -6.62947118e-01 -3.58379990e-01 -7.42322564e-01 +3.82575482e-01 -3.69425178e-01 +7.10995495e-02 +6.25176311e-01 +5.05241528e-02 -3.13701332e-01 +3.56594861e-01 -2.73761690e-01 -4.81618166e-01 +8.57378840e-02 +7.75667489e-01 -4.02301818e-01 +3.87916654e-01 -1.89479500e-01 -6.53992057e-01 +2.59019822e-01 -5.43019176e-01 +4.71592873e-01 +4.62542027e-01 -4.59557593e-01 -6.06565356e-01 -4.66381609e-01 +2.86558598e-01 -3.47084761e-01 -4.57565524e-02 -4.43825871e-01 -2.52781272e-01 -1.44177109e-01 -2.77727067e-01 +7.39841443e-03 -5.07350385e-01 +2.66395420e-01 +2.68003553e-01 -4.83334631e-01 -1.32364661e-01 -7.31255561e-02 -9.39307958e-02 -4.56190743e-02 -9.45009887e-01 +2.47000918e-01 +3.93273234e-02 -2.30710149e-01 -1.80847302e-01 -4.15917993e-01 -1.21933833e-01 +1.69328600e-01 -2.51606941e-01 -4.22210574e-01 -1.61508814e-01 -2.82916069e-01 +5.64031862e-02 +3.03100377e-01 -2.24094167e-01 +2.12825909e-01 +1.04995377e-01 -2.80026585e-01 -1.73635572e-01 -6.04033530e-01 +9.25963372e-02 -1.42349944e-01 -3.50161344e-01 -2.01844350e-02 +6.27722731e-03 -3.04712653e-01 -1.14055902e-01 +4.43737134e-02 -1.50493920e-01 -6.78940788e-02 -1.41700029e-01 +1.42903566e-01 +2.75329854e-02 -6.85110688e-02 +1.41067803e-01 -1.42524570e-01 -5.53086586e-02 -1.02474168e-01 -8.74677896e-02 -1.84132561e-01 -7.33187273e-02 +4.36437763e-02 +4.97707754e-01 -1.58732340e-01 +3.40446204e-01 -4.06152844e-01 +7.13050142e-02 +2.20709562e-01 +1.74919449e-04 +2.68533438e-01 +1.43382028e-01 +3.23352575e-01 +2.00700685e-01 -2.51095921e-01 -1.46675274e-01 +1.47373989e-01 +1.34152859e-01 -1.91229134e-04 -2.09413663e-01 -3.83698314e-01 +1.86698556e-01 -2.97557861e-01 +2.34367251e-01 -4.40422654e-01 +8.46996680e-02 -7.77432173e-02 +6.68493807e-02 +7.18700066e-02 +2.67218828e-01 -1.29412353e-01 -2.00679019e-01 -4.95623320e-01 -3.98477435e-01 -1.88623324e-01 -4.76047963e-01 +5.27602509e-02 -3.97942334e-01 -1.01989768e-01 -2.39072978e-01 -4.73873258e-01 +2.95172691e-01 -2.47360080e-01 +1.27340415e-02 -2.09247172e-01 -3.87798935e-01 +3.43031764e-01 -2.55383939e-01 -3.14042643e-02 -3.78723681e-01 -6.94219530e-01 +1.69888154e-01 -4.12358552e-01 -1.08220041e-01 +8.07323232e-02 +5.43722987e-01 -2.41116375e-01 -1.53667212e-01 -6.22777492e-02 +1.16329320e-01 +1.65645957e-01 -2.31028777e-02 +3.57097954e-01 +1.24934800e-01 +1.42100258e-02 +2.10253015e-01 +5.27110510e-02 -8.92549381e-02 -4.52897735e-02 +2.08531260e-01 -2.17438832e-01 +1.43690044e-02 -7.60312200e-01 +4.05174464e-01 -1.05693634e-03 -4.04917181e-01 -1.80605680e-01 +9.57724974e-02 +1.66288480e-01 +2.53194213e-01 +9.89033133e-02 -2.96053886e-01 -1.76127538e-01 -5.10350227e-01 -6.60302341e-01 -6.70531690e-01 -1.03263304e-01 -1.55251592e-01 -8.86017740e-01 +2.32524183e-02 -3.07617933e-01 -4.98725533e-01 -9.23403859e-01 -6.15502894e-01 +3.07723850e-01 +4.36046198e-02 -5.14043331e-01 -7.28456438e-01 -2.19693795e-01 -1.71547875e-01 +5.43041676e-02 +3.61380756e-01 -2.06962615e-01 +2.80340403e-01 -1.68338135e-01 +3.39126170e-01 -7.65495718e-01 -5.90815425e-01 -2.52118945e-01 -1.52961507e-01 +3.55856605e-02 -5.70586994e-02 -8.52012157e-01 -3.00963968e-01 -1.40756175e-01 +8.31993669e-02 +1.79434299e-01 +1.50444359e-01 +6.80838078e-02 -2.56766856e-01 -5.48973195e-02 -7.21944571e-02 +1.96964130e-01 +1.28036574e-01 +8.23918357e-02 +2.06877783e-01 -6.26045093e-02 -2.72192419e-01 +9.56405550e-02 -5.03350757e-02 -7.74482563e-02 -1.76493432e-02 -3.53469491e-01 -8.36222023e-02 -1.75121784e-01 -2.58499414e-01 +1.76816046e-01 +3.99301872e-02 -6.10880964e-02 -1.14029206e-01 -6.43610805e-02 -6.80727288e-02 +3.05613935e-01 -5.27677536e-02 -2.46345788e-01 -1.50637040e-02 -4.58602756e-02 -1.33311927e-01 +7.82657340e-02 -2.04694256e-01 -4.26693894e-02 -5.25676869e-02 +9.75523889e-02 +3.13192189e-01 +5.07187881e-02 +2.11461745e-02 +1.80161566e-01 +2.75091171e-01 +2.30549827e-01 +2.62442287e-02 +3.01745534e-01 -2.19652563e-01 +2.41408702e-02 -1.44711882e-01 -4.18316007e-01 -2.02038586e-01 +4.23164926e-02 -3.89814913e-01 -2.72840410e-01 -6.85392171e-02 +7.56230503e-02 -3.12268555e-01 +2.96095610e-01 +3.89876813e-01 -3.34245414e-02 -3.05914342e-01 -8.73378068e-02 -2.83874333e-01 -3.75628442e-01 +8.69796872e-02 +1.10628538e-01 -2.47650057e-01 -2.64261868e-02 +2.29095109e-02 -8.76578614e-02 -1.67551443e-01 -9.87020060e-02 -2.59051055e-01 +5.55146754e-01 +3.22030216e-01 +3.59312966e-02 +3.05956483e-01 -1.27745897e-01 -2.91082531e-01 +4.90485765e-02 -7.98339471e-02 +2.61840791e-01 +1.57007605e-01 -9.09303665e-01 +1.57713860e-01 -2.55638152e-01 +9.19384122e-01 -2.92465746e-01 -4.29996520e-01 +3.75175655e-01 -4.17482555e-01 -1.01372086e-01 -1.22810170e-01 +3.26063633e-01 -1.71209142e-01 -1.21001884e-01 +5.50142676e-02 -6.59699559e-01 -1.21211231e-01 +4.02511656e-02 +1.31334960e-01 -5.28000236e-01 -3.99111986e-01 +4.15693581e-01 -1.11093193e-01 -1.86857596e-01 -2.07492366e-01 +9.70851034e-02 +4.11286920e-01 -2.36725565e-02 -2.10044920e-01 +1.49205234e-03 +1.46239670e-02 +2.81636685e-01 +2.72798181e-01 -8.58730227e-02 -1.85827509e-01 +3.75378460e-01 +3.16482782e-01 +6.28014049e-03 -2.30560452e-01 -1.82718962e-01 +1.39001608e-01 -5.24183288e-02 -3.01505625e-01 -2.02674959e-02 +5.45023121e-02 +3.08392430e-03 +6.79785833e-02 +3.41166593e-02 +6.37111366e-01 +3.21608316e-03 -3.51789617e-03 +1.19313300e-01 +3.07040270e-02 +5.47432713e-02 -3.88708822e-02 -1.10393874e-01 +1.17865369e-01 -3.16327922e-02 -1.42666951e-01 -8.61759037e-02 +1.99078694e-02 -1.87055394e-02 +2.44368941e-01 -3.23138148e-01 +6.61388552e-03 +6.51465058e-02 +3.59336674e-01 +1.97828531e-01 -5.58234632e-01 +6.99560419e-02 -3.27112287e-01 -2.84237769e-02 +3.34971815e-01 +1.59194723e-01 -1.11933775e-01 +8.74195769e-02 -3.09379965e-01 +1.39375314e-01 -6.57419041e-02 +7.62238353e-02 +2.57163972e-01 -3.27957928e-01 +2.64148325e-01 -3.74085158e-01 +2.42354274e-01 +7.63432682e-02 -2.34897554e-01 -9.00417939e-02 +7.80148804e-03 -1.12861805e-01 +6.82687700e-01 -1.22984268e-01 -2.55821317e-01 -1.14066646e-01 -5.40489405e-02 -1.54023785e-02 +6.33180663e-02 -6.13500357e-01 -5.67423701e-02 +1.28623962e-01 +7.32265413e-02 +2.60583133e-01 +2.88985342e-01 -6.59260303e-02 +2.87127316e-01 +4.04186636e-01 -2.55659521e-01 +1.97343305e-01 +2.62143672e-01 -9.43594351e-02 +2.32788250e-01 -2.83478469e-01 -1.03753805e-01 +3.31562996e-01 +4.00544494e-01 +1.47875279e-01 +3.61308791e-02 +4.10204679e-01 +1.84646875e-01 +2.18688861e-01 -7.87896752e-01 +2.31925458e-01 -4.93046522e-01 -4.73273471e-02 +5.67194447e-02 +3.91223669e-01 -1.69528753e-01 -1.44047663e-01 +1.51024073e-01 -2.02107757e-01 -4.42350149e-01 -3.61176208e-02 -5.65969273e-02 -1.94022909e-01 -1.03444326e+00 +1.94080859e-01 -1.96139906e-02 -3.55757535e-01 -5.40745743e-02 -7.94672817e-02 -8.68043769e-03 +7.35438168e-02 -1.26911566e-01 +2.79173136e-01 +9.86482576e-02 +3.31571609e-01 -2.86481380e-01 -2.74318963e-01 +6.21221289e-02 -1.49068609e-01 -3.80651653e-01 +3.74433957e-03 -2.47739684e-02 +3.76067996e-01 +1.45388514e-01 +2.93046590e-02 -1.14947014e-01 -2.09971294e-01 +3.18114668e-01 +1.58469558e-01 +3.55607569e-01 -3.26243491e-04 -2.74249673e-01 +1.16743967e-02 -1.45557478e-01 -2.72548348e-01 -5.50398767e-01 -2.64232568e-02 -2.24912107e-01 -1.91115409e-01 +3.79244909e-02 -1.91519354e-02 +1.05316825e-01 -3.94577123e-02 +9.82697681e-02 -2.16136295e-02 +6.80265501e-02 +4.19759572e-01 -3.14772248e-01 -2.48616412e-01 -1.59655079e-01 +5.99355102e-02 -1.53501362e-01 +1.05508871e-01 +9.57635343e-02 -7.86450133e-02 -1.41001776e-01 +2.18195796e-01 +1.78635761e-01 -1.22864902e-01 +8.28073025e-02 +1.59565434e-02 +5.12721427e-02 -5.27071357e-02 -5.08165210e-02 +2.36277223e-01 +3.21643315e-02 +2.52774477e-01 -1.12474948e-01 +1.47895992e-01 +1.35092139e-01 -1.53076602e-02 -1.69799387e-01 -3.70387942e-01 +9.72535759e-02 +4.52127039e-01 +8.53409804e-03 -6.03531599e-01 +2.84234643e-01 -7.51917839e-01 +3.83669995e-02 +1.35794714e-01 +2.33259425e-01 -7.05348998e-02 +1.23977296e-01 +4.02584612e-01 -5.79181463e-02 -3.84678766e-02 +1.69307679e-01 -1.63695693e-01 -7.26210177e-02 +1.19513921e-01 -1.81923360e-01 +5.45295238e-01 -1.12228945e-01 -1.96260303e-01 -6.88862130e-02 -1.77484468e-01 +1.89903155e-01 +2.08531052e-01 +1.52005926e-01 +5.16540051e-01 -6.86301142e-02 +2.16635302e-01 -4.08937000e-02 +1.59797713e-01 +1.09446742e-01 -8.13638866e-01 +6.71348691e-01 +6.78181469e-01 -2.53006548e-01 -2.18418226e-01 +1.31042808e-01 +4.39408720e-01 +4.62619990e-01 +1.22084633e-01 +1.20890319e-01 -2.26557478e-01 -5.26558697e-01 +4.68689144e-01 +9.91898701e-02 -2.50306100e-01 +5.82509227e-02 +5.67530930e-01 +5.79053946e-02 +5.67560315e-01 +5.13088584e-01 +3.17690700e-01 +3.80021274e-01 -3.61919045e-01 +1.26218081e-01 +2.49533698e-01 -1.47384346e-01 -4.50879782e-02 +3.96687180e-01 -5.20529635e-02 +2.19850421e-01 -1.53814733e-01 -1.50588840e-01 -4.08426791e-01 -2.48476371e-01 -1.93166047e-01 -2.16826871e-01 +4.52001207e-02 -5.07836580e-01 +3.33358109e-01 +3.61565262e-01 -1.98814139e-01 +2.27323517e-01 -4.14921910e-01 -1.42442882e-01 -6.33318573e-02 +1.16722308e-01 -2.91389525e-01 +1.77877173e-02 +4.38320816e-01 +6.88562542e-02 +6.47370577e-01 +5.04644752e-01 -1.10901177e-01 +2.83955187e-01 -4.14210893e-02 -6.14883080e-02 -1.82247147e-01 -1.42576456e-01 +2.96382278e-01 -3.11582536e-01 -3.59258711e-01 +1.22800544e-01 +1.84089057e-02 -5.05587272e-02 +9.84305888e-02 +6.22075275e-02 +7.47018084e-02 -7.06530362e-03 +4.46749888e-02 -4.09096926e-02 -9.47267488e-02 -1.57003179e-01 +8.79388303e-02 +3.77612650e-01 +3.18498820e-01 +3.33169848e-01 +2.75904592e-02 +2.23214701e-01 +9.69652534e-02 +2.16053039e-01 -6.12954870e-02 -1.20296121e-01 +2.43944556e-01 -2.01059610e-01 -4.24807250e-01 -1.34714484e-01 -3.04350436e-01 +6.88407779e-01 -8.03793296e-02 +5.03002033e-02 +1.96349487e-01 -6.04546927e-02 -5.28455675e-02 +2.08942890e-01 -4.00443643e-01 +1.51930541e-01 -7.39269108e-02 -1.57131091e-01 -1.80202231e-01 -3.11295409e-02 -4.57064152e-01 -1.58859435e-02 -8.77477452e-02 -2.32462972e-01 -4.75161634e-02 +1.20773755e-01 -4.50693257e-02 +4.50957343e-02 +4.26319391e-01 -3.69973212e-01 -8.84133449e-04 +3.45966667e-01 -5.42617915e-03 -2.80036241e-01 -2.85775989e-01 -1.57804072e-01 +3.05391592e-03 -1.74951449e-01 -4.90751445e-01 +1.84149459e-01 -1.74004138e-01 -1.88642927e-02 +1.76955998e-01 -2.97116876e-01 -2.61190861e-01 +2.46367961e-01 -5.23394108e-01 -8.42935368e-02 -1.87595010e-01 +2.15668067e-01 -1.03845429e-02 -6.43832833e-02 +5.77942908e-01 -4.91762012e-01 +1.30683497e-01 -1.43017620e-01 -1.82977602e-01 -1.48957074e-01 +5.51910400e-01 +4.81783450e-01 +9.13773850e-02 +2.21157610e-01 +2.75435150e-01 -5.95695972e-01 -3.85703802e-01 -7.36842230e-02 -8.36988017e-02 -1.67063817e-01 +3.85163724e-02 -5.65387607e-02 +7.14942932e-01 -9.11700074e-03 +2.14397520e-01 +2.30477780e-01 +2.12485716e-01 +3.76280427e-01 +5.31052351e-01 -3.83088022e-01 +7.35059679e-01 -2.29931667e-01 +3.61749560e-01 +2.27804035e-01 -8.35591376e-01 -9.90543902e-01 +2.58763470e-02 +3.10116827e-01 -5.14997602e-01 -4.89827186e-01 -2.39918306e-01 +4.10436317e-02 -5.48671961e-01 +4.47756723e-02 +2.73174822e-01 -1.68638989e-01 -5.86417139e-01 -5.19242167e-01 -2.06763074e-01 +1.31392092e-01 -5.20216167e-01 +3.58012140e-01 -6.98533654e-01 +2.28079170e-01 -1.86633289e-01 -5.45696676e-01 -5.71984887e-01 -4.98072147e-01 -2.48242798e-03 +3.94718312e-02 -3.64450872e-01 -2.19133601e-01 -1.98882699e-01 +7.13072494e-02 +8.70027542e-02 -4.52791005e-02 +2.80040473e-01 -7.85479024e-02 +6.93874508e-02 +1.39793158e-01 +6.30553365e-02 +3.25546414e-01 +8.41443092e-02 +1.00461476e-01 +2.39201918e-01 -4.80399169e-02 -3.09202313e-01 -5.36623504e-03 -1.02140196e-02 -4.51473504e-01 +1.50305554e-01 -2.71869928e-01 -2.13615254e-01 +1.54326081e-01 -1.56183124e-01 +2.33615786e-01 -7.08084628e-02 +9.80701149e-02 +1.73958257e-01 +2.10915744e-01 -1.46787325e-02 -9.71555188e-02 -1.01008052e-02 +6.88243210e-02 +1.19578868e-01 +1.23137543e-02 +9.71209109e-02 +6.85207725e-01 -1.53868318e-01 -6.63268566e-02 -6.10433638e-01 -4.79689687e-02 -2.07794517e-01 +5.54522872e-02 -1.37246385e-01 -1.17938340e-01 +2.70722479e-01 -8.76689628e-02 +4.06365782e-01 -2.74655253e-01 -2.20831051e-01 +4.84737784e-01 +1.13781609e-01 -4.29810397e-02 +2.56521970e-01 -3.77561688e-01 +2.33227879e-01 +2.71503955e-01 -4.15284872e-01 -2.50448138e-01 +2.53820240e-01 -2.00931102e-01 -2.18099236e-01 +3.82061675e-03 -5.34742713e-01 -2.45418139e-02 -5.38004220e-01 -1.22012667e-01 -3.07640016e-01 +1.25474945e-01 +1.10962547e-01 -5.64453080e-02 +1.53912500e-01 -4.11794454e-01 +4.65430498e-01 -1.17673934e-01 +5.58282621e-02 -2.61282444e-01 +4.98606600e-02 +1.98237404e-01 -5.53456740e-03 +7.22157881e-02 +1.63071916e-01 -2.96133339e-01 +1.35288164e-01 +2.45171800e-01 -6.31446317e-02 +4.97544408e-01 +5.51488400e-01 +2.68122435e-01 +1.36174187e-01 +3.50808561e-01 +1.49320886e-01 -1.65143348e-02 +3.27509761e-01 +1.08678132e-01 +1.34776548e-01 -1.67890444e-01 +2.24862143e-01 -1.91487730e-01 -2.46129319e-01 +7.11130083e-01 +1.08290792e-01 -2.82963216e-02 -3.05731922e-01 -6.32501543e-01 -2.06768230e-01 -3.27998936e-01 -2.17468038e-01 +1.40838942e-03 +4.75721210e-01 -1.20169029e-01 -3.36235255e-01 +9.72621068e-02 -2.99224555e-01 -2.86200196e-01 +3.83737057e-01 +1.69436350e-01 +4.99921054e-01 +1.93009183e-01 -1.60585314e-01 +8.70915651e-01 +1.09522983e-01 -1.76104739e-01 -7.19926655e-02 -3.54056329e-01 +1.35323063e-01 +2.30477840e-01 +2.34066192e-02 -6.52681708e-01 -4.96986397e-02 +1.71716318e-01 +8.26550573e-02 +1.07736602e-01 +2.86357671e-01 -5.08462250e-01 -1.94092721e-01 +1.61464706e-01 +3.26064914e-01 +1.95044488e-01 -2.93698221e-01 +4.42411751e-02 -1.02195524e-01 +2.48019341e-02 -1.67532593e-01 -9.33851451e-02 -7.09952042e-02 +1.46912038e-02 -7.01620802e-02 +1.53419459e-02 +6.29689964e-03 +2.57164717e-01 -1.19034126e-01 +1.32557349e-02 +5.54266945e-02 +4.02415171e-02 +2.12151095e-01 +2.04174012e-01 +4.81744185e-02 -1.13514196e-02 -1.10715441e-03 +2.07000330e-01 +4.27347273e-02 -3.18194814e-02 -2.33652983e-02 +3.77744257e-01 -3.33430082e-01 -5.77663444e-02 -3.79419714e-01 -1.77347869e-01 -2.19059855e-01 +1.55162230e-01 -1.46736100e-01 -6.17425628e-02 +5.56516826e-01 -1.64831713e-01 +3.43786836e-01 -1.43507402e-02 -7.39716366e-02 +2.88775444e-01 -7.01341406e-02 +1.06406011e-01 +3.77046317e-01 -2.00358093e-01 +1.66736647e-01 -1.12030156e-01 -4.04831082e-01 +4.25816141e-02 +3.26345593e-01 -3.70868176e-01 +4.41326827e-01 +3.56992304e-01 +6.67017177e-02 -1.03237890e-01 -1.83151588e-01 +1.52479142e-01 -1.72039732e-01 +3.30657177e-02 +1.65174857e-01 -2.21180588e-01 +3.63363959e-02 -3.54592264e-01 +3.06814313e-02 -3.19790393e-01 +2.62646675e-01 +1.39982387e-01 +7.36499131e-02 -1.98530182e-01 +3.55407238e-01 -4.69525874e-01 +1.38849676e-01 -5.63138425e-01 +1.93456367e-01 -2.81515062e-01 +3.49265128e-01 +4.60762203e-01 -1.45142004e-01 +7.99724162e-02 +1.84760153e-01 -6.43583164e-02 -1.88620210e-01 -9.84450519e-01 +6.40113056e-01 +3.42312723e-01 -3.24606180e-01 -3.28843743e-01 +2.96291322e-01 +7.14482963e-02 -1.85360998e-01 +2.86302179e-01 -9.61922258e-02 -2.81944215e-01 +2.66471297e-01 -3.05256546e-01 -1.65185556e-01 -2.22685143e-01 +2.25920454e-02 -8.93692225e-02 +1.15860507e-01 -3.13278973e-01 -8.18674639e-03 +1.12348944e-01 -1.91441968e-01 -5.73716223e-01 +4.49135303e-01 +2.11546980e-02 +7.75850236e-01 +2.67367154e-01 -1.64373577e-01 +4.27063972e-01 +1.08014204e-01 -3.42505723e-01 -1.13661453e-01 -8.24866354e-01 +4.19282883e-01 +2.85050422e-01 -1.16025023e-01 +5.71188331e-03 +5.61851382e-01 +3.76217999e-02 +7.55091250e-01 +4.21523675e-02 +2.09295958e-01 +6.98822588e-02 -1.15786240e-01 -5.80962971e-02 -3.95460427e-02 +1.04982018e-01 -3.16528529e-02 +8.71185735e-02 +7.57094994e-02 +2.29037061e-01 -1.58246040e-01 +6.00102998e-04 -5.18350787e-02 +1.60563678e-01 +5.72291315e-02 +1.49970949e-01 +1.71274692e-03 -2.70401388e-01 -1.15387663e-01 +9.74704046e-03 -9.46504995e-02 +6.71340972e-02 +1.32979453e-01 -5.03382869e-02 -2.15245020e-02 -7.29139149e-02 -9.05830711e-02 +1.79554462e-01 +1.35480333e-02 -2.76838392e-01 +1.85963184e-01 +2.55646020e-01 -1.84827596e-01 -4.32681106e-02 -8.42729881e-02 -1.37137115e-01 -3.79379064e-01 +4.15603995e-01 -2.52691388e-01 -2.73642480e-01 +1.99427694e-01 +8.19383487e-02 +4.22614336e-01 +4.80150525e-03 -3.12689319e-02 +5.99365383e-02 -1.00260198e-01 +1.56310886e-01 +3.14841658e-01 -4.77846771e-01 -3.19974571e-01 -1.52243167e-01 -1.62260249e-01 +1.33924559e-01 -3.13556939e-02 -2.85085067e-02 +2.00432733e-01 +2.38502726e-01 +1.12239413e-01 +2.93284476e-01 -1.55128315e-01 +6.46041930e-01 -1.53444842e-01 +3.14977884e-01 -3.40365656e-02 -5.75625673e-02 +3.88549030e-01 +9.02277082e-02 +4.08627242e-01 -8.10061097e-01 +1.67336479e-01 +2.53134727e-01 +9.69404161e-01 -3.58984083e-01 +2.04182073e-01 -3.43463361e-01 +4.41464484e-01 -3.40466589e-01 -5.89724258e-02 -1.53782949e-01 -4.11920585e-02 +3.07147801e-01 -5.35595179e-01 -3.43400776e-01 +5.70763230e-01 +3.92736107e-01 +1.12225831e-01 -1.04320621e+00 +7.88855791e-01 +5.40840864e-01 +6.75147623e-02 -5.63588679e-01 +6.10553086e-01 -1.54293016e-01 -2.08394960e-01 +1.18840812e-02 -1.97288945e-01 -4.68018875e-02 +2.13527545e-01 -3.72634351e-01 -2.99046069e-01 -4.60608989e-01 +2.02229887e-01 -2.77845412e-01 +2.41584793e-01 -1.64778575e-01 +5.99856414e-02 +2.54860282e-01 -1.27178013e-01 -5.68276584e-01 +4.16307768e-04 -2.26074085e-01 +3.25730801e-01 +2.27435514e-01 -2.96940297e-01 +1.44505352e-01 +8.77206549e-02 -4.16920841e-01 -1.14155114e-01 -7.10723996e-01 +2.85011351e-01 +3.17388386e-01 -2.10856736e-01 -3.81208993e-02 +4.19441879e-01 +8.16202089e-02 +3.84707600e-01 +1.24976687e-01 +2.39997178e-01 +1.04354255e-01 +1.43473595e-01 +1.81720238e-02 -2.40201384e-01 +1.54789180e-01 -7.05670044e-02 -9.24190599e-03 +2.80919313e-01 +8.74911547e-02 -2.72261828e-01 -2.35375762e-01 +3.99757586e-02 -1.05516594e-02 +5.11466600e-02 -1.62161812e-01 -1.02664553e-01 +4.53969203e-02 -3.30010802e-02 +6.23245873e-02 +6.35599717e-02 +2.48874843e-01 +4.54715118e-02 -1.71234563e-01 -1.92893952e-01 -1.31441563e-01 +1.28499106e-01 +2.59400718e-02 -3.76096107e-02 -2.83699572e-01 +1.74742803e-01 -1.73398435e-01 -1.26846701e-01 +6.58340529e-02 -4.24969345e-01 +2.43041843e-01 -2.90990442e-01 +2.74520040e-01 +7.79253319e-02 -2.40411118e-01 +1.24895833e-02 +8.69805962e-02 +6.88445568e-02 +6.74026430e-01 -4.34441745e-01 -2.75433689e-01 -1.84254557e-01 -2.02932522e-01 +5.35648279e-02 +1.06120236e-01 -4.05102484e-02 +1.30419001e-01 +3.15343320e-01 +3.70056443e-02 +7.51396716e-02 +4.80580516e-02 +4.53388691e-02 +9.27081555e-02 +3.11759979e-01 -2.92115778e-01 +3.47618192e-01 +6.26259148e-02 -1.48454309e-02 +4.85741556e-01 -1.84738427e-01 -1.09284408e-01 +1.22431256e-01 +3.50029796e-01 +6.66813925e-02 +2.31830984e-01 +4.62703317e-01 +1.29380375e-01 -1.52931616e-01 -5.58791518e-01 +1.11081213e-01 -3.43306839e-01 -2.71403044e-01 +4.10680532e-01 +3.69266391e-01 -8.71271640e-02 +2.55635381e-01 +1.68837860e-01 -1.23187834e-02 -2.54093051e-01 -3.04134279e-01 -1.17271887e-02 -5.49639523e-01 -5.98970830e-01 +1.71959311e-01 +1.90512184e-02 -5.12531281e-01 +4.09928374e-02 +4.85426523e-02 -1.25396520e-01 -7.07616434e-02 -1.20704263e-01 +2.41145909e-01 -4.98885028e-02 +9.61449835e-03 -1.41654789e-01 -1.45641670e-01 +1.04779810e-01 +4.02971879e-02 -2.90872008e-01 -5.37838489e-02 +1.04266815e-01 -7.03059435e-02 +5.52649915e-01 -8.59743729e-02 -3.20961401e-02 -5.67001477e-02 +6.36934519e-01 +4.11645949e-01 +3.05094957e-01 +3.27358752e-01 +2.42420465e-01 +3.92361045e-01 +3.35332781e-01 -9.72426087e-02 -2.73440093e-01 +1.82035282e-01 -5.93211830e-01 -3.87477070e-01 -1.69887513e-01 -1.61726117e-01 +1.42029241e-01 -1.31841287e-01 +8.32386166e-02 -1.60031199e-01 +3.83345373e-02 +2.20958233e-01 -1.61415666e-01 +9.16484743e-02 -8.74818414e-02 +1.55758662e-02 -1.86058685e-01 -1.18051916e-01 +7.01384544e-02 +4.61798981e-02 -8.68482366e-02 +3.24510075e-02 +2.61012852e-01 -3.87796462e-01 +2.86020607e-01 +7.38371387e-02 +7.86518455e-02 +7.81722292e-02 -7.92390481e-03 +8.13901499e-02 -1.11146167e-01 +3.38429987e-01 -4.77208085e-02 +4.62532997e-01 +2.98413485e-01 -2.76098233e-02 -2.08613515e-01 -3.64073992e-01 +4.29521292e-01 -1.21272951e-01 -3.40219080e-01 +1.54790029e-01 +4.63810265e-02 +6.05378412e-02 -1.54047221e-01 +1.57089397e-01 +2.32043415e-01 +5.77704273e-02 -4.18019518e-02 +4.37607497e-01 +1.41387880e-01 +1.39330670e-01 -4.82622802e-01 -2.72517383e-01 +4.54114415e-02 +1.17221870e-01 -3.91346604e-01 -1.50448799e-01 -3.52833301e-01 +4.07620035e-02 -8.45778510e-02 -2.54540443e-01 -4.12299246e-01 -1.06218122e-01 -4.43223685e-01 -3.49134058e-01 -1.32012755e-01 -2.07094401e-01 -7.60406628e-02 -6.26148939e-01 -3.43471974e-01 -4.00483727e-01 -2.32345447e-01 -2.09277093e-01 +7.39688128e-02 +4.96846773e-02 -3.02789986e-01 +2.09499866e-01 -5.31500280e-01 +2.52182513e-01 -3.39618027e-01 +2.27968410e-01 +6.62896335e-01 -2.08819941e-01 +5.85136354e-01 +4.72245246e-01 +2.66124219e-01 +2.86413264e-02 +4.67042714e-01 +3.83331686e-01 +2.98770428e-01 +1.74165294e-01 +3.71452533e-02 +2.82049358e-01 +7.67032743e-01 -1.25171527e-01 +6.08138070e-02 +3.60444069e-01 -3.49777430e-01 -1.21069722e-01 -1.79656133e-01 +3.70398164e-01 -2.71512240e-01 -3.20015043e-01 +1.18184924e-01 -4.26807404e-01 +2.27883086e-01 -5.59729695e-01 -7.58445337e-02 -2.59267092e-01 -4.73134905e-01 +1.49413794e-01 -4.32806835e-02 +2.99625516e-01 -3.33557099e-01 -4.17284936e-01 +1.47868782e-01 -1.83157459e-01 -2.71944165e-01 +1.50102928e-01 -3.71718168e-01 +2.79978275e-01 -2.47120298e-02 -1.02662649e-02 +8.67040604e-02 +1.76715218e-02 -2.78217737e-02 +3.50631624e-01 -1.80310816e-01 -5.23322038e-02 +6.53188288e-01 +1.74249232e-01 -5.65067351e-01 -4.40227836e-02 -1.82679698e-01 +3.90510149e-02 -1.12407848e-01 +2.40057573e-01 -1.76476792e-01 -1.54424533e-01 -2.88562421e-02 +1.79740191e-02 +9.11182612e-02 +1.20988274e-02 -4.56319116e-02 -7.11531118e-02 +1.06385656e-01 -2.21702665e-01 -2.25959212e-01 -1.58845410e-01 -9.99141484e-02 +1.89204052e-01 +7.94120654e-02 -2.93446720e-01 +1.44468963e-01 -2.32611358e-01 +7.44844526e-02 +6.09134510e-02 -1.64790332e-01 -1.84067756e-01 -2.29567289e-01 -1.29403397e-01 -3.15846503e-01 +1.96703836e-01 +1.68694332e-01 -2.17916351e-03 -2.63786644e-01 -3.22643101e-01 +8.41059148e-01 +8.28406662e-02 +1.00254394e-01 +1.39381945e-01 -1.51525393e-01 -3.16868693e-01 -4.02931809e-01 -2.26984233e-01 -3.65291923e-01 -2.29019836e-01 -1.24798410e-01 -5.20636619e-04 -1.16137683e-01 +2.72640765e-01 +2.36973822e-01 -2.81001151e-01 +5.31010330e-01 +2.27924824e-01 -2.42599905e-01 -1.02194473e-01 +3.74913700e-02 -9.83773693e-02 +2.22177446e-01 -1.85824677e-01 -7.95146301e-02 +1.94066599e-01 +5.11436939e-01 +3.15106660e-02 +2.38208368e-01 -2.52023280e-01 +2.83813417e-01 +1.28831640e-01 +6.36404101e-03 -2.31448531e-01 +3.22751433e-01 +7.61389658e-02 -2.43996263e-01 +2.84924120e-01 +2.00065821e-02 -1.34002939e-01 -7.20569193e-02 +4.24152881e-01 -3.81313920e-01 +5.60594834e-02 -5.47708035e-01 +7.73598775e-02 -4.24525946e-01 -7.42662996e-02 -4.20960516e-01 -4.48319018e-01 -1.53127879e-01 +4.83212233e-01 -2.51741827e-01 +5.21465063e-01 -8.96027386e-01 +5.60025394e-01 -3.95103991e-01 +8.32657814e-02 +5.80333829e-01 +2.55874932e-01 -7.76750296e-02 +1.74288243e-01 -9.20044854e-02 +3.90087813e-01 +1.81276977e-01 +4.12926584e-01 -1.42408431e-01 +4.54731226e-01 -5.75601876e-01 -6.60134032e-02 -2.73699701e-01 -4.57384050e-01 -4.73350197e-01 +1.90705195e-01 +3.62327695e-01 +4.09900934e-01 -2.47726530e-01 -9.24265981e-02 -2.44509533e-01 -3.05910379e-01 +2.69455492e-01 -2.44585976e-01 -1.58657745e-01 +2.52874456e-02 +5.93966581e-02 -2.01306075e-01 -5.88147163e-01 -5.61311603e-01 -2.25943565e-01 -1.12337442e-02 -1.80524170e-01 -2.87036002e-01 -2.47883648e-01 +5.91271400e-01 +2.56752640e-01 -1.13406450e-01 +6.94808736e-02 -5.60649410e-02 -3.47495675e-01 +3.89654264e-02 +7.82089978e-02 -1.36483861e-02 +1.33594826e-01 -6.16398677e-02 -2.06075814e-02 -1.07278004e-01 -9.83230770e-03 -1.65626362e-01 +6.20487519e-03 +1.09959789e-01 +1.95042752e-02 -1.12680018e-01 -1.87634468e-01 +6.19485825e-02 +1.18850395e-01 +1.42767593e-01 -1.53123572e-01 +2.58269487e-03 +5.16863465e-01 +1.13766886e-01 +4.05571610e-01 -1.15376800e-01 -4.97479700e-02 -3.53121638e-01 +1.15309000e-01 +3.91181819e-02 +1.27700746e-01 +2.45805934e-01 -3.08803111e-01 -1.88330367e-01 -6.05934933e-02 -6.17006958e-01 +4.72559810e-01 -8.25276375e-01 -3.46106082e-01 +1.40673757e-01 +1.81141183e-01 -4.96138930e-01 -4.57555987e-02 +1.98999360e-01 -1.53249517e-01 -5.97778678e-01 +3.05238888e-02 +3.29837650e-01 -9.12345573e-02 +4.62164097e-02 +3.96329798e-02 -9.26788002e-02 +3.69272739e-01 -1.05214007e-01 +1.83072835e-01 -3.77690755e-02 +1.77024767e-01 -2.12328196e-01 -4.64558065e-01 +2.98707455e-01 -2.64885664e-01 -7.91332405e-03 -5.54851055e-01 -4.95357841e-01 +8.43774855e-01 -5.20571828e-01 -4.70077276e-01 +6.12146556e-01 +2.46999398e-01 +9.59152728e-03 +2.87121803e-01 -6.95993006e-01 -2.14604199e-01 +1.31671607e-01 -1.93338513e-01 -6.06851317e-02 +4.13565606e-01 -4.92868245e-01 -4.34095651e-01 -4.73564118e-01 -2.85902977e-01 -2.86845684e-01 +2.22006943e-02 -1.27017975e-01 +2.22469956e-01 -3.85366678e-02 -3.20147067e-01 -3.75176370e-02 +1.27571523e-01 -8.73630106e-01 +3.82450819e-01 +2.28433773e-01 -6.39677420e-02 +1.32361606e-01 +7.41550401e-02 -3.16340417e-01 -2.37497434e-01 -1.74187541e-01 -4.91627306e-01 -2.66148984e-01 -8.92418325e-02 -3.51551324e-01 -3.00609499e-01 -4.70300078e-01 -3.49174976e-01 -5.14160633e-01 -1.41160116e-01 -9.44342911e-01 -1.59366518e-01 -2.17391655e-01 -3.87418032e-01 -2.18952939e-01 +3.96971494e-01 -1.80369928e-01 +1.30824566e-01 +2.25990742e-01 +3.93682033e-01 +2.82708555e-01 +5.08992493e-01 -5.71813345e-01 -2.41538987e-01 -3.74304652e-01 -3.66709858e-01 -1.28509983e-01 -6.02236748e-01 -4.84339684e-01 -1.71289682e-01 +1.76583230e-02 -7.84101188e-02 +2.21301571e-01 -4.09042239e-02 +7.72640258e-02 -4.42599095e-02 +4.22785897e-03 +2.01516762e-01 +1.59627348e-01 +2.00598404e-01 -2.79935431e-02 -8.24668482e-02 -1.58412710e-01 +1.06485304e-03 +7.03683719e-02 -5.52594028e-02 +8.59952047e-02 +1.13855898e-01 +1.11960344e-01 +1.66100815e-01 -1.26336813e-01 +1.88153028e-01 +2.78815106e-02 -1.16793223e-01 +3.30782056e-01 +1.08570918e-01 +2.57844746e-01 -3.26891504e-02 -2.69233316e-01 -1.50944889e-01 -2.66063213e-01 -1.63725033e-01 -4.37994748e-01 -1.22260660e-01 +3.00839603e-01 -1.90944120e-01 +5.89554310e-01 +1.00437425e-01 +2.00088173e-01 +5.33932038e-02 -3.36192340e-01 -3.88617045e-03 -1.71128824e-01 +2.80927181e-01 -4.47609842e-01 -9.43673849e-02 -3.60409081e-01 -4.52820584e-02 -1.36627838e-01 +1.15795825e-02 -8.51185471e-02 +5.19040823e-02 -5.09251833e-01 -2.59333730e-01 -5.80458820e-01 +8.75765830e-02 -1.84962019e-01 -3.24929386e-01 -3.95713091e-01 +3.61551158e-02 -2.84491241e-01 +2.81120604e-03 -2.83492863e-01 +7.81601742e-02 -7.70758867e-01 -1.40679359e-01 -4.17037964e-01 +5.50595641e-01 +1.95982620e-01 -3.57252896e-01 +2.80432642e-01 -1.49677182e-02 +1.16904713e-01 -2.52695560e-01 +4.19175267e-01 +3.10663760e-01 -1.15276791e-01 +5.02358973e-01 +1.83561504e-01 -9.89266336e-02 +5.90047650e-02 +2.95056105e-01 -7.72195041e-01 +2.77536392e-01 +1.34111598e-01 -4.75903064e-01 +4.11004037e-01 +1.30336657e-01 +4.36779201e-01 +3.65885466e-01 -4.13069755e-01 -2.61529624e-01 +3.36703926e-01 -8.20512697e-02 -2.11019486e-01 -2.20094338e-01 -2.36610308e-01 -6.23363316e-01 -2.24295184e-01 +5.30435629e-02 -1.15382396e-01 +2.81619251e-01 -2.58314312e-02 +4.82054874e-02 -5.77484965e-02 -3.53663112e-03 -3.12228382e-01 +1.60484761e-01 +2.46076375e-01 -2.32060462e-01 -2.21478250e-02 -3.06440830e-01 -4.73599643e-01 -6.34120107e-01 -4.13820595e-01 -3.10230292e-02 -3.06979734e-02 -7.56999195e-01 -4.54435289e-01 +1.52048022e-01 +9.47630149e-04 +5.79665482e-01 -4.28701669e-01 -1.72659218e-01 +8.51261243e-02 -1.03975654e-01 -6.37117624e-01 -7.39144161e-02 -1.62863746e-01 +1.73205584e-02 -4.39489633e-02 +4.71652858e-02 -1.71713028e-02 +2.21913487e-01 -3.38769823e-01 -2.26411313e-01 +1.03192471e-01 +1.52450919e-01 -4.78373989e-02 +8.65055323e-02 +1.24185883e-01 +2.96747480e-02 +2.23491713e-01 -3.15065056e-01 -4.97023016e-02 -1.63371831e-01 -1.22705229e-01 -2.58733649e-02 -1.09815821e-01 -4.28659841e-02 -8.80367607e-02 +3.84825468e-02 -3.92099559e-01 -1.28542915e-01 -2.51727074e-01 -4.43155497e-01 +3.18504870e-01 +2.86630094e-02 -8.27100128e-02 +1.66531816e-01 +2.11946696e-01 -4.32259768e-01 +3.39160204e-01 -5.59213459e-02 +3.60847354e-01 +1.82915613e-01 +5.98120570e-01 -2.26084292e-01 +5.50426066e-01 +2.16820940e-01 -3.94564629e-01 +5.79510108e-02 -1.50883347e-01 +2.52695113e-01 -5.24509884e-02 -4.93071638e-02 +2.16891125e-01 +3.39770764e-01 -1.15864031e-01 +2.37566486e-01 -7.19509646e-02 +8.22044313e-02 +1.38199657e-01 -8.39433521e-02 +1.20649420e-01 +2.12796450e-01 -2.34993190e-01 -1.46781027e-01 +1.08150735e-01 -1.19227797e-01 -1.90408140e-01 -3.66077304e-01 +2.82605380e-01 +3.50435942e-01 -2.16816321e-01 -2.77839541e-01 +1.16212495e-01 +4.54771250e-01 -2.17426479e-01 +4.57526982e-01 -5.52857161e-01 +6.85244277e-02 +7.08849495e-03 +1.54548481e-01 -1.97439268e-01 +1.52521278e-03 -1.76935256e-01 +1.22971743e-01 -1.61249965e-01 -2.38970459e-01 +2.47830227e-01 -1.26794130e-01 -2.71336496e-01 +3.31567787e-02 -2.03601286e-01 +3.10169131e-01 -1.90539971e-01 +5.31051159e-02 -3.81827146e-01 -1.59759030e-01 -2.49832571e-01 +1.12239465e-01 -1.74904689e-01 -1.74545005e-01 +5.38605630e-01 -4.59466696e-01 +4.17168774e-02 +3.06103677e-01 -1.24887109e-01 +2.20066682e-01 +4.66127038e-01 -1.87028155e-01 +2.29731426e-02 -1.43801589e-02 -7.10478891e-03 +7.72611126e-02 -7.90875778e-02 -8.52255747e-02 +1.72340497e-01 +6.03097439e-01 -8.27911347e-02 -2.24120207e-02 -3.05663258e-01 -2.89614290e-01 +5.27188897e-01 -3.90527785e-01 -3.76600064e-02 +1.98685750e-01 +3.20016980e-01 +2.59698987e-01 -4.43281680e-01 -1.94018319e-01 -2.09912762e-01 -7.02751875e-02 -3.39670539e-01 -1.15213133e-01 -3.53800446e-01 -1.75026298e-01 -2.61427253e-01 -2.67077796e-02 +1.01658210e-01 -1.50224105e-01 +8.49366114e-02 -3.45375389e-01 +8.69012624e-02 +2.39527170e-02 -9.19656828e-02 -2.32292026e-01 +8.17728713e-02 +1.59786910e-01 +1.67312641e-02 +2.06469908e-01 +1.30307272e-01 +4.66753036e-01 +9.27225426e-02 +1.36385202e-01 -1.36758193e-01 +4.66116741e-02 -1.41992971e-01 -3.16545784e-01 +3.93885747e-02 +4.16630685e-01 +1.20902263e-01 +2.59029239e-01 -2.84517467e-01 -3.40449452e-01 -7.53644481e-02 +9.59736705e-02 -2.74471015e-01 +1.82004362e-01 +1.88711658e-01 -2.16418609e-01 +7.08762169e-01 -3.41953635e-01 -1.01682149e-01 -3.13637167e-01 -4.64008659e-01 -1.53894022e-01 +1.68808833e-01 +1.51337758e-01 -8.60133544e-02 -2.57016301e-01 +3.93003598e-02 +1.89037751e-02 +2.08841041e-01 +3.23831052e-01 +2.00461715e-01 +9.13901031e-02 +2.56498694e-01 +3.20835561e-01 -5.48549056e-01 -4.97095764e-01 +1.43958488e-02 -3.43474358e-01 -5.51499784e-01 -1.88218951e-01 +3.93099934e-02 +1.84935241e-04 +1.02004278e-02 -3.35985154e-01 -2.18592048e-01 -8.55132699e-01 -4.05425392e-03 +7.12566555e-01 -3.87449116e-01 -3.40617836e-01 +2.83447832e-01 -1.22722127e-01 -1.45437971e-01 -3.10207278e-01 +1.72307249e-02 +3.44366670e-01 -1.41191602e-01 +1.79020897e-01 -5.58324605e-02 -1.97785810e-01 -1.55475587e-01 +1.90018967e-01 +1.37701795e-01 -1.03066824e-01 +5.63189566e-01 -5.14247902e-02 -8.54007602e-02 +1.65114738e-02 +3.90510559e-01 +4.99621809e-01 -5.83438039e-01 -3.10461134e-01 +5.87682366e-01 +1.68258280e-01 -3.60560298e-01 +1.96675509e-01 -3.12576413e-01 -2.14988291e-01 +4.65260684e-01 +2.87820518e-01 -2.61289924e-01 -5.58161855e-01 +4.47299965e-02 +3.07430024e-03 +1.93803236e-01 -5.86269051e-02 +1.02651191e+00 +2.22853556e-01 -3.87732089e-01 -6.53677821e-01 +2.30961829e-01 -3.58955711e-02 -2.17659414e-01 -2.89589435e-01 -2.11438760e-01 -6.93708360e-01 +1.27762496e-01 -2.61017144e-01 -5.03566623e-01 -3.75129461e-01 +4.16333228e-01 +6.25547051e-01 -4.85013962e-01 +2.01078460e-01 +5.32328546e-01 -1.52358562e-01 +7.88278282e-02 -2.09432378e-01 -1.68476492e-01 +4.15241122e-02 -6.02663904e-02 -2.47112393e-01 -1.45709619e-01 +1.75904945e-01 -1.75896183e-01 -1.04741408e-02 -1.20596834e-01 -1.06085785e-01 -3.02422374e-01 +3.83789614e-02 -3.59269581e-03 +4.77391146e-02 +2.72904374e-02 -4.62659150e-02 -3.55616421e-03 -1.18931167e-01 +1.17430769e-01 -2.97972728e-02 +1.75857730e-02 -1.44975170e-01 -1.43952832e-01 +1.16343036e-01 -2.79708833e-01 -6.75728247e-02 -5.41723967e-01 -2.12618694e-01 +2.50460178e-01 +9.48165730e-02 +1.47907853e-01 +3.35677385e-01 +1.85248479e-01 +2.45626152e-01 -1.60737336e-01 +3.83420050e-01 +1.41358539e-01 -6.22001231e-01 +3.40863019e-01 -8.26841965e-02 +3.36340666e-01 -1.76574499e-03 +7.35519707e-01 -2.27779150e-01 -1.63162574e-01 -2.03887299e-01 +2.02236041e-01 +1.83286667e-01 +1.68850988e-01 +4.83582497e-01 +5.24446189e-01 +9.79777575e-02 +2.22077370e-01 +1.40867606e-02 +3.54705393e-01 -4.82878312e-02 +1.50182769e-01 -6.90359715e-03 +1.10510156e-01 -8.17604661e-02 -1.79320455e-01 +5.39460480e-01 -8.98881853e-02 +4.01350781e-02 -2.45222732e-01 +1.20832786e-01 +5.31167984e-01 +3.80617440e-01 -3.91216218e-01 -6.92615137e-02 +2.56731927e-01 -3.71440947e-01 +1.97077066e-01 -2.78645605e-01 +2.04347536e-01 +4.57661718e-01 -2.20396966e-01 +6.97202742e-01 +3.70458215e-01 -3.07677299e-01 -2.80641895e-02 +5.33247769e-01 +2.33121693e-01 +3.03555161e-01 +5.08619368e-01 +7.06901848e-01 +1.72265545e-02 +7.05503404e-01 +4.06839728e-01 +5.71762979e-01 -1.19028054e-01 -1.17734425e-01 +4.04501468e-01 -2.83142775e-01 -2.67881632e-01 +2.72071362e-01 -6.97281897e-01 +3.55431318e-01 -2.78848708e-01 +4.31075633e-01 -4.35799509e-01 -7.51259848e-02 +3.50972831e-01 -1.73184395e-01 -6.92079067e-02 +3.66960824e-01 +4.14720207e-01 -3.21794212e-01 -5.86648524e-01 +3.38484824e-01 -7.04094693e-02 +1.75244004e-01 +4.72937167e-01 -3.00635964e-01 +4.66253459e-01 -2.06202865e-01 +1.21053820e-02 +5.50653674e-02 +1.74030140e-01 +2.84867972e-01 +4.96041238e-01 +3.97951841e-01 +4.84975487e-01 +9.86752093e-01 +5.59955716e-01 +1.75120413e-01 +2.51827449e-01 -1.21625699e-01 +5.36056347e-02 -2.13178005e-02 +1.30878523e-01 -3.25653479e-02 -2.73930937e-01 +4.10642445e-01 +2.33586848e-01 +9.20497850e-02 -1.84777752e-01 +4.58648235e-01 +1.95036709e-01 +2.34573796e-01 -7.70950615e-02 +2.04024419e-01 -3.05621892e-01 -4.22193594e-02 +4.06715758e-02 -4.45054621e-02 +2.13028312e-01 -1.64720535e-01 -1.13756739e-01 +1.29173743e-02 -5.65443709e-02 +2.07633227e-01 -3.15623939e-01 -1.44346654e-01 -1.68013409e-01 -2.03699142e-01 -5.53631084e-03 +3.06669682e-01 +1.90330148e-01 -4.43517929e-03 -9.12138671e-02 +2.85101771e-01 -4.10031974e-01 -5.19362949e-02 -5.83185017e-01 +1.69619590e-01 -7.17724502e-01 -7.82166198e-02 -9.22934487e-02 +8.70618671e-02 -1.23863243e-01 -1.27760842e-01 +2.01692492e-01 -8.50196257e-02 -2.02671215e-01 +7.48987794e-02 -1.06968842e-01 -3.50521535e-01 +1.50933713e-01 -1.55132815e-01 -1.14873260e-01 +1.57989711e-02 +5.24123907e-02 +3.91629726e-01 -3.27486038e-01 +5.25704622e-02 -8.64774138e-02 -1.70486882e-01 +4.04025525e-01 +8.63421446e-05 -1.92505941e-01 +1.18407771e-01 +4.47408766e-01 +6.03428818e-02 -2.57377803e-01 -7.03565180e-02 +2.34459657e-02 +2.63258908e-03 -6.35720044e-02 -1.62246823e-02 +1.20413743e-01 +1.76758587e-01 +3.61393392e-02 -7.54736781e-01 +4.00070697e-01 -7.93849647e-01 +2.77884066e-01 +1.88568339e-01 -1.09580737e-02 -3.87036055e-01 -1.13199621e-01 -1.93030477e-01 +2.59652615e-01 +3.86205584e-01 +5.40356338e-02 -7.30464578e-01 -1.13719985e-01 -6.44617558e-01 -1.68030992e-01 +9.44728553e-01 -4.35822278e-01 +1.30794808e-01 +4.97936755e-01 +1.57367736e-02 +1.52269959e-01 +2.42358729e-01 -1.56004066e-02 -1.10439861e+00 +7.85753354e-02 -3.92788053e-01 -4.00185466e-01 -4.10022251e-02 -3.44934076e-01 -1.72100425e-01 -4.02481169e-01 -1.57456156e-02 +4.58026379e-01 +3.65747362e-02 -3.62049997e-01 -7.23717093e-01 +2.39751905e-01 +2.41609961e-01 -1.48827827e-03 +2.96430081e-01 -1.40782997e-01 +6.09085977e-01 -2.94197589e-01 -1.85898423e-01 -1.03515577e+00 -8.49340796e-01 +2.29686916e-01 -2.14843705e-01 -2.31259033e-01 -1.05628319e-01 +2.02110291e-01 -1.44206583e-02 +1.62887454e-01 +1.32488504e-01 +1.77984402e-01 +8.88245627e-02 -8.28277599e-03 -1.80306748e-01 -2.20128030e-01 +3.30312133e-01 +8.60307664e-02 +4.07090746e-02 +1.93624705e-01 +1.38509974e-01 -2.77843505e-01 -1.28238767e-01 +5.09848967e-02 -8.01200271e-02 -1.36792541e-01 -1.52058154e-01 +3.05415746e-02 -3.30166459e-01 +6.99862763e-02 -1.54997762e-02 -9.84296277e-02 +2.71954089e-01 +2.95004696e-01 +1.59991737e-02 +1.54110759e-01 -8.94552656e-03 -1.07614100e-01 -6.18644767e-02 -3.34330142e-01 -4.80121970e-01 -1.11223385e-02 -5.93215644e-01 +1.43083809e-02 +2.32896209e-01 -1.44771054e-01 +6.47571310e-02 -3.16173404e-01 +1.92560956e-01 -4.82320875e-01 -1.68432042e-01 +4.88868743e-01 +1.69659168e-01 +2.26900548e-01 +3.16280991e-01 +2.17954427e-01 +5.68445884e-02 -4.35708106e-01 -8.84991896e-05 -4.15926844e-01 -3.08627725e-01 -1.25970021e-01 -5.31281114e-01 -3.23300600e-01 -4.90759194e-01 +1.50999352e-01 -4.25668538e-01 -1.87668905e-01 +4.46464926e-01 -3.05941343e-01 -8.32501519e-03 -5.28548919e-02 +2.40235671e-01 -4.17744100e-01 -2.23292291e-01 +1.77147403e-01 +3.77660424e-01 -2.52096742e-01 -8.74547601e-01 +2.20167682e-01 -4.46413547e-01 +2.11470366e-01 -3.39628458e-01 -1.11078871e-02 +3.18324901e-02 -3.10004950e-01 +2.88210511e-01 -2.39832655e-01 -2.88196564e-01 -7.78400525e-02 +3.15596581e-01 -4.72242720e-02 -8.35609809e-02 -2.22975791e-01 +1.51545107e-01 +5.20094514e-01 +5.51509798e-01 +1.06871143e-01 +3.57938349e-01 +8.92157257e-01 -7.62636900e-01 +2.67232686e-01 -1.97530329e-01 -4.14540350e-01 +8.95957947e-02 -2.79756993e-01 -5.12977876e-02 +3.49787474e-02 +3.04032117e-01 -1.81906044e-01 -1.22556239e-01 -8.80613506e-01 +4.95851487e-02 +6.32324994e-01 -2.79983461e-01 +6.56952918e-01 -1.00788064e-01 +9.61121693e-02 -7.01302961e-02 -1.84907258e-01 -1.92204490e-01 -2.42157161e-01 +2.45002076e-01 -2.82431126e-01 -3.52753013e-01 -5.22434652e-01 -1.46200985e-01 +8.91794413e-02 -4.30486470e-01 +5.14908314e-01 +6.34449199e-02 +3.79718021e-02 +2.24649385e-01 +4.48215038e-01 -1.44387424e-01 -3.18412244e-01 +1.43397912e-01 +1.44946843e-01 +5.19389138e-02 +2.48733852e-02 -5.20266034e-02 -1.93995610e-02 +9.67348963e-02 -1.38155967e-01 -7.15540871e-02 +1.77200496e-01 -5.72897851e-01 +6.76634163e-02 +1.10969849e-01 -2.75632590e-01 -1.12165473e-01 +2.22453084e-02 -1.45333230e-01 +6.31947145e-02 -8.62113480e-03 -1.30200967e-01 -8.61551892e-03 +4.13613141e-01 +1.34114176e-01 -3.36593948e-02 -3.07928741e-01 +2.27658600e-01 -2.87310272e-01 -9.09174085e-02 +5.45549765e-02 +2.66971797e-01 +9.64393141e-04 -9.77938175e-02 +1.31640598e-01 -2.36644242e-02 -2.61564583e-01 -1.21511444e-01 +6.65701702e-02 -1.75443292e-01 +3.34931314e-01 -4.70947921e-01 -3.40007395e-02 -2.25045890e-01 +1.69872001e-01 -2.94374108e-01 -1.55652672e-01 -2.83999085e-01 -1.86199978e-01 -1.45139742e+00 -5.36735840e-02 +2.13068232e-01 +1.33913934e-01 +3.73405576e-01 -1.39198825e-01 -6.99431449e-02 +8.83189291e-02 -2.65262485e-01 +9.16816965e-02 -9.17200893e-02 +5.50617576e-01 -1.58618644e-01 -3.60659391e-01 -8.92584845e-02 -2.45396301e-01 -1.09486476e-01 -1.54141188e-02 -4.93355721e-01 +5.04555106e-01 -5.27146935e-01 +1.18837595e-01 +4.99022931e-01 +6.77291811e-01 +2.37885073e-01 +7.70443976e-01 +1.64763644e-01 +3.35599452e-01 -3.47553939e-01 -9.55279246e-02 -1.33735299e-01 +6.90381527e-02 +5.31413499e-03 +3.66567314e-01 +3.13741654e-01 +7.23310038e-02 +6.92486286e-01 +7.87703633e-01 +7.65194416e-01 -1.52257621e-01 -5.06764233e-01 +4.85601947e-02 +4.13913652e-02 +6.18847549e-01 -2.95859337e-01 +4.73475531e-02 +1.50569500e-02 +7.10296750e-01 +3.08420509e-01 -2.12343752e-01 +1.56300232e-01 -2.39099205e-01 +3.22252005e-01 -1.10323511e-01 -2.03148365e-01 -2.99162328e-01 -3.75092588e-02 -4.63261604e-02 -1.48944676e-01 -2.24768281e-01 -2.34550595e-01 -9.53518376e-02 -4.67516422e-01 -7.09523931e-02 -7.85706401e-01 -7.54541382e-02 -9.05579925e-02 +1.64835140e-01 +7.75317848e-01 +5.88447899e-02 +1.29819602e-01 +3.20403308e-01 -3.09736401e-01 +3.08684409e-01 -6.38753831e-01 -8.44177455e-02 -2.52673775e-01 -1.05911064e+00 -5.10689616e-01 -6.74178675e-02 -2.58750379e-01 -2.12627888e-01 -1.74241170e-01 -6.87609613e-02 +7.46393278e-02 -3.03858280e-01 +1.16580985e-01 -3.04581344e-01 -2.54129738e-01 -1.80189431e-01 -2.38204580e-02 -3.52860838e-02 -4.44073714e-02 +6.84492290e-03 -3.67309339e-03 -6.41299561e-02 +1.56539515e-01 +7.01510757e-02 +7.20372703e-03 +5.18731922e-02 +1.03557460e-01 +2.31825754e-01 -2.33439937e-01 -3.57347250e-01 +5.49134538e-02 -3.39427739e-02 +7.32130855e-02 +1.52326509e-01 +2.92518079e-01 -1.10352106e-01 -2.22705185e-01 -9.27603394e-02 -2.69073337e-01 +3.12329158e-02 -7.78263509e-02 +6.19365096e-01 +4.91931379e-01 -8.93033147e-02 +4.43269044e-01 -4.26519215e-01 +3.22811365e-01 -5.54041602e-02 +3.10099483e-01 -2.25577176e-01 +1.22966925e-02 -5.63950203e-02 -2.69427538e-01 +2.10864902e-01 +1.97608143e-01 -4.15478833e-02 +2.94584662e-01 +1.87029108e-01 -4.67562914e-01 -2.16924727e-01 +1.19193293e-01 -1.93697378e-01 +5.40192612e-02 -2.67367333e-01 -1.23172961e-01 +7.92608336e-02 -2.53014624e-01 +1.78907812e-01 -6.09340906e-01 +2.28506729e-01 +1.98648885e-01 +4.09814296e-03 -1.60708055e-01 -4.01764661e-01 -6.47296663e-03 +7.12649643e-01 -2.50661790e-01 +1.81540266e-01 +1.29459694e-01 +8.40343237e-01 +2.39220522e-02 -2.74113864e-01 -1.24460556e-01 +4.90083039e-01 +4.55573387e-02 +5.78838468e-01 +4.63118076e-01 +9.60558727e-02 +1.45665079e-01 +2.36865669e-01 -8.57437903e-04 -2.17879072e-01 +1.62475690e-01 -5.89167416e-01 +9.79310349e-02 -1.27478629e-01 +3.18659902e-01 +8.30376923e-01 +5.22144213e-02 -3.07397902e-01 +5.28340280e-01 +4.13587898e-01 +9.11010355e-02 +4.03651565e-01 +6.14428282e-01 +3.68653715e-01 +7.20358714e-02 +1.43436983e-01 +2.75981631e-02 -3.87568414e-01 +1.44286335e-01 -5.02721965e-02 -8.30333009e-02 +5.19053154e-02 +4.25163120e-01 +3.00879359e-01 +4.75482374e-01 -2.46291965e-01 -2.63557404e-01 -4.66349311e-02 -1.35971248e-01 -2.63757825e-01 -1.66234359e-01 -5.93903027e-02 -2.77065337e-01 -4.44013417e-01 -3.03551972e-01 -4.82147127e-01 +8.12671985e-03 +7.08904982e-01 -9.29772332e-02 -2.74759084e-01 -1.65471613e-01 +1.71925485e-01 +2.48796996e-02 -2.45947298e-02 -3.52893084e-01 +1.30692452e-01 -5.55359796e-02 -1.98035747e-01 +1.08004697e-01 -5.48255481e-02 +2.04246402e-01 +1.28940800e-02 -1.01655029e-01 -2.06075445e-01 -8.30923691e-02 +1.55921713e-01 -1.71246622e-02 -4.32215147e-02 -2.17877328e-01 -5.16063254e-03 +5.86275347e-02 -2.12962791e-01 -1.36293083e-01 +1.72660112e-01 +1.51618496e-02 -9.18187797e-02 +2.59558946e-01 +1.07397877e-01 -3.79376978e-01 +3.23339878e-03 -2.06107005e-01 -2.15698674e-01 -6.89067394e-02 +1.46980554e-01 +4.65273350e-01 +1.96007431e-01 +3.86716761e-02 -3.08112025e-01 +1.62486807e-01 +4.36729044e-02 -1.60417542e-01 +1.42987102e-01 +9.50487033e-02 +2.06034720e-01 +1.07988548e-04 +6.80332631e-03 +1.21944025e-01 +2.18047455e-01 -1.23523876e-01 -2.72285432e-01 +3.21135744e-02 -3.10416609e-01 +2.80651711e-02 -2.81276226e-01 -1.33296058e-01 -2.25386664e-01 -2.27813706e-01 -2.70523876e-01 -2.55138397e-01 -1.16407663e-01 -1.47882076e-02 +1.87413007e-01 -1.63508862e-01 -3.09846108e-03 -2.22416550e-01 -7.03270063e-02 -1.82363093e-01 -1.27248123e-01 -3.42031956e-01 +6.48203269e-02 -2.51989782e-01 +2.93864235e-02 +1.89296231e-01 -1.41043067e-01 -3.27814490e-01 -2.39507899e-01 +3.87512930e-02 -3.44304472e-01 +3.71524811e-01 +6.99590445e-01 +4.16373555e-03 +7.78373957e-01 +8.73288438e-02 +6.83983564e-02 -1.02128819e-01 +1.86060131e-01 +1.82977229e-01 +4.01496649e-01 -3.12870353e-01 -1.57406285e-01 +1.06064945e-01 +6.78349018e-01 +1.25404997e-02 -4.96105663e-02 +3.51440012e-02 -6.00355566e-01 +1.60607219e-01 -4.94559258e-02 +6.19092360e-02 -9.09005851e-02 +2.33522922e-01 -1.65099204e-01 -6.42383993e-01 -2.39575818e-01 -3.27182740e-01 +1.55737713e-01 -5.10286927e-01 -4.25574064e-01 +1.76891193e-01 -6.29242435e-02 -2.80507237e-01 -3.30203146e-01 -2.97419894e-02 +3.58856656e-02 +5.64483218e-02 -4.53585744e-01 -2.09923998e-01 -7.29813948e-02 -1.57245696e-01 +9.93480235e-02 -2.75051384e-03 -1.90001920e-01 +2.12521985e-01 +9.02992487e-02 +9.43441689e-02 -1.45486087e-01 -3.09364319e-01 -1.45230517e-01 -5.34924716e-02 -4.22573872e-02 -3.98514807e-01 -1.98395163e-01 +4.58518900e-02 -9.84545201e-02 +1.95023149e-01 +3.73147987e-02 +8.38074982e-02 -9.30549502e-02 +3.06483358e-02 +3.63838859e-02 +1.07767023e-01 -2.14614496e-02 +1.86902776e-01 +8.55272636e-03 -2.09845632e-01 -4.57804352e-01 -7.35319704e-02 -1.12849623e-01 +2.50463545e-01 +8.77395719e-02 -4.44672108e-01 +1.69871986e-01 -6.62484318e-02 +1.90267280e-01 +2.86886811e-01 -1.38395965e-01 +9.38952267e-02 -1.93944126e-01 +6.17505237e-03 -6.39039725e-02 +2.11057961e-01 -2.34551746e-02 +1.51736708e-02 -1.83843166e-01 +1.38150394e-01 +2.65854478e-01 -3.22834015e-01 +4.02251840e-01 -4.79808122e-01 +6.27759844e-02 -2.82013744e-01 +8.77296329e-02 -1.42762259e-01 +4.71294596e-04 -5.44748485e-01 -3.01251590e-01 -2.46887386e-01 -2.46905252e-01 -2.67533034e-01 +3.42138261e-02 -3.32865566e-01 +2.53521562e-01 +6.97905004e-01 -5.07303834e-01 -8.62094536e-02 +1.55638337e-01 -2.26555318e-01 +2.37412766e-01 +7.92096332e-02 +1.32744104e-01 +2.84027666e-01 -9.62674394e-02 -1.73212335e-01 +1.83583736e-01 -3.16174775e-01 +1.65257335e-01 +4.50913310e-01 +4.83873874e-01 +2.25318387e-01 -2.54060328e-01 +2.78139293e-01 +2.25634933e-01 -7.06014708e-02 +5.71671128e-01 -3.82690370e-01 +8.81023481e-02 -6.55911416e-02 -2.93039143e-01 -1.89821988e-01 -8.13880205e-01 -7.13903531e-02 -5.21733880e-01 +2.71418363e-01 -4.38944399e-01 +2.16704145e-01 +1.04036726e-01 -2.17801362e-01 +3.59240025e-01 -3.75440121e-02 -9.04595673e-01 -1.21891454e-01 -2.25786775e-01 +1.96368829e-03 +4.75834668e-01 +2.85614450e-02 +1.88540444e-01 +7.32262898e-03 +2.09174395e-01 -1.03883967e-02 +2.97781914e-01 +3.97376150e-01 -4.14149165e-02 +5.68462372e-01 -6.90647289e-02 +9.33166027e-01 -3.74867134e-02 -2.23922476e-01 +1.45235896e-01 +1.34771556e-01 -1.96244884e-02 -4.71551985e-01 -3.99007022e-01 -1.01958461e-01 +3.81599367e-02 +2.61927634e-01 +4.68206346e-01 +1.05476946e-01 -1.37145519e-01 +1.81714877e-01 +2.08182022e-01 +1.03015959e-01 -2.99418598e-01 -2.08814532e-01 -1.54646218e-01 +1.05855860e-01 -2.23158956e-01 -2.53212005e-01 +2.95143217e-01 +7.27683604e-01 +1.71461552e-01 +3.65518406e-02 -4.50670347e-02 +7.94103071e-02 -2.38978013e-01 -1.58584490e-01 -1.86865292e-02 -1.04378320e-01 +3.25417742e-02 -1.06200077e-01 +2.25438610e-01 -3.90845817e-03 -1.43848613e-01 -7.34598637e-02 -1.46049485e-01 -6.06183370e-04 +2.89951026e-01 -1.50076777e-01 +8.58259574e-02 +9.03197750e-02 -6.48123324e-02 -1.16546445e-01 -6.54291436e-02 +1.17280319e-01 +3.81359756e-01 +2.48182043e-01 +4.10265923e-01 +4.79394734e-01 +1.77248612e-01 -4.51812476e-01 +6.20843023e-02 -7.95519259e-03 -2.54381746e-01 +8.30237865e-02 -3.32394764e-02 -2.22865015e-01 +2.45044634e-01 -5.02548158e-01 -3.10654901e-02 -1.34331420e-01 -1.89545471e-02 -1.92589059e-01 +6.32972717e-02 -2.65344828e-01 -3.16280127e-01 +1.38547704e-01 +2.13179633e-01 +2.47822985e-01 +1.14883043e-01 -2.34922484e-01 +4.10667479e-01 +3.52766365e-01 +3.57601911e-01 +1.02738501e-03 -9.41836387e-02 +8.99408534e-02 +3.56029630e-01 +1.09657021e-02 +1.72305465e-01 +2.73198754e-01 -9.38769057e-02 +1.11130662e-01 +2.53618449e-01 +5.90573763e-03 +6.78720996e-02 +7.02952564e-01 -1.54064270e-02 +7.92783201e-01 -2.72280186e-01 -2.03980118e-01 +6.38362393e-02 -2.93692946e-01 -2.21577585e-01 -1.39725193e-01 +4.23501581e-01 -5.86652756e-01 -5.39708912e-01 -7.87431747e-02 -8.98214638e-01 -3.81900579e-01 -1.40450269e-01 +2.70583987e-01 -1.04362190e-01 -4.83576655e-01 -3.24476570e-01 -1.04830749e-01 +3.63560617e-01 -1.28018722e-01 -1.07154536e+00 +4.83148485e-01 -1.12903319e-01 -7.11180121e-02 +2.12301344e-01 -2.35148907e-01 +3.43943179e-01 -5.32530606e-01 +7.66326636e-02 +2.13979647e-01 +2.43152410e-01 +5.17556429e-01 -6.09851852e-02 +1.08407825e-01 +3.65905911e-01 +2.82440156e-01 +7.81331122e-01 -4.48797606e-02 +3.90562475e-01 -7.75862113e-02 +2.39098877e-01 +4.89826426e-02 -2.67764539e-01 +2.08105981e-01 +3.45665187e-01 -3.80233712e-02 +2.55962729e-01 -3.02566379e-01 -8.83639082e-02 -3.51384819e-01 -5.46428710e-02 -2.14214325e-01 -3.03757846e-01 +1.65480450e-01 +1.24609627e-01 +2.47471016e-02 +6.53284192e-02 +9.70213860e-03 +5.06947696e-01 +3.18395853e-01 +1.82801127e-01 +1.61557809e-01 +3.29027232e-03 -2.20649078e-01 +4.51300666e-02 -1.28901437e-01 +8.92334655e-02 -8.38199481e-02 +3.29254754e-02 +1.21993385e-01 +8.20631906e-02 +1.05425820e-01 -1.18143111e-01 +5.33475056e-02 +2.18790486e-01 +2.03465208e-01 +3.40304561e-02 -2.48633608e-01 -1.39291301e-01 +4.63583350e-01 -2.55513638e-01 -1.16159953e-02 +1.15348637e-01 -2.39904001e-01 -1.22852307e-02 +1.06340736e-01 +1.56424269e-01 +2.35890776e-01 -1.61243882e-02 -2.37241402e-01 -5.42845689e-02 -1.36132598e-01 -2.23219603e-01 +2.41957784e-01 -4.17886265e-02 -1.61514685e-01 +3.03258121e-01 -1.05986141e-01 +1.91392064e-01 -1.53076917e-01 +3.58263612e-01 -3.03813946e-02 +5.39708212e-02 +1.12195881e-02 -1.04182161e-01 -3.67763579e-01 +7.29100406e-02 -3.36804330e-01 -5.93835786e-02 -3.04862708e-01 -1.27663523e-01 +3.81538481e-01 +3.31743121e-01 -2.33519658e-01 +4.58933800e-01 +8.82682279e-02 +1.62159532e-01 +1.29760966e-01 +4.90237564e-01 -6.32195622e-02 -1.08959191e-01 +4.61562067e-01 -2.14203879e-01 +2.29951933e-01 -1.26452642e-02 +3.14830124e-01 +2.53479391e-01 +1.58869755e-02 -1.57214016e-01 -1.67006373e-01 +3.03862900e-01 +1.88244537e-01 +7.11829262e-03 +9.76460874e-02 +3.78562540e-01 -6.55265510e-01 -6.40438557e-01 +6.62828535e-02 -3.57595205e-01 -2.08309814e-01 +6.65565193e-01 +5.85137844e-01 +1.32066026e-01 -4.64850431e-03 +6.81761444e-01 +4.07513976e-01 +2.13398486e-01 -9.86320138e-01 +4.33364976e-03 -8.02994594e-02 -1.53904662e-01 -3.30226302e-01 +2.01593816e-01 -1.41550630e-01 +7.18274355e-01 -5.78174651e-01 +7.94482604e-02 -2.90349334e-01 +4.59051132e-02 +8.18518698e-01 +2.64021277e-01 -2.39923701e-01 -2.28419248e-02 +2.75562316e-01 +5.96605957e-01 -1.49031198e-02 +2.81923085e-01 +9.76921767e-02 -1.45153785e-02 -2.97450095e-01 -1.58598144e-02 +2.58357942e-01 +2.92083651e-01 -3.95402052e-02 +7.67725259e-02 +4.84422684e-01 +1.50631934e-01 +2.09063277e-01 +2.41412222e-01 -3.47618580e-01 +3.98395181e-01 -2.23804619e-02 +1.78714633e-01 -1.48196205e-01 -2.39872709e-01 -6.33718371e-02 +2.75379837e-01 +2.95137204e-02 -3.46289091e-02 -5.92326485e-02 +9.06777680e-02 +3.22488695e-02 -9.73588154e-02 +3.67284492e-02 +7.03159813e-03 -1.81056216e-01 -2.17918992e-01 -1.44063190e-01 +1.22930080e-01 +4.00770232e-02 +4.55369949e-02 +2.56160378e-01 +2.38919836e-02 +2.25695655e-01 +1.86143622e-01 -3.38807553e-01 -3.70189995e-02 +1.32048264e-01 -6.36637658e-02 -1.73869073e-01 -8.30384903e-03 -1.27423540e-01 +9.31370109e-02 +1.64466739e-01 -1.36907175e-02 +1.66599706e-01 -7.96642378e-02 +2.12768409e-02 -7.32449219e-02 -2.96197087e-01 +9.31968093e-02 +3.56650949e-01 -3.12500924e-01 +2.91505069e-01 -1.68169662e-01 +1.09182291e-01 +2.23535150e-01 -6.71115294e-02 -2.74999198e-02 +1.27677098e-01 +1.80306043e-02 +2.43431553e-01 +2.17177093e-01 +2.75827229e-01 +8.55016336e-02 -8.13500211e-02 -2.32342005e-01 +1.09512553e-01 -7.73661315e-01 -4.44075286e-01 +3.10753077e-01 -1.33345097e-01 -2.96119660e-01 +2.46488616e-01 -8.48773718e-02 -1.86682269e-01 +3.25482041e-01 -2.08334178e-01 -3.91858786e-01 +1.39930263e-01 -3.06814134e-01 -2.64992155e-02 -1.86833680e-01 -2.06891850e-01 -2.44678020e-01 -4.18001831e-01 -1.62624821e-01 +2.96335220e-01 +1.65894315e-01 -4.10031639e-02 -3.67421895e-01 +1.23385541e-01 +1.64434955e-01 +1.53614148e-01 +1.77264035e-01 +9.67397243e-02 +3.98322582e-01 +3.56021881e-01 +6.21012509e-01 -7.56615773e-02 +3.18716347e-01 +4.01349753e-01 -1.93614155e-01 -4.84895930e-02 -4.76114824e-02 -4.80564237e-02 +1.01990867e+00 -5.72389305e-01 +1.11839831e-01 +1.57077760e-01 +2.48489812e-01 +5.75337000e-02 -3.06648910e-02 +4.61082608e-01 -5.70692979e-02 -6.57703355e-03 -5.11303842e-01 -5.43585777e-01 -3.91975492e-01 -3.04329962e-01 +2.66123325e-01 -7.83183515e-01 +9.12000313e-02 +1.59502700e-01 -2.41670251e-01 -2.88043469e-01 -1.42015398e-01 +2.93893754e-01 +5.58581233e-01 -1.18667461e-01 -9.28004384e-02 -3.69539410e-01 -1.68450207e-01 -1.47334412e-01 +4.11917031e-01 -1.74350411e-01 +2.43736386e-01 +1.47665128e-01 +3.27157706e-01 +7.35845119e-02 -7.36989379e-02 -1.84902754e-02 -3.04554671e-01 +3.32977362e-02 +2.10790051e-04 -4.45308149e-01 -3.77018899e-02 -8.21992010e-02 +3.73415686e-02 +1.37032196e-01 +2.97382683e-01 +2.84845233e-01 