#Parameter# /vanilla-lstm-builder/_0 {128,64} 131073 ZERO_GRAD
+4.49421294e-02 +3.22922230e-01 -7.91413188e-02 +5.14114559e-01 -2.42549643e-01 +9.05388966e-02 +2.81290740e-01 -3.25873435e-01 -3.98312569e-01 +1.06488660e-01 +1.59400329e-01 +5.52392304e-01 +4.54088509e-01 +1.43058777e-01 +6.00918829e-02 -1.96644440e-01 +3.14806491e-01 -5.48915900e-02 -5.18791601e-02 +1.89535812e-01 +4.72082980e-02 +3.55575204e-01 -2.14769002e-02 +3.33989769e-01 +2.01963410e-01 -2.26908952e-01 -1.37550132e-02 +1.39011433e-02 +1.67433202e-01 -1.37915621e-02 +2.77440608e-01 +2.24451631e-01 -6.40295446e-01 +6.41471986e-03 -2.14194164e-01 -1.49135649e-01 +2.26686262e-02 -3.58804017e-01 -3.67470533e-01 -6.44195601e-02 -4.57851231e-01 +7.74911046e-01 +3.20829079e-02 -2.47924943e-02 -5.61788045e-02 -4.80935961e-01 +9.26828384e-01 -5.61331399e-03 -2.89860845e-01 +7.88757205e-02 +2.34576121e-01 -1.72234058e-01 +1.81636676e-01 +1.10372864e-01 +3.54405195e-01 +3.54910553e-01 +1.79372624e-01 +2.64086992e-01 -4.09889191e-01 +4.06689703e-01 -8.08643177e-02 +3.22624773e-01 -3.54975984e-02 +2.44095623e-01 -9.25843343e-02 -1.17334127e-01 +3.09515744e-01 +1.72339287e-02 +1.93785995e-01 -3.69455308e-01 -9.64854658e-01 +4.98348564e-01 +2.93026984e-01 +3.80421758e-01 -2.49431580e-01 +7.53931925e-02 +1.10931635e-01 +4.66300771e-02 +1.69351935e-01 +7.78231770e-03 -2.68534362e-01 +2.04397187e-01 -3.88020962e-01 -6.96751475e-01 -7.60334134e-02 -3.73574227e-01 -2.08929092e-01 +4.30754274e-02 -1.78650394e-01 -6.32579252e-02 -3.72998446e-01 +3.04688960e-01 -1.33649364e-01 -2.96358466e-01 -2.82234669e-01 +7.49338120e-02 -2.07906246e-01 -2.68001884e-01 -4.02947925e-02 -7.77510479e-02 +6.55679265e-04 -6.91472962e-02 +4.34815228e-01 +2.99388859e-02 +8.70997161e-02 -2.70556062e-01 +1.17616847e-01 +5.77563196e-02 +1.22711807e-02 -3.74784134e-02 +1.84854075e-01 -1.38783112e-01 +1.36163071e-01 +8.26370530e-03 -1.01608895e-01 -1.95053190e-01 -7.23604485e-02 -9.03187871e-01 +2.22677067e-02 +1.51585072e-01 -2.22401366e-01 -4.11383547e-02 +1.18201226e-02 -2.49616399e-01 +2.35839769e-01 -5.11623286e-02 +5.85065819e-02 -5.06921038e-02 +3.12915534e-01 -3.09298247e-01 -3.00136507e-01 +2.59633690e-01 -6.92187965e-01 -3.72466177e-01 -2.71368116e-01 -2.91044176e-01 -2.75700748e-01 -2.34625965e-01 +1.52775466e-01 -8.00616622e-01 -3.96363229e-01 +8.16112682e-02 +3.87847275e-02 -9.56774354e-02 -6.61528647e-01 +2.90491998e-01 +3.83085981e-02 -2.08406195e-01 +2.45250612e-01 +1.08600900e-01 +1.22172721e-02 -8.28797594e-02 -1.32627666e-01 -7.73483980e-03 -4.03223932e-01 -9.69093144e-02 -2.63448745e-01 -2.52765983e-01 +2.26067796e-01 +3.51978950e-02 +3.71559143e-01 -4.21966612e-02 +8.24736357e-02 -2.55949169e-01 +3.78968596e-01 +1.90872550e-02 +3.06297153e-01 -2.34590215e-03 +6.31676376e-01 -1.12653792e-01 +6.11081839e-01 -2.73082107e-01 -1.19692527e-01 +3.68300706e-01 +2.11577117e-01 +3.43511462e-01 +4.43195134e-01 +4.58581477e-01 +6.11345470e-02 +1.38817608e-01 -3.59630913e-01 -1.59136072e-01 -1.62742034e-01 +3.77777487e-01 -2.38383651e-01 +2.39374489e-01 +3.68786186e-01 +1.64273888e-01 -1.24134898e-01 +1.40265852e-01 +5.07661141e-02 +9.29713473e-02 +7.49989927e-01 -1.03491753e-01 -3.00439179e-01 +2.33508319e-01 -2.28388071e-01 -3.40699673e-01 +2.54764169e-01 +9.77058802e-03 -4.05820280e-01 +8.21954757e-03 +2.39466280e-01 -2.72582650e-01 +3.23718458e-01 -1.50134951e-01 -8.68597161e-03 -1.10627003e-01 +8.30226719e-01 +5.58244765e-01 -8.18221211e-01 +7.23676801e-01 +2.00518206e-01 +4.12121892e-01 +1.14891164e-01 +4.32029843e-01 +9.30349454e-02 +6.12974346e-01 +5.42732656e-01 +3.97937030e-01 -1.69885352e-01 +2.40250915e-01 -1.82281919e-02 +2.36411616e-02 +2.53697693e-01 +1.86258569e-01 +1.27709266e-02 -9.89214983e-03 -7.79071450e-02 +2.00943332e-02 -7.06056207e-02 -1.16615258e-01 +2.00745687e-01 -2.03966111e-01 +8.44111368e-02 -5.41853905e-02 -5.27348630e-02 -5.67133464e-02 -1.07896827e-01 -1.79355536e-02 +4.25100654e-01 +1.27311841e-01 -3.94286275e-01 +1.35436356e-01 +8.16738084e-02 +2.45809898e-01 +2.45894000e-01 -2.20167637e-01 +4.34571594e-01 +1.32092521e-01 +7.59907588e-02 +7.08816126e-02 -8.49287063e-02 -7.21818060e-02 +1.60753578e-01 +3.45944688e-02 -1.86349317e-01 -1.99050596e-03 -2.28947803e-01 +4.23126459e-01 -2.35503837e-02 +1.43501654e-01 -2.37720162e-01 -1.93234123e-02 +4.53020260e-02 +3.63545716e-01 -4.68399003e-02 +9.21200216e-02 +1.21389650e-01 +2.98729092e-01 -6.15990162e-01 -3.39609757e-02 +1.04445025e-01 -4.35507894e-01 -1.68623373e-01 +4.52291518e-01 +3.63795757e-01 +1.68613315e-01 +2.65072882e-01 -3.44430387e-01 -2.98456848e-01 -3.18062305e-01 -1.08632915e-01 -2.93139160e-01 -1.35135874e-01 +2.37414259e-02 +3.93735617e-01 -4.54454571e-01 +1.00196831e-01 -5.70879698e-01 +4.90477262e-03 +2.02255487e-01 -6.33093566e-02 -9.72524658e-02 -2.22497284e-02 -9.22473297e-02 -5.83266795e-01 -3.13228756e-01 -3.28013420e-01 +1.15686268e-01 -4.68632758e-01 -2.11207837e-01 +1.28128558e-01 +3.06597441e-01 -3.36815000e-01 +1.35582611e-01 -2.66557455e-01 +1.83567375e-01 +1.46460280e-01 +1.04436278e-01 -2.22490609e-01 -7.75332674e-02 +3.72485071e-01 +7.06508279e-01 -1.78671166e-01 +7.01506659e-02 -4.35203999e-01 +3.04323822e-01 -2.44144034e-02 +6.57890916e-01 +4.68035221e-01 +2.62789905e-01 +1.45406455e-01 +5.43082535e-01 +4.89676625e-01 -7.80872330e-02 +1.01594202e-01 +1.81735128e-01 +4.74580079e-01 +4.77922142e-01 -3.39118391e-01 +2.44561911e-01 -8.14557821e-02 -1.24099307e-01 +2.85337090e-01 -5.16475618e-01 -3.69572341e-02 -1.93539456e-01 +1.34194523e-01 -5.17937720e-01 -1.13728590e-01 -1.08582348e-01 -4.12899163e-03 -8.37361664e-02 +3.16413790e-01 +1.69009179e-01 -5.98399378e-02 +1.61513180e-01 +2.83979475e-01 -5.43559968e-01 +2.40125880e-01 +1.01285435e-01 -4.84160036e-01 -2.72251815e-01 +1.15700327e-01 +2.71045435e-02 -2.89758205e-01 -2.52642900e-01 -1.72995329e-01 +2.20347881e-01 -2.23643348e-01 -2.18680874e-01 -2.26290807e-01 +3.42318714e-01 -1.70166373e-01 -1.60118695e-02 +4.15522419e-02 +4.15074034e-03 +3.80785108e-01 -1.41672287e-02 -1.75817847e-01 +1.30262747e-01 +2.44459584e-01 +3.59199792e-01 -1.20197348e-01 +2.79721953e-02 -1.55542776e-01 -3.18976045e-01 -8.77503976e-02 -6.79310635e-02 -1.56551257e-01 +2.26408038e-02 +2.31007412e-01 +1.33193597e-01 -6.55897185e-02 -4.95708197e-01 -1.87032700e-01 +3.13236833e-01 +1.01968348e-02 -2.37891585e-01 -2.20084682e-01 +1.59564793e-01 +1.97978243e-01 +2.91136742e-01 -2.50449091e-01 +2.42578872e-02 -2.09580258e-01 +3.56270552e-01 -5.71403146e-01 +9.92034972e-02 -8.47061574e-01 +1.20303771e-02 +5.95565200e-01 -9.57002789e-02 +2.08186805e-01 -6.46408414e-03 -2.02359408e-01 -2.90793598e-01 +1.38981745e-01 +2.37068176e-01 -1.68108046e-01 +2.66914159e-01 +5.62265106e-02 -1.34273231e-01 -4.17286664e-01 +1.18729159e-01 +2.61170477e-01 -5.15628695e-01 -3.69635791e-01 -3.82911891e-01 -5.06422967e-02 +1.83703884e-01 -5.30511364e-02 -1.46125108e-01 +7.48232603e-02 -3.91964689e-02 +3.30071568e-01 +3.03794205e-01 +1.31112784e-01 -1.27579734e-01 -4.47038144e-01 +7.52115995e-02 -3.38126421e-02 -1.40980408e-01 -1.05327755e-01 +5.07161796e-01 -2.89926112e-01 -1.59779578e-01 -7.57001266e-02 +3.63967046e-02 -1.31084174e-01 +5.89117855e-02 +4.13464218e-01 -1.24617340e-02 -8.05646479e-01 +1.99128926e-01 -3.55879545e-01 +4.31082956e-02 +5.10748774e-02 -5.24722934e-01 +2.93897539e-01 -3.05668890e-01 -2.39068538e-01 +1.91680156e-02 -4.54805531e-02 -3.49667370e-01 -2.51513235e-02 -6.79512858e-01 +1.86840907e-01 +5.50437629e-01 +9.09370705e-02 -2.06323311e-01 -1.76036492e-01 -1.62983015e-01 -1.70914903e-01 -1.59790397e-01 +2.74604782e-02 +7.36853063e-01 -4.15323824e-02 +5.42430758e-01 -2.65529215e-01 +1.12708800e-01 +3.12911212e-01 -4.15816084e-02 -3.16224918e-02 -1.86141327e-01 -2.67194122e-01 -5.54795116e-02 -3.11305195e-01 +3.66014123e-01 -1.30197167e-01 +2.02912360e-01 +6.22650003e-03 +4.93899696e-02 -4.32735905e-02 -6.47362843e-02 +1.30931512e-01 +7.23819360e-02 +8.16138685e-02 +7.05468506e-02 +5.81034720e-02 -8.32462385e-02 +1.65510904e-02 -1.60762593e-01 +4.25505415e-02 +3.16946089e-01 +2.72255003e-01 -3.15313369e-01 -2.35603884e-01 +1.55350655e-01 -1.39097616e-01 -1.58250317e-01 +3.06624830e-01 +1.25304326e-01 +7.59038702e-02 -4.64803018e-02 -9.11715403e-02 +1.11066081e-01 +1.60475805e-01 +1.36367127e-01 +2.38322094e-02 +1.15537457e-01 +9.58957374e-02 -6.07265413e-01 -2.27668762e-01 -3.50183845e-01 +2.61508614e-01 +1.60882547e-01 +4.44534481e-01 +6.46125302e-02 -2.16895211e-02 -4.19833362e-01 -2.17042521e-01 -2.83052564e-01 -4.94892836e-01 -1.44531846e-01 -2.83823051e-02 -3.01939100e-01 +1.91567168e-01 +6.74265176e-02 -1.48811817e-01 -1.74717918e-01 +1.10353358e-01 -1.53221101e-01 -5.87452110e-03 +5.11183023e-01 +7.87883811e-03 -2.77776510e-01 -5.77276899e-03 +4.96500582e-01 -1.93480551e-01 -2.70567864e-01 -1.64778903e-01 -6.51193410e-02 +2.93041319e-01 +6.97484851e-01 +1.04771361e-01 -2.95541227e-01 +6.23799324e-01 -1.40016928e-01 +2.12555826e-01 +3.25368285e-01 +7.56373405e-01 -3.75963122e-01 -4.17400934e-02 -4.14435744e-01 -4.48834479e-01 +7.77280480e-02 -7.81722844e-01 +2.87909031e-01 +7.76188821e-02 -4.80366170e-01 -1.15363181e-01 -4.90827322e-01 -9.84935313e-02 -5.00532210e-01 -4.95326251e-01 +5.20578384e-01 -2.62729138e-01 -5.59668601e-01 -1.66133940e-01 +4.85157460e-01 +4.26405430e-01 +5.43678999e-01 -3.94522071e-01 -5.83040357e-01 +6.19094014e-01 -1.94350123e-01 +1.33042127e-01 -7.24069118e-01 -3.83632958e-01 -1.55774593e-01 +3.58755141e-01 +3.29558142e-02 +4.33193967e-02 +3.72351408e-01 +1.58166751e-01 -7.38048613e-01 -3.80562842e-01 +2.49051511e-01 -6.97388053e-02 +2.19207063e-01 +5.09217083e-01 +2.06756592e-01 -2.33432949e-01 +4.46887881e-01 +4.77490008e-01 +1.45852372e-01 +1.96426302e-01 +5.11084497e-01 -4.98619676e-01 +2.15458304e-01 -3.66438851e-02 +1.04780503e-01 +1.14871405e-01 +3.34869117e-01 -1.02144025e-01 -4.14851785e-01 +1.22897558e-01 +3.80629450e-01 -1.36270851e-01 -1.82162687e-01 -2.33731464e-01 +9.26962048e-02 -7.89122954e-02 +2.76178151e-01 +1.61734194e-01 +7.82231539e-02 +3.10093343e-01 +1.31595105e-01 +6.61327422e-01 +1.47842571e-01 +6.68827593e-02 -2.12436572e-01 -3.58725101e-01 +3.42064887e-01 +1.81198150e-01 -3.27865005e-01 +1.93217516e-01 +8.57720822e-02 -1.60259157e-01 -3.09902597e-02 -5.43930903e-02 +4.39955622e-01 +6.22131228e-02 +1.72973037e-01 -3.40901554e-01 +3.03003415e-02 -2.02656358e-01 -2.69068778e-01 -1.99663863e-01 -2.71920174e-01 -1.29572272e-01 +2.15814612e-03 -1.58479050e-01 +2.24624261e-01 -2.02976748e-01 +7.86219984e-02 +5.14155738e-02 +2.12348059e-01 +3.70097131e-01 +2.41875365e-01 -5.36035839e-03 +1.24295622e-01 -1.34990290e-01 +2.11185277e-01 +1.86366379e-01 -3.41102809e-01 -2.70780683e-01 +3.95667315e-01 +6.38793036e-02 +1.13936931e-01 +2.71648824e-01 +4.12986547e-01 -4.16852325e-01 -3.80162060e-01 +1.25751629e-01 +3.23710710e-01 +4.69797373e-01 +2.05196112e-01 -3.13682929e-02 +1.74819037e-01 +6.04976952e-01 -2.25702122e-01 +2.36116379e-01 +7.20807314e-01 +3.05897176e-01 +4.11559075e-01 +1.92748725e-01 +9.93116915e-01 +4.23147798e-01 -2.06017762e-01 -1.56070262e-01 -3.49006414e-01 -6.74806833e-01 +1.85657009e-01 -1.11344401e-02 -7.74631500e-02 -7.22239316e-02 +1.47866234e-01 -1.66915014e-01 -3.72467488e-01 -4.64722037e-01 -6.09646499e-01 -1.54851824e-01 -2.05628961e-01 -3.11524794e-02 -2.62863696e-01 -5.26998639e-01 +2.83581764e-01 +2.93882340e-01 +8.52476060e-01 -2.35842615e-02 -3.65009844e-01 +1.63781896e-01 -1.41727716e-01 +3.53149511e-02 -2.97869265e-01 -7.24572539e-02 -2.35161576e-02 +5.12376130e-01 +4.30964440e-01 -1.55547574e-01 +4.56391990e-01 -1.14979982e-01 -7.13565826e-01 +6.20290399e-01 +1.10781416e-01 -2.61013746e-01 -9.10402313e-02 +2.63025314e-01 -8.01049471e-02 -2.25543320e-01 +1.35317728e-01 -5.10523558e-01 +8.02736938e-01 +3.04544549e-02 -3.27074304e-02 -2.88533658e-01 +3.77726376e-01 -6.74949680e-03 +3.94657791e-01 -9.90177542e-02 +2.28308767e-01 +1.33951204e-02 -9.38075185e-01 -3.07510078e-01 +2.60415196e-01 -2.63982683e-01 +4.04387534e-01 -3.17559056e-02 -6.39923289e-02 -1.84290022e-01 +8.52058977e-02 -1.47748455e-01 +3.11299507e-03 -6.55553043e-02 +2.37440303e-01 +2.00099200e-01 -2.41230819e-02 -3.33932221e-01 +9.80783999e-02 -2.22011298e-01 +2.67911613e-01 +1.85426489e-01 -4.24515083e-02 -1.34021426e-02 -5.84029555e-02 -8.12352002e-02 -2.16294243e-03 +3.24499160e-02 +2.18992859e-01 +8.22847113e-02 +1.74247652e-01 -1.59364372e-01 +1.34705350e-01 -1.77696913e-01 -1.41629353e-01 -1.75379530e-01 -3.15621234e-02 +2.08119944e-01 -2.30780169e-02 -4.03395593e-01 +4.40043032e-01 -4.64320749e-01 +1.85008451e-01 -2.12786585e-01 -1.86913341e-01 -1.94597527e-01 +2.45013148e-01 +7.85230845e-02 +2.25039735e-01 -2.54163980e-01 +5.68174943e-02 -1.84964404e-01 -8.22819322e-02 +4.75681834e-02 +2.47346386e-01 +4.68041711e-02 +1.86956227e-01 -1.91359054e-02 -1.09702341e-01 +7.29181152e-03 -1.19904205e-01 +1.91377759e-01 -8.27767551e-01 -2.79443830e-01 -4.18697745e-01 +2.37605527e-01 -6.65533841e-02 +1.52679488e-01 -2.92024672e-01 +1.47259440e-02 +2.56840944e-01 +3.28132331e-01 -1.16080277e-01 +2.66456127e-01 -3.34104180e-01 -3.53904337e-01 +7.28851676e-01 +3.54165018e-01 -6.79537535e-01 -1.05053878e+00 -6.17639899e-01 +7.33501852e-01 +4.31672633e-01 +2.78511554e-01 -1.66750744e-01 +1.22719124e-01 +4.62163895e-01 -1.73894063e-01 -2.67343938e-01 +1.00985765e+00 +7.99370557e-02 +3.63555372e-01 -6.41097054e-02 -5.80601275e-01 +4.50844280e-02 -5.16785420e-02 +4.44283217e-01 +3.73922139e-01 -1.37999967e-01 +2.87010849e-01 -2.12045491e-01 -2.46032953e-01 -7.79614598e-02 +1.18143164e-01 -5.44388950e-01 +1.10834248e-01 +5.68168521e-01 -3.65711078e-02 +5.80523074e-01 -4.52999294e-01 -4.81335759e-01 +1.86722994e-01 -1.04778878e-01 -1.92751527e-01 +3.79272729e-01 -4.50726181e-01 +5.70378825e-02 +3.16897124e-01 -5.35427593e-02 -2.08469003e-01 -7.40575969e-01 +2.44950533e-01 -4.23493475e-01 -4.39214781e-02 +4.89359826e-01 +5.39637394e-02 +1.14084996e-01 -7.50981271e-02 -8.46498907e-02 +1.50170594e-01 +7.59090334e-02 -3.94004047e-01 -5.07843159e-02 +1.23531431e-01 +3.03666480e-02 +8.59775543e-02 -1.45833030e-01 +2.94160634e-01 -1.14030994e-01 +4.46526892e-02 -6.75028563e-02 +2.51018759e-02 +5.76397717e-01 +2.34007940e-01 -7.39053264e-02 -3.12488526e-01 -5.04914634e-02 +2.31108457e-01 +1.98156759e-01 -1.60826728e-01 -8.01634714e-02 +5.10794297e-02 -1.37232706e-01 +1.29273191e-01 +1.88996613e-01 -9.13197696e-02 +2.31137931e-01 -1.18442290e-01 +9.69451154e-04 +3.26155633e-01 -1.67634174e-01 +4.49495092e-02 -1.28248319e-01 -9.70765725e-02 +2.64296055e-01 +3.10925782e-01 -8.65474418e-02 +2.20376849e-01 +2.06264660e-01 +5.78866675e-02 -2.49881204e-02 +1.34628966e-01 -2.41265818e-01 -1.50752291e-01 +2.66012102e-01 +8.66003811e-01 -6.81302398e-02 +6.80266693e-02 +5.75772762e-01 -6.18409365e-02 -2.17659757e-01 +2.82911509e-01 +8.97684768e-02 -2.18436733e-01 -2.77664810e-01 +4.54639196e-02 +4.06799436e-01 +1.82540759e-01 +1.26677305e-01 +3.05844337e-01 -7.33075291e-02 -1.01201557e-01 +7.16208667e-02 +3.28897350e-02 -4.26914692e-02 -2.71683246e-01 +2.48506323e-01 +6.92847650e-03 +1.29016387e+00 -3.06150347e-01 -1.56897098e-01 +6.15413725e-01 -3.85233343e-01 -1.49669111e-01 +9.19914484e-01 +2.22284898e-01 -5.27110636e-01 +2.52553940e-01 -1.67478323e-02 +8.31241667e-01 +3.54843169e-01 +8.75697732e-01 -6.50822580e-01 +2.56326973e-01 -1.13932982e-01 -4.38276738e-01 +5.58254600e-01 +1.25374746e+00 -6.42435476e-02 -1.61094159e-01 -4.13467318e-01 +1.09799251e-01 -4.75961685e-01 -1.49811640e-01 -1.84351623e-01 +2.77878016e-01 -8.61157835e-01 -5.45998156e-01 +3.46556157e-01 +1.85718924e-01 +8.15995455e-01 -1.88949734e-01 +4.41990614e-01 +1.89196646e-01 +1.21490538e-01 +9.62188989e-02 -2.34852269e-01 +1.23248540e-01 -5.42907640e-02 +9.31640089e-01 +1.84842214e-01 -8.04510191e-02 +1.54794157e-01 +3.02610219e-01 -3.03779496e-03 +4.13039297e-01 -1.11196842e-02 -3.64481211e-01 +1.89111128e-01 +7.09648058e-02 -2.49742791e-01 -2.74567068e-01 -5.79469025e-01 +2.90357381e-01 -6.32326007e-02 -2.89439142e-01 -1.78361297e-01 -3.62431794e-01 -5.06928377e-02 -1.92202166e-01 -6.27579391e-02 -7.49837458e-02 +3.54287684e-01 -2.63679177e-01 -5.91616631e-02 -6.58054650e-02 -1.14206076e-01 -2.09125593e-01 +2.86004487e-02 -1.96374819e-01 +1.65335685e-01 -1.21357903e-01 -1.41651019e-01 -3.60741018e-04 -3.35612148e-02 -7.25625977e-02 -2.41571218e-01 +1.47477433e-01 +1.01507142e-01 -9.80025157e-02 +2.70867225e-04 +2.18533456e-01 +1.53932169e-01 +2.44355872e-02 +3.16281527e-01 -2.01163411e-01 +4.64921854e-02 -2.02460572e-01 -2.23616421e-01 -3.26885968e-01 -3.54336463e-02 -1.77198872e-01 -2.39680082e-01 -4.44176886e-03 -1.54069752e-01 -9.62453857e-02 +2.70841181e-01 -6.26634002e-01 +2.33553931e-01 +9.41244438e-02 -7.91508183e-02 -1.36454687e-01 -4.67655718e-01 -4.39572185e-02 +2.48581246e-01 -4.86425489e-01 -7.20180273e-02 -1.95972219e-01 +3.17215025e-02 +3.24157566e-01 -1.89309925e-01 +1.39335394e-01 -2.15129316e-01 -9.13073942e-02 -3.21469337e-01 -7.44891772e-03 +3.57692275e-04 +1.19216315e-01 +4.33572561e-01 -3.07190359e-01 +6.69666529e-02 -2.26892173e-01 +3.64432365e-01 +6.28369570e-01 -5.83754890e-02 +2.69918591e-01 -1.08345568e-01 +2.41003752e-01 +1.87549099e-01 +4.23323840e-01 -6.93484619e-02 +2.19725534e-01 -2.87170738e-01 +4.86360431e-01 +2.33421057e-01 -2.86282688e-01 +2.83414721e-01 -2.48217329e-01 +3.28225106e-01 -1.30572384e-02 -3.48332077e-01 -3.00430030e-01 +2.53846288e-01 +3.96794081e-02 -4.16895777e-01 -1.23417109e-01 +4.46592979e-02 -5.11971354e-01 +1.26960590e-01 +1.56086445e-01 +7.37024173e-02 -2.55615026e-01 -1.81000099e-01 -3.08786571e-01 -8.12450469e-01 +9.69941542e-02 -3.83390225e-02 +8.84877369e-02 -3.21491718e-01 -1.67417929e-01 -5.58032058e-02 +6.23059452e-01 -4.59686778e-02 -1.35608897e-01 -7.36691117e-01 +1.98907420e-01 -2.61949241e-01 +2.31297359e-01 -8.76041576e-02 -4.92404878e-01 +1.23452418e-01 +1.02774240e-01 -2.30151147e-01 -2.29656756e-01 +7.45127380e-01 +1.89612448e-01 +6.49532497e-01 +5.22610620e-02 -1.32559568e-01 +4.11178529e-01 +1.57268755e-02 -1.71574533e-01 -1.01636499e-01 -2.30101794e-02 +1.34651050e-01 +1.84247866e-01 +1.69707119e-01 -2.63650455e-02 +2.23370507e-01 -1.32432595e-01 +3.55006009e-01 +4.75506186e-02 -1.38591155e-01 -9.10543129e-02 +1.92232445e-01 +3.44063481e-03 +2.51433313e-01 +5.28115146e-02 -1.56773143e-02 +1.66277159e-02 +1.78293362e-01 -3.77125055e-01 +3.94130707e-01 +6.43980056e-02 -1.66324284e-02 -1.72531068e-01 +3.90698522e-01 -1.65736690e-01 +2.56205440e-01 +2.19961718e-01 -2.28418410e-03 +3.26718748e-01 -6.73613399e-02 -1.62214234e-01 +2.73387462e-01 +2.49262035e-01 +1.71376735e-01 -7.42404088e-02 -8.83249715e-02 +2.04068542e-01 -1.79467022e-01 +4.33236182e-01 +2.48042762e-01 -6.81763366e-02 +2.95346826e-01 -2.28567332e-01 +8.81686062e-02 +2.09543347e-01 -5.63046560e-02 -5.17862178e-02 -7.66857862e-01 -3.30843896e-01 +3.14582050e-01 -1.14999168e-01 +8.16645771e-02 +5.63814156e-02 +1.72697037e-01 -1.85806174e-02 -2.30068535e-01 -1.45426616e-01 -2.21546311e-02 +1.06609695e-01 +8.68595988e-02 -2.06879377e-01 -9.60002765e-02 -1.26080528e-01 -1.01141058e-01 -2.05876026e-03 +9.26152319e-02 +2.80058146e-01 -1.00537471e-01 +3.38521093e-01 +8.64103660e-02 +1.26448512e-01 -2.75759906e-01 +1.07416725e-02 +3.97478253e-01 +1.39409959e-01 +1.96546897e-01 +5.49404442e-01 -8.41110051e-02 +4.68914449e-01 +2.88895607e-01 -4.68421042e-01 +3.75591099e-01 -3.11611384e-01 -3.69962871e-01 +4.25651938e-01 +2.12956473e-01 -2.55702227e-01 -1.54335141e-01 +2.70998001e-01 +5.15566841e-02 +6.62753880e-01 -4.09448892e-01 -7.94781029e-01 -2.22848669e-01 +7.11952746e-02 +2.04097658e-01 +2.13128641e-01 +2.76071072e-01 +6.35354102e-01 +5.31572811e-02 +2.91991811e-02 +2.86477387e-01 -8.61137360e-02 +1.46136627e-01 -1.65347885e-02 +1.25582978e-01 +6.89736366e-01 +8.76839682e-02 -2.49507912e-02 -3.34937334e-01 +4.14666682e-02 -3.35548192e-01 -1.21471323e-01 -7.86772072e-02 -1.79082174e-02 -1.56267375e-01 -5.69290332e-02 -1.28308356e-01 +2.03966796e-01 +2.14718223e-01 +3.47247690e-01 +9.39558893e-02 +4.06458676e-01 +2.89674520e-01 +2.55308986e-01 -9.74293239e-03 -3.51435766e-02 -2.03963265e-01 +2.13802889e-01 +9.48899463e-02 +4.74822789e-01 +1.64059892e-01 +3.66526879e-02 +4.25856590e-01 +1.27763629e-01 -1.35734826e-01 +1.04177929e-01 -3.70574333e-02 -2.99667627e-01 -9.42163169e-02 +1.68513864e-01 -3.64426611e-04 -8.79792348e-02 -1.35701120e-01 -3.03448290e-01 +1.23159766e-01 -7.24168867e-02 -3.34682874e-02 -6.76658452e-02 +1.65276289e-01 +7.80292153e-02 +2.21677437e-01 -2.43870139e-01 +5.02064407e-01 +4.40799519e-02 -4.49723713e-02 +2.87503868e-01 +5.50932586e-02 +7.74537250e-02 +4.13393974e-02 -3.90073135e-02 -4.63929661e-02 +9.80704278e-02 +8.64463747e-02 +3.18706989e-01 +1.45019487e-01 +1.02704063e-01 +3.11126828e-01 +6.20992929e-02 +1.11460626e-01 -1.20509736e-01 +2.95285761e-01 -1.37404865e-02 +3.12935710e-01 +1.36158749e-01 +6.33536756e-01 -2.35283852e-01 -1.88970923e-01 -6.14386201e-02 -1.42635316e-01 +7.74603903e-01 -7.07538624e-04 -1.19318783e-01 -2.75814801e-01 -5.95308542e-02 +2.83388108e-01 +5.23430295e-02 +5.13394661e-02 -3.72792967e-02 +1.77690133e-01 -5.57954311e-01 +1.10341338e-02 +2.89129138e-01 -1.19794875e-01 +4.17407811e-01 -2.35976294e-01 -6.62186801e-01 -4.90655690e-01 -5.58085799e-01 -1.64557233e-01 -2.60086302e-02 +1.79107457e-01 -2.54034460e-01 -1.12956308e-01 -4.04256970e-01 -4.57362860e-01 -7.72266030e-01 +1.29748628e-01 +2.59853750e-01 -3.88430953e-01 -1.55291572e-01 +8.97468105e-02 -7.60722756e-01 +1.45610094e-01 -7.91093111e-02 +4.59392279e-01 +3.00965142e-02 +1.14646927e-01 +3.59235555e-02 -4.26997989e-02 +8.50443184e-01 +6.32635355e-01 +2.47125123e-02 +1.84714019e-01 -1.13850713e-01 -6.80867881e-02 -2.66726553e-01 +6.46766484e-01 -1.74957961e-01 -4.97676097e-02 +1.60774142e-01 +6.30972907e-02 +4.75723237e-01 -3.44023794e-01 -2.23256454e-01 -1.36818469e-01 +2.06290767e-01 +4.19329792e-01 -3.63344163e-01 +3.35582107e-01 +7.77054876e-02 -3.43523920e-02 -7.35188201e-02 -5.49447499e-02 -5.16021192e-01 -4.87107426e-01 +2.49484211e-01 -7.45881081e-01 -5.87722898e-01 -2.89309919e-01 -3.99560064e-01 -1.65341541e-01 -5.76453991e-02 +8.94108936e-02 -4.37057167e-01 +5.75823374e-02 -8.70944262e-02 -2.82160789e-01 +7.19029829e-02 -5.67344576e-02 -1.41207635e-01 -4.76242900e-01 +1.22735538e-01 +1.17740929e-01 -1.54270813e-01 -1.29557222e-01 +8.49073604e-02 +2.02677488e-01 +1.21591575e-01 -5.90514131e-02 -3.34056824e-01 +3.87385823e-02 -4.29910272e-02 -5.54906344e-03 +2.89387822e-01 +5.08852676e-03 +2.98480373e-02 +8.41865912e-02 +2.47330844e-01 -1.48846045e-01 +1.33638054e-01 -3.09982896e-01 -2.10001439e-01 -5.61118964e-03 -2.55618215e-01 -9.93705615e-02 -3.53194955e-05 -2.39568695e-01 -2.40519702e-01 +2.66791582e-02 +2.14912832e-01 +1.12262800e-01 +2.48340741e-02 -7.86512256e-01 -2.21439391e-01 -2.53554732e-01 -4.84210163e-01 -2.18872130e-01 -4.36230272e-01 -6.11954518e-02 +1.48543864e-01 +5.30207813e-01 -2.92698145e-01 -5.65512717e-01 -2.81516492e-01 +4.32537436e-01 -3.63471359e-01 +5.58759689e-01 +1.38407424e-01 -2.65022870e-02 -2.89350092e-01 +4.58050698e-01 +4.48261090e-02 +1.96720645e-01 -1.59685791e-01 -2.60817438e-01 +3.88940036e-01 +7.13588595e-02 +5.95686316e-01 -1.15662262e-01 -1.05741769e-01 -4.56674218e-01 -2.13314191e-01 -4.69134487e-02 +9.08935256e-03 +3.43655795e-01 -2.77479179e-02 -2.35903725e-01 +1.42247319e-01 -1.34367850e-02 -7.12498426e-01 -2.20182329e-01 +4.19569671e-01 -2.11081281e-01 +1.01598576e-01 +6.61921874e-02 +2.47471202e-02 +1.26720481e-02 -5.90541422e-01 -9.29948330e-01 +3.97087485e-01 +2.36129075e-01 +1.09901708e-02 -8.94138753e-01 +3.75837892e-01 +8.30547392e-01 -6.01314843e-01 -2.78317690e-01 +1.21157788e-01 -4.46882933e-01 -4.05643612e-01 +1.32937908e-01 -4.21633571e-01 -2.10271746e-01 -3.22376229e-02 +1.22923695e-01 +6.16607785e-01 +3.40495348e-01 -2.68214375e-01 -6.64005205e-02 +3.02551359e-01 -3.00350219e-01 -6.38217807e-01 -3.19780827e-01 -1.10163890e-01 -2.44513810e-01 +7.16220364e-02 +1.18811764e-01 -6.76212072e-01 -5.21796942e-01 +1.09224297e-01 +1.51724920e-01 -1.24408118e-01 -7.00020075e-01 -2.69283563e-01 -6.22106254e-01 +9.82844681e-02 +6.50604427e-01 +4.75416809e-01 +2.01590285e-01 +2.90997744e-01 +2.14208663e-01 -2.08571061e-01 +1.77378580e-01 +9.13222954e-02 -5.20896316e-01 +1.21014208e-01 +4.10284489e-01 +1.36982158e-01 +2.24590272e-01 -2.19044283e-01 -8.75042751e-02 +1.47681460e-01 +1.19686954e-01 +5.81882894e-02 -1.35954395e-01 -2.57013757e-02 -2.95808278e-02 +6.96247593e-02 +1.40772149e-01 -2.24006042e-01 -7.60861486e-02 -4.38408814e-02 +6.02128962e-03 +1.37317821e-01 -3.51966083e-01 +1.22674383e-01 +7.97090977e-02 -3.98342721e-02 -3.10613904e-02 +1.54045179e-01 -5.19429073e-02 +1.56136334e-01 -1.54112414e-01 -2.09463481e-02 +3.66415828e-02 -2.02578887e-01 -1.67273376e-02 +1.79711387e-01 +3.47232729e-01 -1.36154830e-01 -5.66797137e-01 +1.82948500e-01 -2.25216657e-01 +5.62591068e-02 -9.62706134e-02 +1.04122341e-01 +3.46427917e-01 +1.98045000e-02 +1.43913850e-01 -5.33010781e-01 +1.08234482e-02 -2.94292092e-01 +3.30609381e-01 -1.27543673e-01 -1.71249777e-01 -7.77734637e-01 -1.16637319e-01 -8.48604068e-02 -2.19196491e-02 +3.35803092e-01 -2.32300684e-01 +4.95431349e-02 +3.94592047e-01 +4.80486378e-02 +9.02467594e-02 +3.35084945e-01 -2.44760051e-01 +1.76787883e-01 -2.89811909e-01 -1.87934831e-01 -1.25324145e-01 +4.72756356e-01 +2.70825446e-01 +1.17036074e-01 -5.37318885e-01 +4.71652329e-01 +5.78917146e-01 -7.76743412e-01 +1.00309789e-01 -4.32778075e-02 -8.72161016e-02 -4.55891460e-01 -4.20649260e-01 -2.33995095e-01 +4.88014817e-01 -3.93478751e-01 -7.38329530e-01 -6.24618642e-02 -2.51160979e-01 +1.66423306e-01 -5.10215163e-01 -2.84196496e-01 -8.63198712e-02 -9.09770846e-01 -5.87261558e-01 -9.54417363e-02 -2.12790310e-01 -6.97434604e-01 -4.13488805e-01 +9.75633934e-02 -7.05618337e-02 +5.21379352e-01 -4.71166611e-01 +4.08309639e-01 -5.19268215e-01 -3.25409949e-01 -3.39931250e-01 +8.13976750e-02 -7.91828930e-02 -2.02485427e-01 -1.36655301e-01 +2.32933775e-01 -3.14935781e-02 -2.68169105e-01 +2.37768799e-01 +9.47135165e-02 -2.27798238e-01 +1.30968913e-01 -2.39748344e-01 -3.35958034e-01 +8.86610299e-02 +3.92123759e-01 -9.20304209e-02 -4.84961718e-02 -2.63063144e-02 +2.64881730e-01 -5.15352786e-01 -5.28484099e-02 +1.90087155e-01 +1.15543827e-01 -2.57851869e-01 -6.75779209e-02 -5.86451590e-01 +2.62517959e-01 +4.04381528e-02 +4.18561473e-02 +2.80010492e-01 -9.20767635e-02 -7.73828253e-02 +2.21073493e-01 +1.92574874e-01 +3.60514164e-01 -3.64701957e-01 +1.41367823e-01 +1.33146077e-01 +8.97960830e-03 +4.89634514e-01 +4.85595703e-01 +7.62056326e-03 +6.56166226e-02 -1.20493658e-01 -1.13653205e-01 -2.83919796e-02 +1.35883447e-02 -4.18451428e-01 +1.11796960e-01 -4.99425590e-01 +7.19419569e-02 +5.90892881e-02 -1.41415417e-01 -2.54452795e-01 -1.48492306e-01 +4.26605158e-02 +9.63044688e-02 -1.25241697e-01 +7.19639435e-02 +1.44774541e-01 -3.50665115e-02 +1.91473607e-02 -2.47470811e-01 +8.87841508e-02 +3.47525239e-01 -6.76459894e-02 +2.48032004e-01 +2.62327611e-01 -1.25567898e-01 -1.88107878e-01 -2.29067922e-01 -4.36026216e-01 +3.07763010e-01 +2.21631929e-01 -1.71904549e-01 -1.06855907e-01 -5.01834869e-01 -3.09706181e-01 -8.57681707e-02 +2.56672889e-01 +2.33576834e-01 +5.04988432e-02 -2.04294950e-01 +1.54245719e-01 +1.92167088e-02 -2.71713108e-01 +1.06898412e-01 -1.56428829e-01 +5.86616807e-02 +5.26926816e-02 +4.76204231e-02 -2.81925738e-01 +2.92832255e-01 -4.24448073e-01 +5.34877300e-01 +3.61610949e-01 +1.83608413e-01 +1.19055696e-02 +1.37621835e-01 +4.13079739e-01 +2.80109905e-02 +3.23424548e-01 +5.52636027e-01 +2.39538267e-01 -1.78866357e-01 +4.67199892e-01 +1.84899896e-01 -8.25721994e-02 +5.06741226e-01 +1.73074111e-01 -3.24538350e-01 -3.57120842e-01 +3.58340889e-02 +9.15981829e-03 -2.11995587e-01 +3.10366720e-01 -7.70210207e-01 +3.48023951e-01 -1.69363633e-01 +1.42672256e-01 +9.50000882e-02 +1.42564327e-01 +5.62778637e-02 -1.63798898e-01 -1.96243748e-01 -3.65203544e-02 +1.01784229e-01 +7.14095533e-01 +4.67246413e-01 +2.64171094e-01 +3.90991896e-01 +2.57327974e-01 +1.72471389e-01 -5.72022200e-01 +3.31295319e-02 +2.59185970e-01 -2.91627467e-01 +3.79313856e-01 +2.62145340e-01 -1.17649853e+00 -3.38508189e-01 +4.49107528e-01 +4.57545012e-01 -1.63147584e-01 -8.67016837e-02 +1.72663212e-01 +7.61983320e-02 -1.27578467e-01 -1.38317393e-02 +1.13471430e-02 +3.70600820e-01 +1.72437012e-01 +5.39166808e-01 -2.82915682e-01 -2.18101945e-02 -2.84117013e-01 -2.30579585e-01 +1.88959897e-01 -1.36193493e-02 -2.72992611e-01 +5.58891781e-02 +2.98565044e-03 +2.38393068e-01 -1.58292934e-01 -1.32351801e-01 -2.72023529e-01 +1.96626596e-02 -3.78907286e-02 +2.14639772e-02 +9.38978866e-02 +2.85848752e-02 +2.13039964e-02 +7.83715099e-02 -3.60604413e-02 -1.74426571e-01 +1.60399463e-03 -1.22516505e-01 +2.89802372e-01 -9.04775262e-02 -2.99209217e-03 +7.42820874e-02 -4.01401699e-01 -7.87293315e-02 -9.44830701e-02 -6.54555783e-02 -7.30439797e-02 +2.56306559e-01 +4.12254147e-02 -4.39583585e-02 +1.01013258e-01 -2.03583583e-01 +3.39723984e-03 +4.43965852e-01 -2.65772998e-01 +5.52046478e-01 +4.05503094e-01 +1.83833782e-02 +2.34292224e-02 -2.27593616e-01 +3.51765394e-01 +1.54588521e-01 +1.63562652e-02 +3.28644484e-01 +3.33387226e-01 -5.09211272e-02 -2.83510657e-03 -4.62743007e-02 -1.68295547e-01 +1.12545192e-01 -9.89567935e-02 -1.97325587e-01 +3.85483801e-01 +1.97757453e-01 +3.91325831e-01 +3.22334409e-01 +4.47923899e-01 +1.62167296e-01 +2.12910086e-01 -4.29774016e-01 -1.19418971e-01 +4.67544869e-02 +1.38330489e-01 +6.26503766e-01 +6.14920080e-01 -5.11602521e-01 +7.41531048e-03 -2.67798137e-02 +1.02465913e-01 +4.17872779e-02 +1.48740843e-01 -3.39643896e-01 +4.10469621e-01 +7.23761141e-01 +1.01599835e-01 -2.63687462e-01 -2.41827071e-01 +4.81028378e-01 -8.45472276e-01 +8.05844843e-01 -3.18232745e-01 -2.12080628e-01 +6.06289268e-01 +3.09468329e-01 -7.70100415e-01 -3.64722371e-01 -8.03053528e-02 +3.93007964e-01 -3.08147073e-01 -4.95030493e-01 -1.83570817e-01 -1.48041382e-01 -4.93315279e-01 -5.33384323e-01 +3.09317410e-01 +5.68506062e-01 +6.25577033e-01 +4.25046355e-01 +7.70900607e-01 -3.05583298e-01 -7.27341278e-03 +4.81906354e-01 -4.80926603e-01 +2.59485841e-01 +7.20027804e-01 +7.82461464e-01 +3.62888396e-01 +4.02918011e-02 -2.34377831e-01 -1.11047685e-01 -4.26364481e-01 +8.08788300e-01 -2.01414466e-01 -3.54438990e-01 +3.49263906e-01 -3.68843317e-01 -1.59869328e-01 -3.24704461e-02 -2.79956937e-01 +2.50522792e-01 -1.68533057e-01 -3.68522294e-02 -4.73274052e-01 -2.13545978e-01 +2.73231834e-01 -8.09554979e-02 +4.77784351e-02 +6.33488595e-02 +1.11880787e-01 -1.28240213e-01 +1.36832237e-01 -2.53202785e-02 -8.42749402e-02 +1.02355011e-01 -5.66927642e-02 +1.11296982e-01 +9.29613933e-02 -1.20068621e-03 +3.06406785e-02 -3.48088965e-02 +2.51827210e-01 -1.11537576e-01 -3.77086997e-01 -2.93732379e-02 +2.03862309e-01 +1.77611429e-02 -2.26719026e-02 +3.22628468e-01 +5.34541719e-02 +3.64965498e-02 +1.34228887e-02 -6.99972332e-01 -4.50514369e-02 +2.34097373e-02 -1.87619895e-01 +6.96518719e-02 +1.11542484e-02 +5.20658232e-02 +3.59810218e-02 -1.09808497e-01 -2.88414091e-01 +3.27315897e-01 +1.14293426e-01 +1.73475910e-02 +8.53303373e-02 -1.08501062e-01 +1.99223876e-01 +2.48585492e-01 +5.42746782e-01 -6.54368252e-02 -3.60572487e-01 -6.37240335e-02 +8.84950310e-02 +1.25577971e-01 -3.20885144e-02 +1.61228180e-01 -2.63538390e-01 +1.57739237e-01 +1.73028052e-01 +3.18269953e-02 -2.02443581e-02 -3.73573869e-01 +3.41893405e-01 -2.57364064e-01 +3.26999754e-01 -8.86932611e-02 +1.85649425e-01 +3.50221694e-01 -5.06288290e-01 +1.79233581e-01 -4.72370803e-01 +1.35647640e-01 +6.03377163e-01 -1.76848710e-01 -1.90565452e-01 +1.95706099e-01 +2.12058336e-01 -2.63188660e-01 -8.05162191e-01 -1.43957183e-01 -3.22261751e-02 +2.54620284e-01 +2.24590883e-01 -3.33066881e-01 +1.28587294e+00 -1.98026747e-01 -2.96545327e-01 -3.00040781e-01 +9.54218864e-01 +2.51566887e-01 +3.58038366e-01 +3.16001624e-01 -1.00276709e-01 -2.18668759e-01 +4.19455588e-01 +9.43050861e-01 -4.50096309e-01 -2.37129211e-01 -5.61285019e-01 -1.40552282e-01 +4.65990871e-01 -1.72018245e-01 +1.38511091e-01 -4.18877155e-02 -1.57338202e-01 +2.19838798e-01 -2.17558056e-01 +5.50906241e-01 -2.09949866e-01 -3.78311276e-01 -3.14838469e-01 -1.63482979e-01 -5.02378345e-02 +2.73853749e-01 -1.77286059e-01 -4.60276157e-01 -2.29647160e-01 +3.81360739e-01 -8.16548467e-01 +1.76677816e-02 +1.25877067e-01 -2.89877832e-01 +6.66152894e-01 -4.97489363e-01 -8.36726744e-03 +1.70971304e-01 +4.87755895e-01 +1.89262092e-01 -2.32837483e-01 -4.18914229e-01 +4.36204635e-02 +2.50573099e-01 -7.01053767e-03 -3.36672030e-02 -1.70049161e-01 +1.17698483e-01 +1.23863600e-01 -2.86735177e-01 -3.46532138e-03 -4.91204917e-01 +3.44843447e-01 -8.41009617e-02 +5.19389249e-02 -2.96662867e-01 -9.61026326e-02 -2.68630415e-01 +1.31087154e-01 -3.06867212e-01 +3.89958471e-01 -1.55800134e-01 -5.28850183e-02 +6.88705444e-02 +1.63692921e-01 +1.20220587e-01 +2.31443435e-01 -2.13247821e-01 -2.53245346e-02 -1.08699873e-01 -8.39307997e-03 -1.17372438e-01 -1.56645849e-02 -1.91428944e-01 +2.11492851e-01 +2.55711436e-01 +8.30695033e-02 -2.25427508e-01 +9.04820263e-02 +3.04244965e-01 -2.59263963e-02 +7.08131939e-02 +1.62238479e-01 +1.26099540e-02 -2.29724154e-01 +1.24229312e-01 -1.53311238e-01 -9.46466699e-02 +3.03956360e-01 +6.56547621e-02 -4.03284937e-01 +2.48136163e-01 -1.27765924e-01 +3.56067389e-01 -1.89794019e-01 -2.57869363e-01 +1.37379244e-01 +1.22315295e-01 +1.57430738e-01 +2.41030410e-01 +1.65815186e-02 -2.39742160e-01 -1.74473599e-01 +2.91553378e-01 +4.30185676e-01 +3.62648159e-01 +2.35340580e-01 -1.10503487e-01 +2.01810151e-01 +1.50043800e-01 -1.68705389e-01 -4.22946066e-02 -5.32753348e-01 +8.40504989e-02 -7.25683123e-02 +2.38237217e-01 +2.36214176e-01 +3.19809288e-01 +6.83598369e-02 -3.13942619e-02 -3.36860389e-01 -4.86981809e-01 -3.14024895e-01 +3.36204059e-02 +4.36289877e-01 -5.75612664e-01 -3.91733795e-01 -1.18611850e-01 -2.42373541e-01 -5.29999256e-01 -9.50630665e-01 +7.28407502e-02 -1.37148768e-01 +9.89005491e-02 -3.98821354e-01 -6.59168839e-01 +3.33138496e-01 +5.89595795e-01 +7.39145279e-01 +2.72966623e-02 -5.39720595e-01 -4.89957362e-01 -3.35928917e-01 -1.48693249e-01 -8.54103148e-01 -1.05193323e-02 -8.99356976e-02 +1.52381167e-01 +4.00401801e-01 +2.81945854e-01 +1.93443373e-01 +2.59864002e-01 -2.41593212e-01 +3.66062552e-01 -3.32245409e-01 -7.28046447e-02 +1.61391467e-01 +3.02025735e-01 +8.28221217e-02 -2.13765465e-02 +1.29239127e-01 +5.39750308e-02 -2.59720802e-01 +1.00008905e-01 -2.39252254e-01 -2.10223049e-01 -1.06049486e-01 -7.04766095e-01 +1.15592955e-02 -1.46170914e-01 +2.57300347e-01 -5.31825483e-01 -6.56345785e-01 -3.28511745e-02 -2.16385067e-01 +9.88406837e-02 +3.84074926e-01 -2.43321769e-02 +7.60152787e-02 -1.04999788e-01 +2.44934782e-01 -1.68451801e-01 +2.15883002e-01 -6.42288700e-02 -1.52752176e-01 +1.20818682e-01 +1.22581065e-01 +1.35494903e-01 -1.62173852e-01 -2.02513948e-01 +2.73494303e-01 -8.79685506e-02 -3.48578602e-01 +9.95538943e-03 +1.04560077e-01 -9.79039073e-02 +1.25998678e-02 -2.73055166e-01 -5.24184965e-02 +7.57611915e-02 +1.28612608e-01 -1.24052092e-01 -1.95298508e-01 -2.86094844e-01 -3.23492855e-01 +2.96654180e-02 +4.32239681e-01 +3.48338008e-01 +7.01924145e-01 -1.10785149e-01 +1.97189108e-01 -2.45815709e-01 +2.94680465e-02 -8.57086107e-03 +7.73655400e-02 +5.21307945e-01 +1.67791992e-01 +4.14089382e-01 -3.00651848e-01 +2.20494434e-01 +2.25375205e-01 +9.44318473e-01 -2.52031237e-01 -4.94363941e-02 +3.63069415e-01 -2.76080579e-01 +1.62234172e-01 -7.36536533e-02 +1.11250080e-01 -4.96676862e-02 +1.81791469e-01 -2.11628035e-01 +2.56856233e-01 +1.17807396e-01 -2.48147100e-01 +3.88535053e-01 -1.14617059e-02 -3.86601150e-01 +2.30685398e-01 -2.83409595e-01 +3.73165935e-01 +2.24503562e-01 +5.59686542e-01 +2.28286475e-01 +1.71122670e-01 +2.66516805e-01 +3.44928503e-01 -2.10533082e-01 -4.20126289e-01 +1.20625168e-01 -4.26565766e-01 +1.65722817e-01 +3.37892249e-02 +9.69698839e-03 +7.98507988e-01 +1.07844196e-01 -9.63533446e-02 +3.47784519e-01 +1.70756534e-01 +5.75590312e-01 +5.16350195e-02 +3.09050262e-01 -2.46343538e-01 +2.05607951e-01 +3.39992195e-01 +1.58369854e-01 +1.77584484e-01 -3.47963601e-01 +6.15037560e-01 -2.43752003e-01 +5.34217000e-01 +3.74149173e-01 +1.86842605e-01 -1.10930309e-01 +2.44687304e-01 -2.17583790e-01 -1.91405132e-01 +5.22622885e-03 +4.30600017e-01 +2.84563899e-01 -5.29016197e-01 -1.12226054e-01 +1.41183853e-01 +2.94214100e-01 +1.09507166e-01 +1.27938688e-01 -2.02456281e-01 -1.66009188e-01 +1.09963216e-01 -4.81717922e-02 -4.98237997e-01 +1.31284282e-01 +1.28229395e-01 -3.40489000e-01 -1.05679952e-01 -4.27495800e-02 +4.50831413e-01 +1.19276047e-01 +3.95766914e-01 +4.86619733e-02 -4.37867194e-01 -3.04773539e-01 -4.91810977e-01 +7.63646048e-03 -8.27706158e-02 +9.94938612e-02 +7.95279294e-02 -3.54407936e-01 +1.13616034e-01 -2.95857757e-01 -2.52564065e-02 -2.09908843e-01 -2.49946311e-01 -1.84910268e-01 +1.03707500e-01 +1.56943023e-01 -1.00445800e-01 -1.64034590e-01 +1.64561734e-01 +3.85854930e-01 +1.79418430e-01 -1.70274034e-01 +3.29922050e-01 -1.16817348e-01 -1.23369396e-01 +8.56126770e-02 +2.23258644e-01 +5.64711317e-02 +1.18891321e-01 -1.94930404e-01 +8.36389437e-02 -1.53790623e-01 -3.54149282e-01 -1.56054944e-01 -2.21925050e-01 -1.46029722e-02 +8.70804265e-02 +3.99026833e-02 -1.56816587e-01 -6.83095530e-02 +6.75709724e-01 -3.38938832e-02 +9.48460549e-02 -6.07891046e-02 -4.54084091e-02 -1.82079747e-01 +7.35099792e-01 -4.64297682e-01 +1.53721094e-01 -5.69186985e-01 -3.63503516e-01 +8.31611872e-01 -5.49790785e-02 +1.10825114e-02 +2.41923388e-02 -6.81025207e-01 -1.23080365e-01 -3.32722813e-02 -2.60654747e-01 -5.11204779e-01 +2.06171632e-01 -1.60935894e-01 +3.58534046e-03 -1.66379362e-01 -1.73186675e-01 +5.56615353e-01 -1.37374952e-01 -5.05419374e-01 +1.86438590e-01 +6.00968778e-01 +1.33514130e+00 -4.86821309e-02 +2.97976494e-01 +4.91521478e-01 -5.49162328e-01 -1.90191835e-01 -3.43029141e-01 +5.34384072e-01 +4.28819597e-01 -4.08299655e-01 +2.67931640e-01 -3.07655603e-01 +3.90069485e-01 -3.00819725e-01 +6.90188348e-01 -3.67132038e-01 -5.50437748e-01 +3.63491982e-01 +6.94945231e-02 +5.41369379e-01 +4.43289727e-01 +5.90127707e-01 +5.24190784e-01 -2.19831422e-01 +1.48065105e-01 -3.50907713e-01 +2.49283120e-01 +2.30022386e-01 -4.02931750e-01 +3.36729765e-01 -1.38291821e-01 -2.67615110e-01 +2.53439397e-01 -7.90216476e-02 -2.47547254e-01 +1.69908032e-01 +5.01831248e-02 -1.67402923e-01 +2.21748412e-01 +7.21595526e-01 +2.39035517e-01 -2.72744417e-01 -4.39012975e-01 -4.28979069e-01 +1.39069170e-01 +2.03706563e-01 +8.66581202e-01 -4.48612839e-01 -1.16866142e-01 -6.33774936e-01 -2.36081402e-03 +1.79520264e-01 +5.83715916e-01 +2.84230471e-01 +2.37915203e-01 -2.86193073e-01 +2.28511229e-01 +2.02534035e-01 +1.58998474e-01 -5.14432907e-01 +3.89423128e-03 +5.89430220e-02 -6.35016859e-02 +1.03606753e-01 +9.31470376e-03 +8.35806951e-02 +4.24511164e-01 +5.90286776e-02 -5.42935915e-02 -1.14152618e-01 +2.30488583e-01 +1.32034168e-01 -1.13602825e-01 -7.05889836e-02 +2.09214792e-01 -1.72803655e-01 -7.27637708e-02 +2.74870880e-02 -2.22248062e-01 -1.37895137e-01 -4.38548535e-01 -1.13867730e-01 +2.32344255e-01 +2.14814603e-01 +1.46770060e-01 +1.08193643e-01 +1.73077837e-01 +1.30165741e-01 +1.91424444e-01 -1.36443540e-01 +1.91218406e-01 -2.60896850e-02 +5.53275347e-01 -1.61198720e-01 -3.50046270e-02 -1.97408460e-02 +1.57719329e-01 -1.06945656e-01 +8.19638893e-02 +1.42026216e-01 +9.51207429e-02 +1.92589223e-01 +6.40583634e-01 +4.05756503e-01 -4.64727074e-01 +1.25346005e-01 -1.75787687e-01 -1.79863811e-01 +1.12651952e-01 +8.98311958e-02 -1.93942055e-01 -1.60415657e-02 -1.38263792e-01 +9.99805406e-02 +1.46349251e-01 +8.11351370e-03 +2.93889165e-01 -2.34577954e-01 +3.49821717e-01 +1.99312508e-01 +2.42720321e-02 -1.21402130e-01 +2.57489294e-01 -1.78423966e-03 -1.94532871e-01 -1.89127132e-01 -5.37521988e-02 +3.47451091e-01 +5.95802069e-01 +2.27959365e-01 -6.05519116e-02 -4.66556214e-02 -4.56179492e-02 +3.71686250e-01 -4.58570421e-01 +4.03272450e-01 -1.00868866e-01 +1.48305610e-01 +3.20700079e-01 -8.07597280e-01 -1.99983880e-01 +5.26040375e-01 +2.63305157e-01 -8.09460640e-01 -5.87794185e-01 +5.53582847e-01 -1.00183882e-01 +2.99440086e-01 -8.14523455e-03 +4.53776643e-02 -1.81284338e-01 -5.43008327e-01 +2.25776762e-01 +9.97860804e-02 -3.39422941e-01 -8.23202282e-02 -3.46656173e-01 +2.45783031e-01 -7.02552736e-01 +2.43760808e-03 -3.35236043e-01 -2.50148356e-01 +6.70816526e-02 -2.42927819e-01 -1.18266739e-01 -2.45487001e-02 +1.73847929e-01 +9.27238703e-01 +3.57976556e-02 -5.82906723e-01 +1.69272646e-01 -6.93152621e-02 -3.02863985e-01 -2.18810514e-01 -1.14735477e-01 -9.17539477e-01 -3.69806252e-02 -5.55761516e-01 -7.92133331e-01 +3.42977829e-02 +3.23025078e-01 -1.35689631e-01 -1.63588731e-03 -1.06658494e+00 +2.50339657e-01 -1.85738765e-02 -4.80921380e-02 +8.27153549e-02 -2.04733074e-01 -1.50767103e-01 +5.55863678e-01 -8.07501078e-02 +2.05885861e-02 +1.65252611e-01 +4.90169115e-02 +1.93191762e-03 +2.28836015e-01 -9.46778655e-02 +8.76313075e-02 -5.02876937e-02 -8.86414871e-02 -2.09496245e-02 +1.11063279e-01 +3.53242606e-02 -1.71263009e-01 +7.29514286e-02 -2.85089433e-01 -1.13484664e-02 -6.09491229e-01 +1.63354483e-02 +7.44938701e-02 -3.23360204e-03 +1.95471361e-01 +3.93494703e-02 -9.44002047e-02 +2.84260690e-01 +6.27718717e-02 -9.72612277e-02 -8.93437944e-04 +2.04332143e-01 +3.04263383e-01 -4.43568289e-01 +2.62648612e-01 -4.18935716e-02 +8.90532136e-02 +6.35019094e-02 -3.56164455e-01 +1.03549361e-01 +1.11322656e-01 +1.11974083e-01 -4.72084612e-01 -5.02151065e-02 +5.07705435e-02 +5.88074559e-04 -1.13034278e-01 +3.34683880e-02 -1.46258637e-01 +1.48445562e-01 +1.44895598e-01 -1.92205042e-01 +1.72260553e-01 +1.33187637e-01 -2.12055817e-01 -6.51596626e-03 +2.98902333e-01 +1.17457666e-01 +2.07740083e-01 -1.77035838e-01 +1.36451185e-01 +4.35648352e-01 +2.43680328e-01 -4.06040922e-02 -6.14835545e-02 -1.60191461e-01 -1.55487514e+00 +4.53144051e-02 +1.65323585e-01 -5.38803518e-01 +6.15314096e-02 +1.62867457e-01 -4.72344488e-01 +1.80630326e-01 -8.16512667e-03 -1.16762612e-03 -1.49220660e-01 -4.08739775e-01 -3.67964268e-01 -8.68356705e-01 +8.65905046e-01 +5.37484050e-01 -5.55391669e-01 +8.41177523e-01 -5.06567895e-01 -7.74059892e-01 -5.37105262e-01 +2.91027904e-01 -4.59271781e-02 -3.79192293e-01 +1.85690597e-01 -1.37912259e-01 +5.48683226e-01 +1.04468726e-01 -2.30805337e-01 -4.18792106e-02 +1.08039983e-01 +4.83861454e-02 -4.72312480e-01 +9.79174674e-02 -2.95787424e-01 -8.91607821e-01 -4.35692847e-01 +7.98773989e-02 -1.62297949e-01 +2.66724437e-01 +2.61621654e-01 -2.45984897e-01 -3.59263986e-01 +7.16131687e-01 -5.37844837e-01 -3.98936868e-02 +4.92371798e-01 -7.30655432e-01 +1.21398248e-01 +1.30085006e-01 -5.75313747e-01 +3.24067593e-01 -4.47190627e-02 +9.45851654e-02 +8.64760578e-02 +6.31120130e-02 +4.91579235e-01 -4.59997594e-01 +8.66146460e-02 +5.37442267e-01 -7.98432827e-02 +2.49889031e-01 -9.81258079e-02 +1.65093392e-01 -1.06459126e-01 +7.85673968e-03 +5.58627732e-02 +1.26167104e-01 +2.78574347e-01 +3.65924388e-02 -4.82304096e-01 +1.55048847e-01 -6.15887418e-02 -2.79176384e-01 +2.22765744e-01 +3.05656433e-01 -3.03222299e-01 +2.72644162e-01 -1.38429135e-01 -1.15215778e-02 +4.32294793e-02 -2.80080885e-01 -1.81399792e-01 -1.45754531e-01 -2.65660137e-01 +8.15228447e-02 +1.45165652e-01 +2.63949215e-01 -3.15368064e-02 +3.26176941e-01 +2.26785377e-01 +1.89063698e-01 +3.43693346e-02 -1.71262413e-01 -3.64994377e-01 -1.48457333e-01 +2.56424874e-01 +5.67010343e-02 +2.26330943e-02 +1.67061716e-01 +7.53531582e-04 +1.29540414e-01 +2.11508330e-02 -6.73029944e-02 -3.32366601e-02 -2.04207927e-01 +1.80704445e-01 +1.82868578e-02 +7.98987091e-01 -6.09302759e-01 +1.54744282e-01 -4.19119187e-03 +4.19921279e-01 +8.95752665e-03 -1.53070301e-01 +1.51907042e-01 +1.91059589e-01 -1.72193378e-01 -3.58538866e-01 +3.04430932e-01 +3.26739520e-01 +2.64761358e-01 -8.58965144e-02 -2.56320518e-02 +1.56135440e-01 +6.45754337e-01 +1.40077040e-01 -1.09253407e-01 +4.01113331e-01 +2.41386965e-01 +7.91788876e-01 +4.55017060e-01 +7.72119820e-01 +1.52068436e-01 -1.16534419e-01 -7.84759820e-02 -2.06149369e-01 +4.94309664e-02 +1.66994303e-01 -1.07215889e-01 +3.05007249e-02 -1.35653093e-01 +2.78504640e-01 +3.11618298e-01 -7.95208454e-01 -8.74874294e-02 -3.09737235e-01 -3.32698107e-01 +7.26313293e-02 -8.70225728e-02 -1.22937769e-01 -2.65347183e-01 +1.34483233e-01 +1.71111867e-01 +5.18975556e-01 -3.43154997e-01 -2.54352748e-01 +1.39315128e-01 +3.50450188e-01 +4.23762023e-01 +1.57873482e-01 -3.80046993e-01 +7.30410397e-01 -3.36423703e-02 +2.20490202e-01 +4.03443873e-02 +6.85980558e-01 +5.94801418e-02 -2.10334092e-01 +3.02786589e-01 +4.56073970e-01 +7.83919334e-01 -5.04121065e-01 +1.63704995e-02 +1.46376207e-01 -1.30679101e-01 +7.86071479e-01 +1.94896087e-01 -2.66428113e-01 +5.15105605e-01 +5.73235154e-01 -3.62207502e-01 -5.51808923e-02 +1.42811880e-01 +3.87287438e-01 +5.72451949e-02 +2.60211527e-01 +1.57700311e-02 -4.13584739e-01 -1.90264627e-01 +1.76350117e-01 +8.17674585e-03 +2.81504959e-01 -5.52110113e-02 +7.29863197e-02 -3.31790410e-02 -5.91684245e-02 +5.33761717e-02 -9.92856473e-02 +2.23541427e-02 +4.01507467e-02 +3.90572324e-02 -6.86022192e-02 -1.89273298e-01 +7.65308887e-02 -4.33052242e-01 +1.91018090e-01 -1.91446155e-01 +1.98314995e-01 +2.06865326e-01 +1.95556998e-01 -4.90063168e-02 -3.85071188e-02 +1.27470091e-01 +3.15894604e-01 +2.33783990e-01 +2.22222999e-01 -3.28488946e-02 +1.82534069e-01 -2.57941753e-01 -2.15337202e-01 +2.85609186e-01 +2.76401490e-01 +2.48553932e-01 +1.36739910e-01 +1.63921669e-01 -3.15867096e-01 +6.50982261e-02 -5.48452199e-01 -3.02828476e-02 +4.61492874e-03 +1.92209378e-01 +6.43955451e-03 -1.07672639e-01 -5.28425038e-01 -1.02893546e-01 -3.56381312e-02 -1.82460338e-01 +4.28950042e-02 -6.63587272e-01 +1.86920166e-01 -1.44067287e-01 +2.00487990e-02 +5.02787113e-01 -4.65696514e-01 -2.07453966e-01 +4.21729177e-01 +4.11738485e-01 -2.69822121e-01 +7.60405064e-02 -2.64405966e-01 +9.14489627e-02 +2.76245207e-01 -5.65042377e-01 +1.12490155e-01 -4.22579274e-02 +3.47390115e-01 -7.10544050e-01 -9.29305255e-01 -5.24470359e-02 +9.29929689e-02 -4.37021345e-01 +8.07331383e-01 -4.05579329e-01 +3.81698459e-01 +9.06038657e-03 -6.98487282e-01 +3.56278360e-01 -4.47169133e-03 +4.53651786e-01 +6.46154523e-01 +1.47640985e-02 -2.68334150e-01 -8.31206888e-02 -1.79044560e-01 -5.66691868e-02 +2.11198241e-01 +1.43069118e-01 -5.50722182e-01 -5.46436191e-01 -9.06604171e-01 -4.47812140e-01 -4.88933269e-03 +9.18760076e-02 +2.72820860e-01 -5.54138049e-03 +2.51163661e-01 -2.50577867e-01 +1.90264359e-01 -2.41994217e-01 +6.78081214e-01 +1.22084022e-01 +1.71841219e-01 +3.45707089e-02 +8.13312709e-01 +4.09355640e-01 -2.39951432e-01 +4.76731434e-02 -1.88390359e-01 -5.07342592e-02 -1.33168280e-01 +6.49915338e-01 +1.48087293e-01 -1.99263573e-01 -7.38911852e-02 +2.82410175e-01 -6.43616244e-02 -3.80400456e-02 +2.01135442e-01 -2.16048136e-01 -6.20959282e-01 -4.66796875e-01 +1.13811076e-01 +2.10345939e-01 +3.29866648e-01 -5.94402552e-01 -1.97945818e-01 +2.29010060e-01 -2.21049100e-01 +1.37328282e-01 +3.86230022e-01 -1.75016373e-01 +5.80151454e-02 -6.14477575e-01 -4.19732230e-03 -4.94091325e-02 +1.15911439e-01 -1.43244773e-01 +1.05351740e-02 -2.43763939e-01 +7.76279718e-02 +1.55342609e-01 +5.98810762e-02 +2.98688173e-01 +6.14171512e-02 +2.01106042e-01 +2.08081026e-02 +2.34358966e-01 +4.80114460e-01 +2.38911673e-01 +6.38220459e-02 +7.05133751e-02 +2.73667336e-01 +2.64311820e-01 +1.23218894e-01 -2.74205476e-01 -8.99305642e-02 -1.44905508e-01 -3.69895905e-01 -3.10195893e-01 -9.35526565e-02 -2.77113438e-01 -1.14031330e-01 +2.73415029e-01 +3.33390743e-01 -2.73185223e-01 -3.28395478e-02 -1.67348295e-01 -5.02715707e-02 +1.60132438e-01 +5.15335836e-02 +1.62239030e-01 +2.68893614e-02 -2.06119135e-01 +2.76496187e-02 -1.27403736e-01 -3.94601151e-02 +1.36238709e-01 +7.69263953e-02 +2.81128466e-01 -3.18401456e-02 +2.06361875e-01 +1.09012954e-01 -1.99597105e-01 -2.72245973e-01 +2.27786928e-01 +2.00686589e-01 +3.03672832e-02 -1.35785434e-02 -8.68247077e-02 -5.98822627e-03 +7.47784138e-01 +6.85140118e-02 +4.67810601e-01 +9.02909100e-01 -4.73973788e-02 +2.09274784e-01 +1.03453684e+00 +6.08169615e-01 +2.99104333e-01 -1.37529001e-01 -1.85610168e-02 +9.11009982e-02 -3.37718546e-01 +4.77244020e-01 +4.69020158e-01 +4.58495051e-01 +3.26882690e-01 -6.10292077e-01 -3.77121121e-01 +1.31475613e-01 +5.88149577e-02 -4.18492198e-01 -2.29342878e-01 -7.55716711e-02 +3.74820322e-01 +2.58345958e-02 +1.51579097e-01 +9.11664069e-02 +2.63098270e-01 -2.20761057e-02 -1.03583403e-01 -3.96615118e-01 +1.28305584e-01 +1.54815957e-01 +1.60458565e-01 +4.62704569e-01 +4.79830749e-04 +1.85955644e-01 +7.25482762e-01 +3.48706722e-01 +1.55095264e-01 +2.95751303e-01 +1.06673315e-01 -5.29688239e-01 +4.14697707e-01 +3.62309486e-01 -6.16488278e-01 +2.47729003e-01 +6.09285712e-01 +7.35127032e-02 -1.34947710e-02 +4.50264126e-01 +1.09712481e-01 +5.53636670e-01 +2.12467253e-01 -3.54222730e-02 -1.02630369e-01 +1.37843207e-01 +3.42975020e-01 -1.12202108e-01 +5.93837991e-04 +2.62238055e-01 -8.81701242e-03 -4.47297603e-01 -2.96153426e-01 +2.62253404e-01 -4.11967933e-02 +1.77968144e-01 +1.15073826e-02 -1.62005648e-01 -8.35613534e-02 +1.37038782e-01 +6.18069619e-02 +1.67028725e-01 +6.78212717e-02 +8.91759843e-02 +9.22448859e-02 +1.12098940e-01 -4.75749880e-01 +2.34586269e-01 -1.89284965e-01 +1.86381236e-01 -1.98188573e-01 +1.37270540e-01 +8.44957381e-02 +8.85081366e-02 +7.83173963e-02 +2.70230621e-02 -4.71786857e-02 +2.23675162e-01 +1.44199515e-02 +1.04176831e-02 +9.95560288e-02 +8.85307267e-02 -1.25269309e-01 -2.91381091e-01 -2.05206528e-01 -8.05362940e-01 -1.50194019e-01 +1.74113840e-01 -6.69860840e-01 -3.29662830e-01 -6.27571225e-01 -1.14339590e-01 -1.07115701e-01 -3.86932790e-02 -5.48147619e-01 -6.28337920e-01 -3.80434930e-01 +1.55702725e-01 -3.41234803e-01 -4.67927009e-02 -2.41336420e-01 +3.05087566e-01 +3.48928154e-01 -1.59643337e-01 +1.53845148e-02 +1.81484014e-01 -6.13365471e-02 -8.58103275e-01 +4.71271008e-01 -2.83387899e-01 -1.17954873e-01 -3.98904562e-01 -3.66097569e-01 -7.66827941e-01 -3.12322557e-01 +2.72337019e-01 +2.67770171e-01 -3.69693339e-01 -7.54541874e-01 -5.65472424e-01 +6.92196190e-03 -2.32869700e-01 -1.66006550e-01 -2.29014039e-01 +7.41543546e-02 +6.80295080e-02 +9.48010027e-01 -1.29938811e-01 -5.12400806e-01 -3.00466448e-01 -4.60715562e-01 +3.69820118e-01 +4.53737266e-02 +2.58689344e-01 -3.12180728e-01 +2.49467656e-01 +1.90216869e-01 +7.47157112e-02 +9.14530873e-01 +9.66824684e-03 -3.96258473e-01 +7.58601353e-02 +5.01857400e-01 +2.89180309e-01 -1.37464687e-01 +1.46238461e-01 +4.08301409e-03 -5.62938750e-02 +8.34612370e-01 -2.87108958e-01 -4.35646921e-01 -3.90329450e-01 -3.74444634e-01 -3.52420777e-01 +5.07905483e-01 -4.55435291e-02 -4.45373774e-01 -1.18512586e-01 +1.04153059e-01 -2.35813618e-01 -7.12481618e-01 -1.48456097e-01 -1.01766527e-01 +4.32651103e-01 +1.00101053e-03 -1.30954996e-01 -2.72466391e-01 +7.83213139e-01 +5.44143319e-01 +1.58105582e-01 +3.52688611e-01 +3.99390697e-01 +1.53854623e-01 +4.10913944e-01 +1.85754403e-01 +4.87765968e-02 +1.91236362e-01 -4.17443588e-02 +3.06186795e-01 +1.04515541e+00 +2.11085156e-02 +9.44527462e-02 -2.47771755e-01 -2.41457611e-01 +4.87096518e-01 -1.23863302e-01 +1.58311382e-01 -1.62899330e-01 +1.19308876e-02 +1.80397499e-02 +1.23216167e-01 +2.80135479e-02 +3.09705865e-02 -1.78500220e-01 -1.31723568e-01 +4.09211628e-02 +1.95753247e-01 -9.52674970e-02 -3.63405764e-01 +3.55622858e-01 -2.82202750e-01 +1.26107587e-02 +4.54684287e-01 -6.97110593e-02 +1.29847810e-01 +2.06075087e-02 +7.87345171e-02 +2.97335953e-01 +2.82468498e-01 +5.83644211e-02 +1.96794719e-01 +1.34041771e-01 +2.55160838e-01 +8.31178546e-01 -5.77671714e-02 +6.18609376e-02 -2.39812024e-02 +8.93513858e-02 -7.24452972e-01 -9.30750221e-02 +1.22247063e-01 +2.56444991e-01 +6.09367728e-01 +6.14494309e-02 +1.88559636e-01 -8.35481361e-02 -1.21289365e-01 +1.13622978e-01 +1.88514546e-01 +3.77768353e-02 +4.56119515e-02 -2.93421626e-01 -5.10080755e-01 +1.52322322e-01 +5.62845707e-01 -1.11390859e-01 -2.10653946e-01 +1.91038370e-01 +1.19886793e-01 -1.47879943e-01 +7.19712019e-01 +1.95241690e-01 +2.95456320e-01 +1.73723012e-01 -1.78543910e-01 -4.83234674e-01 -1.90283671e-01 -1.78734198e-01 -1.20400786e-01 +1.68632254e-01 -1.82091683e-01 +1.10640809e-01 +4.63624969e-02 +1.07726693e-01 +6.99286461e-02 -4.38434668e-02 -3.54312062e-01 -5.23454070e-01 +2.67013878e-01 -2.12627217e-01 -8.03520381e-01 +1.21055722e+00 -4.87657458e-01 +1.72872499e-01 -3.46236229e-01 -5.91221094e-01 -5.94843507e-01 -2.27935195e-01 +6.83820188e-01 +5.37107170e-01 -1.05047607e+00 +1.37135953e-01 -4.98054862e-01 +5.89966357e-01 +1.97695747e-01 -2.11181849e-01 -4.80905175e-01 +2.54945934e-01 -2.17662364e-01 +4.58986834e-02 +1.48844734e-01 -1.70348704e-01 -1.57974079e-01 +7.53028512e-01 -1.30890697e-01 +1.14484459e-01 +1.66127339e-01 -1.94690019e-01 +3.82528901e-01 -8.57582465e-02 -1.12055302e-01 -3.30688298e-01 -1.33766308e-01 +6.45812929e-01 -3.82193118e-01 -7.45126963e-01 -4.26086009e-01 +7.14563727e-02 -4.04409736e-01 -5.30118763e-01 +3.31359059e-01 -3.01031321e-01 -6.02454364e-01 +2.44543537e-01 -3.46339226e-01 +3.77496332e-01 +1.20983504e-01 -7.80286312e-01 +1.40230553e-02 -1.32189050e-01 +3.35897774e-01 +1.86777681e-01 +1.00594148e-01 -6.96795955e-02 +5.94753958e-02 +2.41135791e-01 -4.45262104e-01 -1.78428918e-01 -2.09962666e-01 -4.27417994e-01 -2.78744459e-01 -5.25928028e-02 +1.76498313e-02 -9.18688700e-02 +5.82621694e-02 +1.91243246e-01 +6.27473965e-02 +5.16067624e-01 -2.02064767e-01 -3.42848785e-02 -2.39465924e-04 +2.95669734e-02 +1.70287743e-01 -2.06054330e-01 +2.95013458e-01 -1.53276727e-01 +9.96406376e-02 +1.46030739e-01 -2.67174184e-01 -1.36271730e-01 -1.67721078e-01 +5.81993200e-02 +1.58598989e-01 -3.25112045e-01 +5.99388361e-01 +2.90634017e-02 +3.32648635e-01 -2.44326051e-02 +5.92437088e-02 -1.41300619e-01 -4.29408371e-01 +6.75355911e-01 +9.91934761e-02 -4.36882347e-01 +2.21028477e-01 +5.94368204e-02 +1.83912009e-01 +1.64050713e-01 +1.92911685e-01 -8.43839124e-02 +6.06224127e-02 +7.02146739e-02 -1.57402381e-02 -3.52493604e-03 +4.48562428e-02 +2.63259023e-01 -3.61942381e-01 +3.10724646e-01 -1.26725435e-01 +2.64350791e-02 -5.19954443e-01 -1.16426140e-01 -2.21285537e-01 -7.54420698e-01 +2.39986673e-01 -3.39695871e-01 -5.22279203e-01 -2.63899356e-01 +1.50194973e-01 -8.02522749e-02 -2.57458955e-01 -4.22379553e-01 -1.17251121e-01 +3.30065817e-01 +1.91776738e-01 -2.19538406e-01 -8.16792607e-01 +7.53411174e-01 -6.87493384e-01 -4.23213303e-01 +9.82451141e-02 +3.03989410e-01 -3.32342446e-01 +2.80126274e-01 +8.27546492e-02 +4.36714441e-02 -3.92749384e-02 +1.16127506e-01 +3.75458837e-01 -6.48732364e-01 +5.68821607e-03 -1.36089802e-01 -1.86231300e-01 +5.83236396e-01 -1.46854982e-01 +4.07232553e-01 +4.28376086e-02 -1.75733596e-01 +3.27143669e-02 +4.87217993e-01 +7.63297558e-01 -2.82396942e-01 +3.10386389e-01 -1.66389823e-01 +2.07446516e-02 +4.69566792e-01 -7.31500685e-02 +1.22687928e-02 +5.30324459e-01 -1.07007883e-01 -4.12836552e-01 -3.23284835e-01 +5.51708996e-01 +2.79059708e-01 +1.86829586e-02 +7.58830369e-01 +1.09013103e-01 +5.98971695e-02 +9.84125882e-02 -2.72119462e-01 -5.95366880e-02 -4.45996612e-01 +2.03763023e-02 -9.31565836e-02 -4.02217448e-01 -1.41601488e-02 +2.21822470e-01 -3.91178846e-01 +9.77916643e-02 +1.68950468e-01 -1.36678070e-01 -1.00135647e-01 -8.45185891e-02 +2.36873433e-01 -2.04753652e-02 +4.25387412e-01 -1.27442151e-01 -2.29939595e-01 +2.62261406e-02 +3.53823579e-03 +2.13058859e-01 -3.46507505e-02 +1.97072372e-01 +1.01083525e-01 -1.45407811e-01 -3.46138850e-02 +1.29491270e-01 +1.43766642e-01 -2.50631154e-01 -9.00025479e-03 -2.85653472e-01 +4.64949049e-02 -2.55187184e-01 +5.36397398e-02 -1.37913764e-01 +7.44025782e-02 -1.75636515e-01 -1.29679106e-02 -4.96849686e-01 -4.96133804e-01 +2.56511271e-01 -2.20928878e-01 -4.77728583e-02 -3.97753000e-01 +9.75919664e-02 +4.97478604e-01 +2.36780588e-02 -8.21433663e-02 -1.98565871e-01 +5.17286249e-02 -3.88990253e-01 +1.19968586e-01 -2.13813651e-02 -5.00837982e-01 -2.49281749e-01 +9.59399119e-02 +1.57149062e-01 -2.33778775e-01 +3.04982483e-01 +1.03571624e-01 -2.64120579e-01 +1.16421543e-01 -2.11113483e-01 +1.09452419e-02 -3.75046134e-01 -3.03630531e-01 -7.17055053e-02 -2.28270486e-01 -4.32515830e-01 -3.32174391e-01 +1.08475843e-02 -2.15004206e-01 +4.43970740e-01 +6.44485420e-03 +2.08205879e-01 -8.79300162e-02 -2.25361437e-01 -1.08077295e-01 -9.69922766e-02 -2.11152762e-01 -6.44058406e-01 +2.60202825e-01 +2.20425978e-01 -1.07755505e-01 -2.78533220e-01 +1.25735998e-01 -8.25897325e-03 -2.42993757e-01 -3.85673702e-01 +4.98176306e-01 +3.76278281e-01 +6.89322948e-01 +7.85710514e-02 +6.57634065e-02 -1.73395470e-01 +6.80308342e-01 +2.60962278e-01 -7.17251003e-03 -6.24177232e-02 -3.23439896e-01 -2.79566914e-01 +4.57011342e-01 +5.71788371e-01 -2.64885098e-01 +8.10806900e-02 +2.26286501e-01 +2.35691026e-01 +2.94526014e-02 +4.97961313e-01 -8.43317434e-03 +2.39729866e-01 +6.63042418e-04 -4.63598907e-01 +2.91050524e-01 -5.66371560e-01 +6.00539707e-02 -3.21597457e-01 +1.58678859e-01 -5.17860591e-01 -4.52489257e-01 +7.69186974e-01 +3.64090465e-02 +4.34303492e-01 -7.23308697e-02 +1.61159799e-01 +2.44251445e-01 -1.26010766e-02 +2.21858993e-01 +4.59037840e-01 -3.61910552e-01 +6.98916256e-01 -8.65203261e-01 +2.49843635e-02 +5.13808787e-01 -9.48264673e-02 +6.33345470e-02 -1.17938854e-01 -4.78342861e-01 +1.04075611e-01 -8.50267187e-02 +4.21406567e-01 -3.50433439e-02 -4.11005467e-02 +1.75408632e-01 -1.67177394e-02 +2.18818948e-01 +4.43049163e-01 -8.90738145e-03 +1.24869220e-01 +6.07885867e-02 -1.96339175e-01 +1.14972647e-02 -1.34395659e-01 -2.59161681e-01 +3.06846142e-01 -3.02631631e-02 -2.23386079e-01 +1.42527923e-01 -3.88820618e-01 -1.69352800e-01 -2.45590672e-01 -2.06353813e-02 -1.62991568e-01 -4.93101552e-02 -1.94747284e-01 +1.73024669e-01 +2.81404495e-01 +5.81951022e-01 +5.87389022e-02 +5.69672823e-01 -1.92191359e-02 +8.16101730e-02 +1.43584058e-01 -2.29346737e-01 +1.02620818e-01 -1.12924837e-01 +2.89566815e-01 -5.72053909e-01 +3.26312423e-01 +2.90259451e-01 +1.95602372e-01 +1.29447952e-01 +8.72600153e-02 -2.98359156e-01 -2.42409721e-01 +2.75431961e-01 -3.62423420e-01 -3.49726558e-01 -1.44630962e-03 +2.03301832e-02 -9.54219773e-02 -3.99102926e-01 +1.06108740e-01 -7.85469338e-02 -1.28009498e-01 -1.32253915e-01 +4.62437898e-01 +2.39844292e-01 +4.32989180e-01 +5.30441642e-01 -9.43596363e-02 +1.13347900e+00 +8.36977661e-01 +9.72031772e-01 +4.76944923e-01 +1.75727960e-02 +3.12649220e-01 +3.39895427e-01 +2.26089537e-01 -9.27855000e-02 -1.45498082e-01 +2.97558963e-01 +9.25256610e-01 -1.39493182e-01 +4.35869455e-01 +3.17832828e-01 +5.20005465e-01 -8.68761659e-01 +3.34219426e-01 +2.64598012e-01 -2.06516176e-01 +4.57075149e-01 -2.42502689e-01 -3.52533758e-01 +4.25102636e-02 +1.54743224e-01 +5.15782952e-01 +2.46719107e-01 +1.10612608e-01 -1.95290565e-01 -3.20184171e-01 +3.42949659e-01 +2.16773912e-01 +5.04298270e-01 +3.05148989e-01 +2.24101305e-01 -3.09316695e-01 -1.15659565e-01 -1.76413134e-01 -8.13830420e-02 +8.16817731e-02 +1.12630516e-01 -5.79409413e-02 +4.93038595e-02 +1.14471507e+00 +1.68714866e-01 -8.96729231e-02 +4.99622703e-01 -4.19777036e-01 -2.52022564e-01 +1.83044240e-01 -8.24985921e-01 +3.29233885e-01 +1.81729674e-01 -1.38735980e-01 -6.70949221e-01 +3.57867032e-01 +4.27731648e-02 -1.60769314e-01 -9.79989618e-02 +7.32692331e-02 -2.23554939e-01 -1.54453948e-01 +9.65352207e-02 +1.50701165e-01 -2.75476038e-01 -3.50238159e-02 +6.18881769e-02 +1.17956623e-01 -1.29049748e-01 -8.92950222e-02 -2.27111384e-01 -4.14746478e-02 +6.01557530e-02 -8.34468454e-02 +2.80470457e-02 +3.64769667e-01 -4.56394017e-01 -1.23547763e-01 -1.05719484e-01 +3.12611982e-02 +1.66151568e-01 +1.88537806e-01 -6.65185526e-02 -4.01704460e-02 -1.42412841e-01 +2.59215087e-01 +6.35156920e-03 +7.99043290e-03 -1.63272575e-01 +6.00490868e-02 -1.40635923e-01 -4.12208587e-01 -4.45518978e-02 -1.24728866e-01 -7.62689933e-02 +3.48526170e-03 +3.38920765e-02 -4.51939777e-02 +2.34678239e-01 -5.28687797e-02 +6.79145083e-02 +2.76227355e-01 +1.00905769e-01 +2.75399208e-01 +5.93977273e-02 -7.97784775e-02 +3.37408632e-01 -2.99064904e-01 +7.48383999e-02 +8.06169957e-02 -2.46988703e-02 -1.81079701e-01 +3.80650014e-01 -8.44636112e-02 -6.83452189e-02 +1.57823399e-01 +7.60983825e-01 -3.01468968e-01 -4.66666460e-01 +4.71767843e-01 +4.41803247e-01 +7.48372018e-01 -1.01842970e-01 +8.73575211e-02 -4.87371720e-02 +3.51640970e-01 +4.76624638e-01 -3.81007165e-01 +9.19220746e-01 +4.78281200e-01 +1.47518194e+00 +3.38440567e-01 +9.53710794e-01 +7.06560433e-01 -9.20283645e-02 -3.27802658e-01 -3.94410104e-01 -6.11143559e-02 +4.77383792e-01 +4.17918116e-01 -2.38545880e-01 -4.20590609e-01 +1.83147803e-01 -2.28707388e-01 -4.94702131e-01 -2.88075835e-01 -7.96195328e-01 -1.10634074e-01 -1.70065492e-01 +3.88888299e-01 +1.30939201e-01 -9.92713988e-01 +5.51043034e-01 +2.89076835e-01 +5.07543266e-01 +1.25732571e-01 -5.65591037e-01 -2.12702841e-01 -8.11568201e-02 +4.18061793e-01 +5.22483699e-03 -2.19046101e-01 +1.30036116e-01 +3.16603899e-01 +5.99982023e-01 +2.67360419e-01 +2.62043655e-01 -1.45131305e-01 -5.63106894e-01 +8.07379305e-01 +6.41128063e-01 +1.63026243e-01 -5.00145793e-01 +1.98635310e-01 +3.43111157e-01 +9.47535113e-02 +5.36257029e-03 -4.33835268e-01 -6.19702674e-02 -1.65975556e-01 -5.86669929e-02 -2.26585343e-01 +7.18613490e-02 +1.01338215e-01 +2.49317423e-01 -1.77827000e-03 +2.52956510e-01 +3.21772367e-01 -1.30156124e+00 -4.44530964e-01 +2.38815948e-01 +6.04832210e-02 +3.92441452e-01 -1.56981662e-01 -2.57285357e-01 -4.80998792e-02 +9.39535722e-02 -2.04610061e-02 -9.44252461e-02 -1.83942184e-01 +2.69261271e-01 +1.11264467e-01 +3.36170420e-02 -1.75773934e-01 +1.70868918e-01 -3.57415825e-01 +7.84484595e-02 +3.70957315e-01 +5.38153239e-02 +1.52104497e-01 -2.02513605e-01 -1.32605225e-01 +2.31069941e-02 +7.56744221e-02 +2.40349978e-01 +3.45443785e-02 +1.09202117e-01 -1.21009290e-01 +4.58840840e-02 -3.14634502e-01 -1.19294673e-01 +2.01812685e-01 +8.75850096e-02 -2.61639893e-01 +9.70306844e-02 +4.66702074e-01 +1.83727928e-02 +3.03391129e-01 -9.41704884e-02 +3.48462045e-01 -3.62737924e-01 -2.33762409e-03 -1.42621845e-01 +3.60612601e-01 +1.42238170e-01 +2.36351535e-01 +2.59748757e-01 -8.30087531e-03 +3.07355434e-01 +2.45628044e-01 +3.37789245e-02 -1.26251072e-01 +1.20771289e-01 -2.51682252e-01 +4.83344734e-01 -4.20490168e-02 +2.59955585e-01 +3.69955264e-02 +8.76963496e-01 -7.31629580e-02 +4.21929866e-01 -3.78943980e-01 -2.53421605e-01 -5.09763360e-02 +3.28764580e-02 +3.64358813e-01 -5.69475651e-01 -3.46115790e-02 +1.12349421e-01 +1.50187567e-01 -1.49540007e-01 +4.68051247e-02 -3.11304033e-01 +6.91114545e-01 +8.19852591e-01 +1.65490434e-01 +1.59593299e-01 -3.18203181e-01 -2.81471517e-02 -2.32374534e-01 -1.20374501e-01 +6.76779687e-01 +7.90433511e-02 +6.19739890e-01 +4.38395232e-01 -1.78428233e-01 -9.62656066e-02 -3.70305687e-01 +4.67200428e-02 +1.16510737e+00 -3.20172608e-01 +6.72868416e-02 +7.31347501e-02 -1.51947826e-01 +3.30243886e-01 -1.69251874e-01 +2.39669129e-01 -1.66214351e-03 +6.29157662e-01 -5.20697497e-02 +6.15756452e-01 +1.48477688e-01 -1.73949823e-01 +1.63412750e-01 -7.76400506e-01 +3.27929676e-01 +6.52262270e-01 +2.01834440e-02 +2.98829317e-01 +6.62315607e-01 -3.10960621e-01 -1.25679374e-01 -1.61860115e-03 +4.69412059e-01 +2.51441672e-02 +3.77383202e-01 +4.40322667e-01 -2.32211024e-01 +4.34953421e-01 +4.70336437e-01 -4.68957961e-01 +4.13459033e-01 -2.47579023e-01 +4.70338941e-01 +1.28338173e-01 -2.26007238e-01 +1.82028487e-01 +2.21727684e-01 +1.04389049e-01 +2.72884786e-01 -1.15073696e-01 -7.07078129e-02 -3.65692191e-02 +9.47725698e-02 +9.32813436e-02 -4.62851999e-03 +1.09691069e-01 +4.40863445e-02 -3.44865888e-01 -3.11376810e-01 +3.07496227e-02 +2.02636242e-01 +2.52707601e-01 +3.13807309e-01 -1.56896621e-01 -2.79821813e-01 +6.09394550e-01 -9.96445268e-02 +2.75486529e-01 +6.64759278e-02 -2.92653829e-01 -4.59864847e-02 -2.28464186e-01 -5.66400066e-02 -3.50453071e-02 -7.54243806e-02 +4.37833220e-02 +2.57844049e-02 +6.71149418e-02 +1.80509612e-02 -1.64916158e-01 -8.82464945e-02 -3.19051862e-01 +5.04979491e-01 -2.50813924e-03 -1.58764124e-01 -4.47887294e-02 +4.87248600e-02 +1.29673675e-01 +7.68003985e-02 -5.82284331e-02 -1.14889428e-01 +2.16274224e-02 +2.97333956e-01 +5.64595982e-02 -2.03703031e-01 +6.72973618e-02 -2.39746928e-01 +1.23881184e-01 +1.91625923e-01 -2.64495045e-01 -9.01327701e-04 -1.78987369e-01 -2.25377887e-01 -1.29394429e-02 -3.37185338e-02 +3.45747471e-01 -1.55960828e-01 -1.56239629e-01 -1.08400822e-01 +2.20227651e-02 +6.43821180e-01 +1.82218865e-01 -1.68243319e-01 +1.51298866e-01 +5.95673144e-01 +2.40372106e-01 +5.92255831e-01 +4.20281291e-01 +3.03345233e-01 -7.27919698e-01 -1.73010111e-01 +5.43004274e-02 -4.16626662e-01 +2.52817661e-01 -2.31076673e-01 +2.57201403e-01 +4.28028375e-01 -5.64316154e-01 -7.15513974e-02 -3.14181983e-01 -3.78527254e-01 +1.27762586e-01 -1.93010882e-01 -3.02579790e-01 -2.49782383e-01 -1.33229792e-01 -1.20324045e-01 -2.90413231e-01 -5.17480113e-02 -3.59325618e-01 -2.48508528e-02 +5.60418610e-03 +3.02187741e-01 +7.31895939e-02 -5.51466681e-02 -3.69169384e-01 +8.33311900e-02 +2.48313338e-01 -2.98229810e-02 +6.94938675e-02 -5.58951795e-01 -1.70448110e-01 -2.90561527e-01 -4.55084890e-01 +2.96744108e-01 -5.19162178e-01 +4.06497419e-02 -1.44384414e-01 +5.45053840e-01 -2.26414099e-01 -2.81845957e-01 +4.99667168e-01 -4.16629016e-01 +4.80627805e-01 +1.24749057e-01 -8.78100544e-02 -1.76320314e-01 +8.33545685e-01 +4.29598957e-01 +3.37157249e-01 -3.76904696e-01 -1.75956544e-02 +1.01565950e-01 -2.91406959e-01 +8.68164971e-02 +3.33098602e-03 -3.48432027e-02 +1.41247839e-01 -2.75646776e-01 +1.21596761e-01 -4.99711573e-01 +2.17510641e-01 +3.57254483e-02 -3.99315450e-03 -6.91689700e-02 +2.37449527e-01 -5.45586348e-02 +2.26838604e-01 -4.30395424e-01 +3.05227488e-01 +2.55814850e-01 -7.12830201e-02 -4.64694994e-03 -1.82243258e-01 +2.54500620e-02 +3.36714327e-01 +4.04470749e-02 +8.63144919e-02 +1.28561035e-01 +1.45393848e-01 -4.10101414e-02 +2.49575093e-01 -8.65809806e-03 +2.89013684e-01 +2.40879864e-01 -8.24807733e-02 -2.14127064e-01 -3.08736097e-02 +2.33470097e-01 -1.39128461e-01 +4.41003859e-01 +1.28587991e-01 +1.41433209e-01 +1.17617562e-01 -4.44249958e-02 +8.65012258e-02 +1.87615901e-01 +1.96988240e-01 -3.54912013e-01 +9.95185003e-02 +1.70527801e-01 +1.56073689e-01 -2.07054943e-01 +8.92375410e-02 +1.26560077e-01 -5.66138446e-01 +7.11434660e-03 -4.04128730e-01 +1.55665800e-01 -2.74117887e-01 -6.53008342e-01 -2.53446996e-01 -4.72350001e-01 +2.61429161e-01 +9.81473476e-02 -1.12436593e-01 +7.33152479e-02 +7.98723772e-02 +4.19920951e-01 +2.07306355e-01 +5.95124774e-02 -9.93425399e-02 -1.14676543e-01 +2.90542006e-01 +4.31067169e-01 +1.09500818e-01 +1.85957149e-01 -6.42620683e-01 -5.52133739e-01 +5.53318821e-02 -2.56092131e-01 -1.03909768e-01 -4.98417318e-01 +2.08146855e-01 -5.96588194e-01 +8.63490105e-02 +1.00052103e-01 +3.32835801e-02 -2.54810035e-01 -5.52440941e-01 +3.18568319e-01 -2.62157917e-01 -1.24243256e-02 -1.40112862e-01 -2.21768469e-01 -1.45310134e-01 +9.75171551e-02 -2.88060121e-03 -1.71458758e-02 -2.93189287e-01 +1.27065361e-01 +1.01024851e-01 +6.69932133e-03 -2.34956518e-01 -3.78211029e-02 +2.32887849e-01 +9.65684175e-01 +1.01592414e-01 -1.64014056e-01 +6.08116627e-01 +1.44946054e-01 -3.81313413e-01 +3.62930208e-01 +2.56786287e-01 +6.79524615e-02 +3.15136701e-01 -6.19894601e-02 +1.01426862e-01 +3.72298807e-01 +8.36190999e-01 -1.70298725e-01 -3.91969830e-01 -5.24459854e-02 +1.66151300e-01 +4.50309999e-02 +1.83979630e-01 +7.17016160e-02 -1.57632083e-01 +1.63876310e-01 +1.98982880e-01 +1.91841170e-01 -7.81980976e-02 -1.10641763e-01 +1.21923722e-01 +1.06651150e-01 -2.03954279e-01 -3.31368037e-02 +1.33422807e-01 -2.93192327e-01 +2.03882769e-01 +1.19769037e-01 +1.39916971e-01 -8.77731889e-02 -7.48957843e-02 +5.21070659e-02 +7.03951642e-02 -6.88015446e-02 +2.91642472e-02 -1.50260001e-01 +1.55571669e-01 +2.15802401e-01 +1.13828443e-01 -9.43090916e-02 +2.98819870e-01 -1.98278818e-02 +1.30918905e-01 +3.41600440e-02 +1.68534428e-01 +3.76383811e-02 +5.38102426e-02 +7.24420175e-02 +2.41684034e-01 -1.66957721e-01 -1.83852509e-01 -6.57145232e-02 -2.36435145e-01 +4.07819986e-01 -1.22610256e-01 +2.77946413e-01 -4.51366007e-02 -1.49438128e-01 +4.36740339e-01 -5.08878268e-02 -1.97343737e-01 -4.80039343e-02 +2.27554783e-01 -1.59596100e-01 +1.75504148e-01 +1.30533323e-01 -6.47219792e-02 +3.40159148e-01 +1.83891937e-01 +3.23903501e-01 -9.35636610e-02 -4.13269222e-01 +7.96360373e-02 -2.29178995e-01 +5.78016527e-02 +2.55164981e-01 +2.32763499e-01 -3.04614007e-01 +5.65014929e-02 -2.71896143e-02 +2.06394106e-01 -3.57862609e-03 -1.75452642e-02 -2.13600956e-02 -2.52284557e-01 -7.33029842e-01 -2.80501515e-01 -2.96653062e-01 +2.03070059e-01 +2.51082331e-01 -1.35045692e-01 +4.08113211e-01 -2.35550210e-01 -4.49255928e-02 -8.65960717e-02 +4.11166847e-01 -8.68153423e-02 -6.49389744e-01 +2.31165111e-01 +2.09632754e-01 +1.64169744e-01 -8.72916162e-01 +5.44815004e-01 -2.25912184e-01 -4.09625769e-02 +8.37405622e-01 -2.06505075e-01 -9.62586775e-02 -3.91295582e-01 +4.70369399e-01 -2.50796646e-01 +7.28892744e-01 -2.11750999e-01 +6.44359469e-01 +6.73749030e-01 -4.44867998e-01 -1.57454163e-01 -5.51367462e-01 -5.74961126e-01 -1.14714123e-01 -1.43177226e-01 +3.32350045e-01 -3.81407201e-01 -1.26217142e-01 -2.02531621e-01 -1.24410186e-02 -2.33331650e-01 +9.08840656e-01 -3.19710374e-01 -6.84374332e-01 +4.97891217e-01 -1.03308670e-02 -3.36176127e-01 -3.86017442e-01 +4.44156289e-01 -5.00667393e-02 +7.02748060e-01 -3.65556717e-01 -1.32306293e-01 -1.26254484e-01 +4.33081210e-01 -4.25575852e-01 -2.86030889e-01 -2.44629636e-01 +3.20896089e-01 -2.36164719e-01 -2.64536768e-01 +2.53196448e-01 +3.92640233e-02 +2.78734565e-01 -3.44245485e-03 +3.22959684e-02 +1.12689868e-01 -5.95193028e-01 -1.22527853e-01 +5.91576323e-02 +3.17346573e-01 -4.10039499e-02 -1.00679547e-01 +1.09714314e-01 +6.67611063e-02 -1.38012737e-01 +4.06608433e-01 -1.58993885e-01 +1.19802706e-01 +1.99133679e-01 -1.49850994e-01 -4.40603010e-02 +3.18911403e-01 -4.30512521e-03 +6.49900548e-03 +2.51646847e-01 +1.14083178e-01 +1.91167548e-01 +1.38742656e-01 -2.54516333e-01 +2.05846399e-01 +2.43577823e-01 +4.64278720e-02 -1.51223868e-01 -8.92706037e-01 -7.40000978e-02 -3.99814606e-01 -1.67190749e-02 -5.02449691e-01 +7.73970708e-02 +2.39847407e-01 +2.54639328e-01 -9.42578092e-02 -3.02963823e-01 -1.35306656e-01 -3.23768705e-01 +5.17072119e-02 +3.02810296e-02 +1.32281274e-01 -8.22737291e-02 +7.34608695e-02 +1.95793331e-01 +1.45891160e-01 -1.57456294e-01 -1.36439994e-01 -2.95453012e-01 -1.04014250e-02 +4.22672719e-01 +1.74558014e-01 +1.85236081e-01 +3.33557487e-01 -1.67321097e-02 -1.80424735e-01 -3.97847295e-01 +3.40075344e-02 +3.84871960e-01 +2.93259114e-01 -1.53550331e-03 +4.63845134e-02 +4.16715443e-01 +1.59251302e-01 -3.69886100e-01 +4.00562882e-01 +7.74700344e-01 -3.97577852e-01 +3.90434526e-02 -3.94117802e-01 +3.43255162e-01 +3.69767427e-01 -9.98948216e-01 -2.70861804e-01 +2.00128570e-01 -1.00236423e-01 +1.79915562e-01 -6.36984825e-01 -1.07464947e-01 +1.39702484e-01 -7.55126894e-01 +2.84959048e-01 -4.00615573e-01 -6.08170688e-01 -2.02624932e-01 -8.17850307e-02 +1.17307976e-01 -3.64985429e-02 +2.69760173e-02 -1.44787744e-01 +1.95061579e-01 -5.83253019e-02 +1.30303621e-01 -9.74532306e-01 -3.63044262e-01 -1.19501367e-01 +9.13981125e-02 -4.10596341e-01 -1.49682015e-01 -1.87054768e-01 +5.89175485e-02 -2.02135652e-01 +2.65385389e-01 -4.38625485e-01 +3.18748988e-02 -3.97671834e-02 +3.61086130e-01 -1.10220701e-01 -1.02022633e-01 +2.65338212e-01 -8.00911710e-03 +6.68975055e-01 +1.94154426e-01 +2.21686929e-01 -2.34589443e-01 +8.80187526e-02 +1.12550743e-01 +1.39292881e-01 -3.98033351e-01 -2.18905717e-01 +1.39411800e-02 -4.46581580e-02 +3.44945699e-01 +4.34915245e-01 -4.14351404e-01 +2.71075398e-01 -9.19619426e-02 +1.39387786e-01 -1.23605761e-03 -1.61593944e-01 +2.42064521e-01 +3.09546236e-02 +5.48452232e-03 +1.80618033e-01 +4.17993993e-01 +2.74069048e-02 -3.19284536e-02 -9.23140272e-02 -2.86200374e-01 -1.09164074e-01 +5.90704032e-04 -4.02923554e-01 +3.04016799e-01 -1.10755898e-01 -4.31096964e-02 -1.15823589e-01 +1.09281421e-01 +1.98801577e-01 -5.49724139e-02 +3.09675306e-01 -2.30227754e-01 +4.10312936e-02 -1.61899894e-01 +4.69563007e-02 -2.23738194e-01 +4.75599706e-01 +7.97719657e-02 +2.06143871e-01 -2.26093352e-01 -4.07651765e-04 -1.00431629e-01 -3.17240775e-01 +2.03868821e-01 -5.24368323e-02 +4.60165203e-01 +1.58616349e-01 +3.37900579e-01 -2.90511608e-01 -1.61268329e-03 -3.80121410e-01 -3.75495642e-01 -9.84853134e-02 +1.93962038e-01 -1.38206929e-02 +3.12817954e-02 +7.30320662e-02 -2.55533725e-01 -1.08423337e-01 -1.02184288e-01 -7.64476433e-02 +7.99570456e-02 -1.87884402e-02 +3.69821757e-01 +4.69561294e-02 -2.79167801e-01 +3.87308329e-01 +4.96343434e-01 -3.37636560e-01 +4.44908328e-02 -7.50610173e-01 -1.65939078e-01 +5.21707013e-02 -1.42283337e-02 +1.10663638e-01 -2.06912100e-01 +8.12513709e-01 +2.60433733e-01 -6.00828767e-01 +2.11152527e-02 -4.65596393e-02 +6.51830435e-01 -7.98120052e-02 -5.28483629e-01 +4.63524550e-01 +2.02807620e-01 +4.00183320e-01 -5.98868608e-01 -1.19093621e+00 +2.82864153e-01 -1.58591926e-01 +7.14958847e-01 -4.57463861e-01 -2.86462069e-01 +2.32023507e-01 -3.10854495e-01 +2.43236408e-01 +3.56936008e-01 -4.31946635e-01 -1.22741744e-01 -3.60691220e-01 -9.29146782e-02 -1.01072341e-01 -2.27611110e-01 +1.16222672e-01 -5.66478014e-01 +4.36939597e-01 +1.15088932e-01 -2.73368042e-02 +1.60806507e-01 +3.59949231e-01 +1.73912585e-01 +5.00383258e-01 -1.07341306e-02 -2.08183434e-02 -2.83223718e-01 +7.18357742e-01 -3.55870984e-02 -5.12795486e-02 -2.11002618e-01 -6.69028461e-01 -8.13759491e-02 -7.10479856e-01 +2.00704113e-01 -3.08830172e-01 -1.79870486e-01 +1.90778881e-01 -2.90503055e-01 +2.07300290e-01 -1.02142408e-01 -9.80870649e-02 +6.01376854e-02 +8.17270204e-02 -1.59456104e-01 -2.14345735e-02 +2.05695033e-01 -3.84015702e-02 +4.31093186e-01 +1.30925238e-01 -1.11164160e-01 -8.75186175e-02 +1.72079891e-01 -1.30828798e-01 +7.78242797e-02 +5.46431616e-02 +6.79355785e-02 -7.64385611e-02 -1.35893598e-01 +3.10530495e-02 -1.61569044e-01 -2.11586699e-01 -1.04627490e-01 -3.87871444e-01 +1.76273033e-01 +8.13371092e-02 -1.43322289e-01 -1.39340490e-01 +1.47148520e-01 +5.96346483e-02 +3.03491265e-01 -1.47087649e-01 -1.37803957e-01 -1.46944731e-01 +2.82123744e-01 +5.00232160e-01 -1.53675944e-01 -2.64141727e-02 +4.06751335e-01 -2.70299107e-01 +1.05847381e-01 -3.29576045e-01 -1.05479307e-01 -3.48368198e-01 +1.67760670e-01 +4.59058471e-02 +2.57637084e-01 -3.38591337e-01 +1.99004591e-01 -2.03302596e-02 +4.51353878e-01 -7.51303956e-02 -8.34387168e-02 -8.04350153e-02 -1.41434789e-01 +8.91060978e-02 -1.38248295e-01 +2.00217590e-01 +2.95319617e-01 -4.58957493e-01 -8.52912664e-02 +3.09988827e-01 -1.30376056e-01 +1.87747657e-01 -1.59564063e-01 +2.13568896e-01 -3.14607143e-01 -6.81049675e-02 -3.09968591e-01 -2.25036725e-01 +3.74240540e-02 -6.18389189e-01 +7.04113692e-02 +1.99548110e-01 -7.58636951e-01 +8.96461010e-01 +4.81706500e-01 -1.72949329e-01 +6.33095801e-01 -2.61195183e-01 +5.17300248e-01 -9.41671059e-02 +6.75190836e-02 +5.64955932e-04 -3.00464958e-01 +1.47016436e-01 -1.32527739e-01 -3.22147101e-01 -4.76123631e-01 +6.60297990e-01 -2.59641826e-01 +2.34171063e-01 +6.54736102e-01 -1.41765535e-01 +3.80724907e-01 -4.91089702e-01 -3.29383999e-01 +1.15415372e-01 -3.16608250e-01 -2.59364039e-01 -1.87987268e-01 +1.39685045e-03 -3.35506886e-01 +9.93113667e-02 -1.84179142e-01 -6.19632863e-02 +8.56867731e-02 -3.63920957e-01 +1.48520485e-01 +1.60741106e-01 -4.81277287e-01 +1.37652591e-01 -2.45174810e-01 -2.97500789e-01 +4.65507358e-01 +3.18075627e-01 -8.52218419e-02 -2.33468086e-01 +2.19819292e-01 +3.79208922e-01 -1.36790693e-01 +4.10735533e-02 -2.77877837e-01 -6.16262197e-01 -1.74275845e-01 -6.56194752e-03 +1.14076927e-01 +2.91145205e-01 -6.97087765e-01 -3.67871195e-01 +3.02450120e-01 -1.47120012e-02 -5.68193756e-02 +2.46975735e-01 +2.67768353e-01 -1.75894827e-01 +9.95985791e-02 +3.13086301e-01 +5.56778610e-02 +1.49151072e-01 +1.99722588e-01 -2.10266769e-01 +2.19124094e-01 -9.06150416e-02 +1.21959172e-01 +1.32342249e-01 -1.53141513e-01 -3.09138093e-03 -1.64639875e-01 +3.72431464e-02 +3.98397595e-02 +1.09635722e-02 +1.26283206e-02 +1.10193633e-01 -1.36214212e-01 -1.61593869e-01 +6.21912628e-02 -7.37909451e-02 -4.43475433e-02 -2.49050811e-01 +3.11438106e-02 -2.09267795e-01 -8.16804841e-02 +4.17869911e-03 +1.70137480e-01 -4.17276591e-01 -4.21833694e-01 +1.47385404e-01 -4.86800596e-02 +1.30036786e-01 +6.73394576e-02 -2.22932264e-01 +2.74629503e-01 +8.34901929e-01 +3.44589919e-01 -4.93714333e-01 +1.45221651e-01 +1.17938556e-01 +4.08161074e-01 +2.73707546e-02 +3.61734152e-01 -2.94481963e-01 +4.13194001e-02 +3.55787694e-01 -6.47194162e-02 +1.72648728e-01 +1.02624856e-01 +3.31891984e-01 -3.76851201e-01 +1.20478317e-01 -2.07501411e-01 +3.32287937e-01 -1.11078478e-01 +1.39863446e-01 +1.58584714e-01 -1.99870795e-01 -3.91460329e-01 -2.96187103e-01 +1.65463790e-01 -2.61513948e-01 +3.54152530e-01 -3.98613662e-01 -3.85135561e-02 +1.22885779e-01 +5.10626018e-01 -1.68937981e-01 +4.22654897e-01 -2.51638561e-01 -5.05081564e-03 +6.37067378e-01 +2.28690773e-01 -4.24477935e-01 -4.57889199e-01 +5.96341789e-01 -6.56189680e-01 +2.13002905e-01 +6.75372839e-01 +1.04049079e-01 -1.64714813e-01 -4.13991421e-01 +2.40008280e-01 -1.39519081e-01 +4.72968161e-01 -1.63920462e-01 +1.90870747e-01 -4.20023084e-01 -2.18364000e-01 -1.10820122e-01 -3.10301125e-01 -4.91479188e-01 +2.27822773e-02 -2.95753121e-01 -2.14203835e-01 -1.43238753e-01 -1.17210120e-01 -7.44374543e-02 +2.40543008e-01 -1.22776339e-02 +4.34793890e-01 -4.08276528e-01 -9.31772411e-01 +9.21793520e-01 +3.13390553e-01 -1.78406328e-01 -5.83902448e-02 -3.72254802e-03 -3.95088233e-02 +1.82994157e-01 -4.66183245e-01 -2.32739598e-01 -1.86905116e-01 +2.69863784e-01 -6.48561954e-01 -5.98234050e-02 -3.17994356e-01 +3.86803806e-01 -4.29447711e-01 +2.20261052e-01 +1.95346907e-01 -8.20409507e-02 -1.18766963e-01 +1.61888868e-01 +2.15016201e-01 +3.12299132e-02 +4.64239419e-02 +1.03788622e-01 +1.59456674e-02 +2.02930599e-01 +1.75511584e-01 -1.98641598e-01 +1.88448891e-01 +5.88032082e-02 -1.71018496e-01 -1.66395344e-02 -1.12085544e-01 +1.04501940e-01 +1.24975264e-01 -1.02897935e-01 -4.03302088e-02 -1.28100917e-01 +6.31721169e-02 +9.31685492e-02 -5.41841937e-03 -4.77912799e-02 -2.60682218e-02 -7.97651429e-03 -1.33302912e-01 -1.79646745e-01 -7.17779025e-02 -7.29795024e-02 +1.09166987e-01 +1.95734855e-02 +1.56015590e-01 -1.91716582e-01 -1.63298562e-01 -8.16142745e-03 -3.19024354e-01 -3.13486233e-02 +2.52283752e-01 -1.32966470e-02 -1.26418605e-01 -1.36667639e-01 +3.22658569e-01 -1.22437514e-01 -1.47627935e-01 -2.19645247e-01 +4.91618752e-01 +6.64787292e-02 -8.16219673e-02 -1.17267277e-02 -3.28650415e-01 +2.06300214e-01 +5.36120050e-02 +2.38705128e-01 +5.91985695e-02 +1.64576307e-01 -2.78237194e-01 -6.72672912e-02 +1.09184429e-01 -2.03899816e-01 +1.28367633e-01 -2.56187648e-01 -1.11163169e-01 -2.19926313e-01 -1.46979198e-01 -2.00131446e-01 +3.41858715e-01 -1.35756820e-01 -4.77881223e-01 +1.35383576e-01 +9.78155956e-02 -1.93682730e-01 +2.40418404e-01 -1.98644385e-01 -2.79549837e-01 -1.58638373e-01 -5.63361287e-01 +4.06891227e-01 -4.17389601e-01 -1.39804259e-01 -1.45550534e-01 -1.56431243e-01 +1.94292352e-01 +3.01320821e-01 -5.51318288e-01 +4.30632323e-01 -2.97951430e-01 +5.60373724e-01 +5.93431890e-01 +4.84429240e-01 +2.86912054e-01 +3.91738176e-01 -3.50415945e-01 -2.77763277e-01 +2.93180216e-02 +6.80019893e-03 -1.16330301e-02 -4.28166270e-01 -2.49047086e-01 -8.34890366e-01 +6.34737536e-02 +7.54095688e-02 -1.62905186e-01 -2.85461962e-01 +1.37088388e-01 -2.60145068e-01 -3.92774314e-01 -5.26915431e-01 -4.50154752e-01 +1.96965292e-01 -2.59273082e-01 +2.10279644e-01 -4.88835692e-01 -1.61345422e-01 +1.65093139e-01 +2.38781497e-01 +1.92478031e-01 +6.06814288e-02 -4.21912372e-01 -3.98843169e-01 -1.49988728e-02 +4.33979183e-02 +2.21156590e-02 +6.40067533e-02 -6.70221001e-02 -1.84062347e-02 +7.61963800e-02 -2.69192785e-01 -6.47178888e-02 +6.55674888e-03 -7.89296255e-02 -2.78399229e-01 +1.22690752e-01 +1.36182547e-01 -1.56962618e-01 +6.03627739e-03 -7.04419762e-02 -3.32975745e-01 +2.01148972e-01 -1.03918510e-02 +2.67487764e-01 -6.11353397e-01 -2.00108469e-01 +2.71274567e-01 +3.15943249e-02 -1.58359911e-02 +3.34947854e-02 -1.68894470e-01 -3.27091575e-01 -1.86121076e-01 -3.63099054e-02 -4.52786148e-01 -1.37630269e-01 -2.67483797e-02 -3.12367797e-01 -3.06985769e-02 -1.86147347e-01 +1.04935050e-01 -4.47312266e-01 -1.12200631e-02 +1.40598148e-01 -3.82430345e-01 -3.73514563e-01 -2.99196810e-01 -3.54509801e-01 -9.20860935e-03 -5.29627018e-02 +3.07127565e-01 +1.31518081e-01 +4.83896643e-01 -2.84159750e-01 +3.09616566e-01 -4.36498784e-02 -5.53860605e-01 +1.20452747e-01 -1.90313414e-01 -4.15658921e-01 +1.04948692e-02 +6.03265345e-01 +5.15305698e-01 -2.79081255e-01 -1.37398481e-01 -6.57747267e-03 +3.74718979e-02 -6.65834725e-01 -3.74386221e-01 +3.67243923e-02 +1.41235054e-01 +3.26658607e-01 -3.24467599e-01 +2.37936974e-01 -4.57210392e-01 -8.82712901e-02 -2.25928962e-01 +5.27119525e-02 -2.00207546e-01 -1.96411416e-01 +3.19755018e-01 +3.34055386e-02 +6.45907521e-02 -1.63156301e-01 -3.31094950e-01 +1.57024503e-01 -3.39950696e-02 -5.66705056e-02 -4.14523371e-02 +4.74019051e-01 +2.56581724e-01 -8.91462266e-01 +4.13352460e-01 -2.64265090e-01 +4.47879359e-02 -1.19837306e-01 +1.54337287e-01 +3.21289033e-01 +5.59585035e-01 -2.60788113e-01 +2.70157009e-01 +1.93540707e-01 +1.45171106e-01 +3.98409426e-01 +4.87176955e-01 +4.73427296e-01 -5.38514256e-01 -4.76013601e-01 -2.58143365e-01 +1.41255394e-01 -1.36982656e+00 -3.14650446e-01 +4.41154778e-01 -1.33089051e-01 +1.68192595e-01 -6.62365615e-01 -1.24278599e-02 +3.26930672e-01 -3.39598089e-01 -1.14693427e+00 +3.82333338e-01 -3.62897784e-01 -3.80250812e-02 -5.39275706e-01 -8.19305331e-02 -2.04402804e-01 +3.56395274e-01 -2.71029502e-01 +7.08913151e-03 +1.25958920e-01 +1.18788481e+00 -5.46086848e-01 +2.59699583e-01 +9.16015655e-02 +4.06352803e-02 -7.26068467e-02 +8.19796771e-02 +2.12106444e-02 +8.97693262e-02 -3.91694196e-02 -3.34952623e-01 +2.15865180e-01 -8.73971730e-02 +2.45956302e-01 -1.19840242e-01 +3.12208366e-02 -2.23641858e-01 +3.37838173e-01 +7.26107927e-03 +8.49922672e-02 -5.88655658e-02 -8.25927854e-02 -1.82085812e-01 -9.04666632e-03 +2.33381808e-01 +1.36304557e-01 -5.72586119e-01 +1.43827409e-01 +2.00919043e-02 +1.56573299e-02 -1.81339130e-01 -2.09338695e-01 -1.90617740e-01 +1.88211292e-01 -7.79055730e-02 -6.98835105e-02 +4.88555022e-02 +3.52538049e-01 +6.19045459e-02 -1.94918156e-01 -7.90809169e-02 +4.44695987e-02 +1.96758434e-01 -5.67214251e-01 -1.00219943e-01 -3.63506854e-01 -2.01399341e-01 -2.14570612e-01 -3.07065874e-01 -1.50070548e-01 +1.30353138e-01 -4.46115173e-02 +9.74054188e-02 -4.24709827e-01 -2.28055209e-01 -3.25471878e-01 +7.70123154e-02 +3.75249743e-01 +1.90530851e-01 +1.98190883e-02 +3.26306522e-01 +4.56067454e-03 -2.66989201e-01 +1.69903964e-01 -2.18799427e-01 +3.24851394e-01 -1.80193916e-01 +7.39727765e-02 -1.85799837e-01 -2.95466781e-01 +2.81174511e-01 -5.08170426e-02 -1.05650775e-01 -7.76299760e-02 -1.67821780e-01 +1.89703941e-01 -4.79543686e-01 +2.23687604e-01 -8.34611580e-02 -6.52311623e-01 +8.20502520e-01 +5.65271854e-01 -4.49779660e-01 -4.50844616e-01 -3.22282374e-01 +8.49302649e-01 +2.53383964e-01 +2.26499930e-01 +3.69591236e-01 +4.42976393e-02 +4.58558023e-01 -4.63471353e-01 -4.79522109e-01 +9.68117237e-01 +3.85407448e-01 +4.24373616e-03 -2.61664033e-01 -5.18017232e-01 +6.21579289e-02 -3.25415224e-01 +2.63618201e-01 -2.08317891e-01 -6.62201703e-01 +3.95134211e-01 -4.17239726e-01 -6.63707331e-02 -2.90484130e-01 -3.31671029e-01 -6.19142294e-01 +1.84624895e-01 +4.57706451e-01 +9.91517082e-02 +6.98869467e-01 +2.50920281e-02 -6.02694333e-01 -3.41331631e-01 +3.15526277e-01 -3.82553995e-01 +1.80745408e-01 -2.69882292e-01 +5.77715278e-01 -6.28730282e-02 +4.59600240e-01 +3.88954490e-01 -1.11583628e-01 +4.25985008e-02 +1.66706130e-01 -2.52856731e-01 -4.08939347e-02 +1.00905620e-01 +7.47015104e-02 -1.41775161e-01 +3.07913899e-01 -2.29030296e-01 +1.53411642e-01 -1.32657483e-01 +5.76742291e-02 -1.98541626e-01 +2.82964945e-01 +2.88894504e-01 -8.70414376e-02 +2.28296623e-01 -2.09069744e-01 -1.77058220e-01 +1.34619504e-01 +1.33400649e-01 +1.48200452e-01 +1.40703708e-01 +1.03405013e-03 -1.25389561e-01 +1.83976799e-01 +2.22265676e-01 +3.68853182e-01 -2.44284078e-01 -4.84014265e-02 -8.31436291e-02 -1.99965671e-01 +2.69999743e-01 +1.06264139e-03 -3.45498890e-01 +6.57416359e-02 +2.84002751e-01 -6.28159493e-02 +2.10891366e-01 +4.64497916e-02 -2.07136542e-01 -2.20582485e-01 +1.86629876e-01 +3.44389528e-01 -3.23984702e-03 +1.16256796e-01 +3.64028662e-02 +1.56186344e-02 -1.24002464e-01 -4.10537362e-01 +2.08061799e-01 +1.52394965e-01 -2.56802142e-01 -2.27574140e-01 -7.10557252e-02 -2.97659904e-01 +5.62334508e-02 +1.86700195e-01 +3.28043312e-01 -1.14002347e-01 -5.13409138e-01 +1.39813617e-01 -3.30659598e-02 -1.51554972e-01 +1.81261480e-01 -3.58774066e-01 +9.52976570e-02 +7.50785768e-02 +2.91091114e-01 +2.51047760e-01 +1.64095059e-01 +2.04868075e-02 +4.88114096e-02 +5.62344193e-01 -1.17443137e-01 -1.38112977e-01 +2.85370909e-02 -1.00785005e+00 -2.03946218e-01 -6.46884441e-01 -8.93750846e-01 -3.33838373e-01 -7.61039630e-02 +1.97797671e-01 +1.70606107e-01 +2.84011096e-01 +2.12790042e-01 -4.45042044e-01 -1.98325381e-01 -6.04281306e-01 -2.43151784e-01 +1.28628373e-01 +2.17401847e-01 -8.33131731e-01 +2.95928985e-01 +2.38942012e-01 -4.98627663e-01 -6.03280425e-01 -5.34069955e-01 +1.24686606e-01 -5.24576962e-01 +3.59750718e-01 -1.70133263e-01 +3.18086654e-01 +6.94589689e-02 +2.96049774e-01 -4.28064346e-01 +3.96886110e-01 +2.04071343e-01 -8.23701739e-01 +1.16111189e-01 -2.42773555e-02 -6.07964993e-01 -3.57409179e-01 +2.05365807e-01 -7.87016273e-01 +3.00173879e-01 +2.76183367e-01 -3.24883342e-01 -6.13936126e-01 +4.13497448e-01 -3.35121661e-01 +2.21640453e-01 -2.88417846e-01 -5.38529396e-01 -1.03545606e+00 -1.87785730e-01 +2.52996385e-01 +2.13961482e-01 -5.31237841e-01 +1.68558687e-01 -3.08098912e-01 -3.63941878e-01 +2.68813252e-01 -3.65397841e-01 +1.09557748e-01 -1.91941082e-01 +3.32992852e-01 +6.23127103e-01 -7.62712061e-02 -5.27010709e-02 +2.59726971e-01 +6.39903964e-03 -1.14834800e-01 -3.39255445e-02 -1.91987269e-02 +2.17326388e-01 -3.56130809e-01 -9.90980789e-02 -2.38061592e-01 -2.81305045e-01 +1.43149734e-01 +4.96513575e-01 +1.32590998e-02 +4.09030557e-01 -2.24295571e-01 -4.74267453e-02 +2.36369804e-01 -3.32541138e-01 +1.43240429e-02 -1.12651981e-01 +2.45796563e-03 +1.12097403e-02 -2.54320145e-01 -1.95986778e-01 -2.06701562e-01 +1.54125452e-01 +1.00179650e-01 +4.12723005e-01 +1.03512995e-01 -3.78100574e-02 +1.96072564e-01 -5.77647332e-03 +2.01379135e-01 +1.50714681e-01 +7.04998374e-02 +2.23606408e-01 -3.71846765e-01 +1.81113511e-01 -2.11067535e-02 +1.77601337e-01 +9.43098426e-01 +3.33691575e-02 -1.68539241e-01 +2.64671952e-01 -1.83180287e-01 +1.19232461e-01 -5.08967459e-01 -2.35157266e-01 -9.73750949e-02 -7.36985877e-02 -9.21402499e-03 +8.00675899e-02 -1.45542473e-01 -7.20236152e-02 +2.75557727e-01 -1.55653551e-01 -6.63358644e-02 +2.67072245e-02 -1.12743892e-01 -8.08230415e-02 -1.00888312e-01 -6.70058310e-01 -1.79677024e-01 -5.71373463e-01 +6.77339062e-02 -3.38894069e-01 -1.05071180e-01 -1.38998151e-01 -4.37463909e-01 -4.84777510e-01 +3.85345779e-02 -3.77288669e-01 -2.31530577e-01 +3.13544720e-01 -8.33419323e-01 -4.62830774e-02 -2.23275702e-02 -3.21492970e-01 +3.24423313e-02 +3.62998039e-01 +5.20583510e-01 -7.31463209e-02 +1.08075686e-01 +5.77343702e-01 +3.66393566e-01 +8.44504058e-01 -4.81646061e-02 -9.83542129e-02 -4.39384580e-02 -7.74388686e-02 -3.39240253e-01 +2.82466024e-01 +7.97801554e-01 -1.35195583e-01 -2.37138972e-01 -1.17289335e-01 -4.70764160e-01 +1.64082140e-01 -2.84087807e-01 -5.62782884e-01 -3.33986394e-02 +2.69223414e-02 +5.17311454e-01 -6.83272108e-02 -6.18229769e-02 +1.13382794e-01 -1.66249633e-01 -1.04927614e-01 +5.37177920e-01 -2.58543134e-01 +3.99321094e-02 +5.60283370e-04 -5.64645678e-02 -2.21615583e-01 -1.01664853e+00 -5.52605927e-01 -2.93004930e-01 -5.79187334e-01 +3.20356339e-01 -1.80298969e-01 +1.32229224e-01 -7.54282296e-01 +1.81364432e-01 -1.79144546e-01 -2.73946911e-01 +2.52560731e-02 -5.95027149e-01 +1.99972346e-01 -7.94783309e-02 -3.22581530e-02 +3.15736048e-02 -8.51781219e-02 -2.79325023e-02 +7.75009021e-02 +9.87762734e-02 -2.98699528e-01 +2.61607140e-01 +1.30462393e-01 +3.30103957e-03 +2.07746401e-01 -3.10078830e-01 +4.76825312e-02 +1.03389993e-02 +1.92465335e-01 -8.07039201e-01 +3.54029350e-02 -1.83028102e-01 -4.31258380e-01 +7.96440989e-02 -2.49113679e-01 +8.58344510e-02 +1.79588377e-01 +3.95756215e-03 +6.83137178e-02 +2.54446834e-01 -8.30133557e-02 -3.22353356e-02 -2.54086375e-01 +1.96665432e-02 -1.25921190e-01 +1.22323699e-01 -4.22405638e-02 -7.20580220e-02 +3.16629231e-01 +3.70147586e-01 -2.46889576e-01 -4.58751947e-01 +4.28223982e-02 +8.92358720e-02 -2.31934816e-01 +3.49361032e-01 -1.40360698e-01 -1.20910659e-01 -8.23383033e-01 -6.50964975e-02 +4.33455527e-01 +1.93032131e-01 +3.51418525e-01 -1.92886502e-01 -3.77124131e-01 -3.48791964e-02 +3.32261920e-02 +1.92476645e-01 -2.69597732e-02 +5.66861570e-01 -7.87863955e-02 +5.93197756e-02 -6.23196304e-01 -1.36926994e-01 +1.76846534e-02 -4.55137296e-03 -2.07014252e-02 -7.58722648e-02 -2.00625286e-01 +1.08477198e-01 +4.21448499e-01 -2.08908245e-01 -1.70730695e-01 +4.17928398e-01 -5.54806411e-01 -3.65762711e-01 +7.07701266e-01 +6.69168159e-02 +2.42453367e-01 +6.21109158e-02 +6.42399639e-02 +2.67381296e-02 +6.80730343e-01 +3.36382359e-01 -2.94807315e-01 -4.70080495e-01 +5.23487389e-01 +5.17217338e-01 +5.48857689e-01 -4.25092280e-01 +1.83118060e-01 +5.57484478e-03 -2.76305735e-01 +1.66433558e-01 -6.07109964e-01 +2.98126221e-01 -1.48807801e-02 -4.58401531e-01 +3.27247083e-01 +1.53000489e-01 -8.08097944e-02 +4.79601920e-01 -3.68881851e-01 -3.96072358e-01 +3.95214289e-01 +5.82954168e-01 +7.17597827e-03 +1.75384581e-02 +7.20858395e-01 +4.00485992e-01 +2.88625300e-01 -1.59519523e-01 +9.87769142e-02 +3.59912634e-01 +1.99961767e-01 +1.14811981e+00 -1.20497093e-01 -1.05823047e-01 -2.33384699e-01 +4.44737762e-01 -3.07755351e-01 +1.28676221e-01 +3.93787265e-01 +1.50774315e-01 +1.69793963e-01 +1.19658083e-01 -2.19481215e-01 -1.04507491e-01 -1.12174548e-01 +7.66293481e-02 -1.30679771e-01 +2.63419840e-02 -1.31283358e-01 +1.45799235e-01 +2.09011346e-01 +4.20773625e-02 +2.78976839e-02 +2.18597008e-03 +2.00943142e-01 +3.70586842e-01 +1.98677316e-01 +4.57303366e-03 +7.35310242e-02 +9.19287950e-02 +3.06993276e-01 -4.05799448e-02 -9.92898270e-02 -3.24339777e-01 +3.06630898e-02 -3.62453431e-01 +1.10250071e-01 +1.09325916e-01 +2.58734939e-03 +4.04648572e-01 +6.19884729e-02 +4.15013544e-02 +1.45114049e-01 +1.33778974e-01 +3.52796540e-02 -2.06131741e-01 -1.30943462e-01 -1.33072749e-01 -1.16774902e-01 +5.95474020e-02 +2.17981488e-02 -1.24107048e-01 +2.42096290e-01 -1.82202280e-01 -5.61547764e-02 +2.08871976e-01 -8.05527270e-02 +1.01852946e-01 -2.23385200e-01 +2.44758263e-01 +3.28332752e-01 +2.76743889e-01 -5.28264880e-01 +8.86501148e-02 -4.36111214e-03 -7.44525418e-02 -2.89505780e-01 -3.56656010e-03 +1.65062055e-01 -4.54551250e-01 -2.66982317e-01 +5.90848783e-03 -1.77524090e-01 -4.03138369e-01 -1.14856154e-01 -1.14160351e-01 +2.22013928e-02 -8.64656642e-02 -4.30347323e-01 -1.19542971e-01 -4.44933653e-01 -1.48028359e-01 -4.36923325e-01 -7.70974606e-02 +2.73149818e-01 -1.69471845e-01 -3.44561301e-02 +4.43623215e-02 +8.85652453e-02 -2.61605859e-01 -8.76393542e-02 -2.45558932e-01 -3.38632911e-01 -1.11609641e-02 -5.05846322e-01 +4.07478392e-01 +7.54059553e-01 +2.13841826e-01 -7.67028704e-02 -2.70254016e-01 +5.51963031e-01 +3.62700939e-01 +5.16521394e-01 -1.73256826e-02 -4.87442464e-01 -3.40159923e-01 -6.31163955e-01 +3.44826519e-01 +6.77684546e-02 +4.09494370e-01 +5.77391684e-01 -2.98582502e-02 -1.25905275e-01 -4.47751693e-02 +2.65609585e-02 +2.29080036e-01 +2.77407438e-01 -2.62779564e-01 -2.23950401e-01 +7.42390335e-01 -2.31840592e-02 -5.42558670e-01 +4.50708389e-01 +1.53139293e-01 +2.07374856e-01 +3.79635960e-01 -4.16962743e-01 +2.27859408e-01 +5.24174497e-02 +9.70587134e-01 -1.90312222e-01 -2.28874609e-01 +1.62807941e-01 +4.10856634e-01 +4.05242532e-01 +8.84304821e-01 +3.51051569e-01 +1.72909051e-01 -1.66237518e-01 +3.40312779e-01 +1.46825343e-01 +2.12549150e-01 +3.32814977e-02 -3.06552589e-01 -6.74657971e-02 +3.05644423e-02 -3.86060146e-03 +2.27477461e-01 -1.62583128e-01 -2.65026152e-01 +6.08877391e-02 -6.45676106e-02 -6.17213733e-02 +4.00697082e-01 -1.09923646e-01 -4.58480716e-02 -4.48906392e-01 +7.40262866e-02 +1.30091190e-01 +1.97282508e-01 +5.87202460e-02 -5.91150075e-02 +2.87296958e-02 -4.45394032e-02 +6.65560067e-02 -1.68512776e-01 +2.97403544e-01 +7.06611216e-01 +3.19037199e-01 +5.56412265e-02 +1.86097965e-01 +2.62909830e-01 +1.52739482e-02 -1.72200769e-01 +3.85238305e-02 +3.39640081e-01 +2.31252208e-01 +2.66772509e-02 -1.13594368e-01 -2.67850775e-02 -6.07448816e-03 -1.96992561e-01 -4.13518250e-01 -3.21539551e-01 +7.87103474e-01 -5.48764057e-02 +3.79713833e-01 -3.46317291e-01 +1.07994199e-01 -1.48527741e-01 +9.21185553e-01 +2.81285495e-01 +2.87123382e-01 -2.29741365e-01 -1.41936943e-01 +3.05920899e-01 -4.26776052e-01 +3.32001328e-01 +1.02518544e-01 +1.00821644e-01 -7.90892363e-01 -1.51114628e-01 +6.25740513e-02 +7.64990598e-02 +3.61817926e-01 -2.94279754e-01 -2.48451993e-01 +3.35847527e-01 -6.53062105e-01 +3.90326113e-01 +4.11178619e-01 +2.16043904e-01 +4.47489917e-01 -3.31812441e-01 +4.73848730e-01 +1.38331816e-01 -7.61008859e-02 -2.34067917e-01 +6.39714658e-01 +2.11413369e-01 +2.26572961e-01 +7.36572325e-01 +3.51669669e-01 -2.29477674e-01 -8.45804140e-02 +9.77782011e-01 +1.29695863e-01 +8.50764662e-02 +8.23846817e-01 +2.10443005e-01 +3.16819102e-01 -1.60838515e-02 +9.69584107e-01 -6.59738854e-02 +1.31292582e-01 -5.79199046e-02 -2.63794571e-01 -7.79226422e-02 -2.57437825e-01 +1.52415633e-01 -1.70113027e-01 +3.57920259e-01 +5.88778704e-02 -3.85172188e-01 -5.52057207e-01 -7.52695680e-01 -1.18728101e-01 -3.80030200e-02 +2.40966395e-01 -2.08174780e-01 +4.24660206e-01 -1.32902235e-01 -5.09123147e-01 +7.34766960e-01 +3.79274935e-01 +3.19009013e-02 -5.05194843e-01 -8.86226892e-02 +1.38013154e-01 -4.03721221e-02 -1.85454965e-01 +6.86311647e-02 -5.37807703e-01 +2.70719022e-01 +5.03075309e-03 +1.12028740e-01 -4.37470317e-01 +5.03656685e-01 -2.52435297e-01 -2.68799543e-01 -7.32760737e-03 -2.26277560e-01 +1.39037997e-01 -2.06252843e-01 -1.73980519e-01 +8.62577185e-02 -1.47324562e-01 +1.50330037e-01 +1.64089963e-01 +4.75838222e-02 +6.78603053e-02 -2.67005175e-01 +4.76356857e-02 +1.04675546e-01 -5.26332967e-02 -1.98290065e-01 -3.42629328e-02 +3.63288913e-03 +1.59184977e-01 -2.16280282e-01 +1.32760843e-02 -3.56852144e-01 -5.60033619e-02 -1.18370205e-01 +2.04905063e-01 -5.37628420e-02 +5.83605021e-02 -3.11774621e-03 -1.50192901e-01 -2.07046285e-01 +5.67494147e-03 +1.21974908e-02 +1.99456178e-02 +2.18230665e-01 +3.15202504e-01 +7.80856758e-02 -5.79186857e-01 -1.85818616e-02 -1.32567644e-01 -4.14984465e-01 +2.11515501e-01 -5.46973087e-02 +4.86313179e-02 +2.60473937e-01 +2.59980261e-01 -5.17162204e-01 -2.31963366e-01 +8.49244073e-02 -5.03201112e-02 -5.09208918e-01 -2.44626194e-01 +3.64962846e-01 -1.15157433e-01 +5.74240744e-01 +4.24090564e-01 -3.03131193e-01 -1.95893019e-01 -8.08898658e-02 +5.37539661e-01 +1.65520743e-01 +1.61273703e-01 -5.81592172e-02 -1.60787571e-02 +2.29225919e-01 +1.77594740e-02 -5.88698864e-01 -5.25872946e-01 +3.81497294e-02 -4.98559922e-01 -1.39021397e-01 -1.28511250e-01 -2.71313768e-02 -1.76244184e-01 +9.36379910e-01 +6.47864163e-01 -7.67471731e-01 -6.26546144e-01 -9.26438689e-01 +3.19673747e-01 +1.50129627e-02 -1.20960446e-02 +7.15781331e-01 +7.58682489e-02 -2.50611641e-02 -5.05095720e-01 -6.53494716e-01 +3.71683866e-01 -1.50089502e-01 +7.99797475e-02 -1.79890677e-01 -1.15900230e+00 -1.52012080e-01 -2.92579681e-01 +5.06175697e-01 +9.14213806e-02 -2.76481479e-01 +2.14856535e-01 -5.24178818e-02 -3.14603359e-01 -6.19604409e-01 -1.24599211e-01 -1.25351682e-01 -4.15590823e-01 +4.99867469e-01 -2.01083913e-01 +3.52590501e-01 +3.82050067e-01 -3.94011229e-01 +5.30024767e-01 -4.26246971e-01 -1.74029365e-01 -2.30456918e-01 +2.09535480e-01 +2.82242358e-01 -6.19721055e-01 -7.30559751e-02 -1.86210182e-02 -1.83613539e-01 -3.04890841e-01 -2.78063208e-01 -2.35336408e-01 -1.33108795e-01 -7.11725175e-01 +5.45483112e-01 -3.48340683e-02 +3.58054250e-01 -5.78726411e-01 -1.99600264e-01 +4.74137207e-03 -3.16040993e-01 +1.80049226e-01 +3.63250464e-01 +1.96376473e-01 +8.69065151e-02 +5.75117618e-02 +1.02815945e-02 -2.95763403e-01 -2.14937285e-01 -3.31847630e-02 -2.20363095e-01 -1.09278478e-01 +8.98905993e-02 -7.02960715e-02 -1.06574103e-01 +1.94101855e-02 +1.60716817e-01 -4.12262864e-02 +4.59931530e-02 -2.99052685e-01 +2.32154921e-01 +2.94880390e-01 -4.41118553e-02 +1.37956247e-01 -9.56449509e-02 +1.50023341e-01 +1.19188778e-01 +3.05090807e-02 +1.50114787e-03 -6.93979859e-02 -3.17869991e-01 -3.13612781e-02 +5.09125769e-01 +5.66905856e-01 +7.54053444e-02 +3.51649642e-01 -1.64821520e-01 +3.78196388e-01 -2.80464649e-01 -2.22002208e-01 -4.41693306e-01 +3.22501183e-01 +1.35969430e-01 +2.17013210e-01 -7.17293441e-01 -4.22220863e-02 -9.75938737e-02 +3.93349916e-01 +1.55059144e-01 +1.32201061e-01 +1.70309708e-01 +6.70158342e-02 -1.02415152e-01 -7.17446432e-02 +2.04787478e-01 -3.78128663e-02 -2.22038820e-01 +5.61844826e-01 +9.82707739e-02 -1.04813846e-02 +3.54268014e-01 -7.07575902e-02 +5.94030976e-01 -4.62185442e-01 +2.03645095e-01 -1.68428317e-01 +2.43910208e-01 -3.04045528e-01 -6.60801768e-01 +1.19867869e-01 -2.68759974e-03 -7.30412841e-01 +8.74211013e-01 +4.92554717e-02 -1.45854726e-01 +7.09202826e-01 -3.19307119e-01 +6.59520328e-01 +4.25611377e-01 +1.59413084e-01 -6.14176571e-01 -2.47317269e-01 +4.93506521e-01 -1.91314414e-01 -3.90519053e-01 +6.43671691e-01 +5.35533428e-02 -2.47900739e-01 -2.41236582e-01 +4.02376145e-01 -6.36477828e-01 +2.05146194e-01 -4.23977792e-01 -2.06863508e-01 -4.19613212e-01 -8.66315782e-01 -1.41161337e-01 +1.54657915e-01 -5.52647188e-02 -4.05019611e-01 +1.90402701e-01 -2.76287526e-01 -9.69507992e-02 +3.83686796e-02 -1.63812041e-01 +3.60480666e-01 -1.69793755e-01 +2.56808817e-01 +2.25539863e-01 -3.64188582e-01 +4.61128354e-01 +2.83315390e-01 +3.92108232e-01 -1.05173863e-01 +7.56829455e-02 +1.84686184e-01 -2.63998240e-01 -3.96090485e-02 -1.06044993e-01 -3.51657420e-01 -3.77614856e-01 -2.79939920e-01 -2.78694421e-01 -5.27316146e-02 +6.29194438e-01 -7.95576692e-01 -2.45107815e-01 +1.52221337e-01 -1.80885285e-01 +5.31415232e-02 +1.14735514e-01 -5.34033664e-02 +2.30434000e-01 -7.11232051e-02 -1.03659756e-01 +4.45963480e-02 +2.43733287e-01 +3.10786422e-02 -1.29900604e-01 +1.34490341e-01 +2.17099071e-01 +1.55223617e-02 +6.01631738e-02 -3.51979792e-01 +5.09036481e-02 -3.60342674e-03 -1.48721874e-01 -9.85957012e-02 -1.73332348e-01 +1.16752334e-01 +1.12942010e-01 +1.98452044e-02 +3.39901522e-02 +7.16123506e-02 +1.76931098e-02 +9.10993665e-02 -1.56961203e-01 -4.39184979e-02 -3.36733371e-01 -9.92788598e-02 -1.83814555e-01 -3.01362365e-01 -2.28999764e-01 +3.19712907e-01 -5.08758307e-01 +1.24902762e-01 +2.71437138e-01 -3.78557771e-01 -5.41352808e-01 -2.83563942e-01 -3.27353746e-01 -3.34579855e-01 -2.83770915e-02 +2.91268211e-02 -3.96412045e-01 +3.01732153e-01 +1.68691352e-02 -2.68234551e-01 +3.77491340e-02 +2.58581311e-01 -3.53413038e-02 -3.18572849e-01 +3.43390554e-01 +3.39530587e-01 -3.94319743e-01 -4.16367948e-02 -3.09271097e-01 -1.18525900e-01 -2.81083286e-01 -8.86488184e-02 -4.44840521e-01 +2.39539146e-01 +1.75440565e-01 +7.88627744e-01 +4.96684939e-01 -1.86550081e-01 -7.26709366e-01 -3.18298817e-01 -4.27092053e-02 -3.79214793e-01 +4.08461213e-01 -2.41950855e-01 +2.26539567e-01 +3.07583869e-01 +3.88010852e-02 +3.51990402e-01 -1.63955778e-01 +7.60277569e-01 -3.43629181e-01 -1.25731826e-01 -4.97842789e-01 +2.54060179e-01 +5.03791273e-02 +7.39983618e-02 -4.36095409e-02 -3.25963408e-01 -1.73673972e-01 -1.52643993e-01 +2.04674214e-01 +2.59061724e-01 -5.71025610e-01 -2.95311183e-01 -3.08812678e-01 +2.91214824e-01 +3.02583929e-02 +5.84762730e-03 +2.86127806e-01 +7.05723837e-02 +6.70960024e-02 -9.16474387e-02 +3.24233681e-01 +5.71848452e-01 +9.86523926e-02 -2.78823137e-01 -2.42729053e-01 -4.94983405e-01 +1.65350601e-01 -8.64517093e-02 +3.34972799e-01 -6.48092404e-02 -8.95718634e-02 +6.37340844e-01 +9.95131508e-02 +4.43299532e-01 -1.45391896e-01 -7.34157860e-02 +2.07454547e-01 -2.28970945e-01 -1.37469977e-01 +1.23873144e-01 -3.74731600e-01 +7.31704116e-01 -5.38957655e-01 -4.44975980e-02 +2.60650486e-01 -1.51427522e-01 +3.55181068e-01 -3.42542857e-01 -4.42499548e-01 +6.55867979e-02 -3.15270200e-02 