#Parameter# /vanilla-lstm-builder/_0 {128,64} 131073 ZERO_GRAD
+2.38121420e-01 +1.94164842e-01 -1.21575318e-01 -1.66302189e-01 -8.37379321e-02 -5.08972883e-01 -5.70640564e-02 -5.15575528e-01 +9.13046673e-02 +2.22249210e-01 +1.76076546e-01 -1.41264945e-02 -3.84482890e-02 -2.03492902e-02 -1.03863172e-01 -4.70743895e-01 -1.96355775e-01 -3.50073017e-02 +1.17701180e-01 -2.05730751e-01 -2.31098086e-01 +7.31156692e-02 +1.00990869e-01 -1.62407547e-01 -1.71057984e-01 +1.86584573e-02 -1.91721931e-01 +5.70463389e-03 +1.45987868e-01 +7.11046457e-02 -3.29774201e-01 -3.67097586e-01 -1.87499851e-01 -5.03515780e-01 +2.94588774e-01 -4.00658995e-01 -1.21415518e-01 +5.72895646e-01 -3.23263258e-01 -5.12792133e-02 +3.47042382e-01 -1.31592527e-01 -7.03803360e-01 +3.90965976e-02 +2.64912695e-01 -1.70142069e-01 +1.09360993e+00 +2.01484933e-02 -4.30008233e-01 -6.05897248e-01 -2.17718691e-01 +1.55456038e-02 +7.82510757e-01 +2.74410665e-01 +1.17271438e-01 -5.85227370e-01 +2.27599233e-01 -1.64141804e-01 +2.72908360e-01 +1.82040691e-01 +1.41169161e-01 +1.99882030e-01 -6.57617720e-03 +4.93177444e-01 -2.64069885e-01 -8.53652358e-01 +6.01560809e-02 -2.02065647e-01 +1.46112844e-01 -2.48663157e-01 -7.72854865e-01 -2.28999689e-01 -1.16481495e+00 -5.92425764e-01 -7.03706741e-01 +4.80985045e-02 -8.47041368e-01 -7.69350588e-01 +3.75940472e-01 +7.15040788e-02 -4.06347305e-01 +1.95827916e-01 +3.35098267e-01 +4.49733198e-01 -1.53220102e-01 +6.21937513e-01 +3.52934629e-01 +5.17031789e-01 +2.57321328e-01 +7.40947500e-02 -6.49670601e-01 +1.53056398e-01 +6.56793714e-01 +5.73758148e-02 -1.13624346e+00 -2.43638963e-01 -3.08060497e-01 +1.43610284e-01 -5.01084514e-02 +2.87711263e-01 -2.69222289e-01 -4.82760146e-02 -1.04057007e-01 +5.97675703e-02 +8.92348140e-02 -4.30350937e-02 +2.47633338e-01 -9.06434506e-02 +5.66042885e-02 -1.82640955e-01 +2.81253029e-02 -1.13547891e-01 +4.12814645e-03 +2.84144998e-01 +3.31977785e-01 +6.28086105e-02 +8.05111825e-02 -5.46456799e-02 +9.09146667e-02 +5.03543951e-02 +5.77153228e-02 +3.52276742e-01 +4.44426760e-02 +2.71906525e-01 +1.89485118e-01 -1.20259367e-01 -1.17986105e-01 -3.29130478e-02 +2.46890962e-01 +4.18609418e-02 +6.01879843e-02 +7.51017034e-02 -2.50005424e-01 +3.94387484e-01 -5.82837701e-01 +4.89994317e-01 -6.10586852e-02 +2.67311722e-01 +1.66178159e-02 -3.11032027e-01 +2.33753592e-01 -1.09008014e-01 +2.19971120e-01 -4.34656799e-01 -1.30057141e-01 +1.16314739e-01 +8.25992078e-02 +1.65508509e-01 +1.15736745e-01 +7.59454146e-02 +5.32649279e-01 +3.12659979e-01 -1.48977175e-01 -2.87753552e-01 -5.73751610e-03 +6.47317648e-01 -3.19629103e-01 +4.80758399e-01 +1.94751427e-01 +7.64274970e-02 -5.64769208e-02 +4.68701005e-01 +4.97357875e-01 -1.53740808e-01 -5.95560253e-01 +1.42756598e-02 +9.89841998e-01 +6.70992136e-02 +3.53954554e-01 +1.46937063e-02 -1.52331851e-02 +6.08263731e-01 +4.17403400e-01 +6.90600932e-01 +4.61967379e-01 -8.86447057e-02 +6.18910551e-01 -4.32345510e-01 +1.75439492e-01 -3.84703100e-01 -1.98604792e-01 +5.87311722e-02 -2.08957985e-01 +4.67654943e-01 +6.35789037e-01 -1.21187381e-01 -2.19527408e-01 -4.59940076e-01 +5.28805614e-01 +1.65611908e-01 -3.67515475e-01 +2.43874878e-01 +2.54990041e-01 -5.50540388e-01 -7.74999678e-01 -4.54914421e-01 +8.00172612e-02 -1.44013360e-01 +4.18914855e-01 +7.81841755e-01 -4.05376643e-01 +5.39235398e-03 +7.45339841e-02 +3.08778346e-01 -3.46415758e-01 -1.60905674e-01 +3.95880222e-01 -1.89591870e-02 +3.84176016e-01 -2.06110746e-01 -8.48717868e-01 +4.41960633e-01 +1.62419036e-01 +5.25457621e-01 +1.55419871e-01 +2.91353762e-01 +4.85382795e-01 +5.47104031e-02 +4.84362006e-01 +6.17724955e-01 +1.38248578e-01 +3.05997014e-01 +1.22735783e-01 +4.47896942e-02 +3.26441713e-02 -3.92978191e-02 +6.29184395e-02 +3.86918113e-02 +2.09402174e-01 +4.53841567e-01 -1.45389307e-02 +9.05537456e-02 +3.65132652e-02 -2.00634658e-01 +5.65987706e-01 +7.92160481e-02 -6.78499639e-02 +9.25631151e-02 -1.30279250e-02 -1.14306323e-01 +2.94681601e-02 +1.64860293e-01 -2.82445140e-02 -4.58094105e-02 -2.25836672e-02 +6.84695765e-02 -3.85319412e-01 -9.34810471e-03 +4.88887280e-01 -1.89428881e-01 +3.60487923e-02 -1.11147992e-01 -3.31746250e-01 -1.70838386e-01 +1.26740187e-01 +2.91620474e-02 -2.04345629e-01 -4.51440811e-01 -5.28488532e-02 +3.34591389e-01 -4.10654880e-02 +2.77574480e-01 -6.08449914e-02 +6.23429492e-02 -2.76428431e-01 -3.69246989e-01 -3.23158473e-01 -1.48053914e-01 -9.01901573e-02 +2.90069133e-02 -5.43500543e-01 -1.25563473e-01 +1.13825575e-01 -2.22978994e-01 +2.91543454e-01 -2.21713901e-01 -3.10855210e-01 +3.57252546e-02 +8.35635886e-02 -2.15612218e-01 -2.68331558e-01 +2.01265112e-01 -1.34655565e-01 -4.11093831e-02 +2.39752695e-01 -1.13663077e+00 +1.29608242e-02 -1.05216436e-01 +7.14940503e-02 +6.54938638e-01 -5.24931371e-01 +3.78779233e-01 +3.29985470e-01 +1.96894810e-01 -6.62109375e-01 +8.90208185e-02 +1.45171568e-01 -2.53700078e-01 -4.19772655e-01 -2.11836547e-01 +5.01413941e-01 -6.02367938e-01 -5.61955631e-01 -9.69976932e-02 -5.19029677e-01 +3.74638177e-02 -5.08243218e-03 +9.03946012e-02 +2.65648007e-01 -3.88500005e-01 -5.42813241e-01 +1.58088669e-01 -5.55354655e-01 +8.93838480e-02 +6.09625757e-01 +3.32601875e-01 -2.72292584e-01 +1.04542382e-01 +2.89406806e-01 +1.13872699e-02 -2.91460250e-02 +4.74239707e-01 +9.70228136e-01 +6.31822705e-01 +6.75249696e-01 +1.78166375e-01 -7.75194466e-02 +1.40474871e-01 +4.27724943e-02 +6.78521931e-01 +6.22901171e-02 +8.75619352e-01 +4.42159325e-01 -3.63558948e-01 -5.70341647e-01 +2.80475706e-01 +4.23763424e-01 +1.93085581e-01 +1.04229905e-01 -2.03311116e-01 -1.00396061e+00 +1.24500766e-01 -3.46680507e-02 -8.87608454e-02 -3.68685842e-01 +4.40401316e-01 +1.99119478e-01 -4.52549279e-01 +7.90969357e-02 +1.25490159e-01 -1.43734530e-01 +4.08957332e-01 +2.98254609e-01 -1.31418869e-01 -1.05752662e-01 -9.00599584e-02 -2.76672810e-01 -1.12470202e-01 +1.16326705e-01 +1.06700957e-01 +1.40944660e-01 -8.65175040e-04 -2.25896999e-01 -3.80792588e-01 -2.18388066e-01 -1.34255856e-01 +7.12695345e-02 -9.08486769e-02 +2.63580792e-02 -3.87370884e-02 -1.73628062e-03 +5.19659892e-02 +2.68217623e-01 +9.67193395e-02 +1.32099167e-01 +3.14163864e-01 -4.52788949e-01 +7.08782449e-02 +3.06948543e-01 +1.38535991e-01 +1.12778872e-01 -2.37227261e-01 -6.52530268e-02 +2.67366290e-01 +3.20238352e-01 +4.63290989e-01 +7.72794592e-04 -1.84431806e-01 -1.97604775e-01 +2.32981369e-02 -1.46596164e-01 -1.44501105e-01 +8.40294138e-02 +6.27365634e-02 +2.64926225e-01 -5.23968339e-01 -1.32281303e-01 +1.99366480e-01 -6.42762631e-02 -4.78586048e-01 -5.86094618e-01 +5.15264630e-01 -1.96488127e-02 +1.12667307e-01 +4.21205878e-01 +7.38675714e-01 +2.65091479e-01 +5.44099331e-01 -6.34967238e-02 -4.65586364e-01 -2.39681881e-02 -1.86984330e-01 -4.14723307e-01 +3.73455614e-01 -5.81755519e-01 +4.27147467e-03 -4.03988123e-01 +2.54841983e-01 +1.95772395e-01 +6.68009445e-02 -6.21024072e-01 +9.70709175e-02 +6.24073863e-01 -1.27037182e-01 +1.70905963e-01 -5.26302040e-01 -5.84783480e-02 -2.16852844e-01 +7.80373141e-02 +1.93020016e-01 +2.71506757e-01 -1.90817416e-01 -2.28437960e-01 -5.35844088e-01 -2.99902558e-01 +4.64798696e-02 -9.90266576e-02 +1.78223759e-01 +4.57008272e-01 -5.12510121e-01 +5.06861329e-01 -7.96626747e-01 +3.37425232e-01 -6.59204125e-01 +4.01143357e-02 -2.23916471e-01 -9.45707634e-02 +3.90975982e-01 +9.88222063e-02 -5.07412195e-01 -4.69049960e-01 +6.62887394e-02 -9.79022831e-02 -3.31217796e-01 -3.67091030e-01 -8.22234973e-02 -2.49279693e-01 -1.21404484e-01 -1.66571662e-01 +1.91711947e-01 -2.63266921e-01 -1.27838111e+00 +3.07567686e-01 +1.30705729e-01 +2.52062976e-01 +1.91776887e-01 +3.04423541e-01 +1.18606105e-01 -1.67699262e-01 +2.24495754e-01 +5.53459644e-01 +2.33931765e-01 +8.51951003e-01 -2.51213878e-01 +4.79660928e-03 +6.92762136e-02 -7.53120556e-02 +2.48480618e-01 -6.64273202e-01 -1.80043191e-01 -4.18288559e-01 -5.37278578e-02 -3.55917439e-02 +1.70172751e-01 +2.56650802e-02 +1.01455681e-01 -9.37024429e-02 +1.29147932e-01 +5.07183075e-02 -1.65031612e-01 +2.33455762e-01 -1.75430655e-01 +3.66505906e-02 +1.95513591e-02 +1.86418578e-01 -1.75903812e-01 +2.11910605e-01 +1.46064639e-01 +2.28790194e-01 +1.63354024e-01 +8.99225101e-02 -4.58271503e-02 -6.11733703e-04 -2.33297765e-01 -8.56533572e-02 +5.22239432e-02 +2.31903955e-01 +2.16951907e-01 +1.86989993e-01 -1.50095224e-01 -4.64222431e-02 -1.14786796e-01 +1.19963445e-01 +1.04462998e-02 +2.81717747e-01 +3.43901962e-01 -4.81681153e-02 +9.56898332e-02 -4.95864391e-01 +8.97830009e-01 +1.13483943e-01 +1.35552883e-01 -1.37579888e-01 +4.35042717e-02 -6.28848672e-02 +1.07332632e-01 +3.34062606e-01 +6.88185215e-01 +2.08184704e-01 +2.27824301e-01 +8.54678527e-02 +1.34895056e-01 -2.69755930e-01 -4.37122971e-01 -2.15574309e-01 +9.91039872e-02 +4.67341036e-01 -1.39054969e-01 -1.44333437e-01 +5.48407584e-02 +2.01026365e-01 -3.73251885e-01 +4.71603662e-01 -1.37524307e-02 +1.18901238e-01 -4.40697782e-02 -1.27038643e-01 +2.21804708e-01 -3.30067664e-01 -3.77312094e-01 +1.21078938e-01 +2.18399376e-01 -4.72979397e-01 +1.29702076e-01 +3.63703966e-01 +8.39623332e-01 +2.03447267e-02 +4.56716180e-01 -1.85856789e-01 +6.33397639e-01 +1.11820683e-01 +1.08823329e-01 -1.80190116e-01 -9.86788496e-02 -3.77715766e-01 -3.99149656e-01 -4.06058997e-01 +1.26277411e+00 +2.94420153e-01 +3.17771047e-01 -1.29396594e+00 +8.35117280e-01 +2.19631210e-01 +2.56920546e-01 -5.88391185e-01 +3.79402369e-01 -3.06086466e-02 +4.86780435e-01 -2.54091203e-01 -7.81625450e-01 -3.62824023e-01 +2.87277073e-01 +4.03478235e-01 +2.53228378e-02 -5.85161150e-02 +8.71076994e-03 +4.21135873e-01 +3.43534172e-01 +1.63416341e-01 +1.01120353e+00 +5.31768128e-02 -5.83086669e-01 -1.48677558e-01 -3.91858444e-02 -6.73183203e-01 -1.19737729e-01 +6.45094097e-01 -4.42437947e-01 -1.00522339e-01 -8.50705728e-02 -8.28676641e-01 +2.42758170e-01 -1.30226836e-01 +8.10803398e-02 +1.72970369e-01 -4.60763395e-01 +3.25497955e-01 +2.76148349e-01 +1.64424792e-01 +2.69988447e-01 +1.26099423e-01 +5.21408394e-02 +1.79146290e-01 +2.15198919e-01 -5.94213940e-02 +1.31987870e-01 +5.52448779e-02 +1.65948570e-02 +1.25644937e-01 +5.41194022e-01 +2.61853710e-02 +6.08474389e-02 +5.65838106e-02 -1.20263465e-01 -2.09698215e-01 +2.20261976e-01 -4.65566576e-01 -6.88335523e-02 -9.44472104e-02 -6.07123831e-04 +6.53400719e-02 -3.07168625e-02 +2.10572794e-01 -3.81509721e-01 +4.49844450e-02 -2.34529793e-01 -3.28795850e-01 -9.20570567e-02 +4.54638004e-01 +2.18300223e-01 -1.31734997e-01 -3.80559713e-02 +8.40643123e-02 -1.88175485e-01 +2.26238873e-02 -4.79032338e-01 +2.77986228e-01 -4.43637937e-01 -1.44894540e-01 +1.89774558e-02 -4.91495356e-02 -2.31392995e-01 +2.46994104e-02 +3.58047128e-01 +4.55659330e-01 +2.76412845e-01 +5.83088219e-01 +2.20320374e-03 +8.40847939e-02 +4.59556967e-01 -4.61454451e-01 -1.83443025e-01 -1.17861189e-01 +8.06478709e-02 +5.92819393e-01 +2.35538214e-01 +2.02092186e-01 +3.96440476e-01 +1.95175260e-01 +4.85595047e-01 -1.00151740e-01 -2.00863376e-01 +1.11415453e-01 +1.79788232e-01 +1.67871833e-01 +2.79461324e-01 -2.76316553e-01 +4.66603115e-02 +1.43785030e-01 +1.62228853e-01 -4.97860223e-01 -4.38772053e-01 +3.07210118e-01 +5.48517764e-01 -5.84671319e-01 +3.67640257e-02 -1.62926602e+00 -7.05519244e-02 -1.15113966e-01 +9.33939889e-02 -6.99851274e-01 -4.63618860e-02 +7.14817410e-03 -7.51572847e-02 +2.10742503e-01 -4.36240155e-03 -7.26215899e-01 +1.26676619e-01 -1.63013530e+00 +2.50462443e-01 +9.33128238e-01 -3.61312985e-01 -1.07067317e-01 +1.51993915e-01 -8.10925066e-02 +2.65015095e-01 -3.23141851e-02 -3.28811824e-01 -9.69062150e-01 +3.15369815e-01 +2.36342326e-02 -1.43643737e-01 +3.95405740e-02 -1.54715508e-01 -1.92150660e-02 -1.06463082e-01 +3.08035165e-01 +1.03267527e+00 +8.31560697e-03 -2.45588288e-01 -6.28200710e-01 +3.16407919e-01 +2.15406612e-01 +2.09274873e-01 +5.26236117e-01 -2.47530073e-01 +6.00446939e-01 -1.92161709e-01 -5.28048038e-01 -4.11422163e-01 -4.77725774e-01 +2.28392389e-02 -6.44072711e-01 -3.72367799e-01 +1.30898535e-01 +2.99630940e-01 +4.19520676e-01 +1.58862770e-01 +1.38527840e-01 +8.15921202e-02 +2.41534516e-01 +6.90714046e-02 +1.77492071e-02 -3.67702954e-02 +1.02734439e-01 +4.13004346e-02 -6.06327411e-03 +2.16338336e-01 +2.16889102e-02 -1.11657105e-01 +1.27167231e-03 +1.10829987e-01 +1.13242678e-01 -1.34167865e-01 -1.43680602e-01 +3.72910276e-02 -1.23418584e-01 -2.33707335e-02 +2.17754677e-01 -1.47083700e-01 +1.66957855e-01 +2.44885609e-01 +9.35401544e-02 +6.62001073e-02 -1.99889958e-01 -7.50444606e-02 -6.77969754e-02 -2.26948872e-01 +3.90782148e-01 +5.06435568e-03 +1.48749858e-01 +3.11292887e-01 +1.12639241e-01 +7.76184618e-01 -8.05533111e-01 +2.50186697e-02 -3.81234914e-01 -2.87139803e-01 +1.07993267e-01 -1.29117638e-01 +7.70131126e-02 -7.93009773e-02 -9.61746216e-01 +1.83263168e-01 +1.09731577e-01 +2.89738271e-02 -4.70798742e-03 +1.48927812e-02 +2.04993621e-01 +1.80648491e-01 +1.13146983e-01 -4.85602558e-01 -4.96766210e-01 -1.06145218e-01 -3.14243704e-01 -1.85414001e-01 -2.46053621e-01 +4.89423797e-03 +2.67748207e-01 -3.09133083e-01 -4.19488668e-01 +4.80151884e-02 -3.04579556e-01 -1.22236632e-01 +2.30079561e-01 +2.39722967e-01 +1.17786787e-01 -2.88950920e-01 -1.68982983e-01 -3.34131062e-01 -6.58299252e-02 +4.35545623e-01 +1.16386914e+00 -2.43899282e-02 +7.91627645e-01 +2.13945374e-01 -3.32460374e-01 -4.06211913e-01 +1.19188223e-02 -5.35403609e-01 -1.55219227e-01 +1.52935088e-01 -1.62384346e-01 +4.65983778e-01 -3.87041122e-01 -3.38216200e-02 +1.05607140e+00 -5.29785454e-01 -3.02587710e-02 +4.75166410e-01 -2.05910206e-01 +2.33169645e-01 -3.06501649e-02 +3.65548693e-02 -3.67853075e-01 -1.92493901e-01 -2.24264979e-01 -2.57939637e-01 +4.55444008e-01 +2.60477960e-01 -4.84629363e-01 +1.03107229e-01 +3.29691381e-03 +3.07080019e-02 -1.91671163e-01 -4.10206914e-01 -2.58537829e-01 -5.19848131e-02 -4.03032787e-02 -2.36573443e-01 -6.12269163e-01 -7.28402138e-01 -1.75232992e-01 +1.81211740e-01 -2.43575364e-01 +1.62810996e-01 -1.03622869e-01 -6.13456741e-02 +2.30345070e-01 -3.08284223e-01 +1.93163395e-01 +4.10578132e-01 -4.02599387e-02 -2.29237918e-02 -1.91260919e-01 -1.40850469e-01 -3.15032482e-01 +7.28418007e-02 -1.98117364e-02 -1.20602600e-01 +1.05851121e-01 +8.56340155e-02 +1.40540481e-01 -1.18761525e-01 +1.62900344e-01 -4.67769150e-03 -2.10022062e-01 -1.04382737e-02 -1.17552593e-01 -9.51421857e-02 -3.85145187e-01 +2.76310742e-01 +5.33526987e-02 -5.03280014e-02 +2.45999228e-02 +4.62537967e-02 -7.35334456e-02 -9.92177799e-02 +1.13519363e-01 +1.10809781e-01 +6.86229765e-02 -1.23143457e-01 -2.52097696e-01 +1.04958661e-01 +2.31039509e-01 +4.14303958e-01 +6.33543506e-02 -3.32777202e-01 -3.22933823e-01 +3.88923734e-02 -1.43326730e-01 -2.03722790e-01 -2.44750768e-01 -6.60566613e-02 +1.70761883e-01 +1.72826946e-01 +7.07750618e-02 +9.99273658e-02 -2.46560015e-02 +1.30186811e-01 -4.69539970e-01 +2.69124597e-01 -1.05463542e-01 +1.36787146e-01 +1.48357168e-01 -6.76072240e-01 -3.94695729e-01 +2.47312710e-01 -4.02258903e-01 -2.68984437e-01 -9.56834778e-02 +6.49410188e-02 -6.39210343e-01 -1.97060388e-02 +2.54860938e-01 -3.58629555e-01 -5.84495775e-02 -4.64029945e-02 +4.15771678e-02 -5.76168336e-02 -2.20621228e-01 -1.74650520e-01 +1.30370468e-01 +2.89703727e-01 -6.20183825e-01 -9.17351246e-02 +1.74358502e-01 -7.66999200e-02 -7.11259961e-01 +2.58679092e-02 +4.72265571e-01 -1.13145635e-01 +7.32691348e-01 -3.49507809e-01 -4.79404986e-01 -1.91769749e-02 +2.96475757e-02 +5.87481141e-01 -9.26970467e-02 -6.86596274e-01 -3.47344935e-01 -3.62563252e-01 +7.14323148e-02 -2.37995163e-01 +9.63665470e-02 +1.13734019e+00 -2.78036654e-01 +2.06515938e-02 -3.33495319e-01 +2.37713918e-01 +1.69312209e-02 -4.79945898e-01 +2.01354846e-01 -2.49597147e-01 +2.53248155e-01 -3.17458570e-01 -2.13086769e-01 -3.92873794e-01 -5.06081045e-01 +1.03449196e-01 +1.61852241e-01 +4.20605332e-01 -6.74966812e-01 -2.01285318e-01 +3.25702459e-01 +1.97416067e-01 +5.84579110e-02 +1.70691963e-02 +2.47141607e-02 +4.86224815e-02 -5.59941113e-01 -1.30747199e-01 -2.69474596e-01 +1.25599444e-01 -8.53643119e-02 +5.44162869e-01 -3.94109599e-02 +7.35577643e-02 +3.94230127e-01 +1.10993586e-01 -3.54123890e-01 -1.18858114e-01 +1.07557168e-02 +2.27962155e-02 -1.11417491e-02 +6.46575466e-02 -3.16748433e-02 -1.02901459e-01 -1.51252365e-02 +4.00186796e-03 +1.31834894e-01 +7.02098012e-02 -1.49453297e-01 -3.81328523e-01 +4.51353826e-02 -2.20910087e-01 -1.39122248e-01 -9.84136835e-02 +2.62101181e-02 +3.82119685e-01 +1.83845699e-01 -1.67859659e-01 +1.42768016e-02 +1.20895691e-01 +3.49817835e-02 +3.69211733e-01 -4.92560923e-01 +1.44191170e-02 -3.07291485e-02 +1.23594187e-01 +3.26453716e-01 -6.61696568e-02 +4.89384867e-02 +1.22023188e-01 -1.07331127e-01 +1.86346978e-01 +3.78962934e-01 -2.03317031e-01 +2.15711251e-01 -2.27695674e-01 -3.72540861e-01 -2.85693675e-01 +2.52945393e-01 +6.42403960e-02 -3.33697200e-01 +1.47617757e+00 -1.49948806e-01 +2.75895953e-01 -2.02720053e-02 -9.22180340e-03 +1.26026303e-01 -9.25961360e-02 +9.66364592e-02 +3.01838368e-01 -7.32920647e-01 +8.52882490e-02 -1.71720192e-01 -3.28404419e-02 -2.03136355e-01 +2.39828527e-02 -2.68954664e-01 -1.17945783e-01 +2.44790256e-01 +1.90291762e-01 +1.48145273e-01 -8.19417685e-02 +2.31969267e-01 -5.70359491e-02 -2.22375348e-01 +1.20524436e-01 +4.73195314e-01 +6.72896672e-03 +9.54273790e-02 +3.36307287e-01 -1.49149191e+00 +1.81055829e-01 -1.20776132e-01 +3.67046267e-01 +3.36316884e-01 +7.61194646e-01 +5.61505966e-02 +4.76212144e-01 -4.12118524e-01 +2.47629762e-01 -2.90741593e-01 +8.11536670e-01 +5.86523473e-01 -1.81808203e-01 +1.60551950e-01 +1.53571501e-01 +3.50082815e-01 +4.55226541e-01 -1.04313529e+00 +5.17001212e-01 -6.96078837e-02 +7.15487897e-02 -2.17384756e-01 +1.85935482e-01 +1.17549084e-01 -5.45848548e-01 +4.52904880e-01 +3.17885578e-01 +5.20026535e-02 +3.25975507e-01 -5.56499898e-01 -1.34041518e-01 -2.44906127e-01 +3.26453954e-01 -2.79558897e-01 +1.18036769e-01 -2.48922542e-01 -4.99509946e-02 +1.81265295e-01 -1.98754892e-01 -4.65202332e-01 +2.65999436e-01 +2.02139720e-01 +7.22718775e-01 +5.61865643e-02 +1.46223128e-01 +2.09443316e-01 -3.96930091e-02 -3.07562560e-01 +4.56369258e-02 -7.93111444e-01 +4.30360794e-01 +4.34675246e-01 +1.78684175e-01 -1.00763906e-02 +8.42616916e-01 -1.33433133e-01 +1.95968360e-01 -2.02002153e-02 +2.40836501e-01 -1.25632044e-02 -1.40975103e-01 +6.73153112e-03 -2.35141173e-01 +1.61226392e-01 -3.06447893e-01 -9.45693776e-02 +8.51976722e-02 +2.73092926e-01 -2.98571348e-01 -2.54966378e-01 -1.49631694e-01 +8.57703015e-02 -1.22672521e-01 +1.07025892e-01 +2.53145415e-02 -5.64283580e-02 -1.51422322e-02 -4.85348366e-02 -1.03073902e-01 +8.85524005e-02 +4.81388122e-02 -3.37213308e-01 -2.18014389e-01 +8.55233595e-02 +1.41041309e-01 +1.01270236e-01 +4.67605181e-02 -2.59589672e-01 -4.44609642e-01 +1.73359454e-01 -3.87174226e-02 +1.67519122e-01 +3.90049815e-01 -9.25791115e-02 +5.33718765e-01 +3.82950157e-02 -1.53075248e-01 -2.99774408e-01 +3.47257286e-01 -1.35318309e-01 -1.63742349e-01 +7.52623141e-01 -2.09819619e-02 +8.72520208e-02 -4.03420389e-01 -2.49861971e-01 +2.24802092e-01 +8.42592120e-01 +2.49763876e-02 -4.28018533e-02 +2.32920885e-01 -2.76070051e-02 -7.90445060e-02 +1.62242036e-02 -2.15237305e-01 +8.46245810e-02 -1.10152178e-01 +1.21781327e-01 +9.20855254e-02 +3.36240411e-01 +4.32592869e-01 -3.65723133e-01 -3.42264861e-01 +1.80810809e-01 -8.83757532e-01 +9.75776871e-04 +2.11160600e-01 -2.09449962e-01 +9.40872848e-01 +1.11286074e-01 -2.01819614e-01 -4.42356378e-01 +1.28138512e-02 -5.91402590e-01 +2.28813127e-01 +2.88768232e-01 +3.77260923e-01 +6.02460265e-01 -4.09989268e-01 +3.02601427e-01 +5.98988116e-01 +1.09850451e-01 +7.04921305e-01 +8.00603479e-02 +1.25095725e-01 +1.23136036e-01 -4.62641427e-03 +5.27668111e-02 +1.32115930e-01 +1.77964672e-01 -4.98594701e-01 +5.18167317e-01 -2.69606769e-01 -4.24838781e-01 +4.91671592e-01 +6.11380935e-01 -6.10062629e-02 -4.79457714e-02 +3.86627972e-01 +9.54716563e-01 +2.98713714e-01 +1.71781704e-01 +5.95061243e-01 +6.22678176e-03 +5.76998413e-01 -1.92764834e-01 -8.95933658e-02 +5.36902249e-01 +2.63435207e-03 -3.12831223e-01 +3.22848946e-01 -3.03301185e-01 -3.32127929e-01 -3.55336934e-01 -4.08517033e-01 +1.54105157e-01 +6.36107981e-01 +3.29116315e-01 +3.92374098e-01 +4.27105159e-01 +7.59278417e-01 +6.99740887e-01 +2.19142288e-01 +3.10535152e-02 +9.01572853e-02 -3.83059122e-02 -1.85511604e-01 +4.64681014e-02 +5.33347055e-02 +7.12101012e-02 -1.13295995e-01 -1.43546164e-01 -7.20708966e-02 -1.41247466e-01 +7.76103232e-03 +5.36376908e-02 +2.67530322e-01 +4.08772305e-02 +4.22349349e-02 +1.95369646e-02 -5.33718050e-01 -2.41713703e-01 +1.32212639e-01 -2.74819672e-01 +1.04533285e-01 -1.70476422e-01 -3.60300720e-01 +1.66846722e-01 -1.72875822e-01 -7.54949525e-02 -8.58972743e-02 -7.21375793e-02 +1.48422763e-01 +5.98228835e-02 -4.37553152e-02 -1.85446456e-01 +2.12544501e-01 -4.37200278e-01 +3.36552769e-01 -4.76197712e-02 -1.87080756e-01 -3.53830606e-01 +4.38639969e-01 -4.92175408e-02 +4.19742674e-01 -3.06067914e-01 -1.23446370e-02 +4.81720686e-01 +3.45217794e-01 +4.15748879e-02 +4.46653336e-01 +6.48566484e-01 -3.53749633e-01 +3.25503126e-02 +1.14706397e-01 +6.33994877e-01 -1.64035290e-01 +1.45106902e-02 -3.93429935e-01 +8.24952573e-02 +2.71974266e-01 -2.16205806e-01 +5.95160544e-01 +1.01723604e-01 +5.46156652e-02 +1.27137229e-01 -6.56065881e-01 +8.54483321e-02 +2.97919035e-01 -2.44922161e-01 +7.96119794e-02 -2.72709340e-01 -1.37892157e-01 -6.15040064e-01 +3.91552299e-01 -5.60506701e-01 +4.30789851e-02 +1.58296749e-01 +1.23400712e+00 -3.99754405e-01 +2.65928477e-01 -5.90619087e-01 -2.25699142e-01 -2.21656367e-01 +2.08791286e-01 -2.12963641e-01 -1.33980858e+00 +3.64229381e-01 +1.77009121e-01 +8.01329836e-02 +1.61289966e+00 +3.43851894e-01 +2.65612394e-01 -6.60963356e-01 +5.07765591e-01 +3.68488967e-01 +2.16114163e-01 -7.30072916e-01 +2.92191297e-01 +1.62349373e-01 -4.02963609e-01 -4.93776470e-01 -2.80002058e-02 +4.10142392e-01 +4.32973653e-02 +4.30482477e-01 +7.16887653e-01 -6.44740880e-01 -1.15052953e-01 +5.36650643e-02 +4.29966956e-01 -7.69770667e-02 +4.63461727e-02 +3.02550882e-01 +6.18426502e-01 +3.88328671e-01 -2.08774000e-01 -4.58729208e-01 -3.13181520e-01 +2.91284293e-01 +2.58529391e-02 +7.32725114e-02 +6.59418285e-01 +2.16242760e-01 +1.36427319e+00 -8.04628581e-02 +3.29314619e-01 +1.29903066e+00 +5.09536982e-01 -1.12791941e-01 +3.55796844e-01 +5.96892118e-01 +3.63921911e-01 -1.23520888e-01 +3.95518914e-03 +3.58705848e-01 +3.01747888e-01 +5.54649472e-01 +4.92736846e-02 -4.94519062e-03 -2.80263498e-02 +2.91198105e-01 +1.91202447e-01 -2.95264006e-01 +1.11778537e-02 +1.14367768e-01 -2.10022807e-01 -5.75665943e-02 -4.80857976e-02 +6.65302351e-02 -2.46414971e-02 -4.39897701e-02 +4.59064581e-02 +7.01511279e-02 -1.14173852e-01 +4.41502780e-01 +2.43904859e-01 +6.63161576e-02 -7.74856191e-03 -9.17626768e-02 -2.45251842e-02 +2.12691769e-01 -5.57683110e-02 +1.34399652e-01 +5.55596411e-01 -1.13253698e-01 -4.28839549e-02 -8.00013319e-02 +3.35871279e-01 -1.63517222e-01 -2.29026955e-02 -1.54417425e-01 +1.77830562e-01 +1.00172013e-01 -1.76408678e-01 -2.42622033e-01 +1.40194699e-01 -9.05340910e-02 -1.24596901e-01 -1.02695368e-01 +1.51431616e-02 +2.79241353e-01 +3.68632942e-01 -4.87090737e-01 +1.33572862e-01 +2.07129747e-01 +9.17954370e-02 +8.11810195e-02 -2.75104102e-02 +3.56695175e-01 -7.18636364e-02 -4.81353700e-02 -1.63084809e-02 +1.81794897e-01 +3.65242474e-02 -2.46168330e-01 +3.00319999e-01 +5.66371918e-01 +2.79259682e-01 -2.19737276e-01 +3.82982224e-01 +1.64856398e+00 +3.90103795e-02 +2.67507553e-01 -8.92638803e-01 +2.01782241e-01 +3.53540957e-01 +4.12371427e-01 +3.76496226e-01 +3.05655092e-01 -5.90713583e-02 -4.94809270e-01 -3.87160987e-01 -4.92759913e-01 +7.21232951e-01 -1.31325543e-01 -5.11464715e-01 +5.29543996e-01 +3.00483286e-01 -8.14397559e-02 -2.27540255e-01 -1.41448945e-01 -4.47165400e-01 +4.44032922e-02 -1.26116738e-01 +3.11556131e-01 +2.39338636e-01 +9.95160937e-02 +1.07997864e-01 -2.04019919e-01 -1.32179841e-01 -1.26799569e-01 +3.06721628e-01 -2.92764813e-01 +3.38095874e-01 -8.06571901e-01 +1.94958508e-01 -2.74840742e-01 +7.43698835e-01 +1.01822913e-01 -2.98683256e-01 +2.43750781e-01 +1.70251310e-01 +5.23087662e-03 +4.13278490e-02 +3.55723590e-01 -3.07552695e-01 +3.85057986e-01 +8.86725307e-01 +2.61606514e-01 +3.71987462e-01 -9.17495713e-02 -3.16595078e-01 -1.02036774e-01 -5.87332956e-02 -4.07376140e-01 -3.38690609e-01 +1.32118994e-02 +5.36560595e-01 +2.03200877e-01 -1.41969055e-01 -4.14040796e-02 +1.41527802e-01 -4.94172312e-02 +1.09705538e-01 -2.31771046e-04 +1.46324813e-01 +1.15176424e-01 -1.59824103e-01 +2.42435053e-01 +1.23741634e-01 -7.22677708e-02 -7.86765292e-02 +3.93434651e-02 -1.36656582e-01 +1.43281266e-01 +1.08996086e-01 +1.86899662e-01 +1.24241523e-01 +3.01013768e-01 -1.86839566e-01 +8.56303126e-02 +8.94287229e-03 +3.91022563e-01 +1.75751820e-01 +3.90865594e-01 +1.55190200e-01 +1.21340543e-01 -5.19463301e-01 -5.47729693e-02 +5.46036325e-02 +4.01494559e-03 -4.04271573e-01 -6.20459318e-02 -3.01279902e-01 -2.44042818e-02 -1.65057555e-01 +4.47430946e-02 -2.77801186e-01 -3.70054513e-01 -2.01753616e-01 +3.08908314e-01 +1.27001077e-01 -1.39558524e-01 -1.75365120e-01 -1.89428568e-01 +2.42536619e-01 -6.86576813e-02 +2.72767603e-01 +3.42559874e-01 -9.53742787e-02 -3.99235576e-01 -2.57244352e-02 -1.92809299e-01 +1.04417782e-02 +4.17690426e-01 +9.51478705e-02 -1.04645409e-01 -4.33602482e-01 -8.42840001e-02 +6.30130544e-02 -2.23295376e-01 -1.28086731e-02 +6.44076196e-03 -3.78953695e-01 -2.80627936e-01 +6.19754434e-01 +3.13668191e-01 -1.51037797e-01 -3.87495995e-01 -2.00357437e-01 -1.55294016e-01 +1.28560632e-01 -4.13689494e-01 -8.27416122e-01 +4.56200391e-01 -9.23670769e-01 -9.02469978e-02 -3.60486936e-03 +5.23489751e-02 +5.77093549e-02 +7.81538710e-02 -1.39517218e-01 -2.82640681e-02 +3.75340581e-02 +1.11097880e-02 -6.40484333e-01 -9.14039910e-01 +2.94152677e-01 +2.02585161e-01 -2.49340050e-02 +1.62041299e-02 -2.83616692e-01 +2.72678912e-01 -6.40986443e-01 -1.30585372e-01 +5.59517324e-01 +8.76154661e-01 -1.64638132e-01 -5.38877904e-01 -1.01744803e-03 +2.48989284e-01 -6.55219495e-01 +6.14039481e-01 -4.56302129e-02 +5.26468575e-01 -9.99292612e-01 -1.41625226e-01 +2.88016647e-01 -7.39930630e-01 -4.83036190e-01 -5.58218062e-01 +1.02641203e-01 +2.08293214e-01 -1.29186716e-02 -1.14747860e-01 -2.93814451e-01 -7.87038654e-02 -7.70565271e-01 -8.36312294e-01 -2.95362115e-01 -1.32336810e-01 -7.82278180e-01 -3.21338683e-01 -3.87315810e-01 +1.03523977e-01 -9.01970342e-02 -3.15565079e-01 +1.59221049e-02 +7.44508877e-02 -3.57294902e-02 -1.97400585e-01 -8.29693079e-01 -1.58433035e-01 -1.11460343e-01 +1.13024868e-01 +1.52290240e-01 -1.51171774e-01 -1.88475847e-01 +1.53236255e-01 -8.70324001e-02 +2.55967444e-03 +2.50025511e-01 -9.79421660e-02 +2.34069326e-03 -1.29905611e-01 +4.43247594e-02 +1.05803739e-02 -6.33349991e-04 +1.08665593e-01 +5.87722212e-02 -4.60339665e-01 -5.34810051e-02 -3.70084047e-02 +1.50332183e-01 -5.12030348e-02 +1.40655592e-01 -7.48680159e-02 +5.02037928e-02 +2.22988680e-01 +2.57369220e-01 +3.50893103e-02 +1.12156041e-01 -1.60595298e-01 +2.43628427e-01 -4.09615576e-01 +4.50621605e-01 +1.80249438e-01 +7.22277641e-01 +2.39507750e-01 -3.30912396e-02 +2.00330079e-01 -1.41639099e-01 +7.31247663e-02 +3.90640348e-01 -1.34465635e-01 +4.33716953e-01 +2.48304039e-01 +3.55504274e-01 +6.21952593e-01 +4.53208476e-01 -1.81212172e-01 +5.44218659e-01 +1.52371496e-01 -1.51436806e-01 -7.21584831e-04 +5.61329365e-01 -9.46449563e-02 +4.34080213e-01 +2.74108976e-01 +2.85848469e-01 +4.95557562e-02 +3.40842634e-01 +5.41346669e-01 +7.38451898e-01 -6.09761775e-01 -8.36330414e-01 +6.52646542e-01 +4.04798716e-01 -3.59627068e-01 -1.49647728e-01 +9.20498848e-01 +1.22251786e-01 -3.33796144e-02 +3.53970319e-01 +8.51245895e-02 -1.69886246e-01 +5.45928359e-01 -7.16058016e-01 +6.46173239e-01 -1.71671472e-02 +1.24340691e-01 -7.72160962e-02 +1.02302766e+00 +1.12290114e-01 +6.12853110e-01 -1.62539050e-01 -5.39852977e-01 +2.69070297e-01 +5.37408650e-01 -4.53471750e-01 +2.41007190e-02 -1.35919675e-01 +2.38965258e-01 -6.65813386e-01 -2.75401920e-01 -4.56259847e-01 +3.27596456e-01 -1.15860835e-01 +3.29415172e-01 +5.99890709e-01 +8.36500227e-01 -7.57606775e-02 +1.16001856e+00 +4.48234051e-01 +1.29538089e-01 -2.42917851e-01 +6.41330957e-01 +3.80970806e-01 +9.27791297e-01 +2.43221223e-01 -2.38811553e-01 +5.76655209e-01 +5.50902605e-01 +1.09207571e-01 +1.35979563e-01 -4.10783216e-02 +2.94023275e-01 +7.98819840e-01 +3.26637894e-01 +4.69101310e-01 +2.07431912e-01 +1.33365048e-02 -3.19706202e-02 +9.70847309e-02 +2.88381558e-02 +2.30540782e-01 +6.85669109e-02 -5.89809231e-02 +2.09232256e-01 +3.05505693e-01 +2.93175310e-01 +2.09936902e-01 -1.64289862e-01 -7.04947561e-02 +7.71748304e-01 +1.17938735e-01 +2.64705181e-01 +2.23688945e-01 +4.44525123e-01 +3.66633534e-02 +1.46068960e-01 +1.69074655e-01 -8.34770799e-02 +3.26021522e-01 -8.61772969e-02 +5.60076423e-02 +1.79939777e-01 -1.99894816e-01 +2.09074430e-02 -3.16716880e-01 +6.63088858e-02 +5.44990599e-03 +1.13272116e-01 -6.57203346e-02 -1.05026355e-02 -4.11146581e-02 -1.19371049e-01 +1.69097736e-01 -8.78948942e-02 +6.16536856e-01 +6.50433898e-02 +1.99130177e-01 -6.69945359e-01 +6.32552087e-01 -1.26679763e-01 +1.55051485e-01 -2.89252728e-01 -1.07361376e-01 +6.92465752e-02 +2.44323283e-01 -2.01898992e-01 +6.05588078e-01 +4.30863082e-01 -2.44763985e-01 +3.22849214e-01 +4.86587621e-02 -1.75257340e-01 -2.94133723e-01 -2.81363249e-01 -2.60901332e-01 -6.79175481e-02 +1.33409560e-01 -2.43151814e-01 +3.66495311e-01 +2.81416327e-01 -1.81135744e-01 +3.47629249e-01 -2.60188011e-03 -2.00904563e-01 +2.25798544e-02 -5.69861718e-02 +2.86522835e-01 -2.23670453e-01 -1.50213838e-01 -3.71737629e-01 +8.38083215e-03 +2.25878924e-01 -5.74672639e-01 +1.28273591e-01 +1.03784442e+00 -1.02387801e-01 -4.06312943e-01 -3.95452976e-01 -1.64751455e-01 -5.00331283e-01 +8.58172402e-02 +7.60903358e-02 -1.02317166e+00 -1.88344389e-01 -4.66860414e-01 -6.44617856e-01 +9.78795350e-01 -7.13626981e-01 +5.81114650e-01 -6.95866942e-01 +6.20466828e-01 +1.81432605e-01 +9.49793905e-02 -3.01037729e-02 +2.25054976e-02 +1.16575629e-01 +1.05639078e-01 +8.19341540e-02 -1.55932695e-01 +3.77601743e-01 +3.33914280e-01 +4.24774677e-01 +7.62083590e-01 -4.12537634e-01 -8.17592163e-03 +4.05558199e-01 +5.72483540e-01 +3.88560444e-01 +9.27233025e-02 -1.75473001e-02 +3.92597735e-01 +5.57346463e-01 -2.06941038e-01 -5.20711720e-01 -6.00260139e-01 +2.39754114e-02 -2.45585337e-01 -8.78872499e-02 +2.84437597e-01 -7.62918055e-01 +1.02811038e+00 +2.96731293e-01 -5.98263621e-01 +5.79068780e-01 +6.72261268e-02 +1.90018758e-01 +4.25261259e-01 +5.45580149e-01 +2.14290231e-01 -4.84448671e-02 -1.44607900e-02 +1.22792192e-01 -4.65251356e-02 +5.62991440e-01 +2.53080815e-01 +1.66904435e-01 -4.46716286e-02 +1.12312824e-01 +9.51745734e-02 -3.07365149e-01 -9.44505781e-02 +1.08823320e-02 -7.40701929e-02 -1.15896255e-01 +2.47283820e-02 +5.94487181e-04 -1.25079274e-01 +9.17362347e-02 +3.70640494e-02 +1.64527953e-01 +2.49753390e-02 +1.67121425e-01 +9.67380181e-02 +9.15148668e-03 +1.04727164e-01 -2.88774490e-01 -4.42455597e-02 +8.14729184e-02 +5.05921245e-01 -2.39472181e-01 -1.85202882e-02 +5.54684877e-01 +8.15740824e-02 -1.71626553e-01 -1.03780426e-01 -4.21178907e-01 -1.37330338e-01 -1.17861591e-01 -1.10665135e-01 -4.84283805e-01 +1.14695594e-01 +1.01414528e-02 +2.05657482e-01 -4.70606685e-02 +1.05790824e-01 +8.96649778e-01 -2.66985685e-01 +1.95664838e-01 +5.31163663e-02 -1.92010269e-01 +1.22290943e-03 -5.54942824e-02 +2.52824686e-02 -1.82527001e-03 -8.62544179e-02 -6.59725666e-01 +4.89585936e-01 +4.15949911e-01 -6.62151814e-01 +1.46169126e-01 -4.09430981e-01 +6.18012786e-01 -1.01940915e-01 -9.30761769e-02 -2.99156923e-02 -1.64252356e-01 +1.79955304e-01 -1.24071395e+00 +2.49749601e-01 -1.32165447e-01 +4.58774388e-01 -4.87286270e-01 +3.94077003e-01 -2.96135813e-01 -1.38886213e-01 -1.16818599e-01 -3.06745112e-01 +1.09568797e-02 +3.32774371e-01 +2.28223115e-01 -3.34461570e-01 -3.82526331e-02 +3.45762700e-01 -2.76354611e-01 +9.33476508e-01 -1.84117198e-01 +1.23682190e-02 -3.67022485e-01 +1.42881382e+00 -1.28867671e-01 +6.33342087e-01 -7.02983618e-01 +8.00172389e-01 -1.66208267e-01 +1.66841090e-01 -7.69882649e-02 -1.64379776e-01 -2.30358303e-01 +1.19293705e-01 -1.39190301e-01 -1.77997947e-01 -5.49962223e-01 -3.54310989e-01 -3.48136693e-01 -8.98834616e-02 +1.66281283e-01 +6.55646980e-01 -1.07525446e-01 -4.10849243e-01 -1.67212263e-01 -5.39680570e-02 -1.04815610e-01 -1.41222879e-01 -1.64305672e-01 -3.79756838e-01 +1.72977373e-01 -9.76354699e-04 -2.14982942e-01 +1.69918895e-01 -2.36419007e-01 +5.01421869e-01 +8.02697539e-01 +1.73709050e-01 -1.62658021e-01 +2.20216796e-01 +3.71759772e-01 +1.17124774e-01 +7.92853907e-02 +4.86473627e-02 -2.37488925e-01 -4.68848534e-02 +6.17693551e-02 +1.03323661e-01 +2.13535711e-01 +2.31861249e-02 -2.56398022e-01 +1.25336453e-01 -6.04619365e-03 -1.84755206e-01 -3.40914503e-02 -2.12112218e-01 -2.73103595e-01 +4.28085141e-02 -1.90318018e-01 -2.09906131e-01 -6.30896762e-02 +4.12336707e-01 -2.23329067e-02 +3.97359245e-02 +1.61817551e-01 +2.54452765e-01 +1.29991084e-01 -1.00150019e-01 -2.18363419e-01 -6.35612756e-02 +1.63943440e-01 +1.47039428e-01 -1.56599194e-01 -1.22204140e-01 -3.73144060e-01 +2.07881957e-01 +4.97876376e-01 -3.07072103e-01 +4.05050814e-01 -2.79957950e-01 +9.56984013e-02 -2.96951205e-01 +2.09978044e-01 +1.00005060e-01 -1.41929105e-01 -1.01463795e-01 +2.71471322e-01 +4.02259678e-02 -7.90462375e-01 +7.91263357e-02 -2.08618760e-01 -9.74591374e-02 +7.65749589e-02 -2.23316133e-01 -5.78360073e-02 -2.52881587e-01 +2.54644305e-01 +3.51610601e-01 +5.77892423e-01 -5.14069736e-01 +1.53839037e-01 +3.00225858e-02 -3.63907367e-01 +9.40172300e-02 -2.06319347e-01 +5.18862367e-01 -2.74768919e-01 -3.84757489e-01 +4.67499524e-01 +1.40375838e-01 -6.91086724e-02 -9.71659303e-01 -5.63058257e-01 -1.46952957e-01 +3.36111695e-01 +1.41207278e-01 -1.05342656e-01 +1.88981071e-02 -5.34164250e-01 +2.92926192e-01 -4.44743782e-01 -1.42615912e-02 -5.43096066e-01 -8.59795138e-02 -2.95796454e-01 -6.25282347e-01 +5.02913818e-02 -4.66456801e-01 +3.81124727e-02 +3.09933990e-01 -8.43433082e-01 -2.81990141e-01 -1.93599671e-01 -1.00870645e+00 +6.20034456e-01 -1.69095591e-01 +2.80837361e-02 -7.31043741e-02 +2.03488186e-01 +1.90031305e-01 +9.44773182e-02 +1.77285776e-01 -3.70395891e-02 -1.14380233e-01 +1.10262156e-01 +4.14530933e-01 -4.32802260e-01 -2.15376735e-01 -5.45019865e-01 +1.65582478e-01 -1.80785134e-01 +3.56214464e-01 +6.61221296e-02 -3.14193964e-02 +7.00677931e-01 -3.67740512e-01 -1.56274468e-01 +2.51830637e-01 -2.70693302e-01 +1.88149616e-01 -5.13258398e-01 +8.87165815e-02 -5.15846968e-01 -9.46321726e-01 +4.54983413e-02 +2.17952982e-01 +2.20509186e-01 +2.39507914e-01 -3.64463925e-01 +1.07804202e-01 -2.58242451e-02 -1.11981757e-01 +9.00888592e-02 -2.00210288e-01 -1.77567646e-01 -2.55043983e-01 -1.39120892e-01 -2.69911606e-02 +1.32445944e-02 -2.01449037e-01 +2.22098525e-03 -5.70277497e-02 -4.67693284e-02 +1.57627255e-01 +2.51611590e-01 +5.71227982e-04 +8.99826139e-02 +1.23433240e-01 -1.11913450e-01 -3.59200180e-01 -9.57538038e-02 +5.80234826e-02 -8.09608847e-02 -2.16112211e-02 -4.72815968e-02 +7.64214993e-02 +5.30669212e-01 +7.68784210e-02 -3.80645186e-01 +9.84840319e-02 -1.80689067e-01 +5.47756925e-02 -8.93034279e-01 +1.42503142e-01 +3.30512561e-02 +4.89552133e-02 -1.54383481e-01 -6.84601486e-01 +5.56797445e-01 +2.04231456e-01 +3.21130641e-02 +1.49565250e-01 +5.04025877e-01 +1.07763134e-01 +2.53869951e-01 +1.10816900e-02 -2.95358837e-01 -2.37714350e-01 +1.14458658e-01 +3.28503270e-03 +2.29148939e-01 +3.08202028e-01 +8.28474164e-02 -4.75215703e-01 -1.51972696e-01 +3.27413827e-01 -4.52465147e-01 +1.46572441e-01 +4.43919413e-02 +1.71562228e-02 -4.09565866e-01 -4.75480892e-02 -1.76787958e-01 -8.61099064e-01 +4.17421907e-01 +9.69334096e-02 -1.72504466e-02 -4.07801382e-02 +7.31169105e-01 -1.84078759e-03 -2.55360425e-01 -9.34669375e-02 -3.45586650e-02 +3.47945869e-01 +2.70892590e-01 -3.42362314e-01 +3.16137135e-01 -1.61839962e-01 -1.31554216e-01 +1.17259108e-01 +4.20053005e-01 -2.93015689e-01 +5.32726049e-01 -9.66334939e-01 +4.59293693e-01 -8.25409144e-02 +3.96403611e-01 +3.08347940e-01 -3.78043324e-01 -4.33314830e-01 -1.34711370e-01 -3.92655164e-01 +1.34220466e-01 -7.49452531e-01 +1.92453697e-01 -9.60021853e-01 -3.95990051e-02 +1.55698776e-01 +9.70945477e-01 -7.34385028e-02 +4.59652126e-01 +3.87048796e-02 +3.02603483e-01 +3.28643084e-01 +9.90347788e-02 -2.79742591e-02 -5.75878859e-01 -1.09064341e+00 +1.88383332e-03 +5.65296650e-01 +3.21784705e-01 -8.53859633e-02 +4.03330505e-01 +2.24327698e-01 +1.32596120e-02 +3.16826433e-01 -3.19007367e-01 +2.78301448e-01 +3.68582487e-01 +6.47120774e-01 +3.92249703e-01 -3.58314127e-01 +3.23223561e-01 +3.72113883e-01 -6.82164282e-02 +9.99135152e-02 -9.81926322e-02 +2.83950120e-02 -8.60629007e-02 -1.28337011e-01 +2.27705628e-01 +6.18931185e-03 +2.68915385e-01 -2.48816624e-01 -2.39507973e-01 +8.74291360e-02 +1.98361844e-01 -1.90164685e-01 +4.45674211e-02 +2.12167755e-01 +1.20919853e-01 +2.18510777e-01 +2.29070723e-01 -1.04125194e-01 +3.47620040e-01 +7.40046939e-03 -5.73696047e-02 -2.20081672e-01 +2.00369313e-01 -2.41495103e-01 -6.02903366e-01 -5.84312715e-03 -3.53276730e-01 -2.07001995e-02 +2.43501931e-01 +2.21402034e-01 -4.17628139e-02 -2.05714464e-01 +1.16657466e-01 -3.65570486e-01 +2.23087102e-01 -3.10463727e-01 -1.21779092e-01 -1.35632798e-01 +2.32674032e-02 -4.00522441e-01 +4.73202728e-02 -9.15932581e-02 +2.88612157e-01 +4.78876904e-02 -4.07730043e-01 -3.83568197e-01 +2.71365717e-02 -2.81650662e-01 -1.87912196e-01 +1.96310073e-01 +2.37011220e-02 +1.59017250e-01 -2.07671911e-01 +3.06746393e-01 -3.45459096e-02 +3.33770812e-01 +6.03127517e-02 -7.46014714e-02 -1.11634605e-01 -1.58249363e-01 +2.09739476e-01 +7.37527087e-02 -2.49340124e-02 -2.18282323e-02 +1.18361935e-01 -5.24209976e-01 -1.32157147e-01 +8.13984692e-01 -1.84615422e-02 -4.66378093e-01 -1.22890718e-01 -2.59200484e-01 +6.29806340e-01 +2.35632703e-01 -6.04603708e-01 -1.81796372e+00 +1.84466481e-01 -5.83692312e-01 +7.59730190e-02 -2.02634305e-01 -4.61316466e-01 +4.65367973e-01 -4.50420588e-01 +7.01529324e-01 +3.95099074e-01 -1.14705890e-01 +3.83076847e-01 -1.48879135e+00 -7.43496120e-01 -3.16601008e-01 +7.24871457e-01 -3.38338882e-01 -2.56174922e-01 -5.37698090e-01 +3.76818359e-01 -5.02211154e-01 +2.37114355e-01 +1.52142465e-01 +1.07027161e+00 +5.54544747e-01 -1.53252006e-01 +2.68240303e-01 -3.82606745e-01 +2.48179585e-01 +7.49056280e-01 +1.22476451e-01 +3.46202224e-01 -4.11972731e-01 -2.13929862e-01 -2.79167712e-01 -4.13522840e-01 -3.44690889e-01 -1.64104879e-01 +7.99940884e-01 +2.06967518e-01 +5.36102235e-01 -4.44766581e-01 +2.65684813e-01 -1.20686442e-01 -5.84167004e-01 -1.38257459e-01 -4.09954637e-01 +7.51322284e-02 -1.02240048e-01 -4.35606033e-01 -3.23603489e-02 -6.43992648e-02 +3.16156000e-01 -2.99724936e-01 -4.66682911e-02 +7.74644464e-02 -5.54597238e-03 -3.05321455e-01 -6.59973681e-01 -7.09218606e-02 +6.05616197e-02 +7.86022097e-02 -2.34423559e-02 -1.19501822e-01 -3.51007462e-01 +3.57516378e-01 +2.12470330e-02 +1.88363642e-01 -8.70360583e-02 -6.46468550e-02 -7.44505227e-03 +1.60378784e-01 +2.52822012e-01 -1.74717814e-01 +4.67317328e-02 -1.01757847e-01 -3.53901118e-01 -1.56928658e-01 -2.50909507e-01 -7.36227930e-02 +3.25740427e-02 +2.70044446e-01 -9.59371552e-02 -2.38855388e-02 +1.08543716e-01 -9.46163610e-02 +1.49247527e-01 -1.02998577e-01 +1.52985990e-01 -9.92646813e-02 -2.91484803e-01 -2.11639807e-01 -1.85557753e-01 +1.93374664e-01 -7.73091838e-02 -8.50802287e-02 -6.01610690e-02 +3.32721293e-01 +4.19632077e-01 +1.10287741e-02 +1.64775684e-01 -2.22074538e-01 +2.49730609e-02 -2.82031983e-01 -4.21553403e-01 -4.42443579e-01 +2.53304005e-01 -1.55370146e-01 +1.75500493e-02 +2.95534045e-01 -1.89662185e-02 +6.43186122e-02 -1.15815818e-01 +7.22395442e-03 +9.78446677e-02 -2.35948876e-01 -1.66405868e-02 -2.60841787e-01 +7.63716996e-02 -5.69591448e-02 +1.09377101e-01 -3.86461228e-01 +1.81770474e-01 -8.84113833e-03 -3.02386191e-02 -2.91935861e-01 -1.19554222e-01 +3.67950536e-02 +9.59303319e-01 +2.84250945e-01 +2.42292613e-01 +7.87227511e-01 +1.92750767e-01 -3.02706331e-01 -2.64257669e-01 -5.17165720e-01 +1.52663493e+00 -9.88785625e-02 -8.86661708e-01 +6.73296392e-01 +3.42027396e-01 +1.30850387e+00 -3.49282414e-01 -2.94988185e-01 +6.89137697e-01 -2.72003949e-01 -2.65808135e-01 -3.94778371e-01 +4.98424619e-01 +1.09729856e-01 -4.67262298e-01 -9.22995508e-02 -7.00760007e-01 -1.76779017e-01 +8.83085355e-02 -4.30523492e-02 -1.20695400e+00 -3.72225106e-01 +5.78226089e-01 -3.92661244e-01 +4.33704883e-01 -9.64127257e-02 -1.03989840e-01 +6.37102962e-01 +1.26004189e-01 -3.05590719e-01 -4.09894958e-02 +1.06354743e-01 +1.20145723e-01 +1.37044355e-01 -2.50673294e-01 +1.98786825e-01 +6.30029082e-01 +3.05967152e-01 +1.04715101e-01 -2.79906064e-01 +1.70943499e-01 -1.86176106e-01 +8.43921900e-02 -1.08358525e-01 -2.55042110e-02 -2.37643477e-02 +2.89784409e-02 +5.39992098e-03 +2.17822492e-01 +4.87266690e-01 +1.45771682e-01 +9.42044146e-03 +3.70690338e-02 +3.16948667e-02 +5.80460094e-02 -8.34229067e-02 +2.36400649e-01 +5.87114729e-02 -2.69653320e-01 -2.33032376e-01 -8.90954062e-02 +7.28185335e-03 +3.03142034e-02 +1.29787743e-01 -7.56339610e-01 +4.77955304e-02 +1.13051273e-01 +3.14008772e-01 +3.19366693e-01 -3.82074863e-01 +7.96189457e-02 -5.43627262e-01 -5.46640605e-02 +7.56380707e-02 +4.68050838e-01 -2.96376999e-02 -5.30123785e-02 -5.27145639e-02 +2.60997862e-01 -2.31227558e-02 -2.47299433e-01 +2.32521787e-01 -7.61334717e-01 +6.39803857e-02 +1.04789503e-01 +9.05232728e-02 +2.65063345e-01 -5.34213074e-02 +8.04280192e-02 -3.22382689e-01 -2.29775570e-02 +7.91378617e-01 +8.99763629e-02 -9.00253479e-04 +1.74707010e-01 -3.90273571e-01 +2.17149317e-01 -4.05031070e-02 -5.57047687e-02 -2.43296012e-01 +3.66928130e-01 +6.62856877e-01 +6.35732040e-02 +5.31893149e-02 +2.27955252e-01 +1.72650754e-01 +8.44981611e-01 -2.04243556e-01 -2.41263017e-01 +1.42805979e-01 +4.42706048e-01 -2.33336270e-01 +3.72615665e-01 -3.33753616e-01 -4.67701763e-01 -7.32937992e-01 +3.07796657e-01 -7.42372274e-02 +5.62935710e-01 +2.60972321e-01 -5.93297817e-02 -1.04700685e+00 +2.09559828e-01 -1.00392652e+00 -4.56529617e-01 +3.14253330e-01 +8.02055299e-02 -3.57176326e-02 +2.02860370e-01 -2.02084556e-01 +5.25673568e-01 +8.68198514e-01 -6.06569529e-01 -1.94979995e-01 +3.57651263e-02 -8.10227454e-01 +5.89830637e-01 +8.15387964e-01 -2.99840420e-01 +1.80375695e-01 -2.63682336e-01 +4.60730553e-01 -3.87862831e-01 -2.02090919e-01 -4.82982546e-02 -3.38227414e-02 -3.54305744e-01 -3.96796525e-01 +1.48357585e-01 +2.30748191e-01 -1.84791178e-01 +1.15841841e-02 +2.29534823e-02 +3.89676653e-02 +4.58323777e-01 +1.65021703e-01 -2.03862950e-01 -1.58411935e-02 +6.99125051e-01 +2.99538136e-01 +9.71693158e-01 +2.84665734e-01 -2.35603094e-01 +2.62143344e-01 -9.21763927e-02 -2.70256430e-01 +3.85486424e-01 -6.76497996e-01 +4.17389870e-01 -1.22402206e-01 -1.21872388e-01 +8.31842050e-02 +1.01975381e-01 -1.16843931e-01 +1.10099399e+00 +2.37047076e-01 +4.98518758e-02 +1.24481559e-01 +5.18408194e-02 -6.76319003e-02 -8.22153613e-02 -8.95709991e-02 +1.16358727e-01 -3.13172713e-02 +1.75203457e-01 +2.20158771e-01 -2.86608655e-02 +1.90657318e-01 +8.93189684e-02 +2.87057310e-01 +1.05494820e-01 -1.84208810e-01 +1.16734192e-01 -4.29599971e-01 +3.40737104e-02 +1.16443839e-02 -4.30505514e-01 +1.68096393e-01 -1.25734114e-05 -9.19712633e-02 +9.18524712e-02 +2.82485306e-01 -8.89989175e-03 +4.40695211e-02 -4.33482349e-01 +5.68061993e-02 +1.14404395e-01 -1.14114404e-01 -1.27046481e-01 -2.79963851e-01 -2.75506407e-01 -4.59454983e-01 +2.99102455e-01 +3.61278981e-01 +2.64332384e-01 -1.10950775e-01 +2.65161753e-01 -1.07842028e-01 +2.90203858e-02 +7.43059516e-02 -1.59745619e-01 +1.70392338e-02 -1.50059331e-02 +1.61152303e-01 -1.25835501e-02 +3.86796534e-01 +3.30710351e-01 -6.46151155e-02 +1.01981747e+00 +2.08644897e-01 -2.60372549e-01 -3.63244444e-01 +1.89465255e-01 -4.48221229e-02 +5.65087616e-01 +1.05915882e-01 +2.24495187e-01 +9.35805440e-02 +4.73186433e-01 +5.50983287e-02 +1.04508626e+00 -3.88861865e-01 -8.56913269e-01 -2.28659838e-01 +4.96559530e-01 +1.36610344e-01 +4.10819024e-01 +5.40738046e-01 -3.29948992e-01 -1.08818352e+00 +6.05094969e-01 -4.05817509e-01 -5.19495666e-01 +6.44562900e-01 +2.18216762e-01 +3.08420122e-01 +2.28141278e-01 +4.33632672e-01 +5.95232189e-01 +8.32625449e-01 -9.54298794e-01 +7.70819485e-01 -2.75591940e-01 -4.95773673e-01 +5.59608519e-01 +4.02861983e-01 -4.92666848e-02 -5.45139313e-01 +1.58910593e-03 +4.36341941e-01 -1.05274248e+00 +1.04421638e-02 +2.08747461e-01 +6.84368610e-01 -1.30725265e-01 -7.33411387e-02 +5.92642605e-01 +3.09042007e-01 -1.75856787e-03 +2.33283982e-01 +9.08517838e-02 -1.87331706e-01 -4.46795039e-02 +1.39393699e+00 +1.65501937e-01 +3.65648955e-01 +1.04807115e+00 +3.77268419e-02 +9.09373701e-01 +1.63186580e-01 +2.06536189e-01 +2.04255298e-01 +3.17164183e-01 +7.69336760e-01 +5.83138943e-01 -2.20247507e-01 +8.46353590e-01 +1.01277578e+00 +3.35810572e-01 -7.98334703e-02 +2.35059738e-01 -8.70233327e-02 +6.36491895e-01 +1.46041915e-01 -6.06876723e-02 +1.09079316e-01 +2.31541142e-01 +3.84576321e-02 +2.55435288e-01 -1.27124071e-01 -2.38050088e-01 +4.62594390e-01 +1.59489840e-01 +3.60180378e-01 +7.70406276e-02 +5.45110524e-01 -1.83375180e-01 +1.66674852e-01 +4.92566153e-02 +5.92591837e-02 +1.42996997e-01 -8.68216008e-02 +3.06039061e-02 -7.18085095e-03 -1.92824826e-01 +9.90744680e-02 -4.39134873e-02 -6.28631487e-02 -6.68466166e-02 +1.25566646e-01 -1.14411280e-01 +1.25004277e-01 +7.26019740e-02 -8.75876397e-02 +2.12413073e-01 -1.51363626e-01 -2.95272321e-01 +1.77869856e-01 -6.34029210e-01 +5.27317047e-01 -7.05758750e-01 +2.88193494e-01 -2.64411181e-01 +6.43836632e-02 -8.90069678e-02 +3.65710288e-01 +8.26792493e-02 +2.61299729e-01 -7.84398317e-02 -1.52817771e-01 -3.21983874e-01 -4.90360886e-01 -4.42207783e-01 -6.74854685e-03 +1.28494352e-01 -1.97442435e-02 -3.86203468e-01 -2.21812367e-01 -7.25244284e-02 -3.19503620e-02 -2.60134131e-01 +6.10101409e-02 +3.26273497e-03 -5.87165534e-01 +2.06679776e-01 -2.79320061e-01 -7.91909873e-01 +2.89276749e-01 +3.23161960e-01 -1.00208588e-01 +3.65075357e-02 -5.68885386e-01 -2.00416356e-01 +1.61689684e-01 +2.31242567e-01 -2.36667961e-01 -2.66336262e-01 -5.14136314e-01 +2.65535057e-01 +1.04470456e+00 -5.46422422e-01 -7.91783810e-01 +8.06323364e-02 +1.84651520e-02 +5.41213870e-01 -2.87440419e-01 -8.24607670e-01 +9.05381501e-01 -2.35142186e-01 +4.24912214e-01 -4.65151191e-01 +5.16368866e-01 +1.09136030e-01 -9.03494298e-01 +1.96986437e-01 -3.06154098e-02 -6.52043754e-03 +1.55225128e-01 +6.91373274e-02 +7.52280056e-02 -7.33937547e-02 -6.72132909e-01 -8.02750587e-02 -3.85467887e-01 -1.43661964e+00 +1.94624677e-01 +3.71254086e-01 -3.18816572e-01 -5.00220358e-01 -5.92593774e-02 -3.73081565e-01 +6.44437075e-02 +5.72079867e-02 -6.14459157e-01 +1.56001493e-01 +9.39413309e-01 -5.61264992e-01 +3.12032159e-02 -7.05025971e-01 +1.92452401e-01 +2.47551411e-01 +1.16026714e-01 -1.86745420e-01 -4.76390898e-01 +9.23140943e-02 -2.75725901e-01 -2.36499906e-02 -3.48397672e-01 -6.64099872e-01 -1.04708575e-01 +1.92829538e-02 +8.45284387e-03 +5.52098155e-02 +7.54375979e-02 +1.47167072e-02 -1.37042969e-01 +1.13215610e-01 +1.46376774e-01 +1.22014552e-01 -4.79390085e-01 -3.63522694e-02 +1.54751316e-02 -5.63819148e-02 -8.40978697e-02 -9.91430692e-03 -2.21484870e-01 -2.59630382e-01 +3.18673760e-01 -1.80412054e-01 -3.86346839e-02 +9.37790051e-02 +9.89512354e-02 -4.04603258e-02 -5.42731822e-01 +3.66516143e-01 -9.55418721e-02 +9.98934954e-02 +4.98680592e-01 +1.88532434e-02 -2.03103840e-01 -1.52633950e-01 -2.28016693e-02 -1.06088527e-01 -3.64758372e-01 -5.03999889e-02 -8.69502798e-02 -1.56915039e-01 +2.19620705e-01 -2.63369322e-01 -9.01621431e-02 -8.86333361e-02 +2.17316329e-01 -2.23941818e-01 +3.16687673e-01 +1.21583410e-01 -4.52931911e-01 -4.34880406e-01 +1.47860616e-01 -2.70899981e-01 -5.24519905e-02 -3.03906590e-01 -3.83466929e-01 -4.22211975e-01 -1.87372476e-01 -7.66129136e-01 -5.39063383e-03 +6.40211850e-02 +1.64732024e-01 +1.13155521e-01 +2.79187441e-01 -2.07984462e-01 -3.97351772e-01 -5.23857474e-01 -3.73315871e-01 -8.78100634e-01 +2.68578231e-01 -1.99248075e-01 +1.64871261e-01 +1.01577175e+00 +8.37810189e-02 -8.02157342e-01 +7.86808193e-01 -5.02328157e-01 -5.98367274e-01 +3.53188999e-02 +8.09214473e-01 -2.68123060e-01 +6.79772258e-01 -1.93379849e-01 -8.94953847e-01 +4.10099551e-02 -2.60158241e-01 +3.39959711e-01 +5.78886092e-01 -5.67362785e-01 -7.13454187e-01 -4.49388862e-01 -2.24354014e-01 -2.34094709e-01 +3.33108604e-01 -1.08008236e-01 -2.94278622e-01 -3.23934078e-01 +3.57157409e-01 +2.79778868e-01 -5.16582668e-01 +1.56601116e-01 +3.94300073e-01 -2.19189629e-01 -5.00958748e-02 +8.49475637e-02 +8.92485157e-02 -5.42613445e-03 -7.88081467e-01 -1.35114929e-02 -5.06129526e-02 -3.40136856e-01 -4.70725268e-01 -7.93370977e-02 -9.44026979e-04 +3.17045361e-01 -6.07281864e-01 -3.61680955e-01 +2.37436682e-01 -4.60383385e-01 +1.69777982e-02 +6.07116222e-01 -9.59842801e-02 +3.99233401e-01 -7.06641972e-02 -3.22780579e-01 -4.51377541e-01 -3.78011376e-01 -9.38780699e-03 -2.94577420e-01 -2.31585324e-01 +2.69231617e-01 +1.08581819e-01 -3.18108648e-01 -1.53094009e-01 +5.82560115e-02 -1.55206800e-01 -1.64798543e-01 -2.22807392e-01 +5.27619347e-02 +5.40408529e-02 +4.43331040e-02 +2.07371086e-01 -1.67039454e-01 -1.34279102e-01 -1.90140799e-01 -1.35913134e-01 -4.12715413e-02 -7.27777407e-02 -1.48876291e-02 +2.78086215e-01 -1.04721077e-01 +3.09895158e-01 -2.75364429e-01 +1.49869239e-02 +2.71037072e-01 -1.31780773e-01 +5.58488786e-01 +1.53603658e-01 +1.81215316e-01 +2.60055542e-01 -1.67936817e-01 -1.31043062e-01 +1.65119037e-01 +2.72912890e-01 -5.19373640e-02 -7.05609424e-03 -4.43969399e-01 +2.46031374e-01 -2.24185705e-01 +2.87458628e-01 -6.41730905e-01 +1.41177341e-01 -4.92748953e-02 +2.36279398e-01 +3.62889580e-02 +3.57568145e-01 -8.12969729e-02 +4.63663667e-01 -2.53603131e-01 -2.24497929e-01 +1.13120876e-01 -4.78267401e-01 -6.47101328e-02 -3.17394882e-01 -2.36856133e-01 -1.29170552e-01 -1.19028367e-01 +2.66978472e-01 -3.25461566e-01 +1.18880138e-01 -4.70826440e-02 -2.90876150e-01 +5.62422156e-01 -2.33285457e-01 -4.03904393e-02 -3.66314054e-01 -4.75139320e-01 +2.85117865e-01 -6.50292099e-01 -1.03903085e-01 +1.89750463e-01 +4.23962504e-01 -2.00986952e-01 -1.13542229e-01 +2.28624821e-01 +9.18314829e-02 +7.42105991e-02 -2.77313709e-01 +3.40936989e-01 -8.24602544e-02 +7.43426159e-02 +3.96879613e-01 +7.51161501e-02 -3.22652072e-01 -2.82202393e-01 +1.85571015e-01 -8.25858116e-02 -3.14491689e-01 -7.40871012e-01 +3.13212633e-01 -1.35526136e-01 -5.01272082e-01 -5.13836145e-01 +2.07634374e-01 +1.47915065e-01 -1.15277559e-01 +2.04661459e-01 -3.62857312e-01 +3.27483006e-02 -4.01373029e-01 -4.78082687e-01 -8.09151351e-01 -3.12450707e-01 -1.30699083e-01 -6.76211596e-01 -1.23819418e-01 -2.14283153e-01 -4.09920722e-01 -1.18345380e+00 -7.08785474e-01 +3.38448197e-01 +2.61105299e-01 -4.49631304e-01 -9.97511327e-01 -2.61453986e-01 -5.79725429e-02 +6.86291933e-01 +6.19594574e-01 -1.96474999e-01 +2.66221642e-01 +9.40383971e-03 +4.54002619e-01 -1.00117290e+00 -5.66634715e-01 -1.69928327e-01 -3.30742508e-01 -1.52721688e-01 -4.19371240e-02 -8.56968939e-01 -5.21017671e-01 +1.93944741e-02 +1.23205595e-01 +1.77453071e-01 +1.39706641e-01 +7.29371384e-02 -2.42293268e-01 -6.96869418e-02 +3.21005918e-02 +6.83405623e-02 +1.75053090e-01 +2.69148141e-01 +2.93882102e-01 -1.22979134e-02 -4.36818480e-01 +5.43479361e-02 -6.43106773e-02 -7.03439265e-02 -1.71878487e-01 -3.91256332e-01 -9.45615992e-02 -7.93265253e-02 -1.92324281e-01 +1.30617097e-01 +1.44813791e-01 +2.39461716e-02 -1.09137647e-01 -8.36234540e-02 -1.50024056e-01 +3.35076869e-01 +1.24600530e-02 -2.08800450e-01 -2.86791660e-02 -1.63338706e-01 -1.17102399e-01 +1.92553088e-01 -3.56337756e-01 -3.09853345e-01 -2.74907112e-01 +5.63913733e-02 +3.00668091e-01 +2.15446036e-02 -1.42371997e-01 +2.10376114e-01 +5.52764714e-01 +3.46698523e-01 +9.07114744e-02 +1.27490491e-01 -1.70846954e-01 -1.35457739e-01 -1.15783580e-01 -3.72812003e-01 -2.89474398e-01 +1.05299249e-01 -3.96383882e-01 -2.32543215e-01 +4.07394171e-01 -1.01039946e-01 -3.44344229e-01 +4.03221250e-01 +4.85373378e-01 +1.25735402e-01 -1.37825638e-01 -1.21507630e-01 -1.20542608e-01 -3.06596458e-01 -3.60172950e-02 -3.53464782e-02 +5.67744039e-02 +4.40141335e-02 -2.17333883e-01 -8.89042392e-03 -3.09259176e-01 -1.71899155e-01 -1.88803837e-01 +1.12840581e+00 +3.43763769e-01 +1.14130393e-01 +3.67001593e-01 +6.56975955e-02 -3.19321066e-01 +2.35946164e-01 -1.67920619e-01 +4.59765494e-01 +2.89582729e-01 -1.05710185e+00 -1.07697537e-02 -1.99422121e-01 +1.38148165e+00 -8.63687173e-02 -5.77257276e-01 +9.46928263e-01 -5.32275915e-01 -2.70070016e-01 -2.64779985e-01 +3.20809931e-01 -7.78807402e-02 -4.73769456e-01 -4.00671586e-02 -6.76739216e-01 -3.05863582e-02 +1.88214481e-01 +1.29473105e-01 -8.15724730e-01 -2.69136220e-01 +4.11687016e-01 -1.63627729e-01 -1.15156308e-01 -3.24181080e-01 +1.07047096e-01 +4.00477737e-01 +1.18292525e-01 -2.29410604e-01 -2.37319954e-02 -8.96489173e-02 +9.56219509e-02 +7.35361949e-02 -1.84339255e-01 -2.68984586e-02 +3.72652411e-01 +1.24530040e-01 +2.09521204e-01 -1.28837794e-01 -4.17255573e-02 +2.75181204e-01 +1.32969068e-02 -1.19082600e-01 +1.33163169e-01 +7.99446926e-02 +4.89322506e-02 +9.38889757e-02 +2.46193305e-01 +7.55671084e-01 +8.98815878e-03 -1.97228678e-02 -1.35851395e-03 -8.58766399e-03 +1.07207544e-01 -8.98650959e-02 -3.60455029e-02 +7.56165609e-02 -1.04578376e-01 -1.75901890e-01 -1.29037142e-01 -7.07164183e-02 -6.33118115e-03 +1.32108256e-01 -3.87968749e-01 -7.89129212e-02 +2.11804524e-01 +2.14515597e-01 +1.60569623e-01 -5.81609607e-01 +8.73822905e-03 -5.66450715e-01 -1.70030236e-01 +1.36611387e-01 +2.69207180e-01 -1.60846561e-02 +4.61531132e-02 -3.52681696e-01 +1.22024991e-01 -1.37475237e-01 -1.87819123e-01 +1.81206688e-01 -3.25599819e-01 +7.63428211e-01 -5.36834180e-01 +7.23709092e-02 +3.07087284e-02 -3.18893194e-01 +1.03336927e-02 -2.17882581e-02 -2.95816153e-01 +7.23883033e-01 -1.83361441e-01 -1.88128650e-01 -4.35937911e-01 -2.42477119e-01 -5.01027703e-02 -1.69873491e-01 -5.10015309e-01 +5.30417934e-02 +6.74050227e-02 +1.86837301e-01 +2.21237317e-01 +6.16528690e-01 +2.73730755e-02 +1.62935421e-01 +1.87655270e-01 -2.66130596e-01 +1.78845346e-01 +9.14029479e-02 -2.08168790e-01 +3.08642983e-01 -4.34196979e-01 -2.48636842e-01 -5.33726364e-02 +1.72173586e-02 +1.71962082e-01 +1.60307661e-01 +2.08196089e-01 +3.28094542e-01 +3.08194518e-01 -1.43314588e+00 +6.56638965e-02 -4.04695392e-01 -1.10519655e-01 +1.47289872e-01 +3.17950219e-01 -5.29661141e-02 +4.26136911e-01 -9.30119827e-02 -3.69637460e-01 -1.17198825e-01 -1.35708079e-01 -8.35675746e-02 +6.61205351e-02 -1.37416065e+00 +3.83044064e-01 -9.22469050e-02 -2.47110605e-01 +1.48060396e-01 -6.81434572e-02 -1.23496860e-01 +1.04492279e-02 -3.27655733e-01 +2.83266995e-02 +6.42256886e-02 +2.87936449e-01 -5.31200230e-01 -2.83867776e-01 +1.51780099e-01 -9.88644511e-02 -1.57569557e-01 -1.17568657e-01 +1.44833505e-01 +7.15878308e-01 +1.22408317e-02 +8.14041272e-02 -3.48114401e-01 -2.30438337e-01 +7.67059624e-01 -1.17561646e-01 -2.21679583e-02 -2.78767571e-03 -3.20810407e-01 +9.62534919e-02 -6.33999631e-02 -6.91431910e-02 -6.49452269e-01 +1.55149892e-01 -5.91349065e-01 -3.55473489e-01 +2.85089731e-01 -1.02375656e-01 +2.01649323e-01 -1.39002679e-02 +1.14223503e-01 -2.38211285e-02 +8.47601071e-02 +2.79703021e-01 -3.91224056e-01 -3.12158942e-01 -2.27480203e-01 +1.62947923e-01 -2.31706649e-01 +1.72789335e-01 +3.65290791e-02 -1.68757439e-02 -1.33780226e-01 +1.50713325e-01 +3.41538638e-01 -1.04207709e-01 -5.87769225e-02 +1.37145855e-02 +6.10686652e-02 -5.91707416e-02 -1.05713360e-01 +1.98946089e-01 +3.72964069e-02 +1.22453503e-01 -1.95758656e-01 +1.90416738e-01 +1.35481894e-01 -7.94185624e-02 -2.81065762e-01 -4.00633246e-01 +1.37525335e-01 +5.03228068e-01 +5.26785702e-02 -7.67610788e-01 +1.64680392e-01 -4.70521212e-01 +3.48112434e-01 +1.23545542e-01 +3.88087511e-01 -4.40011211e-02 +1.35002449e-01 +3.38482946e-01 +3.99330445e-02 -6.44737333e-02 +5.56121707e-01 -1.48742609e-02 +3.59676853e-02 +1.84072912e-01 -1.61570877e-01 +4.85157400e-01 -2.72670686e-02 -4.70990948e-02 -9.34140757e-02 -9.50893387e-02 +3.31598461e-01 +3.13960873e-02 +6.08314835e-02 +3.26841533e-01 -8.39531794e-02 +6.50034845e-01 -5.58202863e-02 +1.62937954e-01 -7.90610760e-02 -1.05409694e+00 +8.66242230e-01 +4.38521594e-01 -5.13787389e-01 -4.30383563e-01 +3.27362627e-01 +5.46621025e-01 +4.13100809e-01 +1.00906976e-01 +9.07998234e-02 -3.95168722e-01 -5.71771979e-01 +5.55678010e-01 +1.52080715e-01 -6.63948134e-02 +4.68947202e-01 +3.80778164e-01 +1.14325166e-01 +2.20120504e-01 +3.20609748e-01 +2.31826589e-01 +5.53130627e-01 -7.05411553e-01 +1.22971669e-01 +1.02848798e-01 -5.05406618e-01 -1.58435136e-01 +7.41960227e-01 +5.77834323e-02 +2.18228400e-01 -2.59213418e-01 -2.75984704e-01 -4.09807801e-01 -3.54855627e-01 -2.54496157e-01 -2.20231131e-01 -9.59793255e-02 -3.83590639e-01 +4.84229356e-01 +2.32423007e-01 -4.48297203e-01 +2.24522114e-01 -1.50886536e-01 -5.90358749e-02 -1.03818052e-01 +2.03725800e-01 -3.64794582e-01 -6.69113779e-03 +2.15138525e-01 +2.05960691e-01 +9.04744267e-01 +6.10354841e-01 -4.62372638e-02 +3.46219331e-01 -2.80072063e-01 +3.19914706e-02 -5.35571799e-02 -8.67582485e-02 +5.07063568e-01 -8.53715762e-02 -3.61585438e-01 -2.38881763e-02 -1.49351850e-01 -4.73018810e-02 +1.42640248e-01 +1.51398391e-01 +1.19741261e-01 +7.36631230e-02 +4.62331697e-02 -3.09301466e-02 -6.49142638e-02 -2.02647939e-01 +5.16693518e-02 +3.24684560e-01 +3.51745665e-01 +4.42640573e-01 +4.78372909e-02 +1.25957653e-01 +1.80626899e-01 +2.06211805e-01 -7.97620788e-03 -1.46400332e-01 +2.28358254e-01 -1.75853282e-01 -2.83648908e-01 -1.49361178e-01 -3.58440399e-01 +8.63733590e-01 -6.78383186e-02 -3.95320877e-02 +3.37154381e-02 -2.22309321e-01 -1.24894671e-01 +1.58939153e-01 -2.98355609e-01 +9.62783843e-02 -1.55941352e-01 +6.00496419e-02 +1.10694453e-01 -1.07100479e-01 -4.96485412e-01 +1.60894543e-02 -1.73778564e-01 -1.52649939e-01 +7.66562391e-03 +3.26415896e-01 +2.85625849e-02 -1.11104041e-01 +2.64450729e-01 -2.49468267e-01 +1.85242698e-01 +1.07790284e-01 +1.70131698e-01 -2.17217896e-02 -6.80371374e-02 -4.28613752e-01 -1.57808959e-02 -2.22316772e-01 -6.20029151e-01 +1.42909482e-01 +4.36866470e-02 -2.11432893e-02 +1.33095726e-01 -1.26561355e-02 -1.17904641e-01 +2.40436625e-02 -5.58841765e-01 -1.46940902e-01 -8.70532263e-03 -4.96190181e-03 +3.85946155e-01 -1.39791086e-01 +6.69931650e-01 -4.52627122e-01 -3.42205949e-02 -1.61311671e-01 -3.65350038e-01 -2.59054154e-02 +4.03737605e-01 +8.76359642e-01 +1.17976591e-01 +4.37884063e-01 +1.45740032e-01 -4.87658948e-01 -7.11909950e-01 -4.58841205e-01 -5.08836448e-01 +7.60870799e-02 -1.26556396e-01 -8.38785321e-02 +1.17902148e+00 -2.90331751e-01 +1.12692609e-01 -7.74520487e-02 +3.57112080e-01 +4.92338240e-01 +4.29400235e-01 -3.83066386e-01 +1.28224576e+00 -1.67551249e-01 +5.12792170e-01 +2.04553548e-03 -6.88992321e-01 -1.45770526e+00 +1.66332200e-02 +4.17150170e-01 -3.99918228e-01 -5.98595321e-01 -3.06267977e-01 +1.74252093e-01 -4.19311821e-01 -1.71027631e-01 +2.76528984e-01 -2.06401557e-01 -4.40128982e-01 -1.01365197e+00 -4.17353660e-01 -8.00172687e-02 -3.82312149e-01 +7.75148690e-01 -6.14687741e-01 +5.75206637e-01 -9.87916291e-02 -7.32715845e-01 -5.47001779e-01 -5.67786515e-01 -1.67807713e-01 -1.93954423e-01 -3.95403564e-01 -1.79161102e-01 -2.59003758e-01 +1.89620689e-01 +1.85415119e-01 +4.62099724e-02 +2.59533495e-01 -2.57908795e-02 +1.89440083e-02 +3.38146836e-02 +7.37528726e-02 +2.60455132e-01 +9.68831554e-02 +1.54470474e-01 +2.18390688e-01 -4.78298329e-02 -4.77307081e-01 -1.35257118e-03 -3.98332849e-02 -3.55893195e-01 +1.82454839e-01 -1.58804312e-01 -1.96217403e-01 +1.76635921e-01 +6.63230801e-03 +1.46418869e-01 +1.67046152e-02 +6.72031268e-02 +2.84478396e-01 +1.72329843e-01 +7.71425515e-02 -2.03240037e-01 -6.33689836e-02 -7.34817609e-02 +8.02547261e-02 +3.85335274e-02 +3.31424475e-02 +5.27473688e-01 -2.41717100e-01 +4.09961008e-02 -7.00833619e-01 -1.00761913e-01 -1.86868459e-01 +1.59401387e-01 -4.06778038e-01 -6.00900687e-02 +4.06282932e-01 -1.83682308e-01 +3.78717750e-01 -3.83971393e-01 -3.02942336e-01 +5.06059468e-01 -7.26346821e-02 -1.73510671e-01 +1.04360823e-02 -5.83668351e-01 +3.25200021e-01 -6.24647401e-02 -4.20671672e-01 -4.48790193e-01 +5.43239564e-02 -5.45838535e-01 -4.11661983e-01 +1.60260394e-01 -4.69509482e-01 +1.37847781e-01 -4.13264543e-01 +1.37433529e-01 -8.19252580e-02 -8.01273622e-04 +2.08881378e-01 -6.93359151e-02 -1.19924791e-01 -5.64417660e-01 +3.28423500e-01 +7.20015019e-02 +1.58091173e-01 -4.12073642e-01 -1.36091143e-01 +3.19965720e-01 +3.61572206e-01 +3.51635516e-02 -5.31328022e-02 -3.68345410e-01 +8.49442855e-02 -1.29871532e-01 -8.42192322e-02 +9.62987661e-01 +4.90802497e-01 +3.02346237e-02 -2.66808778e-01 +3.71573836e-01 +2.38469496e-01 +1.41247377e-01 +1.79348469e-01 +2.31431097e-01 +2.64905781e-01 +8.81022215e-02 +4.89998847e-01 +6.97731823e-02 -3.36198866e-01 +7.48952031e-01 +1.45887226e-01 -5.63765503e-02 -3.21406335e-01 -6.74636006e-01 +6.87623844e-02 -3.94710094e-01 -1.59227580e-01 -1.00410748e-02 -3.83258052e-02 -1.65108219e-01 -3.34118992e-01 +1.45948187e-01 -3.94199729e-01 +1.37479731e-03 +2.49674141e-01 +1.57676801e-01 +8.04381788e-01 -3.74418944e-02 +5.84333949e-02 +1.34755516e+00 +9.09786075e-02 -1.12314649e-01 -1.21152662e-01 -3.92118901e-01 +2.00538203e-01 +7.83072948e-01 +1.92308381e-01 -5.84376693e-01 +1.31205559e-01 +1.09583020e-01 +1.14975147e-01 +1.46307200e-01 +1.35643139e-01 -4.36952233e-01 -2.56237477e-01 +1.60244361e-01 +3.60533983e-01 +1.49416164e-01 -2.07788706e-01 +2.92215999e-02 -1.40356198e-01 +1.15327917e-01 -2.80647397e-01 -3.93805988e-02 -3.78104001e-01 -1.32137537e-03 -2.80913889e-01 +8.34665075e-03 +2.80172750e-02 +2.11472169e-01 -3.45683619e-02 +5.73030598e-02 -6.02285899e-02 -7.87111465e-03 +2.80956447e-01 +1.80871770e-01 +1.51418552e-01 -6.12310879e-03 +1.27416298e-01 +9.75352973e-02 +1.18368514e-01 -1.15890068e-03 -2.12870408e-02 +3.69998783e-01 -3.09204847e-01 +2.47381143e-02 -4.71018374e-01 +1.31736556e-02 -3.58037293e-01 +4.33572978e-01 -2.07417861e-01 -1.60256431e-01 +5.28249085e-01 -1.59206942e-01 +2.90572852e-01 +7.97400922e-02 -1.43962443e-01 +5.62751114e-01 -1.12406045e-01 +1.72946349e-01 +3.58874023e-01 -5.71732044e-01 +1.42734742e-03 -1.71153083e-01 -1.88609332e-01 +3.71700138e-01 +1.18574969e-01 -2.06453159e-01 +2.53038555e-01 +3.76093596e-01 +1.27470911e-01 -1.88643694e-01 -1.13835789e-01 +8.29229727e-02 -2.37123221e-01 +7.67287016e-02 +6.00937232e-02 +4.06268798e-02 -5.05222976e-02 -3.25132757e-01 +1.59474388e-01 -6.32909656e-01 +3.27637315e-01 -5.37336431e-02 +2.45569245e-04 -1.97105721e-01 +5.82264304e-01 -3.29519004e-01 +3.96595687e-01 -4.60326910e-01 +6.10396564e-01 -3.18146795e-01 +2.08605766e-01 +6.13559842e-01 -3.14119369e-01 -8.85171294e-02 -1.05707727e-01 -7.07592294e-02 -6.10619737e-03 -8.48294258e-01 +3.80420506e-01 +3.66883695e-01 -2.05617279e-01 -2.26900324e-01 -2.66984664e-03 +1.87366590e-01 -3.42458993e-01 +3.73297721e-01 -1.20533295e-01 -4.01138574e-01 +3.52229297e-01 -3.32152605e-01 +1.53348163e-01 -2.88532190e-02 +9.97669548e-02 +1.87103394e-02 -9.73360017e-02 -3.16945374e-01 +1.30387889e-02 +1.65197358e-01 -2.31237888e-01 -7.73068845e-01 +4.58199650e-01 +4.88347150e-02 +1.12136579e+00 +2.13499337e-01 -4.22017574e-02 +4.58871901e-01 +8.29437375e-03 -3.94263357e-01 -2.07249850e-01 -1.15942168e+00 +3.63971204e-01 +1.44988403e-01 -1.03633687e-01 -9.97497663e-02 +6.40396535e-01 -3.99417132e-02 +8.21111023e-01 +7.07467943e-02 +2.79734999e-01 +2.05413233e-02 -9.62154791e-02 -5.15729077e-02 -1.95906326e-01 +4.24698293e-02 -9.32982638e-02 +1.02570601e-01 +3.87237966e-02 +3.10132831e-01 -1.42599285e-01 -7.21610785e-02 -1.75963014e-01 +2.23082483e-01 -1.63600683e-01 +1.48546100e-01 +6.87852278e-02 -2.85856783e-01 -1.14205636e-01 -3.55494674e-03 -3.48355383e-01 +4.32102010e-02 +1.26524180e-01 -2.02813745e-02 -9.10890251e-02 +6.51945220e-03 +2.26002168e-02 +5.33680432e-02 -4.64735702e-02 -1.31606579e-01 +4.93508354e-02 +2.73719341e-01 -2.27325767e-01 -1.00562155e-01 -1.48014650e-01 -8.64308178e-02 -7.15714455e-01 +2.72536904e-01 -1.11081764e-01 -2.36886412e-01 +3.02725017e-01 +4.19716462e-02 +4.12308604e-01 +6.95087761e-02 +9.16365981e-02 +2.70742923e-01 -6.99595213e-02 +2.28989899e-01 +2.31303245e-01 -8.87011528e-01 -2.09296271e-01 -1.45891448e-02 -7.77225848e-03 +1.81484312e-01 -6.55261353e-02 +6.64449558e-02 +2.00189888e-01 +3.04303586e-01 +7.59766549e-02 +1.44980475e-01 +2.72736587e-02 +5.92994153e-01 -1.88724577e-01 +5.23722947e-01 +1.09148510e-01 -1.56119376e-01 +2.14677215e-01 +8.63746926e-02 +6.46920741e-01 -1.01819170e+00 +2.54555810e-02 +4.57279459e-02 +8.51115763e-01 +1.16310500e-01 +4.71745014e-01 -2.07421511e-01 +3.77092630e-01 +1.56780868e-03 +7.89420158e-02 -3.26797068e-01 +1.69061527e-01 +2.69498944e-01 -6.07292295e-01 -2.11489484e-01 +8.39491963e-01 +3.22577804e-01 +2.87580907e-01 -8.81408870e-01 +8.18048894e-01 +5.89297712e-01 +1.16002217e-01 -5.13075948e-01 +4.60676283e-01 -1.16700053e-01 -2.91341692e-01 -1.15755223e-01 -2.59595305e-01 -2.74208486e-01 +7.11265430e-02 -1.41958475e-01 -2.96815753e-01 -6.89380884e-01 +1.36096239e-01 -1.97335199e-01 +1.17614135e-01 -1.05364129e-01 +4.18685704e-01 +1.78844519e-02 -2.84260690e-01 -8.57410431e-01 -1.39421418e-01 -5.93480207e-02 +6.12179756e-01 +5.15129864e-01 -2.24593326e-01 +3.70950997e-01 -4.98803630e-02 -4.22281116e-01 +2.07594018e-02 -8.43447924e-01 +3.80409390e-01 +1.79275215e-01 -4.14326936e-01 -5.69696873e-02 +2.29387596e-01 +1.99882433e-01 +2.90944397e-01 +9.20062214e-02 +2.99899966e-01 -1.11593837e-02 +5.93346730e-02 +2.84794681e-02 -2.64841527e-01 +1.14596121e-01 -9.61915329e-02 -2.53139492e-02 +3.04914087e-01 +1.37970477e-01 -3.31932008e-01 -2.71526188e-01 -4.91564870e-02 +4.60981345e-03 +7.47078508e-02 -7.64218494e-02 -3.73046175e-02 +3.40140611e-02 -9.21298340e-02 +9.84947681e-02 +1.04725920e-01 +1.53551754e-02 +2.41026923e-01 -1.59357548e-01 -9.35489014e-02 -1.46053419e-01 +3.04506905e-02 +8.36151987e-02 -8.36905465e-02 -2.71068484e-01 +2.21888751e-01 -1.81625318e-02 -2.93074012e-01 -9.38034337e-03 -5.02367377e-01 +4.39917088e-01 -4.86924142e-01 +3.21431875e-01 -1.27336010e-01 -1.25388369e-01 -1.38226807e-01 +9.43529457e-02 +7.80397430e-02 +3.75985473e-01 -4.74214017e-01 -2.60824442e-01 -2.59006321e-01 -2.89979070e-01 -3.01134828e-02 +1.44875437e-01 -2.27359077e-03 -2.59988904e-02 +3.06772172e-01 +7.35733360e-02 +3.23549211e-02 +4.70625430e-01 -2.20528916e-02 -7.33296499e-02 +1.92740887e-01 -4.80468154e-01 +4.62243795e-01 +2.26017565e-01 -1.99951768e-01 +5.63105702e-01 -3.11931133e-01 -8.95899385e-02 +2.31833123e-02 +3.17183621e-02 +2.33443771e-02 +3.35161805e-01 +2.49078616e-01 -1.13160305e-01 -2.59127975e-01 -1.12370002e+00 +8.39765593e-02 -4.21688646e-01 -4.97936159e-01 -2.19802093e-02 +3.90189648e-01 +4.64336574e-02 +3.97313952e-01 +5.09734862e-02 -3.17007661e-01 -2.20952541e-01 -6.16229653e-01 +2.43195836e-02 -5.61427593e-01 -5.17655730e-01 -6.59170747e-02 -1.78893641e-01 -3.20105374e-01 +2.64000177e-01 -1.79150477e-01 -2.24036023e-01 +4.08181399e-02 -8.96662474e-02 +2.21358180e-01 +4.72434098e-03 +4.23339487e-04 -3.19839865e-01 -3.42028052e-01 +1.67522147e-01 -1.21523269e-01 -2.06927493e-01 -1.83220863e-01 +1.71197608e-01 +1.03116177e-01 +4.95415628e-01 +9.95478556e-02 +1.39311209e-01 +6.50235340e-02 +1.23067701e+00 +3.25544685e-01 -3.44819352e-02 +2.66404063e-01 +1.82593048e-01 +1.62922665e-01 +3.32313389e-01 -9.79070812e-02 -2.55316317e-01 +1.39241666e-01 -5.96969664e-01 -3.38278443e-01 -1.61009446e-01 -1.83210373e-01 -2.85463873e-03 -9.02949572e-02 +1.41131282e-01 -1.27695769e-01 -3.68728563e-02 +1.47521749e-01 -2.46318653e-01 +6.81123510e-02 -1.31819412e-01 +7.63247982e-02 -1.59708321e-01 -1.41372308e-01 +1.30963475e-01 +4.06449586e-02 -1.73681900e-02 +1.05807327e-01 +3.51769745e-01 -2.49097869e-01 +1.17865697e-01 +6.00846447e-02 +8.29299241e-02 +2.58294288e-02 -1.17965275e-02 +9.57343504e-02 -1.20566942e-01 +4.81500179e-02 +4.28392515e-02 +6.90055728e-01 +3.49499375e-01 -1.40899673e-01 -3.21671486e-01 -4.06414211e-01 +3.68283302e-01 -5.90409376e-02 +2.19234526e-02 +1.43094644e-01 -9.71102268e-02 -2.85769589e-02 -3.12412411e-01 +2.03338727e-01 +2.17870638e-01 +1.23436652e-01 -9.45318714e-02 +5.62533200e-01 +7.61916637e-02 +1.40539303e-01 -5.08627713e-01 -4.18726057e-02 -1.02784507e-01 -8.40230961e-04 -1.95298612e-01 -2.79472023e-01 -4.10384864e-01 +1.31045818e-01 -1.97127447e-01 -2.47422487e-01 -5.42561591e-01 +1.50512964e-01 -7.11444974e-01 -4.05296803e-01 -1.85785607e-01 -2.64310330e-01 +6.57031760e-02 -5.04776657e-01 -1.37960492e-02 -1.61785796e-01 -4.80430752e-01 -1.08910285e-01 +2.38846734e-01 +1.28185853e-01 -2.44606137e-01 +5.72982505e-02 -2.87106484e-01 +6.49045110e-01 -4.10759777e-01 +1.28497720e-01 +9.74249601e-01 +1.36695415e-01 +9.49933469e-01 +6.20717049e-01 +2.73102582e-01 +5.61999343e-02 +5.04194558e-01 +4.47751224e-01 +4.34620321e-01 +3.55412126e-01 -4.36917305e-01 -5.69673255e-04 +9.46564138e-01 +1.28888026e-01 +4.79103565e-01 +5.37959456e-01 -4.67586368e-01 +2.02456236e-01 -4.77326930e-01 +3.31958711e-01 -1.43560499e-01 -4.81975049e-01 +1.71110451e-01 -3.66297990e-01 +3.78759533e-01 -3.70614111e-01 +1.20008670e-01 -3.09357464e-01 -2.86662996e-01 +1.42023951e-01 -4.17532772e-02 +6.36207929e-04 -5.43028891e-01 -2.84906447e-01 +2.37375513e-01 -1.11712210e-01 -4.57082212e-01 +1.13667231e-02 -5.68770468e-01 +4.60443616e-01 -7.15456828e-02 +1.37893707e-01 -1.02225609e-01 +1.89751163e-01 +1.22763671e-01 +1.38152346e-01 +2.84543261e-02 +2.77686447e-01 +8.84509385e-01 +1.69722080e-01 -3.27499539e-01 -1.51304781e-01 -1.50579825e-01 +1.39602395e-02 -3.26688364e-02 +3.11011255e-01 -2.93243259e-01 -5.25855571e-02 -2.95941308e-02 -9.55645554e-03 +4.22702841e-02 +1.04215480e-02 -8.27183351e-02 -1.46711662e-01 +1.62907824e-01 -1.96727812e-01 -1.73975036e-01 -1.18404686e-01 -2.21547335e-01 +3.03668439e-01 -4.85788397e-02 -3.66281211e-01 +8.38128105e-02 -7.11945817e-02 -5.07934801e-02 +3.04458708e-01 -7.46191069e-02 -8.81967992e-02 -3.61230582e-01 -1.18609272e-01 -1.31712168e-01 +3.78502905e-01 +1.23688750e-01 +1.67736441e-01 -4.61682618e-01 -1.05123349e-01 +3.87912989e-01 -1.85875259e-02 +2.29009435e-01 +1.30919680e-01 -4.66625951e-02 -5.64063430e-01 -6.68337464e-01 -2.24783570e-01 -1.86725959e-01 -2.74329841e-01 -1.63246959e-01 -6.72513694e-02 +5.68205044e-02 -7.35083446e-02 +7.76872575e-01 -4.12072688e-01 +3.34042102e-01 +3.26826006e-01 -2.29132727e-01 +1.04418118e-02 -2.01766759e-01 +2.60559827e-01 +2.48369977e-01 -4.47533488e-01 +5.59281297e-02 +2.15516225e-01 +3.34713042e-01 -1.76278159e-01 +2.75788456e-01 -2.52182961e-01 +2.90416062e-01 +1.98344424e-01 +5.42702675e-02 -2.68409550e-01 +5.02647638e-01 +3.67945880e-01 -3.16302627e-01 +2.16053817e-02 -7.95378014e-02 +6.27731998e-03 -3.87633294e-01 +5.74610233e-01 -6.08916044e-01 -2.05866650e-01 -7.80275166e-01 -3.43939185e-01 -2.87594110e-01 +2.51486123e-01 -4.29763436e-01 -7.74058700e-01 -2.13777170e-01 +5.72216511e-01 -5.63356876e-01 +3.02998215e-01 -1.14150703e+00 +3.32945675e-01 -1.11624730e+00 -6.41267141e-03 +5.09949267e-01 +4.06877220e-01 -9.30230543e-02 +2.66181260e-01 -3.16035867e-01 +6.40979826e-01 +4.57463460e-03 +5.56385338e-01 -3.63457292e-01 +5.92783272e-01 -5.04018724e-01 -1.47309864e-03 -5.00755906e-01 -6.15781367e-01 -3.21785808e-01 +1.26553774e-01 +3.66652042e-01 +5.66378534e-01 -8.47490802e-02 -3.87676835e-01 -1.80747434e-01 -3.59452277e-01 +4.34916914e-01 -1.67883933e-01 -2.40115672e-01 +1.46729559e-01 +2.58189082e-01 +1.37784313e-02 -5.69284141e-01 -4.86924887e-01 -2.74499893e-01 -7.92841613e-02 -1.02713645e-01 -1.17423562e-02 -1.95842773e-01 +1.32987857e-01 +4.80263233e-01 -8.64640400e-02 +7.70135969e-02 +4.97224890e-02 -3.11192364e-01 +3.11745703e-02 -1.32197179e-02 +9.35210362e-02 +3.05444032e-01 +6.66120881e-03 -2.75495686e-02 -4.39286567e-02 -1.28501266e-01 -1.28870085e-01 +3.48810665e-02 -2.59338468e-02 +5.37370890e-02 -1.23549111e-01 -1.67414457e-01 -3.61965899e-03 +6.30146042e-02 +1.01245411e-01 -1.17791280e-01 +2.43905131e-02 +6.37838542e-01 +1.59252107e-01 +4.75586414e-01 -5.91431856e-02 -4.46528532e-02 -2.69218713e-01 +1.03092983e-01 +9.89483893e-02 +2.96804637e-01 +3.18594396e-01 -1.37826949e-01 -3.59173089e-01 -7.43619129e-02 -7.29763985e-01 +1.65079653e-01 -1.38445449e+00 +3.58484089e-02 -2.44466513e-02 +3.18777919e-01 -2.64080048e-01 +3.55431512e-02 +1.00807749e-01 +1.82513800e-02 -3.71506572e-01 -2.53325939e-01 +4.99040842e-01 -7.21100857e-03 -7.55526572e-02 -3.92240705e-03 +5.73504232e-02 +2.12439761e-01 -3.41017157e-01 +6.83473349e-02 +9.58332196e-02 +1.39366686e-01 -9.54384953e-02 -2.57604241e-01 +3.70676011e-01 -6.03148162e-01 -4.27137967e-03 -5.99222720e-01 -4.95418787e-01 +8.08057070e-01 +1.91151142e-01 -2.88708270e-01 +6.10634089e-01 +1.45827457e-01 -6.54809177e-02 +2.02880487e-01 -7.58423507e-01 +2.88292766e-03 -1.58192530e-01 -2.52307835e-03 -1.14043690e-02 +5.78286111e-01 -6.86015904e-01 -3.61551285e-01 -9.70524430e-01 -6.39851570e-01 -6.41620755e-01 -6.97193891e-02 -1.74341515e-01 +6.83209836e-01 -2.36275673e-01 -5.23355901e-01 -1.78744242e-01 +2.10938200e-01 -1.59262395e+00 +3.97057950e-01 -1.20136097e-01 -8.93344060e-02 +5.07681727e-01 -9.54783987e-03 -1.72028705e-01 -4.67742890e-01 -3.06797266e-01 -6.73332095e-01 -2.98945963e-01 -3.21057707e-01 -5.88670671e-01 -7.60547698e-01 -3.91175210e-01 -3.81022274e-01 -4.19754684e-01 -3.64406258e-01 -1.30809152e+00 -6.53413385e-02 +7.16946423e-02 -2.83646613e-01 -1.83500484e-01 +4.18100625e-01 -3.22433934e-02 +3.13686103e-01 +8.09143391e-03 +6.29645348e-01 +8.44850913e-02 +2.38215178e-01 -8.68680477e-01 -2.26037443e-01 -3.22431386e-01 -8.16178262e-01 -1.52770624e-01 -7.97518671e-01 -7.69925177e-01 -2.31878832e-01 -1.55949621e-02 -1.59859061e-02 +1.51122674e-01 -7.66498893e-02 +2.13418361e-02 -4.08976078e-02 +4.35373113e-02 +1.37794361e-01 +7.97601566e-02 +9.87388119e-02 -4.19757962e-02 -5.90931289e-02 -1.90004870e-01 -9.48195681e-02 +6.66652545e-02 +6.43922240e-02 +1.92000836e-01 +2.10757479e-01 -2.86650173e-02 +1.68452412e-01 -1.16440818e-01 +1.48162857e-01 +1.15406457e-02 -2.03379974e-01 +2.54209399e-01 +5.25425076e-02 +2.09297746e-01 +3.16235423e-03 -1.56067789e-01 -1.22589372e-01 -1.27296805e-01 -1.08787529e-01 -3.69532555e-01 -8.82717520e-02 +8.00101180e-03 +1.69751439e-02 +6.91587329e-01 +1.58346538e-02 +8.97184014e-02 +9.63351782e-03 -2.78651893e-01 +8.85716975e-02 -1.14751719e-01 +3.15814465e-01 -1.75904438e-01 +1.02759428e-01 -1.90361753e-01 +9.15075243e-02 -5.74015826e-02 +1.53205574e-01 -2.48069987e-01 +2.62575150e-01 -3.46482128e-01 +2.27301172e-03 -3.88933241e-01 -1.22378021e-01 +1.26487821e-01 -4.20761019e-01 -6.05979972e-02 -1.49233043e-01 +1.19799562e-01 +3.62958729e-01 -2.32465565e-02 +2.05364153e-01 -5.16500771e-01 -5.98587357e-02 -1.44958973e-01 +4.36069310e-01 +2.46652767e-01 -4.39839125e-01 +1.80358246e-01 +9.72566977e-02 +1.65571332e-01 -7.40891695e-02 +9.13243927e-03 +3.39793950e-01 -6.05345726e-01 +4.94272262e-01 +1.32911563e-01 +7.10802615e-01 -1.95564926e-01 +6.02692962e-01 -7.15225518e-01 +3.88172477e-01 +2.66637802e-01 -4.95164454e-01 +4.73478764e-01 +1.70299470e-01 +4.37778383e-01 +4.07114863e-01 -5.73416591e-01 -1.45677283e-01 +3.63127649e-01 -2.36254320e-01 -5.03617883e-01 -2.33544633e-01 +2.60297179e-01 -7.52709091e-01 -2.02109441e-01 +5.82557768e-02 -2.97127366e-01 +6.55619323e-01 -4.89739515e-02 +1.53914839e-01 -1.46074537e-02 +5.83078712e-02 -1.46758214e-01 +1.51389554e-01 +3.37006986e-01 -3.59944612e-01 +8.82320292e-03 -4.18568671e-01 -6.83991611e-01 -8.40606689e-01 -2.76170909e-01 +1.11267462e-01 -9.11155343e-02 -9.46560740e-01 -1.54214412e-01 +1.49010763e-01 +2.32008785e-01 +7.64939249e-01 -4.41803664e-01 +1.67367905e-02 +2.17477426e-01 +1.98376149e-01 -7.74723768e-01 -1.80532709e-02 -1.21748745e-01 +1.10047841e-02 -1.41531423e-01 +9.71308723e-02 -7.11997747e-02 +1.06671244e-01 -3.18592340e-01 -1.17349245e-01 +1.59553528e-01 +1.01748154e-01 -1.63827129e-02 +1.15625471e-01 +1.67844608e-01 -8.52498412e-02 +2.85179466e-01 -3.48538518e-01 +1.28535375e-01 -2.55548179e-01 -1.34823233e-01 -3.28469761e-02 +3.17972712e-02 -3.99282239e-02 +9.43575874e-02 +9.55115259e-02 -5.29475212e-01 -3.03191274e-01 -4.36553478e-01 -6.79795325e-01 +2.22823456e-01 +1.85643390e-01 -5.31694293e-02 +3.04504007e-01 +1.46747470e-01 -7.10772991e-01 +3.11583012e-01 -1.03074342e-01 +2.90205657e-01 +1.62693903e-01 +5.89977562e-01 -3.20061147e-01 +6.41250312e-01 +2.09031776e-01 -6.52269959e-01 +1.46302953e-01 -6.17370680e-02 -4.28641140e-02 +1.12455286e-01 -7.22118735e-01 -2.20081471e-02 +1.80097327e-01 -2.74888370e-02 +4.37672943e-01 +7.23560378e-02 +2.42027417e-01 +4.87785600e-02 +3.09814543e-01 +2.40687087e-01 +5.38597763e-01 -1.39204040e-01 -1.44301504e-01 -1.78505853e-02 -1.25670463e-01 -2.90453464e-01 -4.24283087e-01 +1.02618143e-01 +2.08226189e-01 -1.39537141e-01 -3.62118810e-01 +1.43061504e-01 +7.84638882e-01 -2.36027062e-01 +1.01655674e+00 -7.88753688e-01 +1.36522323e-01 +1.84185162e-01 -9.65710953e-02 -4.22500372e-01 +6.08029850e-02 -2.54688978e-01 +1.66131318e-01 -3.30256253e-01 -2.90923249e-02 +9.42620263e-02 -2.53057331e-01 -3.04909319e-01 +2.52663642e-01 +1.41591236e-01 +2.52941161e-01 -3.57858688e-01 -4.18483913e-01 -4.77716774e-01 -3.10850263e-01 -5.46847939e-01 +2.84616113e-01 -1.51819378e-01 -1.71560153e-01 +2.83455193e-01 -5.95463455e-01 -3.16570289e-02 +3.76597047e-01 -6.61177561e-02 +1.83463946e-01 +2.61613607e-01 -1.11827910e-01 +2.23378748e-01 -8.77977163e-02 +1.74352631e-01 +6.47677556e-02 -4.08980638e-01 +5.92682697e-03 +2.42817700e-01 +2.79029340e-01 +1.61609441e-01 +2.79208899e-01 -6.61830127e-01 -9.71453264e-02 +5.38017094e-01 -2.45111883e-01 +2.17872143e-01 +3.39218080e-01 +2.32006773e-01 +3.40537369e-01 -4.99540538e-01 -2.88241625e-01 -1.42447473e-02 -2.21103393e-02 -3.41931909e-01 -1.60728887e-01 -3.83481443e-01 -1.05471544e-01 -1.17413290e-01 +2.91822106e-01 +1.42266825e-01 -1.24664910e-01 +1.25359043e-01 -2.19622105e-01 +4.87373136e-02 +1.69615701e-01 -8.56885687e-02 -1.53934106e-01 +2.42760792e-01 +6.93961307e-02 +8.05511773e-02 +3.20805639e-01 +3.09403002e-01 +5.09094179e-01 +3.69645879e-02 +5.19254468e-02 -1.86684266e-01 +6.83253258e-02 -3.59214544e-02 -1.95300385e-01 -9.32674706e-02 +3.09758544e-01 +1.35678917e-01 +2.19115585e-01 -1.85656458e-01 -1.69540122e-01 -2.54309699e-02 +5.44799156e-02 +4.63552736e-02 +3.78074963e-03 +2.14720994e-01 +1.07974194e-01 +6.62918031e-01 -4.83192563e-01 -9.58236381e-02 -1.80627972e-01 -2.61758506e-01 -1.62134960e-01 +1.91266045e-01 -5.78114726e-02 +1.22598512e-02 -4.83393595e-02 -9.09909382e-02 -2.76246406e-02 +3.03507328e-01 +1.46701276e-01 +2.23253712e-01 +2.33034581e-01 +3.39438409e-01 +1.94517612e-01 -1.95863932e-01 -7.02339530e-01 -1.60461858e-01 -3.68774503e-01 -7.62706101e-01 -1.64187387e-01 -1.73039898e-01 +2.42100600e-02 -1.39597151e-02 +3.06293704e-02 +2.17658103e-01 -8.43378901e-01 -9.34662670e-02 +9.66893673e-01 -6.73934743e-02 -4.20975029e-01 +2.92975605e-01 -2.10405707e-01 +1.18011020e-01 -3.66362810e-01 +7.07718506e-02 +4.50615376e-01 -1.98843583e-01 +1.04958184e-01 +7.22526088e-02 +3.49697075e-04 +1.61819279e-01 +3.87874156e-01 +7.67858922e-02 +1.88841045e-01 +6.93732381e-01 -3.13320681e-02 +4.09866780e-01 +1.44688651e-01 +3.08829427e-01 +6.44273281e-01 -8.42145920e-01 -2.94485241e-01 +4.29899424e-01 +1.86744615e-01 -3.45291287e-01 +4.26917464e-01 +1.14716692e-02 +1.02343503e-02 +8.06761682e-01 +5.06114483e-01 -3.93654108e-01 -4.20999229e-01 +1.25355572e-01 +1.70175701e-01 +2.85799742e-01 +7.70471543e-02 +1.06424344e+00 +2.70843863e-01 -5.27650237e-01 -6.69653893e-01 -1.47435755e-01 +2.02214181e-01 -2.12481678e-01 -3.53111535e-01 +2.55837552e-02 -4.76198882e-01 +1.91705883e-01 -5.22251427e-01 -4.00642931e-01 -2.63975739e-01 +2.38002941e-01 +4.60294545e-01 -3.47213686e-01 +1.08503707e-01 +6.20553970e-01 -1.01033099e-01 +1.16215408e-01 -3.37872267e-01 -1.89790502e-01 -1.07263811e-01 -8.94323438e-02 -1.12842038e-01 -4.94325273e-02 +1.41067699e-01 -2.04040289e-01 +3.86742502e-02 -9.78400111e-02 -2.45013550e-01 -3.13669771e-01 +6.06634878e-02 +1.10919334e-01 -7.38721015e-03 +5.06118312e-03 -7.17758015e-02 -1.70522034e-02 -1.16222553e-01 +9.06834155e-02 -3.85243371e-02 +1.59437656e-01 -1.66408241e-01 -2.09887117e-01 +1.61000162e-01 -1.94994539e-01 -3.79426107e-02 -4.16622609e-01 -7.79627785e-02 +1.83094785e-01 +2.37320900e-01 +1.59088925e-01 +1.70663118e-01 -8.63131955e-02 +4.74571921e-02 -1.22033432e-01 +1.78610072e-01 +5.43115437e-02 -7.49867678e-01 +4.34035361e-01 -7.16857910e-02 +2.82640606e-01 +1.95727572e-01 +8.74902964e-01 -3.58271897e-01 -2.54585981e-01 -3.48936290e-01 +5.32132499e-02 +3.10721416e-02 -2.48848479e-02 +2.40832880e-01 +2.44471133e-01 +9.51584876e-02 +1.93296507e-01 +1.66674722e-02 +1.62560880e-01 -2.66349047e-01 +5.43853231e-02 -5.62643349e-01 -1.57497153e-01 -1.32468164e-01 +2.50339191e-02 +4.45415407e-01 -7.92093109e-03 +1.10913627e-01 -9.29876715e-02 +2.67293733e-02 +4.82153088e-01 +3.35877091e-01 -5.86127639e-01 +3.49912524e-01 +3.20002496e-01 -6.52826369e-01 +4.65252459e-01 -2.60872275e-01 +5.53802177e-02 +7.66521394e-01 +3.36374901e-02 +1.09001207e+00 +4.35133040e-01 +2.50164866e-02 -3.90176088e-01 +4.72459912e-01 +1.82957113e-01 +6.57752275e-01 +4.67229873e-01 +8.71159792e-01 +1.68724582e-01 +8.30636919e-01 +3.47059786e-01 +8.53730261e-01 -1.53329730e-01 -2.80473381e-01 +2.22028121e-01 -4.13294047e-01 -5.01487292e-02 +4.15143937e-01 -1.03018141e+00 +3.36901903e-01 +2.30774879e-02 +5.52556574e-01 -3.25333744e-01 +1.48676917e-01 +4.08451349e-01 -7.37437829e-02 +2.07072616e-01 +5.53177416e-01 +1.55107766e-01 -5.49615383e-01 -5.87934315e-01 +2.05755040e-01 -8.06550533e-02 +4.88319963e-01 +1.46754920e-01 -7.08561897e-01 +6.52457297e-01 -1.00872383e-01 -7.94642605e-03 -7.87347853e-02 +7.87100866e-02 +2.38342106e-01 +4.42380399e-01 +5.67483187e-01 +5.72972834e-01 +1.30280948e+00 +5.34504533e-01 -1.26180910e-02 +3.99549484e-01 -2.03543752e-01 +1.18534401e-01 +5.66690741e-03 +6.51022941e-02 -9.03602913e-02 -2.12922581e-02 +5.06831706e-01 +1.52445525e-01 +1.28221259e-01 -2.89096177e-01 +4.43673372e-01 -7.62488041e-03 +1.80825338e-01 -5.08841127e-02 +1.44463360e-01 -1.24861948e-01 -1.42461527e-02 +5.27268238e-02 -2.63783913e-02 +1.90175042e-01 -1.42818823e-01 -1.21941529e-02 -9.13923793e-03 -8.10586289e-02 +1.50419965e-01 -3.77953380e-01 -1.42849371e-01 -1.93536773e-01 -1.53237641e-01 +1.45880654e-01 +2.75500745e-01 +2.61144549e-01 -4.25343700e-02 -2.19199255e-01 +2.41974324e-01 -2.20399395e-01 -2.47012964e-03 -8.66418898e-01 +1.51382208e-01 -1.13665175e+00 -1.19694106e-01 -1.75721854e-01 -1.12067088e-01 +1.22197624e-02 -3.46511871e-01 +8.38602856e-02 +1.63377076e-01 -3.79887922e-03 +1.34546161e-01 -3.01759457e-03 -3.16246063e-01 +2.05547825e-01 -4.38948452e-01 -3.36749554e-01 -1.28032804e-01 +1.89526170e-01 +3.81442308e-01 -1.96195126e-01 +2.29346946e-01 -8.44344869e-02 -4.96452712e-02 +3.18595737e-01 -3.75421315e-01 -3.80831748e-01 -8.57390985e-02 +4.34902430e-01 -1.21945247e-01 -6.31401092e-02 -3.66844200e-02 +8.78395215e-02 -5.86663306e-01 -1.81609318e-01 -1.84255153e-01 +2.32990161e-01 +2.32852161e-01 -1.79658160e-01 -7.81900644e-01 +2.80873418e-01 -8.16725194e-01 -9.93618816e-02 -1.09218702e-01 -2.58673191e-01 -7.76856065e-01 +1.31821577e-02 -2.84269571e-01 +3.22723746e-01 +4.02779579e-01 -2.53684632e-02 -8.99571180e-01 -4.92795520e-02 -6.33976638e-01 +1.43814757e-01 +1.12973142e+00 -2.84258593e-02 -9.73858237e-02 +3.64038259e-01 +2.12870449e-01 +7.70302489e-02 +1.80540875e-01 -1.05353728e-01 -1.81075430e+00 -1.38850853e-01 -6.36132896e-01 -4.13961411e-01 -4.22802359e-01 -4.14644688e-01 +7.82767609e-02 -3.22970003e-01 -6.72605960e-03 +8.64621639e-01 -1.27646774e-01 -3.53126228e-01 -1.11765087e+00 +7.69577995e-02 +2.55489171e-01 +3.95428270e-01 +5.12676597e-01 -3.59825641e-01 +5.98805249e-01 -4.26652372e-01 -4.92674589e-01 -1.04113710e+00 -1.46135545e+00 +2.93530434e-01 -4.04768050e-01 -1.42997250e-01 +4.53409292e-02 -3.71098816e-02 +5.12482524e-02 +4.26496446e-01 +1.35459602e-01 +2.25437656e-01 +4.30311933e-02 -1.06636845e-02 -6.57263994e-02 -1.35266870e-01 +2.24448889e-01 +1.50450677e-01 -1.29246175e-01 +2.12316111e-01 +1.37274712e-01 -2.31370211e-01 -1.23476855e-01 +6.85601756e-02 -1.27362460e-01 -9.48619246e-02 -2.94913292e-01 -1.36926770e-02 -4.10108835e-01 +8.73839036e-02 +8.24641623e-03 -8.40159431e-02 +3.15861166e-01 +2.75380462e-01 +6.11147992e-02 +1.23898782e-01 -3.89142521e-02 +7.09879631e-03 -8.87837335e-02 -1.64376095e-01 -5.67258000e-01 -6.45924285e-02 -4.14663136e-01 +2.23505765e-01 +5.88311076e-01 -2.65101522e-01 +8.34320188e-02 -4.10960168e-01 +1.81142837e-01 -4.58238542e-01 -4.08052474e-01 +6.49755538e-01 +1.32240340e-01 +3.64932626e-01 +4.05136704e-01 +3.14696997e-01 +4.79435772e-01 -2.96200782e-01 -3.15235555e-02 -2.88632721e-01 -7.67916441e-02 +1.82158306e-01 -2.92686313e-01 -2.60575652e-01 -2.23600119e-01 +1.98952809e-01 -4.67406213e-01 -1.94375485e-01 +3.34767133e-01 -3.78742963e-01 -2.33796850e-01 -8.09432566e-02 +3.59147996e-01 -1.34490237e-01 -4.08837140e-01 +1.12092771e-01 +8.26127157e-02 +1.16472058e-02 -1.27193975e+00 +2.22770423e-01 -4.33881700e-01 +4.87494588e-01 -4.20299739e-01 +3.05060834e-01 -2.20036730e-01 -3.56759250e-01 +2.94850767e-01 -4.58032608e-01 -2.55574882e-01 +2.29382128e-01 +3.81700546e-01 +2.31907383e-01 -3.10169637e-01 -3.18994552e-01 +4.77612853e-01 +4.44188803e-01 +3.57257783e-01 +2.35847786e-01 +8.91753957e-02 +1.40273118e+00 -4.68914777e-01 +1.90243684e-02 -6.59923777e-02 -1.91336811e-01 +3.61519396e-01 -1.97605088e-01 +2.61097178e-02 +3.07033032e-01 +2.90275544e-01 -2.93739408e-01 -3.22001845e-01 -1.21655226e+00 -4.38901968e-02 +6.29212379e-01 -3.89335722e-01 +2.92016953e-01 +1.61425099e-01 +1.85708925e-01 -3.49396914e-01 +5.26169501e-02 -3.74081552e-01 -2.36609608e-01 +1.70279115e-01 -1.80688009e-01 -4.46128577e-01 -5.97428083e-01 -1.61970273e-01 +1.01953642e-02 -2.64674604e-01 +7.01518357e-01 -9.33136046e-02 +1.01154651e-02 +1.73571989e-01 +3.54632914e-01 -8.70583132e-02 -4.70819533e-01 -9.04507190e-03 +1.30079746e-01 -5.90306148e-02 -9.62290075e-03 -5.78124784e-02 +2.06749011e-02 +1.36451367e-02 -2.19132677e-01 +3.82217020e-02 +1.24294981e-01 -5.53923607e-01 +4.95082177e-02 -1.94713715e-02 -1.42279476e-01 -3.18368450e-02 +2.80376077e-02 -1.35316953e-01 +4.89334948e-03 -1.20009646e-01 -1.02316134e-01 -6.79237321e-02 +2.51902252e-01 +1.81533560e-01 +2.60581000e-04 -3.53219807e-01 +1.78153321e-01 -3.47819507e-01 -1.51735023e-01 -5.70394658e-02 +2.05070898e-01 +5.25955521e-02 -1.50510937e-01 +3.14334154e-01 -1.35089859e-01 -1.11461304e-01 -3.39468777e-01 -1.64495096e-01 -4.69667278e-02 +8.88138950e-01 -6.80318415e-01 +6.77199736e-02 -3.36599827e-01 +1.94330812e-01 -3.28198105e-01 -4.01147485e-01 -3.09610367e-01 +3.32112610e-01 -1.23596227e+00 -1.40388355e-01 +4.48675245e-01 +7.41916001e-02 +1.54165193e-01 -1.54511511e-01 -9.12062228e-02 +2.36794665e-01 -1.55118763e-01 +1.08474776e-01 +3.56719866e-02 +2.64489830e-01 -2.40772009e-01 -4.63225901e-01 +2.84039795e-01 -2.98866063e-01 -1.84985638e-01 -4.66590486e-02 -3.30225676e-01 +6.94036186e-01 -7.90202677e-01 +8.59144144e-03 +7.35077262e-01 +5.13584375e-01 +7.94249177e-02 +9.14942682e-01 -4.92418408e-02 -1.44587100e-01 -7.49656379e-01 -7.94943869e-02 -1.13498196e-01 +1.43841922e-01 +8.71160179e-02 +3.20780933e-01 -3.20131816e-02 +1.47930020e-03 +1.00720930e+00 +6.86441123e-01 +4.24899071e-01 -3.47662628e-01 -7.42054641e-01 -9.30348039e-02 -3.10291469e-01 +9.31618571e-01 -6.15139842e-01 +4.89995271e-01 +2.11919427e-01 +9.40268219e-01 +4.08581913e-01 -4.50266987e-01 +2.40416154e-01 -2.84504741e-01 +2.14774851e-02 -2.38772541e-01 -4.53568429e-01 -5.68981290e-01 -6.96456954e-02 +5.24642318e-02 -1.65966466e-01 -3.97652179e-01 -3.72847199e-01 -7.69311981e-03 -5.87448955e-01 +8.27468634e-02 -6.66168571e-01 -3.71481419e-01 -2.05958903e-01 +3.79747778e-01 +7.37497091e-01 -2.33779158e-02 +1.43784210e-01 +1.61023825e-01 -3.79523873e-01 +2.17480019e-01 -1.19460809e+00 -2.79325604e-01 +1.27452940e-01 -1.78107834e+00 -6.02573574e-01 -8.42222497e-02 -7.06975579e-01 -3.27334732e-01 -1.49814889e-01 -2.66338810e-02 -1.83493341e-03 -3.60173345e-01 -4.88954084e-03 -6.19888723e-01 -1.34446934e-01 -9.44690332e-02 +5.62268719e-02 -3.62286903e-03 -6.51788563e-02 +3.29800765e-03 -1.12830866e-02 -1.50227666e-01 +1.91723391e-01 +1.45746663e-01 +1.10416614e-01 +9.85537395e-02 +1.47195458e-01 +1.81623027e-01 -5.96549585e-02 -3.59820962e-01 +1.03064343e-01 -1.65286988e-01 +1.89973086e-01 +1.96615666e-01 +1.92412302e-01 -2.19701231e-02 -1.83578521e-01 -2.18350679e-01 -2.28075668e-01 -1.57598570e-01 +6.69019893e-02 +3.46976489e-01 +2.84600496e-01 -3.06189328e-01 +4.05159533e-01 -4.08655763e-01 +1.11714005e+00 -7.13206381e-02 -3.55152935e-02 -3.24259675e-03 -1.12763412e-01 -2.20198147e-02 -3.66408348e-01 -1.16333112e-01 +6.52913190e-03 -9.41230208e-02 +1.27157748e-01 +3.76932532e-01 -2.33736947e-01 -2.82898724e-01 -1.57743722e-01 -2.39708498e-01 +6.32656068e-02 -3.72355849e-01 -1.33961409e-01 -1.19553618e-01 -1.58085704e-01 +1.90859869e-01 -4.77522314e-01 +2.58580387e-01 +4.03274417e-01 -2.16839492e-01 -1.00047506e-01 -2.78491229e-01 +1.49851609e-02 +6.58237994e-01 -2.01271586e-02 +3.44470441e-01 +8.27824771e-02 +8.96756232e-01 +2.15969905e-01 -2.59008586e-01 -1.78704828e-01 +6.49434268e-01 -5.65034449e-02 +4.88828927e-01 +1.57044485e-01 +1.53895512e-01 -1.40710056e-01 +4.42899495e-01 +4.31306541e-01 -3.89267147e-01 -1.63937453e-03 -9.16328728e-01 +2.67131269e-01 +1.75531417e-01 +3.18092585e-01 +4.53267187e-01 +6.45435527e-02 -2.09926620e-01 +3.63023043e-01 +5.08605540e-01 +1.98396936e-01 +3.31246927e-02 +5.28543293e-01 +2.37600327e-01 +4.36626263e-02 +9.76268724e-02 -1.11679979e-01 -2.21305773e-01 +1.76289991e-01 +5.24933599e-02 -7.30799139e-02 +2.87156343e-01 +4.71353292e-01 +5.98666310e-01 +3.49078536e-01 -1.30117372e-01 -1.86248630e-01 -1.00391492e-01 -3.91649991e-01 -3.51049989e-01 +1.27520990e-02 -1.87365234e-01 +7.30242059e-02 -5.77214420e-01 -4.13226902e-01 -5.49934924e-01 +1.76659659e-01 +9.99323606e-01 +1.09984733e-01 -2.83046454e-01 -4.29106891e-01 +2.24589810e-01 +3.27943414e-02 +1.50193170e-01 -6.38310254e-01 +1.37000069e-01 -3.51998284e-02 -2.28026554e-01 +7.90358335e-02 +5.90686277e-02 +2.79567987e-01 -1.51432557e-02 -2.89950911e-02 -1.47753015e-01 +4.45299596e-02 +1.85990661e-01 -9.94604751e-02 -5.29088592e-03 -1.06328145e-01 -4.97950427e-02 +7.61707127e-03 -4.26334620e-01 -8.91445354e-02 +2.42430210e-01 +3.85655425e-02 -2.67163459e-02 +3.43280554e-01 +1.54678836e-01 -5.40444016e-01 -4.39440832e-02 -7.07847103e-02 -2.85495520e-01 -1.04575567e-01 +3.82639080e-01 +5.41325748e-01 +2.45766133e-01 -2.60410015e-03 -9.63203460e-02 +1.04856633e-01 +3.01383957e-02 -2.44003817e-01 +8.18534419e-02 +1.31601140e-01 +2.52442975e-02 -9.84936357e-02 -2.60152936e-01 +3.66139740e-01 +1.15273863e-01 +5.54710142e-02 -3.87749001e-02 +1.20411038e-01 -2.19843432e-01 -4.50671911e-02 -2.65173465e-01 -3.81719708e-01 -2.54683673e-01 -8.71201828e-02 -3.34791988e-01 -3.23739797e-01 -2.01448530e-01 +1.77662641e-01 +1.94007292e-01 -1.59697458e-02 +1.16282046e-01 -1.04828179e-02 -3.71708870e-02 -4.23546255e-01 -1.32283956e-01 -3.40004206e-01 -5.14376201e-02 -4.00187850e-01 -1.37434572e-01 +2.92222649e-01 -1.81763932e-01 -1.33931801e-01 -4.11448658e-01 +2.71205664e-01 -1.78349331e-01 +7.79072464e-01 +6.85385644e-01 +2.57300019e-01 +1.08734560e+00 +2.39055336e-01 -1.20882832e-01 -5.74552380e-02 -1.32423505e-01 +3.28192532e-01 +2.59707332e-01 -3.69112104e-01 -4.26260561e-01 +9.24587175e-02 +5.53791285e-01 +1.44998059e-01 -4.21330780e-02 +4.93673921e-01 -6.06244504e-01 -1.09153152e-01 +1.20538659e-02 +5.61063349e-01 -1.71283290e-01 +1.60233095e-01 -1.63543805e-01 -5.91619015e-01 -1.35753259e-01 -8.09434988e-03 +1.10596484e-02 -7.60588706e-01 -5.10459125e-01 +3.84641975e-01 -2.29801178e-01 -2.77816683e-01 -4.17926252e-01 +9.81703326e-02 +2.00596198e-01 +1.69344544e-01 -4.59824413e-01 -1.17063642e-01 -1.52809784e-01 -1.28989264e-01 +1.63690716e-01 -4.32499647e-02 -9.30426642e-02 +4.73490149e-01 -1.08854234e-01 +9.74922776e-02 -2.40124673e-01 -3.71340178e-02 +3.16801757e-01 -2.92588584e-02 -9.20958351e-03 -4.34417501e-02 -1.12233773e-01 +1.26153324e-02 -1.13215512e-02 +2.95794606e-01 +1.84891939e-01 -3.84898251e-03 -9.75197852e-02 -5.18101081e-02 +1.61968824e-02 +8.35620314e-02 -1.65999979e-01 +5.75910732e-02 -4.70063798e-02 -2.42047310e-01 -4.08825785e-01 -3.41658443e-02 -1.25745252e-01 +3.31642658e-01 +7.01171681e-02 -6.00136936e-01 +4.35596891e-02 -2.81518474e-02 +8.28527361e-02 +3.39233577e-01 -1.35734111e-01 +8.36018920e-02 -3.51137191e-01 -7.46362433e-02 +2.36002337e-02 +4.24501210e-01 +4.55289818e-02 +1.36068434e-01 -1.50203347e-01 +9.03916210e-02 -7.66667426e-02 -1.43826440e-01 -7.77582964e-03 -6.41953647e-02 +3.24920304e-02 -3.39683652e-01 -2.71043122e-01 -5.70230782e-02 -1.00238360e-01 -2.96663672e-01 -1.84661448e-01 -1.54481620e-01 -3.32270056e-01 -2.52325445e-01 +1.48641944e-01 -3.50131810e-01 +4.59442586e-01 +4.96116817e-01 -4.80726600e-01 -1.56601042e-01 +1.52638957e-01 -2.82206059e-01 +3.95624079e-02 -2.57211700e-02 +3.14726770e-01 +2.57555842e-01 +3.93037796e-02 -5.95316887e-02 +2.61357166e-02 -1.60402730e-01 +1.11969166e-01 +1.61427423e-01 +3.42846990e-01 +7.27492152e-03 +2.29896799e-01 +1.86836109e-01 +5.04264772e-01 -1.93635464e-01 +6.32992625e-01 -4.68114316e-01 -3.00059825e-01 -1.07311353e-01 -2.25022376e-01 -5.16319126e-02 -8.39559138e-01 -1.28928766e-01 -4.17205721e-01 +3.08209062e-01 -3.75275373e-01 -9.97182056e-02 +1.87753379e-01 -2.00874973e-02 +4.91965637e-02 -1.01064704e-01 -1.37018323e+00 -1.39682844e-01 +1.32117763e-01 -3.05404961e-02 +7.41211951e-01 +1.20576352e-01 +6.61081016e-01 -1.78537786e-01 -1.03777684e-01 -2.29239821e-01 +3.09114426e-01 +4.59917963e-01 -3.50391977e-02 +8.04081917e-01 -1.63876101e-01 +1.30524731e+00 -3.14443141e-01 -1.77611798e-01 +4.60765213e-01 -9.25874710e-02 +9.28905308e-02 -4.21454906e-02 -3.00188273e-01 +1.44164087e-02 +2.76479661e-01 +1.67377621e-01 +4.22357917e-01 +4.03234139e-02 +1.01394966e-01 +6.86225355e-01 +1.13929525e-01 -2.09130067e-02 -5.14682591e-01 -1.44571394e-01 -1.96091726e-01 -1.65708363e-02 -3.04210395e-01 -3.08917463e-01 -3.75708900e-02 +8.09209228e-01 +2.99777031e-01 +1.45519562e-02 -1.17681073e-02 +7.16538653e-02 -2.18298420e-01 -4.38740738e-02 +1.78211406e-02 -1.57684118e-01 +4.67049293e-02 -8.62421691e-02 +1.98459819e-01 -1.69775471e-01 -7.29229525e-02 -1.20991275e-01 -1.25984028e-01 -5.16573153e-02 +3.47413599e-01 -2.48428121e-01 +1.34297669e-01 +2.15149015e-01 +3.97883430e-02 -1.46621317e-01 -1.81420669e-02 -2.38469001e-02 +4.45888281e-01 +3.53332460e-01 +5.87104201e-01 +3.36591512e-01 +2.22622246e-01 -5.65267682e-01 -3.97475734e-02 +3.43868323e-02 -1.87076971e-01 -7.77030271e-03 -1.59609705e-01 -8.51298273e-02 +3.83890957e-01 -1.93711013e-01 -2.07265932e-02 -9.61414129e-02 -2.33556777e-01 -1.62887990e-01 +6.01906236e-03 -1.49484903e-01 -1.98916718e-01 -1.24065839e-01 +1.76502243e-01 +2.73233354e-01 +3.61128867e-01 -1.19539335e-01 +3.50665271e-01 +4.23120856e-01 +3.87217999e-01 -1.22421905e-01 -6.26349822e-02 +3.38782370e-02 +4.22562033e-01 +3.11157107e-01 +2.37172902e-01 +4.14171249e-01 +1.21349007e-01 -5.78519292e-02 +1.30487839e-02 +1.41578987e-01 +2.06527844e-01 +4.25093383e-01 +1.19603306e-01 +8.12482417e-01 -3.08493823e-01 -2.84903973e-01 +7.33165592e-02 -9.20242891e-02 -3.33942413e-01 -2.44653836e-01 +4.93698150e-01 -3.68344843e-01 -6.39598787e-01 -9.27305147e-02 -1.28508544e+00 -4.54146773e-01 -6.18527271e-02 +3.57695431e-01 -2.07814112e-01 -1.01677525e+00 -3.79057497e-01 -2.44693562e-01 +7.57956743e-01 +1.92092389e-01 -2.14476633e+00 +2.73970425e-01 -4.51882929e-01 -1.65795818e-01 +3.05886924e-01 -5.12006938e-01 +4.13820982e-01 -8.99128199e-01 +5.80752343e-02 +3.83884668e-01 +2.86525041e-01 +2.88099378e-01 -1.79697320e-01 +1.20595232e-01 +2.67243475e-01 +4.94778275e-01 +5.77583671e-01 -9.72590074e-02 +3.99708748e-01 -2.51581669e-01 +3.33047926e-01 +2.62699902e-01 -6.22804403e-01 +4.47022282e-02 +3.97096843e-01 +1.27373546e-01 +1.06395699e-01 -2.39767954e-01 +1.12345196e-01 -3.94934893e-01 -7.64967576e-02 -5.08504212e-01 -6.56859159e-01 +7.21756592e-02 +1.08246937e-01 -4.83958781e-01 -1.50744855e-01 -5.34264520e-02 +3.55877548e-01 +2.66309649e-01 +2.84627140e-01 +1.54941693e-01 +2.08655223e-02 -2.99375087e-01 +1.51857257e-01 -6.54728711e-02 +8.93207863e-02 +7.41495611e-03 +4.15055901e-02 +3.06055360e-02 +6.59705922e-02 +8.75654817e-02 -5.61228720e-03 +1.07622020e-01 +1.72802135e-01 +1.65804699e-01 +6.74518272e-02 -1.62804261e-01 -1.36354089e-01 +2.44586781e-01 -1.64869845e-01 -1.22729351e-03 +8.12989622e-02 -2.91020781e-01 -7.97616038e-03 -5.08635938e-02 +2.30459943e-01 +1.78589642e-01 -1.67102158e-01 -1.22767583e-01 -1.61795378e-01 -1.10414669e-01 -1.51666939e-01 +3.61247778e-01 -2.69427419e-01 -2.67707974e-01 +1.01541057e-01 -5.97345866e-02 +3.36960405e-01 +1.84436683e-02 +3.06027215e-02 -1.90651998e-01 -1.21699333e-01 -2.26466820e-01 -5.03321625e-02 -3.36103499e-01 -4.93499450e-02 -3.55140150e-01 -1.48191050e-01 -2.41993427e-01 -3.59176308e-01 +2.39338145e-01 +4.54523891e-01 -1.93232328e-01 +6.05355859e-01 +2.79130429e-01 -1.00792535e-01 +1.74915120e-01 +5.28995037e-01 +5.77459857e-02 -2.99157619e-01 +4.72170711e-01 -3.73839587e-01 +4.07171875e-01 +5.34167327e-02 +2.38119021e-01 +2.77731538e-01 -3.33010852e-02 -2.43751749e-01 -3.29040587e-01 +5.60251057e-01 +5.91064580e-02 +2.46451393e-01 -2.02705473e-01 +5.82800329e-01 -1.01928949e+00 -7.46387959e-01 +1.24049097e-01 -5.71904421e-01 +1.01129800e-01 +6.48235202e-01 +7.65573144e-01 +9.24386755e-02 +3.82933058e-02 +5.03552318e-01 +3.42267334e-01 +5.76741517e-01 -7.89364159e-01 -6.21353425e-02 -1.82294518e-01 -8.23640674e-02 -6.55366302e-01 +3.09233636e-01 -1.02700867e-01 +6.39088869e-01 -1.05340517e+00 +1.95567504e-01 -4.36777622e-01 -4.50643785e-02 +5.46061993e-01 +3.54551286e-01 -2.67406315e-01 -5.24246283e-02 +4.27150339e-01 +6.55231357e-01 -7.35070556e-02 +1.10651784e-01 -1.47950768e-01 -1.01813912e-01 -3.66839170e-01 -3.02792102e-01 +1.03433039e-02 +3.48068237e-01 +5.23752570e-02 -5.74189983e-02 +3.39360803e-01 +9.20950994e-02 +3.50671023e-01 +1.02490641e-01 -2.79863864e-01 +5.29668331e-01 -4.23313715e-02 +3.05518270e-01 -1.28940240e-01 -4.29978490e-01 +1.06277633e-02 +9.21754837e-02 +1.70527771e-02 -4.92698140e-02 -4.98999171e-02 -8.02217424e-02 -7.09813014e-02 +2.38396619e-02 +6.97592348e-02 -3.16845030e-02 -1.89643189e-01 -3.03683907e-01 -1.11827865e-01 +9.22338068e-02 +3.04249045e-03 +6.72958568e-02 +3.97985756e-01 +1.52194770e-02 +2.54450619e-01 +2.27031350e-01 -4.51402187e-01 +1.25469863e-02 +3.05572569e-01 -3.01339310e-02 -1.72328711e-01 -3.84483971e-02 -1.31572187e-01 +1.09350190e-01 -4.75542955e-02 -1.20360397e-01 +2.05451429e-01 -9.30407643e-02 +6.68583959e-02 -7.44017437e-02 -3.29311371e-01 +4.61091287e-02 +5.89868605e-01 +8.33029374e-02 +1.43116429e-01 -7.40249529e-02 +6.30433559e-02 +1.32995725e-01 +3.47395360e-01 +6.97655678e-02 -3.64717050e-03 -1.56095466e-02 +3.14997346e-03 +1.11981772e-01 +2.90063351e-01 +5.20981364e-02 +1.88512683e-01 -4.01888072e-01 +1.98871389e-01 -8.93818796e-01 -4.99961555e-01 +2.89163738e-01 +4.33263294e-02 -9.50475261e-02 +2.68612444e-01 -1.20308556e-01 +4.32068743e-02 +2.12770417e-01 -4.17654008e-01 -3.94007176e-01 +2.13494733e-01 -3.51662338e-01 +4.52841371e-02 -1.33440644e-01 +1.05181828e-01 -1.01033367e-01 -3.09264451e-01 -7.01050460e-01 +1.34975225e-01 +1.31115448e-02 -6.10621385e-02 -3.56450051e-01 +2.99208194e-01 +6.00212574e-01 +3.36969309e-02 +2.05310151e-01 +2.65429467e-01 +5.67496538e-01 +3.11028868e-01 +5.61726332e-01 -1.78719923e-01 -7.65634980e-03 +6.71576560e-01 +1.75049144e-03 +1.19907148e-01 +1.30716696e-01 +7.02433288e-02 +1.36182380e+00 -1.58922851e-01 +8.15608203e-02 +1.53329477e-01 -4.97943424e-02 -6.67710900e-02 -4.34730113e-01 +4.51812953e-01 -4.86268476e-03 +9.44959819e-02 -7.19504356e-01 -6.05425596e-01 -3.25894058e-01 -2.80859143e-01 +4.10179406e-01 -1.04477942e+00 +4.19580527e-02 +2.19435722e-01 -6.86418056e-01 -2.92508334e-01 -1.07524462e-01 +1.34084046e-01 +6.02955163e-01 +1.65124059e-01 -3.18789601e-01 -3.21827739e-01 -1.38423413e-01 -1.13804825e-01 +4.38872039e-01 -3.10049683e-01 +2.46382654e-01 +4.59700614e-01 +6.66065574e-01 -2.11853385e-02 -1.00232743e-01 +1.59473158e-02 -9.84577537e-02 +7.33579770e-02 +6.40340969e-02 -5.38453758e-01 -1.30046785e-01 -3.97421196e-02 +3.30067165e-02 +1.67066664e-01 +3.59978765e-01 +1.72265053e-01 