#Parameter# /vanilla-lstm-builder/_0 {128,64} 131073 ZERO_GRAD
-1.60016671e-01 -2.94002295e-02 +1.54426977e-01 -3.38085949e-01 -1.00507736e-01 +1.40206128e-01 -3.91695291e-01 +3.52906585e-01 +1.76907614e-01 -3.33373129e-01 -2.82072604e-01 -4.03346241e-01 -4.08772349e-01 -1.10218085e-01 +6.24434412e-01 -5.71348928e-02 -2.69281298e-01 +2.85616994e-01 +4.88501303e-02 +2.01003090e-01 -3.17249298e-02 +2.39213675e-01 +5.22648752e-01 -1.72089875e-01 -7.92293698e-02 +2.26138741e-01 +1.73885107e-01 +4.91201617e-02 +2.72713453e-02 +1.26757408e-02 -9.50285420e-02 -4.53176588e-01 -5.08558273e-01 +9.13203239e-01 +1.47585556e-01 -4.59168963e-02 -7.20133260e-02 +2.15051144e-01 +1.38715789e-01 +1.15199491e-01 -3.96815389e-01 -2.58731961e-01 -8.52887273e-01 -3.05572718e-01 +4.38117720e-02 -2.62292594e-01 -2.41449043e-01 -3.44464295e-02 +3.04880664e-02 +5.73797166e-01 +4.49001640e-01 +4.62847441e-01 +9.64654312e-02 +7.07402349e-01 -1.79423615e-01 +2.20435232e-01 -2.84518689e-01 -1.42675996e-01 -3.26085299e-01 -9.50867459e-02 +5.46001673e-01 -6.52631298e-02 +8.83038193e-02 +7.52787173e-01 -7.45590925e-02 -1.99012697e-01 +7.82588497e-02 -1.82741448e-01 +2.68273000e-02 +7.73542523e-02 +3.44822764e-01 +2.09518671e-01 +6.66446924e-01 -2.42256224e-01 -4.59531367e-01 -3.21334898e-02 +2.81707138e-01 +2.79188395e-01 +3.37966472e-01 -3.24703097e-01 +1.41963186e-02 -6.16715550e-02 +3.72285128e-01 +3.50629002e-01 +1.01206433e-02 +4.40757841e-01 -4.88170385e-01 +2.30246633e-01 +3.82076770e-01 -8.90020728e-01 -5.91332167e-02 -3.60905021e-01 -2.26771027e-01 +3.81774157e-01 -4.66962844e-01 +3.48331928e-02 +9.16680917e-02 +2.88523346e-01 -1.30754113e-01 +4.96362448e-01 -4.81858365e-02 +4.07219589e-01 +1.37444258e-01 +8.95349011e-02 +1.45490438e-01 -2.38898441e-01 -3.43783684e-02 -1.01866797e-01 +5.84908947e-02 -1.26451641e-01 +1.93226933e-01 -4.30727541e-01 -4.88501787e-02 -3.97902094e-02 +1.94172516e-01 -3.13885689e-01 +8.56723487e-02 +8.19526017e-02 +2.68545337e-02 +1.92718506e-01 -5.71298972e-02 +1.84482455e-01 +1.44699916e-01 -1.55329794e-01 -3.08744192e-01 +8.24573040e-02 -1.98801309e-02 -1.07183168e-02 +2.90634809e-03 -5.29241681e-01 -3.23273659e-01 +7.40273744e-02 +2.02962860e-01 +1.69110224e-01 -7.84393102e-02 +3.00136805e-01 +4.17094618e-01 +9.81691033e-02 -6.78447727e-03 -6.33675233e-02 -4.50532615e-01 +8.72726515e-02 +1.88554958e-01 +9.58102793e-02 +6.77194968e-02 -4.22072679e-01 +8.52124169e-02 +2.26555422e-01 +3.25383931e-01 -3.67165059e-01 +1.00425377e-01 -2.71929175e-01 +1.59273017e-02 -2.03131661e-01 -1.08622059e-01 -6.14300847e-01 +1.10653773e-01 +1.80106714e-01 -3.49250913e-01 -2.27795348e-01 -4.68434215e-01 +1.34667560e-01 -3.04777354e-01 +1.72480837e-01 -2.63255924e-01 -2.07627550e-01 -3.18219453e-01 +6.80490956e-02 +1.11801259e-01 +8.77543986e-02 -1.00011928e-02 +1.62863135e-01 +2.08046764e-01 -1.12172985e+00 -8.06056634e-02 -8.39457512e-02 -2.96485305e-01 -2.99497128e-01 +2.20262408e-02 -3.21934491e-01 -1.69412922e-02 -2.79547386e-02 -2.24775840e-02 +5.14870405e-01 -1.37218907e-01 -6.08402967e-01 +1.96052894e-01 +3.43876809e-01 +2.22040072e-01 +1.43600494e-01 -2.39414126e-02 +1.30515103e-03 -8.78300428e-01 -6.87289298e-01 -6.19674206e-01 +2.10296109e-01 -6.21804953e-01 -4.37410116e-01 -6.13134086e-01 -2.54853487e-01 +2.12329715e-01 -3.62698227e-01 +7.56475180e-02 -1.02181546e-01 -2.31316939e-01 +5.71041666e-02 +5.47922790e-01 -3.55422199e-01 -4.22567070e-01 -1.64867401e-01 -2.54776254e-02 -4.43863004e-01 -1.81319201e+00 -1.31683290e+00 -3.47584367e-01 +1.30269662e-01 -6.09324932e-01 -9.66193557e-01 -2.53705502e-01 -2.71508783e-01 -3.98864709e-02 -5.76777399e-01 -3.89701009e-01 +1.36383101e-01 -1.40854381e-02 +2.31462270e-01 +5.02383187e-02 -1.83015727e-02 -2.94678897e-01 -1.96960494e-01 -1.57261826e-02 -3.79831605e-02 +1.64754674e-01 +1.38460204e-01 -1.41987473e-01 -3.86802591e-02 -1.22284718e-01 +1.60695165e-01 -1.76168129e-01 +6.83303401e-02 +9.91274491e-02 -1.66426525e-01 -1.24413371e-01 +1.95150748e-02 -2.59555370e-01 -2.39055585e-02 -7.05992803e-02 +1.66524082e-01 -6.82840869e-02 +1.38120860e-01 -1.94324665e-02 +3.03533915e-02 +2.09290758e-01 -2.55757809e-01 +9.66856852e-02 -2.51649618e-01 +2.30542555e-01 -5.00394225e-01 -7.24449575e-01 +1.56476781e-01 +2.39779159e-01 +3.02992076e-01 -4.06157374e-01 +3.48665267e-02 +4.00538594e-02 +2.59926707e-01 -8.16783667e-01 -5.61531663e-01 -1.05552900e+00 +5.69278263e-02 -1.03575028e-01 +1.80819541e-01 -1.38395965e-01 -3.63900423e-01 +1.31063312e-01 +1.69619650e-01 +2.53122598e-01 -3.57293904e-01 -1.77794024e-01 +2.42027760e-01 +1.65084600e-01 +5.04396781e-02 +2.17924103e-01 -5.33389002e-02 +2.24173069e-01 +2.13500261e-01 -1.52564898e-01 -4.77955699e-01 -4.07820314e-01 +4.22982424e-01 -3.53950530e-01 -2.29751512e-01 -7.02088118e-01 -4.85195935e-01 -3.31667900e-01 -4.17138636e-01 +2.72971839e-01 -5.50963655e-02 +1.62283584e-01 -1.16859056e-01 +6.56882524e-01 -1.37971878e+00 -2.03386724e-01 -1.97395831e-01 -2.27920055e-01 -5.40420532e-01 +9.58551541e-02 -1.53429553e-01 -1.95975691e-01 -1.24314226e-01 -5.65075994e-01 +8.19826126e-03 -3.76459628e-01 -2.88619220e-01 +1.00584611e-01 +5.81877641e-02 -9.94991064e-02 +1.96829042e-03 +2.76261836e-01 -2.97937598e-02 -1.96696565e-01 +4.40735966e-02 -2.20333323e-01 +2.15761587e-01 -8.41156363e-01 -1.15332544e-01 +1.99493095e-02 -3.61339271e-01 -5.20039275e-02 -8.10050592e-02 +1.68421656e-01 -1.68758675e-01 -2.42295042e-01 -2.54202336e-01 +2.55233735e-01 +8.39220881e-02 -5.49334466e-01 -7.72016883e-01 -4.37757581e-01 -4.55675572e-01 -8.35427463e-01 -3.52686077e-01 -2.48713598e-01 +3.68030339e-01 -1.57752186e-01 -5.93678117e-01 -1.57745078e-01 -2.94935256e-02 +4.97596152e-02 -4.19364393e-01 -2.56244689e-01 -2.25696161e-01 +8.14020410e-02 -2.80129779e-02 +1.00299962e-01 +1.44146636e-01 +1.77345574e-01 -3.12693834e-01 +1.41309544e-01 -2.67055362e-01 +3.73294890e-01 +1.49317145e-01 +5.64915985e-02 +6.60658404e-02 -2.06013713e-02 +5.95006272e-02 -6.26409590e-01 -6.03905544e-02 +1.03783682e-01 -3.77798438e-01 -1.27215877e-01 +7.06129149e-02 -1.01038255e-01 +1.24871300e-03 +8.43297038e-03 -5.17553650e-02 +1.05247401e-01 +7.86620528e-02 +8.66594240e-02 +2.22037748e-01 -1.07493527e-01 +1.17599115e-01 -4.80680987e-02 -2.85558581e-01 +7.05800205e-02 +8.57695639e-02 +2.15764239e-01 -1.72214597e-01 -9.19345766e-02 +5.56960776e-02 +1.87049787e-02 +8.89248252e-02 -4.90317196e-01 -2.69329399e-01 -4.79383245e-02 +1.12911880e+00 +4.96467322e-01 +7.00550377e-02 +6.99328259e-03 +1.81534231e-01 +7.66003057e-02 +2.06997171e-01 -3.75250354e-02 -1.70261800e-01 -2.03607082e-01 +1.06004633e-01 +4.98966649e-02 -9.44544154e-04 -2.46849582e-01 -6.47722185e-01 +2.29930401e-01 -1.26796246e-01 +1.67029008e-01 -1.09168731e-01 +2.85949796e-01 +3.29155952e-01 +6.21981502e-01 -5.91405869e-01 +2.33619306e-02 -3.79810259e-02 +3.66279900e-01 -5.27974904e-01 +2.20373705e-01 +6.61746621e-01 +1.06120132e-01 +1.63833439e-01 +1.79028854e-01 +3.40055108e-01 -3.35091889e-01 +8.89174461e-01 -7.38758028e-01 -2.64842302e-01 +4.58512306e-01 -3.25849861e-01 -2.14672074e-01 -2.71473616e-01 +6.99142367e-02 +4.15454984e-01 +9.64168549e-01 -9.43650603e-02 +8.47995758e-01 +2.38958284e-01 +5.83526969e-01 +2.30038494e-01 -4.70603183e-02 +1.09319173e-01 +3.86148125e-01 +1.49512991e-01 +3.39514464e-01 +2.21728116e-01 +1.88490614e-01 +2.39163160e-01 +3.50525647e-01 -9.29326490e-02 -2.62526363e-01 -2.84782588e-01 -2.54043162e-01 +8.94963369e-02 -5.56985177e-02 +1.87531620e-01 +9.38975811e-02 +4.19363111e-01 -8.29946846e-02 -6.10018559e-02 +3.17187570e-02 +3.46458964e-02 +5.01619792e-03 -2.41219867e-02 +3.18201661e-01 -2.25443572e-01 +1.04850066e+00 -1.06193319e-01 +1.53736278e-01 +1.03479242e+00 +1.97172225e-01 -8.95208418e-02 +2.59530172e-02 +1.20489031e-01 +2.24155590e-01 +1.62072077e-01 -4.19779830e-02 -3.14278379e-02 -2.19535246e-01 -4.00604129e-01 -8.38870034e-02 -2.48484969e-01 -2.81865690e-02 -3.01803887e-01 +7.68965632e-02 +3.16859245e-01 -1.07893787e-01 -8.90040621e-02 -2.92185843e-01 -1.27719432e-01 +1.97708443e-01 +1.33554623e-01 -1.55205235e-01 +4.71408330e-02 +1.19148336e-01 +1.52907688e-02 -9.84264910e-02 +1.18404135e-01 +1.05931811e-01 -2.31907398e-01 -1.85361952e-02 -2.35977754e-01 +4.12353128e-02 -3.89411032e-01 +1.23436913e-01 +3.23534035e-03 +4.47126508e-01 +4.33700442e-01 -2.56153762e-01 +1.75274804e-01 +4.15514320e-01 -2.28821471e-01 -5.10330975e-01 +1.14708908e-01 +9.96691138e-02 -2.32237056e-01 -2.46436864e-01 -8.00677896e-01 +5.06402791e-01 +1.55904457e-01 +4.09392625e-01 +4.10564803e-02 -1.51243731e-01 -1.62662193e-01 +1.02261499e-01 -1.02982700e-01 +1.80481881e-01 +3.97285167e-03 -2.11708039e-01 +3.77622724e-01 +5.94293237e-01 +5.34853414e-02 -4.03942049e-01 -6.47857711e-02 +2.25314677e-01 +4.44121547e-02 +2.88877249e-01 -8.30039978e-02 +3.41149062e-01 +7.79391944e-01 +3.17975491e-01 +1.86884254e-01 +3.42915773e-01 +1.00598119e-01 +6.51406586e-01 -5.85324615e-02 +1.98524445e-01 +1.03728168e-01 +2.99277697e-02 -8.47438350e-02 -2.53042608e-01 +1.41005248e-01 -5.26901782e-01 +9.18309212e-01 -2.66338855e-01 +2.06459574e-02 -1.98814735e-01 +7.52706602e-02 -7.04550138e-03 -2.31411755e-01 -1.19017493e-02 +1.08271360e+00 +4.84945118e-01 +6.83036745e-01 +5.98005354e-01 +3.88002276e-01 +4.66393799e-01 +1.65044934e-01 +2.83116341e-01 -2.79561318e-02 -2.25019202e-01 +1.55565262e-01 +2.35623375e-01 +3.38797003e-01 +8.84167477e-02 +4.87297446e-01 +1.10264301e+00 +1.29858434e-01 +2.49876961e-01 +2.42377520e-02 +1.58925354e-01 +1.15943782e-01 -4.06757563e-01 +1.35721302e+00 +3.58302623e-01 +8.34406763e-02 -5.00196815e-01 -3.68881896e-02 +9.50405478e-01 +1.00394040e-01 +2.13014707e-01 -3.69733453e-01 +9.23815846e-01 +3.83879095e-01 +5.21330655e-01 +1.33592486e-01 +2.94866692e-02 +7.45578349e-01 +2.01610953e-01 +3.06291319e-02 +3.32123697e-01 +1.24680325e-01 +4.33342636e-01 +3.46008241e-01 -1.11751348e-01 +4.70257878e-01 -4.40671504e-01 +1.49961710e-01 -1.31192565e-01 +1.65095672e-01 -7.06138313e-02 -1.66339725e-01 +6.21210365e-03 +6.68392897e-01 +8.52615088e-02 -1.74262106e-01 -7.92155623e-01 -6.34862185e-02 +1.40263081e-01 -3.69781777e-02 -5.90562038e-02 +2.09892184e-01 +3.87024671e-01 +3.25189643e-02 -2.22399265e-01 +1.44270174e-02 -2.83679012e-02 -3.95125836e-01 -2.10308284e-01 -7.73654059e-02 -2.82697491e-02 -2.94391960e-01 -2.78310524e-03 +2.03957245e-01 +1.28486499e-01 +8.58768895e-02 -2.91196406e-01 -6.68751374e-02 +3.15738767e-01 -6.13290481e-02 +6.22071885e-03 +1.17422812e-01 +1.71512723e-01 -1.59103051e-01 +1.03995934e-01 -5.69258690e-01 +8.42965022e-02 -5.32373078e-02 +7.33785629e-01 -4.81481254e-02 +2.39838883e-01 -5.17184958e-02 -3.76534969e-01 +6.74299121e-01 +3.06180073e-03 -2.88304910e-02 -3.63526970e-01 +3.85039598e-02 +4.51846123e-01 -4.06240016e-01 -2.21156269e-01 -2.24256098e-01 -1.11014411e-01 +4.98348027e-02 +1.65224135e-01 +1.07542530e-01 +6.69114351e-01 -1.70690477e-01 +5.01054525e-01 -2.96083599e-01 +9.65278149e-01 +3.44853461e-01 +5.23957610e-01 +1.38084725e-01 +1.06994212e+00 +1.11392725e+00 -3.73538941e-01 +3.53077650e-01 -1.06867597e-01 +4.08254296e-01 -1.94384992e-01 +4.94038671e-01 -1.64617464e-01 -1.08540609e-01 -4.38425839e-01 +1.87135339e-01 +4.84523922e-03 +7.64061511e-02 -2.11558133e-01 +2.35126972e-01 +4.38507885e-01 +6.21226192e-01 +4.06014174e-01 +4.56421673e-02 +7.45662972e-02 -1.67178169e-01 +9.19759050e-02 +6.58525974e-02 -9.70553398e-01 +2.13852501e-03 -8.20682272e-02 -3.13003451e-01 -2.56253928e-01 -1.19958185e-01 +4.01748270e-01 -3.41071874e-01 -2.82596767e-01 +1.50678575e-01 +3.50467235e-01 +2.30745971e-01 -1.21206611e-01 +5.36884069e-01 +3.23844194e-01 +1.16139650e-01 -3.83339226e-01 -8.61080959e-02 +8.92237961e-01 +1.45331562e-01 -4.90649164e-01 +3.60120237e-01 +4.47582722e-01 +2.60465473e-01 +1.50845364e-01 -2.05919847e-01 -1.82343289e-01 +9.98847663e-01 -1.05630029e-02 -7.57945776e-02 +3.16087641e-02 -2.06473827e-01 +1.97879106e-01 +1.17202394e-01 -2.74627786e-02 +1.86123714e-01 +6.75821975e-02 +4.71171066e-02 -2.92254865e-01 -4.37572971e-03 -1.36780873e-01 +2.65873492e-01 -2.80997723e-01 +1.73625261e-01 +2.67796993e-01 -2.36435711e-01 -6.15987837e-01 +1.25166491e-01 +3.90947223e-01 +8.43402445e-02 +2.48238593e-01 +3.08167636e-01 +1.35251597e-01 +9.33909714e-02 +4.53604795e-02 -8.27424303e-02 -2.17471868e-01 -4.24725860e-02 -5.68940997e-01 +3.03787589e-01 -2.05643736e-02 -2.23648790e-02 -2.97814520e-04 -3.22650671e-01 -1.84923872e-01 -3.55199836e-02 -3.91483277e-01 +3.01283240e-01 +5.52819490e-01 +2.50899374e-01 -3.07186246e-01 -1.90313999e-02 -4.42604482e-01 -7.41055906e-02 +3.84888530e-01 -4.76403654e-01 +3.62179498e-03 +1.82712629e-01 -3.41045499e-01 -1.29135968e-02 -2.28929728e-01 -2.72210613e-02 +3.25819999e-01 +2.11714938e-01 -2.03210041e-01 -2.86256820e-01 +5.23386374e-02 +3.23647887e-01 -1.72888115e-01 +4.97214586e-01 +3.35054427e-01 -4.24979895e-01 -4.22059417e-01 +7.88190775e-03 -1.35006264e-01 +2.58163244e-01 -5.56227267e-01 -8.52786958e-01 -4.09564137e-01 +3.02777290e-01 +5.86492777e-01 -3.56365442e-01 +2.72317022e-01 +3.19798179e-02 -2.00769275e-01 +2.90249765e-01 -8.96766111e-02 +3.71693522e-02 +4.00504202e-01 -4.68591183e-01 -4.71381038e-01 -9.31974733e-04 -3.57290953e-01 -7.62833357e-02 -2.49603182e-01 +2.01413244e-01 -2.98663944e-01 +2.41708100e-01 +1.49752796e-01 +4.32640344e-01 +4.46774364e-01 -1.81080788e-01 -6.31992817e-01 +6.61449611e-01 -2.56248325e-01 -2.77412891e-01 -6.01252634e-03 -4.80201215e-01 -1.58152133e-01 +1.79307282e-01 +1.28357068e-01 -8.35295543e-02 -8.18592310e-02 -6.67799592e-01 +3.54892351e-02 -2.61822432e-01 +4.13409889e-01 +5.18014014e-01 +2.71574855e-01 +2.95192152e-01 +5.05753160e-02 -2.32874975e-01 -5.59053831e-02 -1.11718684e-01 -2.72521734e-01 -3.90578550e-03 -2.24675369e-02 +5.55306911e-01 -1.11931585e-01 +1.36164920e-02 +3.07499021e-01 +7.31547832e-01 +1.33810118e-01 -1.45930834e-02 +2.83471737e-02 -6.00774437e-02 +1.93677798e-01 -8.06226850e-01 +3.29476856e-02 +2.54441381e-01 +3.39351781e-02 -5.22849560e-01 -2.40365490e-02 -7.55193010e-02 -7.23954141e-02 +2.04190701e-01 -6.66300505e-02 -8.30590948e-02 -7.11205155e-02 +2.53415585e-01 -2.10329205e-01 -1.23950757e-01 -8.67370516e-02 +7.24753365e-02 +1.25286311e-01 -7.61539936e-02 +2.57768691e-01 -1.98750198e-02 -2.35438719e-01 -3.33881855e-01 -1.27183050e-01 +9.51775834e-02 +1.12855271e-01 +7.02649429e-02 +2.32685283e-01 -4.57120687e-02 +1.16133124e-01 +7.72133097e-03 -2.17633098e-01 -3.35913628e-01 +9.15360153e-02 +2.26970389e-01 -2.76179850e-01 -1.50061145e-01 +1.06667340e-01 +2.18260977e-02 +4.80204038e-02 +2.14902908e-01 +2.63585031e-01 -3.98845114e-02 +1.96357191e-01 -3.23349275e-02 +4.43229973e-01 -2.18838289e-01 -2.12246068e-02 +2.90955782e-01 +1.71106547e-01 -2.81266153e-01 -3.03668231e-01 -9.40955952e-02 +3.12838197e-01 -1.70507152e-02 -1.05785596e+00 +1.51251614e-01 -8.78963321e-02 +6.38124570e-02 +4.32848573e-01 +3.12770128e-01 +8.37637186e-02 +1.19247496e-01 -4.79598343e-01 -2.64720414e-02 -8.65865871e-02 +1.46915853e-01 -7.40530714e-02 +3.42542194e-02 -3.62770438e-01 -7.36189425e-01 +3.70894343e-01 -3.46186996e-01 +1.53433174e-01 -9.53091502e-01 -5.82250580e-02 -2.16781318e-01 +1.81594580e-01 +5.76988421e-02 +5.68371236e-01 -2.31760368e-01 -5.27972341e-01 +1.96652144e-01 +1.15920395e-01 -3.71446818e-01 -6.83157206e-01 +6.33162260e-02 -9.43154171e-02 +4.20414358e-02 -1.93691775e-02 +1.56950071e-01 +3.96326214e-01 -2.53817677e-01 +2.13980377e-01 +5.73773265e-01 +2.73683578e-01 -2.86974967e-01 +7.40704909e-02 -5.13758138e-02 -1.03904402e+00 -5.41292906e-01 +1.35934219e-01 +2.88829595e-01 -8.74758884e-02 +2.75569975e-01 -3.17917556e-01 -2.14151487e-01 -6.52022958e-02 +2.23729327e-01 -7.72771016e-02 +3.10199261e-01 +3.73993665e-01 -3.64586592e-01 -6.98576450e-01 -2.83454955e-01 -2.45085120e-01 +2.11072750e-02 -5.70036292e-01 -2.61502326e-01 -8.45438540e-01 -1.94176495e-01 -3.46648276e-01 +6.53844178e-02 +7.38890886e-01 -3.21263283e-01 -3.67904216e-01 +1.04276240e+00 -9.69838649e-02 -5.99256933e-01 +1.02150477e-01 -6.13188446e-01 +3.47139060e-01 -3.46395671e-02 -1.49517834e-01 -1.56954363e-01 -1.11738928e-01 -2.26010252e-02 +1.34645671e-01 -1.76040173e-01 -8.06214809e-02 -6.44451380e-02 -2.96448283e-02 +9.55656245e-02 +1.16907544e-01 +2.94381231e-01 +4.89143431e-02 +1.60681292e-01 -1.01086877e-01 +9.94120240e-02 +1.37247771e-01 -6.75795600e-03 -1.97843835e-01 +3.71251315e-01 -1.57168955e-01 +2.43724827e-02 +5.64001650e-02 -1.54537195e-02 +9.14471447e-02 -7.78447166e-02 -1.67085648e-01 +7.45872855e-02 +2.46409804e-01 +1.57289147e-01 -2.02476740e-01 -4.24624711e-01 -7.64994994e-02 -2.08604306e-01 +2.11911276e-01 -2.29785621e-01 +3.75326015e-02 +5.75455092e-02 +3.39639671e-02 -3.10465604e-01 -1.33259133e-01 -3.52830708e-01 +8.85374695e-02 -7.70296380e-02 +2.89903849e-01 -4.60859060e-01 -3.51784863e-02 +8.69868975e-03 +2.66336232e-01 -3.44394773e-01 -1.58218313e-02 +1.53648719e-01 -2.73396701e-01 +9.35341194e-02 +5.13033032e-01 -2.50821024e-01 -2.40539461e-01 +1.23918042e-01 -8.37923773e-03 -1.11377992e-01 +2.54476279e-01 +4.95878644e-02 +3.09774846e-01 +3.44933778e-01 +1.06591649e-01 -2.56193727e-01 +3.47107351e-01 -2.05212340e-01 +2.14906693e-01 -1.92783862e-01 +1.29506394e-01 +5.19361615e-01 +1.84972242e-01 -6.94947913e-02 -1.21528737e-01 -4.80449609e-02 -2.66357422e-01 +1.16905548e-01 +2.30411232e-01 -6.56334311e-02 -5.65731049e-01 -2.28439271e-01 -1.43965736e-01 -7.86881596e-02 +3.88252139e-02 -3.58866490e-02 +1.11662760e-01 +9.25207019e-01 +2.74772435e-01 -3.14533003e-02 +4.18949157e-01 +3.51435691e-01 +1.57604739e-01 +2.87669171e-02 -1.09527838e+00 -2.19183251e-01 -3.22377622e-01 -3.05969894e-01 -5.30475974e-01 +5.10106504e-01 +2.49892414e-01 -4.11669821e-01 -3.08543533e-01 +3.20642054e-01 +2.54971832e-01 -1.40387900e-02 -1.49162680e-01 +8.46754670e-01 +3.21182519e-01 -9.45832133e-02 -1.70318738e-01 -1.32388592e-01 +4.40978378e-01 +4.00766701e-01 -1.59108832e-01 -2.15996340e-01 +2.34011114e-01 -1.68131694e-01 +1.88730389e-01 +7.51195401e-02 -1.06156334e-01 +1.54999495e-01 -4.35126759e-02 -4.15979505e-01 +7.03021705e-01 -1.61617801e-01 +3.92272919e-01 +3.54054719e-01 -6.28437027e-02 +3.29433173e-01 -1.24475189e-01 +8.35269094e-02 -2.47822672e-01 +2.65941210e-02 -2.91179121e-01 +1.02784447e-02 -8.78258273e-02 +1.91428259e-01 +9.87092778e-02 -2.29682431e-01 -6.35531545e-01 +1.43176138e-01 +9.14236009e-02 +1.10341683e-01 +2.32441902e-01 +1.20191187e-01 +9.06261429e-02 +1.15199417e-01 -1.00622386e-01 +1.87332612e-02 -1.85219347e-01 +2.04270724e-02 -3.99257690e-01 +2.06103668e-01 -1.12323739e-01 -2.17355248e-02 +9.69115719e-02 -1.44647181e-01 -8.99541155e-02 -2.13819399e-01 -3.34268749e-01 +2.41818413e-01 -2.09627543e-02 -2.34032497e-02 +1.15272306e-01 -2.65779436e-01 +5.25587618e-01 -1.26858532e-01 -1.27872992e-02 +5.27314320e-02 -2.67261922e-01 -7.14841932e-02 +1.31256148e-01 +3.68949831e-01 -1.38056770e-01 -1.28515482e-01 -1.44362018e-01 +1.47236511e-01 -3.83614063e-01 -1.89909264e-01 -4.79766816e-01 +2.78353021e-02 -8.51008743e-02 -1.13018878e-01 -1.58084065e-01 +7.14090317e-02 -2.47650847e-01 +2.50915051e-01 -1.30378902e-01 -2.09469780e-01 +7.38446414e-01 +2.64688522e-01 +1.58601731e-01 +2.20247015e-01 -3.97826917e-02 -1.53877258e-01 +4.85921174e-01 +4.83701658e-03 +1.25807881e-01 -2.35120639e-01 -6.04590625e-02 +2.98722088e-01 -7.39201546e-01 -6.48757100e-01 -5.28940082e-01 +5.08934796e-01 -2.51087904e-01 +1.97864026e-01 +1.43356964e-01 -5.05053997e-01 -2.07390964e-01 +2.51080215e-01 -1.57731269e-02 +3.20512205e-02 -3.53783906e-01 -6.53816760e-02 -3.23943384e-02 +4.95843321e-01 +1.79273814e-01 -5.41105628e-01 -2.35259473e-01 +3.14321041e-01 -6.32377684e-01 +1.37165651e-01 +5.29735804e-01 +3.96071881e-01 +2.48052761e-01 +4.24342185e-01 +2.27048308e-01 +1.40838459e-01 +7.06193388e-01 +4.58059907e-01 +2.35394731e-01 -1.16098542e-02 +1.23107806e-01 -3.11966334e-02 -4.79559720e-01 +8.93243551e-02 -6.85409129e-01 +1.73182040e-01 +9.06752273e-02 -4.75386828e-01 -4.51497734e-01 +3.51789802e-01 +4.19099420e-01 +8.95925462e-01 +7.91288495e-01 -1.74443617e-01 +2.68934160e-01 +1.89303815e+00 -4.85676318e-01 -6.85011894e-02 +1.88569352e-01 +3.10571253e-01 +7.93508649e-01 -8.50344524e-02 -1.31689847e-01 -1.31291240e-01 +8.48287642e-02 -3.91767435e-02 +5.91370821e-01 +1.04686975e-01 -8.22257623e-03 +1.21283434e-01 -1.91484764e-01 +7.47712376e-03 +5.13762087e-02 +1.32387146e-01 +6.34227181e-03 -1.80410575e-02 -3.46018821e-01 -2.96117157e-01 +1.38653696e-01 +5.14904916e-01 +2.11486556e-02 +1.11535825e-01 +4.66207892e-01 +6.45400509e-02 +3.15101258e-02 -5.30301221e-02 -4.07894999e-02 -4.69119959e-02 +1.09788455e-01 +1.14440121e-01 -3.77273023e-01 +2.30363354e-01 -2.11067647e-01 -3.23936999e-01 +1.65873453e-01 +2.49054357e-01 +1.02091238e-01 +3.81616026e-01 -3.95603701e-02 +3.57810646e-01 -5.15192866e-01 -3.01084131e-01 -1.85255989e-01 -4.77964431e-01 -1.58608295e-02 -8.80558342e-02 -3.04984659e-01 -8.00901279e-02 -1.06834960e+00 -2.86666036e-01 -1.33060813e-01 +2.19143063e-01 -2.34056041e-01 +1.29583133e-02 -1.28243417e-01 +6.74129203e-02 -1.10444486e-01 +3.03146958e-01 +5.42448044e-01 -1.67648137e-01 +7.88111240e-02 +1.59225509e-01 -4.39595699e-01 +7.46552870e-02 -4.19216722e-01 +9.31454077e-02 -5.01055360e-01 -1.96854509e-02 +4.12767440e-01 -3.94219458e-01 -2.64647007e-01 -7.53841460e-01 -2.57242203e-01 -7.11135566e-01 +2.01663062e-01 +5.24132848e-01 +5.26670396e-01 -2.61750575e-02 +5.31467199e-01 +2.11313769e-01 -3.11799020e-01 +4.32160169e-01 -5.58988929e-01 +3.42229381e-02 -3.63329314e-02 -2.36129817e-02 -1.23338543e-01 +6.03486061e-01 +1.95619375e-01 -1.22638512e+00 -4.07695651e-01 +4.93352294e-01 -3.52401018e-01 -6.16956294e-01 -1.02570963e+00 -3.44634861e-01 +1.12639181e-01 -3.52239937e-01 -9.72758979e-02 +1.32576391e-01 +1.16512574e-01 -8.45154405e-01 -5.81288189e-02 +5.64978063e-01 +2.98623946e-02 -4.00341570e-01 -7.96466827e-01 +5.77481389e-01 +1.65590495e-01 -3.65677923e-01 -4.47019309e-01 -5.44252515e-01 +2.22549915e-01 -2.19255820e-01 -3.20175767e-01 -5.24303496e-01 -6.23126805e-01 -3.62093449e-01 +5.63526332e-01 +5.81767023e-01 -3.06695461e-01 +3.46467346e-01 +1.67730853e-01 +5.11823416e-01 +1.57905668e-01 -2.60770440e-01 -8.60745311e-01 +6.31138802e-01 -1.77063704e-01 -6.52819693e-01 +6.11082055e-02 -4.39528376e-01 -1.55084193e-01 -3.72846186e-01 +2.33193904e-01 -4.95073870e-02 +1.23547189e-01 -1.56352922e-01 -4.00852174e-01 +5.63271865e-02 +2.22709030e-01 +5.08314610e-01 +7.26663992e-02 +4.94870543e-02 +6.27904609e-02 +2.77109537e-02 -3.61040756e-02 -5.30539118e-02 -2.89074272e-01 -1.86044141e-03 -2.21763819e-01 -2.06441745e-01 +1.15130655e-01 -4.29567248e-01 +3.33927989e-01 -1.75511718e-01 +5.80511577e-02 +1.03704548e+00 +4.73611020e-02 +3.54508907e-01 -2.29239315e-01 +7.97619969e-02 -3.80036533e-01 -3.80508423e-01 +1.18827268e-01 -2.31962912e-02 +7.89516866e-02 -2.99047321e-01 +4.13797826e-01 -1.29322633e-01 +5.30630767e-01 +4.99935836e-01 +2.73004383e-01 +4.94067401e-01 -5.45339398e-02 +4.41672385e-01 +4.52056140e-01 +2.77133316e-01 +3.66965145e-01 +6.52691498e-02 +2.17521153e-02 -3.43082607e-01 +1.04196668e-01 +3.86959583e-01 +1.31843373e-01 -2.39760295e-01 +4.50788885e-01 +5.53442165e-03 -5.98991513e-01 -5.27830184e-01 +2.77555734e-02 +3.23424131e-01 +1.46767646e-01 -7.19428003e-01 +2.19315842e-01 -3.20206642e-01 +6.77304387e-01 +5.33565938e-01 +2.96006292e-01 +2.33823746e-01 +2.36390784e-01 +4.58450705e-01 +1.22249732e-02 -5.06982505e-01 +3.95228922e-01 -1.21063992e-01 -5.17885387e-02 -2.70790786e-01 -5.13166428e-01 -1.92715704e-01 +1.02056837e+00 -1.61724105e-01 -5.65185249e-01 +5.79414725e-01 -8.16845968e-02 -2.51665741e-01 +6.36468604e-02 +2.81933993e-01 -5.49670219e-01 -1.22709073e-01 +1.67439744e-01 +6.79372624e-02 -6.80528060e-02 +2.07815200e-01 +1.43541813e+00 +1.17310017e-01 +4.62542236e-01 -8.25326517e-02 -1.25756100e-01 -7.45328888e-02 -1.88933387e-01 -1.02986038e+00 +2.33455569e-01 +4.89880115e-01 +4.86165404e-01 +1.14414506e-01 -5.70116341e-02 -2.49867052e-01 -2.22507343e-02 +9.00220156e-01 -8.01941231e-02 +4.76470888e-01 +8.31256509e-02 +7.95389473e-01 +6.16602898e-01 +2.18874186e-01 -7.49132782e-02 -9.53559205e-02 +7.38587379e-02 -3.87889951e-01 +2.10491300e-01 +1.55050486e-01 +2.03073978e-01 -1.33389831e-01 +5.35063863e-01 -6.89039659e-03 -1.95862085e-01 +6.48760796e-02 +1.03163667e-01 +8.85019228e-02 +1.42818093e-01 +3.57985854e-01 -8.40575397e-02 -2.33334258e-01 -8.53491426e-02 +2.33369723e-01 -5.58118671e-02 -4.77924338e-03 -6.62526488e-02 -4.58211184e-01 +5.53301349e-03 -1.38997789e-02 +2.06087321e-01 +1.32327229e-01 -9.77836102e-02 -1.92214593e-01 -8.08220953e-02 -4.96017700e-03 +6.83147311e-02 +1.85795322e-01 +4.20002997e-01 +3.21212202e-01 +2.05593318e-01 -6.42258227e-02 -1.38029650e-01 -4.27761912e-01 +7.23025724e-02 -2.57122427e-01 +6.04182959e-01 -3.08572143e-01 +6.07988298e-01 +2.80940384e-02 -1.59216046e-01 +1.66260511e-01 +1.02559470e-01 -1.89885393e-01 +1.01377927e-01 -7.07619730e-03 -2.16844529e-01 +5.77920198e-01 +8.71914160e-03 -5.95095754e-03 -7.80966878e-01 +5.81115246e-01 -4.78664428e-01 +1.64085522e-01 +7.04531446e-02 -3.77797306e-01 -3.35801750e-01 +2.86387026e-01 +2.80013710e-01 -7.87536025e-01 -1.37153819e-01 +3.74475390e-01 +2.49236375e-01 +4.47180495e-02 +4.83850121e-01 -2.30536098e-03 +5.78676224e-01 -2.53379196e-01 +1.49517536e-01 +3.06198061e-01 -1.16990618e-01 +6.74539566e-01 -4.82251227e-01 -3.93345118e-01 -4.06842262e-01 -5.32708108e-01 -6.72489703e-01 -1.06847703e+00 +9.33276191e-02 -1.62274361e-01 -2.57912427e-01 -5.20138919e-01 +2.96463996e-01 -1.02304912e+00 -1.49284482e-01 -2.34574467e-01 +1.81716725e-01 -5.24504304e-01 -7.17291906e-02 +1.65146682e-02 +4.68024701e-01 -2.19372492e-02 -2.27792144e-01 -2.02654436e-01 -3.45100206e-03 +2.02800423e-01 -5.10615036e-02 -6.30819574e-02 -2.09979251e-01 +3.32526386e-01 +6.70910776e-01 +1.58778593e-01 +3.76425683e-01 +3.27299148e-01 +4.50657830e-02 +7.59442389e-01 -5.86466670e-01 +1.63182616e-01 +3.75879288e-01 -4.69286919e-01 -5.51732898e-01 -2.14168414e-01 +1.41221449e-01 -1.08410291e-01 -7.32141256e-01 -2.26818696e-01 -3.70487198e-02 -3.22727114e-02 -9.95946765e-01 -7.22209752e-01 -3.63750130e-01 -3.26125205e-01 -5.19428909e-01 +9.94831547e-02 +2.17107207e-01 +3.78267884e-01 +2.60787815e-01 -1.19493626e-01 -7.55358711e-02 +2.90823638e-01 +1.87957272e-01 -1.48357466e-01 -3.47756706e-02 +1.13943972e-01 -1.05167620e-01 -8.07345510e-02 -2.44178995e-02 -1.54501200e-01 +4.15261060e-01 -2.03885630e-01 +1.54575065e-01 -2.16394395e-01 +2.78627455e-01 +4.53359224e-02 -8.63681585e-02 +2.78880000e-01 +1.29023373e-01 -4.20465916e-02 -6.20821893e-01 +8.49578157e-03 +1.39890328e-01 -3.45271200e-01 -1.49832249e-01 +1.57189425e-02 -2.49449313e-02 -4.37494889e-02 +1.50600955e-01 -3.98407616e-02 +3.17296535e-01 -1.01350203e-01 -5.54445460e-02 +1.57749161e-01 -1.23559214e-01 +1.12638704e-01 +6.03303090e-02 +2.20901780e-02 -1.06339984e-01 -3.07390124e-01 -1.60749748e-01 +2.33215600e-01 -8.94423947e-02 +3.00180018e-01 +5.16038358e-01 -1.57018587e-01 -2.27808744e-01 +3.83011438e-02 +3.98386151e-01 +5.61487556e-01 +5.82146585e-01 -6.58002943e-02 +4.15283173e-01 +1.04919657e-01 +1.66465849e-01 -4.81274605e-01 +3.15322369e-01 -1.51600376e-01 -2.86563002e-02 -2.93857068e-01 +4.04703557e-01 -3.40731293e-01 -2.44633973e-01 -2.58867592e-01 +2.31027201e-01 -1.81085303e-01 +3.76634330e-01 -1.15067042e-01 +7.80994654e-01 +7.14611709e-01 +7.86396325e-01 -3.04293752e-01 +2.40358189e-01 +2.64309675e-01 +5.11790037e-01 -2.99753010e-01 +3.69414508e-01 +2.76767373e-01 -4.95415889e-02 +3.69971693e-01 -4.99931216e-01 +6.32905006e-01 -1.50136933e-01 +5.90754986e-01 -1.04840569e-01 -1.33504257e-01 +5.25219142e-01 -2.34366417e-01 +1.30261779e-01 -2.24097654e-01 +1.07532710e-01 +3.96289498e-01 +1.64382562e-01 +5.29729128e-01 +7.51129329e-01 +1.34496484e-02 +6.40578449e-01 +4.05727774e-01 +2.41505250e-01 +4.58423913e-01 +2.00082198e-01 -1.58391923e-01 +2.85243392e-01 +2.30419278e-01 -1.44147784e-01 +7.96538770e-01 +6.26150370e-01 -2.38137752e-01 -1.99262053e-01 -3.37021798e-01 -1.03744432e-01 -6.69033527e-02 -2.64182198e-03 +5.54369330e-01 +1.14849873e-01 +3.84350538e-01 -3.42153898e-03 -1.13459535e-01 +1.16834909e-01 -1.51927769e-01 +3.28385741e-01 +3.55523415e-02 +3.75474274e-01 -4.19008344e-01 +7.64855385e-01 -6.72690272e-02 +1.34187847e-01 +1.06409383e+00 -5.39505333e-02 +2.90930234e-02 +9.48567271e-01 -5.08998632e-02 +2.53575981e-01 +4.48179990e-01 +2.29664482e-02 +1.39488637e-01 -8.29053968e-02 -7.17030317e-02 -1.64818242e-01 -1.50602952e-01 -8.32457393e-02 -1.76823586e-01 -1.27537072e-01 +6.81165755e-01 -3.99197005e-02 -8.67330730e-02 -3.87649387e-01 -1.67936981e-02 -3.31016332e-02 +1.66742072e-01 -3.43311317e-02 +1.95299253e-01 +1.77224621e-01 -7.17017278e-02 -1.08048178e-01 +9.01538804e-02 +1.08999461e-02 -3.98995578e-02 -6.93738088e-02 -6.40353337e-02 +5.59425987e-02 -2.02649057e-01 +4.13858742e-02 -2.67809391e-01 +5.95322013e-01 +9.15097594e-02 -6.33734167e-02 +5.69639385e-01 +5.63594043e-01 -6.12464473e-02 -1.55951336e-01 +3.12085062e-01 -3.19341987e-01 +1.81431606e-01 -4.16811675e-01 -4.35358495e-01 -4.97883521e-02 -1.64148375e-01 +2.28623331e-01 +1.01742767e-01 -3.76194507e-01 -1.09305277e-01 -1.35604993e-01 +2.09753066e-01 -2.41718162e-03 -2.34190673e-02 -3.05359334e-01 +9.28557962e-02 +1.43519744e-01 +3.00178081e-01 -2.87146032e-01 -1.20953694e-01 +8.31328481e-02 +4.33976680e-01 -2.85156071e-01 -2.51595169e-01 -6.62796944e-02 +6.71738863e-01 -4.84357983e-01 +2.21673712e-01 -2.32898369e-01 +2.04840526e-02 +1.65150985e-01 +1.87728226e-01 +1.11963719e-01 -9.38162357e-02 -1.86279759e-01 +2.03516483e-01 -4.56208110e-01 -2.58787811e-01 -3.05971801e-01 +5.16100407e-01 +1.81243047e-01 -6.00963011e-02 -4.45755839e-01 +4.27163869e-01 +3.22499514e-01 +1.87122643e-01 +2.38400355e-01 +4.79739636e-01 +4.55712199e-01 -3.16507578e-01 +4.31339562e-01 +8.12885582e-01 -1.93462342e-01 -6.65405691e-02 +2.24225104e-01 -2.22087782e-02 -4.48712647e-01 +3.48436795e-02 -7.92537332e-02 +4.89988267e-01 +4.25525516e-01 +3.32363099e-01 -3.16692628e-02 +8.55525613e-01 -1.60487723e-02 -3.96815926e-01 -2.34075218e-01 -1.23747282e-01 +1.18585691e-01 -1.62460208e-01 -3.36543918e-01 -4.18071747e-01 -1.88429937e-01 -2.20945656e-01 -2.63263971e-01 -5.54698527e-01 -2.65518397e-01 +4.41168576e-01 +3.46708149e-01 +8.82530987e-01 +2.77245253e-01 +2.87912130e-01 +2.19660833e-01 +5.43272674e-01 +2.17466399e-01 +8.10198843e-01 -2.14991555e-01 +8.33395272e-02 -7.16416864e-03 +2.30194665e-02 -2.46183455e-01 +6.31752461e-02 -4.26517636e-01 -4.05783683e-01 +1.09537162e-01 +2.73869187e-01 +1.03215827e-02 -1.25322029e-01 -9.09226164e-02 +8.20575934e-03 -8.02058205e-02 +2.54427016e-01 +3.52525748e-02 -6.88327476e-02 +5.76499617e-03 -1.08101413e-01 -2.36014083e-01 +1.61858737e-01 +1.24391362e-01 -7.34102950e-02 -8.80901366e-02 +7.76578337e-02 -1.95955262e-02 -7.88891390e-02 -5.17820008e-02 -3.98753509e-02 -7.43715279e-03 -1.23226382e-01 -1.29153296e-01 +2.28990942e-01 -1.53119087e-01 +2.53989518e-01 +1.72576889e-01 -2.54737407e-01 -1.32458815e-02 +9.83669013e-02 -3.96946162e-01 +5.55897832e-01 -4.30524290e-01 -2.41395622e-01 -4.10839170e-01 +4.53298241e-01 +1.68243915e-01 -2.09126800e-01 -5.60072958e-02 -2.98567954e-02 -2.15537667e-01 +9.24345329e-02 +3.45589072e-02 -1.36913851e-01 -2.25607857e-01 +1.27611503e-01 -4.04716790e-01 +2.04576060e-01 +4.44618493e-01 -1.21818587e-01 +3.30393493e-01 +2.12727159e-01 +4.80991066e-01 +3.69516820e-01 +5.52954793e-01 +2.50355661e-01 +6.36680663e-01 -1.74480267e-02 +1.15042067e+00 +3.81093547e-02 -4.44491431e-02 +3.43152016e-01 -3.45892400e-01 -7.24256635e-01 -1.07886553e-01 -3.33033383e-01 +2.47130141e-01 -1.21631539e+00 -1.78872243e-01 +1.63588643e-01 +6.97986901e-01 -1.60734594e-01 -7.65706182e-01 +3.63076180e-02 +4.94693100e-01 -9.03485343e-03 +6.78078055e-01 +1.58592239e-01 -1.82133719e-01 +1.02859020e+00 -6.30808294e-01 -2.14887723e-01 +2.12826490e-01 +7.12498724e-02 -1.26126245e-01 -2.82306075e-01 -1.00008972e-01 -3.92279238e-01 +1.01819718e+00 +5.13194919e-01 +4.25433606e-01 +1.39662012e-01 -7.38027096e-01 -2.25001603e-01 +4.23022777e-01 -4.94947955e-02 +4.74013835e-01 -1.23981774e+00 -5.54182790e-02 +9.06903386e-01 -5.38986266e-01 +9.32863578e-02 -1.46359950e-01 +7.32205138e-02 -3.64902169e-01 +1.68047860e-01 +2.86575586e-01 -2.05484778e-01 +5.10916889e-01 -6.08858526e-01 -9.97326374e-02 +2.19452754e-01 -2.46646136e-01 +3.35055813e-02 -3.24114785e-02 +1.46054223e-01 -1.39120206e-01 -2.44700506e-01 -2.72603035e-01 +4.88743305e-01 -2.50607412e-02 +1.19697824e-01 +3.02463382e-01 -1.59682304e-01 -5.28886095e-02 -1.64388679e-02 +1.32078454e-01 -2.61730313e-01 -1.56895846e-01 +6.85793757e-02 -1.27796521e-02 +7.62837231e-01 +4.36503649e-01 -2.25381687e-01 +9.64055285e-02 -2.16682758e-02 -1.52775168e-01 -8.47248062e-02 -1.28591299e-01 +3.78343940e-01 +5.41754544e-01 +1.52492955e-01 +1.72334418e-01 +1.33534402e-01 +4.46701586e-01 -1.51127428e-01 +9.77576803e-03 -1.54872879e-01 +3.60270828e-01 +8.59188959e-02 -1.37735829e-01 +1.09974027e-01 +2.52544194e-01 -8.59156847e-02 +1.02284074e-01 -3.18633556e-01 -2.32782245e-01 +1.69549897e-01 +1.10408679e-01 +7.92212844e-01 +4.76880819e-02 -1.30447090e-01 -3.35861832e-01 -1.44616812e-01 +7.75258616e-02 +2.76793316e-02 +3.66456151e-01 +1.06398560e-01 -2.36599296e-01 -1.09637648e-01 -1.88873410e-01 -1.84006616e-02 -2.80430883e-01 -1.81356072e-01 -3.15716922e-01 +1.17927991e-01 +6.31253958e-01 +8.97348672e-02 -6.56093210e-02 +1.56185031e-01 +2.74296671e-01 +2.90505946e-01 +1.11761250e-01 -1.49765581e-01 +2.19438314e+00 +6.12122416e-02 +1.89240709e-01 -5.14090598e-01 +2.37296581e-01 +1.47593766e-01 +1.59781933e-01 -7.56818116e-01 +8.44110455e-03 -1.88832939e-01 +1.60055056e-01 -7.67746031e-01 -2.24495187e-01 +2.26417333e-02 +3.89787376e-01 +2.11692452e-02 -3.45942557e-01 +2.69010372e-04 -1.87607214e-01 -1.80819035e-01 +1.64100632e-01 -1.29767269e-01 -2.69690216e-01 -1.05738454e-01 -2.15836689e-01 +8.43852311e-02 +7.31688797e-01 +4.31859046e-02 +3.49569023e-01 +7.38295391e-02 -7.54521340e-02 +3.68154198e-01 -4.48028088e-01 +7.66576156e-02 +1.38681740e-01 +4.06681746e-01 -5.47467843e-02 +5.14698684e-01 +3.67127210e-01 -1.73461735e-01 +1.02856837e-01 -4.20590490e-01 -1.49904326e-01 +1.12550326e-01 -1.82145432e-01 -1.09327957e-01 -3.86147916e-01 -1.76201522e-01 -4.88283426e-01 +2.61961311e-01 +2.49879926e-01 -6.49905860e-01 -3.09542269e-01 -1.09991208e-01 -3.07595134e-01 +7.17955083e-02 +1.32214800e-01 +1.62779436e-01 +1.78218365e-01 +4.59500194e-01 -2.53383726e-01 +1.65455192e-01 +2.18145505e-01 -1.94272831e-01 +5.99230409e-01 -1.41943321e-02 -1.44502804e-01 +4.54238094e-02 -1.67187154e-01 -3.78027447e-02 +5.36089540e-01 -1.08572003e-03 -2.50000119e-01 +1.26001731e-01 +1.76230773e-01 +6.05342627e-01 +2.69016713e-01 -8.16171542e-02 -1.40706360e-01 +6.04842864e-02 -5.58141768e-01 -1.58064440e-01 +7.53974393e-02 +3.76530856e-01 +2.85395473e-01 +1.96011275e-01 +4.64092055e-03 +1.62643388e-01 +4.63914163e-02 +4.81557362e-02 -9.49478615e-03 +6.20407574e-02 +1.29898682e-01 +3.50040436e-01 -9.30383578e-02 -2.15312652e-02 +1.24013692e-03 -5.13375401e-01 -7.10113421e-02 -2.40330044e-02 +2.88755894e-01 -2.75556684e-01 -2.41321936e-01 +1.31471276e-01 +1.03716627e-01 -8.00909400e-02 -6.75536513e-01 -7.11945474e-01 +8.21407199e-01 +2.45670930e-01 +1.50573254e-01 -1.70399249e-01 -1.77992165e-01 -1.01387866e-01 -9.85731930e-02 -1.34347498e-01 +3.99315804e-01 -7.61324018e-02 -2.52740175e-01 +2.26297155e-01 +3.63673449e-01 +1.68960541e-02 -1.58652559e-01 -1.48309916e-01 +3.51121873e-01 +2.30068728e-01 +1.75466314e-01 +3.04563227e-03 +8.73897076e-01 +6.44007683e-01 +2.65040845e-01 -1.07068187e-02 +2.98489928e-01 +7.62817115e-02 +4.88786280e-01 +5.40917158e-01 +2.41340026e-01 +2.53969878e-01 +1.74110204e-01 +1.93392321e-01 -7.93282926e-01 +6.05043992e-02 -3.28860790e-01 +3.37966472e-01 -6.40930533e-02 +1.09790318e-01 -2.33575046e-01 -2.48429090e-01 -1.42712489e-01 -1.10774770e-01 +1.90231130e-02 +5.38981497e-01 +1.49644688e-01 +1.13129735e+00 +3.50205988e-01 +3.08496505e-01 +6.40293062e-01 +3.21576327e-01 +3.87737788e-02 +2.15746090e-01 -4.68048096e-01 +2.78637618e-01 -9.11085829e-02 +8.44923481e-02 +1.75063476e-01 +6.22337639e-01 +5.70384502e-01 +3.68705124e-01 +4.48577851e-02 +2.28731275e-01 -5.81157915e-02 -6.16028726e-01 -2.43060768e-01 +1.47903693e+00 +1.45914629e-01 -7.56242052e-02 -4.76176292e-01 +2.86552727e-01 +4.49010134e-01 -2.88657956e-02 -1.53748661e-01 +1.50819123e-01 +4.41426843e-01 +2.69392312e-01 +6.87986910e-01 +5.89333951e-01 +1.95177138e-01 +4.39009339e-01 +8.33274424e-02 +1.45259202e-01 +4.44602489e-01 +2.02761307e-01 +6.29831791e-01 +1.66192338e-01 -2.30402350e-01 +3.99163157e-01 -1.33314267e-01 -2.47709289e-01 +4.62506041e-02 +1.58036798e-01 -1.06265277e-01 -1.22381784e-01 +1.52971577e-02 +1.26442358e-01 -2.04687454e-02 -1.71217427e-01 -9.43852186e-01 +3.86170112e-02 -2.53001094e-01 -1.70594454e-01 +1.56848624e-01 +2.03765020e-01 +2.13246509e-01 +8.19990411e-02 -1.91913679e-01 +1.28693115e-02 -1.35202691e-01 -5.87620437e-01 -3.05752814e-01 +2.15440989e-01 +5.26991934e-02 +3.30782682e-02 -2.00055037e-02 +7.51866773e-02 -1.79951489e-02 -6.88680308e-03 -3.60910416e-01 -5.22115119e-02 +1.07996538e-01 -3.45835805e-01 -2.24052444e-01 +3.66084248e-01 +1.30865887e-01 +5.84090129e-02 -1.85426101e-01 -4.81893197e-02 +5.86157262e-01 +5.71666062e-01 +2.76406944e-01 -4.63768132e-02 +6.57727242e-01 +7.47213438e-02 -2.46435896e-01 +8.41801763e-01 +1.66649342e-01 -3.10506880e-01 -1.42068729e-01 +8.67151141e-01 +1.62836149e-01 -2.70092160e-01 -1.78057179e-01 -2.10109711e-01 +8.67766365e-02 -6.31362945e-02 +5.27646951e-02 +1.00307576e-01 +4.22704041e-01 +2.09832206e-01 +6.70950532e-01 -3.39676321e-01 +6.81130230e-01 +7.76026428e-01 +1.12232886e-01 +3.15746218e-01 +4.15031105e-01 +5.71475685e-01 +3.05645783e-02 -1.01773709e-01 -3.48765194e-01 +1.59950733e-01 +9.31475684e-02 +8.85603786e-01 -3.58730584e-01 +1.91896528e-01 +8.56939256e-01 +3.52864787e-02 -2.35212550e-01 -2.35338323e-02 -1.00881219e-01 +4.05094743e-01 +4.31664050e-01 -1.28918642e-03 +2.04645708e-01 +3.54333550e-01 +1.05648160e-01 -9.28215981e-02 +9.59166214e-02 -3.69862467e-01 +4.93244171e-01 -7.38557205e-02 +5.66960454e-01 -3.58397782e-01 +9.97920856e-02 -1.88303933e-01 +8.07271719e-01 -3.27188820e-01 -8.07736367e-02 -2.21723005e-01 +1.65524945e-01 +2.48507857e-01 -1.17351174e-01 +9.05768573e-02 +4.03537005e-01 +6.46760166e-01 -1.97308436e-01 -2.74434257e-02 +5.09559333e-01 +9.77880895e-01 +4.93627429e-01 +3.19615424e-01 +1.09944057e+00 -9.39235762e-02 -3.02575473e-02 -1.27410412e-01 +1.75621673e-01 +4.84665602e-01 +4.17947769e-01 +1.02908544e-01 +1.24816298e-01 +6.89672470e-01 +1.91715851e-01 +2.37475693e-01 +1.15370683e-01 +9.52775404e-02 -1.50435984e-01 -4.46126126e-02 -2.22263038e-01 +1.55950934e-01 -8.70175138e-02 +4.91878428e-02 -6.75435066e-01 +1.75205246e-02 -1.61053181e-01 -2.30750233e-01 -1.30241707e-01 +3.76695096e-02 +5.05113542e-01 +9.22066644e-02 -2.26403862e-01 +1.36554673e-01 +1.46980524e-01 -2.39532620e-01 +1.49205223e-01 +2.87486170e-03 +5.79186343e-02 -1.44969090e-03 +1.81294546e-01 +5.68704074e-03 +1.60881117e-01 -3.27981591e-01 +2.58614644e-02 -1.39599130e-01 +3.09162408e-01 +2.36609280e-01 +4.35030414e-03 -2.15022549e-01 +4.58582789e-02 +2.44409129e-01 +4.30351764e-01 +4.99530941e-01 -2.66397391e-02 -6.74589872e-02 +1.46289483e-01 +7.18481481e-01 +1.47529885e-01 -1.83846757e-01 +1.80112749e-01 -1.21129908e-01 +3.19077611e-01 -2.62531966e-01 +7.41459787e-01 -1.63043231e-01 -5.51849902e-01 -7.02507794e-02 +3.96486104e-01 -4.06530529e-01 +8.27818334e-01 +2.95611233e-01 +6.01877123e-02 +1.99821874e-01 -3.81601639e-02 +3.79065931e-01 +2.61871547e-01 +7.52959430e-01 +8.60020459e-01 -1.12732902e-01 +5.16456328e-02 +1.77396566e-01 +8.47749233e-01 +1.17722631e+00 -8.72001350e-01 -7.48137176e-01 -1.99218720e-01 +6.47446990e-01 -5.12960143e-02 -1.47804070e+00 -4.34969783e-01 -4.08846661e-02 +1.78817898e-01 -9.79079008e-01 -8.93396586e-02 -8.85913253e-01 -4.38874841e-01 +4.08020169e-01 +3.99139225e-01 +5.87170780e-01 +4.72883761e-01 +8.74266446e-01 -5.88790774e-01 +1.78595215e-01 +2.92105854e-01 -3.32935393e-01 +4.46313858e-01 -4.25836205e-01 +9.19536114e-01 -2.42095478e-02 -5.75801909e-01 +4.25501227e-01 -4.21512067e-01 +2.53738582e-01 -1.28365266e+00 +4.76999164e-01 -3.72546166e-01 -6.74022138e-01 -1.41164914e-01 -4.75740075e-01 +2.12282971e-01 +3.90143991e-01 -3.79039466e-01 +5.39800301e-02 -4.95678008e-01 -9.32611823e-02 -4.50263381e-01 -2.78115869e-01 -6.18175805e-01 +2.22505163e-02 +3.44429910e-01 -1.35625020e-01 -7.89509296e-01 -9.64012966e-02 +1.09457985e-01 -2.42687911e-01 +1.69490561e-01 +2.46780887e-01 +2.43857279e-01 +1.07229024e-01 +2.12453872e-01 -1.33667320e-01 -3.08566272e-01 +4.01962429e-01 +5.66432551e-02 +1.64967924e-01 -3.27382028e-01 -4.66889963e-02 -3.15585464e-01 -1.32534683e-01 -2.88401693e-01 +1.42690048e-01 -5.93320243e-02 +7.31018424e-01 +2.38512501e-01 -2.95720190e-01 +1.87684055e-02 -6.24982677e-02 +4.08506095e-01 -1.09296236e-02 -6.26456439e-02 +2.35687539e-01 -2.38314539e-01 +1.61178440e-01 -1.91547945e-01 +4.02511097e-02 +5.94849363e-02 +1.97333813e-01 +5.24419844e-02 +6.70613870e-02 +2.64778495e-01 +1.30478083e-03 -3.47058638e-03 +1.15242831e-01 +2.58387417e-01 -2.57966578e-01 +1.14759982e-01 -2.13035032e-01 -7.22743347e-02 +2.83641350e-02 +2.87814643e-02 +1.24304360e-02 -2.10874379e-01 +3.67694467e-01 +7.87591338e-02 +5.63372016e-01 +1.02322489e-01 -4.02072996e-01 -1.89869717e-01 -1.21398702e-01 +7.07205106e-03 -5.88258356e-02 +2.29260460e-01 +1.26299094e-02 -1.85819998e-01 +1.18000902e-01 -3.19723487e-02 +3.72901917e-01 +1.14254432e-03 -3.29103708e-01 +1.07846214e-02 +1.16312474e-01 -2.08199874e-01 -3.91767994e-02 -4.76121813e-01 +1.62810758e-01 -1.59582905e-02 -9.31363344e-01 +7.75985420e-02 -2.58265108e-01 +2.76221961e-01 -1.02778897e-01 -2.43894175e-01 -1.13879681e-01 +1.42656937e-01 +6.58249632e-02 -3.79553214e-02 -1.18688069e-01 -1.15156416e-02 -6.91202208e-02 +2.76935875e-01 -3.35316032e-01 +1.33466586e-01 +1.67210117e-01 -1.28050238e-01 +1.26385450e-01 +4.43269461e-02 +1.16785035e-01 -9.17930529e-02 +5.72373271e-01 -4.68140572e-01 -7.12924525e-02 -3.28562737e-01 -6.97639808e-02 -8.79764795e-01 -4.33073997e-01 -1.31722063e-01 -6.12135589e-01 -2.98139721e-01 -1.97910160e-01 +1.81244034e-03 -5.32924294e-01 -8.33294153e-01 -6.15815639e-01 +1.48339644e-01 -6.05343640e-01 -1.60974935e-01 -2.30197906e-01 +3.28237414e-01 +1.03657591e+00 +3.13244998e-01 -4.02056336e-01 +6.63753003e-02 -2.45022327e-01 +7.95738026e-02 -8.14207271e-02 -2.46627182e-02 +9.38089639e-02 -1.19482838e-01 -1.78313151e-01 +3.25836629e-01 +7.42250532e-02 -9.52729404e-01 -5.48677742e-01 +3.32031697e-02 -5.07397294e-01 -4.43569362e-01 -2.26728216e-01 -2.76005417e-01 +3.76126796e-01 -2.78206164e-04 -3.64869013e-02 +1.93229795e-01 -8.17032456e-02 +8.22467282e-02 +1.79499999e-01 -9.57480073e-02 -4.79326025e-02 -5.88205606e-02 +2.21087992e-01 -5.58773041e-01 +5.19903004e-02 +2.62914807e-01 -3.64034288e-02 +3.88457477e-01 +6.59844577e-02 +1.19749308e-01 +6.64970055e-02 -9.78766233e-02 +7.98125193e-02 -8.18229020e-02 +7.40572345e-03 +2.77106076e-01 -8.72109681e-02 +3.31514291e-02 +1.81195587e-01 +1.68777153e-01 +1.49829149e-01 +6.73407130e-03 +9.19026583e-02 +5.22470148e-03 -1.35881782e-01 -5.01303732e-01 -5.51389873e-01 +1.85010403e-01 +2.88638353e-01 -4.81205910e-01 +1.72249839e-01 -1.53542101e-01 -2.72398114e-01 +3.45868707e-01 +6.63767308e-02 -4.83751059e-01 +1.36569476e+00 +2.95451015e-01 +7.61500657e-01 -1.02713704e-01 -8.47685561e-02 -5.18980250e-02 +1.56999290e-01 -5.59524223e-02 +5.17338514e-02 +3.62910837e-01 +1.99005499e-01 -1.12560362e-01 +2.37974644e-01 -5.71624696e-01 -3.04080933e-01 +3.22735935e-01 +4.36436474e-01 +2.64626861e-01 +9.32746194e-03 +5.61457038e-01 -2.68747509e-02 -7.20606387e-01 +1.96716577e-01 +9.85099375e-01 +3.13655108e-01 -1.85421064e-01 +7.12392405e-02 +4.40367728e-01 +6.18166029e-01 -7.06260681e-01 -4.02601540e-01 +1.04796067e-01 +3.10593814e-01 -3.37021023e-01 -1.98766232e-01 -5.74594699e-02 +1.13248490e-01 +2.92094797e-01 +5.20826876e-01 +1.07867312e+00 -2.63069630e-01 -5.63901842e-01 +6.56648949e-02 -1.55696675e-01 +7.61893839e-02 -3.06087255e-01 -2.13076875e-01 -1.44494712e-01 +2.51356632e-01 +6.91557586e-01 +1.05549209e-01 +5.49515933e-02 +8.69978294e-02 +1.08143425e+00 +1.47816077e-01 +1.22248161e+00 -1.57696038e-01 +2.03810811e-01 -2.60122329e-01 +2.85292149e-01 +2.07668439e-01 +7.56122351e-01 +4.79093999e-01 -3.50703627e-01 -3.01874103e-03 -5.63047603e-02 +4.71258074e-01 +7.19779313e-01 +1.64067805e-01 -1.53848350e-01 +7.48359025e-01 +4.59331572e-01 +2.33903140e-01 +6.06074691e-01 -8.70312601e-02 +9.78509903e-01 +1.77653372e-01 +7.68415630e-02 -9.63579565e-02 +2.69631743e-01 +1.68889821e-01 +1.66453957e-03 -1.13062143e-01 +1.65507436e-01 +5.07551670e-01 +1.50716960e-01 +1.51702523e-01 +1.66875362e-01 -1.27470374e-01 +2.30820864e-01 +3.64884920e-03 +1.05175234e-01 +3.27491835e-02 +6.47049919e-02 +5.83489127e-02 -2.05102354e-01 -1.75918132e-01 -1.96815312e-01 -4.59444970e-02 -1.68444458e-02 -8.58494118e-02 -3.28853041e-01 +1.04433559e-02 -1.49784371e-01 +1.15421608e-01 -1.31943226e-02 +8.96754768e-03 +2.79129267e-01 -2.10601352e-02 +1.51057646e-01 -3.78069580e-01 +2.60708481e-01 -2.54040629e-01 +1.10397235e-01 +2.26668213e-02 -8.58348161e-02 +1.85715053e-02 +1.70711890e-01 +2.77449220e-01 -6.12191968e-02 -1.58982709e-01 -1.60868868e-01 -2.75210235e-02 -2.67495453e-01 +8.53184104e-01 -8.22237670e-01 -6.05866648e-02 -3.32327515e-01 -5.27485490e-01 -1.49330869e-02 -8.80153254e-02 -7.49248505e-01 -6.18013978e-01 -1.45814329e-01 +1.24441851e-02 -4.98667359e-01 +4.25487071e-01 +2.77424067e-01 -5.52048460e-02 -2.43155211e-01 +1.72234133e-01 +2.25665763e-01 +1.04273416e-01 -1.14537604e-01 -1.26786172e-01 +7.48548210e-02 +4.57515448e-01 -4.71545100e-01 +1.91213146e-01 +2.33001783e-01 +5.39004849e-03 -2.95967132e-01 +2.41713390e-01 +9.89560485e-02 +1.46087691e-01 -3.58686030e-01 +1.72967181e-01 -8.17991719e-02 -6.15913093e-01 +2.98503488e-01 +2.28222996e-01 -3.39094639e-01 -9.06110823e-01 +8.45835268e-01 -1.50828809e-01 -5.16186237e-01 +8.02765012e-01 -4.49258327e-01 +1.73507854e-02 -8.14952374e-01 -2.13535368e-01 -1.61013156e-01 +7.93257058e-01 -1.08117625e-01 -6.99240118e-02 -7.22699821e-01 +9.91546512e-01 -3.91500182e-02 -4.76664335e-01 -5.72160304e-01 -6.47444785e-01 -9.08566236e-01 -2.86104411e-01 +1.00601539e-01 -2.72563368e-01 +3.25310290e-01 -5.27503252e-01 +2.45109349e-01 +1.49991095e-01 +4.46651787e-01 -5.30451596e-01 +2.37713352e-01 +2.17889130e-01 +1.60080671e-01 -6.95251003e-02 -4.87019926e-01 -3.82180095e-01 -6.97661862e-02 +3.15567553e-01 -2.69485086e-01 -3.93392593e-01 -4.55535471e-01 +3.92093062e-02 +5.78693509e-01 +5.58995843e-01 -7.46772587e-01 +7.49663830e-01 +7.98601657e-02 -2.70022601e-01 -1.40296355e-01 -1.85140103e-01 -3.17309678e-01 +8.84981871e-01 +2.36659050e-01 -5.69889665e-01 -1.30456360e-02 +2.32784510e-01 -1.88922703e-01 -8.28032382e-03 +2.60011584e-01 +1.27561867e-01 -1.67639814e-02 -1.64634734e-02 -3.41283649e-01 +7.72342905e-02 +9.51036438e-03 +4.23687510e-02 -2.39976719e-01 +2.45108947e-01 -3.82342398e-01 -1.68278068e-01 +5.86279109e-03 -2.24208429e-01 -2.45627671e-01 -1.15158521e-01 -7.65965655e-02 -1.40189826e-01 +1.51580349e-02 -2.60200351e-01 -3.65791912e-03 +4.27431494e-01 +8.13738331e-02 +2.58503348e-01 -2.34762300e-02 +1.25274569e-01 -4.18324620e-01 -4.23199594e-01 -1.83769286e-01 -3.49530041e-01 +3.79713625e-01 -4.88349609e-02 -4.82008001e-03 -3.06322183e-02 +3.45539115e-02 -4.35477197e-02 +1.54045165e-01 +1.51632547e-01 -7.86547422e-01 +3.33864361e-01 +4.77257609e-01 +4.24140215e-01 +8.85236859e-01 +1.20842271e-01 -5.57639711e-02 -2.81576782e-01 -3.05831432e-01 -4.53865677e-01 -1.80686951e-01 +7.05473945e-02 +3.64933193e-01 -3.33488286e-01 -1.70291275e-01 -5.33101201e-01 -3.27809379e-02 -3.47782187e-02 -8.67509097e-02 +7.42054284e-02 +9.91442680e-01 -2.93043733e-01 +6.34115040e-01 -5.58145702e-01 +5.64123154e-01 +2.74033606e-01 +4.88573879e-01 -1.03670847e+00 +6.17153406e-01 +7.34040916e-01 +1.95446014e-01 -4.80700016e-01 -1.16068117e-01 -6.01622723e-02 +1.90210760e-01 +3.64906192e-01 -1.53641880e+00 -3.89605135e-01 +7.29340255e-01 +7.89961576e-01 +2.47220442e-01 +3.87109816e-01 -1.73558041e-01 +5.57204604e-01 +4.52571094e-01 +2.59998053e-01 +4.55452353e-01 -1.09874651e-01 -7.18229949e-01 -6.24182045e-01 +1.85764402e-01 +7.74825588e-02 +9.48072255e-01 +6.50099456e-01 +1.25125483e-01 +3.96014899e-01 -4.04282451e-01 +4.26375687e-01 +4.35152173e-01 -7.32774198e-01 +5.51460609e-02 -7.06237555e-01 +8.55899751e-01 +3.15147668e-01 -2.51563728e-01 -4.34450567e-01 -3.76271576e-01 +7.90405929e-01 -1.74309369e-02 +7.39296004e-02 +3.76208782e-01 -5.42514920e-02 +3.11612219e-01 +4.98681396e-01 -1.48636743e-01 -2.11284578e-01 +3.83074015e-01 -3.19599986e-01 -1.07980361e-02 +4.01094347e-01 -6.05125666e-01 -3.00769955e-01 -1.78833932e-01 -5.37083089e-01 +1.55158099e-02 +2.35459864e-01 +1.28045888e-03 -3.39574665e-02 -7.15690330e-02 +2.15093628e-01 -1.58982351e-01 +2.09573135e-02 -3.63268368e-02 +2.91240007e-01 +3.41482431e-01 +4.00621831e-01 +8.51397216e-02 -2.18327880e-01 +2.57398427e-01 -5.83666116e-02 +9.40557793e-02 -1.08251937e-01 -7.92019665e-02 -6.69323802e-02 +9.21938598e-01 -6.22826740e-02 +1.24159463e-01 +7.00473115e-02 +2.33549446e-01 +4.28393066e-01 -1.53858289e-01 +9.54759214e-03 +1.16907611e-01 -1.56580865e-01 -8.20892528e-02 -4.68598977e-02 +4.75559890e-01 -1.24334812e-01 -3.07925671e-01 -8.33819509e-02 -2.63885140e-01 -2.72651076e-01 -1.05355404e-01 -2.09962726e-01 +3.56188148e-01 +1.92085057e-01 +2.26934463e-01 -3.37801278e-01 -1.37114059e-02 +2.63905823e-01 +6.66886508e-01 +2.45869551e-02 +4.33475941e-01 +1.86921507e-02 +1.56524852e-01 +6.74624890e-02 +1.60927057e-01 -1.34496823e-01 +9.63915288e-02 +6.76858500e-02 +9.14542153e-02 +2.05491975e-01 -2.50406265e-01 -5.03203213e-01 +2.90900141e-01 -4.14626766e-03 -9.56870690e-02 +4.18201610e-02 -4.28092539e-01 -1.61803048e-02 -8.35419353e-03 -5.14275253e-01 -2.25428298e-01 +2.06868112e-01 +2.18668655e-01 +3.53733987e-01 +1.86847627e-01 +1.09574056e+00 +1.05548669e-02 +2.86184639e-01 -3.61062996e-02 +2.46815026e-01 -8.36491644e-01 +6.52941167e-01 +2.87595838e-01 -1.49924740e-01 -1.54326856e-01 +2.45592758e-01 +5.07632596e-03 +1.24103501e-01 +3.61555576e-01 -1.33822218e-01 +7.17782617e-01 +3.06175917e-01 +3.13194931e-01 +7.81875104e-02 +3.17681104e-01 +1.41364217e-01 +3.60019356e-01 +2.48356014e-01 +3.25100899e-01 +1.94189459e-01 -2.97356009e-01 -1.98781514e-03 +1.57050356e-01 +2.79011838e-02 -5.82065322e-02 -5.41820005e-02 -3.89895022e-01 +5.42603672e-01 +1.23757906e-01 -2.37405181e-01 -2.61900965e-02 +4.13691461e-01 +4.13722038e-01 +4.40956146e-01 -1.62828900e-02 -2.37899184e-01 +1.08764358e-02 +6.78973615e-01 +4.97015089e-01 +3.70710492e-01 +4.84711885e-01 -3.28964218e-02 +6.09680414e-01 -1.98599130e-01 -2.47219101e-01 -1.37061430e-02 +4.78192329e-01 +2.21726626e-01 +8.49310830e-02 +6.34113401e-02 -1.10323764e-01 +1.32656828e-01 -1.08852677e-01 +1.03230610e-01 +3.81286405e-02 +4.21379767e-02 -6.83473170e-01 +1.94188640e-01 -2.33361740e-02 -1.50013790e-01 +2.38561258e-02 -3.71238202e-01 -4.03361410e-01 -1.04550287e-01 -1.24733418e-01 -1.62854075e-01 +8.40397298e-01 -1.12074062e-01 -3.70450467e-02 +1.41916171e-01 +2.77505666e-02 -1.27696082e-01 -1.08083636e-01 +2.57670265e-02 -1.33326948e-01 -3.73099446e-02 -4.66254056e-01 +7.57261664e-02 -4.84759621e-02 -1.33993995e+00 +1.04306810e-01 +7.13543370e-02 +1.34860143e-01 +2.68498003e-01 -2.47421980e-01 +2.13528685e-02 +9.55729857e-02 -8.32409933e-02 -5.73937297e-01 +1.63583398e-01 -4.23113197e-01 +1.03205904e-01 -5.72428703e-01 +2.05134630e-01 -1.24153614e-01 +7.03619793e-03 -8.29554629e-03 +6.52500913e-02 +6.44384623e-01 +2.04716161e-01 -5.18237472e-01 +4.47954983e-01 +5.56846857e-01 -3.54647189e-01 -1.67094976e-01 +3.67630064e-01 -7.91584998e-02 -4.96061325e-01 -5.34299947e-02 -1.87778264e-01 +3.23119551e-01 +1.04627006e-01 -1.75670892e-01 -7.21044987e-02 +5.03731426e-04 +1.86607912e-01 +4.32803452e-01 -1.90965328e-02 +5.26461482e-01 +7.78208375e-01 -2.50217337e-02 +5.90833426e-01 +3.90181214e-01 -1.10794939e-01 +1.70623317e-01 -4.27318960e-02 -3.31056356e-01 +1.38966247e-01 +5.14364243e-01 +3.32398981e-01 -4.31968302e-01 +5.72404802e-01 +1.36928689e+00 +2.02368125e-01 -2.10847795e-01 +7.09279999e-02 -7.98392072e-02 +4.34232801e-01 +1.11409903e-01 +2.97542010e-02 -1.62245974e-01 +5.07383525e-01 -3.49155664e-01 -2.33529493e-01 +6.74652457e-02 -2.45224103e-01 +1.15042126e+00 +2.83426374e-01 +3.58080924e-01 -2.65760809e-01 -5.46962663e-04 -3.96778256e-01 +6.43777072e-01 -2.36310825e-01 +7.48174042e-02 -6.62513793e-01 +3.74642670e-01 +1.37547746e-01 -1.83396518e-01 -7.59036765e-02 +4.54677016e-01 +5.59190333e-01 +6.78244606e-02 +8.09720457e-02 +3.56971323e-01 +3.83106589e-01 +7.11661637e-01 +2.38887697e-01 +6.64556384e-01 -6.80564046e-02 -4.75215018e-01 +1.14590593e-01 +1.33315280e-01 -5.64834774e-01 -1.43826092e-02 +2.75064945e-01 -9.50012282e-02 +8.19188416e-01 -1.69502959e-01 +1.23452909e-01 +2.44062901e-01 +6.57645762e-02 -1.41052157e-01 +9.70801413e-02 -2.18615219e-01 +1.79659098e-01 +8.53582323e-02 +1.52652144e-01 -4.28223908e-01 +4.35837992e-02 -5.30088991e-02 -3.17044318e-01 +4.68477011e-02 -5.05907796e-02 +9.81980339e-02 +2.56365119e-03 -2.51620412e-01 +6.06584363e-02 +2.23316401e-01 -3.62252891e-01 +1.93798408e-01 -7.29502589e-02 +8.21511000e-02 +8.96400139e-02 +2.49194086e-01 -6.89070532e-03 +2.61053771e-01 -1.15967654e-01 -1.04405902e-01 -4.86560725e-02 +2.05731228e-01 +2.08155096e-01 +6.29302487e-02 -1.62375215e-02 -6.88328266e-01 +1.04551204e-01 +1.37692228e-01 +2.32540935e-01 +2.28663519e-01 +8.14836398e-02 +4.89699319e-02 +5.62914968e-01 +4.64445502e-01 -1.76950037e-01 +1.94402054e-01 +7.45188370e-02 -2.69065678e-01 -8.14134404e-02 +1.19399354e-01 +6.07510090e-01 -6.29464090e-02 -3.34300548e-01 +1.25252651e-02 +2.69115686e-01 +1.35367900e-01 +4.44945663e-01 -6.80251196e-02 +5.44097960e-01 -2.32676908e-01 +7.40568414e-02 -4.81033884e-03 +1.33826196e-01 +2.65427500e-01 +3.89309406e-01 +5.70343733e-01 -3.82058859e-01 -1.77404583e-02 +9.49155867e-01 -2.14108959e-01 -1.61958382e-01 -2.45186072e-02 -6.99947253e-02 +2.05833182e-01 -4.35679764e-01 -2.14590542e-02 +3.78501356e-01 +7.46496379e-01 -1.84912056e-01 -1.88860893e-02 +2.36182362e-01 +3.54797393e-01 -6.06273234e-01 +4.95264456e-02 -3.57159525e-02 -3.51945400e-01 -1.07792830e+00 -1.27013892e-01 -1.89428940e-01 +1.64004117e-01 -2.48234525e-01 +5.00078797e-01 -1.80285409e-01 -3.47570181e-01 -1.29272444e-02 +9.08729881e-02 -6.50279522e-01 +6.11392081e-01 +1.57488450e-01 +4.24405038e-02 +8.27623457e-02 +2.94488706e-02 -2.06070691e-01 -2.78751761e-01 -5.53368270e-01 -5.24136662e-01 +3.70305657e-01 -1.37129530e-01 -3.38818878e-02 -1.37145534e-01 -1.07482309e-03 -2.44332433e-01 +3.62541854e-01 -1.35379815e-02 -5.92648759e-02 +5.83958030e-02 -2.25887686e-01 -1.15126595e-02 -1.94464803e-01 -8.34432021e-02 -8.00982639e-02 +1.84327532e-02 +7.94609487e-01 +2.35758156e-01 +7.89842486e-01 -6.84594437e-02 +1.94660947e-01 +1.92464981e-03 -2.02867121e-01 +1.02618247e-01 -2.71295965e-01 -1.61401350e-02 -2.16995463e-01 +7.60060996e-02 -1.17078707e-01 -1.67205602e-01 -1.12918995e-01 -5.70286453e-01 +8.22152853e-01 +5.31894445e-01 -2.30560750e-02 -1.28678069e-01 +1.09420761e-01 +5.36822416e-02 +1.53629526e-01 -9.57953408e-02 +4.35395360e-01 -3.10412169e-01 +1.16576090e-01 -8.88581388e-03 -3.48040834e-02 -1.62221992e-03 -9.53250080e-02 +1.11791223e-01 -1.17334574e-01 +7.29478240e-01 +6.50312126e-01 -1.88808013e-02 -1.42911253e-02 +6.15930706e-02 +1.39169879e-02 +4.77931708e-01 -3.01546678e-02 -2.08998304e-02 +2.02927634e-01 +2.37265199e-01 +7.84851238e-02 +2.16396734e-01 +1.99735031e-01 +3.64802659e-01 +2.70956010e-01 +2.01297864e-01 +2.62849275e-02 +7.17402995e-02 +5.76238036e-01 +2.47562444e-03 -1.86142072e-01 -3.85563895e-02 +5.12579560e-01 -2.64551759e-01 -1.29529089e-01 +1.50569871e-01 -3.95647347e-01 -6.04539178e-02 +6.37579381e-01 +2.41907433e-01 +3.99186201e-02 +2.05645889e-01 +3.17813456e-01 -2.45347749e-02 -7.96026215e-02 -2.78790146e-01 +8.02627727e-02 -4.01580065e-01 +3.97865288e-02 -4.09785867e-01 +9.87414271e-02 -3.70082259e-01 -3.30917597e-01 -4.35398638e-01 -6.45735860e-01 -1.77166775e-01 +1.70024887e-01 -2.70963944e-02 -2.92340964e-01 +2.85271078e-01 -4.96016175e-01 -2.32530668e-01 +1.04290927e-02 -1.97681002e-02 +9.05392468e-02 -2.57905293e-02 +1.57133713e-01 +4.09368753e-01 -4.13560718e-01 +1.54698953e-01 -5.23987055e-01 +1.60843879e-01 +1.02584641e-02 +1.94553345e-01 -8.35886747e-02 -2.01922536e-01 +1.78061470e-01 +6.57397687e-01 -8.47801641e-02 +1.65500000e-01 +8.78913403e-01 +3.93862963e-01 +9.45577845e-02 -6.02063239e-01 +3.61747444e-01 +1.93585113e-01 -6.38881624e-02 -6.09111905e-01 -1.40263006e-01 +1.30885839e-01 -4.87760037e-01 -9.26622391e-01 -1.62151799e-01 +3.68192606e-02 +1.36111185e-01 -1.15655315e+00 -9.31771576e-01 -4.15838391e-01 +2.59182692e-01 -6.26125753e-01 +3.13649267e-01 +2.80498028e-01 +4.03205417e-02 +1.68598250e-01 +4.60058987e-01 +2.07938105e-01 +3.46448153e-01 -2.53212303e-01 +2.91499384e-02 +2.75647664e-03 -2.22976416e-01 -8.84683952e-02 -1.98560044e-01 -1.04500547e-01 -1.76354155e-01 +4.47707146e-01 -3.60318199e-02 +1.45052820e-01 -2.34096348e-01 +3.23351443e-01 -1.76555216e-01 -7.43237808e-02 +3.81168753e-01 +5.40034711e-01 +7.16344407e-03 -1.81363836e-01 -1.57453611e-01 -5.33976732e-03 -1.58701956e-01 -1.77153304e-01 -1.31609980e-02 +5.48947323e-03 +3.53077315e-02 +2.96121985e-02 +3.89418900e-02 +1.98709890e-01 -9.01262388e-02 +9.65145454e-02 +3.85246128e-02 -3.72992083e-02 +1.95052788e-01 +7.58255497e-02 +1.60835069e-02 +3.44269276e-02 -3.40343416e-02 -6.34872139e-01 -9.77438241e-02 +4.57066953e-01 -2.75207728e-01 +2.94894636e-01 -2.39785649e-02 -2.47385390e-02 +5.12780845e-01 -7.19148144e-02 -2.26236299e-01 -3.88128728e-01 +4.77620065e-01 +1.05480976e-01 +3.65439981e-01 -2.09217161e-01 -6.63944960e-01 +1.56508967e-01 +2.62104627e-02 -3.50560285e-02 -5.83011918e-02 -3.54499631e-02 -1.26193881e-01 +1.79186724e-02 -3.26319367e-01 -4.52321731e-02 -3.18483651e-01 +2.85111636e-01 -2.64134910e-02 +1.79546595e-01 -1.11221343e-01 +2.52383560e-01 +2.26881430e-01 -6.10780537e-01 +3.04880053e-01 -5.81045151e-01 +4.64658797e-01 -1.42472640e-01 -2.00318620e-01 +1.10235535e-01 -1.01352084e+00 +3.42084467e-01 -3.23499769e-01 +5.83618730e-02 -1.31131172e+00 -4.98093292e-02 -1.98055997e-01 +4.96518373e-01 -1.86962157e-01 -1.18911989e-01 +3.86121064e-01 +9.96083245e-02 -7.74369597e-01 -5.14258206e-01 +3.95856172e-01 -3.70871089e-02 -6.44874692e-01 +7.41648078e-01 +1.41499132e-01 -2.63959408e-01 +7.55781353e-01 +9.58004892e-01 +4.49365497e-01 +1.97226718e-01 -8.30380544e-02 -3.29283506e-01 +4.64519024e-01 -7.51272380e-01 -3.88102055e-01 +1.76810563e-01 +3.13814551e-01 +1.62047029e-01 -4.97665912e-01 -3.83718871e-02 +1.29036471e-01 +2.63814270e-01 +4.17125523e-01 -1.68343380e-01 +1.41739519e-02 -3.47743183e-01 +2.98926592e-01 +7.06162214e-01 -4.60169390e-02 -1.02685773e+00 -7.39657044e-01 +3.99485946e-01 +1.63051590e-01 -1.97257459e-01 -2.51631945e-01 +1.79643974e-01 +9.09629613e-02 +5.96827567e-01 -1.59718290e-01 -6.32220786e-03 +1.71103612e-01 -1.27560943e-01 +1.25119388e-01 +1.88639373e-01 +1.91672221e-01 +8.85235891e-03 -2.05828041e-01 -1.30891383e-01 +8.43076706e-02 +1.81857750e-01 -1.15628205e-01 -6.11933395e-02 -4.00079817e-01 -7.42074326e-02 -1.08687080e-01 -7.27660358e-02 +1.77253094e-02 +2.91470438e-01 +4.10335548e-02 +8.33327994e-02 +6.59212694e-02 +4.86943647e-02 -8.41787923e-03 -6.42018169e-02 +2.54492372e-01 +1.02188371e-01 +1.06569417e-01 +7.10812723e-03 -2.62853533e-01 -1.66956410e-01 -2.01352552e-01 +5.41309595e-01 -1.41183004e-01 +2.12715536e-01 -1.60397142e-01 -2.32735932e-01 +1.98125079e-01 -2.10307469e-03 -1.91901967e-01 -3.55354756e-01 +1.23643458e-01 +6.16473779e-02 +1.08406997e+00 +3.92186530e-02 -6.94624474e-03 -4.67472792e-01 -5.10016605e-02 +2.64651388e-01 +5.61046191e-02 +3.70667800e-02 +4.63062245e-03 +4.57638651e-02 +1.04605988e-01 +2.91057110e-01 -1.27198756e-01 -6.12917364e-01 -1.60779804e-01 +1.79169431e-01 +2.66133666e-01 -2.37548530e-01 -1.96138874e-01 -9.82569382e-02 +1.22818351e-02 -9.28926826e-01 -5.04787087e-01 -8.18758309e-02 -1.67915165e-01 -5.01204789e-01 -1.35524005e-01 -5.47228269e-02 +6.24978729e-02 -2.95905292e-01 -3.69433522e-01 -5.61041906e-02 +7.84513950e-02 +4.51881140e-01 +1.38534069e-01 +4.23097253e-01 -9.25108418e-02 +4.16608483e-01 +2.65633524e-03 +1.72861129e-01 -3.06486994e-01 -2.20998134e-02 -1.35375261e-02 +2.73431521e-02 -3.24458599e-01 -3.20622064e-02 -5.51719964e-01 -4.58455235e-01 -8.23670998e-02 -7.58346736e-01 -2.23611355e-01 +1.68071687e-01 -5.73119998e-01 +3.66786540e-01 -3.70077252e-01 -2.36863226e-01 -3.41633052e-01 -1.70718580e-01 -9.56343472e-01 -4.58892465e-01 -2.81943589e-01 -1.85732231e-01 -3.91757399e-01 +1.23449685e-02 +4.81046110e-01 +1.41137540e-01 -6.20760679e-01 +1.43313095e-01 +1.65336300e-02 +3.83886725e-01 +3.06806564e-02 -5.06503820e-01 +3.59737933e-01 +1.74976036e-01 -2.96187818e-01 +5.95037155e-02 -3.72046292e-01 -9.85691786e-01 -3.11764657e-01 -2.17463627e-01 -1.66678607e+00 +3.43200639e-02 -2.84466982e-01 -3.43761146e-01 +1.64776832e-01 -6.82589531e-01 -1.36272877e-01 +3.14045161e-01 -3.83805037e-01 +3.22026610e-01 -8.18815455e-02 -5.14798164e-02 -1.16409175e-01 +6.51221350e-02 +8.37685540e-02 -2.24230975e-01 -2.05834582e-01 -1.27767697e-01 +1.49909839e-01 +5.18084168e-01 +3.08417641e-02 +2.40281224e-02 +2.25927040e-01 -8.15042034e-02 -1.86177731e-01 -3.43527406e-01 -1.51517838e-01 +1.17179327e-01 -7.05892146e-02 +4.85804230e-02 +2.07903162e-01 +2.99839199e-01 -1.51589587e-01 -1.06216483e-02 +2.73922235e-02 +1.12495691e-01 +3.67238931e-02 +2.26669088e-02 +1.11009650e-01 +6.72473237e-02 +1.75911546e-01 +1.70466661e-01 +9.85760987e-03 -7.94606358e-02 -3.97923470e-01 +1.21798791e-01 -6.56109229e-02 +3.46585363e-01 -2.72196114e-01 +1.32072896e-01 -5.60787261e-01 -5.07094502e-01 -3.26106846e-02 +2.17828099e-02 -1.50102615e-01 -2.57664919e-01 -4.39066708e-01 -1.28666125e-02 +3.83417457e-01 +2.69519798e-02 +1.23167619e-01 +2.08658408e-02 +1.69277117e-01 +7.92438686e-02 +5.34808040e-01 -3.22880670e-02 +1.67306066e-01 -2.92106479e-01 -6.95889145e-02 -5.68084478e-01 -2.07181454e-01 -8.02031934e-01 +5.03103375e-01 -8.82946849e-02 -3.56679350e-01 +7.37617314e-02 +1.26915291e-01 -3.15034002e-01 -4.84905422e-01 -2.69283175e-01 -6.49427831e-01 -1.76528499e-01 -4.01745766e-01 +6.51820898e-02 -9.35434625e-02 +4.74723458e-01 -9.01079029e-02 -4.50050324e-01 +7.87625194e-01 +2.34127611e-01 +2.58181334e-01 -1.40528930e-02 -1.89935371e-01 -8.93810809e-01 -1.36680856e-01 -5.77823043e-01 -3.61410826e-02 -5.75832367e-01 +2.00273842e-02 +3.32625836e-01 -4.46690805e-02 -7.66534209e-01 +2.18770653e-01 -3.18728477e-01 -2.98907071e-01 +4.33660746e-02 -3.51243138e-01 -2.22724423e-01 +3.48300755e-01 +3.64433050e-01 +3.28958333e-01 +2.29245231e-01 +8.72065593e-03 -7.21120602e-03 -1.55778140e-01 +1.46349832e-01 -4.79103684e-01 +3.11853606e-02 +3.35858844e-04 +4.55219656e-01 +4.41380858e-01 +3.58725041e-01 -1.22997187e-01 +4.36935388e-02 +5.72735250e-01 -8.62073839e-01 +8.36011171e-02 +5.82802221e-02 -1.33177626e+00 -1.22456118e-01 +9.89879295e-02 -1.47668526e-01 -1.17317617e-01 -1.53843179e-01 -4.40667272e-02 +4.33726385e-02 +4.84718420e-02 +9.59208161e-02 +4.34899926e-01 +1.33566022e-01 +4.97356176e-01 +1.61745146e-01 +1.54995427e-01 +3.28883320e-01 -5.84271073e-01 -6.09258711e-02 +1.55445933e-01 +2.50958771e-01 -3.87792587e-02 -7.76284859e-02 -1.29468933e-01 +8.46927017e-02 +6.79499060e-02 -1.01310112e-01 -7.20468722e-03 +1.38309389e-01 +8.36874545e-02 -3.81314345e-02 +1.49026290e-01 -4.20480594e-02 +6.44768476e-02 -1.74025476e-01 +8.83201063e-02 -8.75954926e-02 +2.22923934e-01 -2.63280243e-01 -1.78047270e-01 +2.81007681e-02 +1.04734337e+00 -4.50961776e-02 +3.51518504e-02 -2.28826478e-02 -1.16716959e-01 -2.87456363e-02 +1.04123130e-01 -6.37684762e-01 +2.01570243e-01 +6.98647380e-01 +4.35836911e-01 +6.18138760e-02 -1.88775599e-01 -1.06491722e-01 +7.77736753e-02 -3.46975684e-01 +2.80585140e-01 +1.70100898e-01 -1.00815995e-02 +2.25896403e-01 +9.55107212e-02 -5.61016686e-02 +3.16307507e-02 -1.64350867e-01 -6.23034430e-05 +7.66382813e-01 +4.35265958e-01 +1.97282076e-01 -1.53172657e-01 -6.11574888e-01 +5.69475532e-01 +3.66383135e-01 +5.83530962e-01 -3.33748132e-01 +3.29790674e-02 -2.56325036e-01 +5.33915401e-01 -4.65872735e-01 +9.62486118e-02 +1.20200694e-01 +1.72321536e-02 -5.29686451e-01 -1.59653232e-01 -2.35902607e-01 +3.19680959e-01 +4.37388241e-01 +1.71301708e-01 -8.36437419e-02 +5.65303504e-01 -2.45501101e-01 +3.82096857e-01 +7.35460758e-01 +5.80778480e-01 -1.69401035e-01 -3.63718010e-02 +2.51723975e-01 +5.81076801e-01 +1.59945741e-01 +1.01506680e-01 +1.04544139e+00 +4.90556359e-01 +1.10099331e-01 +1.62172437e-01 +6.65890425e-02 +2.68300295e-01 +3.99186194e-01 +6.02347255e-01 +2.70177513e-01 +6.96690500e-01 +8.77724215e-02 +1.81408688e-01 -2.81203002e-01 -7.09461272e-01 -1.43539473e-01 +6.25632942e-01 +1.32755414e-01 -3.77295852e-01 -2.75873274e-01 +1.14996687e-01 -3.56720895e-01 +9.94067639e-03 +2.22601831e-01 +1.26116395e-01 +5.03739715e-01 +7.83687234e-01 +3.81216288e-01 +2.14649901e-01 -1.10710576e-01 +3.65899444e-01 +1.57666057e-01 +7.65336454e-01 +1.70223460e-01 +5.74993253e-01 -7.08670123e-03 +3.89009297e-01 -1.42715618e-01 +3.79287861e-02 -2.99920924e-02 -4.60488945e-01 +3.14658396e-02 +3.78394097e-01 +4.37914170e-02 -1.92296222e-01 -9.68128443e-02 -2.09164903e-01 -1.82546631e-01 -2.77259238e-02 +6.98621497e-02 -9.98391658e-02 -7.05898553e-02 -1.44109860e-01 -2.43179016e-02 +2.19802305e-01 -2.26982962e-02 -4.06601399e-01 -7.23970979e-02 +7.92335160e-03 -1.51497245e-01 -2.19314933e-01 -6.02860823e-02 -5.04317461e-03 +8.67903605e-02 -1.21144906e-01 -1.22770682e-01 +4.25728083e-01 +3.06043904e-02 +1.19343317e+00 +2.16962650e-01 +1.09686926e-01 +3.20635474e-04 +2.42147624e-01 +3.09427768e-01 +2.99965590e-02 -4.30069901e-02 +4.72508073e-01 +3.36172506e-02 +3.88211638e-01 -1.36017092e-02 -1.49254367e-01 +4.00100239e-02 +4.80299182e-02 +4.67782229e-01 -2.51062829e-02 -3.76124680e-01 +4.11475956e-01 +1.81821529e-02 -2.25454226e-01 +2.84272403e-01 -5.56164324e-01 -2.41948560e-01 -3.45219553e-01 +6.36404231e-02 +6.99033618e-01 +2.33383745e-01 +1.36843085e-01 -1.29367515e-01 +1.02186069e-01 -7.25502551e-01 -1.29603576e-02 -1.66227296e-01 +9.20110226e-01 -3.51187617e-01 +1.45576000e-01 -5.90340257e-01 +4.79490966e-01 -2.22441345e-01 +3.03913027e-01 -3.14771950e-01 -3.33010815e-02 +4.55411933e-02 -1.71259239e-01 +6.07727282e-03 -5.43561041e-01 -1.07316084e-01 +2.20519140e-01 +8.31907213e-01 +4.84418958e-01 +6.01977885e-01 +4.04654354e-01 +2.39677891e-01 +1.88504923e-02 -1.92405567e-01 -3.62003237e-01 -2.73221135e-01 -4.37383085e-01 -4.15755659e-01 -3.18070799e-01 +3.15923393e-01 -2.76405603e-01 +5.09505451e-01 +1.95627868e-01 -2.99712569e-01 -1.55809134e-01 +9.03273895e-02 -2.35488951e-01 -3.79947692e-01 +3.92759889e-01 +8.67311060e-02 -2.34289959e-01 +1.37985319e-01 -9.17531922e-02 -1.12158306e-01 -4.05994952e-01 -1.40071258e-01 +1.80105031e-01 +5.02976239e-01 -4.12305474e-01 -4.43399400e-01 -1.72133639e-01 +2.77604073e-01 +5.87998211e-01 -3.57753217e-01 +7.86136538e-02 -4.13736731e-01 +4.57202271e-02 -8.21835920e-02 -4.52422380e-01 +2.38468125e-01 +3.29103410e-01 -6.25336349e-01 +2.15157837e-01 -8.89949918e-01 -9.84808579e-02 +1.44459054e-01 -8.48178342e-02 +4.39803712e-02 -1.90276250e-01 -2.05915198e-01 +1.63385749e-01 +1.95055008e-01 +1.61023796e-01 -5.51174916e-02 -1.35358289e-01 -3.64962369e-02 +1.08932585e-01 +3.70700210e-01 -1.35295421e-01 +1.33972391e-01 -2.14771986e-01 -2.61170834e-01 -1.36845037e-01 -9.52537209e-02 -3.31984818e-01 +8.11043661e-03 -1.02611579e-01 -4.30327356e-02 +1.66643009e-01 +2.09661096e-01 +5.71694486e-02 +2.36767784e-01 +1.67038321e-01 -1.02354825e-01 -4.18192707e-02 -4.55072001e-02 +5.52839100e-01 -2.59369820e-01 +1.28387421e-01 +7.43058980e-01 -3.94976705e-01 +1.61080994e-02 +1.54353619e-01 +4.33806330e-02 +3.47625643e-01 -5.61761372e-02 -1.30020094e+00 +2.52333701e-01 -8.91818032e-02 +1.60969391e-01 +2.44445398e-01 -9.14150253e-02 -1.74376175e-01 -1.18329316e-01 +8.02977681e-01 +4.74054739e-02 -1.25252411e-01 -4.66917753e-01 -7.83514306e-02 +3.15043390e-01 +4.58241612e-01 +1.38416171e-01 -3.51530731e-01 -3.93996119e-01 +3.93758088e-01 -2.55277991e-01 -2.29773857e-02 +6.74974978e-01 +8.05872381e-02 -6.45596981e-01 +8.41333866e-02 +1.34079039e+00 +1.98978439e-01 -1.29385829e-01 -1.26062259e-01 +6.73867941e-01 +2.83843189e-01 -2.52007037e-01 +4.32108879e-01 -5.11329532e-01 -3.21536779e-01 +2.78956071e-02 -2.93613467e-02 -8.21633875e-01 +9.73500386e-02 -9.33986455e-02 +1.82224691e-01 -7.97184780e-02 +3.30116123e-01 +6.82606101e-02 +2.00169712e-01 +6.36019185e-02 -4.36876975e-02 -2.21937150e-02 +4.82935041e-01 +5.16254976e-02 -8.80238414e-02 -2.10700125e-01 -3.26329798e-01 -6.93340600e-01 +2.10277498e-01 +1.80514276e-01 +1.30048275e-01 +5.50032139e-01 -5.19798696e-02 +1.44390374e-01 +1.58049509e-01 +5.88964105e-01 +1.10157192e-01 +2.74785459e-01 +1.53195605e-01 +6.07431643e-02 -2.33967185e-01 -6.14647388e-01 +3.08480281e-02 -6.42068565e-01 +1.20011441e-01 +2.70599067e-01 -3.53087068e-01 -3.40003729e-01 +1.38578522e+00 +2.87592173e-01 +1.34017289e+00 -1.59745410e-01 +2.92530864e-01 +1.05360627e+00 +1.16628277e+00 +3.08949679e-01 +4.40390497e-01 +5.54980002e-02 +1.34263217e-01 -1.43803194e-01 -3.76417905e-01 -1.95608273e-01 +3.85800958e-01 -1.66160628e-01 +7.22538009e-02 +2.25024179e-01 +1.56660452e-01 -7.45551288e-02 +2.10243016e-01 +2.00995840e-02 -1.65474772e-01 +5.13104443e-03 +5.15368162e-03 -3.76343191e-01 +1.69251695e-01 +4.99563776e-02 -3.75323206e-01 -9.34766084e-02 -1.96902812e-01 +1.27942950e-01 +1.32190943e-01 -4.02826071e-02 +1.17825642e-01 -3.25799286e-02 -2.00362727e-02 -1.35725066e-01 +2.93819636e-01 -4.34810529e-03 +3.26276980e-02 -2.10160777e-01 -1.01508126e-01 -1.15062557e-01 -2.18500435e-01 -2.75841087e-01 -1.39904544e-01 +2.02094674e-01 -1.35864094e-01 +6.78934762e-03 +1.54854059e-01 +1.25343883e-02 +1.10987768e-01 +5.17392516e-01 +5.74375242e-02 -3.52192044e-01 -4.17665958e-01 -3.63201797e-01 +4.24646616e-01 -4.70268041e-01 +9.64212939e-02 +2.39150841e-02 +4.08172697e-01 -2.48980045e-01 +5.35152376e-01 +1.77679196e-01 -6.10690750e-02 +1.34291336e-01 +2.47594208e-01 +3.28062892e-01 -3.78351137e-02 +1.60662979e-01 +1.10675052e-01 +1.31177530e-01 +4.03930657e-02 -6.51834428e-01 -7.47487426e-01 -2.98582077e-01 +6.81437910e-01 +2.50899434e-01 +4.66982387e-02 -2.41856381e-01 +2.81348452e-02 -2.64636595e-02 +9.93207693e-02 +3.01730894e-02 -2.84866899e-01 +1.42522573e-01 -8.71487409e-02 -2.95556765e-02 -1.24097848e+00 -6.43740237e-01 -2.05125317e-01 +2.34094173e-01 +8.01138803e-02 +6.18022799e-01 +2.17708290e-01 +3.70439827e-01 +7.74312496e-01 +2.57228781e-02 -1.70028523e-01 -2.32631668e-01 -2.27609411e-01 -1.61681771e-01 -1.67668477e-01 +1.78899288e-01 +8.68877321e-02 +3.31069857e-01 +3.79370213e-01 -5.31509101e-01 +1.16768882e-01 -6.63131997e-02 -2.76602417e-01 -5.24830818e-01 +1.35296583e-01 +2.09989518e-01 +2.11780369e-01 +4.53787744e-01 +7.40626529e-02 -8.26272517e-02 -2.18319237e-01 +3.30951922e-02 +3.71071100e-02 +1.76258646e-02 -3.40735704e-01 -3.25797528e-01 -5.24610460e-01 -7.02595338e-02 +2.31919065e-01 -1.27533388e+00 +3.25556755e-01 -3.19946170e-01 +1.37704834e-01 -1.22370057e-01 -5.47088802e-01 -1.35256186e-01 -4.20265794e-01 -4.28264678e-01 -1.59432262e-01 -9.54824209e-01 -5.33639453e-02 -7.71697145e-03 +2.62545466e-01 -4.11203392e-02 +1.69780497e-02 -5.63023351e-02 -1.82347789e-01 +2.35751152e-01 +1.20801330e-01 +1.55535445e-01 -3.80691767e-01 -1.51394233e-01 +6.43956810e-02 +6.37211800e-02 -9.06265825e-02 +3.57673019e-01 -3.34348768e-01 -2.63985455e-01 -2.62045145e-01 +1.39087588e-01 -1.84097439e-02 +1.15742646e-01 -4.05262299e-02 +5.78808896e-02 +2.05916047e-01 -5.14195785e-02 +8.18425119e-02 +1.93068132e-01 -2.44972005e-01 -1.83009550e-01 +1.03776224e-01 +5.83902001e-02 +7.81248733e-02 +9.70756486e-02 -2.38159522e-01 +4.81646210e-01 -4.18883339e-02 +1.13994442e-01 -4.65244949e-01 +2.88791358e-01 -2.15719238e-01 +9.46772218e-01 -6.67381048e-01 -1.83575302e-01 -5.51288784e-01 -3.40426534e-01 +8.99926201e-02 +2.59167072e-03 -2.23418206e-01 +3.59599777e-02 -2.75606930e-01 -5.45452125e-02 +3.22342515e-01 +2.42810354e-01 -6.63088977e-01 -5.49100041e-01 -8.95179994e-03 -2.19970852e-01 +6.19015433e-02 -6.54692292e-01 -4.43088830e-01 -1.38748577e-02 -2.16232494e-01 -3.62141520e-01 -2.13560209e-01 -9.74682629e-01 +6.76239580e-02 -1.06510818e-01 -4.31514114e-01 +5.47307014e-01 +4.59046155e-01 -3.93332634e-03 +3.62426564e-02 +6.72587827e-02 +4.79956150e-01 +3.80569369e-01 -2.51824886e-01 -5.18726707e-01 -3.67222637e-01 +5.84684432e-01 -1.82101756e-01 -5.91001034e-01 +2.34899953e-01 -6.65631592e-02 -1.27599001e-01 +3.21960263e-02 -4.03357178e-01 +1.86829403e-01 +2.67465681e-01 -2.04119921e-01 -5.81522107e-01 +1.58511862e-01 +2.04260379e-01 +1.04011685e-01 +2.93917298e-01 -3.95797104e-01 +3.72846350e-02 -1.74742937e-01 -1.75702631e-01 +1.82609499e-01 +1.57746614e-03 -4.01796818e-01 +1.19034715e-01 +1.84832096e-01 +8.37690413e-01 +5.29826522e-01 -6.04611814e-01 +1.61436513e-01 -1.75023153e-01 -2.62781918e-01 +8.20953250e-02 +3.23413074e-01 -2.90093094e-01 -3.87991481e-02 -9.36441198e-02 -4.39128786e-01 +1.59058690e-01 -8.71140361e-01 -1.53802529e-01 +1.52406916e-02 +3.70755605e-02 -2.97308624e-01 -6.04033589e-01 -1.69557750e-01 -3.32518786e-01 +2.60197282e-01 -5.25841773e-01 -1.19290777e-01 -5.62130846e-02 -3.42180252e-01 +3.68682891e-01 +2.19776705e-02 +2.81102598e-01 +5.45898778e-03 +4.46002325e-03 +1.11384921e-01 -4.92444262e-02 +3.42505455e-01 -3.95937771e-01 -5.43253981e-02 +1.42991185e-01 -1.87058914e-02 +9.89190266e-02 +3.92372087e-02 -5.71198165e-02 +1.09259263e-01 -5.64999878e-01 -1.89269483e-01 +7.08377436e-02 -1.03558160e-01 -1.76579766e-02 -2.43659288e-01 +1.54623792e-01 -8.32131878e-02 +7.83578902e-02 -6.77068949e-01 -5.63492663e-02 +1.62530974e-01 -1.50411144e-01 -1.50715962e-01 -3.14585686e-01 +5.96009754e-02 -2.95946389e-01 +2.32446387e-01 +5.81690259e-02 -1.74481384e-02 +1.20000176e-01 -2.40104571e-01 -1.05350316e-01 -1.27658129e-01 +2.04409063e-01 -5.42183161e-01 -5.96625090e-01 +2.06454128e-01 +1.15961462e-01 +8.15501437e-02 +4.36030552e-02 +1.48144931e-01 -4.88146603e-01 -2.67308950e-01 +3.82912040e-01 +1.75555959e-01 -1.98411107e-01 +3.01521331e-01 +1.38446142e-03 -1.43985555e-01 -2.69809753e-01 +3.19749191e-02 -5.42411655e-02 +1.76679581e-01 +8.83462876e-02 +3.66612643e-01 -1.50104359e-01 +1.51915058e-01 +3.43245029e-01 -2.93618441e-01 +1.35324821e-01 -5.22387564e-01 +1.02796312e-03 +2.30417565e-01 +1.48361266e-01 +1.42778885e-02 -8.61239076e-01 +1.33699030e-01 +1.38867944e-01 +2.39603594e-01 -8.73434663e-01 -2.06294343e-01 -4.50817019e-01 +1.82916075e-01 +1.89007714e-01 +1.01644647e+00 -8.35865289e-02 +5.92965819e-02 +4.84335840e-01 -2.21583843e-02 +5.11472881e-01 +6.12396181e-01 -5.77119112e-01 -7.48606205e-01 +2.29636896e-02 +5.70529163e-01 +3.24323922e-02 +1.18055716e-01 +3.85282964e-01 -9.20319796e-01 -8.39534029e-02 -6.08870208e-01 +4.32710797e-01 -2.88650692e-01 -2.49931306e-01 -2.15919718e-01 -7.16065705e-01 +4.84593093e-01 -4.77577075e-02 -2.22558886e-01 -4.46507968e-02 -1.75495535e-01 +1.24045044e-01 +5.32752752e-01 -7.68586993e-01 -6.51519001e-02 -2.96315610e-01 +1.98088586e-01 -3.13391238e-01 -1.05430973e+00 -4.87000108e-01 -1.67281941e-01 +1.60111263e-01 -4.29304063e-01 -1.04324234e+00 -3.64179194e-01 -1.84002087e-01 -4.75810803e-02 -5.35115898e-01 -6.38338327e-01 +2.76930600e-01 +7.13190883e-02 +2.36594975e-01 -1.16268694e-02 -6.71348274e-02 -2.89768279e-01 -2.76283085e-01 +1.52037703e-02 +1.37907177e-01 +3.81103158e-01 +3.23803842e-01 +6.45768046e-02 -1.05100967e-01 +1.11495741e-01 +6.30709226e-04 +9.46106389e-02 +7.23234117e-02 -1.17280222e-01 -2.47687809e-02 +4.87217903e-01 +4.46994677e-02 -8.90792981e-02 -1.52894065e-01 +5.63872978e-03 +3.99740368e-01 -2.22192466e-01 +1.27016142e-01 +2.00964883e-02 -1.03328496e-01 +8.21565315e-02 -1.59609523e-02 +9.07184333e-02 -1.59179196e-01 +3.39858800e-01 +2.10692912e-01 -5.51841073e-02 +2.01410756e-01 +3.67421627e-01 -9.22280028e-02 +2.41142794e-01 +3.66814226e-01 +2.09774509e-01 +4.31193113e-01 +3.18962604e-01 +1.28614992e-01 -3.25461388e-01 +2.84266502e-01 +9.39783677e-02 +1.33295223e-01 -2.81168133e-01 +1.42802104e-01 -2.15375852e-02 +3.86688299e-02 +3.29943627e-01 -1.17186427e-01 -3.30065727e-01 +1.03034005e-01 +7.93239832e-01 +3.73171955e-01 -7.10499585e-02 +1.56135470e-01 -3.36502306e-03 +1.66332424e-01 -5.32543600e-01 -3.20275366e-01 -3.92975807e-01 +2.27510110e-01 -3.09939712e-01 +1.87307999e-01 -5.09235144e-01 +2.45021686e-01 -6.51157081e-01 -1.21618219e-01 +1.56437978e-02 +3.14394057e-01 +6.86388552e-01 -2.22127214e-01 -4.00647260e-02 -3.86997133e-01 -2.43075252e-01 +4.07581270e-01 +7.29907215e-01 +2.99763888e-01 -3.66456360e-02 +7.92323649e-01 +1.73104212e-01 -5.78926146e-01 -5.11104643e-01 -7.88241863e-01 -4.76242810e-01 -4.56801116e-01 +2.02303454e-01 -4.60859574e-02 -3.10959250e-01 -2.90993303e-01 +8.38717282e-01 +3.00125420e-01 -3.02782785e-02 -4.60506491e-02 +4.20975626e-01 -6.90363228e-01 -3.48239869e-01 +2.73158789e-01 +2.38464728e-01 +2.82355696e-01 -2.54882455e-01 -8.23241472e-02 -2.14644410e-02 -6.60721242e-01 -4.48234454e-02 +9.70906988e-02 +2.43366182e-01 +1.15946300e-01 -2.35470295e-01 +3.52852851e-01 +4.88998502e-01 +5.54161489e-01 -3.40950996e-01 -1.42209977e-01 -5.14677465e-01 +2.02807952e-02 +1.69025719e-01 -5.75336218e-01 +3.48472089e-01 +1.93027154e-01 -4.16162997e-01 +2.72264034e-01 -3.49612862e-01 -3.62618715e-01 +1.04909070e-01 -1.98704928e-01 +1.56028077e-01 -6.37773424e-02 +6.50297245e-03 +8.96306261e-02 +1.02827027e-01 +1.12640075e-01 +5.05391136e-02 -3.74406070e-01 -1.19526319e-01 +1.56144783e-01 +5.85847318e-01 +2.73538772e-02 +6.95421770e-02 -1.96004614e-01 -3.48521210e-02 -1.29424810e-01 -1.67744756e-01 -9.96997356e-02 +8.59017521e-02 -6.60830960e-02 +2.19190754e-02 +1.49970576e-01 +2.84274489e-01 -4.24720384e-02 +6.68379366e-02 +9.18496773e-02 -1.21405330e-02 -1.21323451e-01 +4.88582589e-02 +3.21617097e-01 -5.11073172e-02 -2.39297733e-01 +3.36071074e-01 +2.38591075e-01 +1.95569888e-01 -3.43301833e-01 +6.48187816e-01 -1.92582607e-01 +2.65023589e-01 +7.62589753e-01 -2.68514782e-01 +3.50339115e-01 +5.76391578e-01 +5.28682411e-01 +5.41803718e-01 -1.01462953e-01 +3.83265555e-01 -6.63053513e-01 -2.27247909e-01 +2.29325801e-01 +1.78184509e-01 -2.89935321e-01 +2.66729519e-02 +1.86041534e-01 +3.77002716e-01 +3.06430280e-01 +1.02192074e-01 +4.87327464e-02 +4.83564883e-01 -2.90572017e-01 +8.60010535e-02 +1.24714337e-01 +1.40143201e-01 -3.51797193e-02 -2.26240247e-01 -3.26923490e-01 +4.91873562e-01 -2.77665168e-01 -2.48255461e-01 -8.34553167e-02 -3.02962482e-01 -1.65063158e-01 -2.86022455e-01 +5.52485049e-01 -3.69847447e-01 +6.38293922e-01 -2.32691760e-03 -5.77152967e-01 +7.60232925e-01 +7.43024945e-02 +4.71322328e-01 +2.31607616e-01 +1.28908515e-01 +3.41279171e-02 -1.99455455e-01 -3.47409636e-01 +2.94749469e-01 -4.42708373e-01 +4.21177506e-01 +4.73701805e-01 +5.30025601e-01 +6.56233609e-01 +1.13945842e+00 +1.24283694e-01 +4.66203317e-02 +1.71740517e-01 +2.42505651e-02 +4.62290883e-01 -1.27823606e-01 -1.40058845e-01 +1.67382881e-01 +3.61367494e-01 -3.94154489e-01 -3.46412420e-01 -3.62399071e-01 +7.07654655e-02 +3.70755732e-01 +3.82550418e-01 +3.80157173e-01 +5.19586839e-02 +1.09810337e-01 +2.36859113e-01 +5.26382327e-01 -5.42354465e-01 -1.26269057e-01 -3.45330715e-01 +4.57314223e-01 -5.36282957e-01 +2.77910262e-01 +2.65424997e-02 +6.85530528e-02 -2.33041332e-03 +2.59657770e-01 -5.96153915e-01 +3.39767039e-02 +6.38647854e-01 +8.14378485e-02 -3.80564362e-01 +1.77876532e-01 +2.44013779e-02 +1.50996018e-02 -1.58340111e-01 +2.62787342e-01 -1.13272607e-01 +7.08655059e-01 +1.69188231e-02 -2.14958072e-01 -1.67516619e-02 +3.30592930e-01 -3.13863188e-01 -9.21398997e-02 +3.35563533e-02 +5.60581684e-02 +1.00648798e-01 +1.65105283e-01 +1.58806011e-01 -8.56058672e-03 +7.61422366e-02 +1.71702147e-01 +9.23476089e-03 +6.14368841e-02 -3.69497925e-01 -1.29535928e-01 -9.66293812e-02 +2.14757785e-01 +1.22995526e-01 +2.67494559e-01 +3.60828757e-01 +3.30903769e-01 -9.15166959e-02 -2.15614751e-01 +2.21497163e-01 -2.81700790e-01 +2.86515858e-02 -4.79451269e-01 +1.71544388e-01 -6.64606094e-01 +8.60644400e-01 -2.59220541e-01 +9.32981074e-02 -8.13222468e-01 -3.65689188e-01 -3.01996171e-01 +6.20116852e-02 +1.63191810e-01 -8.40531290e-01 +3.64210397e-01 +1.24130383e-01 +8.87097836e-01 -6.61852285e-02 -7.19894409e-01 -2.74787039e-01 +2.08453819e-01 +3.69453914e-02 +5.44757128e-01 -4.64502871e-01 +4.28165555e-01 -2.12536514e-01 -1.02071655e+00 +5.92063740e-03 -1.35108344e-02 +1.99112311e-01 -9.71984386e-01 -2.39837244e-01 -5.23484766e-01 +1.15374506e-01 -1.01532221e+00 -5.61078370e-01 +4.71320570e-01 +3.36285412e-01 +5.93631379e-02 +1.21658713e-01 +3.91405463e-01 -2.86577761e-01 +4.49538529e-01 +3.79522741e-01 +3.46899420e-01 -2.02225834e-01 -3.65269393e-01 -3.92895371e-01 +3.52792650e-01 -3.10793042e-01 +3.54020968e-02 -3.75055760e-01 -1.03637002e-01 -1.29302010e-01 +2.68517822e-01 +3.74316722e-01 -1.74967706e-01 -5.98260164e-01 +1.06870782e+00 -3.23991060e-01 +7.10359737e-02 -9.71697643e-02 +4.19851206e-02 -4.14460376e-02 -2.82640308e-01 +4.11034644e-01 -3.23329866e-01 -8.27718139e-01 -4.62261558e-01 -4.78584141e-01 +7.22998977e-02 -1.41911179e-01 +3.84188369e-02 -9.41418931e-02 +1.33510399e+00 -1.44362718e-01 -5.33410192e-01 +1.02370992e-01 +1.56469226e-01 -6.54085517e-01 -3.09356153e-01 -1.00530457e+00 -3.05988699e-01 +2.20367491e-01 -2.20942900e-01 -1.45633030e+00 +1.20226368e-01 +1.26196653e-01 +1.51382327e-01 +2.36864001e-01 -2.51711875e-01 +2.20095903e-01 -2.83481227e-03 -1.54632658e-01 +1.08017527e-01 -2.12843701e-01 -2.97144979e-01 -1.80413827e-01 +1.09836340e-01 -2.13915691e-01 -9.13081542e-02 +1.62814260e-01 -1.97427720e-01 +7.65651539e-02 -2.97861900e-02 -5.35533391e-02 -3.06943595e-01 +1.95336729e-01 -6.04537092e-02 -4.20897573e-01 -4.12909538e-01 -4.67034839e-02 -3.94457549e-01 -8.15092176e-02 +7.40011483e-02 +8.52954760e-03 +3.34411353e-01 -3.05625021e-01 -4.52090651e-02 +2.29504377e-01 +3.34878981e-01 +3.54406424e-02 +1.46118507e-01 +3.66184831e-01 +1.36506334e-01 -7.39479542e-01 -9.96787697e-02 +1.96145386e-01 +1.63107604e-01 +7.75673538e-02 +3.24374251e-02 +1.07199356e-01 +7.78964639e-01 +2.81825751e-01 -1.87513068e-01 -4.11703736e-01 -5.46265431e-02 +5.38702980e-02 +1.89223930e-01 -5.38505428e-02 +2.35974297e-01 -1.26990303e-01 -2.50908017e-01 +1.70069262e-01 -5.86077422e-02 +8.59318897e-02 +1.51920155e-01 -1.59702212e-01 +1.31338596e-01 +9.44571495e-02 -4.46556598e-01 +5.30568417e-03 -3.97203654e-01 +1.74180657e-01 +2.36045852e-01 -6.61386192e-01 -4.23453934e-02 -5.57014227e-01 +4.25668061e-01 -3.02467406e-01 +2.59678602e-01 -5.26060998e-01 +1.48391366e-01 -1.07320003e-01 -2.29276314e-01 +1.87812716e-01 +3.40178818e-01 +2.91845966e-02 +1.02754049e-01 -4.03029770e-01 -3.15756887e-01 +2.04285607e-02 -7.04692770e-03 -7.50639215e-02 +5.60097583e-02 -4.28822339e-02 -4.05050546e-01 +2.57943511e-01 -2.16824993e-01 -3.14207405e-01 -2.49186367e-01 -2.83605635e-01 -4.50320303e-01 -2.46545017e-01 -8.05548728e-01 -5.67766964e-01 -1.31985769e-01 -3.02632600e-01 +2.14919865e-01 -2.24132255e-01 -5.65359414e-01 -4.25726533e-01 -3.70177515e-02 -1.00584078e+00 -1.04851894e-01 -1.88298404e-01 +3.36650968e-01 +1.17435014e+00 +3.31889302e-01 -6.60177886e-01 -4.31676269e-01 +1.67844981e-01 +6.52133152e-02 -3.25715728e-02 +2.39818081e-01 -1.50932476e-01 -3.48469049e-01 +1.19545124e-01 -3.59646790e-02 -3.25316846e-01 -5.49311638e-01 -4.47039455e-01 +4.19539474e-02 +1.72634631e-01 -3.79743397e-01 -7.21181154e-01 -2.18006313e-01 +2.26647058e-03 +1.33006141e-01 -1.01956509e-01 +1.84596598e-01 -1.28973752e-01 +1.44524708e-01 +5.64661860e-01 -1.08385936e-03 -2.30591252e-01 -7.77379423e-03 +2.01011598e-01 -1.58206865e-01 +1.62454456e-01 +2.53695101e-01 +7.54841119e-02 +1.95850074e-01 +1.42280042e-01 +3.26968729e-02 +8.46261382e-02 +2.80098394e-02 -2.95322519e-02 -3.22728865e-02 +2.33479679e-01 +3.23078454e-01 -9.83968005e-02 +9.86112654e-02 +1.96970701e-01 +1.64785355e-01 +7.97666386e-02 -1.49832424e-02 +1.59300655e-01 +9.70032346e-03 -2.52883732e-01 -1.15471087e-01 -1.43577588e+00 +1.87180623e-01 +1.69609755e-01 -1.18807510e-01 +1.77613124e-01 +2.77145654e-02 -2.37935394e-01 -6.18857965e-02 -1.21239640e-01 -7.98055291e-01 +5.50876677e-01 +1.27880588e-01 +9.13311169e-02 -3.61714780e-01 -2.02661052e-01 +2.51053482e-01 +1.63589656e-01 +1.09052159e-01 -3.14775646e-01 +1.04979724e-01 -2.74458528e-01 -2.48650521e-01 +8.20548013e-02 +1.14469223e-01 -5.55265188e-01 -3.72421324e-01 +1.72148749e-01 +3.29537094e-01 +1.45485908e-01 +1.24906287e-01 +3.18564385e-01 +1.42738724e+00 -1.46224156e-01 +5.90220928e-01 +1.14549562e-01 +5.94285190e-01 +4.12720218e-02 -3.00765615e-02 -2.76843071e-01 -1.59176558e-01 -8.49145055e-02 -3.58651951e-02 -1.12918711e+00 -5.11664569e-01 -1.44958854e-01 +6.05743766e-01 -4.08526845e-02 -2.51034945e-01 +9.90640670e-02 +2.40660071e-01 -1.19057298e-01 -3.32244843e-01 +2.62187362e-01 -1.22554138e-01 +1.12693775e+00 -8.79593194e-01 +1.35657623e-01 -7.99326599e-02 +6.11215532e-01 -6.21117711e-01 -1.68753326e-01 +7.96227530e-02 +1.86590001e-01 -3.91471028e-01 +1.37814194e-01 +4.24326897e-01 +1.60376355e-02 -8.19954634e-01 +7.00388253e-01 +6.01306200e-01 -3.69633913e-01 +1.44641638e-01 -9.00921643e-01 +1.22372657e-01 +1.79743081e-01 -2.18901888e-01 +2.79599190e-01 -1.37923419e-01 -3.49278033e-01 -3.75171721e-01 +2.97488153e-01 +2.53446221e-01 -1.72617789e-02 +1.42344251e-01 -4.49346542e-01 +1.03261042e+00 +7.24725127e-02 +1.12175815e-01 +9.54804420e-02 +4.67773020e-01 -1.17905252e-01 -4.78902549e-01 -1.42068058e-01 +4.00907636e-01 +2.93558151e-01 +7.54485846e-01 +4.63691980e-01 +1.52034789e-01 -1.62976369e-01 +1.03335559e-01 +3.20131443e-02 +8.96763876e-02 -5.50102219e-02 -2.01895267e-01 +2.27203652e-01 -2.21644774e-01 +6.25422597e-01 +2.58484989e-01 -1.45806834e-01 +9.41241756e-02 +1.65525991e-02 -3.47424626e-01 +6.43980950e-02 +1.61465749e-01 +1.48945719e-01 +1.32354781e-01 -3.44672315e-02 +2.07175985e-01 -1.22488223e-01 -1.37929115e-02 +8.10362678e-03 +9.48971510e-02 -7.39118643e-03 +2.50173926e-01 +1.13374181e-01 -6.27483428e-02 +1.04205899e-01 -7.32022896e-02 -1.00680292e-01 +1.83972195e-01 -5.27423620e-01 -7.18735084e-02 -1.43356860e-01 +2.39865646e-01 +3.50823998e-01 +7.58020952e-02 -3.49403560e-01 +2.26395391e-02 -1.62085325e-01 -7.93743506e-02 -9.65996832e-02 +2.58471429e-01 -2.45739669e-02 +1.19955260e-02 -7.70984516e-02 +2.70674646e-01 -5.92417240e-01 +1.90246180e-02 +5.66763043e-01 +8.77074338e-03 -2.62417972e-01 +2.94828534e-01 +7.97941387e-02 -2.14692533e-01 -2.14342885e-02 +4.11061235e-02 -6.28315508e-02 +1.88223377e-01 -3.46692950e-02 +7.03952909e-01 +4.20812488e-01 -1.36897400e-01 -1.87985167e-01 +3.77310440e-02 -1.31089732e-01 +1.50127858e-01 -5.29309094e-01 -9.82715264e-02 -1.70326754e-01 -4.26246196e-01 +4.71848607e-01 -4.36026931e-01 +3.43570024e-01 -4.38034646e-02 +1.57371476e-01 -1.26358569e-01 -3.77978265e-01 -4.84305143e-01 -1.30540416e-01 +1.97244838e-01 -3.46673965e-01 -2.61659287e-02 +2.36672267e-01 -2.28530496e-01 +4.25286829e-01 +2.72584468e-01 -3.24172050e-01 +3.37393045e-01 +5.85940540e-01 +4.17312719e-02 +3.95038307e-01 -4.73017424e-01 -7.76392147e-02 -6.96855271e-03 +3.07202935e-01 -6.67402372e-02 +1.02137494e+00 +1.64899319e-01 -9.74040926e-02 -1.43741921e-01 -2.38892198e-01 -2.33062029e-01 -2.36199126e-01 -1.15743754e-02 +5.24226546e-01 +2.71471627e-02 -2.00015113e-01 +1.28871247e-01 +1.39784783e-01 +2.12176070e-01 -5.86277962e-01 -9.99227166e-02 -6.08870722e-02 -1.15310960e-01 -2.76871413e-01 +1.22630730e-01 +1.13758929e-01 +1.15444019e-01 +2.26991713e-01 -1.32202089e-01 +1.97135210e-01 +4.25616652e-01 -5.77508807e-01 +3.27858418e-01 +3.90933543e-01 -3.23963873e-02 +2.06240460e-01 +3.08425687e-02 -7.55105093e-02 +6.33520484e-02 -6.45672379e-04 +2.89929993e-02 -1.25934318e-01 +4.48966533e-01 +5.38752526e-02 -3.76629494e-02 -3.71855497e-02 -3.84583533e-01 +2.94489693e-02 -4.23285156e-01 +1.58220567e-02 +1.95039287e-01 +6.84089661e-02 +1.76893845e-01 +7.58516788e-02 -2.36342907e-01 +2.96605885e-01 -8.36125985e-02 -1.56046674e-01 -1.75563425e-01 +9.56583172e-02 +4.44604550e-03 +1.34294987e-01 +4.07665856e-02 -9.20632407e-02 -3.64099108e-02 +6.01339415e-02 +1.84568405e-01 -7.07847416e-01 -1.14437521e-01 +8.21190029e-02 +2.92346150e-01 -3.04622978e-01 +2.11209089e-01 -2.59064175e-02 +7.18130112e-01 +9.91622210e-01 -1.07973501e-01 -2.90026665e-01 +1.90095846e-02 +3.64107043e-01 +5.07707179e-01 -1.08296908e-01 +6.75805807e-02 -3.22952211e-01 -3.98144305e-01 +9.24113467e-02 -1.69909559e-02 -2.39583272e-02 -7.86928684e-02 -1.05287135e-01 +3.73246223e-01 +3.72919351e-01 -5.98437130e-01 -2.46157303e-01 -2.21785948e-01 +1.75224110e-01 -1.61675856e-01 -7.27179170e-01 -7.89201644e-04 -3.63072395e-01 +4.39134166e-02 +1.53976902e-01 -9.82988179e-02 -2.38623530e-01 +2.97283921e-02 -1.06481954e-01 -2.10685909e-01 -3.71985942e-01 +2.81403631e-01 +1.71282962e-01 +2.69931018e-01 -4.23859239e-01 +5.65712035e-01 -9.06546265e-02 +2.64847070e-01 +2.15858832e-01 +4.29274857e-01 +2.69529521e-01 -1.00947931e-01 -7.11071253e-01 -7.80191600e-01 -8.27635050e-01 -4.12352532e-01 -8.02027524e-01 -6.44466043e-01 -1.22039169e-01 -3.32915708e-02 +1.50091322e-02 +3.00769895e-01 +2.06542294e-03 -1.97554365e-01 -3.10641974e-01 -4.93593365e-01 -3.77580196e-01 -4.08339381e-01 -8.55968416e-01 -1.65986121e-01 -2.34677158e-02 +1.54321581e-01 +6.49039865e-01 +1.79093853e-01 -1.00125015e+00 -2.53006890e-02 +3.39456089e-02 +4.35961038e-01 -2.26255134e-01 -1.99526951e-01 +3.59091789e-01 +1.76531076e-01 -1.41197592e-01 -4.80806828e-01 -3.95069957e-01 -6.45511866e-01 -8.98044050e-01 -4.68101501e-02 -5.65728962e-01 +9.68676805e-03 -1.96673214e-01 -1.75461620e-01 -3.50451916e-01 -3.77897561e-01 +7.87831247e-02 +3.61109555e-01 -2.81485826e-01 +3.21554154e-01 +4.61857647e-01 +2.39529870e-02 -2.15328321e-01 +4.91327830e-02 +2.14922309e-01 +1.12996556e-01 -1.27003163e-01 +2.56068140e-01 +1.35617271e-01 +4.68378097e-01 +1.36775442e-03 +8.65743160e-02 +1.47675768e-01 +5.93606569e-02 -1.24136396e-01 -1.45073593e-01 +3.30793634e-02 +2.42169574e-01 -2.48946529e-02 +1.24590240e-01 +7.92087555e-01 +1.52005941e-01 -2.25405246e-01 -4.59453054e-02 -3.69922742e-02 -2.85479799e-03 -3.56080234e-01 +4.85391095e-02 -4.54168469e-01 -4.57024686e-02 +5.04148543e-01 +6.55198097e-02 -3.89555156e-01 -1.96148440e-01 +4.36479300e-02 +2.97164232e-01 -3.67774874e-01 -5.52702606e-01 -4.98214513e-01 +9.04341459e-01 -4.00121689e-01 +4.39178973e-01 -4.89700764e-01 -4.74644415e-02 -1.63976535e-01 -2.14751676e-01 -1.10333465e-01 +2.92878091e-01 -1.17382050e-01 -2.56993562e-01 +2.15520352e-01 +3.81692380e-01 +1.08776011e-01 -1.94598794e-01 +1.64481744e-01 +9.59693968e-01 +7.92442024e-01 -9.10414234e-02 -2.06783548e-01 +3.09636474e-01 +7.40634203e-01 +2.11528078e-01 +1.01275861e-01 -2.49996483e-01 -2.34060828e-02 -2.65136003e-01 +2.46895880e-01 -8.52298513e-02 +4.12063956e-01 -8.80719349e-02 +1.71222806e-01 -5.28457344e-01 -3.52717564e-02 +4.78245281e-02 +3.49033624e-01 +2.33403131e-01 +4.91141021e-01 -5.84636629e-01 +6.46056533e-01 +3.18898082e-01 +1.91937163e-01 +2.25042358e-01 -9.21596959e-02 -4.90497172e-01 -5.71523514e-03 +3.30576360e-01 -2.18359187e-01 +2.00627863e-01 +8.93297568e-02 +1.70700982e-01 -1.44708663e-01 -1.08030546e+00 +5.37783384e-01 -2.00746477e-01 +1.22753069e-01 +1.67934924e-01 -1.96410879e-01 +4.65600908e-01 +1.05233514e+00 +3.07503026e-02 +2.80120909e-01 -3.50532569e-02 -2.25989204e-02 -4.98660892e-01 +4.83602107e-01 +5.47598660e-01 -7.20938742e-02 -2.87366331e-01 -3.79212797e-02 +7.19060957e-01 +5.15400589e-01 +5.04212141e-01 +5.49219735e-02 +7.42787063e-01 +2.67032892e-01 -1.96082354e-01 +2.13147908e-01 +2.20114157e-01 -9.51905772e-02 +4.52889353e-01 +1.28838822e-01 -2.71920025e-01 +6.24260247e-01 +2.81817228e-01 -5.22830375e-02 +4.73143533e-02 -5.95937856e-03 -1.87707711e-02 -1.13927729e-01 -5.08777425e-02 +2.48611301e-01 -8.96230415e-02 +2.65333871e-03 +2.28252658e-03 -1.11455694e-01 +1.53288886e-01 -1.92938939e-01 -1.21426292e-01 -1.94756895e-01 +2.32405171e-01 -2.67086327e-01 +5.29739410e-02 +4.23978060e-01 +7.14010075e-02 -1.01753928e-01 -1.36352688e-01 -8.96609109e-03 -1.76468283e-01 -2.29929224e-01 -3.19703579e-01 +1.27430782e-01 +1.66869625e-01 +1.92847803e-01 -1.25555992e-01 +2.06051141e-01 -1.23586260e-01 +3.82125139e-01 +3.89846385e-01 +1.95488155e-01 +1.53555900e-01 +1.04550444e-01 +1.50136024e-01 +5.41869581e-01 -3.18151504e-01 -3.72416854e-01 -2.56740808e-01 -6.32516503e-01 -2.31562391e-01 -3.41976106e-01 -6.42139018e-02 -7.84268528e-02 -7.27382839e-01 -2.05259159e-01 +6.76087216e-02 -2.87652820e-01 -2.00652286e-01 +9.97965410e-02 -1.20574292e-02 -3.78011644e-01 -9.37105194e-02 +1.01994896e+00 -2.77691577e-02 +1.28796577e-01 +4.05396730e-01 +1.90041378e-01 -1.21190501e-02 -2.38344073e-01 -6.81286082e-02 +4.08018708e-01 -1.04988849e+00 +4.99691993e-01 -1.59725726e-01 +8.13262761e-02 -3.85034144e-01 -5.44183195e-01 -1.79745302e-01 -3.42376590e-01 -3.09156477e-01 +6.03601396e-01 -3.91381413e-01 -3.74661684e-01 +6.80819526e-02 -3.54746521e-01 -1.78890496e-01 +8.80261958e-02 -5.46130359e-01 +3.48386139e-01 +1.23943113e-01 -1.60511449e-01 +1.02458201e-01 +2.14095861e-01 -7.10365772e-02 -7.99033418e-02 +1.79531455e-01 +1.72484502e-01 -2.53543314e-02 +5.71977086e-02 -1.31828323e-01 -1.47473037e-01 -7.09909499e-01 -8.59060735e-02 -2.45496482e-01 +5.25356472e-01 +8.23304951e-02 -5.65695688e-02 -2.89926976e-01 +7.25941837e-01 +3.61096978e-01 -3.48707587e-01 -5.09980083e-01 -5.94844632e-02 +1.62088916e-01 -1.26679674e-01 -2.35331282e-01 -5.70685029e-01 -6.65178299e-02 -1.68162093e-01 -3.63030195e-01 -8.65923524e-01 -5.60922980e-01 -1.54396929e-02 -2.64959365e-01 +7.31077611e-01 +1.61017314e-01 +2.30797246e-01 +2.21733555e-01 +1.49630621e-01 +2.06752107e-01 +1.30808176e-02 -2.20442116e-01 +2.58314516e-02 +1.64708838e-01 -1.31122649e-01 -8.99109840e-02 -9.66541693e-02 -2.59092659e-01 -3.24458592e-02 +1.92267627e-01 +7.87915215e-02 -1.49520033e-03 -1.69175446e-01 +2.32514873e-01 +1.16416074e-01 +1.03524171e-01 +4.05667514e-01 +8.37543085e-02 -8.47895145e-02 -5.26701570e-01 -2.17239425e-01 +3.58609408e-02 +8.82529840e-03 -1.85414881e-01 +4.34489399e-02 -1.81392580e-01 -2.18874197e-02 -3.79580483e-02 -3.17484528e-01 +4.96383831e-02 +6.75296187e-02 +3.86432484e-02 +5.45597255e-01 -4.92773717e-04 +2.41166025e-01 -3.59832168e-01 +8.18040147e-02 -2.78143376e-01 +1.10272452e-01 -8.89554322e-02 +2.25623518e-01 +1.04203224e-01 -5.80835044e-01 +6.05089188e-01 -4.25047904e-01 +1.63727179e-01 +4.49123204e-01 -2.09073365e-01 +4.80701417e-01 +1.19256433e-02 +2.52585411e-01 -2.45112613e-01 -8.03195015e-02 +4.13180411e-01 -4.17922765e-01 -5.91881156e-01 +8.31472054e-02 -1.07447011e-02 -6.96729794e-02 +2.10860848e-01 +1.12303391e-01 +3.76501173e-01 -1.48490220e-01 -9.09210443e-02 +5.46570309e-02 +4.35047835e-01 +1.30228162e-01 +3.53316188e-01 -7.09941834e-02 +2.15674281e-01 -5.99872991e-02 -4.04830396e-01 +1.87451791e-04 +2.11796775e-01 -3.61300498e-01 -5.56919396e-01 -5.66245392e-02 +4.25274372e-01 -4.63800669e-01 +8.62697139e-02 -5.63481823e-02 -4.84332740e-01 +5.16874082e-02 -2.55619079e-01 -3.34256530e-01 -9.95472595e-02 -5.67396104e-01 -1.09530978e-01 +5.00758350e-01 +3.99968684e-01 +6.04920328e-01 -1.24307461e-01 -2.04173729e-01 +3.21914144e-02 +5.32178819e-01 +1.40748739e-01 -1.94381237e-01 +9.42577049e-02 +1.61806643e-01 +9.68871191e-02 +4.60216284e-01 +6.81651458e-02 +2.44388774e-01 -3.17137778e-01 +1.03724673e-01 -7.45230392e-02 -2.70147711e-01 +1.43847927e-01 +4.70776141e-01 -1.00782394e-01 +2.36306220e-01 -2.06852302e-01 +7.18026757e-02 -2.47664467e-01 -6.48168474e-02 -3.32540840e-01 +1.65103167e-01 -2.13541389e-01 +2.30684176e-01 +3.23772162e-01 -8.82688880e-01 -4.93822396e-02 +7.43306503e-02 +6.58903778e-01 -2.46488437e-01 -3.56719553e-01 +4.61226434e-01 -3.46959889e-01 -5.36188900e-01 +1.27603948e-01 -4.73637581e-01 +2.82564908e-01 +1.55654028e-01 +1.44063178e-02 -1.47780418e-01 +1.32996842e-01 -5.38550057e-02 +7.21519515e-02 -1.62292480e-01 -2.66302794e-01 +1.18932053e-01 +2.17639074e-01 +7.50363916e-02 -3.04183103e-02 -1.46585748e-01 +1.10312402e-02 -1.11869611e-01 -1.48561865e-01 +7.85626248e-02 +1.29200131e-01 +2.52484798e-01 -6.31115735e-02 +3.05288523e-01 +9.55907255e-02 +2.30717316e-01 +3.68880332e-01 -2.58006155e-02 +9.78093594e-02 -2.49858975e-01 -1.14917256e-01 -1.82338044e-01 +8.12179223e-02 +1.45545021e-01 +1.34102404e-01 -1.11207679e-01 -2.02887431e-01 +3.86247367e-01 +1.38235793e-01 +1.07998766e-01 -2.61883527e-01 -1.37951935e-03 -1.47825241e-01 -3.15532953e-01 -3.11304778e-01 -3.22710216e-01 +2.34266818e-02 +1.68945059e-01 -3.06312621e-01 -1.77962482e-01 -6.63626373e-01 -3.24629657e-02 +3.51602674e-01 -3.18284184e-01 +1.72715038e-02 +1.09431684e-01 +1.13126107e-01 -2.41699085e-01 -2.88980246e-01 +5.74628301e-02 -3.67259145e-01 -1.24828182e-01 -3.95686805e-01 -5.03403068e-01 +5.98753870e-01 -2.23158613e-01 -2.27949306e-01 +2.62255639e-01 -7.60025382e-02 +4.11827534e-01 -4.28499043e-01 -1.27465114e-01 +6.86510742e-01 +5.57928324e-01 +7.57061169e-02 -1.75064117e-01 +4.19142395e-02 +4.09128428e-01 +1.42272323e-01 +1.12380683e-01 -6.36448443e-01 -1.95595220e-01 +2.25655377e-01 +6.84409961e-02 -3.57698560e-01 -4.37505603e-01 -2.82712907e-01 -4.35084254e-01 +1.11070089e-01 -1.13015799e-02 +2.12616906e-01 +4.47497070e-01 +1.21584628e-02 +2.45055988e-01 +9.65542853e-01 +5.78025877e-01 -5.11827171e-01 +2.47271582e-01 -4.08256859e-01 -4.57004398e-01 +5.17647982e-01 +8.29678699e-02 +1.05212778e-01 +6.35163903e-01 +2.10753337e-01 +8.76916349e-02 +1.54853567e-01 +3.57190013e-01 -4.23716933e-01 -4.39720899e-01 +4.09071058e-01 +3.67105395e-01 -2.41072565e-01 -2.37178102e-01 +5.69932200e-02 -4.56706524e-01 -1.17471749e-02 -3.63716304e-01 -3.93780112e-01 -3.04689348e-01 -7.09774792e-02 -5.17689697e-02 +1.34670615e+00 +2.04343826e-01 +1.12820625e-01 +7.97634944e-02 -1.41087160e-01 +9.01663601e-02 +4.79570091e-01 -2.73906708e-01 +4.23405379e-01 +2.82477826e-01 -2.42559373e-01 +2.01575369e-01 +1.31251039e-02 +1.01640984e-01 -7.45526403e-02 -2.26096869e-01 -8.06000922e-03 -3.39796096e-02 +1.58757139e-02 +6.85798526e-02 -9.51134786e-02 +1.15340672e-01 -2.92637527e-01 +1.73318628e-02 -1.75420299e-01 +2.54896015e-01 +1.99837908e-01 -2.43022144e-01 -7.93712810e-02 +1.15631260e-01 -1.41794235e-01 +1.34188816e-01 +7.13131204e-02 -7.00121894e-02 +1.50002494e-01 -1.32271275e-01 -3.01594764e-01 +1.46366870e-02 +8.64547715e-02 -1.98699698e-01 -1.56931788e-01 -1.22566424e-01 +1.70140155e-02 -3.36963236e-01 +1.98109001e-01 +2.89861143e-01 +1.02809988e-01 +1.40212506e-01 -2.28856280e-01 -2.26143524e-01 +1.70341894e-01 -2.21725717e-01 -4.00331855e-01 -3.50292683e-01 +1.80140242e-01 -1.12121753e-01 -7.13700652e-01 -7.58586749e-02 +1.72031775e-01 +3.15411128e-02 -4.83900189e-01 +3.60521711e-02 -1.48493901e-01 -5.44253960e-02 +4.68362793e-02 +2.10909117e-02 +2.22466081e-01 +2.25609452e-01 -1.27547145e-01 -8.69029984e-02 -6.92272931e-02 -5.87803423e-02 +1.24268822e-01 -6.03952408e-02 -3.25450122e-01 -8.13016772e-01 -7.19520226e-02 -4.40865189e-01 -8.62263665e-02 -7.48559535e-01 +3.48269671e-01 -3.55122566e-01 -7.37414928e-03 +2.51197726e-01 +5.28337538e-01 +1.04426518e-01 +4.02603328e-01 +3.94183487e-01 +5.03528714e-02 -1.35609001e-01 -5.96454442e-01 -2.90377825e-01 +2.57015854e-01 -4.92568970e-01 -3.62884551e-01 -5.68344653e-01 +2.98904479e-01 -6.25520527e-01 +2.68028706e-01 -1.56849518e-01 -3.78749251e-01 -4.18543786e-01 -4.73116934e-01 -4.18923706e-01 -3.25313270e-01 -5.57388961e-01 +2.80254260e-02 +9.44388360e-02 -1.18615799e-01 -1.94110528e-01 -4.76049148e-02 -7.45018646e-02 -2.57232994e-01 -5.64480126e-01 -5.16474128e-01 +7.88139641e-01 +3.08527052e-01 -3.93918693e-01 -3.99277359e-01 -2.13518262e-01 -2.82753974e-01 -7.38450214e-02 -2.78499573e-02 -5.76753736e-01 -1.06937969e+00 -4.86975938e-01 -8.77148509e-02 -1.91492751e-01 -6.59461468e-02 -2.17184067e-01 -2.68584371e-01 +7.14304447e-01 +1.51703984e-01 +3.32859196e-02 -1.23698883e-01 -3.92672390e-01 +2.05305785e-01 -4.37242508e-01 +2.55022496e-02 -2.74308920e-01 -7.43746087e-02 -1.77311793e-01 +2.87974626e-01 -1.93366170e-01 