#Parameter# /vanilla-lstm-builder/_0 {64,32} 32769 ZERO_GRAD
+1.77101284e-01 -1.32187665e-01 +2.29150519e-01 -2.63613939e-01 +8.71617571e-02 -2.06514355e-02 -2.38606371e-02 +1.17657088e-01 +3.20676640e-02 +9.33453441e-02 +2.19040290e-01 -8.96250308e-02 +5.26256263e-01 -1.11671917e-01 -1.20360777e-01 -1.01565666e-01 +1.57477647e-01 +4.59742427e-01 -3.86351570e-02 -2.48120874e-01 +7.87033699e-03 -1.62640624e-02 +1.01515234e+00 -2.36131340e-01 -2.05080414e+00 -3.65386121e-02 -1.01729965e+00 +2.12245539e-01 +1.92126572e-01 -1.00061393e+00 +3.72986376e-01 -2.18633503e-01 -1.90421268e-01 +1.55262470e-01 -1.81389451e-01 +5.17689884e-01 +3.58760357e-02 -2.08962724e-01 -1.20820716e-01 +7.24850520e-02 -8.71418476e-01 -3.20904791e-01 -3.48427370e-02 -1.42316198e+00 -8.26936623e-04 -5.09777069e-02 -8.30677748e-01 -1.05829215e+00 -8.51158127e-02 +1.87482744e-01 -1.42520905e-01 -1.20629564e-01 +1.72120914e-01 -1.11167561e-02 +1.19165905e-01 -2.24104282e-02 +3.38188767e-01 +1.41921118e-01 -9.03174430e-02 +6.89457506e-02 -8.53594244e-02 -8.17461073e-01 -1.31822554e-02 +2.26553921e-02 -1.39766529e-01 +7.82029390e-01 -2.56364048e-01 -1.25278398e-01 +1.39570281e-01 +1.04909509e-01 +4.49901359e-04 -3.18010330e-01 -3.04747254e-01 +1.82909537e-02 +8.21922123e-02 -1.04014963e-01 -1.09820955e-01 -5.81581853e-02 -1.95246845e-01 +2.34791249e-01 -2.83111304e-01 -2.17381448e-01 -4.04859364e-01 +4.73506972e-02 +3.16414610e-02 -3.98239076e-01 +1.58492303e+00 -3.98223370e-01 -1.37133002e-01 +6.81374133e-01 -1.96109965e-01 -1.19694047e-01 -2.44059771e-01 -1.20850347e-01 +1.35071278e-01 -3.09084743e-01 +3.47270012e-01 -5.32201007e-02 +1.50864244e-01 +2.07728505e+00 -4.59049493e-01 -2.43426830e-01 +2.62394687e-03 -1.15348550e-03 +1.20246910e-01 -1.66937083e-01 +1.88312419e-02 +2.30080158e-01 -4.57975894e-01 -5.51031888e-01 -1.35413021e-01 +1.73838288e-01 -4.13916856e-01 -2.35580746e-02 -2.58643687e-01 +2.71716565e-01 +8.58792663e-01 +3.10810596e-01 +2.79157788e-01 -8.52883086e-02 +1.16211198e-01 -1.39442474e-01 +4.42359559e-02 -3.50818820e-02 -6.58231229e-02 +1.04028858e-01 +1.16664954e-01 +3.44734974e-02 +7.64179751e-02 -6.40980303e-01 +1.54917264e+00 -2.73139656e-01 -3.66111070e-01 -1.24607548e-01 -3.85231688e-03 +4.80837703e-01 +2.18728825e-01 +4.72829863e-02 +1.51269985e-02 +1.84704170e-01 +1.33759469e-01 +1.79680794e-01 -2.24573672e-01 -3.79432619e-01 +2.07225457e-01 +1.45731568e-01 +5.02454817e-01 -9.16908264e-01 +5.46725035e-01 -7.82544017e-02 -4.19153064e-01 +7.36491755e-02 -6.79971457e-01 -1.71379161e+00 -2.84188718e-01 -3.27995829e-02 +2.69026697e-01 -8.55059147e-01 +1.04193020e+00 +7.25255758e-02 -3.46591443e-01 -1.27714068e-01 -1.78048015e-01 -7.72572815e-01 -2.78652161e-02 -7.29425699e-02 -9.42275394e-03 +6.60099760e-02 -6.14684463e-01 +9.42086875e-02 +1.47088747e-02 -1.30397156e-01 +2.86754966e-01 +2.48967826e-01 +5.77584021e-02 -1.88088305e-02 +2.99685448e-01 +2.60538727e-01 +6.08433783e-02 -6.56721443e-02 -7.59501755e-01 -9.26848575e-02 -5.30391812e-01 +1.93222433e-01 +4.58412990e-02 +3.70523296e-02 -1.74361169e-02 +1.02081880e-01 +4.22086753e-02 -1.02556422e-01 -1.03237939e+00 -1.83598679e-02 +8.88954222e-01 +6.62692606e-01 +5.13980836e-02 -2.76030332e-01 -1.55416489e-01 -2.14722589e-01 -1.32501442e-02 +2.42305323e-02 +1.02545999e-01 +2.07876980e-01 -1.59295514e-01 +1.30774707e-01 +1.53827816e-02 +2.15866610e-01 +9.50512942e-03 -3.95390540e-02 +3.53152424e-01 +3.05089742e-01 -5.64467870e-02 +3.60948116e-01 +9.62899625e-02 -4.05295104e-01 -3.75945240e-01 +9.71568376e-02 +9.17150229e-02 +8.42996538e-02 -2.28434062e+00 -1.42030433e-01 +2.83487320e-01 +7.76207864e-01 -5.18120117e-02 -5.80587745e-01 -2.42306501e-01 +2.55675822e-01 -1.95442826e-01 +1.80820990e-02 +1.03370689e-01 +1.08465075e-01 -2.09449083e-01 +2.42035121e-01 +2.97232062e-01 -1.57937109e+00 +5.99819005e-01 -2.14268059e-01 -1.97620422e-01 +1.09047651e+00 -1.87557619e-02 +1.39664590e-01 -3.37354362e-01 -4.66330677e-01 -7.57681727e-02 -1.85815483e-01 +4.19841905e-04 +1.66257590e-01 +8.33485648e-02 -1.86388269e-01 +7.86752347e-03 +9.53983888e-02 -7.09817767e-01 +5.40592112e-02 +9.52736735e-02 -2.07359698e-02 +7.67505839e-02 -2.13307217e-01 -2.54714638e-01 -3.02939326e-01 +3.96807045e-01 +8.64712000e-02 +4.92600173e-01 +1.19256757e-01 +3.88991743e-01 +1.62882388e-01 +2.51063436e-01 -1.75758377e-01 +2.32405022e-01 -1.74708411e-01 +3.81237388e-01 +7.72066601e-03 +3.64733160e-01 -4.33833599e-01 +3.29391867e-01 -1.74491480e-01 +1.29243821e-01 +1.47115871e-01 +2.46719450e-01 +7.76918888e-01 -1.06337571e+00 +1.21899509e+00 +1.65653557e-01 -5.23793459e-01 +1.40785289e+00 -9.43435952e-02 -3.41100454e-01 -1.17112768e+00 -1.95505247e-01 +9.75380838e-01 -1.36442497e-01 -3.92196864e-01 +9.64803547e-02 -6.60536885e-01 +1.15667725e+00 +5.60619891e-01 -3.64351690e-01 +8.95316228e-02 +9.86893401e-02 +3.65880489e-01 -4.55961853e-01 +9.14848089e-01 +1.63795099e-01 -2.66546220e-01 -8.61612782e-02 +1.59095943e-01 +2.00892478e-01 +1.56861812e-01 +1.52665809e-01 -1.00394145e-01 -2.78509948e-02 -1.67607576e-01 -2.26709917e-01 +9.37701985e-02 -3.74270260e-01 +8.50814879e-02 +5.09819165e-02 -6.03891313e-02 -4.98372465e-02 -6.30885288e-02 +7.29979277e-02 +7.17761517e-02 -3.77740748e-02 -1.42308116e-01 +1.16731107e+00 -1.35388821e-01 +2.11751655e-01 -1.53600216e-01 +7.41695613e-02 -3.04742277e-01 -5.36076166e-02 +2.79143695e-02 +5.05978540e-02 +5.55180430e-01 -8.85640457e-02 -3.19453299e-01 +7.93222487e-02 -2.19675928e-01 +5.13238907e-01 +5.38847875e-03 +1.88722685e-01 -7.25356281e-01 -2.16074325e-02 -1.08607852e+00 -3.13620806e-01 -1.53352857e+00 -9.60615396e-01 -1.46532923e-01 -9.12470400e-01 -9.13834646e-02 -2.20370978e-01 +1.11395910e-01 +7.66271591e-01 -3.10252607e-01 -4.20857877e-01 +4.02995497e-01 -1.50783300e-01 -2.37009063e-01 -1.52815616e+00 -1.25311005e+00 +2.49426484e-01 -2.89835840e-01 -4.54067767e-01 -1.60869092e-01 +3.31324637e-02 +4.26460415e-01 +2.97799468e-01 -3.83863837e-01 -5.95314443e-01 +2.62134969e-01 -2.69535005e-01 +1.34093404e-01 -3.17775607e-02 +1.77046999e-01 +2.09390819e-01 +2.35042199e-01 -1.16980486e-01 +1.52353734e-01 +2.86079198e-01 -1.86054990e-01 +1.47736147e-01 +4.40984666e-02 -1.61497161e-01 +1.51439115e-01 +2.25263625e-01 +6.50657192e-02 -5.93916774e-02 +1.96952298e-01 +1.39858854e+00 +2.10781649e-01 +1.38934538e-01 +1.46420328e-02 +1.35509223e-01 +8.36088136e-02 +8.84863436e-02 -4.01167125e-01 -1.82450533e-01 +2.32998043e-01 -8.70186150e-01 +4.66771543e-01 +7.16464698e-01 -1.49217904e-01 -5.21147475e-02 -6.30932331e-01 +6.34542048e-01 +8.63536716e-01 +7.92788982e-01 +4.46391821e-01 -9.08266068e-01 -1.32835722e+00 -1.16065919e-01 +1.53248772e-01 +4.54474330e-01 -9.45787281e-02 -4.51671302e-01 +1.19835198e+00 -9.74257588e-01 +5.13031125e-01 +6.28128707e-01 -3.08038592e-01 +4.32450652e-01 -5.48576042e-02 -4.49118227e-01 +3.51186752e-01 +8.29496324e-01 +8.22065949e-01 -1.42470002e-01 -5.39537966e-02 -9.19096321e-02 +6.33516252e-01 +7.95985460e-01 +2.20445842e-01 +7.92168856e-01 +6.96394861e-01 +7.17386454e-02 +3.14517366e-03 +1.01455495e-01 +8.24865624e-02 +5.60758524e-02 -4.27349191e-03 -3.36215556e-01 +1.11453727e-01 -1.48967803e-01 +1.01758301e-01 -2.04410985e-01 -1.93638146e-01 -2.86001980e-01 +6.31482049e-04 -1.55107349e-01 +2.15411142e-01 -1.92600474e-01 -5.31495392e-01 +2.37518206e-01 +1.14473298e-01 +7.44024456e-01 +5.38833559e-01 +5.26431538e-02 +1.63388208e-01 +2.81034857e-01 -2.40725785e-01 +2.62419552e-01 +3.57883602e-01 -1.44760147e-01 -4.60921288e-01 +4.24122363e-01 -4.75264221e-01 +5.87955058e-01 -3.84471685e-01 -5.72575986e-01 +5.70667148e-01 +1.15313315e+00 -5.67857742e-01 -2.82187700e-01 -5.25634885e-01 -1.71553957e+00 +4.87397313e-02 +3.11676770e-01 +1.45511165e-01 -6.88663661e-01 -1.72851741e+00 +2.42819991e-02 +4.70809340e-01 -4.16787267e-01 +2.60524958e-01 +3.43373060e-01 -7.05869913e-01 -1.03347510e-01 -5.36286354e-01 -2.11297080e-01 +4.15409803e-01 -5.65190911e-01 +7.78240204e-01 +1.38029873e-01 -4.69696283e-01 +7.36619085e-02 -3.19692075e-01 -5.70861757e-01 +2.66844928e-01 +5.62453344e-02 +5.09667695e-01 +5.57449088e-02 -4.71122861e-02 +1.83231413e-01 +4.38083231e-01 -1.43533364e-01 +1.39036939e-01 -1.06550038e-01 +1.09809905e-01 -3.03276144e-02 +1.94827411e-02 -2.91423231e-01 -1.59847811e-01 +2.77440339e-01 +3.20249349e-01 +3.06239992e-01 -3.64164710e-01 -1.50847267e-02 -1.85783803e-01 +4.23377216e-01 +1.55256256e-01 -3.73959601e-01 +9.66825560e-02 +1.19826086e-01 +7.22943842e-02 +2.57139653e-01 +6.21926934e-02 +8.71530548e-02 -3.23357403e-01 +2.22192377e-01 -3.60600799e-02 +2.49068126e-01 +1.98172748e-01 -1.26952305e-01 +6.41662478e-01 +6.15631700e-01 +4.82060686e-02 -4.84439820e-01 -2.51353502e-01 -2.51679587e+00 +5.91148973e-01 -2.10861754e+00 +2.33483642e-01 +1.38444281e+00 -7.54755855e-01 +4.96656239e-01 -7.60300398e-01 +2.11544931e-01 +2.83506155e-01 -4.71707731e-02 -3.57043464e-03 -6.24438561e-02 -5.56081720e-02 -5.30004576e-02 +1.17772770e+00 -3.49378794e-01 -2.07014948e-01 -1.68402091e-01 -1.73133540e+00 -1.70147613e-01 +1.06814340e-01 -1.14441756e-02 +8.17085803e-03 -7.12487428e-03 +8.10553357e-02 +1.94611922e-02 -1.61893234e-01 +8.49071369e-02 +2.09116638e-01 -1.13432314e-02 -2.05849454e-01 +4.66385454e-01 +1.90543130e-01 -2.62748033e-01 +5.34243546e-02 -2.38909423e-02 -1.29612422e+00 +3.21374796e-02 -7.43071502e-03 -6.83268309e-02 -8.32196891e-01 +1.00069213e+00 -2.03684717e-01 -5.41830182e-01 -1.31806687e-01 -1.07946143e-01 +1.55452505e-01 +3.55536669e-01 -5.05922884e-02 -4.29628044e-02 +6.19495846e-02 -9.93198436e-03 -6.65031895e-02 -3.68031599e-02 -4.60628480e-01 +1.60075665e-01 -5.26011705e-01 +2.81457126e-01 -6.84334457e-01 +4.38458711e-01 -9.76316929e-02 +4.70925122e-02 +4.23374593e-01 -9.10570145e-01 -5.47110021e-01 -7.80068785e-02 +5.43627813e-02 +1.66449592e-01 -7.46473134e-01 +3.45375746e-01 -4.71534356e-02 -1.84009373e-01 -1.71519592e-01 -5.41042924e-01 -4.27644908e-01 -3.75811122e-02 +4.16367799e-02 -3.62556912e-02 +1.81123111e-02 -5.62039793e-01 +2.76947469e-01 +8.18629004e-03 -2.44258091e-01 +1.31685421e-01 +6.72254935e-02 -6.57893494e-02 +1.55164778e-01 +2.44572476e-01 +8.14426363e-01 -5.81668504e-03 -8.86193141e-02 -7.72057354e-01 -9.29691568e-02 -2.40622535e-01 +1.14705481e-01 -5.73405884e-02 -3.70355994e-02 -1.86090879e-02 +8.57986808e-02 +1.61252804e-02 -4.74028066e-02 -5.17461777e-01 -1.68388225e-02 -2.74889499e-01 +9.50032324e-02 -9.92079794e-01 +1.97104290e-01 +5.24187088e-01 +9.21501368e-02 -4.93963063e-03 -9.26827192e-02 -3.67756724e-01 -2.73044463e-02 -5.28492325e-04 -1.15660109e-01 +1.61812693e-01 -4.47942078e-01 +1.53531909e-01 +3.86485904e-02 +3.36484402e-01 +1.51876330e-01 -7.78589427e-01 +6.49721101e-02 +9.95378718e-02 -2.23954380e-01 +4.55312848e-01 -4.76454854e-01 -5.27301580e-02 +7.62085497e-01 +6.91522598e-01 +2.13983685e-01 -5.08105159e-01 +3.29271019e-01 -2.96084136e-01 +1.71432495e-01 +7.00591281e-02 +2.09029749e-01 -5.75208813e-02 +2.04673614e-02 -2.30744824e-01 -3.16271037e-01 +2.60527879e-01 -1.17641397e-01 +1.85967103e-01 -2.39402149e-02 -8.03376585e-02 -1.33006573e-01 -7.26383701e-02 -9.90297377e-01 -7.91051805e-01 -5.88154733e-01 -1.76006332e-01 +2.12765887e-01 +1.15525134e-01 -1.51391923e-02 +4.41501737e-01 +2.56609917e-01 +3.03513229e-01 +2.05703285e-02 -5.52602932e-02 -1.11158855e-01 -2.42760312e-02 -7.83916339e-02 -1.77749529e-01 +5.83251156e-02 +3.09487015e-01 +3.16783674e-02 +2.86379457e-01 -1.36984080e-01 -2.83114433e-01 +4.81507927e-01 -3.60547066e-01 -1.79375619e-01 +1.66451633e-01 +4.41691428e-02 -3.07589979e-03 +7.73067772e-02 -3.98640335e-02 +2.19468754e-02 +1.90990224e-01 -1.15507878e-01 -4.25854415e-01 +5.16094923e-01 +1.31535694e-01 -3.38153541e-01 -1.48020402e-01 -4.84514982e-01 -6.50728583e-01 -6.05188310e-02 -6.65969253e-01 +3.76481771e-01 +9.20050502e-01 -2.46330917e-01 -2.55627874e-02 +3.77078891e-01 +9.78201151e-01 +8.82145882e-01 -1.05821669e+00 +5.24589717e-01 -1.79143757e-01 +3.68688434e-01 +1.07607234e+00 +1.57373380e-02 +3.97497147e-01 +1.21266663e-01 +8.48993182e-01 -1.64788008e-01 +5.27495071e-02 -9.03288603e-01 -2.03370646e-01 +2.52851069e-01 +9.26919162e-01 +1.02839744e+00 +3.26806784e-01 -4.38256562e-01 +4.31990586e-02 -1.33158267e-01 +8.63882080e-02 +3.12103152e-01 -7.17414320e-02 -7.50983283e-02 +1.76331345e-02 +9.92408767e-02 -2.52920249e-03 -9.63542834e-02 +1.54187486e-01 -2.36292407e-02 +5.28451204e-01 +4.16495293e-01 -1.40418872e-01 -5.46510637e-01 -2.82197143e-03 +5.70114076e-01 -2.46628785e+00 +5.41972399e-01 +3.41349930e-01 +1.14399903e-01 -3.79715934e-02 +9.39496607e-02 -3.65116179e-01 +2.63860703e-01 +1.83737442e-01 -1.22354412e-03 +3.51961553e-01 -2.24648938e-01 -3.63302529e-02 +3.59014958e-01 +1.50331110e-01 +1.36019245e-01 -6.43519521e-01 +2.16423254e-02 -1.75830841e-01 -7.40538985e-02 +1.11248505e+00 -5.65171540e-01 +9.79978979e-01 +4.23473448e-01 +2.44862050e-01 +4.31522667e-01 -4.42638189e-01 +1.10411429e+00 -1.32861972e-01 +2.67930627e-01 +1.09556936e-01 +3.94206047e-01 -6.99212492e-01 +5.98748088e-01 -4.95198183e-02 -3.18130963e-02 +2.16324814e-02 -5.46983719e-01 +4.73056555e-01 -4.57882822e-01 +2.25974843e-01 +2.16855496e-01 -3.30397487e-01 -6.56628788e-01 -1.79425493e-01 -6.14258707e-01 -1.77687332e-01 -2.94388711e-01 -3.43906954e-02 +1.70890927e-01 +5.77079237e-01 +7.39682838e-02 +5.30386984e-01 -1.79977044e-02 -2.14788616e-02 -4.17015441e-02 +2.51683127e-02 -8.86865556e-02 -5.07393628e-02 +1.30052790e-01 +2.88725078e-01 +6.83471411e-02 -2.60495156e-01 +2.23843321e-01 -1.59920249e-02 +1.39173925e-01 -8.87017176e-02 -1.20354230e-02 +8.85507837e-02 -2.44336396e-01 +7.46095926e-02 -1.08347133e-01 -3.32338631e-01 +2.88772136e-02 -6.60675287e-01 +1.47244439e-01 +1.06812902e-01 +6.84154257e-02 -2.79589504e-01 -1.77491665e-01 +2.02976868e-01 -3.72603744e-01 -2.23449785e-02 +2.21125543e-01 -3.23500663e-01 +3.23723525e-01 +2.69596386e+00 -1.49556309e-01 +1.54218912e+00 -1.79790556e-01 -2.75376350e-01 +7.36537099e-01 -4.76371348e-01 +2.11959317e-01 +2.30209678e-01 -4.28291678e-01 +1.07503854e-01 -5.07221818e-01 +1.89283609e-01 +2.88636565e-01 +1.13363974e-01 -1.86308876e-01 +7.01613545e-01 +5.64457059e-01 -2.22718522e-01 +1.61613286e+00 -1.47610724e-01 -2.86198221e-02 +7.69550145e-01 +1.07251644e+00 +1.31861195e-01 -1.90160722e-01 +1.86465502e-01 +1.06960699e-01 -2.47616217e-01 -1.11231670e-01 -1.28508106e-01 +3.11624650e-02 -3.97419065e-01 -1.64305672e-01 +2.98429012e-01 -9.11753252e-02 -1.79063439e-01 +6.03296041e-01 -8.71039554e-02 -1.09588355e-02 +2.77787030e-01 +1.10215414e+00 +3.37489992e-02 -1.70295447e-01 -3.68357301e-02 -2.28365228e-01 +1.45710588e-01 -1.18679538e-01 +4.33285497e-02 -2.36870199e-01 -2.33212441e-01 +2.05274299e-01 -1.13497585e-01 +6.21835478e-02 +1.74532160e-01 +3.92148793e-01 +1.53923556e-01 -3.03774416e-01 -8.20886865e-02 +1.67453659e+00 -4.46388721e-01 -3.30118984e-01 -3.32035661e-01 -1.56826958e-01 +1.63912147e-01 -1.04162180e+00 -6.00114942e-01 -2.36044794e-01 +3.61134171e-01 +9.09458280e-01 -1.64258778e+00 -1.27834529e-01 -6.05478771e-02 +1.30403847e-01 +5.25445759e-01 -8.26764852e-02 +4.21780236e-02 +8.49808082e-02 +1.09355532e-01 +8.42593089e-02 +4.97547507e-01 -1.10601079e+00 +7.23563850e-01 +5.98769963e-01 +2.11711079e-01 +6.66636586e-01 +3.66756856e-01 +3.48657250e-01 -1.81842700e-01 -1.23103559e+00 -2.87298970e-02 +8.88866261e-02 +8.97507370e-02 +3.06277215e-01 +7.60925049e-03 -9.18005332e-02 -4.11601700e-02 -6.72684237e-02 -2.63210595e-01 -2.92183142e-02 +1.64151773e-01 +9.46571603e-02 -9.66162793e-03 -1.85080171e-01 -7.94650435e-01 -8.63921762e-01 -1.75123997e-02 +1.81530640e-01 +1.71966046e-01 +5.29317915e-01 -3.35796215e-02 +1.19822487e-01 -2.36220449e-01 -2.03881353e-01 +5.82732596e-02 +2.09322855e-01 +1.14185125e-01 -3.08640838e-01 +1.06519490e-01 -3.18640471e-01 -4.28216219e-01 -1.02914684e-01 +1.13539137e-01 -2.11106911e-01 +1.16837025e+00 +1.85004205e-01 +3.29068720e-01 -3.51212263e-01 -5.25086582e-01 +1.91962704e-01 +6.18081450e-01 +4.08975333e-01 -4.06059265e-01 -1.28908741e+00 +5.88597417e-01 +3.30433428e-01 +1.37714043e-01 -6.42881021e-02 -1.27324641e-01 -4.97468300e-02 -5.37732959e-01 -3.26402664e-01 -3.24552543e-02 +6.23068437e-02 -4.08218831e-01 +1.29687130e+00 -2.62810886e-01 -8.31156820e-02 -3.35000409e-03 -1.16133273e+00 -3.23450565e-01 -3.58684435e-02 +1.39564857e-01 +1.19992638e+00 +5.07026277e-02 +1.02131747e-01 -2.03830209e-02 -9.55417752e-02 -6.78536296e-02 +2.48271286e-01 -4.25024843e-03 -1.50283528e-02 +3.37584615e-01 +1.60155483e-02 -1.62485361e-01 -7.37547353e-02 +8.31171963e-03 +4.85903591e-01 +9.47884545e-02 +1.70300961e+00 -1.12481236e+00 +1.57173797e-01 +2.21622005e-01 +4.63874564e-02 -6.18343502e-02 -6.81057349e-02 -2.61164218e-01 +9.08501595e-02 +6.95597827e-02 -6.61748573e-02 +3.18332136e-01 +7.36819655e-02 -2.58387476e-01 +3.34647208e-01 -1.79600462e-01 -1.27060533e-01 -2.13711143e-01 +1.58541873e-01 -1.06901348e-01 +1.45601287e-01 +5.87724090e-01 -2.17505485e-01 +6.93827093e-01 +6.88152611e-01 +2.01799124e-01 -3.01374793e-02 -1.82530552e-01 +5.77291608e-01 -3.59281212e-01 -1.20377466e-01 +5.89737892e-01 +1.12875760e-01 +1.07722916e-01 +1.17986190e+00 +6.11810423e-02 -2.33552419e-02 -1.83730364e-01 -3.68768424e-02 +2.82522231e-01 -1.45142317e-01 -2.49614734e-02 +1.13726661e-01 -1.47869527e-01 -1.72625072e-02 -1.07767992e-01 -8.37795436e-02 -1.77805394e-01 -2.16729596e-01 -3.35676819e-01 +3.77559401e-02 +7.14127958e-01 +4.43854220e-02 +4.77651358e-01 -1.35980487e-01 +4.04771827e-02 +8.78970884e-03 -1.91365217e-03 -9.09528807e-02 -8.83488730e-02 -5.63543569e-03 +4.95530546e-01 +3.05942763e-02 +5.57856448e-02 -1.70960975e+00 +2.51248837e-01 -1.65070027e-01 -3.51785839e-01 +1.38564194e-02 -6.86531235e-03 +2.25979779e-02 -8.31924602e-02 -6.18438013e-02 -8.04292336e-02 +2.10811943e-02 +2.36623257e-01 -1.08651228e-01 -1.32546619e-01 -3.72219272e-02 -1.98325247e-01 +5.42463101e-02 +3.18451487e-02 -4.62401867e-01 -8.22928071e-01 +6.57902420e-01 -3.34763944e-01 +6.72278345e-01 +7.22510338e-01 -3.22959751e-01 -2.02510282e-01 +2.89528400e-01 +1.02406049e+00 +4.69293185e-02 +1.03851147e-01 +1.13743529e-01 -4.75500137e-01 -2.51808576e-02 +2.28453621e-01 -6.65032566e-01 +2.73420751e-01 +1.09819382e-01 +3.67163301e-01 -1.91283435e-01 +9.27206203e-02 -2.05087122e-02 -1.93913773e-01 -3.83319199e-01 +3.80990237e-01 +5.95582128e-01 +8.04151967e-02 -4.85403925e-01 +2.58463293e-01 -4.59226444e-02 +2.42247313e-01 -3.00227199e-03 -4.37482864e-01 -2.93743104e-01 -2.23294824e-01 +5.48170619e-02 +6.72197435e-03 -6.68771425e-03 +9.32729617e-02 +4.65574861e-02 +2.59061456e-01 +1.65278271e-01 -2.64692336e-01 -7.35990256e-02 +1.67915642e-01 -6.47211969e-01 -1.52558595e-01 +2.54687190e-01 -1.10380873e-01 -1.45950153e-01 +1.59877375e-01 +5.30570559e-02 -3.56450826e-01 -1.04164016e-02 +3.78666855e-02 +2.01941431e-01 -1.82736233e-01 -1.38996452e-01 -4.05768126e-01 +2.97971487e-01 +3.36210936e-01 -2.36857280e-01 +6.82128891e-02 +3.31440449e-01 -3.19960415e-01 -3.35530519e-01 -4.60155278e-01 -5.98748446e-01 -2.27291167e-01 -3.30759764e-01 -1.55646935e-01 +2.98057348e-01 +7.66223431e-01 +7.22728252e-01 -1.15999103e+00 +3.75716776e-01 -2.35058278e-01 +3.28499496e-01 +1.40920007e+00 -3.23940873e-01 +1.33694172e-01 -7.10297152e-02 +7.77693033e-01 -7.61874914e-02 +9.19143707e-02 -6.19982183e-01 -3.27684164e-01 +3.75408173e-01 +1.17019475e+00 +7.46493280e-01 +3.54833573e-01 -1.55695125e-01 +3.25400345e-02 -1.96175590e-01 +6.31626546e-02 +4.64099050e-01 +4.11274843e-02 +1.18821032e-01 -3.68585996e-02 +1.13400809e-01 +8.36383849e-02 -1.27724364e-01 +2.11438641e-01 +1.13228276e-01 +3.27199638e-01 +3.28857452e-01 -1.31010473e-01 -6.14559412e-01 +1.73619300e-01 +2.76336581e-01 +3.33528072e-01 -3.97812456e-01 +5.82216024e-01 +4.47771162e-01 -3.91262591e-01 -3.85909319e-01 -4.72578973e-01 -4.00312692e-01 -5.78583125e-03 -5.57294726e-01 -7.30153918e-01 +4.81818244e-02 +7.81501591e-01 -2.58228183e-01 -4.05576855e-01 +1.38974175e-01 -1.08571865e-01 +4.28958893e-01 +2.08562112e+00 +1.18887797e-01 -8.11415613e-01 -5.12004346e-02 -3.53153646e-01 +6.44122422e-01 -5.81097007e-01 -1.45568952e-01 +2.08182901e-01 -2.94483900e-01 +9.55068111e-01 -1.07748330e-01 +2.80213892e-01 -1.41005903e-01 +2.03331932e-02 -3.68771315e-01 -5.38524270e-01 -5.75492620e-01 -2.28110775e-01 +8.49038541e-01 +4.00011480e-01 +7.41845310e-01 -4.00573254e-01 -3.11601967e-01 -4.05142128e-01 -2.18231469e-01 +4.09562230e-01 +7.58886874e-01 -1.61286712e-01 +5.89796342e-02 -5.01678325e-02 -2.31985688e-01 +1.15208723e-01 +3.01421255e-01 -1.10367775e-01 -1.75628096e-01 +1.36295110e-01 +1.73648700e-01 -2.95521110e-01 -2.17645198e-01 -2.18970403e-01 -3.54308426e-01 +7.02682197e-01 +3.49945068e-01 -4.00028050e-01 -2.06317276e-01 +1.53519109e-01 +8.72380733e-02 +6.69485554e-02 -1.52779948e-02 +2.94347763e-01 -4.70864892e-01 -3.19376558e-01 -1.76966816e-01 +5.89659140e-02 +2.73446977e-01 -1.09028645e-01 -2.16823518e-01 +5.92693567e-01 +4.46930557e-01 -4.74784195e-01 -2.21203953e-01 -7.42807686e-02 +1.86665073e-01 -9.68695939e-01 -8.92067373e-01 -8.49970520e-01 -1.06363273e+00 -3.63972604e-01 +2.64118761e-01 -9.83263850e-02 -1.87686622e-01 +4.41746674e-02 +1.01784551e+00 -1.26679564e+00 +6.11780643e-01 +1.12389669e-01 +1.29839510e-01 +9.13837612e-01 -4.88029599e-01 -3.07632416e-01 -1.09950453e-01 +7.88641214e-01 +2.49785915e-01 +4.03195858e-01 -3.38072658e-01 -8.14094245e-01 +8.24202895e-01 +7.14565992e-01 -6.27522767e-01 +4.10418898e-01 +6.97543919e-01 -1.28871694e-01 -3.80156398e-01 +6.54375255e-02 +6.96315527e-01 +1.91759408e-01 +2.16716290e-01 -2.07379777e-02 +2.83683836e-01 -1.16213575e-01 -3.75534087e-01 +3.53549302e-01 -1.78580359e-02 +5.52525893e-02 +1.50479829e+00 +4.46503907e-02 -9.45357233e-02 +5.49950227e-02 +4.42842096e-01 -2.17290401e-01 +4.20416921e-01 +2.23077685e-01 -2.28941977e-01 +1.21458702e-01 -2.05567658e-01 +5.03983200e-01 +2.32579783e-01 +5.79971850e-01 +6.11949563e-01 +4.41865027e-02 +3.32109332e-01 -2.31916860e-01 -1.10330172e-02 +2.32471317e-01 -1.04525387e-02 +2.85949290e-01 -4.77107376e-01 +1.65523291e-01 -9.93370950e-01 +1.89057374e+00 -1.36316276e+00 -9.98416483e-01 -5.29287815e-01 -1.59363642e-01 -2.78901726e-01 -1.32565987e+00 -5.77043779e-02 -1.33080244e-01 +2.63255298e-01 -5.30900359e-01 +9.51564312e-02 -2.15980649e-01 +1.03401470e+00 -2.18715549e-01 -4.51253533e-01 -6.18406653e-01 -6.82000935e-01 -6.78858280e-01 -2.35643879e-01 +1.56722009e+00 -2.28842825e-01 +4.44415569e-01 +4.84123081e-01 +1.49789065e-01 -2.26941764e-01 -3.12170256e-02 -4.57100898e-01 -5.16576111e-01 +3.06505561e-01 +9.74982791e-03 +3.80160272e-01 +2.24432513e-01 +1.67377561e-03 +5.53057604e-02 -4.17156257e-02 +2.42602006e-01 +6.65336773e-02 +2.80151721e-02 -9.94613916e-02 -1.41464069e-01 +1.44396052e-01 -4.71808970e-01 -1.07032895e-01 -2.02150103e-02 +5.48042916e-02 -5.79036951e-01 -3.04164767e-01 +2.44293883e-01 -3.27960774e-02 +1.40811041e-01 -1.27356678e-01 -1.18943993e-02 +4.04213518e-01 -1.29203975e-01 +1.13334715e-01 +3.65485512e-02 -1.59971491e-01 +3.03540051e-01 -1.12278080e+00 -3.20699699e-02 -4.64769214e-01 +1.38107315e-01 -1.38517034e+00 -6.21345699e-01 -1.08603954e+00 -1.85795471e-01 +4.81301636e-01 -1.85587570e-01 -2.63811797e-01 -4.28686142e-01 +1.15588439e+00 +5.69003001e-02 -2.17494771e-01 -1.94121137e-01 +5.20777225e-01 +1.73862740e-01 -5.77880502e-01 -5.59666157e-01 -2.75188297e-01 +2.12812703e-02 -1.59480944e-01 -8.27033445e-02 -9.28319633e-01 +1.05324090e-02 +9.37910318e-01 +4.26765054e-01 -1.94631070e-01 +1.45774066e-01 +7.45838702e-01 -4.14300323e-01 -6.52783737e-02 -4.94834073e-02 +1.56030161e-02 +4.41802889e-01 +2.76506662e-01 -4.08917889e-02 +1.26392096e-01 -2.38394663e-02 -1.21857181e-01 -2.38982830e-02 -4.89457585e-02 +6.75267801e-02 +2.28533149e-01 +3.33733946e-01 -1.14613228e-01 -4.20471728e-01 +2.42724940e-02 -2.23865718e-01 +3.60737830e-01 -9.47696745e-01 -5.59183180e-01 +3.08133662e-01 -3.92361164e-01 +2.62353327e-02 +2.29165386e-02 -9.76118594e-02 -1.66415721e-01 +2.68392116e-01 -3.52969877e-02 -1.77276418e-01 +4.38712507e-01 -3.35253030e-01 -8.33223581e-01 +1.05757803e-01 -9.50700879e-01 -2.12305188e+00 +2.96338707e-01 +7.39072144e-01 -9.17114735e-01 -4.83810693e-01 -9.02125418e-01 -2.69102547e-02 -1.39022619e-02 +4.41032462e-02 +1.97586226e+00 -6.22240663e-01 +1.64950073e-01 +9.65517312e-02 +3.92632633e-01 -3.77084166e-01 +5.42646170e-01 -1.84760451e+00 -5.84748108e-03 +1.11953056e+00 -2.15331778e-01 -2.17881203e-01 -4.70479697e-01 -2.98592746e-01 +1.38201430e-01 +1.64828908e+00 -3.75749514e-04 -7.40064234e-02 -4.41739887e-01 -1.02886364e-01 +9.11441073e-02 -9.52161700e-02 +2.38878608e-01 -1.20075956e-01 -5.70262730e-01 +1.58798561e-01 +1.63599961e-02 -1.46915704e-01 -3.80272090e-01 +5.87624349e-02 -4.31333333e-02 +1.88827604e-01 +3.21781158e-01 -1.69321075e-01 -1.09050594e-01 -1.40164837e-01 -1.53980553e-01 +2.61638969e-01 -2.34501854e-01 +2.17832133e-01 +1.58027783e-01 -4.24834415e-02 +5.01729883e-02 -3.13434809e-01 -1.51548609e-01 +2.11880594e-01 +2.01749980e-01 +1.64592445e-01 -7.21655563e-02 +1.85739368e-01 +7.56204724e-02 -3.14181179e-01 +5.01691163e-01 -1.86282456e-01 +5.61929822e-01 +1.82957456e-01 -9.04234797e-02 +1.29597402e+00 -7.45437741e-01 -2.21638823e+00 -9.19046029e-02 -7.58237660e-01 +2.38035530e-01 -4.09434110e-01 -8.14595938e-01 +6.15080237e-01 +5.08833706e-01 -7.60199353e-02 -2.53691941e-01 -1.71359956e-01 +5.36659420e-01 -4.92594779e-01 -3.88886809e-01 -9.02391672e-02 -2.43421182e-01 -5.87110996e-01 +5.61105728e-01 +4.69321877e-01 -1.49769783e+00 -4.74386573e-01 -3.90344828e-01 -1.75465137e-01 -1.10814199e-01 +6.90799160e-03 -1.54011967e-02 -1.63050428e-01 +9.57788527e-02 +1.81118950e-01 +2.35897183e-01 +5.96937984e-02 -8.34664851e-02 +3.02137554e-01 +1.34783313e-01 +4.36274484e-02 +1.09914720e-01 -2.00612202e-01 -4.64180410e-01 +6.04290590e-02 +2.42919296e-01 -4.14973974e-01 +3.56054127e-01 -6.50123715e-01 +4.74230975e-01 -7.12079480e-02 +2.45111421e-01 +1.16534475e-02 -5.04875302e-01 +8.41266534e-04 +7.66275451e-02 -1.35527492e-01 -2.47907951e-01 +1.03535585e-01 -1.57018542e-01 +5.50558925e-01 -8.02419037e-02 -2.06131905e-01 -2.43094228e-02 -6.07908070e-01 +3.00572574e-01 +1.24788404e-01 +1.58132821e-01 +6.86847806e-01 +8.69829834e-01 -1.61256421e+00 +1.45876989e-01 +3.86438638e-01 -8.96844640e-02 -5.60091376e-01 -1.11660504e+00 +2.44155407e-01 +2.94284105e-01 -1.62561052e-03 -1.77442969e-04 -1.56024373e+00 +8.19214165e-01 -1.00635193e-01 +1.97143093e-01 -4.36997592e-01 -1.88747451e-01 -1.42838597e-01 +7.15987265e-01 +3.59344810e-01 +1.57487869e-01 -1.28998399e+00 -9.92924213e-01 -4.03317302e-01 -2.95295585e-02 +7.58291082e-03 +2.72104293e-01 -7.06508681e-02 -1.58754513e-01 +6.80935085e-02 -1.68206707e-01 +1.19131483e-01 -6.82191625e-02 -3.37148160e-01 -1.08215082e-02 -1.12506934e-02 -1.04627021e-01 -1.34549744e-03 -4.20103110e-02 +2.50989020e-01 +1.84346348e-01 -1.57259196e-01 +8.62484053e-02 +1.89101130e-01 -7.17048049e-02 -3.22192907e-02 +3.64275388e-02 +1.52446665e-02 -1.15412027e-01 +2.16026917e-01 -9.11222622e-02 -2.20396951e-01 +7.35612437e-02 -7.02314138e-01 +5.89408092e-02 +1.89374626e-01 -2.06139460e-02 -2.42741615e-01 -6.75285280e-01 +3.09416980e-01 +8.37678194e-01 +5.65309115e-02 -6.46767244e-02 -1.46122932e+00 +5.25035895e-02 +1.02016199e+00 -1.24353379e-01 +5.63715637e-01 -3.24301273e-01 +1.05410419e-01 +1.38459957e+00 -2.75855511e-01 +1.66982785e-01 +1.91973269e-01 -8.85779709e-02 +6.23657167e-01 -3.61341268e-01 +1.03112357e-03 +1.17059588e-01 -1.34521767e-01 +3.99406403e-01 +8.02864730e-01 +3.09034884e-01 -2.61560827e-01 +7.82413840e-01 +4.96960469e-02 +3.86688977e-01 +1.78841758e+00 +2.43165231e+00 +6.23104163e-02 -2.85001755e-01 +7.77752846e-02 +4.85949218e-02 -7.85251558e-02 +2.32591890e-02 -3.49933803e-02 +8.25759489e-04 -6.40669838e-02 -1.26469910e-01 -3.86745408e-02 -5.32002822e-02 +2.01141521e-01 +1.39848948e-01 -4.02507260e-02 -4.06842716e-02 +7.19393045e-02 +1.08731888e-01 -1.55352235e-01 -1.94523364e-01 +2.05557123e-01 +5.48079833e-02 -9.54381824e-02 -6.60389811e-02 -2.19567642e-01 +6.16844483e-02 +1.12738781e-01 +1.01820998e-01 +2.65075237e-01 -4.57145311e-02 -4.69253063e-01 +3.07917476e-01 -9.79234874e-02 +6.67389452e-01 -6.50220588e-02 -1.28979340e-01 +2.02402156e-02 -3.13884795e-01 +1.46142960e+00 -1.09110725e+00 +5.48469186e-01 +2.29277998e-01 -2.13632405e-01 -1.83073446e-01 -1.23730376e-01 +1.87867749e-02 +3.21240813e-01 -1.74679056e-01 -1.24035530e-01 +1.11255184e-01 +3.70549679e-01 +1.19108248e+00 -2.95321465e-01 -4.45385545e-01 +2.46911161e-02 -2.57708311e-01 +2.07421854e-01 -6.60969913e-01 -1.04730770e-01 +2.45828465e-01 -1.92689553e-01 -2.41896406e-01 -1.13809474e-01 -3.24449360e-01 -2.11538866e-01 -2.57666141e-01 -9.43424031e-02 +1.99594378e-01 +6.03384435e-01 +2.90868044e-01 +1.25698954e-01 -1.27959251e-02 +2.47845694e-01 -7.63042346e-02 +1.91637054e-02 +1.35366730e-02 -1.59062967e-02 +5.45323938e-02 +6.47032559e-02 -2.92234477e-02 -3.51248354e-01 +2.23179877e-01 -3.50684151e-02 +1.62314728e-01 +2.41094515e-01 -1.61406159e-01 +4.47259963e-01 -5.01787007e-01 -1.44004732e-01 +1.76419452e-01 +1.83475539e-01 +1.02386095e-01 +1.21196292e-01 +2.23340064e-01 -5.49869426e-02 -5.38027845e-03 +4.04900014e-02 +1.13760388e+00 -9.71717164e-02 -1.00366688e+00 -2.87237912e-01 -3.63736212e-01 +4.14090008e-02 -6.52935624e-01 -2.24165067e-01 -1.03841293e+00 +1.98347881e-01 -2.55824298e-01 -1.92591691e+00 -1.05914998e+00 +5.55196226e-01 +6.67752087e-01 -9.79288518e-01 -4.87153411e-01 +1.05854623e-01 +8.79407302e-02 -1.31500423e-01 -4.45453674e-02 -5.17984450e-01 -2.28699160e+00 -1.94783643e-01 +3.84191498e-02 +4.00643766e-01 +1.27124536e+00 -3.55867058e-01 -8.39465082e-01 +1.93278372e-01 +2.96716746e-02 -1.81833535e-01 -4.15630370e-01 -1.31216854e-01 +2.61516452e-01 +1.01064844e-03 +7.02074990e-02 +8.98675695e-02 +7.31196702e-02 -2.37021446e-01 -1.75851822e-01 +6.05215549e-01 +3.83445099e-02 -3.10551450e-02 +2.72500038e-01 +2.13349104e-01 +6.57591075e-02 +2.45880470e-01 -3.34596932e-01 +4.00346756e-01 -5.13177395e-01 -6.01033792e-02 +1.25713676e-01 -2.22214669e-01 -2.72655785e-01 -5.53340763e-02 -7.87111968e-02 -1.69187441e-01 -7.72741288e-02 -5.44302389e-02 -1.77194983e-01 +1.24114446e-01 -6.63387179e-02 +5.76655492e-02 -4.22811598e-01 -4.02349472e-01 -1.70290187e-01 +3.61449756e-02 +6.84692204e-01 -1.47994792e+00 -3.91676933e-01 +4.33823496e-01 +5.02442658e-01 -4.21107233e-01 +4.58564401e-01 +2.14778733e+00 +9.87501740e-01 -4.67040211e-01 -6.17333293e-01 +3.11905056e-01 +3.18965703e-01 +7.63406515e-01 -1.02010751e+00 -1.88340232e-01 -2.22394064e-01 +6.45756662e-01 +1.53663039e+00 +5.37931919e-01 -2.82987177e-01 -1.05848575e+00 -5.48866987e-01 +9.39166307e-01 +2.27495015e-01 -3.89977545e-01 -5.05335510e-01 +5.75223155e-02 +1.22720227e-01 +3.01352888e-01 -1.74190570e-02 +4.59116697e-02 +8.39698035e-03 -1.85259923e-01 +1.30336344e-01 +2.59658247e-01 +3.77226509e-02 -1.72097042e-01 -1.68881565e-02 -8.85721073e-02 +3.38716865e-01 -5.45532815e-02 -7.17805773e-02 +9.57200825e-02 -6.65358961e-01 -8.05851743e-02 -3.64537798e-02 -7.86613345e-01 +8.17557499e-02 -5.13803005e-01 +3.39580476e-01 -2.46619463e-01 +1.44366786e-01 -1.50688559e-01 -2.97082186e-01 +2.66664267e-01 -2.31010571e-01 -6.28322423e-01 +1.09827459e-01 +2.23574236e-01 -1.84050635e-01 -8.30688402e-02 -7.70556509e-01 -1.88507259e-01 -1.90931633e-01 -2.45215639e-01 +3.62771899e-02 -1.65011305e-02 +5.49843274e-02 +1.35118645e-02 -4.99396361e-02 +7.36460447e-01 -7.03530192e-01 +4.64233100e-01 +5.60336173e-01 -2.73468733e-01 +2.34998614e-01 +4.28841531e-01 +3.16742778e-01 +4.83756244e-01 -1.24237828e-01 -1.53379232e-01 -3.53400223e-02 +1.60555374e-02 -1.97089780e-02 -1.01027012e-01 -5.76702505e-02 -1.74258441e-01 +4.50564414e-01 +1.57934502e-01 +1.26750246e-01 +1.17904814e-02 +6.66091451e-03 -1.86603710e-01 +2.63667572e-02 -1.94301367e-01 +1.98952425e-02 -9.23674554e-02 -7.39603192e-02 +1.49273112e-01 +4.08430248e-02 +2.25617103e-02 +1.01036333e-01 +2.05073863e-01 -1.68736964e-01 -6.24831915e-02 -1.36970002e-02 -1.36894548e+00 -4.92996246e-01 +4.80010271e-01 -3.76410433e-03 -7.73422241e-01 -3.07660937e-01 +2.48475641e-01 -3.16730887e-01 -3.83872628e-01 -1.37577727e-01 +1.95464775e-01 +2.95727134e-01 +1.09890118e-01 -3.97340864e-01 -2.90456057e-01 +1.04538783e-01 -5.63313782e-01 +2.68233567e-01 -2.33709380e-01 -1.36006081e+00 -1.62935007e+00 +1.10782549e-01 -7.26459548e-02 -1.18414581e+00 -6.83161497e-01 -9.41469669e-01 +4.84459817e-01 +4.45988029e-01 -3.12331647e-01 -1.37168095e-01 -8.82291198e-02 +9.61850464e-01 -1.19615507e+00 -5.68519890e-01 +2.77673185e-01 -3.29211742e-01 -4.18235928e-01 -2.07153350e-01 +3.11629832e-01 -7.42632270e-01 -5.17604768e-01 +7.50514388e-01 +1.93702742e-01 +2.49060377e-01 +7.13502347e-01 -8.05713654e-01 +1.99639071e-02 -3.71842504e-01 +5.08471653e-02 -1.27482861e-01 +2.19425205e-02 +5.09851277e-01 +4.23476771e-02 -5.30310832e-02 -9.27204862e-02 +3.22740108e-01 +4.18461859e-02 -1.93480387e-01 +7.31026709e-01 +7.68250898e-02 +2.30123643e-02 +6.92512333e-01 -3.46219353e-02 -1.19276615e-02 
#Parameter# /vanilla-lstm-builder/_1 {64,16} 16385 ZERO_GRAD
+1.56433418e-01 -1.12431419e+00 +6.42112494e-01 +4.54871923e-01 +4.33797613e-02 -2.20097050e-01 +9.28923607e-01 -1.73658085e+00 -2.39375544e+00 +1.19212675e+00 +2.75536269e-01 -5.35090387e-01 -2.45515585e+00 +1.15740180e+00 -9.47429389e-02 +7.41524339e-01 +1.75433248e-01 -8.54645014e-01 -1.15128601e+00 -8.82691503e-01 -2.25693598e-01 +1.88133705e+00 +4.42658901e-01 -1.11190796e+00 +1.90192926e+00 -4.36265379e-01 +1.30442047e+00 +8.49155545e-01 -1.95296526e-01 +5.63265920e-01 +5.22010803e-01 -1.20304525e+00 -5.36623359e-01 -1.24442387e+00 +1.15026915e+00 +1.18284833e+00 -2.04173103e-01 +7.95166731e-01 -4.93613362e-01 -1.98408854e+00 -9.72142041e-01 +2.51036644e-01 +1.51469544e-01 -7.74979889e-01 -1.46757686e+00 +3.36961329e-01 -4.60799903e-01 -4.09453332e-01 -4.64167029e-01 -1.25467911e-01 -9.26853359e-01 +7.81286478e-01 -1.75301343e-01 +6.18129730e-01 +1.20625973e+00 -1.13958871e+00 +3.58505100e-02 -3.10546964e-01 -3.37238163e-01 -1.68350792e+00 -7.11906850e-01 -5.25863767e-01 +5.72035193e-01 +1.04792631e+00 -1.01990485e+00 -9.92778301e-01 -1.39459610e-01 +3.61621588e-01 -1.57674980e+00 -1.83979499e+00 +1.97365725e+00 +4.60204124e-01 -3.69666100e-01 +2.28312716e-01 +1.39911449e+00 +3.52618366e-01 -7.45246559e-02 +5.16214967e-01 -1.53618729e+00 -1.05511415e+00 -2.31908187e-01 +3.02676201e-01 -1.86861897e+00 -5.86101651e-01 +2.17691278e+00 +1.18233716e+00 -2.07136482e-01 +9.22963381e-01 +1.15853941e+00 -1.33745540e-02 +1.87025511e+00 -1.72559190e+00 +1.41298461e+00 -5.67848265e-01 +1.67820561e+00 +1.12268841e+00 +2.23463327e-02 +1.79716575e+00 +3.04320306e-01 +7.68338680e-01 +2.06331849e+00 -9.52432677e-02 +1.56565344e+00 +6.48908079e-01 +1.24514115e+00 +4.00290340e-01 +1.83692539e+00 -1.23263216e+00 +8.36701035e-01 +1.10035849e+00 +6.43661320e-01 +1.42190444e+00 -4.42095697e-02 -5.55747271e-01 +5.82650959e-01 +4.85201955e-01 +4.90814596e-01 +5.20621834e-04 +3.22366118e-01 -1.19590855e+00 +3.43551487e-01 +9.17619526e-01 +6.70890868e-01 -6.75210118e-01 -6.87323093e-01 +5.36047220e-01 -4.26627785e-01 +1.11994505e+00 +2.35367608e+00 +1.33221042e+00 +1.29545045e+00 +3.49601567e-01 +9.69324827e-01 +1.45204023e-01 +1.65063322e+00 +1.99136364e+00 -2.04504818e-01 +5.33905864e-01 -1.30375838e+00 +8.23514760e-01 -1.78674325e-01 +1.65913093e+00 +2.39993766e-01 -6.63392842e-01 -1.94727790e+00 -1.57060337e+00 -4.16588187e-01 -1.41041172e+00 -1.25061357e+00 -4.19622427e-03 -1.85385227e+00 -2.71937877e-01 +2.09702969e+00 -6.28899515e-01 +6.29149139e-01 -7.61718154e-01 -2.58561879e-01 -2.25696582e-02 -2.96310973e+00 -3.85192156e-01 +1.13436687e+00 +6.61224306e-01 +1.34017751e-01 +1.08192325e+00 +2.76493520e-01 +9.88094926e-01 +1.12715924e+00 +5.83008409e-01 -2.29590440e+00 -5.82622051e-01 -7.48073816e-01 -7.26336360e-01 +1.35746706e+00 -1.40439916e+00 -9.38726187e-01 +4.68500137e-01 -6.35820210e-01 -8.06141317e-01 -1.38632572e+00 +1.50829649e+00 -7.28277415e-02 +1.16191804e-01 +6.46949410e-01 +1.24446428e+00 +8.74681100e-02 +1.27075529e+00 +6.24101698e-01 +9.65779275e-02 -2.67576307e-01 +5.63590884e-01 +4.52230006e-01 +9.62636828e-01 +3.11244875e-01 -2.01371861e+00 +6.08047009e-01 +8.74327898e-01 +9.74861741e-01 -9.19094622e-01 -1.10875988e+00 +2.19756082e-01 +1.35214818e+00 +8.57937634e-01 -4.46422696e-01 +8.02288577e-02 +8.75850439e-01 +2.66018391e-01 -1.23380494e+00 +8.11778843e-01 +5.07170320e-01 +3.98733228e-01 -1.16679454e+00 +5.54772139e-01 -1.47832170e-01 -4.72617984e-01 +2.37698182e-01 -1.21806419e+00 -4.82610941e-01 +2.04885542e-01 -3.44396800e-01 +5.96140385e-01 -5.77341735e-01 +4.20902520e-01 +8.83208632e-01 +1.56095400e-01 +1.89697194e+00 -6.94475472e-01 -1.34989917e+00 -1.08065379e+00 +6.15193665e-01 -5.63202918e-01 -1.30661678e+00 -6.14617884e-01 -5.68927675e-02 +1.04680276e+00 -1.24301803e+00 -2.60855108e-01 -3.45986634e-01 -1.50685835e+00 +9.44719672e-01 +5.84246874e-01 -6.37140591e-03 -1.45473742e+00 -3.69327605e-01 +1.34706661e-01 +2.64545619e-01 -2.80370116e-01 +1.11251213e-02 +4.23324317e-01 -1.23518080e-01 +6.59834504e-01 -1.36665717e-01 +6.31489575e-01 +1.01299000e+00 +1.92397490e-01 +4.50254261e-01 -2.52906919e+00 +2.26972289e-02 -9.29242909e-01 -1.09637521e-01 -7.76129365e-01 +1.77721751e+00 -5.37111580e-01 +9.15813923e-01 +1.33931720e+00 +8.39289427e-01 -1.76934052e+00 -1.20195448e+00 -1.27132580e-01 -6.35576963e-01 +3.94846737e-01 +4.98175532e-01 -2.27074981e+00 +6.94813132e-02 +1.65762559e-01 +1.04334140e+00 +4.42333460e-01 +6.53230548e-01 -1.28079355e+00 -4.54768300e-01 -3.63201588e-01 +1.27862588e-01 +1.09246171e+00 -4.75115269e-01 -8.80043209e-02 -1.26468039e+00 +5.03246486e-01 +5.81827819e-01 -7.15334937e-02 +3.83103698e-01 +1.26804364e+00 -1.25352633e+00 -5.37542142e-02 -1.05278718e+00 +1.47528517e+00 -3.39138627e-01 -6.50455654e-01 +6.61338493e-02 -6.39386475e-01 -7.75330484e-01 +2.02603698e-01 +4.35275763e-01 +3.81572098e-01 -6.60808027e-01 +2.19970271e-01 +1.81126297e-01 -3.24925572e-01 +9.30942059e-01 -6.47654086e-02 -1.33284912e-01 -2.45401680e-01 -4.59148049e-01 +2.59232581e-01 -8.64643991e-01 -6.58878446e-01 -2.96724141e-01 +4.77780938e-01 +2.16554686e-01 -1.05384350e-01 +2.24396437e-01 -1.32443368e+00 -8.09606910e-01 -8.54460001e-01 -3.55027348e-01 -1.02857304e+00 -2.33167589e-01 -1.20856059e+00 +1.53987110e+00 +1.49096632e+00 +2.42511678e+00 -3.71893644e-01 -9.37385499e-01 -9.31640804e-01 +1.72867522e-01 -1.19602787e+00 -1.53685069e+00 -8.60994160e-01 -5.03566861e-01 -1.37145221e+00 -6.15030937e-02 -1.35289133e+00 -3.65348943e-02 -1.61046755e+00 +1.26697421e-01 -1.55724227e-01 -4.89706248e-01 -5.44873238e-01 -1.07091755e-01 -6.74366653e-01 -1.35542440e+00 -1.79191828e-01 +5.29978335e-01 -1.85417533e+00 +1.15968227e+00 +7.20853627e-01 +1.13252378e+00 +4.61082071e-01 -1.91297531e+00 -8.76142442e-01 -2.34256789e-01 +6.27211332e-01 +7.53187597e-01 +4.56913710e-01 -6.49386704e-01 +6.26884758e-01 +1.61670852e+00 +1.57862628e+00 -1.65493345e+00 +3.85291308e-01 -9.32369679e-02 +2.82308578e-01 -2.85097420e-01 -2.62285501e-01 +9.98947322e-02 -6.29020333e-01 +3.50628227e-01 +2.30546236e-01 +9.98451039e-02 +2.47910004e-02 -1.17579675e+00 -4.19733450e-02 +3.09451282e-01 -7.02608347e-01 +3.62144142e-01 +3.09438538e-03 -3.09266239e-01 +3.80315363e-01 +5.43933690e-01 +1.40033007e+00 +1.65543723e+00 +1.17246079e+00 +1.72014356e+00 +1.35795581e+00 +3.59373450e-01 +6.63358718e-04 +1.10793054e+00 -1.10544705e+00 +6.96662903e-01 +1.56707966e+00 +1.28361568e-01 +1.24823093e-01 -5.74239612e-01 -1.00022936e+00 +5.27716517e-01 -6.06916726e-01 -1.31041098e+00 -3.73772025e-01 +2.96747595e-01 +4.56731737e-01 -1.21691823e+00 +8.72090638e-01 -2.62768596e-01 -1.34989655e+00 +2.57963777e-01 -1.17745662e+00 +8.32121611e-01 -7.12370813e-01 -5.18748403e-01 -3.77430022e-01 -6.71221256e-01 +1.24497294e-01 -2.64832228e-01 -6.91076294e-02 +7.93742299e-01 -3.17577243e-01 -1.51944160e-01 +1.72088891e-01 -3.43433648e-01 -9.45958376e-01 -6.32777333e-01 +9.69804823e-01 +1.37618795e-01 -6.44400299e-01 +4.30901684e-02 +7.31828451e-01 +4.49410230e-01 +5.99229373e-02 +4.27813202e-01 -4.62101966e-01 -9.34748471e-01 -5.10478139e-01 +3.09413243e-02 +1.10809600e+00 +1.87048353e-02 +2.19429970e-01 -6.98464870e-01 +4.10482377e-01 -5.27064741e-01 +1.19998312e+00 -7.55550146e-01 -8.59178424e-01 +1.59939006e-01 -3.55418116e-01 -7.51739368e-02 +1.60765982e+00 -1.18901896e+00 +7.81689048e-01 +1.10489154e+00 -2.01073661e-01 +2.21608207e-01 -1.28020501e+00 +2.64388591e-01 -5.25095820e-01 +6.92597389e-01 -3.15361500e-01 -8.20249796e-01 +3.47033834e+00 -3.36638540e-01 +3.38653851e+00 -1.51456356e+00 -4.38429952e-01 +1.63658369e+00 +2.38562465e+00 +3.32293808e-01 -8.02661061e-01 -2.92362750e-01 +2.73574442e-01 +2.22680327e-02 -2.95650929e-01 -3.49554233e-02 +1.08752179e+00 -2.66904056e-01 -1.79428482e+00 +9.79339004e-01 -1.81758475e+00 -1.09324872e+00 -5.61350167e-01 -1.58759579e-01 -2.66898185e-01 -5.06102324e-01 -1.78977406e+00 -8.44395440e-03 -1.72727239e+00 -1.47476530e+00 +7.66262650e-01 -1.33719158e+00 -8.95305753e-01 +7.67222941e-01 +9.30323601e-01 -2.82443166e-01 -1.87868133e-01 -7.79508591e-01 +2.16708273e-01 +4.55743819e-01 +1.04925478e+00 -4.21116531e-01 +5.79239428e-01 -1.81306049e-01 +7.19596624e-01 -4.23589289e-01 -1.23660214e-01 +1.00182211e+00 -2.00115979e-01 -1.17270792e+00 -1.42195952e+00 +4.99656349e-01 +8.74778211e-01 -8.66560936e-01 -1.64905235e-01 +6.16479754e-01 -2.17127585e+00 -3.26104313e-01 -8.31104517e-01 +9.93573189e-01 -2.89414316e-01 -9.86032426e-01 +9.97786641e-01 -9.07644808e-01 -4.79896456e-01 +1.08305180e+00 -1.04545176e+00 +1.95060179e-01 +2.63289362e-02 +1.53752196e+00 +1.55255139e+00 -2.15270311e-01 -3.07890862e-01 +1.77146986e-01 +1.59791696e+00 -2.95411330e-02 -1.32046402e+00 -1.35635793e-01 +2.36922786e-01 +2.06080720e-01 -4.53300864e-01 -7.81242073e-01 +6.78178668e-01 -7.14295089e-01 +8.87819454e-02 +5.65363802e-02 +1.49548709e+00 -6.65909588e-01 +3.24562103e-01 -7.60678589e-01 +8.95840526e-02 +8.07415664e-01 +5.38963675e-01 -5.47508180e-01 -1.31220102e-01 -3.54061186e-01 -1.09739995e+00 +2.74502158e-01 -3.33055347e-01 +1.18268684e-01 -3.63751978e-01 -8.01373199e-02 +8.24425042e-01 -3.16679209e-01 -3.94452333e-01 +3.74567091e-01 -1.06003356e+00 -1.33903980e-01 -1.60492623e+00 -6.13802493e-01 -7.51817673e-02 -5.78248143e-01 +1.30081129e+00 +1.49450231e+00 -1.17880607e+00 -3.31370197e-02 +1.11365449e+00 +5.84850907e-01 -4.59597439e-01 +2.51923704e+00 -3.71484607e-01 +6.66742802e-01 +6.04929507e-01 -6.39762104e-01 +5.31837165e-01 -1.04452200e-01 +2.02349472e+00 +1.17633390e+00 -1.84616685e-01 -1.83173811e+00 -2.39418983e+00 +3.11003298e-01 +1.66067347e-01 -8.30569804e-01 +5.71487546e-01 -7.21201241e-01 +1.71423897e-01 -1.58400047e+00 +1.37818360e+00 +4.83557075e-01 +1.70222723e+00 +1.27259851e-01 -6.90957785e-01 -1.33416975e+00 +9.01491761e-01 +1.97861850e-01 -6.51070416e-01 +2.44890451e+00 +1.59741902e+00 +1.85219526e+00 +5.36870182e-01 +5.07054627e-01 +6.66903257e-01 -3.24253500e-01 +4.24850106e-01 +1.57899773e+00 -2.09806874e-01 -5.20132899e-01 +7.91198075e-01 -5.49743652e-01 -1.45076656e+00 -2.85548061e-01 -9.29193735e-01 -4.88612652e-01 +1.37775373e+00 +1.59956932e-01 -9.26443934e-01 +7.92630434e-01 -2.90946960e-01 +1.52140355e+00 +9.27573740e-01 +1.86184242e-01 +1.16957748e+00 +9.73411441e-01 +4.71123815e-01 -3.96900594e-01 -1.22113991e+00 +5.73155761e-01 -4.41403061e-01 -1.11395669e+00 +9.65232924e-02 +8.30704808e-01 -1.13547015e+00 +7.88976774e-02 +1.35503817e+00 +2.84159064e-01 -8.04407001e-01 +5.72607554e-02 -1.21667254e+00 +1.03431344e-01 -9.96355534e-01 -1.02182209e+00 -1.16682422e+00 +1.81477404e+00 -2.49371007e-01 +2.40689337e-01 +8.10935378e-01 -1.33603346e+00 -7.73411840e-02 +1.18100166e+00 +5.33018112e-02 +1.01896799e+00 -9.75646794e-01 +7.92166650e-01 -7.05072880e-01 +2.01499388e-01 +8.38014781e-01 -1.21288650e-01 -1.07014906e+00 +5.83061397e-01 -4.18796867e-01 -6.98013604e-01 +9.93777275e-01 -1.26225218e-01 -1.63316560e+00 -8.98024976e-01 +1.56065807e-01 +3.38812098e-02 +3.38239223e-02 -2.54105091e-01 -6.04991674e-01 +7.39303231e-01 -5.96580748e-03 -1.08258915e+00 +1.07597005e+00 +9.21884254e-02 +1.05332565e+00 -5.67835212e-01 +3.41295630e-01 +3.61705899e-01 -3.28200668e-01 +4.93695363e-02 +9.10030425e-01 +3.10667127e-01 +8.95692587e-01 -4.76373136e-01 -4.96896982e-01 +5.09391606e-01 +3.05499017e-01 -2.27882087e-01 +7.93677509e-01 +1.37815070e+00 -2.73456663e-01 -3.99413973e-01 -4.86268967e-01 -3.59914154e-01 -7.51367807e-01 +1.18758786e+00 +9.22163129e-01 -6.20270371e-01 +5.01206666e-02 -2.04818457e-01 +2.00018525e+00 +6.89929903e-01 -5.54388046e-01 +2.16378760e+00 +1.76139307e+00 -1.63370466e+00 +1.06979035e-01 +3.89435023e-01 +3.75095099e-01 -1.30036926e+00 -9.33696330e-01 -4.97386187e-01 +6.78339720e-01 -6.85879648e-01 +1.35540545e+00 +2.99538851e-01 +3.22177887e+00 -1.71015692e+00 -8.67080986e-01 -1.86431491e+00 +2.28493780e-01 -1.78708583e-01 -1.73534071e+00 +3.01363468e-02 +1.46393359e+00 +4.91350174e-01 +1.21832681e+00 +2.41055250e+00 +9.01908755e-01 +6.43876433e-01 +6.53074741e-01 +1.51911652e+00 -1.84835166e-01 -2.42311373e-01 -8.67843211e-01 -3.75656515e-01 -2.76887149e-01 -1.77408651e-01 -6.28570378e-01 -1.99308813e-01 +9.56168890e-01 +1.99471518e-01 -1.28089464e+00 +5.79635322e-01 +1.30423653e+00 -1.07732326e-01 +8.12803030e-01 +9.89865839e-01 +7.40805984e-01 +1.64390969e+00 +1.29675078e+00 -6.92654669e-01 -5.76681137e-01 +1.01173557e-01 +5.92327297e-01 +2.35810522e-02 -7.99622416e-01 -1.88299581e-01 +4.84805971e-01 +3.00023973e-01 -5.71409404e-01 -1.26749980e+00 -5.87751567e-01 -1.09843600e+00 +1.53334856e+00 +1.19242036e+00 -1.13147461e+00 +1.74167538e+00 +7.55575240e-01 +8.89282394e-03 +1.21202481e+00 +5.38141668e-01 +2.45421815e+00 -1.88714182e+00 -5.48051298e-02 -1.63358092e-01 -8.12481046e-01 -1.59616709e-01 -3.70014720e-02 -3.40023875e-01 +1.87821829e+00 +1.10882771e+00 +9.44001377e-01 -2.74799377e-01 +1.30803728e+00 -1.52807653e+00 -3.51586246e+00 +6.42595738e-02 -3.72697055e-01 +1.03620672e+00 -2.41756344e+00 -8.07343304e-01 -5.26916802e-01 -1.25437963e+00 +1.35842562e-01 -1.91989946e+00 -2.83594131e-01 -7.69436240e-01 -3.05090964e-01 -3.66394371e-01 -1.26355278e+00 +3.89253646e-01 +3.30295227e-02 +7.66417459e-02 -1.43776432e-01 -4.12061781e-01 -1.80698521e-02 +2.54299462e-01 +4.11902517e-01 -8.27240646e-01 -7.30116487e-01 -6.89362884e-01 +1.16040505e-01 -2.70145148e-01 -3.14226821e-02 +3.05452853e-01 -2.75620818e-01 +3.18771982e+00 +1.95639268e-01 -1.19267330e-01 +1.85020816e+00 +5.84638059e-01 +1.97878814e+00 +1.82498658e+00 +4.42425251e-01 -2.55204856e-01 -2.45615944e-01 -5.72124660e-01 -7.66944170e-01 -2.04882294e-01 +1.73434591e+00 +1.55336273e+00 -9.64220762e-01 -6.45101607e-01 +4.69651252e-01 -7.86816478e-01 +2.16513562e+00 -8.16390932e-01 +4.77622971e-02 -1.17654657e+00 +1.78169951e-01 -8.62152502e-02 +2.40250182e+00 +3.51316296e-02 +3.46792042e-01 +5.03080189e-01 -5.34833789e-01 +7.13443220e-01 +2.10464120e+00 +1.31369030e+00 -2.47045422e+00 +5.23548603e-01 -8.68253648e-01 +1.98739374e+00 +2.10557804e-01 -1.02364886e+00 +4.45802331e-01 -2.87025309e+00 +4.35896099e-01 +1.63772851e-01 -8.78226101e-01 -3.59009147e-01 +4.82031733e-01 -1.39266992e+00 -7.63636708e-01 -4.40833867e-01 -1.23078978e+00 -3.15036625e-01 +1.57024384e-01 -3.87358129e-01 +7.66506851e-01 -1.77535862e-01 -1.63838312e-01 +6.31439209e-01 -4.46951129e-02 -9.27181900e-01 -8.69427085e-01 -2.94921938e-02 -1.88783491e+00 +2.83636987e-01 -4.29496944e-01 -1.39250314e+00 +4.68107825e-03 +7.54664898e-01 -3.83152187e-01 +9.88762558e-01 -4.31321532e-01 +1.22170717e-01 +1.58305669e+00 +1.57157445e+00 -1.00008392e+00 -1.61952466e-01 -9.70286191e-01 -1.20834637e+00 -9.28358555e-01 -8.23239386e-01 -1.02485752e+00 +3.92152399e-01 +1.77991080e+00 -3.75415117e-01 +4.89626795e-01 +6.22558236e-01 -5.01939058e-01 +8.92376482e-01 +1.03256869e+00 -1.29605651e+00 -4.02386695e-01 -4.67941463e-01 +1.98450640e-01 -4.26382199e-03 +1.08424641e-01 +7.71462977e-01 -4.25330341e-01 +9.08426702e-01 +1.81338501e+00 -1.74812841e+00 -2.50031382e-01 +4.33655083e-01 +1.03412223e+00 +7.67368436e-01 -1.39298224e+00 +2.41056412e-01 -1.52560249e-01 -1.07928053e-01 +9.71425295e-01 +2.47485474e-01 -4.08441067e-01 +9.58396673e-01 +1.49982527e-01 +7.81295717e-01 -8.24642554e-02 +5.57215989e-01 +3.74807209e-01 +4.21288103e-01 +1.21182784e-01 -3.45623791e-01 +2.04228550e-01 -1.80964440e-01 +7.93645561e-01 +1.39226139e+00 +7.91779697e-01 -1.84232160e-01 +6.31198466e-01 -1.06693065e+00 -1.77741766e-01 +2.44831398e-01 -3.30987245e-01 +1.09745577e-01 -1.07691073e+00 +1.84578633e+00 +2.32096076e+00 -1.42429352e+00 +1.63751155e-01 -2.21105725e-01 -9.51997280e-01 +6.95963979e-01 -3.63338768e-01 -6.06393695e-01 -1.57944334e+00 -2.63419569e-01 -4.59707350e-01 -2.55836189e-01 -1.97341430e+00 +9.91898477e-01 -9.88940239e-01 -1.76502037e+00 -5.76422811e-01 +6.02580845e-01 -2.70417362e-01 +4.59918976e-01 -5.23299634e-01 -3.90275598e-01 -3.07983667e-01 -2.24985003e+00 -1.06935906e+00 +4.81473386e-01 -1.59266829e+00 -2.24094689e-01 +4.11578029e-01 -1.38889804e-01 -1.66300106e+00 -1.05325866e+00 +4.84613150e-01 +4.71853167e-01 -1.40220031e-01 -1.02398789e+00 +1.35733327e-02 -5.46663702e-01 +1.11219490e+00 +5.40676951e-01 +8.86101007e-01 +5.97525872e-02 -6.33277893e-02 +1.16702652e+00 +1.62379527e+00 +1.12974155e+00 -1.56347358e+00 -5.02826571e-01 -2.16863945e-01 -1.62203312e+00 +4.42247726e-02 -7.65798628e-01 -4.29487020e-01 -1.05321276e+00 +3.75844151e-01 -1.08381641e+00 -4.62796718e-01 -4.72140536e-02 -2.63785690e-01 
#Parameter# /vanilla-lstm-builder/_2 {64} 1025 ZERO_GRAD
+1.05988896e+00 +5.46833813e-01 +1.53202832e+00 +1.92552567e-01 +7.11455166e-01 +1.12744474e+00 +7.76645243e-01 +1.07510436e+00 +3.18402439e-01 +6.06111348e-01 +1.32545769e+00 +6.68707788e-01 +1.26959860e+00 +1.20968413e+00 +3.03532988e-01 +5.48447728e-01 -5.79071701e-01 -2.09469706e-01 -7.26297200e-01 +3.63874584e-01 -4.25476059e-02 -9.84791964e-02 -5.12611151e-01 +6.97913170e-01 -3.95670146e-01 +5.51685274e-01 +2.44325504e-01 +1.82449564e-01 +7.27704048e-01 -1.16611183e+00 -5.20059943e-01 +2.28457883e-01 +5.76450408e-01 +8.38787079e-01 +1.78630614e+00 +1.47029746e+00 +4.32769984e-01 +4.18200642e-01 +1.11713982e+00 +1.07223332e+00 +4.52688783e-01 +1.22371662e+00 +1.10346210e+00 +6.51824594e-01 +6.72567189e-01 +6.20787621e-01 +1.23918724e+00 +2.29944408e-01 -4.23187047e-01 -1.40679300e-01 -1.90241575e-01 -3.30685894e-03 +3.35755944e-01 +6.10703528e-01 -3.32153775e-02 -9.54216793e-02 -2.55732328e-01 +2.20851347e-01 -2.21669555e-01 -2.25270092e-01 -2.86071807e-01 -2.05717623e-01 +4.44275260e-01 +2.36110985e-01 
#Parameter# /vanilla-lstm-builder_1/_0 {64,32} 32769 ZERO_GRAD
+1.27715811e-01 -3.97090316e-01 +2.64056802e-01 +5.04338071e-02 -1.47548541e-01 -4.56900299e-02 -1.34074986e-01 +2.57509369e-02 +1.82882220e-01 -3.99190456e-01 +4.41598415e-01 -1.62267238e-01 -2.17945762e-02 -1.41912162e-01 +4.19894516e-01 +1.91618279e-01 -8.71619403e-01 +5.77977479e-01 -2.23918334e-01 -9.38187912e-02 -1.41131163e+00 -4.64637280e-02 -8.95474702e-02 -1.58610559e+00 +6.16768375e-02 -1.36311680e-01 +1.33638950e-02 +3.34295869e-01 -4.27630365e-01 +9.91046503e-02 -2.12943763e-01 +1.75033003e-01 +2.10339725e-02 +1.15412563e-01 +9.95028839e-02 -1.76272914e-01 -1.68068349e+00 -9.07654345e-01 -4.09744494e-03 -1.44044191e-01 -2.59021461e-01 -1.33123681e-01 -2.95408249e-01 +1.68387771e-01 +2.25140423e-01 +2.38711610e-01 +1.77883729e-01 -2.68038958e-01 +1.40277773e-01 +1.73023775e-01 +2.81038433e-02 +8.84742677e-01 -1.92422497e+00 +4.65314724e-02 -6.29241625e-03 -1.22722471e-03 +1.74533464e-02 -1.31667759e-02 +2.69097000e-01 -4.80181538e-02 +6.93595409e-02 -6.46442294e-01 -1.96357623e-01 +1.62325501e-01 +4.96205688e-01 -3.20495218e-01 -1.58280283e-01 +1.22318244e+00 +1.12053625e-01 -1.14743114e-01 -1.68783337e-01 +1.74780227e-02 +2.23166365e-02 +2.79736221e-01 -1.84944764e-01 -7.44515896e-01 +1.31068096e-01 +3.06511633e-02 +6.22152448e-01 +2.60057390e-01 -4.72654402e-01 +5.31281292e-01 +3.39769274e-01 +6.35652766e-02 +6.41874745e-02 -1.34700641e-01 +3.13953578e-01 -3.29852104e-01 -6.63693666e-01 -4.65001278e-02 +2.58401155e-01 -1.48931518e-01 -2.87183076e-01 +1.16393209e+00 -9.45386887e-01 +2.13002390e-03 -3.45984131e-01 -4.38633338e-02 +9.24314857e-02 +4.96985018e-02 -2.49345347e-01 -2.70052701e-01 +4.41587955e-01 -6.58860011e-03 +2.07743496e-01 +2.47864693e-01 +4.10200171e-02 -1.92058589e-02 +1.39242768e+00 -9.88117009e-02 -5.26825070e-01 +1.68344080e-01 -2.85183489e-01 -1.19609542e-01 -3.31406109e-02 +1.08535126e-01 -1.65042356e-01 -3.28937590e-01 -2.98871882e-02 -1.32423192e-01 -6.08093813e-02 +6.61171153e-02 +4.04540688e-01 -1.47658223e-02 -2.82052904e-02 +6.41102195e-02 -2.14433813e+00 -3.03146064e-01 -7.96791732e-01 -7.77652338e-02 +2.79085219e-01 -2.83707881e+00 -1.06975421e-01 -1.40514523e-02 +1.04105689e-01 -9.31250826e-02 +3.61933440e-01 -6.25720739e-01 +1.20380200e-01 +5.69560230e-02 +3.54194753e-02 -2.75598913e-02 -1.17774121e-01 -3.56636852e-01 +9.54822004e-01 -8.38662982e-02 -9.17504847e-01 -1.31059825e-01 +5.55113852e-01 -1.08929880e-01 -6.53646216e-02 +8.95658553e-01 +2.35053003e-01 +5.70778474e-02 -1.14258087e+00 -9.87477779e-01 +1.22820921e-01 +1.83876172e-01 +3.57298642e-01 +3.76231700e-01 -4.02932167e-01 +7.80615509e-02 -5.33007085e-03 -9.08255517e-01 +9.64546576e-02 +5.93389831e-02 -6.11071229e-01 -7.54784524e-01 +2.19429031e-01 +1.34105921e-01 -1.10091352e+00 +1.27504915e-01 -3.69562268e-01 +8.69052485e-02 +4.08218354e-01 +3.16305727e-01 -1.86442025e-02 +1.27612635e-01 +5.07238181e-03 -7.92466477e-02 -6.31171539e-02 +2.25746542e-01 +5.16716763e-02 -1.04847133e-01 +8.03271011e-02 +1.29374703e-02 -5.79475284e-01 -1.37966285e-02 +1.38684526e-01 -6.35886267e-02 +7.99296618e-01 +4.35672075e-01 +1.46243706e-01 -5.78711689e-01 +1.06957519e+00 -2.07102578e-02 -4.94646356e-02 +2.22036213e-01 +8.17498490e-02 +8.10248181e-02 -5.79889357e-01 +4.31628406e-01 -3.04552615e-02 +4.54973942e-03 -3.82983714e-01 -5.74784458e-01 +4.32011262e-02 +1.47328839e-01 -9.66271281e-01 -1.24658927e-01 -5.04846096e-01 -1.01316440e+00 +1.54219821e-01 -8.85297824e-03 -3.32762659e-01 -2.41983861e-01 -4.61422563e-01 +5.70120811e-01 -4.08650413e-02 -3.32870096e-01 +8.11813593e-01 -2.80330241e-01 +2.45718867e-01 +6.59802616e-01 -1.02930263e-01 +5.20092845e-01 -3.90138656e-01 +2.51913995e-01 +5.69844782e-01 -2.31921181e-01 -1.02865063e-01 +3.09455842e-01 +1.18697606e-01 -2.26403356e-01 -2.29826403e+00 -1.66757226e-01 +3.97222519e-01 +4.00188953e-01 +2.34872103e-03 -5.57591558e-01 +1.79551974e-01 -3.42576325e-01 +3.90385449e-01 +1.27176091e-01 -3.84016007e-01 -8.13045278e-02 +1.20183192e-01 +4.42715943e-01 -3.37058574e-01 +7.27727860e-02 +7.53573934e-03 -2.42207497e-02 +1.49510995e-01 +2.33695060e-01 -3.51877242e-01 +2.04797164e-01 +1.55804560e-01 +8.78316045e-01 +3.65677297e-01 +3.34025681e-01 +3.37482691e-02 -3.60367268e-01 +4.16292191e-01 +5.47827542e-01 -3.70900661e-01 -1.23082244e+00 +2.50742793e-01 +6.49729729e-01 +3.92309755e-01 +5.95776856e-01 -1.23554677e-01 -1.03133887e-01 +1.74363941e-01 -1.69648364e-01 -5.88334024e-01 -4.79778171e-01 +4.71908338e-02 +4.08776462e-01 -5.14944792e-01 +2.70585060e-01 +5.69031298e-01 -5.81515074e-01 +2.02005748e-02 -9.20735896e-02 -2.27589518e-01 -6.71737671e-01 -8.39318614e-03 -6.03117526e-01 +4.11049634e-01 -3.36785853e-01 +9.81373489e-02 -1.68474503e-02 +1.90045670e-01 +2.71346927e-01 -5.13151467e-01 -4.22389507e-02 -7.61670470e-01 -3.01851839e-01 +1.33766592e+00 +3.71007055e-01 -6.96609378e-01 +2.11786311e-02 +4.55907792e-01 -5.58312833e-01 -1.24807596e-01 +1.40767425e-01 -1.47383168e-01 -2.99208671e-01 +1.74993187e-01 +7.13581368e-02 +9.20188706e-03 -7.06684738e-02 +1.82091966e-01 -2.32272327e-01 -1.26256138e-01 +5.07687703e-02 -2.09160484e-02 +5.52850291e-02 +3.21194947e-01 +8.72108191e-02 -2.07736827e-02 -7.86483437e-02 -1.85298651e-01 +1.04512095e+00 -2.92465687e-01 -2.90019095e-01 +5.21195829e-02 +1.20937489e-01 +1.47233057e+00 +2.76218623e-01 -1.85505971e-01 -8.60399008e-01 +1.73390254e-01 -3.82978469e-01 +6.01988554e-01 -6.42038643e-01 -2.73651242e-01 +8.27822447e-01 +4.99837369e-01 +1.20990549e-03 -1.00858971e-01 -8.73219848e-01 +4.41101432e-01 -5.56789577e-01 -5.82951307e-01 -8.04181814e-01 -3.36844295e-01 +2.67659545e-01 +7.70562375e-03 +7.04815030e-01 -3.21311802e-01 +7.28897452e-01 -4.56906520e-02 +2.99293995e-01 -8.83463621e-02 -6.46564424e-01 +2.54661232e-01 -5.22837162e-01 -9.12220031e-02 -1.78967312e-01 -3.86869311e-01 +4.32398021e-01 -2.28148356e-01 +2.38787606e-02 +8.63518119e-02 +6.65978551e-01 -4.90219355e-01 -2.48213159e-03 +4.70971912e-02 +4.69669610e-01 +2.90939659e-02 +1.61742851e-01 -1.22625358e-01 -2.89449096e-01 +1.18851826e-01 -1.07099555e-01 +5.76599389e-02 +1.52277514e-01 +2.04333384e-02 +6.76819906e-02 -8.55553746e-02 -7.24315941e-01 -2.09745571e-01 +3.44122052e-01 -3.22951466e-01 -2.28352264e-01 +1.01562545e-01 -1.61090112e+00 -7.05246568e-01 +4.80478592e-02 +6.17276132e-02 +1.69683233e-01 +3.13380718e-01 +1.67017353e+00 -3.09737802e-01 -1.50772244e-01 -2.22979542e-02 +1.05557062e-01 -2.30415240e-01 -2.89462954e-01 -1.58924699e-01 -3.86978239e-01 -4.54896212e-01 +3.96271944e-01 -3.62046301e-01 -9.35061723e-02 +2.91626155e-01 +6.29107475e-01 -9.25218463e-01 -6.11011207e-01 +7.52831638e-01 -9.03056487e-02 -3.04063559e-01 -6.45437539e-01 -1.02181470e+00 +8.64516646e-02 +9.53141272e-01 -8.04371238e-01 +2.58832306e-01 -3.21847945e-01 +7.44764745e-01 -1.56105012e-01 +6.29805207e-01 +7.07322180e-01 -9.31356609e-01 -3.86499465e-01 -3.34280908e-01 -3.12696427e-01 -3.05718571e-01 -3.46226275e-01 -8.55077147e-01 +2.35690862e-01 +7.77785480e-02 +1.04687139e-02 -1.08887807e-01 +4.08499204e-02 -1.06793717e-01 -9.63404700e-02 -4.19769669e-04 +4.48676288e-01 -3.77423257e-01 +1.56675369e-01 -4.47254181e-02 +1.26815364e-01 +1.19305365e-02 -8.66639465e-02 +3.75871435e-02 +4.83455122e-01 +5.39845407e-01 -4.48569745e-01 +2.36911476e-01 +7.53891706e-01 -8.34840611e-02 +5.75691275e-02 -1.82423234e-01 +5.09102464e-01 +3.44649643e-01 -6.30356848e-01 +1.11711631e-02 +5.59078678e-02 +2.55279034e-01 +1.16713889e-01 +3.64880115e-01 -5.17168581e-01 +3.06164831e-01 +2.12736562e-01 -6.25425160e-01 +3.27667236e-01 -1.35715052e-01 -9.10591520e-03 -2.37468407e-01 +2.84387946e-01 -3.99036407e-01 -1.35192692e+00 +2.22983621e-02 +1.34759888e-01 -4.09732789e-01 +1.18432730e-01 -2.26415619e-02 -9.82915163e-01 +1.93411171e-01 +4.86003339e-01 -3.76552418e-02 -4.28983569e-01 -1.41325623e-01 -5.94188809e-01 +1.04850702e-01 +2.50194818e-01 -2.63809085e-01 -2.12535828e-01 +3.47589672e-01 +1.71627551e-01 -1.62596419e-01 +3.12073708e-01 +1.97277024e-01 -2.77350813e-01 -4.47061390e-01 +1.97918221e-01 -7.52427429e-02 -2.68047452e-01 +1.15577742e-01 -2.51913399e-01 -1.27034545e-01 -5.61198294e-01 +1.71978921e-01 -5.27390987e-02 -2.13677511e-01 +1.28349140e-01 -8.13186448e-03 -8.28011110e-02 +2.22347036e-01 +3.81037086e-01 +7.43140355e-02 -6.17992342e-01 +3.73828292e-01 -5.40819645e-01 -4.42365944e-01 +5.44284284e-02 -1.86067030e-01 +2.79168356e-02 -2.44471297e-01 -3.63986939e-01 +5.58152676e-01 -2.54092645e-02 +1.00465864e-01 -2.87604660e-01 +7.23424479e-02 +3.91218960e-01 -1.43884671e+00 +8.42996359e-01 +1.38555571e-01 -1.86666269e-02 -1.83484435e+00 +1.20125689e-01 -1.16702013e-01 -6.60695195e-01 +5.51590562e-01 +1.60817042e-01 +1.33506313e-01 -1.87125325e-01 -6.04791284e-01 -7.24878162e-04 -2.40792811e-01 +3.00056227e-02 -2.18306363e-01 +3.13024759e-01 -7.07993582e-02 +5.08933485e-01 -1.36302769e+00 -7.02238858e-01 +1.70679718e-01 -2.97285229e-01 -4.65095639e-01 -8.74709964e-01 -1.08096063e+00 -1.86183266e-02 +1.96461424e-01 +3.00391346e-01 +1.33724689e-01 -6.77290797e-01 +2.09745064e-01 +1.35066688e-01 +8.90701339e-02 +1.05731702e+00 -1.99226141e+00 -1.82842076e-01 -2.78203953e-02 +2.48338565e-01 -6.77408725e-02 -3.78341181e-03 +1.10183753e-01 -6.11532032e-02 +1.62109569e-01 -2.09369257e-01 +7.91767053e-03 +5.59929013e-02 -7.23119557e-01 +2.12172493e-02 +5.02176210e-02 -1.70323968e+00 +1.49716601e-01 +7.48879239e-02 +7.50750676e-02 -3.35495323e-01 +4.41272944e-01 -5.51912963e-01 +1.74839962e-02 -4.03773300e-02 +1.18096292e-01 +7.54384324e-02 +3.83433588e-02 -4.37913388e-01 +5.95205486e-01 +4.56936479e-01 -1.53875127e-01 +2.01366723e-01 +1.49568068e-02 -9.60919484e-02 -1.66103199e-01 +9.25949514e-01 +4.68354881e-01 +5.77117503e-02 -1.06028092e+00 -9.69990075e-01 -2.90465653e-01 +5.02279960e-02 +1.61453485e+00 +6.36670589e-01 -2.79119015e-01 +2.61778533e-02 +2.08958998e-01 -7.90330112e-01 -1.86741024e-01 +9.45691094e-02 -4.88613963e-01 -3.07753146e-01 +1.32499278e-01 +2.55406439e-01 -6.82866812e-01 +9.59379151e-02 -9.01653528e-01 +1.19539648e-01 +3.01282287e-01 +3.76531452e-01 +2.27546543e-02 +5.18524200e-02 -3.87085192e-02 -2.23738644e-02 -1.30294323e-01 +4.09383118e-01 +1.20732136e-01 +1.01720646e-01 +1.76605254e-01 +1.18545964e-02 -2.23182416e+00 +1.90631635e-02 +1.27498478e-01 +3.48573551e-02 +4.50869113e-01 +3.18067104e-01 +4.32756037e-01 -1.98381931e-01 -5.87170541e-01 +7.84340739e-01 +4.93025184e-01 -1.18988849e-01 -1.48330122e-01 +2.74316013e-01 -2.16802716e-01 +8.77786428e-02 +7.79011771e-02 -4.82725315e-02 +3.84146422e-02 +3.32704008e-01 +3.02260369e-01 +1.17782757e-01 +4.79237497e-01 +3.39120686e-01 +6.43961668e-01 +3.14028710e-01 -8.46911967e-01 +1.30492494e-01 +3.20846289e-01 +1.73010275e-01 -2.29678243e-01 -2.27735117e-01 +6.86725378e-02 +8.03257763e-01 -1.29553270e+00 +7.84000695e-01 -1.34844029e+00 -9.96408284e-01 +1.29814029e-01 +2.60181110e-02 +1.83286980e-01 -2.40910649e-01 -4.68245745e-01 -3.07099015e-01 +1.93572357e-01 -6.04842752e-02 +5.23045421e-01 +4.14427578e-01 +1.42971790e+00 -5.85081056e-03 +3.94670852e-02 -2.99491137e-01 -3.70173246e-01 +3.30927849e-01 -6.73711717e-01 -3.47708762e-02 -1.28767043e-01 +3.78068574e-02 +4.42980856e-01 -2.78355539e-01 -2.81331390e-01 -6.63140953e-01 +1.13655841e-02 +4.26315367e-02 +1.55120790e-01 -4.53160554e-02 -1.07955495e-02 -8.45344216e-02 -4.99639139e-02 -3.92325222e-01 -1.98039427e-01 +3.92635971e-01 +2.97615796e-01 -2.98995316e-01 -1.56216174e-01 -1.99598223e-01 +1.56375885e-01 -2.40923300e-01 -5.18132150e-01 +9.24678594e-02 -2.27749750e-01 +7.27088809e-01 -2.81318426e-01 +2.76690833e-02 -7.74441481e-01 +1.47315174e-01 -6.50412142e-02 -1.12273180e+00 -1.19637579e-01 -7.76978374e-01 +1.18206609e-02 +3.60905379e-01 -1.20950803e-01 -6.10991456e-02 +3.28952312e-01 -1.68696597e-01 -2.83074766e-01 -8.13869476e-01 -1.95996329e-01 -1.70435214e+00 +1.01958156e-01 +2.60363489e-01 +8.45409632e-02 -3.62366624e-02 +5.96711218e-01 -2.40247026e-01 +5.08774757e-01 +2.46301040e-01 -1.58615097e-01 -3.79729718e-02 -1.61706477e-01 -5.78283310e-01 -2.99019665e-01 +2.14957029e-01 -3.16077381e-01 -4.88351211e-02 +2.79048264e-01 -9.82307643e-02 +1.99118167e-01 -2.78695719e-03 +1.74859628e-01 +1.27376229e-01 -3.23964879e-02 +2.62971669e-01 +2.61596233e-01 +3.18249911e-01 +2.61643142e-01 -4.09639031e-01 +5.40608883e-01 -1.41614723e+00 -1.02636963e-01 +3.07741761e-02 +1.28949448e-01 +3.39735895e-02 +7.06079423e-01 +4.97477621e-01 -6.57164380e-02 +1.28823459e+00 +1.61706924e-01 +1.24983422e-01 -8.53933915e-02 +4.03849125e-01 -3.60672116e-01 +2.12536275e-01 +1.12627648e-01 +5.55697322e-01 +1.32814810e-01 -1.13965839e-01 +2.15580285e-01 +8.96677017e-01 -9.29979861e-01 -1.26843619e+00 +8.25880527e-01 -1.60259113e-01 -1.13760078e+00 -4.90487879e-03 +1.19451299e-01 -1.50095236e+00 -3.91648620e-01 -2.67213911e-01 +4.72751975e-01 +8.66952837e-01 +8.06465819e-02 -4.92578804e-01 -5.45127511e-01 -6.33504450e-01 +5.59777856e-01 +1.29836589e-01 +9.32373181e-02 +6.44668996e-01 -1.30506635e-01 -2.01004595e-01 +4.82686639e-01 +3.97811145e-01 -3.08513343e-01 -4.91988771e-02 +7.90930212e-01 -1.03483945e-01 +5.29890418e-01 +2.64724612e-01 -2.12264940e-01 -4.92011368e-01 +2.57554203e-01 +7.16223493e-02 +6.31930679e-02 +1.28783733e-01 +1.00643732e-01 -2.67964631e-01 -1.21577621e-01 +1.43661290e-01 -1.55096039e-01 +2.07949560e-02 +1.16832328e+00 +1.57132540e-02 -2.95880407e-01 -7.16345981e-02 -4.00500625e-01 -4.30248410e-01 -3.20511997e-01 +3.96045268e-01 -4.19416726e-01 +4.08764891e-02 +8.88267085e-02 -6.27232417e-02 +1.42196462e-01 -4.55975443e-01 -2.36470208e-01 +3.86775471e-02 -5.22654116e-01 -1.11591583e-02 +1.07783880e-02 +1.92195624e-01 -1.14515327e-01 -2.65591979e-01 +1.10694921e+00 -5.69625914e-01 +8.35667998e-02 +3.86732161e-01 +1.23091042e+00 -9.23406184e-02 -6.03141151e-02 +9.50271487e-01 -6.52622283e-02 +2.96297204e-02 -7.42758512e-02 -5.76397181e-01 +2.39456698e-01 +2.51697928e-01 +6.14954591e-01 -9.93202105e-02 +7.67078027e-02 -2.16448843e-01 +6.18169643e-02 -2.90485527e-02 +1.01809800e+00 +1.01669586e+00 +2.33796872e-02 -3.90541181e-02 +3.60167623e-01 +2.21289158e-01 +1.04016399e+00 -2.07962483e-01 -2.64934689e-01 -2.95843780e-01 -3.64739485e-02 +6.98304236e-01 -8.96450952e-02 -1.63129628e-01 -1.73187792e-01 -8.94713402e-01 +1.39988363e+00 +7.09986985e-02 +1.28997564e-02 -2.30501741e-01 -1.64752882e-02 +1.98123753e-02 -1.42438948e-01 +1.88927621e-01 -7.19664544e-02 +3.13241035e-01 +2.81211883e-01 -1.87157035e-01 +1.10027127e-01 -2.64251828e-01 +6.08794868e-01 -1.60522908e-01 -1.15153752e-01 +1.06281072e-01 +3.71491760e-01 -2.56220907e-01 -7.26903975e-01 +9.22822595e-01 -3.55129957e-01 +1.42305449e-01 -6.20576918e-01 -3.01008970e-02 -5.89027286e-01 -2.67747015e-01 +9.62210178e-01 -1.62606628e-03 -1.00136864e+00 -4.36057568e-01 +9.44443762e-01 -9.22396854e-02 +2.58542955e-01 +1.71337235e+00 -7.13735223e-01 +5.87676652e-02 +2.47331917e-01 -3.13436151e-01 -2.41101786e-01 -5.83572030e-01 -7.62547672e-01 -3.06297690e-01 -3.39841634e-01 -2.41062447e-01 -2.04389289e-01 +1.16093857e-02 +9.05956049e-03 +8.69361311e-02 -1.45163655e-01 -4.20100987e-02 +8.53032231e-01 +2.89767561e-03 -1.58095360e+00 -2.02937052e-01 +6.67862236e-01 -7.63624534e-02 -2.07882613e-01 +4.52536374e-01 -3.54289293e-01 -7.73111105e-01 +1.31382138e-01 -2.22594976e-01 +4.11442630e-02 -7.21587241e-02 +1.66987821e-01 -3.28562781e-02 -1.98255166e-01 -3.74497026e-02 +2.61358112e-01 -1.17948182e-01 +2.30028421e-01 +8.69925380e-01 -1.11000121e-01 +4.24060971e-02 +5.75509779e-02 +4.81751263e-01 -5.66456079e-01 +6.31972730e-01 +3.83920744e-02 -1.43420979e-01 -1.66918442e-01 +2.82324255e-01 +1.00967336e+00 -4.12392706e-01 +1.08674258e-01 +2.22576447e-02 +8.34772706e-01 -1.34412885e-01 +1.45126745e-01 +3.57553139e-02 -3.83749574e-01 +4.64944005e-01 +1.17795455e+00 +6.25507832e-01 -3.97245109e-01 -1.16531350e-01 +4.83458579e-01 -8.06243658e-01 +5.01793027e-01 -1.47000945e+00 -3.45071256e-02 +8.36452916e-02 +4.89829183e-02 +7.39748716e-01 -2.09148601e-01 -5.03490210e-01 +2.12545007e-01 -4.61920887e-01 +2.65467912e-01 -5.02610840e-02 -2.20354080e-01 -2.92934239e-01 +1.24614209e-01 -1.51647985e-01 -5.57064176e-01 +2.90791571e-01 +1.21697891e+00 +1.85448840e-01 -3.73831660e-01 +1.17823489e-01 +2.60134965e-01 -3.65491748e-01 -1.03401989e-01 +6.51785851e-01 -2.53747433e-01 -3.90081182e-02 +1.11141935e-01 +4.25816402e-02 -1.07500121e-01 -1.03870019e-01 +2.54562885e-01 +5.16952425e-02 -5.36738820e-02 +1.03157982e-01 -2.25631371e-01 -3.77821743e-01 +2.92140096e-01 +1.36986347e-02 +7.27371871e-01 -1.43688112e-01 -8.35543051e-02 +3.02584916e-01 +1.60598800e-01 -1.95028603e-01 -3.59101817e-02 +4.14534807e-02 -4.03927952e-01 +8.85259688e-01 +2.08684057e-02 -2.50311345e-01 -1.00833654e-01 -1.81222811e-01 +3.58265221e-01 +7.03138947e-01 +9.80475128e-01 -2.09260762e-01 +2.18772963e-01 -2.52708588e-02 +9.63006169e-02 +3.51479769e-01 +3.54056768e-02 +9.87747908e-01 +2.12919027e-01 +2.79270649e-01 +6.49480820e-01 +8.61227214e-01 -8.62621702e-03 +1.49601364e+00 -7.43039608e-01 -2.65243202e-01 +4.35499817e-01 -1.85888335e-02 -2.23663360e-01 +3.22585464e-01 +7.20376223e-02 -1.50841668e-01 +5.10939837e-01 +4.37055111e-01 +5.81031799e-01 +9.68022794e-02 +5.30997217e-01 -5.86124025e-02 +3.06620866e-01 -3.76058489e-01 -8.84673357e-01 +4.48445261e-01 -1.33368659e+00 -1.25415117e-01 -5.28676668e-03 +1.39131593e-02 +1.58681914e-01 -3.87904406e-01 -2.09866539e-01 -1.14745903e+00 -1.89663634e-01 +4.14728224e-02 +3.26045990e-01 +3.67050953e-02 -2.94025359e-03 +1.62303612e-01 -6.11242950e-01 -1.90409467e-01 -3.73461425e-01 +2.27652919e-02 -2.50597566e-01 +2.32242327e-02 -2.87091404e-01 -5.82960844e-02 -4.81403805e-03 -3.15900296e-01 -1.47631228e-01 -5.44348121e-01 -1.01708202e-02 +4.05663133e-01 +2.54031401e-02 +2.05196187e-01 -4.42819715e-01 -3.32685038e-02 -6.40118778e-01 +1.48422634e-02 +1.61950901e-01 +3.67747769e-02 -6.88874125e-01 -1.87123045e-01 +9.88809974e-04 -1.06139886e+00 +4.10783380e-01 -4.21804726e-01 +7.33679859e-03 -4.03215140e-01 +6.55245900e-01 -2.63962770e+00 +8.61699939e-01 +2.85454206e-02 -1.92924235e-02 +2.01270673e-02 +5.02021313e-02 -1.33769542e-01 -4.12939861e-02 +2.89379209e-01 -4.62828696e-01 -1.48147210e-01 -8.76429737e-01 -4.39595461e-01 +4.40840036e-01 +2.27092467e-02 -5.44972360e-01 +1.97767898e-01 +5.05225539e-01 -6.43687189e-01 +1.35374033e+00 +1.73158020e-01 +5.75525165e-02 +3.24723810e-01 -8.25845450e-02 +4.24739867e-01 +4.85821627e-02 +1.41153979e+00 +1.16189532e-01 -8.90225992e-02 +2.48997778e-01 -5.34097910e-01 +2.25151423e-02 -2.12471694e-01 +3.28694582e-01 -4.13111970e-02 +1.86836701e-02 -2.68079787e-02 +1.87676027e-01 -8.08557644e-02 -2.93853462e-01 -1.82904080e-01 -1.08496323e-01 -3.49010110e-01 -1.52706280e-01 +6.84178770e-01 -2.87686825e-01 +1.66819975e-01 -1.79641053e-01 +6.06056511e-01 -1.35685325e+00 -1.31731734e-01 +4.73064393e-01 -2.19875976e-01 -3.71768534e-01 -8.96932304e-01 -8.32867920e-02 +5.73317595e-02 +3.96574914e-01 +2.37488374e-01 -6.76236153e-01 -2.98380286e-01 -1.29386149e-02 -4.31536049e-01 -5.82852244e-01 -5.15632868e-01 -9.02732015e-01 -1.16153345e-01 -2.95528591e-01 -4.31037188e-04 +1.44551089e-02 -5.73474109e-01 -3.09247971e-01 -2.49845713e-01 -9.41871013e-03 -1.41351998e-01 +5.83537482e-02 -5.19962013e-01 -1.06433272e+00 +1.81596130e-01 +1.10484831e-01 -2.06937820e-01 +3.32319587e-01 +2.47749746e-01 +3.77937928e-02 +5.24229184e-02 +1.82656467e-01 +9.95016005e-03 -5.14895469e-02 +5.94311692e-02 +2.42851228e-01 -1.30204946e-01 +3.02305877e-01 -3.68966609e-01 +7.46705532e-01 -1.00097775e+00 -7.30232522e-02 +3.61417085e-02 +2.20317855e-01 +1.35976762e-01 -5.01582623e-02 -1.06672347e+00 -5.60272813e-01 +4.14045483e-01 -3.18160206e-01 +2.90577143e-01 -9.70328748e-02 +3.82164381e-02 -2.77144134e-01 +2.87685305e-01 -3.99511121e-02 -6.00558996e-01 +2.71376580e-01 +9.32874009e-02 +8.22003663e-01 -2.87161767e-01 -2.57317245e-01 +8.97585571e-01 +3.33824724e-01 +9.41327393e-01 +1.59618288e-01 -2.27171019e-01 +3.92986715e-01 -3.76207203e-01 -1.80455697e+00 -9.99373049e-02 +8.39364886e-01 +5.78861237e-01 +5.04377425e-01 +1.47328424e+00 -1.55621588e-01 +4.17169869e-01 -3.47051829e-01 -2.18205467e-01 -6.15413308e-01 +4.40317914e-02 -4.64885890e-01 -3.18905443e-01 +9.45890173e-02 +2.17474148e-01 +1.71867937e-01 -1.66006655e-01 -1.23191051e-01 -5.16064346e-01 +9.95157585e-02 +5.46164857e-03 +4.06151563e-02 -1.87860593e-01 -1.75872833e-01 -5.90053871e-02 -1.29994497e-01 +2.83982661e-02 -1.02052942e-01 -7.37235367e-01 -7.72997439e-02 -7.25232288e-02 -1.41659692e-01 +2.25735709e-01 -2.65939295e-01 +4.49356079e-01 +1.23142883e-01 -4.48488332e-02 -4.53240067e-01 -1.20323949e-01 +9.06748772e-02 +2.00944409e-01 -7.72806779e-02 +3.34948540e-01 -3.28917861e-01 +2.14205272e-02 +9.37066376e-02 +1.21670067e-01 +4.72978540e-02 +7.78881371e-01 -9.67866659e-01 -2.10560951e-02 +1.57496393e-01 +1.67579040e-01 -3.74616921e-01 -6.05360329e-01 -5.93564332e-01 +5.02847016e-01 +1.40259576e+00 -5.40491164e-01 -1.99044809e-01 -1.42249838e-01 +8.48457932e-01 -5.35443947e-02 -9.55161095e-01 -7.22105205e-01 +4.50525939e-01 +3.17899495e-01 -5.54634273e-01 -3.54328066e-01 -6.62447393e-01 -3.36872250e-01 -4.24037933e-01 -6.88410044e-01 +2.77035292e-02 -3.58070016e-01 -6.19788393e-02 -8.23631361e-02 -2.93650422e-02 -4.04796563e-02 -5.12081444e-01 +3.68957222e-02 -7.93860197e-01 -2.86593288e-01 +3.94158155e-01 +2.74336576e-01 -4.60306674e-01 -5.38809001e-01 -1.31016761e-01 +5.30080753e-04 +5.54094277e-02 +7.00724870e-03 +6.82766885e-02 -1.37245297e-01 +8.77814516e-02 +1.34299800e-01 +5.89772128e-02 -8.09098408e-02 +6.35242522e-01 -3.14336866e-01 -1.77757800e-01 +6.62673712e-02 +1.43773884e-01 -3.74446064e-01 -4.55805399e-02 +2.97406554e-01 +6.09845459e-01 -4.12954956e-01 +6.16162904e-02 -5.66896759e-02 +2.44273975e-01 +2.47129411e-01 +5.39337993e-01 +6.40303850e-01 +7.77757689e-02 -5.31165123e-01 -7.11567625e-02 -5.28575361e-01 -3.80809046e-02 -1.81018606e-01 +3.42495680e-01 -1.02549171e+00 -5.06733596e-01 -8.77301931e-01 +2.25879744e-01 -3.64616275e-01 +1.83319405e-01 +4.31656361e-01 -1.33723140e+00 +2.25113347e-01 -1.93194345e-01 +3.34843040e-01 +1.01028688e-01 -1.71546772e-01 -9.39678550e-02 +8.25105086e-02 +3.05018783e-01 +2.93412115e-02 -4.17912573e-01 -2.17181206e-01 +2.71244091e-04 -3.17043006e-01 +3.68103743e-01 +8.68817642e-02 +5.21904349e-01 +2.66573336e-02 -1.10231674e+00 -2.51115978e-01 +7.44133770e-01 +1.12709694e-01 -8.49686205e-01 +7.54633367e-01 +8.89131725e-02 +9.05145556e-02 +2.24129930e-01 -3.03477764e-01 -4.72513065e-02 -6.54169619e-02 -4.55337763e-02 -1.48039848e-01 -1.02374732e-01 +1.65346131e-01 -7.36307576e-02 +2.06388563e-01 -7.50115514e-02 +4.84406911e-02 +2.55662501e-02 +3.11254233e-01 -4.27755937e-02 -2.17185020e-01 +2.24911377e-01 +9.81594250e-02 +4.56583127e-02 -5.08826315e-01 +6.88726977e-02 -8.08373280e-03 +6.71841741e-01 +1.22425938e+00 +5.14396764e-02 -1.51048936e-02 -1.22572578e-01 -4.75802392e-01 +4.58005875e-01 -6.88003480e-01 +3.09803039e-01 -2.35072687e-01 -3.38773876e-01 -7.35021710e-01 +1.67286074e+00 +9.30374786e-02 +3.34409148e-01 +4.89782095e-02 -2.18269968e+00 -2.37471566e-01 +5.18247858e-02 +2.54497081e-01 +9.38161552e-01 -5.15643954e-02 -1.36424646e-01 +2.32980445e-01 -1.06024526e-01 +6.15634136e-02 -3.54596883e-01 -4.25649524e-01 +1.09080660e+00 +2.99492721e-02 -8.07273313e-02 -3.70372683e-02 +2.02488557e-01 +4.45452005e-01 -4.72942501e-01 -2.84157097e-01 +5.40103056e-02 +2.38283545e-01 -9.93121490e-02 +1.10109377e+00 -1.42850563e-01 +1.35634869e-01 +1.37264237e-01 -8.80518973e-01 +7.76446760e-02 -6.82128370e-01 +1.39185265e-01 -1.78811640e-01 +8.95887464e-02 +4.73815426e-02 -3.45949113e-01 -4.19775508e-02 -1.39251217e-01 +9.93660167e-02 -4.57877517e-02 +6.27571642e-01 -2.57447392e-01 -2.86748391e-02 -5.16556978e-01 -1.47730425e-01 +5.53632557e-01 -3.85759734e-02 +3.47654194e-01 -4.41106200e-01 +6.04985774e-01 +1.54998028e+00 -8.04923058e-01 -3.33636068e-02 -6.97468296e-02 +2.60297395e-02 -8.98162067e-01 -1.65113062e-01 -4.00799930e-01 -1.41664714e-01 +7.11451292e-01 -3.01993992e-02 -5.66780806e-01 +3.03716034e-01 +4.87637043e-01 -6.72214329e-02 -1.17375724e-01 -7.68054247e-01 -1.83479384e-01 +1.15826197e-01 -6.77261889e-01 -3.12879026e-01 +5.69289997e-02 +5.20522892e-01 -9.61177275e-02 -4.14671630e-01 +7.61608899e-01 -6.13543212e-01 +3.14419657e-01 +1.60549685e-01 -6.58420846e-02 +1.90121248e-01 -5.51331304e-02 +4.81674999e-01 -3.71468246e-01 -4.74083163e-02 -2.96605051e-01 -2.35293701e-01 -4.31305468e-01 +2.20019504e-01 +7.43439496e-02 -6.40251674e-03 -1.26715610e-02 +4.30249304e-01 -1.45350695e-01 +2.87357658e-01 +2.23714352e-01 +3.18880439e-01 +1.39484266e-02 +5.05082346e-02 -1.30088538e-01 -1.42957821e-01 -1.18445799e-01 -1.74682587e-01 -2.09289685e-01 -9.04643349e-03 +2.48837426e-01 -5.16328692e-01 -2.63380170e-01 -1.45106137e-01 -1.94111198e-01 +1.76393822e-01 -1.53822318e-01 +1.56851739e-01 -7.17479214e-02 -3.60759377e-01 +1.51423171e-01 -7.53471792e-01 +1.49260461e-01 -2.08348110e-01 +2.88636714e-01 +5.69743991e-01 -8.50366235e-01 +8.84227693e-01 -3.75228643e-01 +3.31630558e-01 -1.05148661e+00 -7.55088866e-01 +9.19085890e-02 -1.48307037e+00 -1.34831071e+00 -6.90532386e-01 +1.46768972e-01 -4.00015637e-02 +1.05417207e-01 +4.62150544e-01 -5.87313473e-01 -7.18399763e-01 +2.24435870e-02 -6.61885738e-02 +3.14333150e-03 +1.75623015e-01 -1.45346999e+00 -6.65709257e-01 +5.63528299e-01 +9.89900604e-02 -2.50217229e-01 -9.80106965e-02 +2.70963967e-01 -1.78239986e-01 +1.24787521e+00 +2.09009405e-02 -1.15750328e-01 -6.95668876e-01 +9.91454124e-02 +1.01664551e-01 +9.05565470e-02 +4.05081362e-01 -1.39891541e+00 -2.38928944e-01 -1.37336075e-01 +7.49799758e-02 -1.81706637e-01 +7.85903558e-02 +6.96568251e-01 +3.00868779e-01 -8.31608940e-03 -2.40563750e-01 -9.74188820e-02 -2.73986440e-02 +2.94066668e-01 +7.99344540e-01 +5.76512814e-02 +7.73160338e-01 +4.21061367e-01 +1.22066429e-02 +3.85816656e-02 +7.04597771e-01 +1.58083856e-01 -5.93370974e-01 -1.11872323e-01 +7.18710721e-02 +1.93270490e-01 -8.94168392e-02 +4.45304483e-01 +5.26553750e-01 -1.13866472e+00 +1.74748013e-03 +5.66603959e-01 -4.66554999e-01 -7.98886538e-01 -2.17168093e-01 -5.56040943e-01 -1.04911792e+00 +1.27798009e+00 -4.68469411e-02 -1.60773158e-01 +3.51896882e-01 -8.63082647e-01 -4.03017402e-01 +1.22483218e+00 -4.66985703e-01 +4.61645007e-01 -8.34056525e-04 +1.89893767e-02 +1.11769235e+00 +2.29720414e-01 +2.24690735e-01 +2.51856536e-01 +6.19987905e-01 -4.50789124e-01 +1.72030568e-01 +1.57492387e+00 -1.68886818e-02 +2.69486248e-01 +3.79221231e-01 +3.82975563e-02 -7.74753928e-01 +3.65837336e-01 +1.18087260e-02 -5.54813780e-02 +2.27649868e-01 +1.37966439e-01 +7.14722425e-02 -7.45421574e-02 +2.35418931e-01 +5.94345061e-03 +6.08240739e-02 -7.36715972e-01 +4.26117122e-01 -1.49862096e-01 +1.69405520e-01 -1.79283053e-01 -6.81983382e-02 -8.65904465e-02 +2.41267115e-01 -1.77249908e-01 -3.28649580e-01 +4.05953862e-02 -8.81452020e-03 +2.79802889e-01 -4.69247103e-01 -4.06876206e-01 +8.96743298e-01 -6.13956630e-01 +4.95189102e-03 -1.47475556e-01 +2.77106196e-01 -4.98299897e-01 -4.65408713e-01 +1.25231099e+00 -1.46800935e-01 +1.81428835e-01 +2.75615305e-01 +2.71168041e+00 +2.40895182e-01 -1.24558672e-01 +2.25058889e+00 -2.64016360e-01 +4.50165510e-01 +1.10711403e-01 -7.45065883e-02 +2.23395601e-01 -7.63281621e-03 +2.34941110e-01 +1.05950452e-01 -1.36824682e-01 -3.17990422e-01 -3.06065679e-01 +1.39588520e-01 +6.86867237e-01 +8.64677787e-01 -1.50719925e-03 +2.22216204e-01 +4.51780260e-01 -4.42737155e-02 -4.64957923e-01 -2.74819195e-01 -2.65110523e-01 -4.44718510e-01 -2.61660099e-01 +4.59013462e-01 -2.51989394e-01 -2.73714364e-01 +1.89093873e-02 -5.20376444e-01 +2.60005772e-01 +3.51393521e-02 -1.73335115e-03 +1.39780762e-02 -5.81540167e-02 +1.97257996e-05 -5.32563865e-01 -5.44711165e-02 +4.21229471e-03 +2.10804200e+00 +1.09724300e-02 +4.84310947e-02 +6.01499617e-01 -5.12537777e-01 +2.84955036e-02 +5.34283280e-01 -1.88850418e-01 -2.38819659e-01 -3.04501534e-01 +1.71447814e-01 -3.69012244e-02 +4.64320064e-01 +1.09935831e-02 -8.25053275e-01 +6.67013377e-02 -3.22145909e-01 +4.49175894e-01 +4.44319308e-01 +1.09951222e+00 +1.42945260e-01 -6.13518119e-01 +4.63277623e-02 +4.31647629e-01 +4.30181064e-02 +6.65785134e-01 +3.33833307e-01 -7.50914156e-01 +1.52007714e-01 -4.95642424e-03 -2.59266198e-01 -3.98125015e-02 +2.25763392e+00 -1.72878039e+00 +9.71251726e-02 -5.82581162e-01 +1.49427513e-02 +5.65791093e-02 -4.69636023e-01 -3.04407001e-01 -2.76414126e-01 +3.21551085e-01 -8.43585372e-01 +5.49962521e-01 +2.80172318e-01 -5.08854926e-01 +1.80827886e-01 +8.51153016e-01 -1.02476850e-01 -2.42279232e-01 +2.61787057e-01 -6.67765141e-01 -1.13717644e-02 +2.88442941e-03 -4.56790589e-02 -5.27448431e-02 -3.25938284e-01 -4.34396528e-02 -6.81823611e-01 -3.60842012e-02 +7.05964863e-02 +1.70732892e+00 +4.88184858e-04 +7.00385869e-02 -8.63706321e-02 -3.53697538e-01 -1.49815440e-01 +5.48474006e-02 +8.07024419e-01 +1.37150645e-01 +1.61997104e+00 +1.31756306e-01 -1.46167234e-01 +1.11528620e-01 +3.48656923e-01 +7.74609625e-01 -6.65252745e-01 -4.08448726e-01 +9.75143984e-02 +2.36424163e-01 -2.21717492e-01 +6.36849165e-01 +9.30958986e-02 -6.35328054e-01 -7.03857183e-01 +1.24646418e-01 -6.47788405e-01 -1.43878877e-01 -5.54623246e-01 +7.29148686e-01 -1.53689325e+00 -8.83385479e-01 -5.99622667e-01 -1.74558163e-01 +6.07848585e-01 +1.74754322e+00 -4.96330827e-01 -2.01484584e-03 -6.30139291e-01 +2.29773939e-01 -1.76551387e-01 -4.02151644e-01 +1.48280770e-01 +5.00585139e-01 -7.94042717e-04 -2.39952549e-01 +3.97845596e-01 -2.07710236e-01 +2.11514384e-01 +5.84476173e-01 -5.63104749e-02 +1.63645461e-01 +5.89584112e-01 -9.00023431e-02 -5.33474088e-01 +2.28329882e-01 +1.84018135e-01 +1.71718523e-01 +9.03692190e-03 +4.11879197e-02 -1.12388119e-01 +1.23421222e-01 +1.24453917e-01 +2.84280092e-01 +6.47505000e-03 +2.86859691e-01 +1.54652193e-01 -5.11607707e-01 -1.81912065e-01 -1.49542233e-02 -9.19346735e-02 -4.95947033e-01 -8.19869041e-01 -3.73263836e-01 +4.25168008e-01 -4.55469012e-01 +1.61374696e-02 -1.15404733e-01 -1.43059552e-01 -2.91307598e-01 +2.70333230e-01 -1.79471765e-02 +2.94897705e-01 +4.94751930e-02 +1.35415554e-01 -5.17995477e-01 -9.54820439e-02 -6.57797456e-01 +1.03395903e+00 +4.62094933e-01 +6.38525844e-01 -1.10564578e+00 +4.61564101e-02 +7.37171173e-02 +3.40789813e-03 +1.66007981e-01 -2.96125084e-01 +9.20797512e-02 -2.27872595e-01 -5.45983195e-01 -2.96783566e-01 -4.19003159e-01 +3.55314434e-01 -1.62913883e-03 +2.17812732e-01 +4.72203910e-01 -3.46864074e-01 -3.01019162e-01 -7.71269739e-01 -2.01138183e-01 -1.28780022e-01 -6.95218980e-01 -7.44336545e-01 -2.61942834e-01 +1.00731160e-02 -5.83076775e-01 +1.28242944e-03 +3.86119574e-01 -4.43175912e-01 -2.38506749e-01 +1.74075086e-02 -6.37214482e-02 +5.94971657e-01 -2.31141582e-01 -9.91173908e-02 -1.05545772e-02 +8.27885047e-02 +3.15770158e-03 -1.03444047e-01 +5.68334818e-01 -6.43558681e-01 +1.85880318e-01 -4.77081865e-01 +4.37330268e-02 -1.16499379e-01 +3.69992465e-01 -1.72832623e-01 +1.19246524e-02 -1.16302967e-02 -1.45081580e-01 +6.83979224e-03 +3.99874628e-01 -4.39800560e-01 -5.16464710e-01 -5.36877632e-01 +1.12797864e-01 -1.37957454e-01 +1.96243953e-02 +3.93370420e-01 -1.82166904e-01 -4.62573282e-02 -2.15165401e+00 +2.65091956e-01 +1.48337975e-01 -8.52374852e-01 -5.74591756e-01 +1.55925378e-01 -5.19221365e-01 -2.05122685e+00 +5.90490177e-02 -6.25084937e-02 +1.03664473e-01 -4.05274689e-01 +3.67324948e-01 -5.50509930e-01 +2.55098432e-01 -2.45114774e-01 -5.18648326e-01 +2.10736424e-01 -1.45789161e-01 +2.03512773e-01 -4.75147516e-01 +1.86226387e-02 -1.84635326e-01 -1.42508551e-01 +1.25342652e-01 -3.19123954e-01 -8.32554221e-01 +1.04596548e-01 +4.37447339e-01 +2.67561615e-01 +2.33924445e-02 -8.28169763e-01 +2.63368416e+00 +1.33296013e-01 +7.90246353e-02 +3.99430454e-01 -1.23397315e+00 +7.81445727e-02 +6.05544336e-02 +1.18631291e+00 +2.52279520e-01 +5.46235591e-02 -8.06610882e-02 -9.93706658e-02 +4.71129715e-02 -1.94096342e-01 -8.94499645e-02 -1.81015134e-01 -1.06584810e-01 +1.35079414e-01 -5.31553984e-01 +3.14340979e-01 -1.55061871e-01 -2.69100130e-01 +1.80337682e-01 -1.07663423e-01 +9.52116966e-01 -3.84025335e-01 -3.98174942e-01 -1.64150357e-01 +2.46523499e-01 +1.99852943e-01 -3.82759929e-01 -1.70080751e-01 -8.72622151e-03 +5.26049912e-01 +3.46866041e-01 +1.89104393e-01 -3.96390349e-01 -5.97926915e-01 +7.01712549e-01 -3.76882583e-01 -6.06888831e-01 -1.45698869e+00 -3.54444027e-01 +7.46905506e-01 +1.70552862e+00 -2.93225467e-01 -2.01431334e-01 -6.90332592e-01 +4.93260682e-01 -3.79470587e-01 -7.35674575e-02 -1.09708823e-01 +3.94892067e-01 -8.15601498e-02 +7.22320229e-02 +1.91787884e-01 -6.75525427e-01 +2.26617068e-01 +6.45109534e-01 -4.13953885e-02 -2.69872546e-01 +1.58055201e-01 -7.53454193e-02 -3.89314778e-02 +1.48204461e-01 +3.28310162e-01 +1.49789117e-02 -4.32582162e-02 -3.28598842e-02 -1.79397166e-02 +5.57612032e-02 +3.65451835e-02 +4.91612464e-01 -4.33538817e-02 +1.86617419e-01 -9.75074619e-02 -3.57435495e-01 -4.71416473e-01 +1.93007648e-01 -4.53928346e-03 
#Parameter# /vanilla-lstm-builder_1/_1 {64,16} 16385 ZERO_GRAD
-1.01028550e+00 +1.12829578e+00 +9.65288505e-02 -6.62498772e-02 -2.99566031e+00 +7.73132920e-01 +7.39612341e-01 -8.92886162e-01 -6.91848576e-01 -6.38173640e-01 +1.62825108e+00 +1.28777653e-01 -9.02079120e-02 -6.14580631e-01 +9.34043646e-01 +3.25031966e-01 +4.06362675e-02 +9.65606213e-01 -2.11358845e-01 +5.01253121e-02 -3.69708650e-02 +5.20647407e-01 +1.66818351e-01 +2.76577771e-01 +7.76204169e-02 +1.79445684e-01 +4.44181740e-01 -3.98280472e-01 +7.72410274e-01 +2.19440069e-02 +6.38640046e-01 +1.39871538e-01 -6.69962168e-02 +7.15829432e-01 -1.16878581e+00 +5.38082361e-01 -6.39759898e-01 -1.14906740e+00 +3.26636583e-01 -2.26102605e-01 -8.68770853e-02 -1.20705605e+00 +1.12047577e+00 -3.33832979e-01 -5.61153069e-02 -9.07793880e-01 +1.73949933e+00 +2.24935934e-01 -4.01681773e-02 -1.42633274e-01 +1.97136402e-02 -3.82126033e-01 -1.82242274e-01 +6.27747476e-01 -4.58042502e-01 -6.30077720e-02 +2.74244905e-01 +8.13792273e-02 -3.01194713e-02 +3.22145224e-01 -4.91679609e-01 -5.04938424e-01 +5.84337533e-01 +1.11793852e+00 +1.68905303e-01 +3.49763304e-01 -5.77345431e-01 +1.03934717e+00 -8.08401555e-02 -1.52077675e+00 +3.58545899e-01 -1.81231230e-01 +1.84789872e+00 +2.12761950e+00 -2.21652055e+00 -9.23040330e-01 -4.20286953e-02 -6.67682052e-01 +1.45572591e+00 +5.09891570e-01 +4.32199597e-01 +2.26231885e+00 -3.87350500e-01 -2.06353635e-01 -3.92291307e-01 +6.49979770e-01 +2.25152224e-01 +1.35131761e-01 +3.58976901e-01 -3.43166627e-02 -6.97336435e-01 -4.28148746e-01 +2.68918014e+00 -2.00228989e-01 +8.50559473e-01 +1.25968730e+00 +2.05022120e+00 +2.04972887e+00 -7.21822619e-01 +1.18797994e+00 +4.76082534e-01 -7.32358456e-01 +2.21723486e-02 +1.32043922e+00 -9.54708695e-01 -1.35692835e+00 +4.35775444e-02 -5.40617824e-01 +5.67669570e-01 -7.89274871e-01 -1.89143658e+00 +5.28026402e-01 +3.30937654e-01 +1.65669525e+00 +1.03191245e+00 +1.61026374e-01 -1.89541772e-01 +1.11437690e+00 +7.53569305e-01 +1.62014812e-01 +1.55379367e+00 -7.62374461e-01 +1.02805942e-01 -3.09849996e-02 -1.26459086e+00 +4.82925028e-01 -1.03253879e-01 +1.93870112e-01 +1.10876155e+00 -1.26717687e+00 -6.20289028e-01 +1.27469420e+00 +1.47859240e+00 -1.06597316e+00 -1.80009294e+00 +4.25669253e-01 +1.97456992e+00 +1.17077672e+00 -6.75298631e-01 -1.06050217e+00 -4.28677619e-01 +3.57891060e-02 -1.34766245e+00 -7.95446515e-01 +1.81779817e-01 +1.15149605e+00 +2.38545728e+00 +4.48354967e-02 +2.77820617e-01 +1.94846284e+00 +1.82135928e+00 +5.55359185e-01 +1.43074825e-01 -4.48179692e-01 +3.81652653e-01 +1.18846714e+00 -4.19868141e-01 +1.54195026e-01 -9.16395366e-01 -1.34088229e-02 +1.84162214e-01 -4.35115770e-02 +1.29618585e+00 -9.24787521e-01 -6.44251168e-01 +3.77982169e-01 +2.52139401e+00 -8.21680963e-01 -5.13512790e-01 +1.11280262e+00 +1.24261260e+00 +1.33879089e+00 -1.24506605e+00 -1.91725600e+00 +3.98458950e-02 +1.39075816e-01 +3.77016574e-01 +1.07834780e+00 +3.72146934e-01 +5.35740495e-01 +4.79940474e-02 -1.36503220e-01 +4.41709429e-01 -5.75611144e-02 -2.47491434e-01 -5.71058095e-01 +1.14529169e+00 -1.21234071e+00 -3.10669422e-01 -3.40216577e-01 -1.12228954e+00 +5.36061049e-01 -7.68581629e-02 +2.34879360e-01 -4.07922626e-01 -1.55683625e+00 -3.40699494e-01 +6.56811535e-01 -4.11504477e-01 +4.19203311e-01 +2.24558544e+00 +1.17700768e+00 +6.96627021e-01 +2.42822260e-01 +4.94768113e-01 -1.88488090e+00 -8.49306762e-01 +7.02144742e-01 +2.94533610e-01 +3.88224036e-01 +9.83046651e-01 +8.38001013e-01 -1.13624251e+00 +1.74771011e+00 +7.20099807e-01 +2.26247385e-01 +7.12944865e-01 -1.27743825e-01 +6.03398085e-01 +1.53942192e+00 -5.24919093e-01 +4.48949009e-01 +1.17265439e+00 +7.86301076e-01 -1.09054908e-01 -4.56461087e-02 -4.63041306e-01 -2.08469200e+00 -8.32424015e-02 +1.00865757e+00 +9.57459211e-01 -6.28912628e-01 +2.82846868e-01 +1.77127278e+00 -4.04362559e-01 -9.34964597e-01 -8.15310240e-01 -7.02091932e-01 -2.53612328e+00 -2.35336468e-01 +2.20195502e-01 +4.69029665e-01 -5.23301423e-01 -9.81459796e-01 +1.74237460e-01 +7.74323523e-01 +3.96800458e-01 -1.43213630e-01 -3.24752033e-01 +8.85421991e-01 -5.45982182e-01 -6.37348443e-02 -1.04747593e+00 -3.12822998e-01 +1.18959792e-01 -5.54706275e-01 +1.02496088e+00 -4.44051251e-02 -2.38282934e-01 +1.17268813e+00 +2.79417664e-01 -1.73043656e+00 -5.96147597e-01 +1.32932317e+00 +7.59887815e-01 -1.02979504e-01 -7.17836976e-01 -6.69568703e-02 -2.21933335e-01 -1.62361574e+00 +9.61275041e-01 -7.74934471e-01 -2.93437332e-01 -3.79006624e-01 -5.78304231e-01 -5.44011414e-01 -3.63933176e-01 -1.30860817e+00 -1.24292158e-01 +3.92224133e-01 -1.00804396e-01 -3.43495488e-01 -4.14947122e-01 -5.39508879e-01 +7.08707571e-01 -1.20141709e+00 -9.85698938e-01 -2.04547262e+00 +8.31867576e-01 +1.54208195e+00 +6.30191565e-01 -1.70896068e-01 +8.16232443e-01 +2.23124996e-01 +1.64530873e-01 +1.81642497e+00 -5.50819755e-01 +1.16512811e+00 +1.41793573e+00 +3.76471914e-02 +2.28114977e-01 +5.84454834e-01 -7.67043471e-01 -8.46865028e-02 -7.55253285e-02 +8.03843379e-01 +4.15766120e-01 +6.37074634e-02 -7.92124122e-02 +1.24759007e+00 +1.29074967e+00 -1.77990869e-01 +1.44057167e+00 -3.89789104e-01 -1.41466619e-03 -5.89017570e-01 -8.61089468e-01 -4.26532716e-01 -4.17435467e-01 -1.25338387e+00 -7.63982683e-02 +1.69792429e-01 +8.05213809e-01 -1.15199363e+00 +6.46289527e-01 +6.96170986e-01 -8.37179899e-01 +2.64805764e-01 +5.16704082e-01 -1.24944210e+00 +8.27663839e-01 +1.71426868e+00 -1.37458697e-01 -3.14950824e-01 -2.74845988e-01 -7.14991510e-01 +2.08887048e-02 +1.84567845e+00 -1.07873106e+00 -3.80558372e-01 -1.20703650e+00 -1.05865300e-01 +9.14244875e-02 -9.94032323e-01 +2.09086823e+00 -2.30278745e-01 -1.42266059e+00 +9.02473330e-01 +1.16888666e+00 -7.15852454e-02 -1.07372284e+00 +4.81936336e-01 +1.27451789e+00 -6.16816700e-01 -1.32205296e+00 +1.39868808e+00 +1.58941007e+00 +3.19416881e-01 -1.73125780e+00 +6.03831112e-01 -2.77568197e+00 +2.41894662e-01 +5.34257591e-01 -1.74431562e+00 +3.64671946e-01 -1.96455300e+00 +6.90620005e-01 +1.59619176e+00 +2.23150179e-02 -1.76704362e-01 -2.85614669e-01 -2.42367700e-01 -1.58271044e-02 +2.17667177e-01 -6.03421450e-01 -5.98173030e-02 -6.47793770e-01 +7.89283037e-01 -1.36985838e+00 -2.23526821e-01 +5.61516762e-01 -5.74928701e-01 -7.28182435e-01 -1.35816097e-01 +1.33071411e+00 +5.71952462e-01 -1.04410422e+00 +9.99439478e-01 +7.48348832e-01 -1.21823692e+00 -1.04999328e+00 +5.69321811e-01 -5.43515444e-01 -2.16551170e-01 +1.01707548e-01 -1.91897050e-01 -9.79338646e-01 +7.11785816e-03 +1.96943462e+00 +5.90035260e-01 -1.03753440e-01 +3.57791543e-01 -2.40166143e-01 +1.28053486e-01 -5.31216741e-01 +5.16800046e-01 +9.58001494e-01 -2.44637653e-01 +3.43768388e-01 -6.91080511e-01 -1.43470800e+00 +4.64154661e-01 +9.25316513e-01 -2.36605741e-02 +1.47424114e+00 +3.01099968e+00 +3.10450172e+00 -1.36126235e-01 +3.84078562e-01 -6.93866432e-01 +2.83700252e+00 +5.37888288e-01 +9.30071652e-01 +4.00685358e+00 -1.76728025e-01 -2.04767361e-01 +8.38735938e-01 +4.58019316e-01 +4.62989599e-01 -3.47629607e-01 -1.21076608e+00 +4.62948352e-01 +1.21428743e-01 +2.25176287e+00 +4.49540257e-01 -2.05390289e-01 -3.66565943e-01 +1.09693241e+00 -5.44712782e-01 +1.46130428e-01 +8.43584001e-01 -3.76637608e-01 -2.20210648e+00 +6.43666685e-01 -8.79931450e-01 -2.55791038e-01 -2.16120228e-01 -3.75530094e-01 -1.53144026e+00 +2.16511041e-01 +2.80924022e-01 -8.28541875e-01 -2.27028513e+00 +1.34083164e+00 +3.95456143e-02 -8.80117893e-01 +3.82066876e-01 -1.60668314e-01 +8.74888957e-01 +5.86328745e-01 +5.17627537e-01 -1.32002652e-01 +2.38045543e-01 -3.13089758e-01 -1.01173654e-01 +8.83344859e-02 +3.84505779e-01 +3.92171204e-01 +1.06005691e-01 +3.38241160e-01 +1.17018986e+00 +5.85253000e-01 +9.69454572e-02 +9.32346106e-01 +3.81695658e-01 +3.13355982e-01 -4.36762065e-01 +2.99272649e-02 +6.87906861e-01 -3.31097156e-01 -8.32667947e-01 +2.05745199e-03 -6.66162148e-02 +2.38654181e-01 -8.28988850e-01 -4.08907533e-02 +6.47604227e-01 -6.25152469e-01 +1.09636083e-01 -7.82882392e-01 -5.76032579e-01 -1.08603823e+00 +5.14414720e-02 -7.34860376e-02 +7.31025562e-02 -9.46637869e-01 -2.80073375e-01 -9.27742779e-01 -3.44230562e-01 -6.91407382e-01 +5.19420385e-01 +2.36102462e-01 -2.78731575e-03 -4.16072756e-01 -4.75897670e-01 +2.48779312e-01 -7.75065243e-01 +3.37677121e-01 +1.07413030e+00 +5.60483634e-01 -1.94494184e-02 +1.92689240e-01 -1.27874541e+00 -4.68465425e-02 +1.49641469e-01 -4.70830411e-01 -1.21480620e+00 -3.20103049e-01 -5.29526889e-01 -2.24496812e-01 +4.73734647e-01 +7.57255375e-01 +4.46196735e-01 +3.21075767e-01 -1.79636085e+00 +3.12667847e+00 -1.94620103e-01 -1.01221800e+00 -2.37783313e-01 +7.78847754e-01 +3.08233649e-01 -1.05484739e-01 -1.34184897e+00 +2.23281813e+00 +3.08335256e-02 -4.54941064e-01 +1.27881277e+00 +4.92205918e-01 +1.34659219e+00 +8.35597575e-01 -3.38161848e-02 -6.58635378e-01 -4.02063668e-01 +9.73432004e-01 +8.33210886e-01 -4.44845885e-01 -1.36957848e+00 -2.92106897e-01 +1.43202734e+00 -2.10570693e-01 -1.42913926e+00 +2.19964162e-01 -1.36381507e+00 -1.43520200e+00 -7.01200888e-02 -2.22024846e+00 +7.01166749e-01 -2.77966404e+00 -1.28379655e+00 -4.64934766e-01 +1.71961375e-02 +2.43646502e-01 -7.12498546e-01 -2.05998063e-01 +3.55145812e-01 +5.81059754e-01 -1.20696795e+00 +1.95998959e-02 -1.29859889e+00 +1.46626174e+00 -8.55158329e-01 +1.51270986e-01 -5.25218725e-01 -4.48029518e-01 +2.06735849e+00 -3.01866740e-01 +7.10820854e-01 +1.41249523e-01 -2.35868767e-02 +5.40018737e-01 +3.58881116e-01 +1.17364287e+00 +9.98956382e-01 +1.11639917e+00 -5.55006564e-02 +1.67495656e+00 -1.47076046e+00 +7.43791640e-01 +1.80661213e+00 -4.00607872e+00 +1.08120143e+00 -5.02755046e-01 -1.25993878e-01 +7.72941113e-01 -3.48181069e-01 +9.45623338e-01 +1.85129032e-01 -1.42330074e+00 -1.02785611e+00 +1.80040136e-01 -9.08051193e-01 -5.14277875e-01 +7.99873054e-01 -1.00386000e+00 +1.69539787e-02 +1.49769291e-01 +7.14601636e-01 -1.84443617e+00 -9.85241681e-02 +3.60244513e-01 +1.01282096e+00 +3.94212544e-01 -1.00216174e+00 +7.38248229e-01 -6.45411611e-01 -1.72337627e+00 -4.31731224e-01 +2.37115696e-01 -1.26254070e+00 -1.46566704e-01 -3.11677665e-01 -1.80793568e-01 +7.55738616e-01 +7.56376013e-02 +3.27847779e-01 +1.41999245e-01 +5.49694598e-01 +8.66845846e-01 +1.80549189e-01 +2.10653797e-01 +1.79462683e+00 +7.00236186e-02 +2.26666868e-01 -1.04968202e+00 +2.77692615e-03 -3.19468409e-01 -4.94201720e-01 +1.78472623e-01 -8.04915726e-01 +1.45212397e-01 -6.88526034e-02 -9.45303917e-01 -7.09446132e-01 -3.65638137e-01 +5.02545953e-01 +2.32443772e-02 -9.17620778e-01 +7.00022757e-01 +1.81104684e+00 +2.35858846e+00 -2.18696520e-02 -2.36023927e+00 -1.10689998e+00 -2.57894099e-01 +4.50287722e-02 +6.31179392e-01 +6.63849711e-01 +5.89041293e-01 +6.45405799e-02 +2.18679452e+00 +2.08079815e-01 +1.34140694e+00 -2.22771192e+00 -5.48588753e-01 -2.01256967e+00 -1.36155680e-01 +2.53744411e+00 -1.77817032e-01 +1.76239562e+00 +2.29087472e+00 +3.50488216e-01 +1.04934084e+00 -1.42485976e+00 +6.78550243e-01 -4.52692658e-01 +5.00097394e-01 -2.37445176e-01 +1.00071049e+00 -7.44663298e-01 -5.11189401e-01 -6.55607402e-01 -1.78666508e+00 -3.14293206e-01 -2.46603560e+00 -2.32029036e-01 -7.63012826e-01 +5.36340833e-01 +8.74745369e-01 +2.37243026e-01 -6.94863964e-03 -5.39737403e-01 -8.97871494e-01 -8.81217718e-02 -2.69716173e-01 +9.23955217e-02 -1.17650151e-01 -1.36191630e+00 +4.17573482e-01 -9.44145083e-01 +1.08652687e+00 +1.13653000e-02 -2.70859003e-01 +9.05243874e-01 -5.07761776e-01 +2.37135738e-01 +6.40606999e-01 -1.41800046e+00 -2.02628613e+00 -1.99577525e-01 -2.56621152e-01 -4.81448233e-01 +3.17544222e-01 -2.26025510e+00 -3.30847979e+00 +1.86873686e+00 -2.21586728e+00 +2.15814598e-02 -7.54267514e-01 +6.43648386e-01 +8.87525380e-01 +3.01955819e-01 +1.06524134e+00 -1.16557598e+00 -7.22548127e-01 +3.62309277e-01 -1.36843038e+00 -1.52366626e+00 -2.02567413e-01 +1.22182894e+00 -9.63404998e-02 -7.25513101e-01 -1.31639516e+00 -1.16443038e+00 +6.31796658e-01 -7.05084801e-01 -9.06600654e-01 -4.85613532e-02 -4.91913736e-01 -1.57545984e-01 -9.63023722e-01 -1.82191171e-02 -1.15092981e+00 -2.52213144e+00 -1.20831990e+00 +4.16250467e-01 -5.73669910e-01 +1.46274939e-01 +5.73563017e-02 -2.85434932e-01 +7.03753233e-01 -3.41694802e-01 +1.48103118e-01 +3.57642829e-01 +3.72846186e-01 -1.30557394e+00 +1.13249612e+00 +3.13496254e-02 +2.95435220e-01 -6.71182871e-01 -1.81793384e-02 -2.90470004e-01 +6.18482120e-02 +4.19857025e-01 +4.83927786e-01 +4.52853620e-01 -7.32690513e-01 +1.37547791e+00 +1.31526086e-02 +1.33557301e-02 +1.00837044e-01 -4.36865479e-01 -1.98745346e+00 +1.18218875e+00 -9.27169919e-01 -4.01895285e-01 +1.74833775e-01 -1.60694575e+00 -2.09345031e+00 +7.08775699e-01 -9.04543936e-01 -6.83068633e-01 -1.83838949e-01 -5.35122097e-01 +1.19509637e+00 +2.72461865e-02 -1.18465340e+00 -1.46833718e+00 -7.14516401e-01 -1.11779547e+00 -1.22401863e-02 +2.34721527e-01 -2.00695291e-01 +2.27955174e+00 +1.16624689e+00 +9.01242018e-01 +1.61778986e+00 -4.15571600e-01 +3.92528325e-01 +2.52269894e-01 +5.83874509e-02 +3.31829749e-02 -3.09429860e+00 +3.44774932e-01 +2.50673145e-01 +2.59792447e+00 -8.42452228e-01 -2.13738108e+00 +1.22987044e+00 -2.94511139e-01 +1.88500568e-01 +3.86931412e-02 -7.00928032e-01 -8.50709796e-01 +4.45385993e-01 -1.28111100e+00 +1.34704903e-01 +7.03186989e-02 +3.87941927e-01 -1.14452207e+00 +4.10383582e-01 -2.54762918e-01 -9.30129766e-01 -6.15249336e-01 -1.12953782e-01 -9.42876041e-01 +3.13127041e-01 -9.01092410e-01 +9.68395054e-01 -1.94397235e+00 -1.82966173e-01 +5.36209762e-01 -1.57707557e-01 +1.55149555e+00 +5.45330763e-01 +1.11582279e-01 +1.40517259e+00 +5.69322944e-01 -2.36362076e+00 +8.34484458e-01 -7.11928727e-03 -1.71711755e+00 -2.31505799e+00 -3.64440024e-01 -2.03383788e-01 +2.66493559e-01 +1.74431384e+00 +9.75411236e-01 +1.32784867e+00 -2.33217850e-01 -1.11426246e+00 +1.05973232e+00 -1.10970223e+00 -8.59802902e-01 -1.14969516e+00 +8.24336290e-01 +3.01794522e-02 -8.05042207e-01 -9.61955860e-02 -1.61793971e+00 +2.41155744e-01 -6.91112936e-01 +2.08081156e-01 -4.96743113e-01 +7.45127350e-02 -5.75767279e-01 +1.01577759e+00 -2.67538615e-02 -7.78407216e-01 +2.30110973e-01 -2.39309978e+00 +1.67572188e+00 +1.15977299e+00 +1.16812885e+00 -3.28401238e-01 +2.20267296e+00 +7.76138972e-04 +1.31494999e+00 +3.53430468e-03 +5.04640400e-01 -5.49774468e-01 +2.57773966e-01 -1.79283187e-01 +4.64731634e-01 +8.02747726e-01 -2.59456545e-01 +3.67282033e-02 +9.89981115e-01 +1.55565739e-02 +9.66206074e-01 -1.04164612e+00 +4.39812303e-01 -8.81597996e-01 +4.44309801e-01 -1.19850049e-02 -6.28743768e-01 +4.78690386e-01 -8.96960258e-01 +6.93682194e-01 +9.40707803e-01 -9.04661894e-01 +1.17862411e-01 +1.28071249e+00 -6.20900154e-01 +5.97972035e-01 +1.59397972e+00 -8.75662506e-01 +2.07016611e+00 +1.80572391e-01 +2.49704346e-02 -4.89078984e-02 -2.80426168e+00 -3.60019237e-01 +1.62080526e-01 +1.07229304e+00 -2.56841063e-01 +2.39370179e+00 +8.77453387e-02 +6.41068164e-03 +3.50049675e-01 +3.72246057e-01 -6.38390124e-01 -6.71598792e-01 -2.35290065e-01 -4.83599961e-01 +7.80274868e-01 -5.87091744e-02 -1.37226892e+00 -1.18001580e+00 +1.69301605e+00 +7.77495801e-01 +2.94171125e-01 +1.12715554e+00 +1.07326221e+00 -2.49623969e-01 +1.43137860e+00 +1.84761262e+00 -8.30563128e-01 +7.49548376e-01 -1.15666151e-01 -4.92695421e-01 +8.92192483e-01 -7.49798715e-01 +1.32376957e+00 -3.65744323e-01 +3.12203348e-01 -1.07585765e-01 +6.14841104e-01 -7.33217478e-01 +1.04201190e-01 +2.26024725e-02 -6.40230596e-01 -3.85593057e-01 -6.51599348e-01 +4.39451307e-01 -6.95168972e-01 +1.08480418e+00 -4.36903685e-01 -4.45075817e-02 +6.50934517e-01 +9.09752250e-01 -1.55856030e-03 +4.64501172e-01 +4.54637527e-01 -1.23647630e+00 +9.72948849e-01 -1.18141577e-01 +2.79947728e-01 -8.12487841e-01 -2.34673572e+00 -2.06736779e+00 -2.01926783e-01 -1.58872157e-01 +2.23554635e+00 -7.19242275e-01 -2.05288839e+00 +1.41632736e+00 +3.70698094e-01 +1.16828811e+00 -1.66586973e-02 +1.90416768e-01 +8.57044339e-01 -3.36217076e-01 -2.04566851e-01 -3.07369679e-01 +9.45440114e-01 -3.45219970e-01 +2.24304646e-01 +3.76814187e-01 -3.98291983e-02 +3.73145521e-01 -6.65278286e-02 -1.56504500e+00 +5.54852843e-01 -3.14118457e+00 -2.13819933e+00 +3.34204704e-01 +3.13024819e-01 -7.12397397e-01 -1.02089095e+00 -4.87809181e-01 -4.80012506e-01 -1.69119999e-01 -7.75762051e-02 -3.43098789e-01 -8.82583410e-02 -1.33546448e+00 -7.89947689e-01 +6.91901743e-01 +5.31401522e-02 -8.13604653e-01 +3.12473446e-01 -1.78169399e-01 -2.11715594e-01 -6.69759989e-01 -8.12328398e-01 +3.15313488e-01 -1.05595541e+00 +6.42302454e-01 -7.84386218e-01 +5.80731392e-01 -2.67526150e-01 +1.70539282e-02 +1.06987429e+00 +6.49394453e-01 
#Parameter# /vanilla-lstm-builder_1/_2 {64} 1025 ZERO_GRAD
