#Parameter# /vanilla-lstm-builder/_0 {64,32} 32769 ZERO_GRAD
-4.02588606e-01 +3.79379898e-01 -4.07718539e-01 -3.17708254e-02 +2.40816269e-02 -4.68674958e-01 +2.54384816e-01 +1.98225528e-02 -2.18883976e-01 -2.42501557e-01 +2.17043459e-01 -2.62482762e-01 +2.91462332e-01 -1.93040863e-01 +2.09452644e-01 -8.34638774e-02 +6.34107471e-01 -7.24809587e-01 -5.56551933e-01 +4.86932248e-01 +9.27463591e-01 -1.05202019e-01 +7.75190741e-02 +4.12105322e-02 -3.35834771e-01 +2.10521802e-01 -1.16288543e-01 -3.13398361e-01 -3.77028584e-01 -1.85502216e-01 -3.44723523e-01 -4.79488932e-02 -2.31798792e+00 +8.79985001e-03 +4.47074503e-01 +5.26596963e-01 -2.99036831e-01 -2.95404717e-02 -1.95548326e-01 -5.48955565e-03 -2.75551379e-01 -3.79259318e-01 +8.65996182e-02 +2.62612909e-01 +7.93129355e-02 +1.18817687e-01 +1.40676886e-01 +4.02811803e-02 -1.48875982e-01 +4.52963710e-01 -9.03627137e-04 +4.08003889e-02 -6.54568136e-01 +7.42350519e-02 -1.12441219e-02 +7.11285919e-02 -2.73995940e-02 -2.82186866e-01 -5.54923490e-02 -8.34911093e-02 -4.57888916e-02 -1.47921860e+00 -5.13490550e-02 -3.29907872e-02 -3.17313939e-01 +4.83759791e-02 +6.17075920e-01 +1.44689977e-01 +1.01365007e-01 +1.40005901e-01 +1.28577352e-01 +1.78835705e-01 -8.11270252e-02 -3.68246794e-01 -4.09849323e-02 +4.91519779e-01 +1.92177653e-01 -1.52323470e-01 +2.88962603e-01 +3.33711624e-01 +1.74795020e+00 +2.77063638e-01 -1.67696142e+00 -4.13806252e-02 +2.62195859e-02 +3.35066915e-01 -4.90534529e-02 +3.22815806e-01 +6.53888732e-02 -9.02498186e-01 +3.77167523e-01 +2.39831582e-01 -5.25022745e-01 +2.91701317e-01 -2.48528033e-01 -1.37280777e-01 -3.44568454e-02 -6.60634279e-01 +3.91922742e-01 -1.58364121e-02 +1.09227240e-01 -3.73057306e-01 +5.14909886e-02 -3.21199708e-02 -1.25642821e-01 +5.93081832e-01 -3.54159772e-01 -1.43785635e-02 -2.32669771e-01 -2.25096717e-01 -6.29816234e-01 +5.84075928e-01 -2.86546499e-01 -2.32933108e-02 +1.95476651e-01 -1.22373931e-01 +5.14168084e-01 +4.01700616e-01 +1.28951505e-01 -1.14177421e-01 -1.67987958e-01 +6.51622564e-02 -6.02180026e-02 -5.64353727e-02 -6.11413224e-03 +1.54736802e-01 +3.28124523e-01 +1.59303904e-01 +1.13082878e-01 -2.65878320e-01 +6.25430405e-01 -8.28839660e-01 +1.68136567e-01 +2.88018703e-01 +1.83762908e-01 -1.29230961e-01 -1.76225632e-01 -1.41112149e-01 +4.45683450e-01 -4.85926569e-01 -2.44696572e-01 +1.90851197e-01 -5.02571762e-01 +1.96650088e-01 -1.24441862e+00 +1.04162037e+00 -4.54976857e-01 +3.52340639e-01 -2.02604383e-01 +1.45635083e-02 -2.12064087e-01 -2.57496983e-01 -8.50638628e-01 +1.48103476e-01 -7.32418656e-01 -1.38318554e-01 -6.20787024e-01 +2.13279441e-01 +1.05084255e-01 +5.03063023e-01 -1.05985916e+00 -7.95841143e-02 +1.35614681e+00 -8.84633884e-02 -3.43900523e-03 +5.85353792e-01 -3.37229460e-01 -2.62132064e-02 -2.25466684e-01 +2.11896971e-01 +6.46449625e-01 -9.38814599e-03 -6.11309111e-01 +1.55057684e-01 -1.19714022e-01 -7.27688730e-01 +5.34440815e-01 +1.71463311e-01 +2.78539300e-01 +1.47721857e-01 +7.09816292e-02 +6.85281754e-02 +5.60569108e-01 +1.28741875e-01 +1.77978814e-01 +7.85732269e-03 +6.63746707e-03 +7.34459385e-02 +5.73183179e-01 -1.14381611e-01 +5.50651997e-02 -1.88384980e-01 -6.36022747e-01 -2.84632057e-01 +3.39429349e-01 +8.67983282e-01 +1.54245645e-01 -5.18898964e-02 +6.27150238e-02 +1.29979670e-01 -3.66714180e-01 +7.72694886e-01 +4.02665019e-01 -1.61049105e-02 +8.35626423e-01 +4.95765030e-01 +2.45111555e-01 -1.35890707e-01 -4.41250116e-01 -4.13473845e-01 -1.16299117e+00 +3.67924005e-01 +7.65094101e-01 -7.02135444e-01 -2.92568207e-01 +6.92288876e-01 -9.32392299e-01 -1.11813560e-01 -9.72700953e-01 -1.42738298e-01 -1.72262281e-01 -1.10970907e-01 -3.03533494e-01 +1.54162511e-01 -1.35909989e-01 -1.76471010e-01 +1.45937890e-01 +4.33124214e-01 +6.41008079e-01 +5.25822997e-01 +5.14373221e-02 +1.29635960e-01 -1.97407514e-01 +1.85197473e-01 -2.85089701e-01 +1.17557950e-01 -7.45129943e-01 +2.63824433e-01 -1.52894601e-01 +3.68803799e-01 +1.28116339e-01 -7.26464316e-02 +3.38343233e-01 -6.81955367e-02 +3.40620726e-01 +3.35854024e-01 +3.45476121e-02 -9.17424038e-02 -2.36628838e-02 -5.44927157e-02 +1.23702180e+00 +5.58132529e-01 -3.02516192e-01 +2.25529313e-01 -7.78204650e-02 +1.49430349e-01 -1.69206355e-02 -7.00381398e-02 -4.64282930e-02 +5.25848091e-01 -4.03268188e-02 +8.93515348e-02 -1.77683979e-01 -1.28978908e-01 +2.69904770e-02 +6.03117585e-01 -2.26484090e-01 -1.03727855e-01 +2.12589145e-01 -1.20674213e-02 -1.31633878e-03 +2.33379722e-01 +7.42653251e-01 -1.35577023e-01 +4.58601207e-01 -4.87693161e-01 +2.12595239e-01 +5.48969626e-01 +3.62226337e-01 +4.10045475e-01 +8.88885379e-01 +1.45256534e-01 +3.98998372e-02 -1.37946457e-01 +4.79251593e-01 -5.38350224e-01 +6.81540787e-01 +1.02438830e-01 +2.24871486e-01 +3.39296579e-01 -4.00620103e-01 +6.08758256e-02 -1.28212273e-01 -3.55609618e-02 +1.21257938e-01 -1.05623811e-01 +4.12233710e-01 -1.82415340e-02 +9.38726142e-02 +1.65358540e-02 +8.01219165e-01 -1.65353701e-01 +6.19437635e-01 +7.26150513e-01 -7.69704282e-02 -2.68066414e-02 +2.19228119e-02 -7.50186443e-02 +1.15796171e-01 -2.53965408e-02 +2.03736499e-01 -4.81294766e-02 -6.81910366e-02 -8.44703168e-02 +3.98422450e-01 -7.71713108e-02 -4.08021688e-01 +8.41746509e-01 +5.73630445e-02 +3.50850791e-01 -3.90400320e-01 -1.23308584e-01 -1.04462340e-01 +3.85900497e-01 -4.55872267e-02 -7.05646724e-02 -4.95820716e-02 -3.84842664e-01 -4.72389847e-01 +7.21861124e-01 +5.49601316e-01 -2.66551948e-03 +2.38099381e-01 +8.57246220e-02 +1.21961288e-01 +5.74819967e-02 +3.73956300e-02 -4.56440449e-02 +1.39441833e-01 +1.16630542e+00 +9.46901381e-01 +2.17511684e-01 +1.78864270e-01 -1.72060683e-01 -1.40294293e-02 +2.69778013e-01 -1.26481843e+00 -3.35793078e-01 +3.00551653e-01 +3.62904370e-01 -4.40673321e-01 +1.00396514e-01 -1.27980679e-01 +4.31657434e-01 +8.93366456e-01 +4.79804903e-01 +2.93452531e-01 +6.63403213e-01 -1.15432702e-01 +9.22276974e-02 -4.19252319e-03 +4.50037241e-01 -4.92078662e-01 -1.11290798e-01 -1.18517660e-01 +4.47970510e-01 -8.10964555e-02 -6.26937807e-01 +3.65206748e-01 -1.13057025e-01 +3.48786414e-01 +1.44360363e-02 -4.95203957e-02 +1.47004545e-01 +5.14551885e-02 +5.30069228e-03 +1.38001770e-01 +4.00798731e-02 +6.64834261e-01 -1.13002934e-01 -8.14091191e-02 +2.70598501e-01 +4.26030234e-02 +1.82598233e-01 +6.91647649e-01 -1.96140289e-01 +1.83883324e-01 +4.34266001e-01 +2.89853513e-01 +4.60590452e-01 -7.01438040e-02 -6.97407797e-02 +7.31648877e-02 -5.59828043e-01 -1.46831840e-01 -1.75413474e-01 -1.85004607e-01 +1.99147910e-01 -2.08521187e-01 +3.31001848e-01 -3.80347550e-01 +1.40247607e+00 +4.09940958e-01 -4.01433557e-01 +1.00926243e-01 -5.73128402e-01 -2.61437625e-01 +1.29928783e-01 -1.55216232e-01 +1.66128471e-01 +7.87874043e-01 -1.37956977e+00 -1.59099773e-01 -2.46765912e-02 -5.99381998e-02 +2.50493795e-01 +2.00909123e-01 -8.66503542e-05 +1.20104659e+00 -3.07851523e-01 -5.07888556e-01 +1.01615584e+00 -8.19917992e-02 -5.42829037e-01 -1.21354787e-02 -5.60591400e-01 +1.20794058e+00 +2.24104077e-01 -1.10872626e+00 -2.55196065e-01 +4.92534965e-01 +7.40515530e-01 +3.29192966e-01 +8.65138546e-02 +3.73504668e-01 +9.91099477e-02 +4.75600034e-01 +1.16565682e-01 +4.73200738e-01 -1.55376911e-01 -5.48189506e-02 -1.58433616e-01 -3.09204638e-01 -1.46776065e-01 +1.15746304e-01 +4.82153408e-02 +9.75279808e-02 +3.32618654e-01 +4.49145064e-02 +1.76599905e-01 -3.41369897e-01 +3.18677902e-01 -1.01298857e-02 -8.89365196e-01 +1.18490063e-01 +1.96691558e-01 +2.77374089e-01 -5.82454562e-01 -1.37762085e-01 -4.16423529e-02 +2.18722731e-01 +1.67312965e-01 +1.80549640e-02 +5.05935140e-02 -6.26115501e-02 -1.10453594e+00 -2.18363360e-01 -2.77801812e-01 -2.97472805e-01 -2.18507066e-01 +1.20057203e-01 +4.72179145e-01 -8.84042501e-01 -4.69506755e-02 +4.57921714e-01 -3.03953230e-01 -1.34720147e+00 -3.07121605e-01 -2.86858112e-01 +7.34286845e-01 -5.12874365e-01 +1.33091375e-01 -4.66644019e-01 -4.52708066e-01 -4.23321724e-01 +8.25145915e-02 +1.91300623e-02 -1.93464786e-01 +4.94568534e-02 -8.93517315e-01 -1.65036204e-03 +1.94016621e-01 -2.83869296e-01 -2.05825865e-01 +2.20763296e-01 +7.55427837e-01 -2.99496233e-01 +2.98713773e-01 -2.41099194e-01 -4.16434109e-02 +6.05971962e-02 -3.19929182e-04 +7.63951764e-02 -1.20895365e-02 -4.67961580e-01 -2.27452099e-01 +1.75884459e-02 +1.23515137e-01 -1.53093293e-01 -6.00240588e-01 -1.46572292e-01 +7.00352713e-02 -2.39117131e-01 -7.43846446e-02 +1.10457331e-01 +5.50140142e-01 -5.00396371e-01 +1.47258446e-01 +1.81713328e-01 +5.16659737e-01 -1.02807298e-01 +1.06054437e+00 +4.65997487e-01 +4.90416922e-02 +2.85182685e-01 +2.15708375e-01 +5.00494957e-01 -2.01916084e-01 +2.37439251e+00 -3.82199604e-03 -1.47932208e+00 +2.10527495e-01 +1.99332014e-01 -5.67340076e-01 -3.29355985e-01 +2.43345574e-01 -6.05684578e-01 -8.13842237e-01 -8.00181985e-01 -2.42500633e-01 -7.77937710e-01 -3.66934896e-01 -7.50985146e-02 -1.69638008e-01 -3.13436151e-01 +2.37923399e-01 -4.96861666e-01 +2.66778469e-01 +7.95584396e-02 +1.74531624e-01 -5.73797971e-02 -1.55480042e-01 +1.76866934e-01 +7.91705668e-01 -1.30440879e+00 -9.65227559e-02 +2.26697400e-01 +1.17026344e-01 -1.22539617e-01 +8.66296142e-02 -4.61896956e-01 -1.03778750e-01 +3.02134901e-01 -5.15057445e-02 +1.48143008e-01 +2.92609304e-01 -4.75108102e-02 -1.24927916e-01 -5.00903487e-01 -1.20793683e-02 +1.02960515e+00 +1.32397979e-01 -8.26059431e-02 +7.22614452e-02 +1.58921540e-01 +1.76631752e-02 +8.44427943e-01 +3.28228921e-01 -3.47208917e-01 -1.29514784e-01 -1.42337784e-01 +1.97014093e-01 +2.91182883e-02 -2.09800918e-02 -8.28300789e-02 -4.25259164e-03 -1.12795822e-01 +3.14040482e-01 -6.35056138e-01 -6.31612480e-01 +2.43046507e-01 -2.44127348e-01 +1.73937365e-01 +1.00529388e-01 -1.34998545e-01 +1.29911125e-01 -8.30830097e-01 -3.66928041e-01 -7.31738210e-01 -8.60229075e-01 -9.16360021e-01 -3.96630287e-01 +9.47436988e-02 -9.91037548e-01 -9.98475850e-01 -2.74261981e-01 -4.74931717e-01 +3.77011806e-01 -2.55961455e-02 -2.83064842e-01 +2.24000454e-01 -5.77085726e-02 -5.21478891e-01 +4.40119386e-01 -1.28925875e-01 -1.96836829e-01 +2.65829176e-01 +1.68750808e-01 -6.51389599e-01 -7.33573854e-01 -6.04358315e-01 -8.35513324e-03 -3.12747002e-01 +3.10283378e-02 -5.26795805e-01 +2.77348071e-01 +1.27040967e-01 +1.03458136e-01 +1.57179534e-01 -1.69741079e-01 +1.54021140e-02 -5.20077795e-02 -3.40134382e-01 +1.23622954e-01 -8.82652029e-02 -3.46440971e-01 +4.55968469e-01 -1.19168855e-01 -9.05584637e-03 -3.86687964e-01 +2.95305401e-01 -4.12434012e-01 +3.55057031e-01 +9.55699310e-02 +2.41165772e-01 +5.11115193e-01 -2.09788367e-01 -2.39845037e-01 +1.30898580e-01 +2.56984115e-01 -2.37319529e-01 +1.59822151e-01 -5.93080632e-02 +2.12254852e-01 -2.65582621e-01 +5.58349527e-02 -6.25820160e-01 +3.69079620e-01 +8.90583843e-02 -3.01411748e-01 -5.82901180e-01 -7.54437000e-02 +2.25596689e-03 +3.97761911e-01 +4.85432118e-01 -2.23219529e-01 +5.96500821e-02 +4.10656452e-01 -1.54978141e-01 +3.00016850e-01 +4.60960865e-01 -4.26606387e-02 +1.42123437e+00 -2.21301183e-01 -1.27964392e-01 -4.69004452e-01 +3.97121727e-01 +5.53917065e-02 +8.03328827e-02 +5.68002202e-02 +2.85318881e-01 +4.87725377e-01 +1.52226508e-01 -1.15566574e-01 -1.97011530e-01 -9.60913450e-02 -8.32809508e-02 -4.00431873e-03 +1.21574417e-01 -5.50850749e-01 +1.10935122e-01 -4.21263352e-02 +8.77181411e-01 +9.53039248e-03 +1.03527363e-02 -1.12047806e-01 +8.46279133e-03 +2.76427090e-01 +2.35168450e-02 +1.59175187e-01 -8.81209597e-03 +1.89482021e+00 +2.31471714e-02 +7.66503587e-02 +5.41784704e-01 +7.25730807e-02 +5.50566554e-01 -1.77096769e-01 +1.67179197e-01 +1.31568462e-01 +1.35389447e-01 -3.72963667e-01 -4.43353504e-02 -8.79290104e-01 +1.97191864e-01 +2.59860083e-02 -1.72551870e-01 -1.36562154e-01 +7.51396939e-02 +5.80151193e-02 -7.40208566e-01 +3.98085237e-01 -1.22091246e+00 -4.44033705e-02 +2.07729459e-01 +1.05021216e-01 -4.41118538e-01 +1.89424723e-01 -1.68347463e-01 -2.14915738e-01 +8.29092711e-02 +2.45220244e-01 -1.16841948e+00 +1.50240779e-01 -1.89577237e-01 -1.42024428e-01 +4.09459369e-03 -6.87878311e-01 +9.00808930e-01 -1.79064777e-02 +2.12107897e-01 +8.03509504e-02 +4.69496362e-02 +1.29672915e-01 -3.04780573e-01 +7.70168379e-02 +4.34563726e-01 +3.29896361e-02 -1.03601241e+00 +1.33515537e-01 -4.89681929e-01 +5.11294782e-01 +1.87113598e-01 -6.40086085e-02 +2.15034589e-01 +2.88093481e-02 +4.75200653e-01 +1.23728119e-01 +1.20915376e-01 -1.77146822e-01 +1.36473859e-02 +8.20284411e-02 -2.72043020e-01 +1.24182038e-01 +3.23253423e-01 -1.59341276e-01 +1.24695515e-02 -8.22947621e-02 +7.04090595e-02 -6.12674542e-02 +3.85022908e-01 +4.35762197e-01 -2.08360732e-01 +2.72257184e-03 -6.02881074e-01 -3.31898808e-01 +3.79560106e-02 +7.92620003e-01 -1.42011717e-01 +1.31823778e-01 +5.08047640e-01 +1.05915852e-01 +1.29406871e-02 -1.44603953e-03 -8.16269517e-02 +1.66546240e-01 +2.17800811e-01 +7.50172064e-02 +2.74931759e-01 +5.52858412e-01 +3.91333401e-01 -2.51088887e-01 +8.70519221e-01 +9.29764956e-02 -5.33095822e-02 -2.68521160e-01 +1.43095016e+00 -1.73909575e-01 +7.97988713e-01 +4.71422732e-01 +8.96938384e-01 +2.54500359e-01 -7.41063580e-02 -1.03606589e-01 -1.05644546e-01 -2.70730862e-03 +1.79191589e-01 -2.29377188e-02 +3.91496032e-01 -3.75249013e-02 +4.27461974e-02 -2.83331219e-02 +8.73234496e-02 +6.37122691e-02 +3.16077888e-01 +2.30099589e-01 +8.18003938e-02 -1.06186099e-01 -2.47642845e-02 -6.67088255e-02 +1.73268691e-02 +6.03438765e-02 -6.49045631e-02 -3.03079225e-02 -7.20805749e-02 +6.94863424e-02 +1.00506115e+00 -7.36877248e-02 -2.98237026e-01 +8.40973556e-01 +2.76584458e-02 +8.77099276e-01 -6.52339458e-02 +6.93859830e-02 +6.86877429e-01 +3.08109373e-01 -2.10032798e-02 +3.22167903e-01 +4.15147953e-02 +7.91966617e-02 -9.75768864e-02 +1.85419559e-01 -1.33430123e-01 -1.05341911e-01 +1.10224240e-01 -2.52170652e-01 +1.91203222e-01 +4.88551527e-01 +7.30367243e-01 +5.29617131e-01 +2.54314423e-01 -4.53259200e-01 +2.38037363e-01 +1.58291027e-01 +1.60542335e-02 +4.60769773e-01 +2.08372259e+00 -3.70996803e-01 +3.56728524e-01 +1.14900482e+00 +1.52417302e-01 +9.31692421e-01 +3.73078138e-01 -5.07217288e-01 +1.48094483e-02 -1.82995215e-01 -2.86250487e-02 +3.85017134e-02 +5.32977879e-01 -4.30885017e-01 +7.50214279e-01 +1.28922850e-01 -3.16577479e-02 +3.83199126e-01 +4.17122483e-01 -7.16810673e-02 +2.02686930e+00 -5.16642809e-01 +5.41889220e-02 +3.08884829e-01 -1.45296186e-01 -1.47057384e-01 +1.79202929e-01 -1.04361102e-01 +2.32772499e-01 +6.59838766e-02 +4.00943868e-02 -1.60801008e-01 +3.39847431e-02 -1.31203353e-01 -1.76843196e-01 -3.11677575e-01 -2.03610188e-03 +1.69293851e-01 +4.47636068e-01 +1.58732697e-01 +3.95751372e-02 -2.67827213e-01 -3.12900424e-01 +4.86676037e-01 +5.70813194e-02 -3.66436720e-01 -3.08713555e-01 -7.67181739e-02 +6.24806359e-02 +3.86044145e-01 -2.11760953e-01 +4.20239419e-02 +1.22947417e-01 +4.19281483e-01 -1.00026563e-01 +7.85675496e-02 -2.66433842e-02 -1.03579879e+00 -2.51949400e-01 -1.60958663e-01 -1.18304715e-01 +1.05206788e-01 +4.80325609e-01 -2.21987277e-01 -3.22371334e-01 +3.05598468e-01 +5.20548876e-03 -3.38804007e-01 +4.05710675e-02 -6.43894374e-01 -1.78651810e-01 +5.23317516e-01 +1.59323826e-01 +1.00205831e-01 -4.92747456e-01 -3.19368482e-01 -3.13447386e-01 +1.60523746e-02 -1.71063289e-01 -6.18920662e-02 +2.83930749e-01 -2.62451828e-01 -3.79204862e-02 +6.01331443e-02 -6.12119555e-01 +9.64092091e-02 +1.46987379e-01 +3.28468680e-01 -1.67399533e-02 +1.09649792e-01 -4.18828391e-02 -3.22535694e-01 +5.28272130e-02 +4.89238165e-02 +3.88102457e-02 +8.29428434e-02 -2.06061989e-01 +3.89290154e-02 +1.30505502e+00 +1.38440400e-01 -3.15826833e-01 +8.11799169e-01 -8.96298587e-02 +1.03481066e+00 +7.86808491e-01 -2.03329131e-01 +5.68314195e-01 -1.27284586e-01 +2.24687696e-01 +1.47531152e+00 +3.50754559e-02 -1.22954793e-01 -3.37677039e-02 -1.08754203e-01 +5.06602824e-02 +3.88297766e-01 -3.61958504e-01 +2.87123397e-02 +3.85586694e-02 -3.92296985e-02 -4.34791714e-01 +1.05892265e+00 -2.31107637e-01 -7.68724531e-02 -1.31427765e-01 -1.36884511e-01 -3.82896543e-01 -4.13777530e-01 -3.46209973e-01 +2.47766033e-01 +4.95278016e-02 -1.71614081e-01 +1.59559622e-01 +1.44769788e-01 -5.71605265e-01 -2.31535375e-01 +5.51002800e-01 -2.79933144e-03 +5.01753569e-01 +3.83244485e-01 +4.18963522e-01 +1.50265604e-01 +7.69742951e-02 +3.88939619e-01 -3.19794193e-02 +5.28138280e-01 -1.34337068e-01 -3.38103712e-01 -4.44506943e-01 +3.02582718e-02 -2.69104391e-01 -6.51851594e-02 +5.34563698e-02 +1.45812586e-01 +5.85782468e-01 +1.17115788e-02 +9.01392519e-01 +1.34151295e-01 +4.52144183e-02 +4.57972474e-02 +1.99212819e-01 +3.59592497e-01 -9.09180120e-02 -5.51746413e-03 +2.32347503e-01 +1.61934495e-01 +8.53140801e-02 -7.13642016e-02 +6.60722733e-01 -1.00648604e-01 -2.57585883e-01 -2.52864599e-01 -1.80657640e-01 +7.00872913e-02 -4.00914520e-01 +9.61504057e-02 +1.45730704e-01 +6.64179444e-01 -1.29624009e-01 +3.67308885e-01 -7.64108360e-01 +8.99982601e-02 -1.15507640e-01 -7.93641150e-01 -6.54606342e-01 +4.34157014e-01 -1.60504460e-01 +2.67787874e-01 +1.65235683e-01 -2.96720445e-01 -5.06186008e-01 -1.10464644e+00 -3.07475537e-01 -3.66301388e-01 -4.54057217e-01 -3.31342250e-01 +1.24103822e-01 -6.86770156e-02 -3.18826996e-02 +4.58083510e-01 +3.78195226e-01 +9.62959137e-03 +5.48946075e-02 -3.11698943e-01 -3.86744916e-01 +1.45888463e-01 -7.76136816e-02 +1.47885501e-01 +1.70665547e-01 +4.28547561e-01 -5.42653501e-02 -3.92038375e-01 -1.05992389e+00 +2.85139233e-01 -5.21856010e-01 -4.72014636e-01 +2.11763438e-02 +1.49100080e-01 -4.12757933e-01 +9.01380032e-02 -1.04233794e-01 -1.56856105e-01 -3.77637208e-01 -3.52120437e-02 -2.33562309e-02 +3.18063378e-01 +2.69059479e-01 +8.49174708e-02 +3.96595657e-01 +1.01669192e-01 -2.58601725e-01 -1.32185698e-01 -4.67462242e-01 +7.99349099e-02 -6.17398202e-01 -3.13961923e-01 -6.27062991e-02 -1.34089088e+00 -2.62710333e-01 -4.78105456e-01 +1.13739543e-01 -3.81719708e-01 +8.76514427e-03 -6.25552088e-02 -6.55760691e-02 -2.67016655e-03 -8.44938383e-02 -1.91579517e-02 -1.67406285e+00 -1.29051971e+00 +5.25631785e-01 +1.80646688e-01 +1.19982708e+00 +7.15462804e-01 +7.58140683e-01 -1.42417938e-01 -4.05611724e-01 +1.99255303e-01 +7.21493512e-02 +2.10785329e-01 -3.22162211e-01 -3.87369841e-01 +8.61898810e-02 +2.14759428e-02 -3.25975537e-01 +4.74027395e-01 +5.77015817e-01 -3.67469043e-01 -1.00604713e+00 +1.07313119e-01 -1.38577089e-01 +1.62094980e-01 -3.07844821e-02 -7.96197295e-01 +1.75097376e-01 +2.73846298e-01 -7.04847395e-01 +5.69100305e-02 +2.08808288e-01 -6.89931452e-01 +8.42348099e-01 +1.17148422e-01 -4.66252893e-01 +5.02931811e-02 -1.35284150e+00 -2.22970009e-01 +3.63218971e-02 +1.02734312e-01 -4.23222110e-02 -8.75875875e-02 +1.06663415e-02 +1.25997052e-01 +2.59062275e-02 -3.77488434e-01 -3.10425252e-01 -6.57552900e-03 -1.80271298e-01 -1.81335166e-01 +3.81619364e-01 -5.04162312e-01 -3.21931355e-02 +6.57477260e-01 -1.25777632e-01 -2.45058388e-01 -1.10257240e-02 -1.99597672e-01 +3.39296937e-01 +2.61513691e-04 -4.44608599e-01 -3.97248678e-02 -3.20952311e-02 -3.36725973e-02 -1.38428223e+00 +1.23852348e+00 +4.96140987e-01 -5.76975867e-02 +3.61523747e-01 -1.01863332e-01 -6.00433648e-01 -3.77298027e-01 -2.85879850e-01 +5.04405200e-01 -3.63094091e-01 -2.11324364e-01 +1.09926671e-01 -2.09700227e-01 -2.42093042e-01 -5.12954772e-01 -1.25754714e-01 +8.23504329e-02 +1.17155111e+00 +3.22203785e-01 +3.04380894e-01 +7.53797293e-02 -5.59639782e-02 +1.67539254e-01 -5.83736956e-01 +3.60789090e-01 -2.65595943e-01 -1.30718976e-01 -5.00886440e-01 +1.37213752e-01 -5.18140197e-02 -1.04298949e+00 +3.48436356e-01 -1.21303752e-01 +6.60441965e-02 +2.05632672e-01 -2.47852486e-02 +6.37802854e-02 -4.07718271e-02 -2.67292093e-03 +2.58586586e-01 +4.94677573e-01 -1.91249534e-01 -2.17322372e-02 +3.57606232e-01 -2.98243254e-01 +8.95034298e-02 -4.65613216e-01 +7.21644282e-01 +2.97782391e-01 +1.44427970e-01 -2.74349511e-01 +3.59241404e-02 +1.07151246e+00 -7.11900219e-02 +1.80129379e-01 +4.54439878e-01 +1.57767341e-01 -3.79987210e-01 +8.93013537e-01 -5.31261802e-01 +2.49230012e-01 +8.39561969e-02 -8.61969516e-02 +5.56693792e-01 +4.26667184e-01 +9.04172838e-01 -6.32563293e-01 -1.31055081e+00 -2.06783608e-01 -4.33840245e-01 -4.03790861e-01 +4.10833508e-01 +1.99813426e-01 +1.03305924e+00 +1.37120456e-01 +2.87417918e-01 -1.00938249e+00 +1.61787458e-02 -6.96116865e-01 +7.56289482e-01 +2.54861563e-02 -2.19978213e+00 -1.19356528e-01 +6.12142086e-01 -2.12881371e-01 -4.02600728e-02 +6.15163408e-02 -4.42983836e-01 +2.42156759e-02 -4.52181369e-01 -3.81147474e-01 +2.95022428e-01 -3.97871494e-01 +6.35154620e-02 +1.46026760e-01 -8.41262817e-01 -1.52531579e-01 -2.96408623e-01 -1.87194732e-04 +5.96646726e-01 -3.39502186e-01 -1.90745909e-02 -7.46706948e-02 -9.23019797e-02 +3.09273273e-01 -3.98969948e-01 -4.69730087e-02 -7.41923898e-02 +1.80730656e-01 +1.26406237e-01 -1.70417324e-01 -4.88165170e-01 -3.45886275e-02 -1.82796180e-01 -2.37791449e-01 +1.33664146e-01 -2.29153596e-02 +9.15766716e-01 +4.19119969e-02 -8.16566050e-02 -1.16594350e+00 +4.30453569e-01 -2.63477683e-01 -1.22946434e-01 -1.96799621e-01 -8.63370020e-03 +3.53220195e-01 +1.72237724e-01 -1.85064599e-02 -1.18032336e+00 +1.74424369e-02 -4.04473469e-02 -1.13218047e-01 +1.71364740e-01 +5.15264608e-02 -5.74824333e-01 -3.26904029e-01 +1.14268258e-01 +4.78153944e-01 -7.43754148e-01 +8.48719537e-01 -2.48598844e-01 -3.97353470e-01 -1.42500544e+00 +1.62479505e-01 +4.18368876e-01 +1.15776084e-01 +1.10241741e-01 -9.67365727e-02 -2.89791465e-01 -1.28654793e-01 -4.73844171e-01 +2.64925390e-01 -1.65213436e-01 -4.28879112e-02 +4.86577839e-01 -2.24485248e-03 -5.57142198e-01 -3.29623222e-01 +8.53588581e-02 +7.68742785e-02 +1.61709413e-01 +5.34606166e-02 -5.19118197e-02 +5.14648184e-02 +3.06716323e-01 +2.99067777e-02 +1.14507675e-01 -3.10987979e-01 -5.46798468e-01 -8.10126588e-02 +5.54694459e-02 -1.86653391e-01 +1.11242406e-01 -5.51138043e-01 -4.31928635e-01 -5.51707186e-02 -4.17356372e-01 +1.34826139e-01 -8.25106680e-01 -1.63077399e-01 -6.49748594e-02 -1.66949313e-02 -2.65607297e-01 -1.75248444e-01 -1.82895467e-01 +1.43844843e-01 -1.43684313e-01 -6.22502029e-01 +5.69612622e-01 -5.59678435e-01 +6.17739618e-01 -5.31640500e-02 +1.75611861e-02 +4.40515965e-01 -2.40300655e-01 +1.35524794e-01 -2.85031442e-02 -1.00652385e+00 +1.90069079e-01 -1.37590617e-01 +1.16461664e-01 +5.49329042e-01 +1.01274729e+00 +2.61683255e-01 -3.53369564e-02 -1.21530510e-01 +5.86979389e-01 +4.34069484e-01 -5.45757294e-01 +7.98258603e-01 +1.82108864e-01 -5.72582126e-01 +2.94589669e-01 +7.28853559e-03 +1.96440235e-01 +2.08376095e-01 -7.13692904e-01 -1.15126915e-01 +3.20633113e-01 +3.25797290e-01 -5.28900981e-01 -4.61161494e-01 -1.24449916e-01 -2.33618706e-01 -2.32233420e-01 -6.09849133e-02 -6.27180561e-02 +1.36318445e-01 -7.63286352e-01 +2.66076103e-02 -6.68612123e-02 +1.38550326e-01 -1.63939875e-02 -1.38196677e-01 -1.79847419e-01 +1.09422222e-01 +8.85735378e-02 +1.40018761e-02 -1.09769471e-01 +2.72001982e-01 -3.41015756e-01 -3.91636848e-01 -2.23080844e-01 +8.46590623e-02 +5.55143915e-02 +2.07954273e-01 -5.33156022e-02 -1.26934016e+00 +1.07774042e-01 +2.09919829e-03 +3.77556756e-02 -3.74517173e-01 -7.71724358e-02 +1.69030368e-01 +3.98911774e-01 -1.00937223e+00 -4.52056229e-01 -6.05795860e-01 -6.81766033e-01 +3.33752960e-01 +8.95446017e-02 -2.84361184e-01 -1.07576549e+00 -1.10307686e-01 +1.24186181e-01 +2.44819939e-01 +8.85401517e-02 -1.95849344e-01 -5.18170357e-01 -3.53006065e-01 -8.31429586e-02 -4.75721687e-01 -6.13686800e-01 +2.76230853e-02 -3.65160018e-01 -3.52038622e-01 -2.31152475e-01 -2.66022176e-01 -3.96521389e-01 -1.81107357e-01 -7.98737645e-01 +8.87998790e-02 -7.80593902e-02 -8.87913909e-03 +4.67152661e-03 +1.49326921e-02 -1.65384278e-01 -2.42564246e-01 -1.63458899e-01 +5.35995234e-03 -3.82683694e-01 -5.66298813e-02 -3.41801047e-01 -1.08800247e-01 -1.25530288e-01 +2.57178657e-02 -5.18502593e-01 +8.74665156e-02 +1.44336984e-01 -9.16811109e-01 +2.49767266e-02 -6.05132639e-01 -6.88542128e-02 +1.87643081e-01 -2.99634278e-01 +2.52794951e-01 -1.97901558e-02 -8.76631439e-02 +3.09425175e-01 +4.85576212e-01 +6.48680180e-02 +1.48689866e-01 -1.08010471e-01 +5.31195402e-02 +6.42949715e-02 -2.98493207e-01 +5.16753793e-01 -1.31018907e-01 +1.21894991e+00 +5.49657881e-01 +4.17759091e-01 -2.84630686e-01 -6.53736234e-01 -1.29139149e+00 -6.20471418e-01 -1.21794462e+00 -4.46936674e-02 +1.11912126e-02 +8.79043192e-02 -5.29330194e-01 +1.69070959e+00 -1.63213699e-03 +1.75847918e-01 -2.07573667e-01 +8.78363431e-01 -3.40673141e-02 -1.06182790e+00 +8.72484505e-01 +2.08883107e-01 -1.81013376e-01 +1.08138785e-01 -4.67234366e-02 +1.19411342e-01 +3.15630525e-01 -1.96848452e-01 -1.61683604e-01 +6.64744616e-01 +7.79489428e-02 -2.93121099e-01 +3.29676062e-01 -7.84629107e-01 -1.79239828e-02 -5.17359018e-01 -6.49074316e-02 -5.57520241e-02 +2.70489335e-01 -8.44343424e-01 -8.60570818e-02 +8.54258984e-02 +3.00425887e-01 -1.00543501e-03 -2.65571862e-01 -1.71672046e-01 +2.78506577e-01 +1.44305840e-01 +1.25919934e-02 +6.97317362e-01 -1.74531400e-01 +9.04407427e-02 +4.57701422e-02 +1.25176072e-01 +8.36183488e-01 -4.74058479e-01 -6.74515218e-02 +4.77663666e-01 +2.51266986e-01 -5.38978159e-01 +4.55051839e-01 -5.76165855e-01 +2.91294813e-01 -2.87594348e-01 +1.47224993e-01 -3.77913833e-01 +6.45789921e-01 +5.87464273e-01 -1.02884030e+00 -5.76614499e-01 +1.97725445e-01 +3.53902802e-02 +7.02450156e-01 +8.16667676e-01 +2.20454291e-01 +6.65615916e-01 +5.73842347e-01 -2.89272219e-01 +1.31705031e-01 +3.16398144e-01 -3.98432553e-01 +1.37115598e+00 -2.43976071e-01 -4.45147395e-01 -3.51136804e-01 +3.77777904e-01 -1.14997625e-01 +4.77531612e-01 +1.34335393e-02 -1.25339121e-01 +9.33715478e-02 +2.34819368e-01 -7.78906047e-02 +1.15313172e-01 -4.94844615e-01 +3.30522567e-01 +5.85065603e-01 +9.36108977e-02 -2.29029015e-01 +1.50960922e-01 -1.98892746e-02 +1.00450456e+00 -2.13901922e-01 +1.06355183e-01 -1.30881697e-01 -7.65249580e-02 +7.82803260e-03 -2.20774204e-01 +3.86678725e-02 +6.44232891e-03 +8.19369197e-01 +1.08857326e-01 +4.97353300e-02 +1.58532307e-01 -1.91344753e-01 +1.83332205e-01 -2.85615683e-01 +8.93138126e-02 +8.25059175e-01 +9.50264093e-03 +1.10664822e-01 -8.85392189e-01 -1.72238722e-01 +4.12478074e-02 +3.94046195e-02 -7.35742927e-01 -3.93491656e-01 +4.62218374e-01 +1.27883479e-01 +2.09916979e-01 +4.70551372e-01 -1.96656868e-01 -1.72424652e-02 +9.01171491e-02 -3.92871827e-01 -3.75377953e-01 -7.88462818e-01 -8.68430912e-01 +6.01331115e-01 -2.84561992e-01 -1.17823911e+00 +9.81018022e-02 -7.35285103e-01 -8.07178497e-01 +1.00685112e-01 +4.86266673e-01 -1.48043514e-03 +1.58089831e-01 +8.01963627e-01 -2.43410274e-01 +5.13845980e-01 -2.42586821e-01 +2.05929223e-02 -2.84246594e-01 +4.03706461e-01 -4.33100253e-01 -2.14875832e-01 -9.70436215e-01 +4.15750563e-01 -9.08082724e-02 -2.21097559e-01 -7.46996030e-02 -1.33173198e-01 +3.44946593e-01 +5.52690439e-02 +3.47908497e-01 +1.35336354e-01 -8.13133270e-02 -1.01482518e-01 +1.83005445e-02 +4.87553596e-01 +3.29901241e-02 -2.56356299e-02 +3.56725514e-01 -3.27193774e-02 +1.10959642e-01 -9.86030623e-02 -4.86229605e-04 +2.73549289e-01 +1.30429715e-01 +3.78035337e-01 +8.06665197e-02 -2.15444833e-01 -7.58841574e-01 +1.51901037e-01 -1.17650837e-01 +1.90374926e-01 -2.54069656e-01 +2.46946231e-01 +2.79796094e-01 +3.39197874e-01 +9.95916203e-02 +4.19568509e-01 +1.29300833e+00 -1.36511549e-01 -2.08837342e+00 -9.14429307e-01 +2.49460727e-01 +5.76739132e-01 -1.28662795e-01 +6.49467587e-01 -3.34443212e-01 -3.80291045e-01 +2.07606912e-01 -3.63505960e-01 -1.26026952e+00 -1.00853360e+00 +1.98655620e-01 +2.07681984e-01 -1.31151885e-01 -4.44108809e-05 -8.54745686e-01 +6.34144172e-02 -1.10036850e-01 +7.83158764e-02 +2.29214907e-01 +9.36954468e-02 +9.65759531e-02 +2.65535787e-02 -4.54040289e-01 -7.71784335e-02 -6.16330467e-02 -2.13853374e-01 +3.04027021e-01 +1.14036381e+00 -6.08496845e-01 +1.41070575e-01 +1.17383763e-01 -1.19745918e-01 +2.75205612e-01 +1.01546228e-01 +3.13208848e-01 -6.00729734e-02 -3.26906472e-01 -3.86633500e-02 +5.08516014e-01 +1.77243069e-01 -1.98770970e-01 -2.09117532e-02 -6.92665279e-02 -1.93492979e-01 -6.16118968e-01 +3.90485883e-01 -5.62299907e-01 -6.01546653e-02 -1.78488404e-01 -5.09795964e-01 +2.10648373e-01 +9.23713744e-02 -2.28313655e-01 -1.08489722e-01 +1.08221941e-01 -6.21564567e-01 +2.05747887e-01 -1.41934380e-01 +1.38470367e-01 -1.21234089e-01 +4.91888642e-01 -3.71735781e-01 +3.63832921e-01 +6.08969182e-02 +7.69120276e-01 -2.93547958e-01 +3.20824236e-01 -5.12721911e-02 -4.79464591e-01 -2.81994659e-02 +4.47941646e-02 -1.80613607e-01 -2.20622048e-02 -2.56660432e-01 -1.48366854e-01 +7.98631310e-02 -1.32896602e+00 +5.94966784e-02 -1.14478253e-01 +1.66213214e-01 -5.17133176e-01 +1.16876632e-01 -8.70135352e-02 -1.53097585e-01 -1.90622911e-01 -7.96144545e-01 +4.73234318e-02 +3.22389632e-01 +2.86253780e-01 -1.43688977e-01 +2.68839926e-01 -5.72481146e-03 -1.04742898e-02 +1.77510709e-01 -1.48019910e-01 +3.49792540e-02 -1.34309006e+00 -1.45541281e-01 -8.03717691e-03 +9.49207172e-02 -1.75164151e-03 -3.46012175e-01 -1.68564823e-02 -9.83432829e-02 -9.68553349e-02 -1.16745281e+00 -6.24841973e-02 +1.04856202e-02 +3.23160529e-01 +9.54021215e-01 +1.71086907e-01 +1.26054108e-01 +3.92515585e-02 -8.38003099e-01 +9.67030153e-02 +6.86873198e-02 -2.70432740e-01 +3.58664781e-01 -1.73156515e-01 -6.59985319e-02 +5.73149860e-01 -2.45934308e-01 +3.34553003e-01 +2.20949668e-02 +8.00530553e-01 -8.48054349e-01 -7.06612110e-01 -2.58756369e-01 +7.79462084e-02 -7.38434494e-02 -5.32197237e-01 +1.46858022e-03 +4.40775007e-01 -8.84269178e-01 -3.70270759e-01 -5.57521760e-01 -4.04151738e-01 +2.94648051e-01 -2.81226158e-01 +2.08925828e-02 -5.66744626e-01 -4.43142205e-01 +3.74879017e-02 -1.73820168e-01 -2.23966137e-01 -4.25263733e-01 +6.80355653e-02 -1.82450563e-01 +4.02957380e-01 +3.38266075e-01 +3.40852827e-01 -3.54528785e-01 +5.03857851e-01 -1.48447230e-01 -5.78999519e-01 +1.54654348e+00 -5.05676925e-01 +5.30631304e-01 -2.31727526e-01 -1.21023551e-01 +9.22215804e-02 -7.04470426e-02 -6.07740646e-03 +7.86496624e-02 -2.16761053e-01 -3.15140158e-01 +3.48022208e-02 -1.88368857e-01 +2.20792368e-02 +1.51160717e-01 -1.71316862e-01 -1.94854274e-01 -5.09392500e-01 -2.09196538e-01 +6.57567605e-02 +1.04402649e+00 +3.26552033e-01 -1.07270285e-01 +5.38101137e-01 -6.87644631e-03 -6.09811425e-01 +2.56733507e-01 +2.51212269e-01 -3.07285398e-01 +2.53837496e-01 +1.37317374e-01 +2.74056673e-01 -2.00107098e-02 -1.98649198e-01 -1.63050389e+00 -1.46462047e+00 +1.99272484e-01 +8.16187441e-01 -8.56185913e-01 -3.36881615e-02 +7.03701913e-01 -8.58020186e-01 +1.69532374e-01 -8.24261844e-01 +4.97765601e-01 -7.64764309e-01 +8.38353634e-01 -6.23418689e-01 -7.95352086e-02 -1.20325603e-01 -6.23152971e-01 +5.06356061e-01 +1.59868598e-01 +4.70736086e-01 +6.98806122e-02 +1.07989267e-01 -1.26124203e-01 -3.01216811e-01 +2.91031331e-01 +1.50936201e-01 +4.62848663e-01 -9.12360311e-01 +3.75959486e-01 -5.79312027e-01 +5.94194949e-01 +2.58230716e-01 -4.97268662e-02 +4.34315711e-01 -9.05647725e-02 +3.68022412e-01 +3.35678130e-01 +1.59018397e-01 -1.89585224e-01 -2.71936767e-02 -2.26165615e-02 +4.26828533e-01 +2.38170296e-01 -1.27233639e-01 +3.62777680e-01 -1.05645426e-01 +2.17896193e-01 +2.87721336e-01 +3.42438936e-01 -2.60572851e-01 -3.60304594e-01 -8.39237720e-02 +7.81417731e-03 +8.23961757e-03 +2.30654389e-01 +1.16368622e-01 -1.43037319e+00 -1.86157152e-02 -9.95212048e-02 -2.34055743e-01 -4.24837053e-01 +2.99478807e-02 -1.82748869e-01 +2.13408291e-01 -8.91716421e-01 -1.52326211e-01 -3.66597563e-01 -6.51589870e-01 -1.91820040e-01 -1.56578436e-01 -3.56188297e-01 -1.08235574e+00 -9.49149430e-02 +2.03686357e-01 -4.63458985e-01 -6.79509401e-01 -3.34213108e-01 -7.22344756e-01 +1.56890646e-01 -6.76035360e-02 -3.78077805e-01 -4.93278533e-01 +1.53764412e-01 -2.69769251e-01 -1.44889399e-01 -2.81199783e-01 -2.24361524e-01 -4.45173502e-01 -1.55972481e-01 -5.34787655e-01 -8.35903063e-02 -3.75690877e-01 +8.47411901e-02 -3.18931192e-02 +3.09327301e-02 -2.74437100e-01 -7.00928792e-02 -1.70290753e-01 +3.48572582e-02 -2.12545067e-01 -4.97234836e-02 -1.76680535e-01 -4.70476486e-02 -1.10448889e-01 +3.41587402e-02 -7.24251151e-01 +7.61859268e-02 +2.06238449e-01 -1.10720944e+00 -3.18631623e-03 -5.33508599e-01 -2.35088840e-01 +3.54561359e-02 -1.21966936e-01 -8.97709548e-01 +2.25199863e-01 -3.97698544e-02 +7.92133272e-01 +7.00746104e-02 +1.07548172e-02 -8.61695886e-01 +2.11521700e-01 -1.20788202e-01 -2.51272708e-01 -3.45509052e-01 -1.17489897e-01 -3.96745279e-03 -7.38236159e-02 -1.61771044e-01 -4.47999269e-01 +3.13444465e-01 -2.06911013e-01 -2.82835513e-01 +2.64026131e-02 -1.46593928e-01 -1.71969235e-01 +9.44069251e-02 +7.34096160e-03 +5.31958759e-01 -9.62950826e-01 +2.47758895e-01 -3.63163471e-01 -1.83269769e-01 -1.58204579e+00 -3.16964328e-01 +1.93543747e-01 +6.11303747e-02 +2.14696862e-02 +3.31955478e-02 -2.57252336e-01 +7.65559524e-02 -1.79071620e-01 +7.25516751e-02 -1.07979275e-01 +9.19193681e-03 +1.00845397e-01 -1.25301545e-02 -4.27462369e-01 -6.33289874e-01 +1.63721945e-02 -5.18654250e-02 -1.37512935e-02 +1.17375873e-01 -1.03017099e-01 -8.32056627e-02 +1.58312485e-01 +9.57455952e-03 +7.73842409e-02 -1.22241996e-01 -5.82785070e-01 +8.05558711e-02 +2.45508477e-01 -4.57693547e-01 -3.08290520e-03 -7.12110579e-01 
#Parameter# /vanilla-lstm-builder/_1 {64,16} 16385 ZERO_GRAD
+7.19332516e-01 +1.36764228e-01 +2.21883893e-01 -7.91674316e-01 -1.71377152e-01 +3.32857907e-01 -9.06422615e-01 -4.59560342e-02 -7.43220150e-01 -3.15836698e-01 +2.05856368e-01 -1.81601524e-01 +6.65611207e-01 +6.94704652e-01 +5.22844493e-02 +8.97462845e-01 -6.11526310e-01 -1.86732356e-02 +5.15569508e-01 +3.23846579e-01 +2.75190175e-01 -1.81687570e+00 -7.67315269e-01 -8.56936574e-01 -4.95780259e-01 +8.48291442e-02 -7.52475917e-01 +9.89372611e-01 -4.94313747e-01 +3.32636207e-01 +2.62544811e-01 -3.04494828e-01 -5.61228514e-01 -1.51530468e+00 -3.70318443e-01 -3.09750915e-01 -4.78184335e-02 -1.08939755e+00 -1.92360774e-01 +6.29571319e-01 +1.57391459e-01 -1.34818411e+00 +1.34151530e+00 +3.47047746e-01 +8.21442485e-01 -9.28080678e-01 -6.77061200e-01 -5.08718133e-01 -1.05755424e+00 -4.83698361e-02 -6.49957597e-01 -8.82465616e-02 -2.81125665e-01 +3.87346596e-01 +9.67675149e-01 -1.57483816e-01 -7.86053956e-01 -4.30754840e-01 -3.19972038e-01 +2.51440257e-01 -3.07724088e-01 -1.10748515e-03 +2.91715592e-01 -6.04672015e-01 -1.65403306e-01 +1.85497558e+00 +8.02864254e-01 +9.87563133e-01 -1.49995458e+00 +5.14020145e-01 -3.19444269e-01 +4.78575945e-01 +5.65572739e-01 +2.07134914e+00 +1.81781936e+00 +8.02976727e-01 +8.83681327e-02 +4.63010252e-01 +5.56030989e-01 -1.29862633e-02 -8.03633034e-02 +2.69645858e+00 +3.20139289e-01 -1.53563380e-01 -6.16194606e-01 +7.20084071e-01 -7.20616519e-01 -5.72938085e-01 +9.90862548e-02 -1.44470632e-01 -5.93449652e-01 +4.63561326e-01 +8.78318191e-01 -1.49812710e+00 -1.19835883e-01 -6.52154565e-01 +5.45153208e-02 +2.27338767e+00 +6.98070740e-03 +2.82676369e-02 +3.25467676e-01 -4.12304364e-02 +4.18020338e-01 -4.93989050e-01 +1.43976629e-01 +1.15971342e-01 +8.69000375e-01 +6.14781499e-01 -9.69955772e-02 +3.33800286e-01 -5.39044321e-01 +5.25787175e-01 -1.29759302e-02 +1.12521005e+00 +6.89743698e-01 +8.98081623e-03 +3.01937670e-01 -1.32416809e+00 -4.42414939e-01 -1.30896389e-01 +1.11067271e+00 +1.55317318e+00 +2.30002210e-01 +1.56751573e+00 -6.88995361e-01 -8.97213072e-02 +6.08629346e-01 -5.11698872e-02 +5.84105611e-01 +1.21818399e+00 +4.54289287e-01 -5.13160169e-01 +1.27423212e-01 -1.68808222e+00 -9.58347142e-01 +1.65066540e+00 +2.95015544e-01 -1.48180470e-01 -1.39930332e+00 +9.73664522e-01 +1.01738214e+00 -1.72026411e-01 -8.31184149e-01 -5.38145483e-01 -3.64238828e-01 +3.79956454e-01 +1.37354302e+00 +6.52117610e-01 -5.82190812e-01 -1.86901256e-01 +3.46899241e-01 +1.25211561e+00 -5.06082594e-01 -1.10853471e-01 -5.82879484e-01 -8.70184481e-01 +3.51725258e-02 -9.92946684e-01 -1.15577176e-01 -1.32574272e+00 -2.54764974e-01 +3.53567809e-01 -1.09250081e+00 -8.32610488e-01 -9.66159105e-02 +1.66327596e-01 -4.41193372e-01 +2.42201161e+00 +1.44985604e+00 -3.23963881e-01 +9.29975331e-01 -3.83665174e-01 +6.24153435e-01 -1.00886893e+00 +9.97559369e-01 -1.96811289e-01 -6.75282240e-01 +8.08798075e-01 +3.55730563e-01 -6.60036564e-01 +7.54784465e-01 -4.96848196e-01 -1.58914044e-01 -1.56864330e-01 -1.80508152e-01 +8.08455825e-01 -6.36325419e-01 +2.67148137e-01 -9.38534737e-03 -4.33385521e-01 +1.82004258e-01 -3.36677045e-01 +2.14100853e-01 -8.48524749e-01 +7.07700133e-01 -2.59163380e-01 -1.18355602e-01 +2.24540085e-01 +2.77147174e-01 -1.93583630e-02 -1.37336269e-01 +2.36577779e-01 +3.94824058e-01 -5.41204512e-01 -1.92529365e-01 -1.03374493e+00 +3.78894061e-01 -4.68765527e-01 +1.55565189e-02 -4.99674469e-01 -5.57017207e-01 +5.79398572e-02 -2.83630669e-01 -1.53040774e-02 +6.45756721e-01 -3.94241989e-01 -1.06035912e+00 +2.39804015e-01 -3.15269083e-02 -1.52342943e-02 -6.58560693e-01 +5.95128894e-01 -1.48485458e+00 +1.67598471e-01 +6.68860450e-02 +1.44516662e-01 +5.38028002e-01 +3.90040092e-02 +4.25990745e-02 +3.64934236e-01 +8.45058084e-01 -7.11742163e-01 +4.60861512e-02 +1.05519140e+00 +4.63443488e-01 +1.59535006e-01 +1.43843323e-01 -9.39058363e-02 -1.06644380e+00 -2.77300209e-01 +3.45674492e-02 -6.67189419e-01 -1.06743492e-01 +3.70604873e-01 -2.52088070e-01 +6.17448926e-01 +1.03927314e+00 -5.79145402e-02 -9.37517226e-01 -1.16365325e+00 +2.42404714e-02 -4.81582761e-01 -3.28479409e-02 -1.97440937e-01 +1.19691096e-01 +2.28627697e-01 -1.21633634e-01 -2.08177552e-01 -1.09421694e+00 +6.99809473e-03 -1.13558948e+00 -3.59980524e-01 -1.04678595e+00 +1.33271611e+00 +7.40390539e-01 -3.73271167e-01 -6.01019621e-01 -2.67652333e-01 +1.10653609e-01 -1.10607564e+00 -1.27467752e+00 -1.15260684e+00 -4.42801416e-01 +2.57027671e-02 +7.21916705e-02 +1.56152640e-02 +6.85728908e-01 -2.13806108e-02 +2.13582516e-01 +7.42596984e-01 -1.48214447e+00 +4.17733014e-01 -1.44062102e-01 -1.01072705e+00 -3.90412748e-01 +9.82865572e-01 -2.66859472e-01 -1.48659512e-01 -4.73864585e-01 +2.37784788e-01 +2.25572046e-02 +4.79729101e-02 +3.64898950e-01 -3.51984292e-01 -1.67086518e+00 +2.65936971e-01 +1.05649269e+00 +3.02317198e-02 -8.16936255e-01 +2.39776000e-01 +1.20640111e+00 -1.29169548e+00 -3.74696016e-01 +4.17023897e-02 -4.31561083e-01 +6.06192723e-02 +6.26992643e-01 -2.76140213e-01 +8.13014030e-01 -2.13732779e-01 -3.96121055e-01 -5.42651236e-01 -2.78883189e-01 -1.10446490e-01 -1.29874097e-02 -6.78125210e-03 +3.13385367e-01 -8.61992955e-01 -5.39756000e-01 +9.02679205e-01 +7.22290516e-01 +3.07029605e-01 +4.48351838e-02 +3.83110464e-01 +3.86515975e-01 -1.49989402e+00 -2.97378242e-01 -5.15183270e-01 -9.24486876e-01 -1.37830210e+00 -1.76211166e+00 -2.14053243e-01 -1.75917715e-01 -4.78492230e-01 +3.01231176e-01 -1.16945171e+00 +3.69503587e-01 +1.31229594e-01 +1.22292733e+00 +1.38244331e+00 -6.43245459e-01 -4.99547690e-01 -7.37493098e-01 +7.91825294e-01 -3.76620322e-01 -5.52119076e-01 +3.73996764e-01 -8.18729997e-01 +3.32358360e-01 +4.85131204e-01 +4.52456146e-01 +5.45993924e-01 +3.57184798e-01 -4.33949411e-01 +7.38911480e-02 -1.31741202e+00 +9.81754780e-01 +3.85761373e-02 -1.44935995e-01 -7.75010228e-01 -2.35672951e-01 +8.78419280e-01 +6.52244210e-01 -7.14299917e-01 +1.33794561e-01 +2.10954785e+00 -5.07510185e-01 +3.52110453e-02 -1.61561951e-01 +3.02686810e-01 +2.68349469e-01 -3.18304226e-02 -4.40492630e-01 +6.50416255e-01 -9.44373667e-01 +1.24886528e-01 -6.12866521e-01 -6.51223600e-01 -2.14046568e-01 +1.76213458e-01 +5.70762336e-01 -2.67546833e-01 -5.08257270e-01 +3.21370624e-02 -8.49386811e-01 -2.17503458e-01 -9.50602114e-01 -1.67029607e+00 -4.69465166e-01 +5.16064525e-01 +3.14655863e-02 -1.38582706e+00 +5.74685514e-01 -5.89955330e-01 -1.90946317e+00 +7.50156462e-01 -4.97695744e-01 +1.42473352e+00 +6.04488611e-01 +7.41356134e-01 -3.87368739e-01 +4.58665103e-01 -6.57407880e-01 -7.58587897e-01 -1.08483338e+00 -4.06681001e-01 -1.34721100e+00 -2.12638879e+00 +2.90401757e-01 -4.85541284e-01 -1.15547165e-01 -8.43490720e-01 -1.07147765e+00 -1.34677868e-02 +1.35999453e+00 -2.35248625e-01 +1.56019181e-01 -1.19572902e+00 -5.45692086e-01 -2.24963650e-01 +6.55426800e-01 -4.91155759e-02 +2.21589521e-01 +2.59023815e-01 -5.84751256e-02 +5.95472515e-01 -1.00814652e+00 +2.47850269e-01 -7.32220039e-02 +8.23382735e-01 -2.08566174e-01 -1.27367902e+00 +1.53361902e-01 -3.12372237e-01 -7.32682109e-01 -3.98372471e-01 -3.87888402e-01 +1.22645229e-01 -2.51366664e-03 +4.62679118e-01 -1.19675986e-01 -6.55936718e-01 -2.28715003e-01 +6.81079865e-01 +4.20943290e-01 +4.03935522e-01 +5.33513010e-01 -3.22831333e-01 -6.95368052e-01 -1.14454913e+00 +1.95154026e-01 +2.94686228e-01 +2.42035389e-01 -4.41701919e-01 -2.21870795e-01 -2.04946637e+00 -1.29556272e-03 -1.14032459e+00 -3.79718751e-01 -1.78192303e-01 -3.88731331e-01 +2.84424163e-02 -2.41039291e-01 +2.93558121e-01 -2.65663087e-01 +6.27183616e-02 +2.69799262e-01 -2.31334582e-01 +1.77801609e-01 +2.76951432e-01 +9.44916308e-02 -1.31962705e+00 +2.06233054e-01 -9.31652725e-01 +1.16957521e+00 -3.76956373e-01 -9.16989386e-01 -8.65927562e-02 -2.88225822e-02 -4.63584363e-02 -1.45693302e-01 -2.55105066e+00 +1.06789231e+00 -1.18288159e+00 -2.03845456e-01 -3.78924519e-01 -2.68857539e-01 -6.95989430e-01 +1.97796047e-01 +3.81069690e-01 -5.68622291e-01 -8.66647512e-02 -1.95129722e-01 -2.12565586e-01 -1.64841071e-01 -2.06320450e-01 +5.98631799e-01 -8.69817615e-01 -1.61232042e+00 +4.20335919e-01 -9.03821051e-01 +1.27651906e+00 +1.98188460e+00 +1.14775157e+00 -6.06748998e-01 -2.35781765e+00 +1.47290438e-01 -5.10319591e-01 +1.16236039e-01 -4.54061292e-02 -9.63207148e-03 -3.41069251e-01 +1.35170341e+00 +1.75024593e+00 +7.07456172e-01 -2.04234198e-03 +4.16856915e-01 -2.75385797e-01 -4.45301421e-02 +2.43625689e+00 -1.15985441e+00 -4.08935070e-01 -5.38345754e-01 +1.24494267e+00 +7.23097742e-01 +2.84559250e-01 +9.04028714e-01 +1.19692862e+00 -8.19992423e-01 +6.11672811e-02 +8.50923121e-01 +3.31694841e-01 -1.07159704e-01 -1.47676837e+00 +9.11301002e-02 +1.58649540e+00 +8.95985484e-01 +1.10034680e+00 -8.94155443e-01 +1.04097068e-01 +1.58779275e+00 -2.18067497e-01 +1.21162987e+00 -1.44022377e-02 -7.43671536e-01 -2.58708932e-02 -1.07964242e+00 +7.85832524e-01 -3.89013141e-01 -9.59993899e-01 -1.69219300e-01 +9.76682365e-01 +6.60794750e-02 +1.07817757e+00 +1.18431699e+00 +1.53973147e-01 +3.65333825e-01 +1.58883762e+00 +6.91502690e-01 +7.59458542e-01 +3.08382660e-01 +3.64834219e-01 +3.37405443e-01 -4.77386355e-01 +1.60386905e-01 +3.27220052e-01 +2.35762015e-01 -1.02090871e+00 +2.36827105e-01 -6.30427077e-02 +7.91828558e-02 +1.71280205e-01 -3.22632164e-01 -2.82263517e-01 +1.27485788e+00 +2.17847720e-01 -2.46749625e-01 +1.21781707e+00 +2.94412941e-01 -9.48800370e-02 -6.93036199e-01 +5.91428429e-02 -7.42434204e-01 +1.98899269e+00 +8.40574920e-01 +2.60572731e-01 +9.18353736e-01 -5.49080312e-01 +6.84709728e-01 -9.12726283e-01 -1.00631726e+00 -8.67990792e-01 -1.17951229e-01 -3.30642998e-01 -5.56387722e-01 +5.87211847e-02 +4.62077707e-01 -3.48009050e-01 +9.00452316e-01 +9.90483522e-01 -3.51572484e-01 +1.98076797e+00 +4.07761056e-03 +6.71396911e-01 -3.09317522e-02 -2.18244284e-01 -1.88496679e-01 -1.08971991e-01 +6.05172515e-01 +1.08683598e+00 -4.29645866e-01 +3.45062345e-01 -9.95230973e-01 -5.89370191e-01 -4.11375076e-01 -8.60226601e-02 +3.02279025e-01 -8.88483107e-01 +6.92535579e-01 +2.35727474e-01 -3.18385750e-01 -1.26086557e+00 +1.36144197e+00 -3.54797155e-01 -3.81335407e-01 +5.34499407e-01 +1.40493140e-01 +3.30379069e-01 +3.95625472e-01 -9.61068451e-01 -4.04308200e-01 -8.25166762e-01 +3.58278245e-01 +3.63138735e-01 +5.64868785e-02 -1.32930726e-01 -3.84960651e-01 +1.14899158e-01 -4.98309553e-01 -3.55817735e-01 -3.54185611e-01 -4.06471156e-02 +2.29656361e-02 +4.24893767e-01 -1.22792840e-01 +5.48990726e-01 -1.09397483e+00 +2.89260298e-01 +1.05914760e+00 -1.21938145e+00 -1.01170135e+00 +8.26600671e-01 +5.80997527e-01 +3.08568692e+00 -7.36964405e-01 +9.62950587e-01 +4.43554014e-01 +1.10174167e+00 +3.35961193e-01 +1.16557741e+00 +2.19498739e-01 +8.40645313e-01 -1.61991969e-01 +1.24140538e-01 -3.81257296e-01 +1.82443559e-01 -3.18692625e-01 -3.06330562e-01 +2.64724344e-01 -8.74146968e-02 +7.11930394e-02 +3.69428515e-01 +2.71946192e-02 -1.20573068e+00 -1.18878394e-01 -7.90845931e-01 -9.35931861e-01 +1.34605885e-01 -2.40584880e-01 +1.45652032e+00 -1.36475885e+00 +6.60012960e-01 -4.58773613e-01 +1.66609919e+00 +6.00227296e-01 -7.10296512e-01 -8.24310660e-01 -1.51931715e+00 -1.88934028e-01 -1.10738985e-01 -6.61873937e-01 -1.48852539e+00 -3.36252719e-01 +9.35611010e-01 -9.97083247e-01 -9.10213113e-01 -1.49764745e-02 -9.04847682e-01 -6.97443902e-01 +1.34001887e+00 -2.51843408e-02 +2.63279110e-01 -2.98221737e-01 +1.62805438e-01 -4.61283714e-01 -9.37272385e-02 -4.70748581e-02 +7.88027979e-03 +1.68260857e-01 -7.81522274e-01 -3.53426598e-02 -1.25509590e-01 -9.17927802e-01 +2.72701561e-01 +2.95775980e-01 +1.24148957e-01 +3.09345365e-01 +4.44438875e-01 +4.35927719e-01 +5.59273481e-01 +2.22623944e-02 -8.82793903e-01 +6.97117686e-01 -3.15864652e-01 -5.61336040e-01 +4.72339451e-01 -1.22117949e+00 +1.11014202e-01 -1.89278811e-01 -7.43010104e-01 -4.65382338e-01 +1.22654694e-03 +7.53027022e-01 +1.24546580e-01 +3.09728533e-01 +2.59252906e-01 -3.64655852e-01 +6.13915622e-01 -3.33545953e-01 +2.94427127e-01 +8.57216269e-02 +5.00469744e-01 +2.26526082e-01 +5.83861828e-01 -6.04291677e-01 -2.22411022e-01 +4.71142441e-01 +7.79323205e-02 -4.63707626e-01 -1.60423905e-01 -5.13981283e-01 +4.06034142e-01 +1.42460153e-01 +3.68404508e-01 +1.40738070e-01 +2.40360171e-01 +4.75875884e-01 -1.50034499e+00 -1.11956131e+00 -2.88983762e-01 +3.13531817e-03 +5.44653893e-01 +1.67221665e-01 +6.09919071e-01 +2.44792387e-01 +8.79229158e-02 +9.18310642e-01 -2.36381143e-01 +1.19121522e-01 -1.14767158e+00 -1.33282816e+00 +6.78572655e-01 +1.74608245e-01 -1.46027851e+00 -2.57185221e-01 -6.50335014e-01 -1.47314417e+00 -2.22597271e-01 -1.51014194e-01 -1.89165384e-01 -5.78457773e-01 -1.35759830e+00 -2.98126996e-01 -7.44078517e-01 +2.12475985e-01 +2.43916765e-01 -6.12301946e-01 +1.17478371e-01 +2.72569120e-01 +3.71697575e-01 +5.84792078e-01 -3.66062522e-01 -8.65319133e-01 -4.85821128e-01 +7.70787835e-01 +1.14825010e+00 -6.52425170e-01 -2.40491420e-01 +5.54351747e-01 -5.63653529e-01 -2.04537407e-01 -1.03657298e-01 -5.35419583e-01 -4.42664385e-01 -7.50003606e-02 +6.15040027e-02 -6.71503901e-01 -1.92235887e-01 -1.23889089e-01 -5.19258618e-01 +1.97363690e-01 +1.11981118e+00 -5.94429433e-01 -7.48761714e-01 +7.36579359e-01 -3.72875243e-01 +2.17631906e-01 -1.01515234e+00 -1.75459966e-01 +9.35871601e-02 +9.78257880e-02 -4.77643967e-01 +7.97291517e-01 +1.56165659e+00 -6.33563027e-02 -4.81371373e-01 +6.84666097e-01 -7.69402504e-01 +1.60349801e-01 +2.27845669e-01 -2.59545565e-01 -3.70099838e-03 +6.56093299e-01 -5.00023723e-01 -1.14073229e+00 +3.12029362e-01 +2.16613245e+00 +7.40998864e-01 -3.12674820e-01 -7.47767836e-02 +6.00936532e-01 -6.73592508e-01 +1.43734598e+00 +4.65246111e-01 +7.38242328e-01 -1.04352579e-01 -8.50641489e-01 -7.16052532e-01 +7.81615227e-02 -4.29181814e-01 -5.89275500e-03 -1.31280869e-01 +1.10277307e+00 +3.80332738e-01 -9.52788889e-01 +1.66904137e-01 -6.31687343e-01 -7.54490644e-02 +4.66374606e-02 +1.01993561e+00 -2.74896562e-01 -6.11610293e-01 -2.64064848e-01 +4.29251343e-02 -4.16004092e-01 -2.05657649e+00 +5.96631825e-01 +5.80809787e-02 -1.74276903e-02 -2.28404418e-01 -1.59307897e+00 +7.23787010e-01 +5.46101213e-01 -3.67128581e-01 -7.37233859e-05 +1.20827961e+00 -2.42583856e-01 -1.51778507e+00 -9.08524573e-01 -1.91729474e+00 -3.88463259e-01 -3.31182510e-01 -2.80602574e-01 -4.15304244e-01 -1.25218451e-01 +3.92505586e-01 -1.33832589e-01 +1.14691310e-01 +5.40521443e-01 +4.87560302e-01 -3.98928851e-01 -3.27518672e-01 -1.50256604e-01 -1.07273686e+00 -2.25875884e-01 +1.26601636e+00 +1.71369028e+00 +4.91041154e-01 +5.12504615e-02 +3.48585784e-01 +1.03046274e+00 -8.37486565e-01 +9.73931074e-01 +9.59373951e-01 +8.14278424e-01 +4.80651855e-01 +1.25463879e+00 -1.13256872e+00 +1.27424955e-01 +7.37110913e-01 +5.42041898e-01 +1.33983290e+00 +1.72712222e-01 +8.22608098e-02 -1.01183861e-01 -6.64831042e-01 -8.70776251e-02 +7.57389009e-01 -4.91910428e-01 -3.86630058e-01 -6.15975335e-02 +1.25195920e+00 -3.62602293e-01 -1.50724217e-01 +3.09075326e-01 +1.73193470e-01 +4.64766115e-01 +2.40122557e-01 +4.88035589e-01 +1.71699560e+00 +8.24526429e-01 +9.18443799e-01 -6.86218403e-03 +8.64475444e-02 +5.01742840e-01 -8.57377648e-01 +2.13388848e+00 -2.06844926e-01 -8.93723786e-01 -2.70237207e-01 -4.33992684e-01 +9.81357038e-01 -3.95007849e-01 -3.53653818e-01 -2.93976754e-01 +6.05896294e-01 -2.77754217e-01 +1.42242298e-01 +3.47546525e-02 +1.42656431e-01 -6.54749036e-01 -4.90931094e-01 +2.03499287e-01 +8.98490906e-01 -3.93465012e-01 -3.06165159e-01 -6.57440782e-01 -1.97766989e-01 +7.93638706e-01 +3.11509706e-02 +5.45503199e-01 -4.23916839e-02 -2.38073040e-02 +1.31504190e+00 +8.83570552e-01 +7.39543140e-01 +2.90570885e-01 -7.86677122e-01 +1.05174696e+00 -7.93695003e-02 -1.95632100e+00 -7.75843799e-01 +9.63944271e-02 +1.31149864e+00 -1.20642066e+00 -2.50636905e-01 +2.87860446e-02 +9.34977889e-01 -4.91495669e-01 -9.41717923e-02 +1.22364831e+00 -3.57912868e-01 -4.32501644e-01 +3.09431255e-01 -1.04743421e+00 -7.06817091e-01 -8.82802069e-01 -5.03518939e-01 -6.96110785e-01 -3.63808930e-01 -3.60006869e-01 +4.49624479e-01 -5.51048696e-01 -1.88205838e+00 +5.42451024e-01 -3.69738042e-01 +3.52890164e-01 +9.60630059e-01 -4.96623755e-01 -7.50179410e-01 -3.14001709e-01 +1.80875048e-01 +4.38482434e-01 -6.04786694e-01 -6.89338565e-01 -1.65137142e-01 -4.72129047e-01 +1.29237399e-01 +6.77312985e-02 -7.81504288e-02 +2.48799995e-02 +4.51523587e-02 -3.11660618e-01 -2.76773311e-02 +2.19106898e-01 +4.05683875e-01 +4.53337222e-01 +6.14602089e-01 -1.61025748e-01 -1.29578143e-01 +1.78819090e-01 -3.86782348e-01 -5.80034137e-01 -3.01341414e-01 
#Parameter# /vanilla-lstm-builder/_2 {64} 1025 ZERO_GRAD
+1.05256963e+00 +8.43362689e-01 +4.98610049e-01 +5.04488982e-02 +1.56128609e+00 +6.56480014e-01 +1.24551690e+00 -6.47984743e-02 +1.08244634e+00 +9.72922802e-01 +8.71391296e-01 +7.24547505e-01 +2.34005973e-01 +1.25693595e+00 +7.99175680e-01 +1.07982945e+00 +4.04479861e-01 +6.30046725e-01 -5.42423606e-01 -3.19870472e-01 +1.01836190e-01 +3.75372946e-01 +6.93517476e-02 -2.68334478e-01 -7.14392364e-01 +7.09519386e-01 -1.14896572e+00 +3.11819483e-02 +2.82363221e-02 -3.23892087e-01 -5.00830524e-02 -1.65584944e-02 +5.39030850e-01 +8.88593554e-01 +5.26911736e-01 +2.22751379e-01 +1.06028724e+00 +9.94441867e-01 +1.36392391e+00 +4.80593383e-01 +7.30950475e-01 +5.60763776e-01 +1.87936699e+00 +1.21732390e+00 +9.39971864e-01 +1.07325268e+00 +1.20544501e-01 +5.77149153e-01 -6.73793629e-02 +5.58900058e-01 +1.36738941e-01 +1.02759330e-02 +1.69568688e-01 -7.35682435e-03 +4.21675406e-02 -1.73665240e-01 -2.17048839e-01 +2.26592682e-02 +2.25607008e-01 -2.81436294e-01 -4.44222502e-02 +7.79799521e-02 +7.24913627e-02 +1.01552149e-02 
#Parameter# /vanilla-lstm-builder_1/_0 {64,32} 32769 ZERO_GRAD
-1.61714509e-01 +4.03409332e-01 +3.45565736e-01 +3.63333911e-01 -1.05388097e-01 +1.41463026e-01 +5.27996756e-02 +1.54098868e-01 +2.66743958e-01 +6.56070411e-02 +1.81641504e-01 +2.92378992e-01 +4.38202292e-01 -9.50839836e-03 +5.88423833e-02 -4.94630218e-01 -5.72050475e-02 +2.35706761e-01 +3.96150768e-01 +4.72410116e-03 -2.24493161e-01 +7.05132857e-02 +2.31923729e-01 +3.81765336e-01 -4.01886940e-01 -6.16462827e-02 +4.36190456e-01 -7.01810420e-01 +2.94093102e-01 -4.24551249e-01 +1.54873565e-01 -2.01034218e-01 -2.11088732e-02 -5.29036343e-01 -1.27409625e+00 +5.42904019e-01 -5.18200919e-02 -6.80219661e-03 +3.27966399e-02 +3.53849709e-01 +1.03810914e-01 -3.75623256e-01 -5.60257494e-01 -1.56141728e-01 +2.90767103e-01 -1.46400064e-01 +4.66008991e-01 -2.48842716e-01 -1.07108378e+00 +2.73733258e-01 -1.01203226e-01 +9.55995098e-02 -8.16824660e-02 -3.20006639e-01 -2.44784296e-01 -6.43451661e-02 +5.40061891e-02 +3.62808347e-01 +1.77210733e-01 -1.53605074e-01 -7.45759234e-02 +7.69670382e-02 +6.12195671e-01 +6.51971817e-01 +1.76586211e-01 -7.32859001e-02 +4.18265700e-01 +1.18828587e-01 -3.30661893e-01 -5.77734530e-01 -3.43482196e-01 +3.73238713e-01 -6.74073219e-01 -5.53290725e-01 -2.03074336e-01 -6.81515157e-01 -8.06281447e-01 +5.51596582e-01 +4.94682640e-01 -4.26891655e-01 -6.37472034e-01 -4.48934764e-01 -3.00707668e-01 -6.76010475e-02 +1.02368510e+00 +7.21905947e-01 -3.36607367e-01 +1.34340212e-01 -1.40573132e+00 -4.56737787e-01 -6.57465458e-01 +1.27182707e-01 -8.46821442e-02 -7.37785876e-01 -1.41399624e-02 +5.05230904e-01 -5.91373980e-01 -3.34309548e-01 +9.45313454e-01 -5.99773884e-01 -4.54204530e-01 +6.59303600e-03 +1.13069071e-02 -2.53148824e-01 -5.60042024e-01 +7.89126605e-02 +5.26455998e-01 +4.36320603e-01 -2.60142714e-01 +4.17084247e-01 -1.62917539e-01 +3.21453482e-01 -2.85567567e-02 -7.69408420e-02 +3.36536855e-01 -3.99331063e-01 -6.32506907e-02 -3.81914563e-02 +5.89259341e-02 +4.61744845e-01 -1.25358969e-01 -3.91380012e-01 -1.71974115e-02 +2.25355774e-01 +6.25872761e-02 -6.08768128e-02 -3.92882645e-01 -1.83006093e-01 -1.05906546e-01 +5.39397895e-01 +8.53170872e-01 +1.13025427e-01 -1.18520223e-01 +3.76054823e-01 -2.80376971e-01 -3.09012234e-01 -4.81184095e-01 -1.13727391e-01 +1.69035956e-01 -2.23807961e-01 -8.25294912e-01 -3.51343751e-01 -8.74581467e-03 -1.81877404e-01 +5.94010204e-03 -6.78803027e-02 +2.18113154e-01 +8.91890168e-01 -4.28609163e-01 +1.08595483e-01 -5.54134212e-02 +1.66025907e-02 -2.92374790e-01 +7.72587717e-01 +5.33701777e-01 -7.31272042e-01 -5.59717324e-03 +9.08638179e-01 -1.93123281e-01 +6.75697327e-01 -3.85952204e-01 +1.37208128e+00 +8.13230932e-01 +1.20366044e-01 +3.44026327e-01 +4.65860486e-01 -3.96387309e-01 -2.95917213e-01 -9.22131658e-01 -4.23825890e-01 -1.42187476e-01 +5.23535728e-01 +7.00188279e-01 +2.34422654e-01 +4.95250106e-01 -3.21472473e-02 -1.87479258e-01 -4.12988998e-02 +2.96246737e-01 -2.91441113e-01 +1.50996700e-01 +1.69459045e-01 -1.07771620e-01 +9.64019820e-02 -1.07429400e-01 +1.86622679e-01 +1.71934009e-01 -4.46047068e-01 -2.79481351e-01 +2.65774131e-01 +2.30186339e-02 +1.06509998e-01 +4.37817991e-01 -2.17783898e-01 +3.99204403e-01 +7.41089135e-02 +1.21746801e-01 +5.21304347e-02 -1.62691936e-01 -2.50321984e-01 +3.97383496e-02 +9.78381261e-02 -1.58682361e-01 -3.44450802e-01 -3.59338999e-01 -4.04728681e-01 -7.31953442e-01 -5.64222336e-01 +3.74245614e-01 +5.91909707e-01 +1.55275792e-01 +4.40238416e-01 +1.68449178e-01 -4.15133566e-01 -3.79578590e-01 -2.44130474e-02 -6.44736767e-01 -2.60775480e-02 -1.13029622e-01 -1.43457687e+00 -5.93211055e-01 -3.85118783e-01 -6.35054037e-02 +9.86568213e-01 +7.64469802e-02 +4.97126468e-02 -1.23512531e-02 -2.21672982e-01 +4.57576901e-01 -1.73931941e-01 +6.44749343e-01 -1.44137308e-01 +7.34941602e-01 +4.39478084e-02 +3.04945651e-02 +7.11583942e-02 -5.48642278e-01 +2.71150827e-01 -2.13462472e-01 +5.23766756e-01 -1.26029968e-01 +5.98325841e-02 +9.51870322e-01 -1.10151090e-01 -2.59792715e-01 +2.00486243e-01 +1.27365917e-01 -3.04652136e-02 +1.95631757e-02 -2.95667291e-01 -3.07858381e-02 -1.22969605e-01 +2.58745760e-01 -1.39915962e-02 +7.89050534e-02 +3.00390422e-01 +4.98391479e-01 -4.59412187e-02 +6.20319881e-02 +7.77586326e-02 +1.64447978e-01 -3.30910504e-01 -1.64884463e-01 -2.97170486e-02 +1.27907202e-01 -1.94817588e-01 -2.03339398e-01 +2.35668525e-01 +4.48361486e-01 +1.82167292e-01 -7.75192678e-01 -1.75293997e-01 +9.32955325e-01 +6.55617118e-02 +3.26365232e-01 +5.28797925e-01 +2.40242377e-01 +3.28754306e-01 +9.37997699e-01 +1.79284409e-01 +1.17278574e-02 +1.75353062e+00 +1.19357550e+00 -1.42849803e+00 -4.25853997e-01 -1.06035841e+00 +7.25334659e-02 +2.82354295e-01 +3.92978311e-01 +1.00949936e-01 +2.65350789e-01 -4.55180049e-01 -6.74056709e-02 +3.54782522e-01 +2.87081301e-01 +3.37752737e-02 +2.61447906e-01 +3.78072888e-01 +2.82686144e-01 -4.21242088e-01 -4.04100180e-01 -9.69737828e-01 -2.06523780e-02 +1.15605764e-01 +7.01517761e-02 +1.23329639e-01 +2.47228801e-01 +3.71278614e-01 -1.13309786e-01 -1.47193640e-01 -5.74124217e-01 -1.70901909e-01 +1.45518798e-02 +1.80857658e+00 -1.00798849e-02 -4.04597037e-02 +2.11539343e-02 -7.23124295e-02 +3.33550513e-01 +1.77534502e-02 +5.02865016e-02 +1.09506004e-01 +4.97298568e-01 +4.28697526e-01 -5.61089069e-02 +7.67876133e-02 +4.54721242e-01 -1.60727903e-01 -1.09104343e-01 +2.36616433e-01 +3.02938633e-02 -9.78270080e-03 +3.84274393e-01 -4.51888263e-01 -7.16633022e-01 -4.40749705e-01 +4.05189544e-01 -4.18763347e-02 +9.08557117e-01 +7.87511915e-02 -4.37435880e-02 -2.75236934e-01 +1.13560069e+00 +3.15054178e-01 -2.10252687e-01 +1.60810161e+00 +1.78497362e+00 -1.15894103e+00 -2.74279505e-01 -5.03536701e-01 -1.59950659e-01 -1.05960540e-01 +2.17964798e-01 -5.70038080e-01 +1.59332618e-01 -1.13027543e-01 -1.66464359e-01 +2.60830373e-01 +3.30316454e-01 +5.21135509e-01 +4.17622477e-01 +8.80103186e-02 +4.61456835e-01 -7.53075443e-03 -3.08792710e-01 -2.63820410e-01 -3.50427836e-01 -1.57468170e-01 -1.02685839e-01 +6.95983469e-02 +1.46024346e-01 +1.28690511e-01 +1.60888597e-01 +3.65855582e-02 -7.33008862e-01 -1.60232946e-01 -9.69363749e-02 +5.64196467e-01 +3.60465527e-01 -4.63838905e-01 -9.52140614e-02 +8.68024975e-02 +2.50446409e-01 +1.63976669e-01 -9.96288240e-01 +7.07127899e-02 +5.61175406e-01 +8.64516869e-02 -2.53045380e-01 -2.85816908e-01 -2.02971939e-02 -1.20090909e-01 -1.95113346e-01 -3.58667850e-01 -8.06582868e-01 +4.40111190e-01 -3.02704461e-02 -3.54774773e-01 -1.34556621e-01 -1.09987162e-01 -6.35423422e-01 +1.53674513e-01 +8.14684033e-02 +2.89190799e-01 +4.87997085e-01 +8.26967359e-02 +6.20204151e-01 -3.33957553e-01 -3.87215763e-01 +3.02399546e-01 +2.14444682e-01 +3.79300743e-01 -8.28595832e-02 +1.14576650e+00 +3.19479197e-01 -5.48868895e-01 -8.52831542e-01 +6.87401831e-01 +4.97217834e-01 -4.83657181e-01 +1.79744795e-01 +4.47177738e-01 -3.36469471e-01 -3.46530467e-01 -9.64930952e-01 -6.32195890e-01 +8.46794173e-02 -2.62949675e-01 +2.35607147e-01 +1.25904649e-01 +6.41575992e-01 -7.28521645e-02 +8.34700763e-02 +3.83857369e-01 +1.02891333e-01 -2.04106897e-01 +1.29470387e-02 -3.95895988e-01 -2.88888305e-01 +1.55663326e-01 -2.49178976e-01 +2.00469702e-01 +3.27146724e-02 +1.70848742e-01 -2.47550964e-01 -2.50810027e-01 +1.73022553e-01 -2.43010297e-01 -1.42768696e-01 -1.40801638e-01 +2.09231645e-01 -2.27681935e-01 +1.29822373e-01 +1.31474495e-01 -2.83959061e-01 -7.12461546e-02 +3.51416916e-01 -1.30616441e-01 -2.72488445e-01 +2.08757415e-01 -2.62156483e-02 +3.63943934e-01 -1.53868899e-01 -3.16793919e-02 +2.54710883e-01 -2.68274456e-01 -2.53934234e-01 +2.23844469e-01 +1.29447609e-01 -2.87121922e-01 -9.00375664e-01 -2.89590359e-01 -2.99783319e-01 -7.13438034e-01 -8.78618538e-01 +3.42195928e-01 -4.95008320e-01 +3.73821646e-01 +1.53517932e-01 +3.94274861e-01 -3.01424205e-01 -4.72020134e-02 -2.00606287e-01 +2.20361844e-01 +2.05360159e-01 -3.75848040e-02 -1.53640527e-02 -6.99553937e-02 -1.89788401e-01 -2.06474245e-01 -9.36623275e-01 -3.39355111e-01 +2.84710854e-01 +2.03322530e-01 +5.68022251e-01 +2.02324256e-01 +9.29018855e-02 +2.12474586e-03 +2.31768757e-01 +9.09806602e-03 -4.47539508e-01 -1.11039639e+00 +4.58420217e-01 +1.71732232e-02 +1.01848148e-01 -5.79715073e-01 -1.01333809e+00 +2.56909639e-01 +4.38183062e-02 -3.83438885e-01 +1.91217929e-01 +4.41953056e-02 +5.43585777e-01 -9.62718278e-02 +4.40864980e-01 +1.23876072e-02 +2.57807612e-01 -9.34860855e-02 -3.12759876e-01 -5.54001033e-02 +1.27011135e-01 +4.62521389e-02 +5.06785810e-01 -2.98709989e-01 -2.39769503e-01 +8.47728103e-02 -2.29652390e-01 -4.22838718e-01 +2.07298905e-01 -3.32560390e-02 +3.15650888e-02 +5.97287059e-01 -2.77335178e-02 -6.55470565e-02 -4.14239556e-01 -3.02023664e-02 -6.89635992e-01 -1.45469159e-01 -6.28812909e-02 -6.20427847e-01 -8.57641548e-02 -1.10270667e+00 -3.70825022e-01 +9.12382126e-01 +3.17357510e-01 -1.93060860e-01 +9.04143788e-03 -2.64409691e-01 -2.43337438e-01 +3.27046849e-02 +3.09470296e-01 -3.01420510e-01 +6.58720136e-01 +2.81072021e-01 +4.65534776e-01 +4.55628484e-01 -4.31607753e-01 +1.52466018e-02 -5.46316266e-01 +4.13586110e-01 -2.32245907e-01 -8.07761922e-02 +5.24559498e-01 -1.97833985e-01 -3.15128684e-01 +1.63713709e-01 +2.70853281e-01 -1.09116361e-01 +9.13859680e-02 -1.87500030e-01 +3.78758349e-02 -1.41667202e-02 +2.02400729e-01 -7.33397081e-02 -1.04722269e-02 +1.91299394e-01 -9.58045542e-01 +7.92126812e-04 -3.73042583e-01 +2.34913334e-01 -3.62895846e-01 +1.06040528e-03 +5.61934471e-01 +4.44935620e-01 -1.89860731e-01 +4.84578945e-02 +1.08881426e+00 -1.32416725e-01 +3.12034905e-01 +1.03484607e+00 +6.68877840e-01 +3.00610602e-01 +3.83717537e-01 -8.40412199e-01 -3.58314604e-01 +2.99856544e-01 -2.69302756e-01 -5.76900132e-02 +4.68048096e-01 -2.93899953e-01 +3.90487999e-01 +1.00625850e-01 -1.95873212e-02 +5.88800967e-01 +2.76635379e-01 +4.97720957e-01 -1.00263333e+00 -2.35554010e-01 -2.65919447e-01 -1.22623295e-02 -3.04705262e-01 +4.53924209e-01 -8.54656637e-01 +1.92637011e-01 -6.45967960e-01 +1.49234712e-01 -3.44024003e-01 -3.59485894e-01 +2.07019195e-01 +9.71685052e-02 +6.15312517e-01 -3.56221616e-01 +6.79362953e-01 -3.56114507e-01 +8.74159187e-02 -2.00939000e-01 +1.71321243e-01 -4.33308065e-01 +4.48383480e-01 -4.05454516e-01 -2.07627013e-01 +3.46384831e-02 +9.06709023e-03 +3.82621497e-01 +4.62256461e-01 +2.47094750e-01 -2.84143090e-01 -3.26515824e-01 +4.21479940e-01 -3.68285865e-01 +2.11396724e-01 -3.59635949e-01 +4.10324372e-02 -5.31879485e-01 +2.17876434e-02 -1.48366928e-01 -2.17956714e-02 -1.03935629e-01 -3.91109496e-01 -4.74584669e-01 -3.77382159e-01 -3.58292222e-01 -5.65246761e-01 -1.26109198e-01 -1.95809066e-01 +5.17237008e-01 +3.21908221e-02 +2.56739020e-01 -2.84992933e-01 -3.50501691e-03 +3.09131384e-01 -4.58611622e-02 -3.01032722e-01 -1.34260431e-01 +2.09851488e-01 +1.47098988e-01 -2.85949379e-01 +1.76585704e-01 -5.09719849e-01 +4.79059637e-01 -2.73312747e-01 +5.40953159e-01 -1.98858202e-01 +3.73810321e-01 +1.10161281e+00 -3.56491983e-01 +1.02936298e-01 +7.35361129e-02 +2.37159282e-01 -6.58637844e-04 +1.35044269e-02 +4.34394300e-01 +7.12952912e-01 +2.72680391e-02 -3.50279778e-01 +1.54242843e-01 -5.56860626e-01 +2.42825568e-01 +7.25926042e-01 -1.43134072e-01 +1.18764564e-01 -2.17631161e-01 +1.07948989e-01 +3.47982913e-01 +1.04380950e-01 +7.05519244e-02 -5.97930476e-02 -3.17650616e-01 -7.40974471e-02 +1.42464945e-02 +8.41176659e-02 +1.14835640e-02 -6.11007571e-01 -6.07039452e-01 -2.93201864e-01 -2.31480479e-01 -3.70856710e-02 +1.73677266e-01 -3.03245723e-01 +1.77995916e-02 -4.25356925e-01 +3.76741081e-01 -5.24900675e-01 -8.58533382e-02 -1.66872293e-01 -5.47111809e-01 -5.93363583e-01 -4.63230938e-01 +7.83138752e-01 -3.24315615e-02 -1.06600142e+00 +1.71676069e-01 -6.18042231e-01 -1.10869661e-01 +8.13444614e-01 -2.75614053e-01 -5.90400696e-01 -3.03096205e-01 -4.49939728e-01 -1.64735818e+00 -1.36562014e+00 +6.30037606e-01 +6.52526468e-02 +1.16258800e+00 -1.03419311e-01 +3.72412771e-01 -7.61566579e-01 +5.67289174e-01 +2.19739228e-01 -9.75847319e-02 +4.07579541e-01 -7.07325712e-02 +9.97282937e-02 -1.74156185e-02 -6.06509268e-01 -2.78697133e-01 +1.01559043e-01 +6.86397731e-01 +5.32649875e-01 +9.82538402e-01 +9.10237506e-02 +6.36363849e-02 -1.11790560e-01 +3.23021598e-02 +4.39746566e-02 -3.66937041e-01 +7.09411725e-02 +8.13455209e-02 +3.73719305e-01 +3.63645017e-01 -1.07524730e-02 -7.41636634e-01 -1.20883778e-01 +3.31572235e-01 +5.35272099e-02 +1.08788170e-01 -4.19014804e-02 -1.60973489e-01 +4.02061909e-01 -1.58480778e-01 -7.29949400e-02 +3.76022533e-02 +8.75221342e-02 -3.00469428e-01 +1.90175861e-01 -9.08626094e-02 +5.16485423e-02 -1.28669783e-01 -2.78436601e-01 -1.28028110e-01 -5.46842694e-01 +1.42307105e-02 -1.27183843e+00 -7.14573339e-02 +3.36433738e-01 -2.73954898e-01 +2.15764627e-01 +2.18233436e-01 +6.05164319e-02 +1.15963861e-01 +7.82834589e-01 +3.66005450e-01 +1.48874700e-01 +2.10572410e+00 +1.23695505e+00 -5.98912537e-01 -6.52688622e-01 -7.24139512e-01 +1.37264937e-01 +8.31831276e-01 -1.32650912e-01 -4.53009427e-01 -1.15562081e-01 -7.87469387e-01 -5.21722175e-02 -4.14349884e-02 +1.32621750e-01 -4.90823150e-01 +1.10383570e-01 +3.58171731e-01 +5.33146784e-02 -2.46861488e-01 -6.59343481e-01 -2.52349257e-01 -1.43805146e-01 -2.60217279e-01 +8.23146775e-02 +5.75619116e-02 +6.06588759e-02 -3.39248419e-01 -3.41122001e-02 -1.11975506e-01 -2.53957003e-01 -2.15611681e-01 +4.48867306e-02 +5.25522292e-01 -1.93318224e-03 -1.41912624e-01 +2.53727943e-01 -4.59093526e-02 -9.07353163e-01 -1.59210060e-02 +3.58213902e-01 +8.67103040e-02 +5.29733999e-03 +1.95132151e-01 -8.58666226e-02 -7.62949809e-02 -3.27237695e-01 +3.19263965e-01 +1.01400437e-02 +7.55269751e-02 -2.28597447e-01 -3.22751403e-01 +2.35700995e-01 -1.32562101e-01 +2.95108527e-01 +3.46877128e-02 -2.48647034e-01 -1.39768556e-01 -1.83371693e-01 -6.87392533e-01 +1.08849561e+00 +7.37307608e-01 +1.31663477e+00 -3.99442822e-01 -2.66118407e-01 +7.43754879e-02 +3.66065800e-01 +2.48045862e-01 +1.71732008e-01 -6.96026444e-01 +2.25728810e-01 -3.21331173e-01 +5.10257006e-01 +2.29484409e-01 +9.92517233e-01 -8.19315970e-01 -3.57401788e-01 +3.39042008e-01 +3.57363909e-01 +9.96919498e-02 -4.63232249e-02 -8.69362429e-02 +3.38821203e-01 +6.91526383e-02 -4.55726981e-02 -4.19356227e-01 -1.47249848e-01 +3.08588088e-01 -2.53745243e-02 +1.52912915e-01 -5.81046306e-02 +6.20511532e-01 +1.87002011e-02 +4.04158756e-02 -4.04204279e-01 +1.84003666e-01 -6.83960021e-02 +5.59689105e-01 +3.16904262e-02 +8.15115795e-02 -3.70366052e-02 +3.54962289e-01 -1.53653994e-01 -3.25167715e-03 +4.27005678e-01 -4.92449343e-01 +6.46151230e-02 -6.98149264e-01 +2.72199899e-01 -2.15710908e-01 -1.82481095e-01 -4.86084163e-01 -9.68501344e-02 -3.61424655e-01 -5.55989861e-01 +2.81630188e-01 -3.04995924e-01 +2.18759358e-01 -1.75786567e+00 -1.78023800e-01 +3.40485424e-01 -1.85920820e-01 -2.53778160e-01 +7.59298086e-01 -2.09685519e-01 -3.08789521e-01 -2.12280825e-01 -6.62260652e-02 -7.36209005e-02 -7.45858103e-02 +7.68041313e-02 -1.16675556e+00 -9.79730427e-01 -1.49241015e-01 -3.06327581e-01 +7.10497856e-01 -9.96881202e-02 -9.93864775e-01 -6.77962676e-02 -8.89550224e-02 +3.09472475e-02 -2.77460390e-03 +6.86350912e-02 -1.12556860e-01 +1.08901441e-01 +6.53149605e-01 -1.37744099e-01 -6.74023807e-01 -1.25394893e+00 -1.53752044e-01 -4.99816984e-02 +2.50543803e-01 +7.46296585e-01 -1.66071374e-02 +3.29747736e-01 -5.04502794e-03 -1.81460932e-01 -3.24310362e-01 +2.92645007e-01 -2.37499103e-01 +7.52798319e-02 -3.77458632e-01 -4.24673557e-01 +2.66864821e-02 +4.05647457e-02 -3.96056294e-01 +3.61256930e-03 -4.61061299e-02 -1.22309372e-01 -2.63977945e-01 -5.32249548e-02 +4.62827869e-02 -1.21287979e-01 -1.02757201e-01 +7.46265352e-01 -1.33115677e-02 -8.12433422e-01 +3.02598268e-01 -2.70343423e-01 -1.85954720e-01 -1.33437112e-01 -2.09226862e-01 +1.01024047e-01 -3.45266052e-02 -4.00809526e-01 +2.58509159e-01 -1.95090532e-01 -2.66965419e-01 -1.26392305e-01 -3.75227958e-01 +3.45067739e-01 +2.19772067e-02 -1.23320721e-01 -1.07035875e-01 -1.05886757e-01 -1.80159673e-01 +1.59519330e-01 +6.11365080e-01 -3.88958722e-01 -2.38864526e-01 +5.55165783e-02 +1.28391051e+00 +4.70028371e-01 +1.52068451e-01 -2.45186359e-01 +3.73687223e-03 -2.97553450e-01 +1.64390933e-02 +8.37878734e-02 -1.09811162e-03 +9.60630774e-01 +1.12490267e-01 +1.45100519e-01 +6.36149198e-02 +6.29115283e-01 +4.40491259e-01 +2.60358751e-01 -1.27208561e-01 +3.03372383e-01 -3.04646939e-01 +3.99227887e-01 +2.73179650e-01 -6.16129398e-01 +3.42544645e-01 -3.04286569e-01 +5.71428359e-01 +6.17773712e-01 +2.57940829e-01 +2.91200392e-02 +1.41288117e-01 +6.36942759e-02 -4.98706251e-01 -1.31891549e-01 -1.19795412e-01 +6.90893292e-01 -6.58804059e-01 +3.91749814e-02 +1.39351085e-01 +7.38021970e-01 -1.69068068e-01 -8.66179094e-02 -1.49033114e-01 +4.19778705e-01 -1.67753235e-01 -4.73587126e-01 +1.03938389e+00 +2.24407509e-01 +4.17653799e-01 -9.08182114e-02 -2.01965496e-01 +7.97966123e-02 -6.29365623e-01 -4.31512326e-01 -1.71469539e-01 -6.11144900e-01 +1.69055760e-01 -1.35202974e-03 +2.34628409e-01 +4.89191383e-01 -1.33645609e-01 -4.41418588e-02 +8.92960310e-01 -8.56390417e-01 -1.13234892e-02 -1.04212403e-01 +4.30705160e-01 -6.75910890e-01 +6.95459545e-01 +3.01161438e-01 -2.85112590e-01 -6.30880952e-01 +5.15276752e-03 -2.62287408e-01 +4.55811173e-01 +1.06662297e+00 +2.92702496e-01 -2.40393877e-02 +3.07738960e-01 -1.10526737e-02 -3.41449112e-01 +1.56345785e-01 -4.42931861e-01 -1.28386915e-01 -5.33592105e-01 +2.78327435e-01 +5.14477119e-02 +1.84492052e-01 -1.76820591e-01 +9.33346748e-02 -3.05367172e-01 +1.31995708e-01 -1.20836452e-01 -8.58218446e-02 -4.80935335e-01 -2.04154119e-01 -4.75595482e-02 -2.26602592e-02 +7.51084788e-03 +1.04443736e-01 +9.78372470e-02 -1.95602924e-01 +2.04718962e-01 +4.02895585e-02 -1.28756359e-01 +2.46057257e-01 -4.51336592e-01 +9.50038359e-02 +2.25103766e-01 +2.63650697e-02 +4.03755486e-01 -4.47040707e-01 +9.36646461e-02 +1.16074808e-01 -7.62952045e-02 +6.90671861e-01 +3.70205879e-01 +1.71190351e-01 -2.55070448e-01 -9.20697391e-01 +1.67558268e-01 +4.57532406e-01 +1.42743871e-01 -1.78003833e-01 -3.13934535e-01 -6.32510185e-02 +8.50049078e-01 -7.93261454e-02 -3.22669744e-01 -2.44360387e-01 -8.95085156e-01 -1.81810871e-01 +8.00612628e-01 +5.55669248e-01 -1.96258605e-01 +3.20201308e-01 +4.36256453e-02 -4.91685271e-01 -2.27364779e-01 -4.26164329e-01 -4.98463839e-01 +1.03822328e-01 +3.21850061e-01 -3.32702219e-01 -4.52350855e-01 -7.64632896e-02 +4.87397425e-02 -3.29593211e-01 +1.36912301e-01 -1.38428167e-01 -7.38879070e-02 +2.92603374e-01 -5.79160094e-01 +1.07659385e-01 -1.30748057e+00 -2.08833024e-01 -5.53267598e-01 -2.58919716e-01 -7.55862072e-02 +6.89333081e-02 +2.97509700e-01 -2.25551665e-01 +1.04185238e-01 +2.26334836e-02 +6.31063104e-01 -2.68021941e-01 +1.44939944e-01 +1.85820669e-01 +3.07209939e-01 -3.73933047e-01 +7.51475692e-02 +6.52966678e-01 -2.61670321e-01 +1.02305479e-01 -5.25437355e-01 +3.78374666e-01 +3.16934973e-01 -4.61213559e-01 -1.17373817e-01 -1.12363800e-01 -4.56262946e-01 -4.44042236e-01 +7.77420849e-02 +2.51691610e-01 +2.33997554e-01 -8.06068331e-02 +2.68746674e-01 +2.92060196e-01 +1.53386950e-01 +7.32566118e-01 +2.20987588e-01 -5.66269755e-01 -8.02165151e-01 -2.65028387e-01 +8.18839967e-01 +5.99618793e-01 +1.27786070e-01 -1.96288034e-01 +7.93899130e-03 -3.77104953e-02 -4.60682780e-01 +1.47589132e-01 -2.23791376e-01 +2.96110362e-01 +6.25244379e-01 +1.05420268e+00 +3.11534584e-01 +1.05682351e-01 -1.31979764e-01 -3.56293082e-01 -7.91158006e-02 -2.61465400e-01 -1.43001944e-01 +3.51663053e-01 +5.74671865e-01 -3.48045111e-01 +2.00762928e-01 -3.65649536e-02 +4.41726565e-01 +9.98160779e-01 -1.11421973e-01 -3.11151948e-02 +5.01272440e-01 +1.79689914e-01 +6.92671016e-02 -5.74838333e-02 -2.02430129e-01 -9.28634226e-01 +4.22572434e-01 -1.29616663e-01 -1.59915358e-01 -1.26090005e-01 +3.22509885e-01 -8.89088437e-02 +4.06536460e-01 +5.09428322e-01 -1.68958932e-01 +1.11295033e+00 -6.12036586e-02 +6.78391159e-01 -1.28709478e-02 +3.70940536e-01 +3.86915207e-01 -7.76656210e-01 -2.34707519e-01 -2.91423112e-01 +1.36782974e-01 +1.35766134e-01 -5.40609837e-01 +1.31370708e-01 -6.75051630e-01 -5.07532537e-01 +4.81841326e-01 +5.28781652e-01 +4.42687452e-01 -4.09511387e-01 -5.01123428e-01 +6.48676515e-01 +9.49662507e-01 +2.39859954e-01 +3.99850130e-01 -1.61930636e-01 -7.40404576e-02 +2.96802253e-01 +1.96301833e-01 +6.94847941e-01 +6.93912864e-01 +6.88951194e-01 +4.18331146e-01 +3.44867259e-01 -1.50691405e-01 +1.08405307e-01 +2.17844740e-01 +3.15665752e-01 -1.07872106e-01 -3.85636121e-01 +5.52804947e-01 +9.05956775e-02 +3.45457047e-01 +1.22077778e-01 +2.48997226e-01 -5.71442060e-02 +1.06331203e-02 -2.64707003e-02 +6.18461549e-01 +1.45334169e-01 -2.75010407e-01 +2.08621591e-01 -7.45950460e-01 +1.53531712e-02 +9.99331415e-01 +5.09487212e-01 +4.37862605e-01 +7.94763789e-02 +4.21217740e-01 -1.82292610e-01 +2.37389997e-01 -3.37733418e-01 +1.03751376e-01 +7.94766322e-02 -7.02948645e-02 +3.80435973e-01 -6.19651973e-01 +9.52520728e-01 -1.27215862e-01 -3.53645951e-01 -3.37308198e-01 +4.40084159e-01 +3.87381256e-01 +6.99705724e-03 -5.35721257e-02 +8.50630701e-02 -1.37506455e-01 -4.97142315e-01 +2.28229184e-02 -3.12529534e-01 +9.28696513e-01 +3.63754123e-01 -5.49614942e-03 +2.74822146e-01 -3.44023705e-01 -2.21188635e-01 -2.38711953e-01 +6.53749466e-01 -2.08727643e-01 -8.81563723e-02 +9.06210542e-02 -3.28666598e-01 +1.84860483e-01 -7.76821494e-01 -1.02389610e+00 -4.55701828e-01 +4.54142034e-01 +4.24224347e-01 -7.87232444e-02 +2.07383707e-01 +1.10185452e-01 -4.55351800e-01 +3.26199867e-02 -1.41469777e-01 +2.81335384e-01 +7.27044493e-02 +6.97703585e-02 -1.06133744e-01 +2.67425537e-01 -8.50084350e-02 +1.60722807e-01 +8.43968168e-02 -1.35206044e-01 -3.99021357e-01 +3.21472466e-01 +3.35194439e-01 +1.10730976e-01 -5.36006629e-01 +1.42244950e-01 -2.36826345e-01 -1.98236048e-01 -2.61463195e-01 +3.20885032e-01 +1.79769859e-01 -7.41250440e-02 +1.70001373e-01 +3.32844397e-03 +6.78359032e-01 -5.01032285e-02 +4.07386899e-01 +5.54405987e-01 +3.77433509e-01 +1.22934945e-01 -1.32970497e-01 -6.77157998e-01 +1.87843535e-02 -9.90687370e-01 -2.71110743e-01 +1.93147406e-01 +5.56319237e-01 +9.31297615e-02 +5.78182042e-01 +1.25295386e-01 -2.96087176e-01 +7.77062058e-01 +3.83475929e-01 -1.08668359e-03 +2.80917972e-01 -6.39366284e-02 -1.35183513e-01 -1.19950759e+00 -1.03543115e+00 -2.67717481e-01 -6.84682727e-01 -3.84250432e-01 -1.92202866e-01 +3.85554969e-01 +2.38422409e-01 +5.49603440e-03 -5.70020199e-01 +2.62167782e-01 -7.29479268e-02 -2.55024701e-01 -6.14918351e-01 -7.72181213e-01 -1.78885847e-01 -1.52059361e-01 -3.61174256e-01 -1.58320725e-01 +1.17931575e-01 +9.04174075e-02 +2.58675694e-01 -5.86388120e-03 +2.48543099e-02 -5.19822352e-02 +9.72069129e-02 +2.18371719e-01 +1.88165888e-01 +5.96472025e-02 -2.67408550e-01 -2.40452327e-02 -2.66511410e-01 +1.47945806e-01 -1.97800681e-01 +4.13968474e-01 -7.07123056e-02 +4.85084802e-02 -1.21880069e-01 +3.82272720e-01 +2.22119451e-01 -2.24414885e-01 +4.62895572e-01 +1.63222432e-01 +1.59289718e-01 +2.68685877e-01 +1.06915534e+00 -1.23025782e-01 -5.41294932e-01 -5.24080217e-01 -5.28236628e-01 -4.48257416e-01 -1.40201569e-01 +2.60434508e-01 -1.19373691e+00 -8.13887641e-02 +7.36655295e-02 -1.69750977e+00 -2.68236065e+00 +1.42028391e+00 +1.10549259e+00 -5.03276527e-01 +7.30040669e-02 -1.10045481e+00 -9.43162292e-02 -9.20559764e-01 -4.65456247e-01 +3.83403420e-01 -4.42558110e-01 +6.78525120e-02 -2.57618099e-01 -3.79337907e-01 -5.34736402e-02 -6.10354133e-02 -3.47069919e-01 +1.44343883e-01 +2.54984856e-01 +1.28399944e-02 -3.29860002e-02 -3.21234673e-01 -5.12492191e-03 -1.26688525e-01 -3.27411652e-01 -7.47828633e-02 -9.30325910e-02 -5.11647649e-02 +9.05237377e-01 +1.72835708e-01 +1.09227940e-01 -5.49503803e-01 -1.36015654e-01 +2.92767256e-01 +1.20784380e-01 -3.87347564e-02 +1.01161361e-01 +1.49783909e-01 +2.35290825e-02 -1.92302898e-01 -4.42785144e-01 +1.10148735e-01 +1.80358857e-01 +1.71900362e-01 +4.79063898e-01 +2.58434862e-01 +8.56639147e-02 -4.40971442e-02 +2.56056637e-01 -8.28864202e-02 +1.30909219e-01 +6.26085103e-01 +4.70614284e-01 -3.34580056e-02 +7.59556517e-02 +1.40418515e-01 -3.14608276e-01 -6.97433829e-01 -7.07382917e-01 +5.37459962e-02 +6.03216469e-01 +3.73327225e-01 -1.90701708e-01 +9.91897434e-02 -7.18879998e-01 +3.93031567e-01 +6.16857171e-01 -1.10685325e+00 +1.20636232e-01 -2.17089832e-01 +3.00589859e-01 -8.81936073e-01 -6.46675050e-01 -1.24499165e-01 -5.59213161e-01 +1.78179383e-01 -5.39592132e-02 +1.09459899e-01 +1.52709973e+00 +3.50919843e-01 +1.84078664e-01 +4.15366471e-01 -1.27277225e-01 -4.05031115e-01 +2.19397992e-02 +6.26880676e-02 +5.11564165e-02 -2.76865631e-01 -1.80291995e-01 -1.96117863e-01 +1.72855526e-01 +3.11612356e-02 -2.97580212e-01 +1.44608766e-01 +1.22937016e-01 +1.04479623e+00 +1.84534371e-01 +5.58016181e-01 +4.87044275e-01 +1.77293375e-01 -9.47465897e-02 -1.91693366e-01 +9.44989249e-02 -4.48963016e-01 -8.05377662e-01 -2.49599367e-01 -6.65169582e-02 -3.27727467e-01 -3.24383438e-01 -5.92557751e-02 -1.13325469e-01 +2.04742298e-01 -6.05955184e-01 -1.49788707e-01 +1.36237651e-01 -2.55009979e-01 +9.47396010e-02 +3.96807075e-01 -3.22331995e-01 +2.08876565e-01 -1.19644666e+00 +1.10833228e-01 +5.16724765e-01 +1.12984948e-01 -2.14517206e-01 -4.47667688e-01 +5.08380607e-02 -5.34806609e-01 -4.51292664e-01 +7.01729298e-01 +1.84843346e-01 +7.02579260e-01 -1.12776197e-01 +2.26344153e-01 -1.11279474e-03 +7.48207390e-01 +1.88340497e+00 -5.70407093e-01 +8.50149095e-02 +1.49445564e-01 +2.42031261e-01 +8.86099786e-03 -3.80922884e-01 +3.65578085e-01 +6.69471741e-01 +1.62742287e-01 -1.10901020e-01 +1.46479785e-01 -3.69984517e-03 +1.62591726e-01 +7.87270188e-01 +8.99166092e-02 -4.37634774e-02 +2.89600581e-01 +4.25730124e-02 +1.40520707e-01 +2.09214821e-01 +2.83192545e-01 -1.30560294e-01 -2.06951186e-01 -2.56067783e-01 +3.37924629e-01 +8.03878084e-02 -2.05113724e-01 -2.00412907e-02 -6.54132366e-01 -8.61406997e-02 -2.85829514e-01 -2.87792712e-01 +7.92359948e-01 -2.94901520e-01 -6.17821217e-02 +5.01274645e-01 +3.12285751e-01 -6.51676297e-01 -2.26206430e-05 +6.47501469e-01 -1.68655068e-01 +5.61646461e-01 -3.93703461e-01 -2.23800972e-01 +2.07377762e-01 +9.49025393e-01 -3.20529044e-01 -1.65764287e-01 +6.83534205e-01 -2.95325160e-01 +1.77718289e-02 +6.39386594e-01 +2.30083197e-01 -1.19695984e-01 -2.65348032e-02 +4.40784469e-02 -3.81404728e-01 +3.10481817e-01 -9.10339832e-01 -6.30169034e-01 +1.55793726e-01 -2.62735128e-01 -7.52018154e-01 +4.35441434e-02 +3.34383518e-01 -5.11901617e-01 +6.00422323e-01 -3.92071724e-01 +6.88945353e-02 +6.31043017e-01 +9.30066630e-02 +1.14651442e+00 -9.78456587e-02 +2.98569471e-01 -3.58774811e-02 -4.02445406e-01 -3.12918901e-01 +3.81075703e-02 -1.35994196e-01 +2.95346260e-01 -1.54714078e-01 +5.24728179e-01 -2.41497874e-01 -6.45871937e-01 +2.23808475e-02 -5.89398667e-02 +6.83339477e-01 +6.93384409e-01 +7.64262080e-02 +1.41233414e-01 -9.27405804e-02 +9.46953952e-01 -4.42671329e-02 +2.16652125e-01 -8.61993551e-01 -5.55230752e-02 -3.28770965e-01 +1.84818894e-01 -6.55239522e-01 -2.46530503e-01 +1.79183781e-01 +1.66388955e-02 +2.42817774e-01 -1.84720024e-01 -2.36519024e-01 +1.01873860e-01 +3.49907726e-01 -3.64637434e-01 -3.83372307e-01 +5.47321737e-01 +7.76791275e-01 -7.32514560e-01 +4.08107221e-01 -1.65858702e-03 +9.01941434e-02 -1.98597357e-01 -1.30053580e-01 -1.00514436e+00 -5.43090880e-01 +3.43431979e-02 -1.63195169e+00 +1.74702495e-01 -4.86258686e-01 -5.01717269e-01 +1.88942575e+00 +3.50936502e-01 +1.03769457e+00 +3.44912820e-02 +6.64252937e-02 +1.17159739e-01 -5.33266604e-01 +1.63653225e-01 +3.37204337e-02 +2.50267148e-01 +3.74471515e-01 +1.50566787e-01 -4.57519770e-01 -4.23615992e-01 +4.57485579e-02 +4.26548839e-01 +3.67758036e-01 +8.70750472e-02 -3.38029079e-02 +5.35156667e-01 -3.46333653e-01 -2.94196457e-01 -7.25518316e-02 +9.45026651e-02 -1.60588231e-02 +4.72946726e-02 +2.34415233e-02 -1.47242561e-01 +3.39405775e-01 +1.66262209e-01 -2.32316151e-01 +4.02340263e-01 -5.02627268e-02 -2.07097288e-02 +7.32145309e-01 -3.26205641e-01 +6.83835030e-01 -1.02889113e-01 +8.39916989e-02 -3.78219992e-01 +8.51430520e-02 +5.92614412e-01 -5.74915037e-02 +3.19604605e-01 +3.74711543e-01 +4.37112540e-01 -2.56921500e-01 +2.03158270e-04 -4.39603180e-01 +2.09365815e-01 +7.98765659e-01 +4.13257807e-01 -2.83979833e-01 -5.46727367e-02 +7.18666390e-02 +2.08768472e-01 +3.90319526e-01 +2.62664016e-02 -3.29203427e-01 +5.62573612e-01 +3.71177256e-01 +3.16705376e-01 +3.13175609e-03 +4.80431080e-01 -4.22929704e-01 +4.05680120e-01 -8.84874642e-01 -1.42481148e+00 +4.02342647e-01 +2.43672952e-01 +1.15955755e-01 +2.88784862e-01 +3.06750596e-01 +1.74580112e-01 -2.92769462e-01 -9.21585083e-01 -2.44851932e-01 +9.81458873e-02 -1.29435465e-01 -1.98141366e-01 -4.45310503e-01 -5.29363096e-01 +5.91476977e-01 -4.25443411e-01 +5.12467206e-01 -1.88981980e-01 -3.60633135e-01 -1.01959832e-01 -2.19091237e-01 +1.63254306e-01 +1.10992305e-01 +3.32063762e-03 -9.46552753e-02 -9.39386860e-02 -3.60066779e-02 +4.09206301e-01 +7.71421194e-01 -2.72077441e-01 -6.71859905e-02 +7.63257444e-01 -4.63374496e-01 +1.50566176e-01 +1.38831064e-01 +2.26457641e-01 +2.11926252e-01 +1.38335869e-01 +1.30842969e-01 -3.22878920e-02 -3.27243581e-02 -6.84563160e-01 +6.38994455e-01 +2.13386461e-01 +4.22378965e-02 -1.13181144e-01 +7.31699646e-01 +9.32265759e-01 -7.35055387e-01 +5.85100770e-01 -3.88252109e-01 +1.08662570e+00 -2.16137499e-01 -5.93617082e-01 +2.47815371e-01 +1.62341130e+00 -3.82554859e-01 -5.32936096e-01 +4.28047299e-01 -3.38797420e-01 -5.14082499e-02 +3.52921873e-01 +5.03576577e-01 -1.09825766e+00 +3.89844984e-01 -3.14614661e-02 -1.05189115e-01 -1.19789625e-02 +2.09674686e-01 -1.67291403e-01 -6.26742005e-01 -2.05569923e-01 -6.90740466e-01 +1.60409361e-01 -5.32787681e-01 +1.34061313e+00 +1.99063450e-01 +2.57352471e-01 -2.46375538e-02 +3.62890750e-01 -1.21104792e-01 +1.09495796e-01 -3.65905583e-01 -6.91521168e-01 +2.17666961e-02 +1.79014429e-01 +7.64400840e-01 +2.10362241e-01 +1.37456208e-01 +2.47038510e-02 +1.18582956e-02 -2.33212486e-01 +2.11686507e-01 +2.88029671e-01 -1.49578363e-01 +6.45461917e-01 -3.25856775e-01 -9.29549336e-03 +2.89332420e-01 -2.79100835e-01 -4.21591988e-03 -1.16686307e-01 -4.77896146e-02 -5.09207666e-01 -3.37978363e-01 -2.04692170e-01 -2.66463399e-01 -5.31982720e-01 -1.68369472e-01 +2.18602031e-01 +5.03167212e-01 +6.42736197e-01 +8.77839506e-01 +1.17394149e+00 -4.47418332e-01 -2.71897674e-01 +3.40464897e-02 -7.52190590e-01 -2.48118505e-01 -4.27903503e-01 -4.80497450e-01 -1.00081444e+00 -2.54398465e-01 -1.46232992e-01 +3.86590272e-01 +9.15092230e-03 -9.85393703e-01 +3.13924640e-01 -5.50245903e-02 +3.22633743e-01 -1.06766233e-02 +6.26975000e-01 +2.90114701e-01 +3.31137516e-02 -1.69233799e-01 +5.36013722e-01 -8.31099972e-02 -7.04939425e-01 +2.62235492e-01 -6.68585658e-01 +1.82368577e-01 -2.41716936e-01 +1.87699214e-01 +8.89419258e-01 +1.26457006e-01 +1.08865304e-02 -2.01864198e-01 +2.11275429e-01 +1.56121388e-01 +1.02415364e-02 -7.14538634e-01 -3.47584546e-01 -7.91055933e-02 +1.39517471e-01 -9.94359180e-02 -6.58914000e-02 +2.61455178e-01 -7.98388779e-01 +5.08575588e-02 -1.25935137e-01 +4.44105864e-01 -1.44169867e-01 +2.11835444e-01 +9.73041207e-02 +2.41757691e-01 +1.05506994e-01 -2.71919966e-02 +6.07933998e-01 +2.21129298e-01 +2.21658960e-01 +2.07401484e-01 +9.99405682e-01 +3.13773334e-01 -4.45581824e-01 -3.23960394e-01 -7.07106948e-01 -1.50958374e-01 -1.83826849e-01 +8.71496797e-02 -9.51464474e-02 -3.45840938e-02 +1.38993606e-01 -1.24520969e+00 -1.45367694e+00 +9.68451500e-01 +6.70436978e-01 +6.15488738e-02 -6.75471276e-02 -1.38391781e+00 -1.43092409e-01 -4.16157871e-01 -8.27769220e-01 +6.70208335e-01 -2.33662635e-01 -7.23352358e-02 -7.59985209e-01 -1.10841036e-01 -3.06362957e-01 -9.94831398e-02 -4.71414000e-01 +4.00775447e-02 +2.48903319e-01 +2.19240617e-02 +2.15916559e-01 -8.71289372e-01 +7.77790472e-02 -7.43569136e-02 -2.78884232e-01 -1.70176789e-01 +5.76840639e-02 -3.26976955e-01 +5.00583231e-01 +1.25126541e-01 +4.70584109e-02 -3.82863373e-01 -1.23437323e-01 +6.20737672e-01 +9.43085402e-02 -8.17724019e-02 +2.08898231e-01 +5.80151640e-02 -2.23027498e-01 +7.25347638e-01 +3.07384402e-01 +9.78925601e-02 -2.45595977e-01 +3.72175455e-01 -1.21781662e-01 -3.29253785e-02 -3.66471559e-01 +8.72132778e-02 +2.95604885e-01 -2.74241537e-01 -2.50529107e-02 +1.21728905e-01 +7.45046437e-01 +6.72770217e-02 +3.30979466e-01 -6.27437353e-01 -1.96003601e-01 +6.18948460e-01 -2.20154375e-01 +1.31353466e-02 -1.08132744e+00 -5.99306107e-01 -3.13180238e-01 -6.37579799e-01 -9.52097178e-01 +6.55629814e-01 +5.88525176e-01 +2.72923000e-02 -2.65229717e-02 +8.13683212e-01 +6.90945163e-02 +4.45367783e-01 +4.69389766e-01 +3.76801163e-01 -2.79741678e-02 +2.34880909e-01 -2.91072160e-01 +4.25936766e-02 -3.06392848e-01 -1.75488189e-01 -2.00645432e-01 +7.15673566e-01 +8.69001329e-01 +1.38956085e-01 +4.66591753e-02 -1.35713620e-02 -9.93075669e-02 -1.09096676e-01 -6.38192296e-02 +1.44797593e-01 +7.39861652e-02 +1.52052805e-01 +4.36188757e-01 +2.62760699e-01 -4.12646607e-02 -7.06141293e-01 -4.19661961e-02 -2.02988446e-01 -2.16030210e-01 +9.67194960e-02 +6.66792095e-02 +4.71134186e-02 
#Parameter# /vanilla-lstm-builder_1/_1 {64,16} 16385 ZERO_GRAD
+8.56432617e-02 -1.54358283e-01 -4.70662892e-01 +7.35835850e-01 -1.14887083e+00 +3.17109436e-01 +3.36371541e-01 -6.31373823e-01 +3.14679176e-01 -1.59827173e-01 -7.42690563e-01 -8.08909908e-02 +5.88695938e-03 -1.29909754e-01 -3.82192940e-01 +1.47940978e-01 +1.24381757e+00 -9.40897912e-02 -5.03592715e-02 +3.89704585e-01 +8.68390083e-01 +1.93677652e+00 +5.54331601e-01 -1.20754445e+00 +1.59436560e+00 -7.26843998e-02 -2.86253363e-01 -1.30057013e+00 +4.19150352e-01 +3.80286187e-01 -1.60792992e-01 +3.85443605e-02 +8.53127182e-01 +1.96498662e-01 +3.16644162e-01 -5.36352634e-01 -1.58293888e-01 +2.34021336e-01 -4.77828413e-01 +1.82524943e+00 -1.58571720e+00 -3.81742090e-01 -1.00424099e+00 -7.50459373e-01 -8.66964698e-01 -6.49528921e-01 -4.68929440e-01 +4.72499937e-01 +5.24321616e-01 -9.58892107e-01 +5.11531174e-01 +6.38820171e-01 -1.85350195e-01 -3.30657661e-01 +7.74865001e-02 -8.11261058e-01 +5.90090491e-02 +5.63735329e-02 -4.82161880e-01 +9.05362517e-03 -7.35109687e-01 -1.45572186e-01 -3.98985833e-01 +1.10250339e-03 +5.91799736e-01 +4.87690896e-01 +5.00787616e-01 -9.31886613e-01 -1.50836959e-01 +2.28099301e-01 +5.62715471e-01 +3.88105899e-01 +7.59983659e-01 +1.42339051e+00 +6.86070442e-01 +9.44336057e-02 +1.49747527e+00 +7.03399897e-01 -1.84341848e+00 +7.28842020e-01 -9.98533666e-01 +1.11555362e+00 -2.22034335e+00 -9.43532586e-03 +7.88465083e-01 -1.00604844e+00 -6.88124180e-01 +8.34608674e-01 +2.45958984e-01 -1.28725672e+00 -7.43458092e-01 +1.83417603e-01 -1.38829112e+00 -5.05627751e-01 +1.15945101e-01 -4.23657954e-01 +1.65863299e+00 -1.89319834e-01 -3.09049219e-01 -1.26063555e-01 -6.23376481e-02 +4.51810434e-02 +1.51698160e+00 +2.29891673e-01 +9.52096045e-01 +7.70629644e-02 +2.32252672e-01 -1.18545985e+00 -1.83849737e-01 +1.07116663e+00 -2.28149116e-01 +3.39349359e-02 +2.49490440e-01 +1.28294945e-01 -6.59220144e-02 +1.76283792e-01 -3.76990944e-01 -4.95054163e-02 -2.50650167e-01 +4.72311497e-01 -6.55498952e-02 +3.72977816e-02 -1.26322061e-01 +3.80651772e-01 +6.30760670e-01 +9.77135375e-02 +8.36118698e-01 -6.64903164e-01 -4.00890410e-01 -6.52415752e-01 -5.10435224e-01 -1.65122712e+00 -9.27036166e-01 +3.57691795e-01 -7.47834444e-01 +8.87769639e-01 -1.25358450e+00 +5.52595615e-01 -3.83484036e-01 +3.46692324e-01 +1.86999559e+00 +9.82318163e-01 -8.99626732e-01 +1.70216754e-01 +7.05980718e-01 +6.65757298e-01 +5.85590065e-01 +3.00521761e-01 -8.44111323e-01 +1.10583925e+00 +1.54446527e-01 +1.86098099e-01 +5.92785887e-02 -3.84019092e-02 +5.16238697e-02 -5.14671981e-01 -2.31312998e-02 +3.08087885e-01 -8.57799724e-02 -5.91533244e-01 -5.36005795e-01 +5.02662301e-01 -8.19797397e-01 +1.21277787e-01 -4.95597601e-01 +5.37803948e-01 +7.69053578e-01 +1.96154642e+00 +5.10994792e-02 +5.71976304e-01 -2.78997779e-01 -7.43051052e-01 +1.28256035e+00 -3.11537653e-01 -2.06610691e-02 +3.70490849e-02 -4.38511819e-01 -4.69393760e-01 +3.55011582e-01 -6.49853230e-01 -6.40640128e-03 +8.70099068e-01 -3.52323443e-01 -2.17286199e-01 +8.36883336e-02 -1.32589921e-01 +1.50983125e-01 -3.77717376e-01 +4.36974585e-01 -8.91319633e-01 +1.86298996e-01 +1.53013080e-01 -9.40785185e-02 -5.87428033e-01 +5.84364355e-01 -2.54912615e-01 -1.70815855e-01 -1.33944404e+00 +3.29361409e-01 -1.73690125e-01 +3.88426393e-01 +7.10354328e-01 +5.60099423e-01 -6.71959996e-01 -1.68995306e-01 +6.54559374e-01 -3.06513533e-02 +4.68599111e-01 +1.42076743e+00 +4.52046990e-01 +1.04855227e+00 +9.12072897e-01 +1.89761847e-01 +9.92651060e-02 -1.25005856e-01 +3.25554043e-01 +6.46764815e-01 -3.86801332e-01 -3.00537914e-01 +5.48669577e-01 -5.10471344e-01 +1.05832362e+00 -7.26944029e-01 -1.67304203e-01 +1.20769620e+00 -6.70881867e-02 +2.19580913e+00 +5.53845279e-02 +6.35738611e-01 -7.87004888e-01 -4.85852182e-01 -1.01221824e+00 -5.86588681e-01 -1.24440141e-01 -2.75697410e-01 +5.29125452e-01 -3.33768129e-01 -4.60848004e-01 +9.39510167e-01 -5.84940195e-01 -4.58060086e-01 +2.31637865e-01 +9.43949699e-01 +7.98524797e-01 -2.55113035e-01 -2.61112422e-01 +1.62463877e-02 +1.03621984e+00 +7.42343739e-02 +1.48630505e-02 +5.20428196e-02 +7.44576693e-01 -3.09432626e-01 +3.11988026e-01 +5.00501096e-01 -4.93229896e-01 +7.38964915e-01 -6.32559717e-01 -1.03153849e+00 -2.65173435e-01 -1.87599802e+00 +6.57641590e-01 -3.21737915e-01 +5.24219096e-01 +1.63953558e-01 -1.69981992e+00 -5.38890600e-01 +7.35133886e-02 -9.67502475e-01 -1.12437499e+00 -4.26477104e-01 -7.69170523e-01 -4.34384257e-01 -9.63347256e-01 -1.23728895e+00 -5.72720528e-01 -6.01698697e-01 -5.05662143e-01 +1.59768417e-01 +1.20532058e-01 -3.26313168e-01 +3.63586433e-02 -4.91138905e-01 +7.52798468e-02 -4.36815172e-01 -1.01109409e+00 -1.48950076e+00 -8.29242468e-01 -1.07158673e+00 -2.33430803e-01 -1.05409825e+00 -6.05802834e-01 -8.30650806e-01 +5.61931551e-01 -6.12279356e-01 -3.96258175e-01 -3.86075735e-01 -1.46194220e+00 -1.42662573e+00 +6.61925375e-01 -1.32377386e+00 -2.49733284e-01 -1.07124937e+00 +6.84442043e-01 -9.09635186e-01 -1.18213797e+00 -7.66095102e-01 -4.61438209e-01 -1.72284782e-01 +2.99456537e-01 -2.23473638e-01 +2.85575420e-01 +1.87730759e-01 -4.04663086e-01 -5.17549455e-01 +8.00226629e-03 +2.85499380e-03 +1.18732262e+00 -8.65738094e-01 +1.08375108e+00 +1.19658909e-03 -8.84904087e-01 -6.46124408e-02 +8.84960175e-01 +9.77935493e-02 +1.23325968e+00 +2.42249441e+00 +3.43077064e-01 +3.39262694e-01 +1.19808030e+00 +6.30991459e-01 -4.09579426e-01 -9.94986236e-01 +1.20188582e+00 +7.54765689e-01 +1.02980399e+00 +6.48613334e-01 -4.01038304e-02 +6.41910493e-01 +3.65808994e-01 -1.16680050e+00 +4.74048287e-01 -7.52516165e-02 +7.87463665e-01 -5.10593057e-01 -2.75391221e-01 +3.31037134e-01 -6.33470528e-03 -1.18114972e+00 +1.30831337e+00 -6.10796630e-01 -9.91888717e-03 -1.06595218e+00 +5.20150244e-01 +6.42786324e-02 +1.40739477e+00 +7.07367301e-01 -2.11390376e-01 +1.98157883e+00 +2.93422103e-01 +1.29392326e+00 +1.75566649e+00 +1.56270695e+00 -6.31966650e-01 +1.57572877e+00 +4.20444250e-01 +1.00403798e+00 +1.58641315e+00 +8.25162232e-01 -7.19400346e-01 -1.03018963e+00 +9.42318022e-01 +7.06833005e-01 +2.56587088e-01 +4.02943581e-01 -4.20814872e-01 +3.37200128e-02 -1.80752128e-02 +3.84643763e-01 +5.54987788e-01 -1.97015136e-01 -6.84524417e-01 +4.55058455e-01 -4.61836495e-02 -1.06105439e-01 +3.04113269e-01 -4.64807063e-01 -6.74833775e-01 +2.82508075e-01 -8.20897147e-02 -1.49871933e+00 +4.55008715e-01 -4.48808610e-01 -8.60592484e-01 -6.84409022e-01 -9.51248109e-02 -1.79223168e+00 -9.18750823e-01 +8.33037794e-02 -1.52521431e+00 -7.14774609e-01 +2.30454840e-02 -3.19431663e-01 +3.99804078e-02 +7.28532076e-01 -3.92079532e-01 +1.13636576e-01 +6.14362299e-01 -3.14887643e-01 -2.69965678e-02 +4.91263330e-01 +7.46112108e-01 +9.27439690e-01 +1.68669790e-01 +2.89396197e-01 +6.24167681e-01 +5.76140046e-01 -2.75203884e-01 +2.85094678e-01 +2.81652004e-01 +4.86919880e-01 -8.93807411e-01 -1.26592651e-01 -1.23392895e-03 -2.98629224e-01 +3.12894940e-01 -2.41069004e-01 -2.50052929e-01 -1.04019976e+00 +1.52658969e-01 -3.21827978e-01 -8.54658410e-02 -6.70161545e-02 +4.07970279e-01 -7.65873671e-01 -9.39188480e-01 +7.00724497e-02 -9.87673700e-02 -1.12321161e-01 -1.29617453e-01 -3.48130107e-01 -5.56006208e-02 +2.21348390e-01 +1.85961187e-01 -3.16253394e-01 +9.10608530e-01 -7.89391518e-01 -1.13172762e-01 -6.41724914e-02 -6.61167741e-01 -1.10533798e+00 -9.55581546e-01 -9.35488284e-01 -9.97254312e-01 -4.50001732e-02 +1.37975421e-02 -5.90011954e-01 +7.38499105e-01 +7.27812588e-01 -2.44061098e-01 +3.42222065e-01 +9.94929969e-01 -1.23061979e+00 -1.73541367e+00 -1.19830716e+00 +7.00767100e-01 +6.09216988e-01 +3.93489569e-01 +2.62082785e-01 +8.48315299e-01 -3.45087498e-01 +1.40478945e+00 -5.14272690e-01 -1.80850595e-01 +2.62059152e-01 -2.36510113e-01 -2.92919517e-01 -2.55141228e-01 -9.19986427e-01 +6.72352791e-01 +8.49942505e-01 +2.55480826e-01 +5.67773998e-01 +8.26520026e-01 +9.16948318e-01 +6.19543195e-02 +1.65214479e+00 +7.87448324e-03 +1.38641775e+00 +3.66207808e-01 -4.65230495e-02 -7.99401760e-01 -6.81610584e-01 +7.10351288e-01 -3.62906039e-01 +3.19626361e-01 -2.93251187e-01 +5.62940598e-01 -4.40123379e-01 +7.73234129e-01 -2.54810099e-02 +4.50391382e-01 +1.37026608e-01 +4.50111777e-01 -1.29471555e-01 +2.04372212e-01 +2.08864525e-01 +4.91202414e-01 +1.02157521e+00 -1.36745965e+00 +2.77584016e-01 +8.29980224e-02 -4.09858376e-01 +5.98283648e-01 -3.69966626e-01 -8.79115939e-01 -5.07949591e-01 +1.50655046e-01 +1.26446617e+00 -5.03655896e-02 -5.51500684e-03 +1.21201909e+00 +9.37162042e-01 -7.36620843e-01 +2.64158082e+00 -1.28729701e-01 +2.55449557e+00 +9.30217147e-01 +7.03729331e-01 -2.09466219e-01 +9.98504579e-01 -3.94096971e-01 +1.40147865e+00 +9.93865669e-01 -3.57418656e-01 -4.33046252e-01 +8.06222260e-01 -2.47096568e-01 +2.94365525e-01 -4.80953097e-01 -5.16604006e-01 +4.52044904e-01 +1.16181779e+00 +7.60562718e-01 +3.43705207e-01 +4.01088029e-01 +3.01375389e-01 +2.47304663e-01 +2.26340979e-01 +2.19169593e+00 +6.02032363e-01 +1.30691874e+00 +7.58671641e-01 +3.03963423e-01 +5.25195956e-01 -6.06455319e-02 +2.06107569e+00 -6.06955290e-01 +1.40413821e-01 -7.79907763e-01 +3.83321553e-01 +3.16559494e-01 +1.13174546e+00 +1.10926425e+00 -1.95219612e+00 +2.15587839e-01 -2.48849057e-02 +2.36672178e-01 +6.71396732e-01 -2.14008808e-01 +3.11437339e-01 -1.60301849e-01 +2.39370465e-01 -1.76816094e+00 +1.79122970e-01 -4.21910673e-01 -3.79397482e-01 -4.36920263e-02 -1.65097248e-02 +1.54890192e+00 +3.82570654e-01 +2.62295622e-02 +1.81336045e+00 -1.03255756e-01 +3.08932960e-01 +4.77228224e-01 +8.40977967e-01 +1.87150443e+00 +1.01624191e+00 +1.13189101e+00 -2.71122961e-04 +6.22578323e-01 -6.51909590e-01 -1.84594706e-01 -1.32038224e+00 +6.67930782e-01 -6.03162229e-01 +2.53086627e-01 -3.19363981e-01 -3.97052526e-01 +1.39684916e-01 -8.11524168e-02 -5.93456686e-01 -2.65187114e-01 -2.08973378e-01 -2.66195774e-01 +2.58948117e-01 -3.69401872e-01 -6.86113298e-01 +3.69083971e-01 -7.19594717e-01 +3.69079076e-02 +4.39800769e-01 -9.87672359e-02 +4.60957736e-01 -4.12425011e-01 -7.51614124e-02 +5.19939840e-01 +1.14401245e+00 -3.96026134e-01 +7.79694498e-01 -4.48591076e-02 +4.82531428e-01 +7.60275245e-01 -5.13788164e-01 +3.44546497e-01 -3.34136754e-01 +1.53998449e-01 -1.73194140e-01 +1.37087494e-01 +3.78421903e-01 +3.22565258e-01 -2.40022868e-01 -4.10046726e-01 -3.58682871e-02 -6.19387805e-01 +8.49247456e-01 +1.01621943e-02 +9.41074431e-01 -3.21412265e-01 +6.16499543e-01 +2.30152756e-01 +6.52630210e-01 +1.34627652e+00 +4.19700444e-01 +9.40025508e-01 +1.70735371e+00 -1.10103697e-01 -8.91531408e-02 +1.58694476e-01 +1.31102419e+00 +5.34606539e-02 +5.71952522e-01 +1.03620398e+00 +1.04060841e+00 -7.36703798e-02 -5.73253274e-01 -1.63424656e-01 -6.30497813e-01 -5.42972147e-01 +2.60562122e-01 +7.93590546e-01 +5.74832320e-01 +3.49633962e-01 +1.12380290e+00 -3.79240930e-01 +2.21185088e-01 +6.83936179e-01 -1.50482476e+00 -2.78729737e-01 +4.15583253e-01 +1.05100298e+00 +7.28833556e-01 +1.83948845e-01 +1.26171279e+00 +6.03206396e-01 +1.06369472e+00 +6.75240636e-01 +5.24910748e-01 +6.88366294e-01 +8.50294888e-01 -1.59515834e+00 +3.36847991e-01 -7.05731988e-01 +2.09013748e+00 -9.46009457e-01 -5.89928031e-01 +1.14525294e+00 +6.24778092e-01 +1.44609034e-01 +2.02197745e-03 +2.03386903e-01 -2.53195047e-01 +3.75396460e-01 -4.06983979e-02 +1.08269513e+00 +8.95220339e-01 -5.23554645e-02 -3.20266545e-01 -1.97261944e-01 +1.74207175e+00 -7.65849710e-01 +4.69708353e-01 -2.27745384e-01 +7.51614809e-01 +8.79382610e-01 +4.50880677e-01 +3.15535575e-01 -1.21294774e-01 -1.14146866e-01 -9.11980093e-01 -2.83402860e-01 -9.75209773e-01 -4.45512146e-01 +4.93072987e-01 +2.92620707e+00 +2.56697267e-01 -5.65136254e-01 -7.71984160e-02 -7.39913225e-01 -1.58464253e+00 +1.22743404e+00 -5.95907867e-01 +1.73151052e+00 +6.27943635e-01 -4.89715457e-01 +1.50531053e-03 +1.96130443e+00 -2.05914289e-01 +8.22157919e-01 +2.50556897e-02 +8.00126255e-01 +2.15607095e+00 -8.14569414e-01 -1.32717550e+00 -5.90406120e-01 +3.78596753e-01 +7.48354122e-02 +2.17002845e+00 -3.97743374e-01 +3.19622427e-01 +2.22338891e+00 +3.69075298e-01 +8.73883724e-01 -1.74325359e+00 -5.16299009e-02 +6.17554830e-03 +1.60735893e+00 -5.65324306e-01 -5.58541596e-01 -1.93420982e+00 -4.53060269e-01 -5.20533562e-01 -1.11644343e-01 -3.50620031e-01 -3.11671078e-01 +8.80157888e-01 -4.25526086e-04 +2.72523940e-01 -4.28524464e-01 -1.51108646e+00 +5.37805855e-01 +3.78387541e-01 +1.06613837e-01 +2.80976832e-01 +5.00375070e-02 -4.20845032e-01 +8.68892133e-01 -1.42320609e+00 -3.56584564e-02 +4.70130086e-01 -6.22162998e-01 -8.66511285e-01 +6.70778394e-01 -4.70571697e-01 -1.67534375e+00 -1.00629103e+00 +9.50358212e-01 +1.13297880e+00 +1.06138062e+00 -3.19064677e-01 +1.70127675e-01 +1.87568033e+00 -6.44115508e-01 -5.15719414e-01 -1.12289131e-01 -4.15802240e-01 -1.21366930e+00 +3.11368734e-01 +1.19083118e+00 -2.30574057e-01 -5.83403669e-02 -4.27584022e-01 -7.63026550e-02 +5.38262501e-02 -6.77758530e-02 +2.33931363e-01 +1.93962961e-01 +1.53722060e+00 +5.59995711e-01 +2.36775488e-01 +7.93968558e-01 +5.38598597e-01 -2.03869790e-01 +2.56350011e-01 +1.77766252e+00 +8.36152494e-01 +1.25457942e+00 +5.95785141e-01 +6.54792964e-01 +7.41559088e-01 +9.34731543e-01 +2.40892723e-01 -1.17077720e+00 +1.20881319e+00 -3.25928181e-01 -3.18759412e-01 +1.62869915e-01 +2.07001008e-02 +1.83726817e-01 -7.97180474e-01 -2.41017386e-01 -9.80384052e-02 -1.70862049e-01 -7.49459505e-01 +2.74983495e-01 -2.18150795e-01 -3.30613703e-01 -5.72002470e-01 +1.17501602e-01 -2.06782922e-01 -1.55299425e-01 +2.03319758e-01 +7.32315481e-01 -9.26256835e-01 +1.28019542e-01 +3.42235297e-01 -1.82189181e-01 -9.65303108e-02 +3.97346228e-01 +1.71682999e-01 -1.49136829e+00 +3.97409603e-05 -7.32807755e-01 +1.05369724e-01 -1.14494324e+00 -2.41263047e-01 -1.07879329e+00 -1.22264421e+00 -8.96560907e-01 +4.06725317e-01 +2.59519458e-01 -5.70310116e-01 -1.54624557e+00 +3.83148342e-01 +1.42244264e-01 -1.21867263e+00 -3.88640046e-01 -1.57595083e-01 -6.85595930e-01 -7.32895851e-01 -1.14001274e+00 -6.08717129e-02 -4.95409518e-01 -1.57264900e+00 -3.62027943e-01 +3.37493241e-01 -8.30265641e-01 -3.37527454e-01 -1.31008685e+00 +1.01692259e-01 -9.88378406e-01 +6.58216551e-02 -3.18519443e-01 -5.53424358e-01 +3.94284546e-01 +5.98465264e-01 +3.86494398e-01 -5.33486307e-02 +3.25158745e-01 -5.72013795e-01 +3.46512258e-01 +5.58446705e-01 -1.91233009e-01 +7.57620215e-01 -4.52344507e-01 -4.09433916e-02 +9.58352387e-01 +3.96681428e-01 -2.62830500e-02 +5.02371371e-01 -7.38477349e-01 -1.19603133e+00 +3.71157557e-01 -2.00919598e-01 +8.02733004e-01 -1.86746567e-01 -7.87562609e-01 -4.62277353e-01 -6.92580819e-01 -2.20448375e-01 -1.61825478e+00 -1.74754262e-02 -3.80363435e-01 -1.39296427e-01 +1.07126021e+00 +1.23209012e+00 +5.73475435e-02 +1.43324852e-01 -9.58286345e-01 -4.37768549e-01 +2.95296252e-01 -8.23130310e-02 -8.15570414e-01 +1.07163124e-01 +5.56152407e-03 +6.17381155e-01 -2.86240280e-01 -1.63415093e-02 -1.41138196e-01 +3.58426064e-01 -4.58444446e-01 +2.54046405e-03 +2.83267498e-01 -4.43392426e-01 -2.44156227e-01 +5.25574505e-01 +9.43816066e-01 +2.67446280e-01 -1.70948654e-01 +1.14973748e+00 -7.38388300e-01 +7.81853318e-01 -1.47342825e+00 +9.09569204e-01 -1.67260274e-01 +7.99391031e-01 +9.04148042e-01 +3.89570117e-01 +1.53368735e+00 +2.47063488e-01 -1.69120833e-01 +1.07151997e+00 -6.19519591e-01 -4.63406071e-02 +8.71673465e-01 -3.06487322e-01 -1.19293578e-01 -5.90926290e-01 -1.14957958e-01 -1.23399124e-01 +6.98793292e-01 +7.63093382e-02 +2.50488907e-01 -1.16361454e-01 -1.00810969e+00 +7.10087836e-01 -1.11042611e-01 +4.54034805e-01 -8.33358467e-01 +4.44146067e-01 +2.04226691e-02 -9.14572850e-02 -5.83318055e-01 +4.89378661e-01 -4.74276900e-01 +7.89086893e-02 -2.10694164e-01 -2.44755879e-01 +1.42976880e-01 -9.39504743e-01 -1.85203469e+00 -1.66364729e+00 -1.55790269e+00 -4.15788451e-03 -3.64074498e-01 +1.12909609e-02 -5.54040194e-01 +9.13778186e-01 -4.64135855e-01 -1.62782776e+00 -1.55600548e+00 +2.95010895e-01 +1.73164666e-01 -1.50560772e+00 -8.09536688e-03 -2.04285488e-01 +4.96962309e-01 -3.01084876e-01 -5.19405484e-01 +4.05369967e-01 -9.23762843e-03 +4.09138173e-01 -1.45567071e+00 +9.08246696e-01 +5.51409125e-01 +9.97405201e-02 -7.18034685e-01 -4.25101757e-01 -1.86062837e+00 +1.10240087e-01 -4.33276296e-01 -9.17742550e-01 +5.21991611e-01 -2.08704367e-01 +4.42669123e-01 -4.28120941e-01 -9.39488292e-01 -1.12011850e+00 +1.75043747e-01 -8.26727629e-01 -1.00918031e+00 +8.34626436e-01 -6.18936896e-01 -1.00243874e-02 +1.64200082e-01 -1.12151408e+00 +3.23624834e-02 -1.22364096e-01 +3.74778271e-01 -9.04274940e-01 +5.37549973e-01 -1.59646943e-01 +5.03069460e-01 
#Parameter# /vanilla-lstm-builder_1/_2 {64} 1025 ZERO_GRAD
