#Parameter# /vanilla-lstm-builder/_0 {64,32} 32769 ZERO_GRAD
+1.67166471e-01 +2.48203543e-03 +5.69916144e-02 +2.81625211e-01 -4.47329223e-01 +5.59254646e-01 +1.83532029e-01 +6.16277829e-02 +1.90105978e-02 +1.26553088e-01 +1.08998135e-01 +2.01981086e-02 -2.13601992e-01 -7.73759335e-02 +6.82552680e-02 +1.73426077e-01 +8.37394059e-01 +5.07579669e-02 -3.29292417e-01 -1.11361407e-02 -6.02656186e-01 -3.47639136e-02 -8.13352913e-02 -3.95052880e-01 +3.17498833e-01 +5.61492026e-01 -5.49033225e-01 +6.79013491e-01 +4.63707596e-01 -1.56486183e-01 +1.71048880e-01 +5.01531601e-01 +1.00861502e+00 -3.86677027e-01 -1.64159447e-01 +7.45138600e-02 -5.59175074e-01 +2.42833406e-01 +5.87775946e-01 +8.49507526e-02 +2.21650988e-01 -3.62006336e-01 +6.18308075e-02 +8.97851050e-01 +4.36011761e-01 +1.46645442e-01 +1.33256763e-02 -6.69961497e-02 -6.28561080e-01 +5.64880133e-01 -1.18987307e-01 -1.34202585e-01 +5.64100929e-02 +1.03780679e-01 -3.28010440e-01 -1.08479843e-01 +2.26873577e-01 -2.74619926e-02 -2.59692430e-01 -3.60959351e-01 -6.15642145e-02 -1.02435097e-01 -1.02457285e-01 +1.35776401e-01 +2.19491851e-02 +7.80114457e-02 +1.09785175e+00 -2.86779970e-01 -6.75558597e-02 +4.73069996e-02 -1.32233202e-02 +2.83524513e-01 +1.73811957e-01 -1.25567809e-01 -1.15982518e-01 +7.10840570e-03 -1.98078528e-01 -1.32067408e-02 -1.85257524e-01 +2.20340341e-01 -9.42754805e-01 -4.94101673e-01 -1.05608881e+00 +1.41585678e-01 -8.28301385e-02 +6.90865934e-01 +2.30002165e-01 -5.89740314e-02 -2.03594476e-01 +9.56407562e-02 +1.08591187e+00 -8.00995171e-01 +4.12153631e-01 -1.38766244e-01 +5.00765681e-01 +9.34172869e-02 -6.69514775e-01 -2.66324818e-01 +4.57909405e-02 -5.68422258e-01 +1.23628035e-01 -5.33377118e-02 +2.14058891e-01 -7.22169995e-01 +8.37488949e-01 +7.12199986e-01 +9.91438404e-02 +5.39411128e-01 +2.48126499e-02 +3.73516411e-01 -1.13919443e-02 +6.17507041e-01 +2.03706443e-01 -1.20093435e-01 -7.63767898e-01 -1.33715302e-01 -4.89942878e-01 -2.94318736e-01 +8.16396177e-02 -9.06979945e-03 +1.38863504e-01 +3.84023190e-02 +4.74994838e-01 +2.18885541e-01 -1.39528634e-02 +7.46511668e-02 +2.24876910e-01 -3.49075883e-03 +7.76367262e-03 +3.24984714e-02 +6.06540859e-01 +9.25215185e-02 +1.48571312e-01 -9.30998325e-02 +1.92899890e-02 -5.80399819e-02 -1.00567482e-01 -2.40255982e-01 -2.52728194e-01 -6.46602139e-02 -2.23839805e-01 -2.58597523e-01 +3.45415682e-01 +3.16958368e-01 -7.82768965e-01 -9.24685821e-02 -6.09998554e-02 +1.28555328e-01 -1.10345411e+00 +7.56283462e-01 +5.24583697e-01 +1.81075871e-01 -8.19441397e-03 +1.81720257e-01 +9.43739593e-01 -7.18983412e-01 +2.82292545e-01 -4.32900339e-01 +4.57152873e-01 -1.50609240e-01 -2.91935354e-01 +4.70749080e-01 +1.83569804e-01 +3.64501700e-02 +3.08873475e-01 +2.54920185e-01 +5.30457616e-01 -3.38804543e-01 +4.58015144e-01 +5.64575076e-01 +3.44241947e-01 +2.66326308e-01 -7.81205446e-02 +4.74774033e-01 -7.68311173e-02 +4.23649937e-01 +2.14647818e-02 -3.22976589e-01 -3.79723579e-01 -7.24807978e-02 -1.09913146e+00 -4.55092430e-01 +5.36301024e-02 +3.00310422e-02 -1.23407543e-01 +5.55650368e-02 +4.91949707e-01 +1.20400324e-01 -1.10745046e-03 -8.72201025e-02 +5.78212976e-01 -2.61026710e-01 +1.86231852e-01 +8.91767442e-03 -9.75168310e-03 +4.63882804e-01 -2.69564837e-01 +7.23939359e-01 +2.12096855e-01 +2.35986989e-02 -3.92308384e-01 +8.89732093e-02 -7.04812035e-02 -6.24130405e-02 +1.25694647e-01 -9.42127705e-02 -2.23625168e-01 +2.07784504e-01 +1.00155592e+00 +1.86474472e-01 -4.27989751e-01 -4.24901217e-01 -2.41048634e-01 -1.93141863e-01 -7.11945817e-02 -4.93204772e-01 +3.06544423e-01 +2.23039448e-01 -7.12045133e-01 +6.81182981e-01 -1.39923185e-01 +4.88062166e-02 -4.67698872e-01 +3.46360177e-01 +1.86543214e+00 -2.26961970e-01 -1.61815315e-01 -1.47466063e-01 -1.87638044e-01 +2.13640928e-01 +4.55287993e-01 +2.81548440e-01 -4.91789103e-01 -1.31790125e+00 -3.26501250e-01 +3.16729099e-01 +3.27782556e-02 +2.35504612e-01 +1.81281835e-01 -2.74673235e-02 -7.37532496e-01 +4.04013157e-01 +8.29302985e-03 +1.29463142e-02 -6.10405691e-02 +1.79809898e-01 -2.62919128e-01 +1.12803899e-01 +5.89548312e-02 +2.55782735e-02 -6.82232305e-02 -1.70251441e+00 -3.93828414e-02 -1.88217595e-01 -8.09814855e-02 -1.25435784e-01 -4.30571944e-01 +1.14060402e-01 -1.43822163e-01 +2.81302959e-01 +9.66552496e-01 +2.08843932e-01 +9.68472809e-02 +1.74503192e-01 -2.12783948e-01 -2.64625430e-01 -4.09419954e-01 -3.21699440e-01 -2.84953058e-01 +2.36282319e-01 +1.64527223e-01 +3.38620543e-02 +4.42638099e-01 -5.29643781e-02 +1.54133111e-01 -4.70930664e-03 -4.20216084e-01 +2.19556764e-01 -1.10246144e-01 -1.66485041e-01 +1.30479306e-01 +2.06572473e-01 +2.25526601e-01 -3.46557498e-02 -6.85273349e-01 -6.92263365e-01 -2.15378925e-01 +1.70139015e-01 -8.56132507e-02 -6.81987047e-01 +2.45208696e-01 +6.35438144e-01 -1.46498857e-02 -1.51250288e-02 -1.09505892e-01 -5.69461465e-01 -8.80112469e-01 +6.64898679e-02 -3.44247878e-01 +9.03431922e-02 +1.08197831e-01 -1.53943789e+00 +9.66531783e-02 -5.66198230e-01 -1.04475021e-02 +6.19061254e-02 +2.08722174e-01 +2.45487407e-01 -1.71167955e-01 +6.66523427e-02 -7.00023398e-02 -1.43073127e-01 -6.85473680e-02 -4.24881250e-01 -2.04833597e-01 +1.19806506e-01 -8.80936608e-02 +6.91013485e-02 +6.30171299e-02 +6.90379143e-01 +2.31781807e-02 -8.48141834e-02 +1.90125749e-01 -3.75931621e-01 +4.11432803e-01 -1.46562040e-01 -3.33160877e-01 +2.45305806e-01 +9.26372036e-02 +3.75478923e-01 +1.33187085e-01 +2.64600635e-01 +2.74866790e-01 +3.27257782e-01 -1.03932212e-03 +9.59467292e-01 +7.11690784e-01 -3.54543298e-01 -1.04544270e+00 -6.16584241e-01 -1.57692656e-01 +1.80290923e-01 +6.98848665e-02 -9.35637116e-01 +1.70806974e-01 -6.97469950e-01 +8.73330951e-01 -9.66847390e-02 -1.40574050e+00 +7.34158382e-02 +1.18975274e-01 -4.75521982e-01 +4.79754865e-01 -1.37693727e+00 -1.34809434e-01 +4.72082555e-01 +8.08702886e-01 -5.18694937e-01 -5.48431337e-01 -1.79348931e-01 -2.03977481e-01 -4.54478741e-01 +2.71645218e-01 -9.44425166e-01 -2.23899618e-01 -5.20861745e-01 -4.19307142e-01 -1.63119137e-01 -3.19843343e-03 -8.30622688e-02 +1.95402876e-02 +1.29105955e-01 +2.73058806e-02 -1.11557685e-01 +2.39868686e-01 +3.94495815e-01 -3.66038889e-01 +3.37731303e-03 -4.52228189e-02 -1.33139312e-01 -2.69032001e-01 +3.79832983e-01 +3.19907740e-02 +3.15607578e-01 -2.89838850e-01 +1.12356402e-01 +7.06056505e-02 +1.78929046e-01 +8.86780024e-02 +1.58148706e-01 +8.75946432e-02 -8.79581571e-01 -7.10382640e-01 -3.56450796e-01 +6.61412716e-01 -2.05352619e-01 +7.97182098e-02 -5.46163023e-01 +1.74271345e-01 -3.02377492e-01 -8.41500401e-01 +4.82467413e-01 -6.07276738e-01 -2.60788441e-01 +1.04322779e+00 -4.60255086e-01 +9.83673215e-01 +3.63872617e-01 -4.59683537e-01 -1.21197760e-01 -2.70151347e-01 -1.43333256e-01 +9.78081971e-02 -1.62721083e-01 -8.60568136e-02 +1.66860864e-01 -2.13705018e-01 +1.12782264e+00 -3.19892466e-01 -5.11686862e-01 -8.15892220e-01 +9.30660725e-01 +1.81210530e+00 -2.41456687e-01 +5.08475959e-01 -6.68993741e-02 -3.86594206e-01 +7.80879259e-01 +8.92258584e-02 +1.59617281e+00 +1.04849361e-01 +4.80662346e-01 +4.18776311e-02 -4.72757360e-03 +8.74727070e-02 +4.16230038e-02 -1.08680539e-01 -2.51974780e-02 -3.68571103e-01 -1.04259737e-02 -2.24068195e-01 -3.80229950e-02 +2.42232606e-01 +5.17314188e-02 -2.18462348e-01 -4.87058908e-01 +1.02292575e-01 -2.84197450e-01 -1.02868587e-01 +4.05342355e-02 +2.75930613e-01 -6.47189766e-02 +1.93614155e-01 -5.65472282e-02 -5.19294403e-02 +4.58344638e-01 +2.00935975e-01 +1.65220574e-01 +4.62750234e-02 +1.83021873e-02 +9.48786885e-02 +1.41440079e-01 -1.31315961e-01 +1.14575720e+00 -1.18345869e+00 -4.76415604e-01 -5.19829020e-02 -1.28158964e-02 +3.57763618e-01 +4.50195730e-01 -3.85452285e-02 +2.29257926e-01 -5.41921914e-01 -2.80095786e-01 +8.21756303e-01 -2.78807068e+00 +3.66308898e-01 +4.49055620e-02 +3.50686520e-01 +7.75333047e-02 -9.58149970e-01 -6.86719716e-01 -1.42939463e-01 -9.76337418e-02 +1.19329818e-01 +2.08787426e-01 +1.13003999e-01 -3.75497565e-02 +2.83320956e-02 +1.20515764e+00 +5.89674592e-01 +2.80465465e-02 +4.05844152e-01 -1.12689883e-01 +2.67863542e-01 +3.82319093e-01 +2.79363543e-01 -3.44401240e-01 -3.89183201e-02 +1.17235845e-02 -4.39625114e-01 -1.91865399e-01 +7.16237202e-02 -3.55727449e-02 +1.39084131e-01 +6.54439405e-02 +9.04591233e-02 +6.32551908e-01 -1.16850004e-01 +1.84263259e-01 +5.25949955e-01 -8.04382935e-03 +2.26686358e-01 +3.93306576e-02 -2.42025837e-01 -5.89864478e-02 +3.82175267e-01 -5.53074777e-01 +1.51017196e-02 -1.33544266e-01 -2.24750131e-01 +4.76330370e-02 -2.54405625e-02 -5.66808045e-01 -2.86050916e-01 -1.56146213e-01 +1.25695601e-01 -1.94535200e-02 +2.19103336e-01 +3.92480314e-01 -9.91465747e-02 -7.29997396e-01 -1.10835505e+00 +5.09620130e-01 -4.61425811e-01 -7.28021204e-01 +3.12678754e-01 +5.43246232e-02 +4.86320585e-01 -2.36195937e-01 +2.94901937e-01 -1.04156184e+00 +3.55073452e-01 +3.74661475e-01 -1.81013048e-01 -4.27404583e-01 +1.98093295e-01 +3.42711091e-01 +2.17019469e-01 +7.42772371e-02 -2.01077953e-01 -4.88866061e-01 +7.06811845e-01 +1.72664285e-01 -1.14427339e-02 +5.53537197e-02 -2.68770635e-01 -8.37416053e-02 +8.21314096e-01 +1.37607768e-01 +4.22768891e-02 +7.59886950e-02 -2.14502737e-01 +6.51356876e-02 -7.53474087e-02 -8.26615095e-03 -1.05086237e-01 +2.13122055e-01 -1.42865017e-01 -2.55324896e-02 -9.64333341e-02 +1.15510873e-01 +7.86321938e-01 +2.69090906e-02 -5.43371886e-02 +2.37502176e-02 +2.72488922e-01 -3.74269217e-01 -2.20646337e-01 -2.23696098e-01 +3.53201836e-01 -6.92502439e-01 -4.18734431e-01 -2.75134683e-01 -7.96080530e-02 +1.71384498e-01 -4.33784992e-01 +2.02331737e-01 -3.82368058e-01 +2.84878790e-01 +3.46536577e-01 +9.53180194e-02 -3.70196998e-02 +3.83646548e-01 +1.39326727e+00 +2.12911069e-01 +2.72766143e-01 -4.23649311e-01 -2.13140622e-01 +8.59160960e-01 +7.32115686e-01 -2.88561791e-01 +9.31124210e-01 +5.92415869e-01 -9.72885415e-02 -6.05977237e-01 -6.94348589e-02 -3.71178985e-02 -8.84577855e-02 -5.64259198e-03 +3.00773114e-01 +9.19261754e-01 +1.34364754e-01 +6.76393062e-02 -4.32990521e-01 -3.92967239e-02 -5.56779623e-01 +5.29727861e-02 +1.27236098e-01 -6.73208237e-01 -4.33321267e-01 -4.54580188e-01 +8.38792324e-01 -8.92336667e-01 +1.42668679e-01 -1.23308003e-01 +9.02150944e-02 +4.76372629e-01 +2.17488967e-03 -8.36197212e-02 +5.00520989e-02 +1.33758858e-01 -4.62970108e-01 -4.57578991e-03 +7.35601876e-03 -4.19043079e-02 +4.26614434e-02 +2.04135612e-01 -1.40639609e-02 +1.87843107e-02 +2.42298335e-01 -8.21076557e-02 -3.82137358e-01 -4.66287643e-01 -3.43031645e-01 -2.26920471e-01 -2.85210997e-01 +3.59923333e-01 +5.83455145e-01 +1.44005358e-01 +3.08624923e-01 +4.73445475e-01 +1.06019221e-01 -2.60256410e-01 -1.87885761e-01 +3.14044729e-02 -1.62534490e-01 +5.45359291e-02 +1.65001497e-01 +1.91171855e-01 -5.57069898e-01 +3.42001170e-01 -2.92654455e-01 -3.03324789e-01 +1.18701207e-02 -1.84558108e-01 -9.63438675e-03 -1.50073953e-02 -1.02941483e-01 +3.87747318e-01 -8.17203522e-02 -7.85580277e-01 +8.68491828e-02 +3.50183427e-01 +1.07533999e-01 -5.61813056e-01 +9.89411473e-01 -9.11459446e-01 -2.61070758e-01 +7.34004557e-01 +3.51475835e-01 -2.69551892e-02 +2.50182092e-01 -3.80660832e-01 -3.75233889e-01 -9.07759368e-02 -5.24904281e-02 +4.10212696e-01 -4.69120853e-02 -6.49704188e-02 -2.45556027e-01 -2.57924825e-01 +3.84737194e-01 -2.95586467e-01 +3.19022208e-01 +1.33567020e-01 +5.46610504e-02 +3.60064983e-01 +1.41853392e-01 -1.66489363e-01 +1.12240195e-01 +4.53140736e-02 +5.80328843e-03 -6.85520113e-01 -2.98529640e-02 +9.01927203e-02 -6.27388656e-02 +1.03163086e-01 -1.53574347e-01 +9.09376293e-02 +5.57639122e-01 +1.44257128e-01 -3.05018216e-01 +3.39364856e-01 +5.59214652e-01 -3.20849031e-01 -1.44204171e-02 -9.14248154e-02 -1.76753029e-02 +9.81005356e-02 -5.51452756e-01 +1.06225204e+00 -1.56649828e-01 +1.49312332e-01 -1.92375779e-02 +2.51771193e-02 +4.81360376e-01 -4.68842357e-01 -5.38637578e-01 +5.85452437e-01 +1.10566340e-01 -4.48535591e-01 +7.29336083e-01 -1.08749785e-01 -5.51728368e-01 +7.77789533e-01 +2.78069705e-01 +5.79755187e-01 -1.53949559e-01 -2.95242012e-01 -7.06525683e-01 +7.43584871e-01 +1.43584037e+00 +5.38639724e-02 -7.73593187e-01 +7.26215601e-01 -3.81639414e-02 +1.03759968e+00 +4.01112646e-01 +1.16031909e+00 +8.03984180e-02 +6.79571569e-01 -7.43473694e-02 +2.68123627e-01 +7.12296739e-02 +3.30655724e-02 -1.70695055e-02 +6.49664700e-02 -3.58545095e-01 +6.69615045e-02 +3.31813097e-01 -2.57731769e-02 -7.09279999e-02 +4.31186035e-02 +2.43905380e-01 -1.18213698e-01 +1.77348822e-01 -5.48272915e-02 +5.45733035e-01 -1.34092316e-01 +1.15707211e-01 +2.02223822e-01 -1.29575342e-01 +5.86942099e-02 +2.33866170e-01 +2.42190257e-01 +4.13625062e-01 +5.90048790e-01 +6.03352115e-02 -5.44025674e-02 -3.73856246e-01 -5.06349087e-01 +2.01308966e-01 +3.68898511e-01 +4.12232280e-01 +9.93310437e-02 +1.95257142e-01 -1.00263461e-01 -1.52967095e+00 -1.75647289e-01 -6.74689472e-01 -9.47743475e-01 +6.94561481e-01 +5.33749580e-01 +6.29875883e-02 -1.84135333e-01 +7.68623948e-01 +4.99820590e-01 +1.50871843e-01 -2.71308631e-01 +8.57563913e-01 +5.55302680e-01 +2.62677163e-01 +3.46031159e-01 -2.99933087e-02 -1.31455511e-01 +5.83316803e-01 +3.58898878e-01 +1.93879515e-01 +3.89392912e-01 +4.40569937e-01 +6.76221728e-01 +2.62055755e-01 +7.11846650e-01 +3.70480597e-01 -3.45964521e-01 -1.59486651e-01 -2.37043425e-01 -1.41753465e-01 -2.25658417e-01 +3.07507887e-02 -2.32203305e-01 -2.93123256e-02 +4.47522551e-02 -1.27500534e-01 +1.93077102e-01 +4.19841558e-02 -2.21962124e-01 +5.22295535e-01 -6.77231103e-02 +3.70460860e-02 -5.15846074e-01 -4.13859636e-02 -7.61151761e-02 -1.04861784e+00 +1.65945023e-01 -2.42541716e-01 +3.14811198e-03 -2.60422137e-02 -2.91823715e-01 -2.58661389e-01 -1.35919880e-02 +1.38140261e-01 -8.03635344e-02 +7.42339622e-03 -1.15966700e-01 +2.25179851e-01 -9.03733730e-01 +6.88269138e-01 +7.49337494e-01 +1.15440452e+00 +1.96119547e-01 -1.67687982e-01 -4.88713086e-01 -1.24854289e-01 +1.23886317e-01 +3.80728275e-01 -1.24573395e-01 -6.28263593e-01 +2.26954603e+00 -1.17880724e-01 +1.31691679e-01 -2.22341061e-01 -3.22798669e-01 +9.80491340e-01 +7.77898192e-01 +1.69680491e-01 +4.09072697e-01 -4.04824883e-01 -2.49615349e-02 -6.09254315e-02 +6.22946858e-01 -5.17401576e-01 -8.45327914e-01 -2.76713103e-01 -2.80887365e-01 +1.52223617e-01 +9.89619866e-02 -7.80171007e-02 -3.30649793e-01 -2.28084341e-01 +1.32265076e-01 +5.49443722e-01 +2.44599879e-02 +8.90669823e-01 +2.57240683e-01 -5.95842600e-02 -3.93858179e-02 -1.32263467e-01 -1.07883602e-01 -2.25073949e-01 -5.14199913e-01 +1.00409694e-01 -2.02498645e-01 -4.59337533e-01 +4.61372100e-02 +5.32788187e-02 +1.32363036e-01 +1.69962987e-01 +3.05356294e-01 -7.92507887e-01 +3.34508300e-01 +2.81384557e-01 -1.29605412e-01 -3.19394588e-01 -2.88935065e-01 +1.47861257e-01 -1.41038895e-01 -1.85264647e-01 -2.57999420e-01 -1.30871162e-01 -3.71750325e-01 +7.34594837e-02 +4.65465128e-01 -3.85194004e-01 -1.76628128e-01 +1.52466223e-01 -4.22530435e-02 -1.53603181e-01 -4.46982861e-01 -2.85609782e-01 +9.58808601e-01 -1.19441843e+00 +1.32313699e-01 +4.15163696e-01 +1.64299309e-02 -2.45782256e-01 +6.10341609e-01 +1.37549415e-01 +5.60384691e-01 -1.58225432e-01 -6.34990931e-01 -1.06331384e+00 +6.15824163e-01 +1.05543423e+00 -1.76950350e-01 +5.62263355e-02 +8.01543221e-02 -3.03340942e-01 +1.51165807e+00 +1.50499925e-01 +7.88029969e-01 -3.88181359e-02 +1.73124775e-01 -1.19188875e-01 +4.41447526e-01 +8.56588967e-03 -1.06197506e-01 -1.14038456e-02 +1.09459147e-01 -2.45301500e-01 -2.65194833e-01 +5.21390796e-01 -1.05541244e-01 -3.43393311e-02 -2.72108037e-02 +6.59468696e-02 -3.55124980e-01 -1.30868375e-01 +1.52722355e-02 +2.29062587e-02 +5.33148972e-03 +6.36275634e-02 +5.47243133e-02 -3.35397512e-01 +2.91890502e-01 +6.00446641e-01 -2.45762065e-01 -6.21819139e-01 +1.31223753e-01 +8.22104737e-02 -4.55716103e-02 -8.47766623e-02 -7.31457695e-02 +3.15407775e-02 -4.67412621e-02 +3.18855762e-01 +4.13280576e-01 -6.40839756e-01 -4.41368282e-01 +3.48984301e-01 +3.07667349e-03 -1.88660598e-03 -3.40388954e-01 -1.43587857e-01 +1.45668760e-01 -3.41295809e-01 +3.91695768e-01 +3.11567873e-01 -1.85379554e-02 +7.69156171e-03 +7.09214747e-01 +4.27540421e-01 -1.95590124e-01 -1.10505275e-01 -9.94315837e-03 -2.15718806e-01 +4.31234956e-01 +6.60431027e-01 -2.85754502e-01 +2.53445804e-01 -5.93995154e-01 -3.49954575e-01 +8.71016145e-01 +2.48974897e-02 +5.10537207e-01 +4.11235422e-01 +2.02510267e-01 -2.16789499e-01 +8.88443768e-01 -6.25897050e-02 +1.61829907e-02 -5.46582416e-02 +1.09886035e-01 -3.48315984e-01 +4.67942283e-02 +2.84891844e-01 -6.48716539e-02 -9.45982486e-02 -6.89838529e-01 +4.42704605e-03 -9.53473151e-02 -1.45543486e-01 +8.11890587e-02 -1.81025490e-02 +5.52837998e-02 +6.49749815e-01 +2.06970230e-01 +3.60982955e-01 -1.18846901e-01 +2.03702211e-01 +1.17437899e-01 -9.26852152e-02 +3.55160832e-01 -9.38817486e-03 -1.76279426e-01 -3.73551548e-01 -2.79733539e-01 +2.49614239e-01 +1.19087994e-01 -7.81679809e-01 +7.80690834e-02 +1.53571442e-01 -1.13306597e-01 -2.12885308e+00 +9.71319616e-01 +2.03590229e-01 +2.14222610e-01 +3.91147733e-01 +6.16129816e-01 +3.24251324e-01 -1.90070957e-01 +5.21599591e-01 -4.68697786e-01 -2.01848477e-01 +2.46306568e-01 -1.48084790e-01 +8.60359490e-01 +3.43916684e-01 +2.62432545e-01 -1.43970117e-01 +5.72354317e-01 +8.03157926e-01 -1.75069775e-02 +1.81525066e-01 +2.02348304e+00 +3.76933306e-01 +5.31209290e-01 -9.65899602e-02 +2.33871266e-01 +2.70763129e-01 +7.95795918e-01 +6.33326732e-03 -2.65241563e-01 -9.23208743e-02 -6.61920086e-02 -2.93531209e-01 -2.60341793e-01 -1.88550483e-02 +1.48382420e-02 -6.97947666e-02 +6.17216155e-03 +7.15038087e-03 +1.40288234e-01 +7.70002484e-01 -1.27899557e-01 +5.69904268e-01 -1.72206193e-01 +1.45218015e-01 +1.99832276e-01 +6.97304070e-01 +2.90971130e-01 -1.63438708e-01 +3.86582762e-01 +1.93429515e-01 -4.72281016e-02 -4.37437236e-01 -5.70211351e-01 -2.05269188e-01 -1.44812748e-01 -3.02844513e-02 -2.60207653e-01 +1.85482904e-01 -4.93503034e-01 -1.11033034e+00 +4.88145500e-01 -9.65982974e-01 +4.29755837e-01 -1.45416439e-01 -6.31996393e-01 +1.04890323e+00 +2.65616447e-01 -4.76815909e-01 -2.28317082e-02 -5.07154942e-01 -1.26379550e+00 -4.12798494e-01 -2.40686283e-01 -9.83258903e-01 -6.65891916e-02 -4.25858647e-02 +3.65369290e-01 -3.42524588e-01 -7.72788882e-01 -3.41021791e-02 +1.67289451e-01 +6.71048343e-01 -3.34341377e-01 -4.33736831e-01 -6.47010863e-01 -5.78659356e-01 +2.51404911e-01 -1.20479636e-01 +2.67050833e-01 +2.82628477e-01 +3.27944070e-01 +9.80784968e-02 +2.24585712e-01 +2.01082841e-01 +5.30772567e-01 -2.15455458e-01 -2.33298957e-01 -1.48747608e-01 +1.53704032e-01 +2.94776767e-01 -6.75431802e-04 +1.83793217e-01 -5.87931201e-02 -5.24831712e-02 -1.56377524e-01 +2.30393216e-01 -3.24126601e-01 -1.31331891e-01 -3.76125306e-01 -8.13953113e-03 -4.71078843e-01 -1.02088235e-01 -3.79604638e-01 -3.67123365e-01 -3.58814970e-02 +8.14203203e-01 +6.49497136e-02 -3.18980634e-01 +7.01758027e-01 -1.28563285e-01 +1.33224100e-01 -2.21812978e-01 -9.85017885e-03 +4.94797021e-01 -6.08259201e-01 -1.01498380e-01 -3.95246774e-01 +5.32735109e-01 -3.62765014e-01 -4.80608910e-01 -4.60855156e-01 +5.73883414e-01 -5.14878154e-01 -5.43751001e-01 -1.05717452e-02 -1.86640084e-01 +1.60047817e+00 +2.48232514e-01 -5.96678078e-01 -8.14373232e-03 -6.35361612e-01 +2.12169692e-01 +3.27323973e-02 +1.21645117e+00 -1.14515519e+00 -1.07194853e+00 +4.58750665e-01 +1.49265870e-01 -7.24706888e-01 -1.16424076e-01 -6.50491059e-01 -3.03313911e-01 -6.05945826e-01 -1.16942659e-01 -7.41924047e-02 +9.48856696e-02 -6.38767704e-02 -3.78198363e-02 +1.58206835e-01 +9.75041568e-01 +7.28346631e-02 +5.72015047e-01 -6.43192828e-02 +1.97880700e-01 -8.49925950e-02 +9.49435011e-02 -3.04593921e-01 +7.88441226e-02 +1.21618949e-01 -2.35046640e-01 +3.16549204e-02 -5.17663121e-01 -3.80255699e-01 -2.56866276e-01 +3.18466842e-01 +2.39824995e-01 -2.22963810e-01 -3.49440068e-01 +4.78270240e-02 -3.94358486e-01 -5.10880873e-02 -1.71247199e-02 +6.60029575e-02 +4.82388169e-01 -1.71357259e-01 -8.28092247e-02 -8.18242967e-01 +2.10645646e-01 +8.58949184e-01 +1.75757515e+00 +1.88679975e-02 -3.88666950e-02 -2.85641283e-01 +9.02434811e-02 +6.90575898e-01 -3.53154778e-01 +1.76234558e-01 +8.39310884e-02 -8.02281260e-01 -5.32126188e-01 +1.31120890e-01 -1.08276987e+00 -1.73927829e-01 +1.54937968e-01 +6.48334622e-01 +9.36351642e-02 +1.98293999e-01 -1.36714309e-01 +2.38023236e-01 +5.68575442e-01 +3.61270458e-01 -1.83910692e+00 -2.97870368e-01 -6.54891014e-01 -4.57554072e-01 +2.35513046e-01 -1.26097903e-01 -2.76841819e-01 -3.98254283e-02 -6.95362538e-02 -3.34115624e-02 +3.37143660e-01 +2.42512122e-01 -4.20576520e-02 +1.76604632e-02 -7.86262900e-02 -4.71234284e-02 +6.14031292e-02 -9.41156701e-04 -1.56163707e-01 +6.89990893e-02 -7.70704299e-02 -2.20189691e-02 +1.25187173e-01 -1.88594107e-02 -2.94257373e-01 -7.61795714e-02 -5.18756509e-01 -6.29525900e-01 -2.85495043e-01 -5.79077424e-03 -2.73041874e-01 -3.37458253e-01 -2.80300587e-01 -8.19256783e-01 +1.50355816e-01 +8.39882270e-02 +1.31906196e-01 -1.56002745e-01 -1.53088748e-01 -1.20227778e+00 +1.51272237e-01 -5.83625399e-02 -7.00048655e-02 +5.18481493e-01 +1.53625774e+00 -5.79814732e-01 +1.43995494e-01 +7.95293570e-01 -1.21311210e-01 -6.91438913e-01 -1.00254273e+00 +1.36685789e+00 -6.14507161e-02 +4.78633404e-01 +8.14678252e-01 -2.48736680e-01 -6.08599722e-01 +5.74925244e-01 -1.04668945e-01 -4.07717556e-01 -2.49647692e-01 -2.37693921e-01 -5.15217602e-01 -3.75968575e-01 +1.44866848e+00 -7.87713766e-01 -7.13642895e-01 -1.54646650e-01 -2.59824485e-01 +5.22267222e-01 -5.66426814e-01 -2.05315487e-03 +2.11601108e-01 +2.19963327e-01 -1.19406953e-01 +4.31376100e-02 +1.47357509e-01 +1.65799111e-01 +8.15922171e-02 -3.00105307e-02 +2.05744788e-01 -2.91977134e-02 +3.77771109e-02 +1.22430570e-01 -1.34467527e-01 -1.40393704e-01 -4.01521176e-01 +8.20231065e-02 -1.55572757e-01 +1.81579702e-02 -1.57524213e-01 -6.15462840e-01 -1.38027012e-01 -1.62404671e-01 -2.33458996e-01 -4.62984405e-02 +3.26516658e-01 -3.61466646e-01 +8.60097930e-02 +1.36703372e-01 -1.44596502e-01 +1.02501325e-01 -1.52544573e-01 -3.94491285e-01 -1.22955859e+00 -5.80488682e-01 +8.86790827e-02 +5.42189717e-01 -3.50832231e-02 +2.91979522e-01 +1.17861524e-01 +6.18726373e-01 -5.41233301e-01 -1.54617012e-01 +7.74264187e-02 -4.11787271e-01 +1.21557839e-01 -4.08506058e-02 +4.19256508e-01 -1.43686235e-01 -1.49029458e+00 +1.47538573e-01 +1.10811651e-01 -5.18698275e-01 +2.91094542e-01 -2.35877320e-01 -2.88689405e-01 -5.37395597e-01 +6.96885943e-01 +5.16275644e-01 +1.62963688e-01 -1.14650398e-01 +7.47617232e-05 -3.28526944e-01 -5.59315123e-02 +4.76633944e-02 +7.86834419e-01 -2.07829326e-01 -2.43198425e-01 -1.56034138e-02 +1.59279853e-01 -2.38421395e-01 +3.53736073e-01 -1.05840504e-01 +2.43055329e-01 +8.25838447e-02 +2.13820681e-01 +6.49035573e-01 +7.75017031e-03 +1.74923778e-01 +5.04854321e-02 +2.32261382e-02 -2.94479877e-01 +2.00953167e-02 -3.80582988e-01 -6.30370080e-02 +9.01081264e-02 +8.77150670e-02 -2.89343268e-01 -8.86220992e-01 -9.20635760e-02 +2.73123085e-01 -4.55221683e-01 +2.80205876e-01 -1.18556425e-01 +1.44266009e-01 +3.30573618e-01 -2.09478103e-02 -3.46465975e-01 +3.80543530e-01 +2.74996489e-01 +4.99396801e-01 +7.72676408e-01 -6.56173050e-01 +3.35400760e-01 +1.53610873e+00 +9.90425348e-01 -4.01963703e-02 +3.66599351e-01 +7.85219073e-01 +5.95022380e-01 +9.35011804e-02 +3.06367397e-01 -7.49055386e-01 +3.41663033e-01 +9.90909711e-02 -1.31551385e-01 +1.42689598e+00 -7.53423810e-01 +2.67139047e-01 +3.55202526e-01 +2.77093351e-01 +1.02602649e+00 -1.39837623e+00 +1.02890857e-01 -9.90110755e-01 +3.23677182e-01 +4.42588866e-01 +7.15954781e-01 -1.05324113e+00 +1.30231291e-01 -2.13684276e-01 -9.38400999e-02 +2.79633515e-02 -1.19281501e-01 +1.16101667e-01 -1.11374363e-01 +1.57579780e-01 -1.00692582e+00 +7.29661733e-02 -1.43528115e-02 -2.68942825e-02 -9.99941751e-02 +9.50647742e-02 -3.60746950e-01 -1.17081806e-01 +7.34908432e-02 +1.21159390e-01 -2.64963239e-01 -6.59651399e-01 -1.97634891e-01 -6.16413593e-01 -1.71937153e-01 +2.30117053e-01 -1.76583916e-01 -7.14623094e-01 +3.86290044e-01 +9.94412377e-02 +3.36344957e-01 +1.87146872e-01 -1.40191093e-01 +3.81395698e-01 -9.94581521e-01 -1.01165044e+00 -2.86392629e-01 +1.48360386e-01 +1.30371368e+00 +1.79906487e-01 +2.82007545e-01 +1.80713266e-01 -1.03835332e+00 -5.84484100e-01 +2.74741769e-01 -1.22820199e+00 -3.91026959e-02 -2.60280132e-01 +1.77795470e-01 +6.86257286e-03 -1.48425364e+00 -7.41825998e-01 -8.39620233e-02 -1.21615648e+00 +5.36062956e-01 -1.84160054e-01 -8.69775414e-01 +7.71472743e-03 +5.91788650e-01 +4.53157336e-01 +9.79892164e-02 -5.56627452e-01 -1.77009493e-01 -6.75186753e-01 -1.12875752e-01 +6.53480887e-01 +2.56480724e-01 +1.12655379e-01 -6.12531751e-02 +1.02142096e-01 +9.28944945e-02 -1.19677514e-01 +1.21707171e-01 -2.34241993e-03 +6.02857471e-01 +1.42876044e-01 +1.17917396e-01 +1.68373629e-01 -2.49149308e-01 +2.29882523e-01 +2.26203024e-01 -1.48629611e-02 -4.50092107e-02 +3.34543511e-02 +2.25397095e-01 +2.06599131e-01 +3.07794511e-02 +2.90734798e-01 +1.27843454e-01 +6.29501343e-02 -1.31695807e+00 +2.22660452e-01 +1.00888163e-01 -2.25881845e-01 +3.21612626e-01 +1.25358123e-02 -1.15198538e-01 +1.20978199e-01 +3.98779601e-01 -1.29275069e-01 -1.96893409e-01 -6.94803417e-01 +2.87279159e-01 -3.58377934e-01 -5.16540445e-02 +5.94840311e-02 -2.18954518e-01 -1.69512868e-01 -6.32609874e-02 +4.46047395e-01 -4.75424051e-01 -1.37728125e-01 -2.89358228e-01 +8.77171874e-01 +1.56364441e-01 -4.54088748e-01 -1.56309783e-01 -4.32066545e-02 -1.13246405e+00 +8.90458286e-01 +3.57972890e-01 -6.36274219e-01 -4.01190460e-01 -2.55575299e-01 -6.59050584e-01 +3.30015838e-01 +1.19123332e-01 +1.17815584e-01 -7.85810947e-02 -2.83650130e-01 -5.87371103e-02 +2.27939472e-01 +2.98693001e-01 +1.90340549e-01 -1.63513020e-01 +3.30522418e-01 -1.52402401e-01 -5.62213659e-02 +3.97810712e-02 -1.52002066e-01 -1.13885835e-01 +2.42958535e-02 -1.58484831e-01 -5.60782887e-02 +5.46004996e-02 +5.57328582e-01 -2.00259000e-01 -4.05744538e-02 +2.80348063e-01 +3.67527515e-01 +7.02020586e-01 +1.66617438e-01 -6.89322427e-02 -1.10035256e-01 +1.98325291e-01 +5.50521970e-01 +1.23354957e-01 -7.95822516e-02 -3.68997961e-01 +4.93797451e-01 +5.43517411e-01 +3.00567716e-01 -8.99433315e-01 -5.10951340e-01 +6.21634796e-02 -3.83715063e-01 -5.36699533e-01 +5.46661139e-01 -3.89022827e-02 +7.28708506e-01 +1.03210938e+00 +5.91234505e-01 +5.78041255e-01 -1.27578810e-01 +1.01303661e+00 -1.22395098e+00 -3.40122312e-01 +2.37937942e-01 -2.28068084e-02 +4.06725585e-01 +1.39600178e-02 +8.18785846e-01 -6.83574200e-01 +1.00224543e+00 +8.03900063e-01 +6.36663675e-01 -1.05927639e-01 +1.50000215e+00 +6.49717808e-01 +8.17854047e-01 +2.70364471e-02 +3.31188291e-01 -8.15107003e-02 +1.25740632e-01 -7.57275382e-03 -3.98064762e-01 +1.62745878e-01 -1.94867745e-01 -1.26580298e-01 +9.71615538e-02 -7.02282786e-02 -2.21834872e-02 -3.05102110e-01 -6.33734763e-02 -2.18647905e-02 +6.46609068e-01 +1.41267791e-01 -2.54743755e-01 +9.15146321e-02 -4.97847833e-02 +7.86452740e-02 +9.76800770e-02 -1.38480961e-01 +1.03377916e-01 +1.69426247e-01 -8.74489099e-02 +6.85238361e-01 -2.38626778e-01 -1.92286611e-01 -1.36894323e-02 +2.24995315e-01 -3.25594872e-01 -1.64394245e-01 -1.42968908e-01 -5.90158403e-02 -2.07801640e-01 -6.98157251e-01 +3.69757146e-01 +3.15249532e-01 -2.84376860e-01 -1.81748107e-01 +6.68239146e-02 +1.66789636e-01 -5.11855543e-01 -8.10153037e-02 +1.85944021e-01 +3.00099067e-02 +1.43426016e-01 +1.13891554e+00 -5.88543773e-01 +3.10850504e-04 +7.21853137e-01 -4.31059718e-01 +2.12050721e-01 +4.73697372e-02 -2.75253922e-01 -1.75947189e-01 +5.10105371e-01 +7.77801871e-02 -2.53495246e-01 +4.65135187e-01 +8.42947304e-01 -1.28640682e-01 +2.46264324e-01 -1.31593511e-01 +2.68444955e-01 +4.01494175e-01 +7.34050035e-01 -1.30755648e-01 +2.73543030e-01 -1.84630021e-01 -1.92041337e-01 -8.51270705e-02 +4.38435078e-02 -5.79109013e-01 +7.53299147e-02 -5.12529425e-02 -1.84681080e-02 -1.14016317e-01 +1.59301534e-01 +7.24490523e-01 -1.05063923e-01 +1.76250655e-02 +5.17650507e-02 +5.43695949e-02 -1.44874752e-01 -8.62500742e-02 -2.33270869e-01 -2.77507395e-01 -2.83957887e-02 -2.09122039e-02 -8.86726499e-01 +2.52993226e-01 -1.50355414e-01 -5.90926521e-02 +1.97457775e-01 -2.15313315e-01 +7.06977770e-02 +1.22988187e-01 -1.94264889e-01 +4.18254733e-01 +1.32723242e-01 -2.96906233e-01 -3.65546644e-01 +8.73254120e-01 -4.59953785e-01 -5.86076736e-01 -4.99452531e-01 +1.37157226e+00 -4.21424091e-01 -4.90268916e-01 +3.03026056e+00 -4.48984280e-02 +6.81978166e-01 +4.00024354e-01 -1.06815659e-01 +3.97127658e-01 +4.91946280e-01 -4.05706763e-02 +3.19665015e-01 +1.44523025e-01 -2.30117336e-01 -3.75073582e-01 +2.56686032e-01 +1.10327101e+00 -9.81214762e-01 +6.15354553e-02 +1.08975329e-01 -4.75078017e-01 +7.31675565e-01 +4.49061692e-02 -4.24764752e-01 +7.60211721e-02 +2.00435415e-01 -1.08812548e-01 +1.99492043e-03 +2.83968747e-01 +1.99751586e-01 +8.51215273e-02 +8.14165771e-02 -4.74314153e-01 -2.57775560e-02 -4.14373062e-04 -4.09931093e-01 +1.24892056e-01 -2.76004344e-01 -5.14860868e-01 -3.08048762e-02 -4.74674016e-01 +1.92071244e-01 +3.06875169e-01 +3.87908310e-01 +5.11339128e-01 +2.10163593e-01 +5.00670411e-02 -2.52929658e-01 -2.90421873e-01 -1.68989465e-01 -4.22520995e-01 -5.24128199e-01 -4.22480822e-01 +2.58024931e-01 +3.53809267e-01 -3.97895556e-03 +2.50337690e-01 +6.93296567e-02 -3.41496021e-01 +9.01699066e-03 +2.19639033e-01 +2.38332570e-01 +2.91378140e-01 +1.88136064e-02 +5.61056696e-02 +3.29300195e-01 -1.38947785e-01 -9.99654606e-02 +5.95846288e-02 -7.73676932e-01 -5.92450351e-02 +5.01915634e-01 -3.38612020e-01 -8.49587977e-01 +2.23254591e-01 +1.73089907e-01 -1.04159340e-01 +2.37813085e-01 -2.02469721e-01 -9.67165887e-01 -5.38375020e-01 -8.57921541e-02 -4.29802954e-01 +2.56800711e-01 +3.08731161e-02 -7.38941073e-01 +1.92958102e-01 -7.04749525e-01 +2.15489082e-02 +1.31793857e-01 +1.37370735e-01 +3.71446967e-01 -2.48534381e-01 +2.92193681e-01 -1.71595499e-01 -1.55875191e-01 -1.42922208e-01 -5.10927975e-01 -1.97731748e-01 +2.31027082e-01 -6.03732802e-02 +3.11765447e-02 -7.02195195e-03 +8.97668540e-01 -1.29936680e-01 -2.53053069e-01 +4.82560158e-01 +9.55579951e-02 -1.51574984e-01 -3.62347156e-01 +2.57336438e-01 +1.22654103e-01 -3.03223640e-01 +5.19884288e-01 +5.09508193e-01 +8.13786507e-01 +5.64433277e-01 -1.15287781e-01 -4.52195942e-01 +3.19786459e-01 +3.49903293e-02 +6.63886130e-01 -2.05306232e-01 +3.56031731e-02 +3.93686712e-01 -9.69230235e-01 +2.66620874e-01 -5.43810487e-01 -6.12930775e-01 -6.72136128e-01 -2.05760002e-01 -6.13809764e-01 -8.35305035e-01 +1.02877223e+00 -1.07633257e+00 -6.75049365e-01 +1.51792124e-01 +5.70462465e-01 +7.90762454e-02 -1.14814258e+00 +6.01161160e-02 -7.54812583e-02 +5.55310786e-01 +1.00790381e-01 -5.23170710e-01 -9.57869589e-02 +8.55232254e-02 -3.65668237e-01 +6.79957643e-02 +1.06745684e+00 +1.17696300e-01 +5.39569080e-01 +6.94015110e-03 -7.59474561e-02 +1.51538625e-01 +6.84788764e-01 +1.86250061e-02 -5.71942590e-02 +1.71451196e-01 +1.24804169e-01 +1.17782392e-01 -3.63194337e-03 +9.84085202e-02 -1.62205160e-01 -6.13052249e-02 +8.78466293e-03 +2.20513195e-01 -6.03345513e-01 -1.70049459e-01 -8.06556419e-02 -5.74256301e-01 -9.71005931e-02 +1.39414042e-01 -7.04742176e-03 +1.49237290e-01 -6.76137090e-01 -9.96721089e-02 +3.37724030e-01 +1.28831446e-01 +2.64030367e-01 -1.26942113e-01 +1.02471463e-01 +8.11223164e-02 +4.69206780e-01 +5.03974915e-01 +8.18098843e-01 +2.89991140e-01 -4.39672768e-01 +9.12151337e-01 -4.70037341e-01 -3.13539684e-01 +3.78086835e-01 +1.41024005e+00 +2.04536244e-01 -2.65335441e-01 +2.05096459e+00 +5.12071967e-01 +3.22249174e-01 +2.13980123e-01 -8.37983340e-02 +1.84138820e-01 -1.84289634e-01 -3.51136208e-01 +7.79689372e-01 +2.82265637e-02 +3.34778190e-01 +1.92682073e-03 +2.33025327e-01 +6.01892292e-01 -1.26096857e+00 +7.30309784e-02 -6.98639393e-01 -1.66591987e-01 +1.13448334e+00 +4.70010757e-01 -2.07013980e-01 -1.92597061e-01 -1.15578152e-01 -2.01353058e-01 -4.97742668e-02 +9.72384065e-02 +2.02059418e-01 -1.38259873e-01 +2.87463427e-01 -1.52651024e+00 +1.20970875e-01 -1.87601019e-02 -3.19340438e-01 -6.63165823e-02 -2.23883260e-02 -5.85286319e-01 -3.06896478e-01 +1.85118631e-01 -5.35130352e-02 +9.71405506e-02 -1.06258705e-01 +4.16998208e-01 -1.13837898e-01 +2.63622291e-02 +6.83016926e-02 -9.93349031e-02 -4.20180708e-01 -8.64623785e-02 +1.97663993e-01 -8.52883086e-02 +3.36337805e-01 +1.19678885e-01 +3.74456495e-01 +7.84201622e-01 -1.36215448e-01 -6.19389772e-01 -5.52787244e-01 -9.96989980e-02 +3.67216229e-01 -3.19390833e-01 -3.93320084e-01 +6.27631366e-01 -5.85764229e-01 +1.03105462e+00 +8.44042182e-01 -2.77325511e-01 -1.40485659e-01 +6.31594360e-01 -2.64724605e-02 +1.50634915e-01 -1.10257173e+00 -2.13739108e-02 +1.13979006e+00 +1.17542729e-01 -2.99861223e-01 -4.68834549e-01 -3.19776893e-01 +6.71395659e-01 -2.72801548e-01 +2.95735389e-01 -4.96405631e-01 -2.60037929e-01 -3.22861105e-01 -2.06343442e-01 -5.53643584e-01 -6.98603271e-03 -3.75351533e-02 -4.86011356e-02 -5.44050820e-02 -8.87129863e-06 -7.19660707e-03 +1.95756853e-02 +1.43207207e-01 -3.61472219e-01 -4.68987748e-02 -5.85158132e-02 +5.82322367e-02 -1.72713652e-01 +1.18422195e-01 -1.34006143e-01 +3.30033809e-01 
#Parameter# /vanilla-lstm-builder/_1 {64,16} 16385 ZERO_GRAD
-6.47610545e-01 +1.26383507e+00 -3.95322978e-01 +8.89764309e-01 +7.13549554e-02 -1.62726903e+00 +6.90684021e-01 -3.21372956e-01 +1.22506559e+00 -1.15363312e+00 -1.72438338e-01 -2.51219839e-01 -5.07097125e-01 +1.89782250e+00 -5.30589640e-01 -1.09918737e+00 +6.38973191e-02 -6.36922538e-01 -2.48637915e-01 +1.85637727e-01 -5.11833072e-01 +2.64819682e-01 -1.57670155e-01 -3.78938437e-01 -7.15687335e-01 +1.16314101e+00 +1.05419433e+00 +6.11203015e-01 -3.53891075e-01 +8.63997042e-01 -7.29761720e-01 +1.14209011e-01 -2.79888481e-01 +1.26131439e+00 +3.96597922e-01 +2.43494377e-01 -6.71657085e-01 -3.32324237e-01 +6.44950569e-01 -8.15027058e-01 +3.44072372e-01 +1.34947538e+00 -7.63299048e-01 +1.14017151e-01 -9.77138221e-01 -4.28205878e-01 +1.15594161e+00 -7.80614316e-02 +3.61919880e-01 -8.02469701e-02 -8.32203589e-03 -4.98378843e-01 -2.52379682e-02 +7.07220435e-02 -2.67395288e-01 -2.88276643e-01 +3.78079474e-01 -1.94445893e-01 -3.65536422e-01 +6.19853139e-01 -3.62091273e-01 -3.32694709e-01 -2.82041609e-01 +1.55314457e+00 +1.86344016e+00 +6.42822683e-01 +6.25528455e-01 +4.24288437e-02 -6.30768895e-01 +1.97422183e+00 -4.20786083e-01 +2.37072960e-01 +1.33917212e+00 +5.39626241e-01 +1.27124727e-01 +3.00194287e+00 -4.98020172e-01 +1.07219732e+00 +1.18609715e+00 -9.34967935e-01 -5.05493104e-01 +5.93933582e-01 +4.15892482e-01 -4.89133596e-01 -2.36313373e-01 -1.02012563e+00 +3.00643519e-02 -9.34665561e-01 -1.61712945e+00 +6.14072323e-01 -7.03158736e-01 -6.80009902e-01 +1.09172352e-01 -2.55183309e-01 -5.45726895e-01 -3.82138968e-01 -1.14967012e+00 -1.75613865e-01 +1.37340617e+00 +2.80161172e-01 -1.10425103e+00 +6.74353957e-01 -3.80877316e-01 -3.46873492e-01 +4.85755354e-01 -9.01612937e-01 -7.26539016e-01 -9.01459277e-01 +5.40651917e-01 -3.65308255e-01 -5.14908612e-01 -2.02165461e+00 +1.35271877e-01 -2.06945002e-01 -4.23945546e-01 +6.18953347e-01 +9.32258442e-02 -8.84959251e-02 -1.87046960e-01 +4.05366510e-01 +2.70640671e-01 +2.56884605e-01 +5.31061769e-01 -2.34916553e-01 +3.06673020e-01 -9.07403156e-02 +3.97008717e-01 -3.21983695e-02 -8.71322572e-01 +2.18756273e-02 -1.05124497e+00 -5.50643086e-01 +1.10174203e+00 -1.35375643e+00 +2.34813601e-01 -4.74510282e-01 +3.66954714e-01 -5.92077136e-01 -5.73615015e-01 +6.28942996e-02 +4.73069072e-01 +6.41290843e-02 -1.77708104e-01 +9.48692858e-02 +1.76836148e-01 +2.06868559e-01 -2.63354397e+00 -4.25068289e-01 -7.97996163e-01 -3.55569907e-02 +1.57527998e-01 -1.30199671e+00 +6.63779259e-01 -3.67452443e-01 +3.59034874e-02 +5.63701093e-01 +7.12256432e-02 +1.56129134e+00 +2.73201764e-01 +5.99071980e-01 +9.87000614e-02 +7.35959172e-01 -1.09526193e+00 -2.70854056e-01 +7.01386631e-01 -7.09199965e-01 +1.26212490e+00 -1.97496518e-01 -3.38831358e-02 +6.86193287e-01 +7.40954503e-02 +7.81236351e-01 -6.68501198e-01 -3.25490832e-01 +2.54937619e-01 +8.96819830e-01 +4.37429368e-01 -1.11529911e+00 +9.21107292e-01 -1.91834104e+00 +8.64077628e-01 +5.86942472e-02 +1.58521414e+00 -1.16977501e+00 +4.32720721e-01 -6.09564424e-01 -1.68044224e-01 +7.22347438e-01 -7.64605641e-01 +4.08105612e-01 +1.07427109e-02 -8.55888203e-02 +1.10980976e+00 +1.03782332e+00 -9.84136820e-01 -9.35208946e-02 -4.65739667e-01 +5.41168511e-01 +1.51395810e+00 -2.40144029e-01 -4.33739483e-01 +2.06072760e+00 +1.68603158e+00 -8.00940990e-01 -1.18020928e+00 +9.53250155e-02 +9.14063871e-01 -2.80839682e-01 +2.52709448e-01 +9.60947633e-01 -7.98565865e-01 +9.79408443e-01 +3.02968234e-01 -9.24082160e-01 +4.49687213e-01 +3.32537740e-01 +7.25154877e-01 +1.26523685e+00 -5.17859578e-01 +1.12902927e+00 +6.59642577e-01 -1.00290024e+00 -1.05821049e+00 +3.71307015e-01 -2.80634105e-01 +4.03081328e-01 +1.19401741e+00 +6.25069559e-01 +5.77828705e-01 +9.22078788e-01 +2.00122222e-01 +1.67253017e+00 +8.28377783e-01 +1.15305698e+00 +2.88379341e-01 +5.76776743e-01 -5.99400580e-01 +1.69757998e+00 -6.43983066e-01 +1.66401529e+00 -5.45014620e-01 -6.49203241e-01 +7.76779186e-03 -7.96579897e-01 -9.63395774e-01 -2.25349292e-01 +1.21996716e-01 +1.24253690e-01 -9.92982507e-01 +1.86108157e-01 +7.41506696e-01 +6.12533629e-01 -1.77208528e-01 +7.61495709e-01 +5.33272088e-01 -2.50802279e-01 -1.03695234e-02 -1.73351371e+00 +6.28173411e-01 +4.62167263e-01 -7.25638986e-01 +6.46573901e-02 -4.81855124e-01 -1.21722840e-01 -9.85277176e-01 -1.01918340e+00 -3.30057710e-01 -1.95714700e+00 +7.92650227e-03 -4.72786665e-01 -1.50329918e-01 -8.65194619e-01 +1.02241337e+00 -8.80380750e-01 +3.02921802e-01 -9.71702397e-01 -7.48232663e-01 -6.66200459e-01 -4.25320745e-01 -4.50283259e-01 -9.26835537e-01 +1.28878266e-01 -3.87517661e-01 -4.22777086e-01 -8.83382335e-02 +4.91090357e-01 +1.36629686e-01 +3.10330003e-01 +5.25288284e-01 -1.20254445e+00 -3.47720116e-01 +1.33988606e-02 +1.28706741e+00 +9.11077261e-01 +5.80326021e-01 +6.25784323e-02 -7.45653749e-01 -7.78251365e-02 -7.93939680e-02 +4.17536825e-01 -2.36338958e-01 -3.84879172e-01 -1.02419209e+00 +6.68920755e-01 -1.13078274e-01 -1.10297740e-01 -2.03407064e-01 -4.37227249e-01 +8.52378011e-01 -2.20863279e-02 +4.90537137e-01 +5.98642170e-01 +4.39420760e-01 +1.62329942e-01 -7.66124606e-01 +2.83947438e-01 -4.26579684e-01 -6.99903741e-02 +3.14984292e-01 -5.07846624e-02 +1.01213612e-01 -6.35960102e-01 -8.37237597e-01 +1.55877268e+00 +1.37684929e+00 -1.64348520e-02 -1.14417422e+00 -5.96599758e-01 +5.94730973e-01 +6.84620380e-01 +1.40553939e+00 -4.60864335e-01 +3.86373371e-01 -1.67165965e-01 +2.19146401e-01 +7.64567479e-02 +5.31759322e-01 +1.37989849e-01 -2.12209791e-01 -1.03074646e+00 -1.14615309e+00 -7.46130228e-01 -2.20401138e-01 -5.31327903e-01 +7.60261491e-02 +3.86641890e-01 -1.72272801e-01 +5.35957396e-01 -5.19141376e-01 -2.34112188e-01 +1.06122464e-01 +3.50336224e-01 -2.50349700e-01 -1.08299404e-01 -5.75881660e-01 -6.02608286e-02 +1.05674267e+00 -1.94160387e-01 +2.81385273e-01 -5.67985952e-01 -6.57857418e-01 +8.08005750e-01 +1.42364144e-01 -1.11348915e+00 -5.90252057e-02 +1.05826986e+00 -1.66932476e+00 -9.21220422e-01 +8.83228600e-01 -6.49950877e-02 +8.80953252e-01 -4.19397354e-01 -6.80717528e-01 -1.06747329e+00 +2.53707260e-01 -7.94332981e-01 +5.29784858e-01 -2.43673511e-02 +3.41647774e-01 +2.86174893e-01 -5.01442030e-02 +3.51585776e-01 +8.25873673e-01 -1.50872767e-01 -1.67707479e+00 -1.18926771e-01 -2.15770259e-01 -1.33599210e+00 -1.71095705e+00 -1.08443290e-01 +2.06692529e+00 -4.73652333e-01 -1.32343912e+00 -1.28884208e+00 -1.03530729e+00 -8.02095354e-01 +1.02558887e+00 +7.75303185e-01 -6.55753836e-02 -5.58453090e-02 +1.84256267e-02 -1.16153026e+00 +1.12151884e-01 -2.01420829e-01 -1.99457920e+00 +6.95681572e-01 -5.20078003e-01 +1.89257413e-01 +8.80617678e-01 -1.15292418e+00 +1.73444584e-01 -4.65957701e-01 -7.81580746e-01 -2.90957600e-01 +2.30522648e-01 -7.53838122e-01 +1.06304502e+00 -4.92372423e-01 -9.72933888e-01 -3.05854142e-01 -1.34192085e+00 -1.05574083e+00 +5.59331477e-01 +3.73598546e-01 -7.49948561e-01 -6.45513892e-01 -2.29860735e+00 -7.62438953e-01 -5.45144677e-01 -1.30596972e+00 +1.25565577e+00 +2.09092522e+00 -5.66554487e-01 -8.38609755e-01 +9.81939677e-03 -7.40006506e-01 +1.17820358e+00 +8.40783060e-01 -5.85022196e-02 +4.08864349e-01 +6.44768059e-01 -5.21391988e-01 -8.10572565e-01 +7.36873150e-01 -2.84006089e-01 -6.13691688e-01 -9.69298959e-01 +3.94867033e-01 -2.29869217e-01 -3.41738582e-01 -6.48874402e-01 +1.18974245e+00 -1.18394041e+00 +6.87654018e-01 -1.36144948e+00 +8.74964476e-01 +6.91026032e-01 +7.86271036e-01 +1.07838619e+00 +1.61043286e+00 -2.85052836e-01 +3.81538898e-01 +1.47326499e-01 +1.31073803e-01 +4.71295029e-01 +1.65730953e-01 +9.66619134e-01 +3.56989920e-01 -7.28682280e-01 -1.70718223e-01 -8.22919786e-01 +1.55801690e+00 -5.78423083e-01 +1.69471514e+00 +1.76623449e-01 +1.28351378e+00 -2.25432068e-01 -1.71238387e+00 +4.07338887e-01 +3.49589497e-01 -1.03883255e+00 -1.00147510e+00 +9.99516606e-01 +6.55309737e-01 -1.35866475e+00 +4.16547030e-01 -1.19152296e+00 -7.97783315e-01 +1.83044616e-02 -6.33353472e-01 -5.76478601e-01 +3.41019183e-02 +1.42955288e-01 +3.60786468e-01 -8.02201986e-01 -1.05736935e+00 -9.73580658e-01 -1.96924597e-01 +8.11597466e-01 +1.70241743e-01 -6.16750494e-02 +3.68433625e-01 -1.11891961e+00 -1.94185778e-01 -1.54134110e-01 +1.28393993e-04 +8.50341171e-02 -3.63986671e-01 +1.74459428e-01 -3.00909221e-01 -3.36888999e-01 -1.55686215e-01 +7.30022192e-01 +1.03584480e+00 +5.01197517e-01 +4.22747225e-01 -5.56364715e-01 +9.86561120e-01 -1.40322894e-01 -5.09840608e-01 -9.81097698e-01 -5.09921193e-01 -1.21499026e+00 +5.22591323e-02 +9.65961218e-01 -1.07576787e+00 -1.07329106e+00 -2.17297029e+00 -2.36701235e-01 +2.47451797e-01 -6.16237484e-02 -6.82986602e-02 -4.47997212e-01 +1.71031106e+00 -5.87850094e-01 -1.04120672e+00 -5.93361795e-01 +1.67022693e+00 -2.59183556e-01 -5.81042707e-01 -7.91840434e-01 +1.72600889e+00 +1.29358566e+00 +5.05880654e-01 +1.24576442e-01 +2.10233301e-01 +4.03835565e-01 +7.64597237e-01 +6.73223883e-02 -1.55311674e-01 -2.51343399e-01 +1.80033162e-01 -2.66746968e-01 -1.47398695e-01 -5.73817194e-02 -5.14626622e-01 +7.60825753e-01 -1.10307384e+00 -1.72770113e-01 -7.70458102e-01 -2.85521090e-01 +3.76466691e-01 +5.55721402e-01 -1.54431403e-01 +6.97701454e-01 +3.98796052e-01 -7.22219706e-01 -5.23540616e-01 -8.51706326e-01 -1.08149922e+00 -1.40130985e+00 -5.83176374e-01 +2.07669392e-01 -2.79952705e-01 -5.80482423e-01 +2.93361574e-01 +6.29385471e-01 -5.90576887e-01 -3.91047865e-01 -7.55329207e-02 -4.76038679e-02 +9.40034509e-01 -4.58120197e-01 +2.05992416e-01 +6.36072308e-02 -3.26861203e-01 +3.30242455e-01 -7.96099082e-02 -5.71479857e-01 +1.29129544e-01 -5.30663192e-01 -8.83209407e-02 -8.07405174e-01 -1.44045249e-01 +5.46456814e-01 +8.65829170e-01 +6.12717092e-01 +3.06098610e-01 -1.55586138e-01 +4.13878143e-01 -6.97937310e-01 +2.14582831e-01 -2.28437528e-01 -7.46830821e-01 +5.37678599e-01 -3.04645538e-01 -6.94179952e-01 +1.71866953e-01 -9.99127254e-02 -1.03012848e+00 -3.98029298e-01 +5.65511823e-01 -4.07787770e-01 -5.71630955e-01 -3.23847264e-01 +5.10194540e-01 +1.79335818e-01 -1.82736561e-01 -1.31595623e+00 -3.39439720e-01 -1.38514504e-01 +5.20594776e-01 -5.05504370e-01 +6.63994491e-01 +1.42112881e-01 +1.46550750e-02 -4.07594323e-01 +6.10866666e-01 -1.04144728e+00 +3.57304543e-01 +6.62873909e-02 -4.90148626e-02 -3.52857858e-01 -1.79546237e-01 -5.71817197e-02 -2.39476822e-02 -3.07413377e-02 +3.29008311e-01 -5.40357172e-01 +8.04698110e-01 +6.57138675e-02 -4.09643531e-01 +8.38057578e-01 +1.20352216e-01 -1.25887379e-01 +5.36160886e-01 -6.45874143e-01 +2.24708259e-01 +1.34180224e+00 -3.14283788e-01 +7.81526342e-02 +1.88617587e-01 -5.52267671e-01 +7.21904933e-02 +6.10779345e-01 -3.07016283e-01 -1.98343024e-01 -1.00589883e+00 +8.72784793e-01 +9.68187213e-01 -2.40342990e-01 +3.60636145e-01 -6.23625927e-02 +3.25965792e-01 +1.09336324e-01 -3.27834696e-01 +7.84995556e-01 +1.54592037e-01 +6.58650160e-01 -1.37635395e-01 -8.00676286e-01 +6.36295229e-02 -5.16795479e-02 -9.63036716e-01 +9.06101823e-01 +4.64374781e-01 -1.01218271e+00 -8.72599840e-01 -2.17217878e-01 +9.94709551e-01 +1.22619796e+00 -2.39810467e-01 -2.37348542e-01 +6.47814572e-02 +5.61640412e-02 +2.56514996e-02 +7.24572659e-01 -4.33637947e-01 -3.45530659e-01 +4.89945441e-01 -1.14400721e+00 +1.11296582e+00 -5.07936180e-01 +2.37545997e-01 -6.08011365e-01 +2.82764375e-01 -5.35729080e-02 +7.78076649e-01 -2.04116851e-01 -2.03894526e-01 -1.86694741e-01 -1.14179932e-01 -1.84150726e-01 -3.78249586e-01 -1.73524737e+00 -5.67107677e-01 +9.40495551e-01 +6.75310731e-01 -1.33517638e-01 -3.79566938e-01 +1.41647160e+00 +1.31516373e+00 -8.01420569e-01 -4.44567323e-01 -4.37639169e-02 -2.23790216e+00 -5.42720616e-01 -2.43532991e+00 -1.35074306e+00 +3.03206921e-01 -5.77031970e-01 -1.00848782e+00 -3.13763291e-01 -1.51554197e-01 +8.54994506e-02 +1.13006842e+00 +1.27008843e+00 -4.28572714e-01 +8.63324702e-02 -1.20420063e+00 -3.75955969e-01 +3.52198631e-01 -6.65819228e-01 +1.25734234e+00 -1.64058849e-01 -5.36881864e-01 -3.31794936e-03 +6.75697982e-01 -2.06988201e-01 +8.16632330e-01 -1.61964446e-01 -9.31006730e-01 +4.94664237e-02 -2.92413473e-01 +9.86755073e-01 +1.36508003e-01 -3.31920087e-01 +5.72347283e-01 +3.52922492e-02 -4.20116335e-01 +7.45314837e-01 +3.03744316e-01 -5.51349342e-01 +1.12121260e+00 -3.30513805e-01 -5.62534392e-01 -9.15193439e-01 +2.70687014e-01 -8.25439870e-01 +7.99042881e-01 -4.49010171e-02 -8.45761821e-02 -4.03993428e-02 -3.43436509e-01 +3.22237194e-01 -2.77043164e-01 +7.01798946e-02 +3.04926131e-02 -1.82959527e-01 +1.21885800e+00 +3.21745127e-01 -1.06917715e+00 +1.60034746e-01 +7.02688992e-01 -2.82960027e-01 -7.30909050e-01 -4.43809986e-01 -6.61918938e-01 -2.28273258e-01 -4.32147324e-01 +1.94504488e+00 +1.08569598e+00 -1.08912075e+00 -4.08712298e-01 -6.82105541e-01 +3.55312198e-01 +7.49940932e-01 -5.69468617e-01 +7.60473192e-01 -5.91169596e-01 +1.37106597e-01 +2.58272022e-01 -2.89026797e-01 +4.64928716e-01 -1.24157056e-01 -1.49865806e-01 -1.60576212e+00 -3.76582414e-01 -1.24538997e-02 -2.53819436e-01 -1.61058784e-01 -4.92160797e-01 +4.37956095e-01 -5.90883434e-01 +7.81088248e-02 +1.69709414e-01 -4.50535655e-01 -8.46401811e-01 +4.05516833e-01 -1.46535087e+00 -2.54766762e-01 +1.73994288e-01 -5.92483580e-01 +5.13713181e-01 +2.19011813e-01 -9.83132005e-01 +8.05367172e-01 -9.96921510e-02 -4.09104317e-01 +4.35521454e-02 -4.83529508e-01 -1.64986297e-01 +8.83494675e-01 +5.12701496e-02 +3.14837128e-01 -2.51316339e-01 -2.86113381e-01 +3.66998702e-01 +1.20018697e+00 +1.49086118e-01 +5.43649435e-01 +4.13051069e-01 -6.27232790e-01 -2.51386851e-01 +5.14569342e-01 -1.36281717e+00 -1.87455177e-01 +1.66766405e-01 +2.32052922e+00 +4.37368862e-02 +6.76877022e-01 -3.71316105e-01 -3.26063633e-01 -2.76161075e-01 -5.77513337e-01 +3.96617562e-01 -3.41932923e-02 -1.79199621e-01 +4.71257031e-01 -8.99268806e-01 +1.90597579e-01 +1.27005756e+00 -2.00428918e-01 +1.41581273e+00 +4.69394028e-01 -6.78513765e-01 +9.45933685e-02 -6.67544603e-01 +2.41942167e-01 +4.62816745e-01 +5.78329563e-01 -6.61126450e-02 +4.15000081e-01 -9.15799737e-02 +7.58844793e-01 +5.20521581e-01 +2.68451363e-01 -6.20567560e-01 -9.31135952e-01 -6.16279244e-01 +9.13328230e-01 +3.88871342e-01 +1.15653646e+00 +6.45054519e-01 -9.99952197e-01 +6.73263669e-01 -4.32930171e-01 -4.92827952e-01 +1.22165108e+00 +1.41126430e+00 -2.21973509e-01 +3.75850111e-01 -1.41201556e+00 +2.98175365e-01 -7.07124099e-02 +1.79011688e-01 -3.99620503e-01 +6.27602994e-01 +6.15822256e-01 -4.12362278e-01 -3.89988273e-01 +4.91814435e-01 -1.27457440e-01 -6.28349841e-01 +1.02708220e-01 +1.06477417e-01 +5.06722569e-01 +1.29497933e+00 +7.26695597e-01 -1.52185667e+00 +6.51137471e-01 -3.96538913e-01 +1.17870927e+00 +5.02338827e-01 -1.56732649e-01 -1.19399500e+00 -1.68258405e+00 +1.33440524e-01 +5.26368499e-01 +3.66271704e-01 +1.94318756e-01 -4.77202415e-01 -1.43351293e+00 +1.83581278e-01 -5.37144065e-01 -2.71538258e-01 +7.38711834e-01 +1.37862802e+00 +6.26169980e-01 -6.50315464e-01 -6.12002946e-02 -4.79339272e-01 -1.20863572e-01 -9.25122917e-01 -6.02877848e-02 -5.55834174e-01 -1.52822644e-01 -4.11123693e-01 +2.62129694e-01 +3.08697879e-01 +4.37777489e-01 -9.55577195e-01 -6.42059803e-01 -1.26863205e+00 -6.12162769e-01 +3.30099732e-01 +1.73429322e+00 -9.39852118e-01 -1.76208913e+00 -6.44303381e-01 -4.23008442e-01 -4.51679975e-01 +2.09863877e+00 +4.97477233e-01 +8.29021186e-02 +2.97271371e-01 -3.54040235e-01 -7.85986185e-01 -9.12302881e-02 +7.85694599e-01 -7.63774991e-01 -1.70602389e-02 -3.09563547e-01 -9.68591452e-01 -7.72694826e-01 +4.69567180e-01 +1.27911702e-01 -8.39743018e-02 -9.74078357e-01 +6.32070482e-01 +1.09198995e-01 +2.33027890e-01 -4.14749920e-01 +1.24997771e+00 -1.05702090e+00 -5.76407731e-01 +1.08029373e-01 +5.79895377e-01 -2.10029408e-01 +7.81964123e-01 +3.70695233e-01 -1.55387208e-01 -1.86339796e-01 -5.30431986e-01 +1.42287278e+00 +1.57816932e-01 +3.38170946e-01 -1.30735099e+00 -1.23610747e+00 -1.12736142e+00 +6.79834485e-01 -7.53611803e-01 +1.76476255e-01 +1.42063773e+00 -5.72839081e-01 -5.50417900e-01 -3.86546738e-02 +8.70787442e-01 -1.27861333e+00 +5.22417605e-01 -6.89585388e-01 +7.44122714e-02 +1.00804210e+00 +3.14225890e-02 -5.79298377e-01 -3.11664134e-01 +8.92213225e-01 -1.21839941e+00 -1.18821120e+00 +1.05446744e+00 -6.66756570e-01 -1.26575959e+00 -4.94675815e-01 +8.07337165e-01 -2.40470862e+00 +1.01084471e+00 +8.38119626e-01 +3.32205683e-01 -6.44219339e-01 +1.38061911e-01 +1.27282679e-01 +1.03731081e-01 -1.15431845e-01 -4.34248745e-01 -8.86938709e-04 +3.95345986e-01 -5.12773275e-01 -6.68110251e-01 +3.47217739e-01 -7.62239575e-01 +4.98741448e-01 -3.43368709e-01 -2.92787969e-01 -1.59223434e-02 
#Parameter# /vanilla-lstm-builder/_2 {64} 1025 ZERO_GRAD
+1.13928854e+00 +3.51282239e-01 +1.82662070e-01 +4.44262952e-01 +1.06873667e+00 +7.11658359e-01 +9.85983014e-01 +3.47459406e-01 +8.38211358e-01 +7.21330166e-01 +3.12324405e-01 +9.95604753e-01 +4.87432629e-01 +6.30163252e-01 +1.30400205e+00 +5.99834561e-01 -6.57498315e-02 +3.30771476e-01 +2.23262385e-01 +2.96389729e-01 +1.72730550e-01 +1.39798477e-01 +4.22389776e-01 -5.98559082e-01 +1.59760639e-01 -6.74626648e-01 +4.36931141e-02 -8.62393260e-01 +6.13377512e-01 -4.61835079e-02 -1.64934188e-01 -4.56278592e-01 +1.00324523e+00 +5.47192752e-01 +6.59032166e-01 +9.59005952e-01 +1.17813015e+00 +6.08428836e-01 +8.04151952e-01 +7.27318764e-01 +7.12960362e-01 +3.46376956e-01 +5.41206956e-01 +8.50746930e-01 +1.11362278e+00 +2.69195348e-01 +9.86288130e-01 +1.01598822e-01 +1.44967034e-01 -9.83799547e-02 -1.37266889e-01 -2.83006113e-02 -4.50503677e-02 -7.36830413e-01 +3.65153372e-01 -3.25037658e-01 -5.68827651e-02 -1.46500701e-02 +4.15942967e-02 +1.87849849e-01 +1.09539464e-01 +3.81935835e-01 +3.10954481e-01 -6.50199428e-02 
#Parameter# /vanilla-lstm-builder_1/_0 {64,32} 32769 ZERO_GRAD
-1.40028462e-01 -1.02791354e-01 +1.34136602e-01 -7.20791876e-01 +7.05643967e-02 +3.66335452e-01 +1.87741771e-01 +3.45221162e-02 -7.75525510e-01 -2.23170012e-01 -5.41188836e-01 -3.89871709e-02 +1.35566369e-01 -3.25305790e-01 +5.76527774e-01 +1.58121973e-01 -9.68020707e-02 -8.99834752e-01 +1.94945902e-01 -2.74999201e-01 +5.77512562e-01 -4.29154962e-01 -4.17946637e-01 -2.24268530e-02 -9.89138186e-02 +2.36838460e-01 +9.65907276e-01 +4.22747314e-01 -8.23485702e-02 +7.09944367e-01 +3.04370105e-01 +1.62636325e-01 +2.33648837e-01 -1.65347327e-02 +3.40994120e-01 -3.12048942e-01 +1.80878848e-01 +4.47359651e-01 -7.88174450e-01 +7.32710361e-01 +2.47966602e-01 -2.25231856e-01 +1.12013245e+00 -9.56764743e-02 +2.34470382e-01 +1.48576602e-01 +2.24369187e-02 -2.87383676e-01 +2.98764288e-01 +1.28676575e-02 -1.77147344e-01 +2.46308789e-01 -1.83112293e-01 -2.03578413e-01 -1.93876296e-01 -8.46743062e-02 -7.01348007e-01 -2.28382677e-01 +5.78649819e-01 -3.20069581e-01 -4.68560532e-02 -2.21126437e-01 -1.15301512e-01 +1.22027509e-02 -8.62709954e-02 -2.00442940e-01 +1.55810893e-01 +3.26745123e-01 +3.45403761e-01 -2.40411282e-01 -2.11746618e-02 +6.68516219e-01 +1.87611416e-01 +6.82425499e-01 +3.58590245e-01 -2.15351805e-01 -4.38533545e-01 +5.41313104e-02 +1.27232313e-01 -2.68893600e-01 +2.52873480e-01 +9.81673747e-02 -3.00726920e-01 +3.43841344e-01 +1.85533524e-01 +4.45526600e-01 -1.74504161e-01 +4.75198589e-02 -2.32970282e-01 -5.36824822e-01 -7.46158421e-01 -7.93746784e-02 -5.16438603e-01 +3.56778526e-03 +7.19870865e-01 +7.61533797e-01 +6.90402627e-01 -5.33475280e-01 +1.78841531e-01 -6.40710831e-01 +4.25108403e-01 -2.95087934e-01 -6.68577328e-02 +5.66880584e-01 +7.63337538e-02 -1.30733871e+00 -8.94065022e-01 -2.99686015e-01 -3.02531898e-01 -2.92546481e-01 +4.68038738e-01 +1.38451412e-01 +4.58014989e-03 +1.33885533e-01 -5.83269633e-02 +6.33876979e-01 +3.50177467e-01 -5.69507256e-02 -1.19583458e-01 -1.17153889e-02 +1.48040414e-01 +1.37943253e-01 -1.55927362e-02 +4.70485389e-01 +5.60334586e-02 -5.42931072e-02 +5.74256517e-02 -1.37871936e-01 -3.17959964e-01 +3.60299915e-01 +4.81170267e-01 -1.91727970e-02 +5.40014863e-01 +1.72810182e-02 -1.64108455e-01 +6.61591113e-01 +7.24448979e-01 +5.28311491e-01 +3.85592759e-01 -2.05719069e-01 -2.42929354e-01 +4.63094749e-02 -2.46434491e-02 +1.31820170e-02 +3.91481668e-02 -5.71414351e-01 -3.83254811e-02 -2.15252452e-02 -4.58325237e-01 -4.77300324e-02 +1.83133110e-01 +3.27808224e-02 +3.59141350e-01 -2.79182553e-01 -6.94877386e-01 -3.94584209e-01 -5.06096661e-01 +4.32256818e-01 +3.65819573e-01 +1.07413340e+00 +5.41914046e-01 -3.68008465e-01 -5.10087200e-02 -3.81408393e-01 +6.53496385e-01 -1.15376696e-01 -2.10272983e-01 +1.64039806e-01 +1.43975183e-01 -9.84193921e-01 -9.86701190e-01 -7.62417316e-02 -9.71257538e-02 -2.07976595e-01 +3.21610034e-01 +5.04359066e-01 -2.34837711e-01 +2.42349841e-02 +3.08556370e-02 +3.36455494e-01 +5.35823405e-01 -2.13194788e-02 +6.31560683e-02 +2.34978944e-01 +4.53944504e-02 +1.53736293e-01 -2.54629016e-01 +5.50881445e-01 +5.79087920e-02 -2.99925178e-01 +6.66114464e-02 -5.77910766e-02 -2.50308424e-01 +9.96402875e-02 +1.30553603e-01 -4.93534088e-01 -1.25987455e-01 +1.54309228e-01 +8.64157230e-02 -2.46207014e-01 -2.96040773e-01 -2.99690187e-01 -2.30020419e-01 +8.23360905e-02 +6.72699790e-03 -9.87856910e-02 +5.00126779e-01 +3.46820429e-02 -5.58245219e-02 -5.92829823e-01 +2.30726331e-01 +2.03331515e-01 +8.05342376e-01 -8.61180127e-01 -1.01645879e-01 +1.95580930e-01 +8.86759758e-02 +3.38881984e-02 +4.54722345e-02 +2.84397483e-01 +1.05049145e+00 -1.82584878e-02 +2.39762694e-01 +4.64026511e-01 +1.07682824e-01 -1.40046075e-01 +1.65900424e-01 -4.93104547e-01 +5.11636138e-01 -2.84186661e-01 -6.08352005e-01 +4.11604762e-01 +3.88586849e-01 -2.42593944e-01 +9.24586654e-01 -4.04670313e-02 +3.19368184e-01 +5.13209365e-02 -7.90001810e-01 -6.16480820e-02 -4.50023599e-02 -3.95006910e-02 -1.21563584e-01 -1.17905937e-01 -1.52843401e-01 -1.97919775e-02 -5.48976362e-02 +7.98435509e-02 -4.97959524e-01 -8.85241106e-02 +2.96484172e-01 -7.71096408e-01 +2.19838843e-01 +8.04662108e-02 -1.79224670e-01 -2.05646199e-03 +1.65728629e-01 -2.01595068e-01 -3.59418511e-01 -1.58380210e-01 -1.43454308e-02 -1.42323643e-01 +1.55707031e-01 -5.65770209e-01 -6.88416004e-01 -2.04138145e-01 +3.04090410e-01 +2.71667004e-01 +5.16653098e-02 -5.22383571e-01 -4.88686375e-02 +7.65039265e-01 -3.07846367e-01 -2.00244673e-02 +2.28298828e-01 -1.20721601e-01 -4.72403646e-01 -4.44949538e-01 -9.53017652e-01 -5.37581861e-01 -8.27400107e-03 -3.94600779e-01 -1.30071929e-02 +4.56534997e-02 -9.75407004e-01 -2.87618488e-01 -3.62123519e-01 -8.20484877e-01 -2.04729304e-01 +8.72969404e-02 -4.46710497e-01 +5.71634650e-01 -2.20651850e-01 -3.28680903e-01 +2.70775378e-01 +1.31775394e-01 -3.97012025e-01 +2.73266226e-01 +3.55565935e-01 +2.08712578e-01 -5.46788692e-01 -8.42514168e-03 +4.28872705e-01 -2.95721024e-01 +1.35333482e-02 +4.13812213e-02 -1.02500342e-01 -3.17605138e-01 -5.92087694e-02 -2.48687252e-01 +1.00430913e-01 -5.41412055e-01 -9.03187245e-02 -6.75517976e-01 +6.27948195e-02 -2.94415295e-01 -2.03259334e-01 -3.82108212e-01 -1.08959109e-01 -1.09099582e-01 +1.93161383e-01 -3.12693007e-02 +5.39231449e-02 +3.37834328e-01 +2.15423945e-02 -2.49554254e-02 +1.50405750e-01 -6.49501920e-01 +3.65330786e-01 +4.76624846e-01 +9.83611286e-01 +1.40043363e-01 +4.15079802e-01 +3.99366394e-02 +1.85023770e-01 +3.28040838e-01 +1.77751809e-01 -2.84918398e-01 +2.34068498e-01 -6.80972785e-02 +7.89759219e-01 -7.77473509e-01 +3.90491843e-01 +2.20646992e-01 -5.57129383e-02 -4.12852794e-01 -2.24283561e-02 -3.55147421e-02 +7.89769351e-01 +1.38124496e-01 -4.74856384e-02 +4.56509948e-01 +2.08920836e-01 -2.11388364e-01 -3.10767382e-01 -5.45232654e-01 +6.59358680e-01 -3.62548620e-01 -1.20398179e-01 +4.35922652e-01 +1.04851818e+00 -1.19044058e-01 +5.36641538e-01 +3.82070929e-01 +3.11740100e-01 +5.71459532e-01 -2.46761754e-01 +1.98752850e-01 -6.37608945e-01 -3.35510463e-01 -5.45325577e-01 +3.74545017e-03 -2.88945679e-02 +2.90591031e-01 +2.21529156e-01 +3.94326299e-02 +2.57001948e-02 -3.30410093e-01 +2.15742037e-01 -3.39387208e-01 +4.14948076e-01 -2.21444760e-02 +8.15629438e-02 -1.12529151e-01 -5.86337686e-01 +1.59746990e-01 +2.36023873e-01 -3.34722668e-01 -1.62851185e-01 +1.25941178e-02 -3.65517437e-01 +4.04923439e-01 -3.57141972e-01 +1.33202851e-01 +1.31248124e-02 -1.77901521e-01 +2.20331132e-01 +5.31652808e-01 -1.14340775e-01 +2.07720622e-01 +5.39483786e-01 -4.50298458e-01 -6.14409983e-01 +1.19720146e-01 +8.85367155e-01 -4.89259928e-01 -3.79905403e-01 -7.08955944e-01 -3.86011153e-01 +4.26680088e-01 -1.50053222e-02 +9.81004313e-02 +6.64246261e-01 -8.37132335e-02 +3.79825413e-01 +3.87911946e-01 +1.97668616e-02 -1.48344651e-01 +4.12284583e-02 +5.62839583e-02 +5.23589671e-01 -1.62607223e-01 -5.20950444e-02 +2.56335497e-01 +3.84919703e-01 -4.41096388e-02 -1.28952578e-01 -3.14860314e-01 -3.52739513e-01 -5.54790616e-01 -4.35544848e-01 -7.99879581e-02 +1.66092575e-01 -3.35901856e-01 -1.18380785e-01 -2.44847298e-01 +1.72758013e-01 +2.63389945e-01 +4.87154834e-02 +1.02829255e-01 -2.53083427e-02 +2.54635960e-01 -2.40323246e-01 +1.26153663e-01 +3.75815332e-01 +5.24138324e-02 -9.34931040e-02 +8.76010135e-02 +8.14239606e-02 +3.28343570e-01 +3.88846606e-01 +3.92663062e-01 +3.20057750e-01 +3.27373445e-01 +1.73219442e-01 +2.22272828e-01 +4.62469906e-01 +5.24957359e-01 +4.94117975e-01 -1.06387682e-01 -3.99791151e-02 -2.49909118e-01 +1.67990431e-01 -9.91553813e-02 +1.79057762e-01 -2.40554780e-01 -5.98214984e-01 -2.60602329e-02 -2.29757801e-01 -2.00265303e-01 +4.00156766e-01 +8.00505042e-01 -1.01903416e-01 +5.18712103e-01 -6.88873768e-01 -9.33367237e-02 -3.97624642e-01 -1.20089047e-01 +3.30691725e-01 +5.98142445e-02 +2.11278811e-01 -5.98173530e-04 +3.54162008e-01 +6.14589527e-02 +4.13192660e-01 -1.28384292e-01 +3.80003661e-01 +7.24214077e-01 +2.18587056e-01 -5.08579493e-01 -7.13294327e-01 +2.98769176e-01 +2.27997929e-01 +1.85586363e-01 +1.36353925e-01 +1.84464380e-01 -4.70760092e-02 -1.06434286e-01 -7.57291764e-02 -2.25274470e-02 +1.74723089e-01 +9.58447531e-03 +3.21356370e-03 +3.57049108e-02 -3.06224078e-02 +2.63908952e-01 -1.29269326e+00 +3.49566549e-01 +2.47569457e-01 -2.43920267e-01 +3.58458348e-02 +3.33972424e-02 -2.18586892e-01 +6.29325569e-01 +8.32746178e-02 +6.00511814e-03 +3.78147781e-01 -1.37858704e-01 -2.14745998e-01 -1.09329537e-01 +3.40928048e-01 +2.53062367e-01 -1.63837653e-02 +1.17385514e-01 +1.79629281e-01 -7.91971803e-01 +1.24026552e-01 +7.61327207e-01 -1.10378517e-02 +8.67201626e-01 +3.49331260e-01 +2.21307904e-01 -2.45181352e-01 +1.15958381e+00 +8.54326338e-02 -1.39581561e-01 -4.18317676e-01 -8.12341422e-02 -2.78213650e-01 -2.50559181e-01 -1.03171241e+00 +9.53684986e-01 +8.86673808e-01 -3.06292232e-02 +3.44319314e-01 -1.24769688e+00 -2.18836397e-01 +3.98820043e-02 +4.55771953e-01 -3.60850990e-01 +1.42354801e-01 +1.68234110e-01 -3.33477139e-01 +3.79943438e-02 +1.45820826e-01 -5.76741517e-01 +9.68991667e-02 -3.17696393e-01 +1.49553239e+00 -6.78622350e-02 -1.92138553e-01 +1.03901565e+00 +6.79352283e-01 +1.28575042e-01 +2.66060382e-01 -9.82278883e-01 +6.56146780e-02 -2.39267871e-02 -5.29247336e-03 -1.44896150e-01 +1.22457199e-01 +7.07687140e-02 -5.52053213e-01 -6.10713601e-01 +4.21621986e-02 +9.87661108e-02 -2.25536861e-02 +1.92427095e-02 -1.21084154e+00 +1.93524972e-01 -5.75249851e-01 -4.76700276e-01 -4.81330842e-01 -3.48564088e-01 +6.82696402e-01 +1.22900724e-01 +3.62882763e-01 +6.79866001e-02 +3.17886025e-01 -3.97680938e-01 -4.03972238e-01 +4.34870750e-01 +2.55674005e-01 +7.21076969e-03 +4.07847673e-01 +5.36827324e-03 -3.13515365e-01 -2.08012736e-03 +3.40836167e-01 +9.71508920e-01 +3.78473699e-01 +6.78925589e-02 -1.14593573e-01 -3.44734043e-02 -8.07537913e-01 -8.27341005e-02 -3.28997493e-01 -6.43815637e-01 -1.95026129e-01 -3.70782963e-03 -1.06438982e+00 +9.43158448e-01 -1.24276027e-01 +1.43132787e-02 +5.88420093e-01 -3.68246377e-01 -1.76934779e-01 +2.59215444e-01 -3.52912366e-01 +2.23192379e-01 -4.85309899e-01 +2.18178034e-01 +5.95964789e-01 +3.21427435e-01 -4.41291243e-01 +2.02492513e-02 +2.78413091e-02 -1.36742830e-01 +1.79313526e-01 -5.45852259e-02 +2.57737160e-01 +5.02532944e-02 +1.94968155e-03 -9.61310342e-02 -1.01189077e-01 -5.66516295e-02 -3.22922617e-01 -4.49120440e-02 -9.54093412e-02 -3.22060734e-02 +1.84547991e-01 +2.90339682e-02 +2.58743554e-01 +3.47914457e-01 +3.17073584e-01 -9.24000666e-02 -7.73765072e-02 +3.71988684e-01 +3.93093050e-01 -4.18063737e-02 +2.46622741e-01 -6.22596480e-02 +1.18640095e-01 +4.02993374e-02 -3.33698392e-01 -7.88633287e-01 -3.33050102e-01 +1.82214066e-01 +1.02480099e-01 -5.50445259e-01 -3.92516792e-01 +3.80177110e-01 +9.26351070e-01 -3.68841082e-01 +6.33700967e-01 -4.20185804e-01 -1.02471359e-01 +4.80578914e-02 +4.76408303e-01 -8.30031157e-01 -6.35901317e-02 +3.78073841e-01 -1.29161552e-01 +1.20995559e-01 +2.46125147e-01 -7.36015379e-01 -2.01306283e-01 +2.58622859e-02 -3.35150421e-01 -5.40460110e-01 +1.51536435e-01 +2.44872704e-01 -4.94525611e-01 +3.36360163e-03 +5.69967628e-01 -6.71800822e-02 -2.25446627e-01 +1.54886723e-01 -5.06127439e-02 -2.68372819e-02 +1.81933388e-01 +3.22733104e-01 -7.23711625e-02 +1.69013143e-01 -1.28978461e-01 +4.71707910e-01 +1.30347461e-01 +5.79817176e-01 +1.06934853e-01 +1.56097442e-01 +1.58880770e-01 +3.38878751e-01 +2.66706496e-01 -7.27833360e-02 -1.95745423e-01 +3.55595946e-01 +1.37630910e-01 -7.32832432e-01 +1.17154799e-01 +3.98791045e-01 +2.28291675e-01 +8.54971230e-01 +3.39072198e-01 +1.81851491e-01 -4.03343230e-01 -1.83756590e-01 -3.69195715e-02 +2.70987190e-02 +3.91812295e-01 -2.99397081e-01 +1.12533249e-01 +6.75480068e-01 +5.29493392e-01 +3.54645938e-01 +4.31220949e-01 +7.86054075e-01 -3.45910527e-02 -7.30637372e-01 -1.60234600e-01 +6.94059432e-01 -3.73846620e-01 +3.60753834e-01 +4.45849091e-01 -5.96176147e-01 -3.30937766e-02 -7.67820626e-02 -1.41576469e-01 +6.38382494e-01 +5.57382703e-01 +9.59136058e-03 +3.67811434e-02 +5.79519212e-01 +1.20983168e-01 +4.63797420e-01 +7.88650736e-02 +7.40773007e-02 +3.31798792e-01 -6.22418046e-01 +3.97447087e-02 -1.21580221e-01 +2.04448968e-01 -5.14948130e-01 +2.07968757e-01 +5.41892111e-01 +6.82696164e-01 -5.10210216e-01 -2.67289579e-02 -3.61313492e-01 -4.83647734e-03 -3.05797011e-02 -1.85041636e-01 +1.84593182e-02 -3.31005454e-01 -6.96817189e-02 -2.70354271e-01 -1.27670050e-01 -3.71521741e-01 +2.40415841e-01 -8.48265365e-02 +1.91125080e-01 +4.93861996e-02 +3.02378476e-01 +3.11456949e-01 +3.11536223e-01 -4.78545725e-01 -2.24772692e-01 +3.37183297e-01 -3.19307297e-01 -2.89968431e-01 -3.92811149e-01 -8.83113518e-02 -1.58136543e-02 +7.87066892e-02 +1.00030437e-01 -2.89036751e-01 +1.06606625e-01 +5.24244010e-01 +3.93822603e-02 -1.30388185e-01 +9.04029429e-01 +5.28827965e-01 +3.18427026e-01 +5.51983714e-02 -1.51426941e-01 -1.79876745e-01 -1.69816032e-01 -8.83678570e-02 +3.12157094e-01 +8.28254893e-02 +5.93060851e-01 +1.81332584e-02 -6.37449980e-01 +1.55931816e-01 -4.17913646e-01 -2.49255802e-02 -5.48320562e-02 -2.85762638e-01 -1.24800161e-01 -9.01369750e-02 -3.06645662e-01 -2.73583412e-01 -1.84570625e-01 +2.04021833e-03 -1.87687844e-01 +4.78213429e-01 +2.53588855e-01 -3.65478434e-02 +6.63466752e-01 +4.91775662e-01 +2.58715600e-01 -7.63027817e-02 -3.41187626e-01 +1.72190666e-01 +5.43870926e-01 +2.77471785e-02 -4.30522487e-02 +4.39454257e-01 +8.24425195e-04 -2.01509207e-01 -2.61304319e-01 +3.61831933e-02 -3.42529044e-02 -8.86945128e-02 -1.27371818e-01 -1.90083280e-01 -3.08614194e-01 -3.53301674e-01 -2.73164194e-02 -2.82648593e-01 -2.68800855e-01 -2.28401527e-01 -3.53523880e-01 -6.18990719e-01 +1.28834426e-01 +3.17504406e-01 +1.82597041e-01 -3.54091562e-02 +1.04365431e-01 -9.26346928e-02 +9.20198560e-02 +3.37791562e-01 -2.80297641e-02 -4.34904903e-01 +1.31745175e-01 +7.23866979e-03 -2.49182165e-01 +2.59425700e-01 +2.68744439e-01 +9.18256164e-01 +2.28748143e-01 +6.92154586e-01 -6.54652435e-03 -5.12004316e-01 -3.21897715e-01 -5.55605590e-01 +3.00082773e-01 -2.96986789e-01 +2.55412519e-01 -4.02806938e-01 +2.44738847e-01 -2.55734950e-01 -7.31750965e-01 -1.78347379e-01 +1.05035710e+00 +8.88931334e-01 -9.28352866e-03 +6.81927279e-02 +1.49593920e-01 -3.67126077e-01 -4.69654053e-01 +6.22665584e-02 +3.33184712e-02 +9.36098024e-02 -3.00495237e-01 -4.55576032e-01 +3.99086662e-02 +2.11246964e-02 +4.11165804e-02 -4.29726653e-02 -1.31752402e-01 +3.25414956e-01 -2.90154278e-01 -2.37405911e-01 +1.89467087e-01 -3.69892269e-02 +7.59016573e-02 -5.03772795e-01 -8.82882252e-03 +6.77725077e-02 -5.09061337e-01 -1.13582671e-01 +1.84578121e-01 +3.07515085e-01 +3.20958763e-01 -5.20382404e-01 -2.06757814e-01 -8.24510217e-01 -5.57025298e-02 -1.11492090e-01 +2.85016775e-01 +4.02251840e-01 -3.27994674e-01 +2.70774722e-01 +2.34014407e-01 -1.69376925e-01 +7.55730569e-02 +9.86205995e-01 +2.78628528e-01 -7.61256635e-01 -6.16291344e-01 -1.82274595e-01 +2.93236643e-01 +1.92567497e-01 +1.93432227e-01 +6.56408191e-01 -1.17276676e-01 +1.49637893e-01 +8.00814033e-02 +2.84720272e-01 +1.06991202e-01 +3.26733768e-01 -1.70819789e-01 +3.89760882e-01 +1.32457316e-01 -2.51319587e-01 +7.55403340e-01 -3.12540442e-01 -4.20968421e-02 +1.76982698e-03 -5.09346485e-01 -1.43302158e-02 -1.49287030e-01 +4.78403009e-02 -5.69073737e-01 +9.97682333e-01 +1.16608016e-01 +1.72636539e-01 -1.48191124e-01 -1.59785017e-01 -2.91338444e-01 -1.46323487e-01 -5.98680191e-02 +1.27957791e-01 -1.33597866e-01 +2.93025345e-01 -1.02073409e-01 -2.17343997e-02 -3.71042043e-02 -2.39228994e-01 +3.56510915e-02 -4.58746016e-01 -1.25715479e-01 -1.92697614e-01 -5.40008008e-01 -2.27800608e-02 +1.02585331e-01 +1.90815091e-01 +1.75655290e-01 -1.82220280e-01 -1.90101273e-04 -8.11602354e-01 -5.52641042e-02 +9.49345529e-02 -1.13840595e-01 +1.88535959e-01 -3.71095955e-01 +3.64750057e-01 +8.74610152e-03 +1.01664439e-01 -5.07558417e-03 +1.58133924e+00 +2.23740280e-01 -5.97283840e-01 -4.77465481e-01 -6.10337377e-01 +1.09929457e-01 +7.26444006e-01 +4.29663867e-01 +4.34298158e-01 +4.75542434e-02 +3.00544411e-01 -4.82527502e-02 +1.64313793e-01 +4.29199427e-01 -1.50125073e-02 +2.44947523e-01 +2.55846083e-01 +1.91539824e-01 +1.40139028e-01 +1.04916751e+00 -4.42213491e-02 -3.07731181e-02 +1.14260340e+00 -5.00861764e-01 +2.48236567e-01 -1.85570970e-01 -3.02855492e-01 -4.88204479e-01 +1.73766628e-01 +6.48156181e-02 +4.20690030e-02 +2.10576415e-01 -7.64783064e-04 -1.09054789e-01 -3.27529579e-01 -6.37737587e-02 -3.60163897e-01 -1.97455045e-02 +2.24267855e-01 -3.37854147e-01 -1.26317784e-01 +1.90665826e-01 -4.25798953e-01 +1.85717762e-01 -1.57925099e-01 +5.81447482e-01 +2.42824182e-01 +2.23784894e-01 +5.45715868e-01 +1.03587940e-01 -1.38894737e-01 +2.41008028e-01 +4.18175548e-01 +2.64171004e-01 -4.68987077e-01 -1.61964800e-02 -1.06046200e-01 -1.10631995e-01 +3.39957625e-02 +4.97610793e-02 +7.66358599e-02 +3.92313927e-01 +9.05527890e-01 -1.07046887e-02 -5.96272051e-01 +5.73533654e-01 +5.18338442e-01 -1.18462771e-01 +2.86508113e-01 -9.05671436e-03 -1.23749352e+00 -9.35844034e-02 -5.23906231e-01 +4.83283043e-01 +3.55892748e-01 +3.31870198e-01 +3.57575655e-01 -4.75442141e-01 -2.18627471e-02 -1.22288428e-01 +4.48957056e-01 -2.08845675e-01 +8.74879658e-02 -3.34177427e-02 +8.79334733e-02 -4.46865112e-01 -1.28830528e+00 -3.38469565e-01 -1.89360365e-01 -1.19676255e-03 +7.66724944e-01 +2.11739540e-01 -3.93715277e-02 +8.34872186e-01 +6.75415516e-01 -1.63662851e-01 +9.58886594e-02 -9.49863553e-01 +2.33964816e-01 +1.38063401e-01 +6.27177209e-02 +4.72612819e-03 -1.02009706e-01 +1.40121832e-01 +1.74536742e-02 -5.78403771e-01 +6.56020343e-02 -2.19142511e-02 -8.38292599e-01 -2.55947262e-01 +1.46168694e-01 -1.17602155e-01 -4.61750507e-01 +1.80235997e-01 +4.33146030e-01 -3.54529619e-01 +2.83248007e-01 +6.41542720e-03 -5.94690032e-02 -6.40006885e-02 -3.35482150e-01 +2.35028520e-01 +5.81001222e-01 -6.02919534e-02 +6.55649126e-01 -8.41135159e-02 -3.46306771e-01 -9.04833823e-02 +1.25343668e+00 -2.44605660e-01 -3.92537229e-02 +5.05701184e-01 -2.26972073e-01 +1.09161168e-01 -9.07530844e-01 -4.54525799e-01 +6.69784665e-01 -5.41827083e-01 +4.66462433e-01 +8.71111453e-01 +1.38379380e-01 -3.62379611e-01 -8.49494487e-02 -9.04791653e-01 +5.78558326e-01 -7.18942285e-01 +1.92319062e-02 +9.59010363e-01 +5.35702407e-01 -5.84191903e-02 -5.51118433e-01 -4.49278438e-03 -2.34564990e-01 -2.52240121e-01 -3.04800272e-01 -1.05286678e-02 +1.54281870e-01 -7.09405616e-02 +4.01308797e-02 -3.54622304e-01 +1.77871630e-01 +1.06673025e-01 +6.66626263e-03 -5.83392046e-02 +1.01282122e-02 +1.32144347e-01 -3.07801813e-01 -1.45621389e-01 +4.64527190e-01 +2.37297505e-01 -1.83422789e-01 +2.02711411e-02 +2.96784252e-01 -2.86711812e-01 -7.11968660e-01 +5.97310543e-01 -4.06883091e-01 -3.01316410e-01 +7.53691643e-02 -1.54959545e-01 -1.55980006e-01 -5.10278225e-01 +3.81495208e-02 +1.97375983e-01 -9.09603357e-01 +1.48522258e-01 -4.73641455e-01 -6.16330445e-01 -6.00005627e-01 +7.01918840e-01 +3.75033647e-01 -4.10063863e-01 -5.23581505e-01 +6.28469825e-01 -7.38717243e-02 +2.19597518e-01 +3.01874310e-01 -3.65347058e-01 +1.85545534e-02 -7.51359165e-02 +1.27402022e-01 -8.48289192e-01 -5.62591553e-01 -1.21184297e-01 -4.03588921e-01 +2.94485062e-01 -3.55285943e-01 -1.61732987e-01 -1.02325022e+00 +1.99912697e-01 -2.96362210e-02 -1.38739562e+00 -4.25711691e-01 -4.04048041e-02 -1.85295299e-01 -1.09119900e-01 +4.31614518e-02 +1.05425864e-01 +5.12776226e-02 -4.29906100e-02 +4.78433073e-02 +6.32497743e-02 -5.15508186e-03 +4.66461554e-02 -2.61106402e-01 -2.60998271e-02 -1.03018351e-01 +7.27861375e-02 +1.70054734e-01 -9.60076451e-02 +6.55082643e-01 +3.19966897e-02 -5.18689789e-02 +5.44846654e-01 +5.12661375e-02 -1.74703691e-02 -2.34639868e-02 -4.30210941e-02 +2.25516677e-01 -5.13651848e-01 -3.65708143e-01 +1.96424797e-01 +1.26169860e-01 -4.83386010e-01 -1.75857916e-01 -8.46713960e-01 -1.66440248e-01 -4.87588942e-02 -1.21848837e-01 +6.16159104e-02 +1.43311441e-01 +3.03950250e-01 -2.17186678e-02 +7.51389489e-02 -2.16585755e-01 -1.19889535e-01 -7.69882947e-02 -7.38318801e-01 +2.59646237e-01 +1.47855818e-01 +5.79865217e-01 +9.93372142e-01 -2.47015044e-01 +2.34317973e-01 +6.17288768e-01 -4.38636214e-01 -9.02542531e-01 -3.38213354e-01 -1.13035297e+00 +1.08031046e+00 -2.88758753e-03 +3.24932814e-01 -6.38703108e-01 +2.12214008e-01 +5.93228452e-02 -5.94516337e-01 +5.83702326e-01 +4.95584548e-01 +1.41198607e-02 +3.06401581e-01 -4.35882121e-01 +1.64770722e-01 -6.65914357e-01 -2.49772921e-01 +6.32205885e-03 -2.00955302e-01 -1.45883691e-02 -4.34654951e-01 -1.65011421e-01 +3.27691063e-02 +2.04266503e-01 +1.78331230e-02 -2.99391866e-01 +2.75952145e-02 -1.64497674e-01 -1.08635135e-01 +4.57868278e-01 +2.16123648e-02 -7.48609677e-02 -2.97520850e-02 -7.80212507e-02 -6.14674211e-01 +2.27432661e-02 -1.95282012e-01 -2.26564929e-01 -4.00175691e-01 +9.99178663e-02 +6.80539897e-03 -7.31070101e-01 +3.01305532e-01 -2.91198999e-01 -1.37076303e-01 +4.60732073e-01 +3.76940370e-01 -4.63496074e-02 -1.87803134e-01 +1.48486942e-01 -2.07341745e-01 -5.03696024e-01 -4.55152661e-01 +5.01890898e-01 -3.49721104e-01 -2.81363308e-01 +3.71562660e-01 -1.62591890e-01 -3.25547993e-01 +8.28800201e-01 +2.54655600e-01 -9.04511958e-02 +2.73515314e-01 -7.51830563e-02 -4.11374003e-01 +4.90204841e-02 +2.28428155e-01 -1.44174740e-01 +4.02920991e-01 -3.55261058e-01 -2.91539952e-02 +1.66835785e-01 +1.76757768e-01 -1.73800439e-01 +3.55656266e-01 +6.10900760e-01 +1.74488559e-01 -2.24027261e-01 -1.94295719e-01 -3.91609013e-01 -4.08972129e-02 +1.07995503e-01 -2.06109628e-01 -2.49076188e-01 +3.53063941e-01 +4.97612804e-02 +3.28723937e-01 -2.78790742e-01 -1.61044717e-01 +3.80776934e-02 +1.69947565e-01 +8.53771940e-02 +1.67135105e-01 -9.82751921e-02 +4.18678552e-01 +9.17051546e-03 -3.00840009e-02 +5.51987849e-02 -4.45513994e-01 -3.22960615e-01 +4.66223240e-01 +5.98401427e-02 -2.67952025e-01 +6.45616502e-02 +4.15811628e-01 +3.84691119e-01 +1.42998338e-01 +3.32145959e-01 -1.36556804e-01 -2.24808365e-01 +1.24446809e-01 -2.50010043e-01 -3.59562457e-01 +2.39570498e-01 +1.04583788e+00 -3.10908705e-01 -2.61175692e-01 -3.30430478e-01 +1.20585561e+00 +8.78957361e-02 +2.09609017e-01 +3.68885368e-01 -1.35828722e-02 -4.60657179e-01 -7.61057213e-02 -6.81126535e-01 -1.19729415e-02 -2.13072207e-02 +6.82821050e-02 -2.49989137e-01 -2.77889580e-01 +5.81064746e-02 -2.39947229e-03 -4.99228150e-01 -1.91383392e-01 +2.43187055e-01 -4.30122018e-01 -4.70378131e-01 -3.51678468e-02 -1.40380895e+00 -1.84371788e-02 -1.55884042e-01 -1.02909273e-02 +9.96910036e-02 +9.31569189e-02 -1.12647982e-02 +1.91826187e-02 -6.07290938e-02 +4.21259254e-01 +1.85338184e-01 +7.63729960e-02 -2.04240605e-01 +2.61584832e-03 +7.86524177e-01 +3.98946136e-01 -3.40326995e-01 +1.25665486e+00 -3.52511108e-02 +9.32929367e-02 +1.01108260e-01 -9.09976289e-02 -2.90137529e-02 -1.70597136e-01 -2.31855348e-01 -1.61763534e-01 -4.96839255e-01 -2.71382779e-01 -8.55256081e-01 -5.21182775e-01 -1.76048353e-01 +2.14327037e-01 +2.58066475e-01 -1.14146240e-01 +8.65933001e-01 -3.08146775e-01 -2.91795462e-01 +3.52045566e-01 +3.82902443e-01 -6.36297047e-01 -3.67148966e-01 +4.49913032e-02 +2.33320534e-01 -6.53498769e-01 +5.42135417e-01 +1.40108097e+00 +1.63136110e-01 +2.17063278e-01 +1.54780507e-01 -1.48971289e-01 -7.59101748e-01 +5.73074102e-01 +3.28386337e-01 -3.07306439e-01 -2.77554899e-01 -2.16892019e-01 -6.35427356e-01 +4.82229263e-01 +4.70843650e-02 -3.86107713e-01 +8.48810002e-02 -3.05854082e-01 -9.53138620e-02 +1.26656890e-01 -1.40894085e-01 +3.12746018e-01 -2.08976239e-01 +8.61983150e-02 -2.50164032e-01 +4.63752747e-01 -4.40660626e-01 -1.12849548e-01 -2.36017123e-01 +2.56306291e-01 +1.82008088e-01 +2.38348097e-01 +7.08675161e-02 +1.48271427e-01 -5.61853610e-02 +1.10226475e-01 -4.35403794e-01 +5.55002801e-02 +3.66410799e-02 +1.07781939e-01 +1.67705312e-01 -1.01938732e-01 +9.03942734e-02 +1.41332686e-01 -1.29805759e-01 +1.16209062e-02 +2.96553541e-02 -7.49310106e-02 +6.27961278e-01 +2.67636180e-01 +6.06346726e-02 +4.17504281e-01 +3.20640415e-01 +4.86197090e-03 -4.58800681e-02 -1.40027940e-01 -2.62570381e-01 -4.26590294e-01 +2.25419819e-01 +9.85625759e-02 -4.69698668e-01 +8.65861401e-02 +2.10537761e-02 -2.99346745e-01 +1.20079346e-01 +8.71562362e-02 +7.70311384e-03 -1.65923283e-01 +3.55444014e-01 +1.54699549e-01 -2.91491270e-01 +5.11438362e-02 +3.63967940e-02 -6.21626386e-03 -4.48000550e-01 +1.60780877e-01 +2.05196306e-01 +1.21077269e-01 -4.49511737e-01 -2.96426117e-01 +4.79818322e-02 +6.94813579e-02 +4.29717124e-01 -7.00510591e-02 +1.94305032e-01 +2.41245359e-01 +4.09920335e-01 -1.88408241e-01 -4.22452301e-01 -1.66945636e-01 -9.79917645e-02 -4.55210179e-01 -3.09269816e-01 +3.12065512e-01 +7.07858428e-02 +4.25056875e-01 -3.97890925e-01 +6.98931655e-03 -3.44967023e-02 +1.14472210e+00 -4.92500037e-01 +5.46962142e-01 +4.25358444e-01 +1.12234756e-01 +1.32089213e-03 +2.28789579e-02 -2.77867496e-01 -9.83882993e-02 +2.85774857e-01 -4.45992917e-01 -1.97512552e-01 -5.75999618e-02 +2.42192239e-01 -6.36104703e-01 -6.18612289e-01 -2.90565342e-01 -7.07803845e-01 +3.50253135e-02 -3.51823866e-01 -1.10341981e-01 +3.31138760e-01 +6.08495064e-02 +1.96093351e-01 -9.13347661e-01 +2.93684691e-01 +7.60620713e-01 +1.25579977e+00 -1.14584053e+00 -8.03546071e-01 -1.03564635e-01 -9.86136973e-01 -2.65529174e-02 +1.37752905e-01 -1.32802874e-02 +4.15004104e-01 +1.14981711e-01 +1.86768565e-02 -7.52634257e-02 +1.21211231e-01 +1.58971641e-02 +1.60897851e-01 +4.90782857e-01 +7.80036226e-02 -5.17235659e-02 +2.48287067e-01 +2.82436997e-01 +1.95699766e-01 -1.47431612e-01 +1.30602670e+00 -4.44878861e-02 -2.73482632e-02 -3.26213837e-02 -7.37341106e-01 -6.23079538e-01 +1.97771356e-01 -6.60179928e-02 -2.51829088e-01 -3.82374197e-01 -3.86339277e-02 -8.92324150e-02 +5.42878695e-02 -6.20193958e-01 -4.11840051e-01 -2.75156677e-01 -8.65765959e-02 -1.97966978e-01 +7.04427510e-02 -1.17560886e-01 -2.93413937e-01 +9.49045569e-02 +2.53215700e-01 +1.88886940e-01 -3.32313552e-02 +2.22539693e-01 +2.12825119e-01 -4.88458127e-02 -5.03431022e-01 +1.10804284e+00 +1.31508559e-01 +4.79109645e-01 +6.24243394e-02 -5.69962673e-02 +3.59087229e-01 -2.25969434e-01 -1.10560983e-01 +2.60455400e-01 -3.89198065e-02 +2.16955036e-01 -1.52948141e-01 -4.48039532e-01 -9.49184120e-01 +2.90342212e-01 -4.78782617e-02 -4.42803949e-01 +4.95857835e-01 +7.59193599e-01 -4.99988586e-01 -4.81186211e-01 -4.43018615e-01 +9.80715305e-02 +2.88042903e-01 -1.00584598e-02 +3.09040636e-01 -3.57375801e-01 +7.82568827e-02 -1.05788469e-01 +1.38657331e-01 +2.67597567e-02 -1.70006171e-01 -2.86367327e-01 -2.54799992e-01 -2.68684834e-01 -1.63964343e+00 -3.65401685e-01 +8.88438076e-02 +2.30211869e-01 +6.50178194e-01 +5.74061930e-01 +1.57637075e-01 +1.60788178e-01 +2.73730606e-01 -2.11136043e-01 -1.36585101e-01 -3.52193594e-01 +4.15248960e-01 +8.25349763e-02 +2.55925566e-01 +3.24557126e-02 -1.60976112e-01 +4.51708317e-01 -1.04252972e-01 -8.27598989e-01 +6.39165714e-02 -6.20446987e-02 -2.12575555e-01 +1.91868588e-01 +1.76028594e-01 -5.19843817e-01 +5.72261140e-02 +2.55960256e-01 +1.01013919e-02 +5.58429778e-01 +3.19825783e-02 +2.17160702e-01 -4.87293452e-01 -8.60707685e-02 +4.62661564e-01 -4.63478975e-02 -6.99580535e-02 +5.42178810e-01 -1.57737464e-01 +2.62830794e-01 +8.62810239e-02 +2.99952060e-01 -8.11300352e-02 +1.59336388e+00 -1.10931210e-01 -6.94206834e-01 -1.22358426e-01 -6.42019153e-01 +2.69793957e-01 -7.90099278e-02 -8.52811754e-01 +5.19847989e-01 +8.23993385e-01 -4.30712998e-01 +7.10914806e-02 -1.16561204e-01 +2.67339647e-01 +6.08005464e-01 +1.20312646e-01 +3.95720840e-01 +1.08405106e-01 -7.96521176e-03 -5.90834677e-01 +3.55399996e-01 +3.63286585e-01 -3.08998853e-01 -2.62124211e-01 -1.51553825e-01 +5.57040453e-01 -2.59636819e-01 +1.11095883e-01 +9.55194175e-01 +7.57519007e-01 +2.58894384e-01 +1.58976719e-01 -4.43367183e-01 -3.37945186e-02 -1.04752779e-01 -1.43416137e-01 +1.39603749e-01 -1.96630955e-01 +1.35461673e-01 -1.59368432e+00 -1.65648431e-01 -2.90879548e-01 +2.92393237e-01 -2.86120176e-02 -2.41002366e-01 -5.15004277e-01 +5.19150235e-02 -4.60430413e-01 -4.63057876e-01 -3.53013396e-01 -1.48351669e-01 -5.02923951e-02 +1.82367906e-01 -6.20629370e-01 +1.46977827e-01 +2.63217956e-01 +4.41751063e-01 -1.76717207e-01 -5.83046824e-02 +1.43326804e-01 +2.13130325e-01 +6.45604908e-01 -2.43577585e-01 +6.63583755e-01 +6.53564095e-01 +3.35764792e-03 -2.95932472e-01 +6.81956708e-02 -6.97394371e-01 +1.13672101e+00 -8.08361098e-02 +6.46280408e-01 +2.00653359e-01 +5.12599163e-02 +5.30967973e-02 +1.25950843e-01 -2.44763449e-01 -4.37283993e-01 +1.36210948e-01 -8.69036594e-04 +3.95155810e-02 -1.73160523e-01 -4.72713858e-01 -5.65334082e-01 +2.22167373e-01 +3.17050397e-01 -4.47035998e-01 -2.41816491e-01 +2.07415931e-02 +1.85964450e-01 +7.77779371e-02 -4.77330908e-02 +1.99985147e-01 +8.11821744e-02 +1.75196767e-01 +7.58833578e-03 -2.82101668e-02 -5.39701097e-02 -1.32239852e-02 +2.31491894e-01 -1.39460713e-01 +1.23964965e+00 -1.53222814e-01 -5.15864313e-01 +4.04944658e-01 +5.57908341e-02 +3.17899436e-02 -7.07937703e-02 -1.47769630e-01 -8.84574413e-01 -1.91738650e-01 -1.43353775e-01 -4.98273931e-02 +2.00472549e-01 -3.30273032e-01 -3.91263247e-01 +1.20220698e-01 +2.94223428e-01 +2.36897841e-01 +2.21501067e-01 -1.76490337e-01 +3.43444288e-01 +6.37631953e-01 -7.13685621e-03 +2.67037392e-01 +4.05128151e-02 +1.08221665e-01 +2.51399010e-01 -1.05056211e-01 -7.07217634e-01 -5.56588583e-02 -1.78383321e-01 -8.46423209e-02 -2.64220715e-01 -1.97811440e-01 -6.81916893e-01 +4.31880087e-01 +1.78173140e-01 -4.65811402e-01 +3.51771533e-01 -3.07441324e-01 -7.30020821e-01 +4.84857038e-02 +4.08321857e-01 -6.16539717e-01 -4.53109927e-02 +7.24160194e-01 -4.71350074e-01 -8.43129829e-02 +1.21459335e-01 -3.69957313e-02 -4.84476089e-01 -1.73387587e-01 +6.41471803e-01 -7.29878321e-02 +6.63318858e-02 +8.27494115e-02 -7.19490498e-02 -2.69297034e-01 +2.98443548e-02 -2.91121960e-01 +2.04724446e-01 -5.87734282e-01 +2.43784934e-02 -8.10075402e-01 +6.10542968e-02 -2.72689730e-01 -2.24110410e-01 -4.70943093e-01 -1.59841418e-01 -1.11256935e-01 -3.26358467e-01 -5.85116148e-02 +1.40452608e-01 -3.69265079e-02 -7.71778077e-02 +4.16682184e-01 +1.07992895e-01 -2.83101648e-01 +6.25517488e-01 -1.84695929e-01 +2.50615537e-01 -3.24163020e-01 -3.38468216e-02 +9.94424045e-01 +3.84845100e-02 -4.26157594e-01 +4.91876215e-01 -6.80281669e-02 -4.33830589e-01 -2.08974201e-02 +9.44074869e-01 -4.18001115e-01 +2.30218738e-01 +1.79811269e-02 -2.36745849e-01 -1.17287207e-02 -2.70646244e-01 +2.73189425e-01 +1.50862741e+00 -1.03188527e+00 -6.68913305e-01 +6.21628582e-01 +4.57265288e-01 +5.04269958e-01 +2.30823100e-01 -2.13006258e-01 +3.80247861e-01 -1.82365745e-01 -2.51236986e-02 +4.70972180e-01 +1.31354535e+00 +2.30705082e-01 +2.70384431e-01 +2.08004266e-01 +3.33537161e-01 +2.82901913e-01 -6.76874936e-01 -2.08990887e-01 -4.39844728e-02 -2.75278687e-01 -5.92151880e-02 -3.99427474e-01 -1.83554962e-02 +2.88077503e-01 +1.30436480e-01 +2.71162897e-01 +9.17729735e-02 +1.63782045e-01 -2.50178240e-02 -1.76593885e-01 +6.29848301e-01 +6.89813495e-01 -1.62492082e-01 +2.74533004e-01 +9.11942497e-03 +7.00618699e-02 -6.59128502e-02 -1.68997064e-01 -1.72790274e-01 -4.72858176e-02 -8.27406287e-01 -9.94369611e-02 -7.54612684e-02 +3.42871785e-01 -7.31382295e-02 -3.99143137e-02 +7.31630266e-01 -2.71171570e-01 -1.06700189e-01 +4.27942634e-01 +1.48782879e-01 -7.10644126e-01 -4.55756605e-01 +9.98943895e-02 +4.55123246e-01 -4.06570643e-01 +3.84675205e-01 +8.96372855e-01 +2.35842571e-01 -1.13075577e-01 +5.25363803e-01 +1.67589545e-01 -2.36008726e-02 +7.05712616e-01 +9.53959078e-02 -2.92798966e-01 -2.61506215e-02 +2.20051348e-01 -2.10274011e-01 +3.80066425e-01 +1.86139315e-01 +1.08587310e-01 -2.74194598e-01 -1.31271899e-01 -1.28961250e-01 +2.44666249e-01 +6.27857387e-01 +1.66072160e-01 -1.18084364e-02 +2.66134322e-01 -2.82472461e-01 +3.02518964e-01 -4.54882801e-01 -1.63306549e-01 -1.64324284e-01 +4.49243009e-01 +1.42314374e-01 +1.28398910e-01 +3.37421149e-02 +1.62039503e-01 -8.83177593e-02 +3.21441114e-01 -1.10213626e-02 +2.53384337e-02 -8.34162310e-02 +2.31071115e-01 +6.04428463e-02 +8.14823359e-02 +6.03713393e-02 -6.08070970e-01 -4.47469354e-01 +4.01567787e-01 -1.44121215e-01 -4.00968939e-01 -1.66644543e-01 -5.95293343e-01 -7.99574777e-02 +4.28722128e-02 +6.90115690e-01 +4.76992615e-02 +6.70821428e-01 +1.40798971e-01 -4.84750718e-02 +6.19534612e-01 +1.62203655e-01 -9.36447918e-01 -2.80259520e-01 +3.06677520e-01 +6.43751740e-01 -6.47243381e-01 +4.10662234e-01 +2.62848675e-01 -1.43756732e-01 -3.89327556e-01 +3.97017419e-01 +3.17097567e-02 -9.44224447e-02 +8.67553592e-01 +6.09952688e-01 +7.60154724e-02 +6.28954530e-01 -8.94886315e-01 -5.58302701e-01 -2.69728899e-02 +2.59453326e-01 -6.46158755e-01 +1.33684799e-01 +5.66771388e-01 +2.64955401e-01 -7.59949535e-02 +9.00338590e-02 +4.46684211e-01 +8.55908841e-02 +4.70111549e-01 +4.09756452e-01 +4.42644119e-01 -4.00925457e-01 -2.76099443e-01 -5.25603950e-01 +1.60838008e-01 +1.29078822e-02 +5.40567972e-02 +9.88272130e-02 -4.13347334e-02 +1.64378043e-02 -6.71125174e-01 +1.77915081e-01 -1.29939973e-01 +4.55070287e-02 -3.66832584e-01 +1.21649668e-01 -9.93419588e-02 
#Parameter# /vanilla-lstm-builder_1/_1 {64,16} 16385 ZERO_GRAD
-1.45600960e-01 -1.28080523e+00 +5.99014759e-01 -6.50638223e-01 -3.34580183e-01 +4.67606913e-03 -4.89557207e-01 -1.42285883e+00 -1.23365009e+00 +1.14139628e+00 -8.16220641e-01 +6.65167511e-01 -1.78545070e+00 +4.22985166e-01 -7.27098107e-01 -1.09501028e+00 -2.11416388e+00 +2.19230950e-01 +8.61409605e-01 +1.41618803e-01 -1.05652142e+00 +4.04117525e-01 +5.74956119e-01 -4.26305652e-01 +8.29723179e-01 +1.82126021e+00 -2.92692006e-01 -1.44247353e+00 +1.87377858e+00 +1.24240898e-01 -5.71254134e-01 +4.22266126e-01 -8.86549532e-01 -7.56086349e-01 -4.29627180e-01 -4.93219942e-01 -1.29547071e+00 -1.18094945e+00 +6.99371696e-02 -8.81283164e-01 -1.46724299e-01 +8.31745923e-01 -4.94647205e-01 -7.97498345e-01 -3.48972112e-01 +6.03330553e-01 +1.57951638e-01 -7.72848368e-01 +8.08270395e-01 -4.71465498e-01 +9.32088122e-02 -5.46989501e-01 -6.41502619e-01 +1.93912327e-01 -3.30383182e-02 -8.89127016e-01 +3.57805826e-02 +1.71901330e-01 +4.06085074e-01 +1.41635641e-01 +2.31902137e-01 +6.96062565e-01 +4.32237923e-01 -1.22247808e-01 -1.06002212e+00 +2.40381271e-01 +2.96616524e-01 -3.18655044e-01 -8.65878940e-01 -3.71400893e-01 -1.24960482e+00 +2.00494081e-01 +4.42148387e-01 -5.80154777e-01 -2.40024686e-01 -1.15187585e+00 +4.82347876e-01 -1.12160242e+00 -4.31034416e-01 -9.01742093e-03 -1.23605751e-01 -1.14458613e-03 -4.06299621e-01 +7.29662895e-01 -8.42099190e-01 -1.70947433e-01 -1.12254592e-02 +4.27811325e-01 -4.53859389e-01 -2.29192305e+00 +1.58841372e-01 +8.30975294e-01 -9.36215222e-01 -6.39374018e-01 -7.66450346e-01 +1.05369382e-01 -4.48338687e-01 +1.44319013e-01 +9.53983188e-01 +1.54126614e-01 +1.55493572e-01 -1.44087255e-01 +5.00100814e-02 -6.70763195e-01 -6.78681016e-01 -1.80445969e+00 -8.00546765e-01 -2.33659312e-01 -1.11481287e-01 -1.06320763e+00 +4.26569879e-02 +3.45538914e-01 +2.81120747e-01 -3.12858075e-01 -4.05553579e-02 -5.41401803e-01 -3.90016824e-01 +2.51547575e-01 +3.00705135e-01 -1.90818995e-01 -1.84105754e-01 +6.23953879e-01 +9.84392539e-02 +2.60098457e-01 -1.88102290e-01 -5.93564147e-03 -2.06831604e-01 +6.28665626e-01 +1.32926255e-01 +6.28977120e-01 -5.95262647e-01 +5.24173558e-01 +1.47595391e-01 +9.91981208e-01 -4.39383000e-01 +7.19313562e-01 +8.04581642e-02 +1.20515740e+00 +2.33808324e-01 -3.48675936e-01 +1.72924972e+00 +6.84424639e-01 +2.55758762e-01 -6.85939118e-02 -2.30265424e-01 -7.29240710e-03 +1.01392038e-01 -2.55974710e-01 +3.39607835e-01 -1.46307945e-01 +8.84737790e-01 -4.63925797e-04 -4.44662184e-01 +3.45892251e-01 -5.92676640e-01 -2.79271871e-01 -1.43976450e+00 -6.92343386e-03 -6.99337423e-01 -1.06040585e+00 -6.94041431e-01 +3.46687883e-01 +8.79210293e-01 +1.05954456e+00 -1.29463524e-01 +1.34272420e+00 +1.59487367e+00 +2.77065691e-02 +4.17097099e-02 +6.29841149e-01 -1.44326043e+00 -3.67513269e-01 +2.99148232e-01 +6.05989575e-01 -2.69904643e-01 +7.14074969e-01 -4.43810910e-01 -8.47215727e-02 -2.00651780e-01 +7.66772807e-01 +4.28167015e-01 -3.43132824e-01 -4.19596493e-01 +1.65861785e-01 -1.91438660e-01 +7.06691384e-01 -3.03816736e-01 -3.71833235e-01 -9.90392715e-02 +2.84466475e-01 -8.40622663e-01 +1.89187482e-01 -2.16017812e-01 +1.07407713e+00 +2.26486519e-01 +2.14157417e-01 +7.41074681e-01 +3.23585004e-01 +5.14830589e-01 +1.57501256e+00 +4.83340502e-01 -2.23391366e+00 -3.67659330e-01 -6.22261129e-02 +1.17648673e+00 -7.69316792e-01 +1.17529416e-02 +1.55958319e+00 +3.31947595e-01 -1.69468343e-01 -4.06749398e-01 -1.44551530e-01 -6.65142953e-01 +8.23521242e-02 +5.48188746e-01 +1.70023715e+00 -5.70452631e-01 -4.79902744e-01 -2.39338458e-01 +1.08911192e+00 -4.92689580e-01 +2.38304656e-05 +2.17609540e-01 -1.20662548e-01 +6.42722666e-01 +9.96348709e-02 +3.77464652e-01 -2.10713580e-01 +1.70428085e+00 +1.00965786e+00 +2.62247801e-01 +1.53047180e+00 +3.22409928e-01 -6.12133861e-01 -2.61275649e-01 +1.84404862e+00 -9.02598858e-01 -8.81161392e-02 +2.09101811e-01 +2.41075784e-01 -5.32555461e-01 +3.72763932e-01 +5.43499827e-01 -7.22219169e-01 +1.93128794e-01 -4.88893896e-01 -3.27591211e-01 +2.03894258e+00 +5.01347482e-01 -1.69613212e-01 +7.62676954e-01 +1.03508949e-01 -2.82396022e-02 -1.61939099e-01 +5.91636300e-01 -9.85273048e-02 -5.31122923e-01 -2.26505280e-01 +9.12344828e-02 +5.86327374e-01 -5.15601814e-01 -1.11110918e-01 -9.11497921e-02 +6.48825467e-02 +8.58147264e-01 -4.01711076e-01 +1.14451909e+00 -5.63492656e-01 +8.92598629e-01 +5.12833819e-02 -1.10352002e-01 -5.76021910e-01 +9.27111268e-01 -4.52458970e-02 +1.65065266e-02 -1.94655076e-01 +2.46945068e-01 -1.05448388e-01 -4.39806640e-01 -1.33802041e-01 -5.89895211e-02 -7.18009472e-01 -9.77714807e-02 +6.80620730e-01 -1.11124182e+00 -1.91321418e-01 +1.02884543e+00 +2.43448511e-01 +2.15064451e-01 +1.85665697e-01 +1.05090213e+00 +9.08329308e-01 +1.58541381e-01 +9.08146143e-01 +7.52010524e-01 -4.78363544e-01 -7.02872276e-01 -8.58888447e-01 +4.87104893e-01 +3.76943380e-01 +6.60338700e-01 +6.63357452e-02 +2.77865827e-01 +1.32187293e-03 -5.00888944e-01 +6.97570443e-01 +2.03236099e-02 +1.72811556e+00 +5.13878405e-01 -4.00776476e-01 -3.57288837e-01 +2.25596443e-01 -5.35592139e-01 +2.77318984e-01 -2.64588088e-01 -3.28459561e-01 -2.18782246e-01 +5.73583364e-01 +1.55369848e-01 +4.28445607e-01 +1.38396993e-01 -9.87323403e-01 -1.44429255e+00 -5.15540659e-01 +7.53248706e-02 -3.37949455e-01 -2.15378597e-01 -2.39736006e-01 -1.27541101e+00 -3.65071505e-01 -2.38916814e-01 -1.26405612e-01 -1.32901937e-01 +1.95415869e-01 -3.43265444e-01 +6.07904136e-01 -1.11343217e+00 +4.45344210e-01 -4.19622809e-01 -4.25769836e-01 -1.27989367e-01 +4.62567627e-01 +3.84991616e-01 -8.05885911e-01 +7.22184122e-01 +9.31562066e-01 -1.04616964e+00 -4.11096573e-01 +7.42624819e-01 +9.11624491e-01 -2.18858168e-01 +1.98551789e-01 -7.87540853e-01 +1.77096829e-01 -2.52217746e+00 -4.83485103e-01 -9.98251975e-01 -5.11079252e-01 -2.04934523e-01 -1.42213494e-01 +1.41712278e-01 +1.59928679e+00 -1.82201922e-01 -4.01437730e-01 -3.02923054e-01 -1.25402942e-01 -5.39271653e-01 -9.20219004e-01 +5.89567304e-01 +2.43780047e-01 +1.75460279e-02 -2.53055990e-01 -4.75271583e-01 -3.12798858e-01 +8.25467110e-02 -8.02207530e-01 +2.47753173e-01 -9.82406020e-01 +1.63513398e+00 +5.41985393e-01 -3.67007591e-02 -5.47341883e-01 +2.69281656e-01 +1.38846323e-01 +9.84479427e-01 -7.27545619e-02 -6.73732400e-01 +2.80772686e-01 -6.31419599e-01 -5.57768822e-01 -6.48961127e-01 -4.16725814e-01 -3.22460324e-01 +1.39888084e+00 +4.56944913e-01 -5.09760380e-01 +7.30641931e-02 -4.85222220e-01 -1.00288831e-01 -2.29174542e+00 +6.68488622e-01 -8.40459317e-02 -7.09284917e-02 -8.86210740e-01 +5.28497934e-01 -6.34718478e-01 -5.95485389e-01 -3.86908561e-01 +8.56899261e-01 -9.23342228e-01 +1.11251092e+00 -1.03486288e+00 -4.92988855e-01 -1.14336693e+00 -6.87095761e-01 -3.02840043e-02 -1.88739240e-01 +6.00513637e-01 -2.96082705e-01 -8.34648430e-01 -8.45397592e-01 -6.73944116e-01 -2.30597898e-01 -1.93335080e+00 -7.45964170e-01 -1.79520920e-01 +5.62698305e-01 -5.03775120e-01 +2.20780566e-01 -1.44024682e+00 -9.53317523e-01 -5.13939381e-01 +1.91333458e-01 -1.98596660e-02 -4.91205342e-02 -4.46491629e-01 -5.52405179e-01 -1.04663201e-01 +3.68541330e-01 -1.21380258e+00 +3.97116840e-01 -2.98916847e-01 +2.21485961e-02 +8.33796561e-02 -4.83858511e-02 -9.27780330e-01 +2.58718252e-01 -1.15231216e+00 +1.28764260e+00 +1.35692608e+00 +3.11226279e-01 +5.67351580e-02 +2.28814464e-02 +7.06458867e-01 -4.00315225e-01 +1.42353976e+00 +1.08331239e+00 -9.25918996e-01 +2.68377334e-01 -1.01901865e+00 +1.78604686e+00 +2.68827137e-02 +2.06048027e-01 +5.78104258e-01 +1.12290537e+00 -2.12009266e-01 -4.44949985e-01 +1.52847514e-01 +3.93595397e-01 -4.26737219e-01 -5.28830290e-01 +3.06601584e-01 -1.30949950e+00 +2.10964471e-01 -4.60099548e-01 -1.95988238e-01 -8.58562708e-01 +6.12712145e-01 -1.68245241e-01 -4.57060546e-01 +3.76586795e-01 +1.40890574e+00 +3.97078991e-01 +1.29323292e+00 +2.96712786e-01 +2.35387251e-01 +9.93438900e-01 -9.23175037e-01 -6.37048259e-02 +7.38278806e-01 -2.37349328e-02 +7.07168460e-01 +5.67450345e-01 -1.56881750e-01 +3.54975164e-01 +1.04078576e-01 -1.07367426e-01 +9.39538926e-02 -9.28537026e-02 +4.04683113e-01 +5.23710251e-01 +9.76421982e-02 +5.42035475e-02 -5.56210339e-01 -6.18330777e-01 -2.64488071e-01 -6.94009960e-01 -5.79467952e-01 -7.85033226e-01 +9.07295465e-01 -1.07980573e+00 +1.48560417e+00 -2.49961138e-01 +1.10082682e-02 +4.45266247e-01 +2.47301370e-01 -7.79108763e-01 +9.08159912e-01 -9.02483881e-01 -2.59191334e-01 -8.27183947e-02 +5.08287959e-02 -1.30148900e+00 -1.27927750e-01 -7.53771901e-01 +9.67102051e-02 -1.84968248e-01 +3.46042484e-01 -5.82758009e-01 -9.30439681e-03 +1.98867202e-01 -3.17982525e-01 -1.65601164e-01 -5.55805624e-01 -5.33486187e-01 -1.05208099e+00 -1.18432593e+00 +7.57921487e-03 -1.37065327e+00 -1.78471923e+00 +5.86877227e-01 -4.33175206e-01 -1.26277268e+00 -9.23881769e-01 -1.55477369e+00 +1.89152151e-01 -3.21781993e-01 +8.06093216e-01 -6.82927907e-01 +9.47768807e-01 +9.25778866e-01 +7.86080658e-01 +1.10285342e+00 +8.97673607e-01 -8.50172997e-01 -6.94157243e-01 -1.04881191e+00 -8.70945930e-01 +2.15304613e-01 +9.62611914e-01 +1.02645285e-01 +1.07657172e-01 -2.04376981e-01 +7.79485226e-01 +2.84338027e-01 -4.26465310e-02 +6.85557574e-02 +6.92641512e-02 -6.78827345e-01 -2.31911793e-01 +1.07071392e-01 +5.26812077e-01 -3.38351279e-01 +7.98198164e-01 -7.71791279e-01 +4.26405579e-01 -1.11362569e-01 +9.66654867e-02 -5.46587110e-02 +6.78903639e-01 +1.65901792e+00 +4.05504167e-01 -2.33636163e-02 -7.10777462e-01 +1.54639289e-01 -1.31734180e+00 -7.93137014e-01 -1.58488914e-01 -3.18702996e-01 +6.15119815e-01 +5.99847138e-02 +7.96497643e-01 -1.40204477e+00 +1.34901464e+00 +3.57084572e-01 -5.04766405e-01 -6.06921077e-01 +1.12074435e+00 +2.64486164e-01 +6.45381808e-02 -1.48230508e-01 +8.02755877e-02 -9.44580555e-01 +7.17506632e-02 +1.24020565e+00 -1.84897482e-01 -2.77409777e-02 -4.32849415e-02 +6.97751492e-02 +6.46794558e-01 +3.68206978e-01 +1.52827418e+00 +1.54697692e+00 +9.16159272e-01 +1.95834088e+00 -7.13500321e-01 +6.79600537e-01 +6.55361414e-01 -1.00093746e+00 +4.73890692e-01 -1.51182368e-01 +9.90090370e-01 +5.21487951e-01 +7.74940431e-01 -2.66868263e-01 -3.62762421e-01 +1.66403815e-01 -2.29036257e-01 +4.69086915e-01 -1.49822786e-01 +3.14844429e-01 +5.66381156e-01 -8.62160861e-01 -2.89966762e-01 +6.06453896e-01 +4.11184341e-01 -1.03419387e+00 +1.38986543e-01 +6.77231669e-01 -4.67651635e-01 -4.18453217e-01 -2.25119948e-01 -1.41401142e-01 -1.57863533e+00 +1.81148365e-01 +3.90672088e-01 -4.12857205e-01 -6.35797679e-01 -1.31038809e+00 -1.45898366e+00 +3.25910777e-01 +1.76572359e+00 +8.11783671e-01 -3.56098533e-01 +2.05177635e-01 +1.09552050e+00 -1.57376125e-01 -7.58427858e-01 -8.50907147e-01 +8.58315468e-01 +4.06702608e-01 +6.02169633e-01 +8.54854047e-01 -5.97225189e-01 -2.19938612e+00 -8.55641365e-01 -7.55416989e-01 -1.17348444e+00 +7.48753548e-01 +9.69563484e-01 -2.53425646e+00 -4.44681317e-01 +5.99699736e-01 -9.95377421e-01 -2.97255367e-01 -1.75228167e+00 -3.75475109e-01 -7.17090130e-01 -1.26641405e+00 +9.72425103e-01 +1.02813780e+00 -2.51742339e+00 -2.13773027e-01 +3.65203135e-02 -2.37512398e+00 -6.35373771e-01 -3.30119222e-01 -5.58957696e-01 +4.60836172e-01 +2.50372440e-01 +5.39313972e-01 -4.85708654e-01 -3.67327631e-01 +8.24606419e-02 -1.33475259e-01 +3.24515313e-01 +4.84612249e-02 -4.46879864e-01 +1.28324306e+00 +1.68500111e-01 +6.11577272e-01 -2.11892068e-01 +5.60730517e-01 -6.95618033e-01 -1.37484595e-01 -7.55609751e-01 -6.32602394e-01 -6.91323280e-01 -1.37981486e+00 -4.68812324e-02 -1.12167943e+00 -2.40567133e-01 -4.94521230e-01 -1.39815664e+00 +9.45435911e-02 -1.51204872e+00 +4.60360438e-01 -4.57312703e-01 -7.62193561e-01 +5.03089428e-01 -4.70832027e-02 +9.79854017e-02 +3.27599704e-01 -1.00021577e+00 -1.11550653e+00 +3.24319899e-01 -2.18662000e+00 +1.06807256e+00 -7.84399033e-01 +4.89754021e-01 +4.06285226e-02 -3.09343338e-01 +1.04601002e+00 -2.52604532e+00 -7.76536018e-02 +5.59347332e-01 -3.50447923e-01 +5.20617187e-01 +7.39730656e-01 -1.43913245e+00 -3.38195354e-01 +2.97421813e-01 -3.04689080e-01 -1.23832154e+00 -9.59779799e-01 -4.18738157e-01 +6.30316287e-02 +1.48051959e-02 -1.11630827e-01 -1.38051820e+00 +6.20661490e-02 -2.05947161e+00 +5.84394276e-01 +8.33361447e-02 -2.74966866e-01 -5.59714913e-01 -9.06606615e-01 +1.11121170e-01 +1.55954540e+00 -9.59099531e-01 +1.73891455e-01 -1.07948339e+00 +5.92436373e-01 +1.98726058e-01 -1.99534997e-01 -1.31010130e-01 +5.56401968e-01 -2.68425226e-01 +9.79831755e-01 +4.93028730e-01 -9.26308155e-01 +5.50648510e-01 +4.69529539e-01 +8.15084517e-01 +8.81257802e-02 +1.98105961e-01 -4.81644347e-02 +4.94782984e-01 +3.74221385e-01 -3.18304360e-01 -2.90030360e-01 +3.35240304e-01 +2.87122250e-01 -4.50218439e-01 -4.40639436e-01 -1.99080810e-01 +1.42160845e+00 +6.87564611e-01 +6.87822223e-01 -4.48806465e-01 -8.98286819e-01 -1.00657785e+00 +1.91377535e-01 +1.43229914e+00 -5.58609486e-01 -1.53328741e+00 +9.24209416e-01 +5.02664864e-01 +1.44900489e+00 -3.24196905e-01 -4.81402993e-01 +5.22049308e-01 -3.71063143e-01 +1.67922974e+00 -4.69651408e-02 +4.12918478e-01 +8.41158271e-01 -4.96974409e-01 -1.21179271e+00 +8.85325074e-01 -1.25441343e-01 -1.82758176e+00 +5.01631737e-01 +2.04588234e-01 +4.07666355e-01 -1.61163554e-01 +4.23191220e-01 +2.74857253e-01 -2.06108838e-01 +3.77467781e-01 +3.41190174e-02 -6.91076219e-02 -4.54126477e-01 +3.55122328e-01 -7.58275509e-01 +9.88848433e-02 -5.55942655e-01 -3.10547709e-01 -6.55581117e-01 +9.33374703e-01 -6.20292008e-01 +1.31915998e+00 +2.32503533e-01 +9.98350322e-01 -4.96460408e-01 +1.36106014e-01 +8.64467561e-01 +2.04314552e-02 +1.30053252e-01 +6.35711133e-01 -1.82815567e-01 -1.33106494e+00 -5.32370925e-01 -2.10948467e+00 -8.49916279e-01 -1.71254292e-01 -1.50085837e-01 +2.86222249e-01 +3.24111044e-01 +1.61192372e-01 +9.59006846e-02 -9.40749168e-01 -1.77108049e-01 +2.52429426e-01 +2.05455288e-01 +4.43920553e-01 +5.72371423e-01 +3.60279232e-01 -1.31168485e-01 +3.88507962e-01 -2.27153867e-01 +1.09359670e+00 -1.24462627e-01 +1.81473903e-02 +9.26818192e-01 +7.80355036e-01 -3.70839745e-01 +3.70456278e-01 +4.71643567e-01 +2.46064842e-01 +4.54959571e-01 +4.97004598e-01 -2.85311610e-01 +5.77925563e-01 -4.15601283e-01 +3.92590284e-01 -1.20309544e+00 -3.05203855e-01 +2.94708163e-01 -1.15494871e+00 -1.73814639e-01 -2.38003954e-01 +2.91848958e-01 -4.13233429e-01 +3.73008490e-01 +1.47990268e-02 +3.28921229e-01 +4.82563943e-01 -3.45356256e-01 +7.32308686e-01 +1.00267597e-01 +4.37334985e-01 -4.49399948e-01 +3.88678938e-01 +5.91978244e-02 +8.83909464e-02 +6.33174896e-01 -8.60796571e-01 -4.87729579e-01 -5.92850208e-01 -4.61823523e-01 -3.19462746e-01 +3.65538687e-01 +4.89745796e-01 +4.53582644e-01 -2.60218471e-01 -6.76804185e-02 -6.49569333e-02 +6.21161282e-01 -3.89548689e-01 +6.19556069e-01 +2.78545618e-01 +9.31551382e-02 +2.20085546e-01 -5.07284813e-02 -2.97779083e-01 -4.16316181e-01 -8.65239203e-02 +5.52450836e-01 -2.67206013e-01 -1.32634282e-01 +8.57561827e-01 -3.50170165e-01 -1.24207604e+00 +8.93828392e-01 +8.44252184e-02 -9.27231550e-01 +1.57729477e-01 +2.55076066e-02 -2.03837976e-01 +8.93912464e-02 -1.70840669e+00 -8.36032867e-01 -9.99548197e-01 -1.52214050e-01 +4.36687797e-01 +9.37986314e-01 +4.75237131e-01 +8.02407563e-02 +2.11655468e-01 +1.54070020e-01 -4.82602954e-01 -6.16961122e-02 +1.56596601e-01 +6.55820131e-01 -2.19182298e-01 +1.05732024e-01 -7.52222478e-01 -6.24023497e-01 +9.24133211e-02 +2.27206334e-01 -8.90437305e-01 +2.37427339e-01 -1.49541533e+00 -8.42667520e-02 -7.29811415e-02 +1.69356674e-01 +3.22853953e-01 -1.10608533e-01 -1.43408775e-01 -7.71095216e-01 -1.64539501e-01 -9.17557120e-01 -3.52106720e-01 -2.74800271e-01 +9.45681036e-02 -1.09179175e+00 -8.69732350e-02 -1.65616348e-01 +6.44636452e-02 -4.83288974e-01 -6.62462354e-01 +1.65188313e-02 +3.86776328e-01 -5.18769562e-01 +2.31404155e-01 -1.13277996e+00 -5.20374179e-01 -5.28186440e-01 +3.65878344e-01 -7.57801890e-01 +1.01973549e-01 +2.53598392e-01 +1.08012938e+00 +3.65694940e-01 +3.41038764e-01 +6.86092734e-01 +2.68408060e+00 +3.25707346e-02 +4.73923892e-01 +5.05640388e-01 +4.97725815e-01 +8.33510458e-01 -5.35151958e-01 -9.57495153e-01 +3.57722431e-01 +4.22707826e-01 +3.97288382e-01 +1.52635276e-01 -8.91575813e-02 -7.34769523e-01 +3.89266104e-01 -5.17216563e-01 +9.35085595e-01 -6.10583067e-01 +2.88255781e-01 +7.61983544e-02 -7.78690755e-01 +7.14547098e-01 -3.66710722e-01 -7.54403323e-02 -5.92894852e-01 -8.59781623e-01 +3.62500042e-01 -2.73453929e-02 -3.68767887e-01 +3.37290376e-01 +1.25680969e-03 -2.04411179e-01 +5.05518794e-01 +2.34975904e-01 +2.21210077e-01 -1.57238275e-01 -3.50765169e-01 
#Parameter# /vanilla-lstm-builder_1/_2 {64} 1025 ZERO_GRAD
