#Parameter# /vanilla-lstm-builder/_0 {64,32} 32769 ZERO_GRAD
-2.22875655e-01 -1.17665723e-01 -2.21005246e-01 -5.35714328e-01 -6.92309216e-02 -1.37120634e-01 +7.59142488e-02 -2.80409344e-02 -1.37951568e-01 +4.13619101e-01 +4.01578993e-01 +1.38947129e-01 -3.06908846e-01 -6.23301901e-02 -2.24326789e-01 -2.03781530e-01 +4.20460165e-01 +1.93887502e-01 -2.82889437e-02 +2.75237441e-01 -2.06743255e-01 +8.47309589e-01 +3.66195410e-01 +8.41849148e-01 +4.57629919e-01 +2.76504979e-02 -7.83354819e-01 -7.15395868e-01 +4.79938716e-01 -6.64163947e-01 +6.34346843e-01 +9.74314392e-01 +6.61729157e-01 +6.91539586e-01 -1.46227017e-01 -7.56309092e-01 +6.88144147e-01 +6.88241124e-01 +5.50383031e-01 +3.08456957e-01 -4.22910810e-01 +5.63581705e-01 -3.57241720e-01 +1.00773811e+00 +3.59557450e-01 -2.02454522e-01 +2.27389485e-03 +5.61457314e-02 -5.15437186e-01 -2.19673350e-01 -2.89240330e-01 +2.00120032e-01 -3.75814587e-01 -1.68773308e-02 +1.51022583e-01 -3.92826438e-01 +6.32262528e-02 -1.56187519e-01 -3.59359801e-01 -2.67732907e-02 -1.13046706e+00 -3.39153856e-02 +5.81764542e-02 -1.18324704e-01 -3.12996507e-01 +2.83969104e-01 -1.26548484e-02 +1.04362674e-01 +2.27589741e-01 +2.76724696e-01 -3.97906117e-02 +2.77223885e-02 +4.31918278e-02 -5.67563847e-02 +4.61340696e-01 -1.37480482e-01 +8.58917713e-01 +1.55098543e-01 -9.32213515e-02 +2.54868791e-02 +3.52394700e-01 +1.60438031e-01 -2.89450819e-03 +1.56664938e-01 +1.55686617e-01 -6.61055744e-02 +5.54152489e-01 -8.82570744e-01 -2.82932937e-01 -1.88406542e-01 +6.28693700e-01 +7.60656834e-01 +4.24225777e-01 -1.53622404e-01 +2.60133326e-01 -1.03573847e+00 +4.40842584e-02 -4.81072098e-01 -2.69581527e-01 +7.00321734e-01 -4.42594886e-01 -3.11246961e-01 +6.87919796e-01 -5.79957783e-01 +1.06782746e-02 +3.97385448e-01 +2.10785642e-01 +3.38076770e-01 +6.08127892e-01 -9.93796960e-02 -2.51438051e-01 -2.05411643e-01 +8.06620494e-02 +1.01519629e-01 +4.30948883e-01 -9.40473098e-03 +5.00206470e-01 +1.59514278e-01 +9.81690288e-02 +2.82809258e-01 -1.94681615e-01 +1.82672441e-01 +2.87467986e-01 +7.41181523e-02 +1.36233672e-01 +1.93867102e-01 -8.83934349e-02 +2.38453001e-01 -3.52011144e-01 -1.28403902e-01 +3.27532500e-01 -6.05683587e-02 +5.32582700e-01 +3.92170101e-01 +2.26076692e-02 +4.84544737e-03 -3.30715962e-02 -5.66383243e-01 +7.76081324e-01 +2.03413982e-03 +5.04349411e-01 +2.08510026e-01 +2.87107706e-01 -4.47403789e-01 +6.31602466e-01 +4.99264240e-01 -8.81831169e-01 +2.41175547e-01 -6.39990717e-02 -3.23337317e-01 -1.34030031e-02 -5.15239894e-01 -5.19865938e-02 +3.96903247e-01 -5.48292160e-01 +4.73053306e-01 -4.04700905e-01 +2.77010828e-01 +5.55608533e-02 -6.66994691e-01 -5.45773625e-01 -3.89719516e-01 +1.64392695e-01 +1.29848316e-01 +3.82675350e-01 +1.54830426e-01 +3.24905872e-01 -7.87218690e-01 +5.82138836e-01 -2.17601672e-01 -6.74080998e-02 -2.82721370e-01 -4.46281247e-02 +6.69828176e-01 -1.67001143e-01 +5.12570560e-01 -5.36979251e-02 -2.17996910e-01 +1.95713669e-01 -3.38117927e-01 +4.68635291e-01 +2.82751918e-01 -1.63275614e-01 +7.11516589e-02 -1.15678132e-01 -4.14019167e-01 +1.26225159e-01 -2.40793407e-01 -3.67978901e-01 +1.29262090e-01 -7.07062557e-02 +1.60850108e-01 -1.97244033e-01 +7.55747706e-02 +2.96153218e-01 -2.62088887e-02 +3.35019290e-01 +2.39260122e-01 -3.66861284e-01 -1.43753901e-01 +1.32087301e-02 -1.91743218e-03 +1.68399215e-01 +9.56998691e-02 +6.70283064e-02 +4.34578270e-01 +1.11892726e-02 +1.86452940e-01 +1.23669662e-01 +1.79307669e-01 +2.56401002e-01 -4.72777963e-01 +5.34606576e-01 +3.24593782e-01 -9.33802202e-02 -1.58149704e-01 +2.38632351e-01 -5.69469452e-01 +1.41239718e-01 +2.88771600e-01 +4.56769258e-01 +7.70066604e-02 +2.25415647e-01 -5.43277800e-01 -6.51525319e-01 +1.90285176e-01 -3.70323062e-02 +1.10384144e-01 +3.68747175e-01 +1.91436216e-01 +1.43660575e-01 -5.35004556e-01 +5.91044053e-02 -1.31142735e-02 +2.32793272e-01 -7.85279572e-02 -5.52200004e-02 +4.46776211e-01 -1.21796131e-01 -1.05446622e-01 -2.49691039e-01 -2.26920754e-01 +2.89450943e-01 -1.17732704e-01 +1.65385619e-01 -2.29339212e-01 +3.97781283e-01 +1.01206228e-01 +1.16589023e-02 +1.94658369e-01 +7.84965828e-02 -5.47397852e-01 -1.13188937e-01 +4.27123040e-01 -7.15027899e-02 +3.15815389e-01 +2.72436529e-01 +1.38356939e-01 -1.60641879e-01 -4.39127952e-01 -2.89466064e-02 +1.20973393e-01 -3.25541943e-02 +1.90631226e-01 -3.16734649e-02 +2.61128038e-01 -4.15198207e-01 +3.92053932e-01 +1.26117051e-01 +1.75916657e-01 -2.22772047e-01 +2.10917369e-01 +1.50735426e+00 +6.49302125e-01 +5.96244395e-01 +1.40145406e-01 +6.75855339e-01 -3.48321468e-01 -7.42730916e-01 +1.67283356e-01 -2.47306779e-01 -1.24228811e+00 +6.53066337e-01 -1.18294764e+00 -1.26346126e-01 +6.49776936e-01 +3.29004705e-01 -5.79788744e-01 +2.18162954e-01 -1.78382024e-01 -2.11333469e-01 -1.02089792e-01 -8.82810771e-01 +2.28488922e-01 -4.51190025e-01 +2.96205729e-01 +1.50233790e-01 -7.19520450e-01 -4.60245997e-01 +2.35765845e-01 +3.66103083e-01 +3.06126148e-01 +2.27990448e-01 -4.12542410e-02 +2.15987280e-01 -3.47400941e-02 -1.16069801e-01 -2.81779394e-02 +1.78039983e-01 +4.22167301e-01 -1.02046937e-01 +5.37364371e-03 -1.62765756e-01 -7.15454519e-02 -6.13353066e-02 -2.46307984e-01 -4.32423428e-02 +5.61535060e-02 -1.81500763e-01 +2.02387750e-01 -4.47731875e-02 +2.79019475e-01 -1.07034236e-01 -5.34745038e-01 +5.98529503e-02 -7.65551056e-04 -1.19453385e-01 +2.60018408e-01 +1.90438777e-01 +5.47526062e-01 +2.02999264e-01 -1.20314106e-01 -3.08373105e-02 +2.60587782e-01 -2.23210678e-01 +1.87893912e-01 +7.28343844e-01 -6.21178374e-03 +2.14300618e-01 +7.52251685e-01 +4.56513733e-01 +1.50975183e-01 +1.66558489e-01 -4.52943414e-01 -1.85563907e-01 -1.27573276e+00 +1.03664324e-01 +1.16274664e-02 +1.09128237e+00 +4.16533291e-01 -2.82409061e-02 -8.20037305e-01 -5.36070131e-02 -2.64353961e-01 -1.17967570e+00 -5.39822936e-01 -8.14643681e-01 -1.63911402e-01 +3.97741288e-01 -6.51562572e-01 -4.26964462e-01 +5.92057535e-04 -9.36296284e-02 +3.81599337e-01 +6.00935340e-01 +1.04397044e-01 -1.55633852e-01 -4.03077483e-01 -2.33714413e-02 +7.54937679e-02 +1.64202675e-01 +3.45833488e-02 +3.17798525e-01 +4.22622263e-01 +2.96876095e-02 -2.89456975e-02 -5.92110634e-01 +4.18375172e-02 -1.10947967e-01 +2.90998183e-02 +6.98365122e-02 +1.65281743e-01 -2.43282661e-01 +4.99332070e-01 -1.60688028e-01 -6.93951398e-02 +7.17948703e-03 -5.74694395e-01 +4.67595518e-01 -6.09508306e-02 -2.60645092e-01 -4.86627817e-01 +2.01452360e-01 +1.28187194e-01 +2.73621649e-01 -5.28482616e-01 -3.06934208e-01 -2.75460899e-01 +3.44230503e-01 +2.51919236e-02 -7.58101463e-01 +2.75197446e-01 -2.38765612e-01 +2.64503956e-01 +2.29669496e-01 +7.99193978e-01 +1.84256092e-01 +2.58858919e-01 +5.83546937e-01 -4.52827215e-01 +7.99732134e-02 +5.84976971e-01 +4.08068061e-01 -1.04094945e-01 +1.63920119e-01 -1.79009259e-01 +3.75326365e-01 +5.62980622e-02 -4.65244740e-01 -2.59879619e-01 +2.51351774e-01 +5.65756500e-01 +1.27803817e-01 +1.01666205e-01 -9.89549011e-02 +3.09526294e-01 +4.56075221e-02 +3.64766270e-01 +4.42180425e-01 +1.10843547e-01 +1.93219155e-01 -1.75053403e-01 -3.29356462e-01 +6.52854238e-03 -4.33207564e-02 -6.87977020e-03 -2.76086181e-01 +7.25301281e-02 +1.03921317e-01 -6.71955943e-02 -4.21421826e-02 +1.81629241e-01 +3.13205011e-02 +3.83212082e-02 -1.51854772e-02 +1.66775078e-01 -1.28167123e-01 -8.17144942e-03 +4.85750660e-03 +9.63328332e-02 -2.22773850e-01 +1.30123168e-01 -9.74674523e-02 -4.41810191e-02 +5.27885258e-01 +9.93608311e-02 -4.25477296e-01 +2.52655238e-01 -1.13869384e-02 +6.05846584e-01 -2.53463537e-01 -4.37275358e-02 -1.12362213e-01 -1.23441495e-01 +7.71836489e-02 +2.05861032e-02 +2.32012361e-01 +8.68606046e-02 -1.38156682e-01 -2.10296050e-01 -3.29947710e-01 +1.50691807e+00 -2.71438919e-02 +7.70901918e-01 +5.00301003e-01 -1.15476477e+00 -5.71521938e-01 +5.08898079e-01 -2.69908100e-01 +7.79565096e-01 +5.69442689e-01 +7.03808188e-01 +6.41526937e-01 -4.42674965e-01 +1.11468852e+00 +3.50970656e-01 +7.34098852e-02 +1.30994129e+00 -4.03383598e-02 +5.42338610e-01 +4.42010909e-01 +8.34855795e-01 -2.07235783e-01 -5.62077999e-01 +6.13786057e-02 +3.99947971e-01 -1.04965918e-01 -1.93200372e-02 -2.37151980e-01 -2.59714782e-01 -3.93003941e-01 -5.37713654e-02 +1.30338026e-02 -2.81457216e-01 +1.50717095e-01 -1.79873377e-01 -1.35694861e-01 -1.18862472e-01 +9.52555314e-02 -1.25655875e-01 -4.93948683e-02 -3.13034981e-01 +1.17807448e-01 -3.58522773e-01 +1.88390799e-02 +9.72797811e-01 -3.31402421e-02 -4.82979938e-02 -5.89603297e-02 +1.14126220e-01 -5.85702509e-02 -2.15597108e-01 -2.55894601e-01 -2.39143908e-01 -3.80328894e-01 -2.40359791e-02 +9.78886783e-02 -3.34707350e-01 -7.29436457e-01 -7.61806443e-02 -6.81596324e-02 -1.59316808e-01 -9.41326469e-02 +1.37949988e-01 +7.17399120e-02 +3.77122521e-01 +3.02247435e-01 +8.21131647e-01 -3.23654294e-01 -1.71174034e-01 -7.96643019e-01 -8.05975124e-02 -2.42088452e-01 +2.89691240e-01 -1.77067444e-01 +9.14808214e-02 +5.88487625e-01 -6.40637398e-01 +9.57472742e-01 +4.19759572e-01 -7.33813643e-01 +5.78711927e-01 +6.45186663e-01 -7.06779361e-01 -2.35223025e-01 -4.18643117e-01 -1.09834290e+00 +3.92042696e-01 +2.10731328e-02 +1.18565932e-01 -1.29181772e-01 +2.01375224e-02 +1.89551506e-02 +2.26184446e-03 -2.96121128e-02 -2.67608732e-01 -2.34992102e-01 -3.94096345e-01 +3.69994827e-02 -7.96647519e-02 -2.47993954e-02 +2.12128907e-01 +4.97665219e-02 -1.39451653e-01 +4.18772995e-02 -4.80234921e-01 -3.88398677e-01 -1.22688904e-01 +5.86324155e-01 +1.18072689e-01 +9.08336788e-02 +6.65205598e-01 -7.34446704e-01 +3.68341096e-02 +2.72527579e-02 -2.80035943e-01 +7.49102831e-01 +1.29809141e-01 -1.90330118e-01 +4.52742279e-01 +2.93794543e-01 -3.93844038e-01 -3.66395384e-01 -2.88796186e-01 -4.51157302e-01 -5.47189116e-01 -8.11228096e-01 -3.63114886e-02 +2.33203862e-02 +4.33330297e-01 +5.68405211e-01 -5.06781451e-02 -6.09951951e-02 -1.17336817e-01 -1.23341501e+00 +1.63335547e-01 +2.89327264e-01 -5.27432859e-01 -2.78500915e-01 +6.39912426e-01 +1.04682267e+00 -5.04944623e-01 +1.05477715e+00 +1.69431299e-01 -2.48080809e-02 +5.11731386e-01 +4.21321243e-01 +4.47772443e-01 +4.20682847e-01 -1.54321387e-01 -3.56112212e-01 +4.70818102e-01 +3.27863216e-01 +1.14476919e+00 -6.58374071e-01 -3.41416448e-02 +1.23005651e-01 -5.44428587e-01 -5.53506836e-02 -9.21806023e-02 +1.42355725e-01 -4.41641659e-01 +9.40698013e-03 +1.04531758e-01 +1.79720357e-01 +3.03291790e-02 +2.20856547e-01 +1.38488337e-01 -8.90174136e-02 +8.62287357e-02 +6.36170805e-01 -2.17360795e-01 +9.81647745e-02 +1.09926678e-01 -2.72514313e-01 -4.12657291e-01 -9.55678001e-02 +1.87116321e-02 +7.11391121e-02 +3.69552016e-01 -5.82087398e-01 -4.72535402e-01 +6.62913248e-02 -5.90487540e-01 -6.04766250e-01 -1.17429145e-01 -6.67749941e-01 -5.14347494e-01 -4.21011120e-01 -2.82327592e-01 +8.51255834e-01 -6.88945413e-01 -4.39696491e-01 -1.93029448e-01 -3.56280893e-01 +4.39187884e-01 -2.42779911e-01 +1.09585777e-01 +1.62292719e-01 +6.33063734e-01 -5.72812200e-01 +1.83213159e-01 -6.35268092e-01 -1.19577312e+00 -1.39070868e+00 -2.69828886e-01 -4.14015412e-01 -3.76769602e-01 -5.58880329e-01 -7.63514936e-01 -8.49250853e-01 +2.33874843e-02 -5.33105135e-01 -5.07260382e-01 -6.05905831e-01 -7.18285739e-01 -1.41349030e+00 -1.06916559e+00 +3.21700633e-01 +9.91974995e-02 -2.79590283e-02 -1.07291108e-02 +3.88284326e-02 +7.09341839e-02 -1.70068949e-01 -9.00636241e-02 -1.17507003e-01 -3.89310241e-01 -1.68415412e-01 -1.02666788e-01 +1.87203009e-02 -1.08831950e-01 +1.62909664e-02 -1.39935501e-02 +2.24213913e-01 -7.40101784e-02 -2.59003341e-01 -3.92644703e-02 +7.42411315e-02 +5.53432181e-02 +4.13972825e-01 -5.88719808e-02 -6.97893262e-01 +3.43777686e-01 +1.55832723e-01 +2.39104867e-01 -4.95336980e-01 -2.10939288e-01 -4.92847741e-01 -1.78561714e-02 -8.57577287e-03 +9.62802842e-02 -5.48999989e-03 -1.56839907e-01 +4.52401310e-01 -1.49433762e-01 -4.20596629e-01 +1.90026835e-01 +1.91129237e-01 +3.37005317e-01 -5.98289669e-01 -5.57970166e-01 -1.57856464e-01 +7.13664219e-02 -4.71667916e-01 +6.48300946e-01 -5.58639392e-02 +1.21965885e-01 -3.21362525e-01 -2.64577419e-01 +4.47360009e-01 +8.23336184e-01 +4.63851750e-01 -2.20966712e-02 -5.62272727e-01 +1.32289982e+00 +1.10984944e-01 +5.07362187e-01 -1.91511497e-01 -4.91694152e-01 -5.68543673e-01 -4.10425216e-01 -3.82817417e-01 -1.40401334e-01 +7.18432618e-03 -3.94114628e-02 -2.84891307e-01 -1.77319467e-01 +7.66269714e-02 -1.61502510e-01 +8.42288509e-02 -2.29034930e-01 -2.10433781e-01 -1.52972236e-01 -7.08847940e-02 +3.94363096e-03 +9.79616493e-02 -5.71308471e-02 +1.27489313e-01 -3.23677622e-02 +1.23017721e-01 +3.24561089e-01 -1.86894283e-01 +5.42888105e-01 -1.19875222e-01 -4.87916261e-01 +2.38375172e-01 -2.46973380e-01 -3.45036864e-01 -3.27666700e-01 +2.81770132e-04 -2.97235608e-01 +1.01896599e-02 +2.38812283e-01 -6.63265347e-01 -1.36398658e-01 +6.69390848e-03 -4.14500773e-01 +1.09573090e-02 -3.48194927e-01 -1.55732751e-01 -3.30640852e-01 +4.87285219e-02 +4.14437741e-01 +1.70724038e-02 +4.68656391e-01 -4.17988867e-01 -3.70086879e-01 -1.52984619e-01 -3.70562434e-01 +2.16220304e-01 +1.92304421e-02 +3.66584510e-01 +3.23286802e-01 +1.15384929e-01 +4.36868854e-02 -1.38765037e-01 +2.12312177e-01 -2.52580255e-01 +4.28967834e-01 +2.63065755e-01 -5.26787825e-02 -4.67533290e-01 -2.37554342e-01 -1.44549951e-01 +2.09135517e-01 +9.45659056e-02 +2.25633174e-01 +1.13036200e-01 -2.34005034e-01 +3.17312390e-01 -1.70699179e-01 -3.67710292e-01 -1.82938293e-01 +1.00190148e-01 -2.01740608e-01 +2.53799647e-01 +6.23771548e-03 +8.94858181e-01 +2.25180194e-01 +1.25152215e-01 +1.16158865e-01 +3.21877152e-01 +2.39538312e-01 -1.08772889e-01 -4.80912440e-02 -1.83270667e-02 -1.95709124e-01 -1.52243853e-01 -1.30798474e-01 +4.25788760e-02 +2.55899817e-01 +2.38648891e-01 +1.21597480e-02 +5.44405997e-01 -1.91111922e-01 +3.40290740e-02 +9.81234387e-02 +8.97302508e-01 +1.76696211e-01 -5.84891858e-03 +9.99440178e-02 +2.88613170e-01 -9.00333524e-01 +2.64572263e-01 -4.73293394e-01 +1.62152573e-01 +9.60606813e-01 -6.75376207e-02 +6.65917337e-01 +1.62321374e-01 -2.68073410e-01 -1.82587653e-01 +6.26995683e-01 +2.46423975e-01 -1.65042385e-01 -7.53865659e-01 +7.86348939e-01 -5.79952955e-01 -2.20549151e-01 +7.61586726e-01 -6.09601438e-01 -6.62316322e-01 +5.85561275e-01 -2.20319077e-01 +2.91151643e-01 +5.95350564e-01 -5.92980325e-01 -3.88737768e-01 -3.01503420e-01 +3.10784221e-01 -1.54425308e-01 +5.58661446e-02 -1.97249874e-01 +1.70765713e-01 +3.03278029e-01 +3.78009938e-02 -1.10067442e-01 -8.09410140e-02 -8.98390651e-01 +1.01716474e-01 +2.20415611e-02 -4.44377899e-01 -5.51672373e-03 +1.33014649e-01 -1.96778655e-01 +2.92310506e-01 +1.29556865e-01 -3.84973317e-01 +5.77067062e-02 -2.90652663e-01 -4.64830011e-01 +2.74223208e-01 +2.93740511e-01 -5.32513447e-02 +2.13289127e-01 -8.19930553e-01 +4.42003869e-02 -1.13050975e-01 +1.57615200e-01 -3.22789967e-01 +2.10917518e-01 -1.07706450e-01 -4.25151020e-01 +4.97299761e-01 -1.40105570e-02 +4.72959071e-01 +4.94448811e-01 -7.13974833e-01 +3.89279783e-01 -3.01782399e-01 -9.13594365e-01 +4.33082014e-01 -4.99328643e-01 +6.92794546e-02 +4.13434595e-01 +1.94558412e-01 +3.51896107e-01 +1.74666330e-01 -1.08597483e-02 -4.40379590e-01 +2.83999354e-01 +3.42931189e-02 +2.67156720e-01 -6.01814568e-01 -1.15751915e-01 -4.07728553e-01 -5.62272668e-01 -1.63114458e-01 -1.01845957e-01 +8.06106813e-03 +2.87556231e-01 -9.82066467e-02 -5.27818799e-01 +2.33818948e-01 -1.64689332e-01 -6.10945299e-02 +2.84784168e-01 -2.94658393e-02 -7.88966194e-02 +2.72567905e-02 +3.09867680e-01 +1.27261087e-01 +4.66067791e-02 -3.22185904e-01 -3.55182439e-01 +6.61775321e-02 -1.21007293e-01 +8.83300155e-02 +2.32903957e-02 -2.99471289e-01 -9.16021168e-02 +9.03270468e-02 -3.58541191e-01 -1.80407569e-01 -4.90342587e-01 +2.77645960e-02 +7.07986131e-02 -4.57810760e-01 -2.19031245e-01 +5.18282652e-02 +4.97909151e-02 +8.82099643e-02 +3.41847807e-01 -4.87624332e-02 -4.28187966e-01 +1.89433753e-01 +2.75235713e-01 -6.54304549e-02 +5.22200346e-01 +5.93044609e-03 +3.26554269e-01 -2.53672212e-01 +3.64842087e-01 +3.75432193e-01 +1.56494156e-01 -1.96891204e-01 -1.85813159e-01 -4.16577190e-01 -5.71389854e-01 +4.23850715e-01 +8.24581504e-01 +3.93729508e-02 -2.89473273e-02 +5.81205845e-01 -1.52431875e-01 +1.55430913e-01 +2.16952279e-01 -5.49655855e-01 +1.72820061e-01 +1.65857971e-01 -6.17435873e-01 -7.09665194e-02 -1.50993556e-01 -2.98551675e-02 +3.37308347e-01 +2.21281230e-01 +4.43606079e-01 -1.88693002e-01 +2.33317390e-02 -3.45863700e-01 -7.84569979e-02 -3.67334455e-01 +2.44923472e-01 -1.59393355e-01 +1.13708325e-01 -7.34523311e-02 -2.26640329e-01 -3.56284589e-01 -1.46452963e-01 -4.95655894e-01 -1.18447654e-01 -8.48835683e-04 -5.48918582e-02 -1.47477895e-01 -2.54980847e-02 -9.35280696e-02 +7.45595023e-02 +2.80345175e-02 +1.49794102e-01 -1.08593972e-02 -1.56354278e-01 +4.19643074e-01 +1.42714232e-01 -2.22575516e-01 -5.34531586e-02 +4.62304384e-01 +1.23616375e-01 -3.51712145e-02 +4.86846827e-02 +6.79134548e-01 +1.27116656e-02 +5.54081619e-01 +1.93002492e-01 +1.02639049e-01 -6.03929400e-01 -1.92846492e-01 -5.30430079e-01 -1.07307434e-01 -1.03695549e-01 +7.04908729e-01 +1.23455715e+00 +4.26034957e-01 +1.85626060e-01 +5.80735430e-02 -6.25280917e-01 +1.21788949e-01 -6.81678176e-01 +1.68986306e-01 +9.12622094e-01 -1.03062797e+00 -1.06707716e+00 -1.56987518e-01 +2.52019703e-01 +2.05108866e-01 -9.52954292e-02 +1.66846350e-01 +1.63211063e-01 +3.48186195e-01 -2.63481110e-01 +1.05703980e-01 -1.39347225e-01 +2.67084599e-01 +1.24917716e-01 +8.03290233e-02 +9.34417099e-02 +3.44202369e-01 +2.24409655e-01 -1.95095092e-01 +1.63940981e-01 -3.78841185e-03 -4.59922031e-02 +3.11300039e-01 +8.13437924e-02 +4.79882985e-01 +2.65498757e-02 -4.39685434e-02 +1.07790008e-01 -7.45303631e-01 -1.36024788e-01 +3.55916917e-02 -4.64033037e-01 -1.92686826e-01 -5.99366575e-02 -7.47098327e-01 -8.52807984e-02 +2.78778136e-01 -1.82243973e-01 +9.18032885e-01 +1.03375167e-02 +1.91288188e-01 +2.49599308e-01 +6.96151376e-01 +1.37609495e-02 +9.15252745e-01 +3.62571508e-01 -1.67069644e-01 +5.27288675e-01 -5.27469337e-01 -2.71390975e-01 +1.02061725e+00 -3.17330122e-01 +3.53639312e-02 +3.09495151e-01 -1.28862351e-01 +9.86182392e-01 +6.75559640e-01 -4.96289842e-02 +3.69372755e-01 -2.57855933e-03 +9.26753953e-02 -8.14414322e-02 -1.97081923e-01 +4.83722091e-01 -3.88929456e-01 -1.06814456e+00 +9.23890948e-01 -6.53327465e-01 +4.35159728e-02 +3.37962300e-01 +1.85561106e-01 +7.33845979e-02 +9.95249212e-01 -1.97531447e-01 +3.73811245e-01 +8.04416835e-02 -3.90684009e-02 +5.22881672e-02 +1.76898897e-01 +3.87566015e-02 +1.97670888e-02 +1.79019377e-01 +3.11635375e-01 +5.64758405e-02 -1.02260284e-01 -9.97337028e-02 +3.74010921e-01 +2.20248938e-01 -5.13973534e-02 +7.81388134e-02 +5.23193851e-02 -1.61148071e-01 +7.91112781e-02 +1.65601298e-01 +1.76363215e-01 +5.32209575e-01 -1.27437815e-01 -4.48476970e-02 +9.29560736e-02 +4.93293954e-03 +6.44712225e-02 -1.20528460e-01 +3.72866131e-02 +4.47902977e-01 -6.11636490e-02 +2.22740509e-02 +3.83767076e-02 -2.36135513e-01 -3.84795010e-01 +9.29947123e-02 -1.52114987e-01 -2.89084077e-01 -1.06036134e-01 +6.89932927e-02 -7.97514319e-01 +1.66758120e-01 +3.48494411e-01 +7.42361993e-02 +2.42341846e-01 -3.85809600e-01 -1.00235939e+00 -2.33651817e-01 -4.85359877e-02 -4.12430853e-01 -1.90338239e-01 +3.15392241e-02 +1.19804764e+00 -4.87744153e-01 +3.31966698e-01 +2.17145741e-01 -9.72752213e-01 +7.24851012e-01 +9.94472563e-01 -2.89717853e-01 +1.63505953e-02 -7.70145297e-01 -6.42036021e-01 +7.60071933e-01 +3.47871482e-01 +7.13651359e-01 -2.41059706e-01 +8.71504992e-02 -1.07614070e-01 -3.49453568e-01 -3.27195302e-02 -1.06337719e-01 -1.97258532e-01 -1.98580354e-01 -3.75501551e-02 -4.95277867e-02 -6.46028072e-02 +1.15392946e-01 +2.93385983e-01 -1.29777808e-02 -1.13535568e-01 +6.31069615e-02 -2.55061716e-01 -9.75570269e-03 +6.03394508e-02 -8.36092532e-01 +1.41350895e-01 -2.34559029e-01 -2.43551861e-02 -4.92018051e-02 -2.58226633e-01 +4.92174953e-01 -1.47888392e-01 -3.79599154e-01 -2.10662261e-02 -6.88450634e-02 -3.04080158e-01 +1.36636049e-01 +1.15056586e+00 +2.67454088e-01 -1.85625423e-02 +6.91239953e-01 -7.13248029e-02 +1.55778512e-01 +4.53116894e-01 -5.26852272e-02 -2.57172406e-01 -1.18258882e+00 +2.26464853e-01 -4.17233825e-01 +5.20178199e-01 +5.98589480e-01 +6.33165464e-02 -6.61347568e-01 +2.27732006e-02 -9.63103116e-01 -1.17425835e+00 -2.91835845e-01 -7.60841548e-01 -2.81979918e-01 +1.60417914e-01 -1.74228355e-01 -2.30227709e-01 -5.60695410e-01 -3.91032606e-01 -5.10932133e-02 +6.54095709e-01 +3.82494569e-01 -1.18928179e-01 -9.60749626e-01 +1.81682363e-01 -1.07171470e-02 -8.32099468e-02 +5.42326331e-01 -1.08377784e-01 +1.99382171e-01 +8.93342718e-02 +5.36921799e-01 -9.79267284e-02 +3.34741205e-01 +8.46054703e-02 +1.27642080e-01 +7.69212469e-02 -1.16195306e-01 -1.21745244e-01 +4.61776145e-02 +1.02366798e-01 -2.78104573e-01 +2.75025874e-01 -4.94575083e-01 -2.47109294e-01 +2.54492909e-02 -4.70471382e-01 +5.75557351e-02 -1.76762179e-01 -1.20702617e-01 +8.65263045e-02 -3.97815332e-02 -1.84283227e-01 +6.07597530e-01 -1.26170188e-01 -9.84932557e-02 +1.49750531e-01 +4.76610184e-01 +1.71044096e-01 -3.28040481e-01 +3.43590409e-01 +7.82308280e-01 -9.67317164e-01 +5.69245338e-01 +1.65846422e-01 -3.38044614e-01 -2.51382411e-01 -8.05568323e-02 +4.16391224e-01 -2.71669567e-01 +4.95368779e-01 +1.84964567e-01 -1.84135318e-01 +7.35566616e-01 +3.47223252e-01 -1.37146860e-01 +1.81759864e-01 +6.40736520e-01 -1.37950644e-01 +3.25707763e-01 -2.23052710e-01 -5.64028099e-02 -5.24879634e-01 +3.74617189e-01 +2.14732975e-01 +2.33014196e-01 +3.95501077e-01 +4.56766099e-01 -1.28556222e-01 -1.77111417e-01 -1.14108220e-01 -8.82421210e-02 +6.85897171e-02 +4.34995234e-01 +6.14180937e-02 -1.87484264e-01 -8.18183199e-02 -1.25864208e-01 +2.37620976e-02 -2.83394635e-01 -7.21651137e-01 +1.59708783e-01 +3.20033729e-02 +7.50254665e-04 -1.55822486e-01 +3.48479412e-02 +1.08116046e-01 +2.96510085e-02 +4.52929914e-01 +1.05640762e-01 -5.56094944e-01 -1.66180477e-01 +1.74777478e-01 -4.32364434e-01 -1.91168878e-02 -5.53207517e-01 -3.95239778e-02 +6.26686096e-01 -8.48047994e-03 +1.14350535e-01 +2.27510661e-01 +5.20206213e-01 +1.24644205e-01 -6.94619894e-01 +4.64356005e-01 +1.04222052e-01 +2.56208360e-01 -2.77994752e-01 +1.64494887e-01 -3.90140653e-01 -2.00248346e-01 +6.84377372e-01 +4.71529335e-01 -1.89262390e-01 +3.03937763e-01 -3.31383869e-02 -3.15179735e-01 +5.71312129e-01 -2.26253808e-01 +5.84800303e-01 +2.29556337e-01 +2.57878244e-01 +9.29750144e-01 -6.31159723e-01 -3.70964497e-01 -1.01674438e-01 -2.77539641e-01 +2.92733997e-01 +3.51617694e-01 +4.95250702e-01 -2.24213183e-01 -1.85683012e-01 -3.49581474e-03 -1.33331388e-01 +4.14170384e-01 +3.10660154e-01 +1.70093492e-01 -4.21507917e-02 +1.77361399e-01 +2.60697216e-01 +2.37773269e-01 +4.61577952e-01 +1.04317300e-01 -3.06194901e-01 -2.59959519e-01 +2.60012001e-01 +2.92339791e-02 +1.60661310e-01 -1.34890497e-01 -1.85883030e-01 +3.33604842e-01 -3.30101401e-02 +6.02810308e-02 +1.68908507e-01 -2.58425057e-01 -4.89171520e-02 +3.24434698e-01 +2.27906317e-01 +7.44942546e-01 -9.43283886e-02 +2.63448387e-01 +3.17379951e-01 +4.35182929e-01 +6.95034266e-02 +5.60592532e-01 +2.40387201e-01 +2.06540406e-01 -2.16778263e-01 +2.57656187e-01 -7.80488729e-01 +2.45877206e-01 -4.04619336e-01 +2.32949004e-01 +5.08358121e-01 +2.31224477e-01 +1.17095172e+00 +4.33206260e-01 -2.15076223e-01 -4.37075675e-01 -4.61237043e-01 -1.19104339e-02 -2.65208691e-01 -1.42117098e-01 +7.21576750e-01 -2.27908611e-01 -5.85841298e-01 +8.60768855e-01 -1.01125740e-01 -4.49700981e-01 +7.77640998e-01 +2.85813034e-01 +4.61019337e-01 +6.16329014e-01 -4.02886957e-01 -1.63909107e-01 -2.35892594e-01 +6.18979074e-02 +1.61977615e-02 +3.50071609e-01 -1.13409951e-01 +1.90037504e-01 +9.80862230e-03 -8.78169015e-02 -3.94426920e-02 +1.28750458e-01 -1.17484353e-01 +5.16656160e-01 +2.77247101e-01 +3.73309910e-01 +1.08404130e-01 -1.70095772e-01 -7.54042119e-02 +6.00294769e-02 +2.92470217e-01 +5.88793159e-02 +4.89161521e-01 -2.61958092e-01 +1.05813771e-01 +2.23073378e-01 -8.97847936e-02 +2.57867008e-01 -2.61423588e-01 -3.36615384e-01 +2.15598017e-01 -3.73403281e-02 +6.10532798e-02 -8.87437761e-02 +1.15607336e-01 -5.75314760e-01 -1.38689697e-01 +2.04289988e-01 +3.65986973e-02 -2.79045373e-01 +1.44130573e-01 +1.80329680e-01 +3.47480886e-02 +6.85540795e-01 +5.83397448e-01 -1.16277292e-01 -5.26316822e-01 -8.09668243e-01 -2.52541870e-01 +5.37206493e-02 +9.00928795e-01 +1.74864188e-01 -1.47660047e-01 +8.53148878e-01 -1.60399392e-01 +6.28580928e-01 -2.36517295e-01 -6.23030961e-01 +2.69306809e-01 +6.42417967e-01 -6.12792075e-01 +3.62052053e-01 -1.14723694e+00 -6.78815365e-01 +4.51120317e-01 +2.88920134e-01 +3.84375364e-01 -7.25279897e-02 +2.35006362e-01 -4.44907188e-01 -1.38855241e-02 -2.14307964e-01 -4.17948037e-01 -1.81385130e-01 +2.14343771e-01 +1.05621502e-01 +2.97036320e-02 -2.71687150e-01 +1.40956461e-01 +2.50604987e-01 -2.05581024e-01 +3.04734316e-02 -2.47194409e-01 +4.26865935e-01 -1.10889159e-01 -3.42729330e-01 +4.92142327e-02 +2.07029795e-03 +1.28354982e-01 -1.98495723e-02 -6.78508729e-02 +5.03906965e-01 +3.21925789e-01 -1.23492569e-01 +2.80054584e-02 -1.41866207e-01 -2.60291308e-01 -2.66118139e-01 +4.40514177e-01 +4.22697365e-01 -2.28386477e-01 +1.17009592e+00 +1.41692787e-01 +6.16419673e-01 -1.19758058e+00 -5.75645506e-01 +8.38987380e-02 -4.98582304e-01 -4.26596254e-01 +5.42585492e-01 +1.82783276e-01 +6.76459908e-01 +2.94583768e-01 -1.57334641e-01 -3.54149491e-01 +2.24131107e-01 +6.71920702e-02 +7.99131989e-02 +2.64186054e-01 -7.12541938e-01 -9.01999548e-02 -5.08231483e-02 +7.52102911e-01 -2.82615215e-01 +4.04911608e-01 -5.49920388e-02 +8.25438142e-01 +1.55685797e-01 -5.37662327e-01 +1.21582046e-01 -1.21486545e-01 +2.30223149e-01 +1.38679501e-02 +1.18776690e-03 +2.27857843e-01 +2.86957532e-01 +3.27276379e-01 -8.21810290e-02 -2.72075064e-03 +2.58554876e-01 +1.36376768e-02 +1.11021228e-01 -3.51930670e-02 +6.87859237e-01 -2.26469189e-01 -3.54832523e-02 -2.02701483e-02 +1.58413239e-02 +3.32574099e-01 -2.55614042e-01 -2.60465264e-01 -3.31155449e-01 -5.44476151e-01 +1.69793293e-01 +2.38441810e-01 +5.31047657e-02 -6.68720752e-02 -2.54196763e-01 +2.32753426e-01 +2.70412832e-01 +3.10228795e-01 +4.63082492e-02 -1.27483338e-01 +8.35181952e-01 -3.82375680e-02 +7.09768534e-01 +4.43286270e-01 +5.13715446e-02 -8.90945271e-02 -1.58831269e-01 -2.04588175e-01 +1.88764870e-01 -4.55794781e-01 +7.32013047e-01 -4.46424522e-02 +1.33589953e-01 +2.60281682e-01 +2.43445694e-01 +5.81823945e-01 +3.33936930e-01 -3.73523444e-01 -2.41463054e-02 +3.99775982e-01 -3.95913631e-01 -3.88907284e-01 -1.70933083e-02 -8.59892517e-02 -9.39082578e-02 -3.89219135e-01 +1.99344113e-01 -2.47507170e-01 +3.00681323e-01 +5.39434291e-02 -5.12533728e-03 -1.18418187e-01 +2.23960236e-01 +6.97216988e-02 -2.54434496e-01 +4.57133681e-01 -1.48243859e-01 +8.00612494e-02 +3.35304677e-01 +6.64927721e-01 +9.06838104e-02 +8.73360038e-03 -1.58846110e-01 -1.35577336e-01 +9.38595012e-02 -1.21644348e-01 +2.04899926e-02 +7.04775229e-02 -6.66727245e-01 +1.05103008e-01 +2.88253456e-01 +9.50123817e-02 +8.82460058e-01 +4.19861495e-01 +3.71772833e-02 -3.33289385e-01 +1.15737297e-01 -6.80062413e-01 +7.36441612e-01 -1.96573690e-01 +2.63255864e-01 +1.89444259e-01 +5.34750819e-01 +5.91414934e-03 -7.60234714e-01 +7.41715848e-01 -1.03087842e+00 -1.56848416e-01 -6.70207381e-01 +5.26463091e-02 +7.70147502e-01 -9.60535824e-01 +7.39841342e-01 +1.10470235e+00 -5.49051642e-01 +1.46648991e+00 -1.59526199e-01 -7.16749787e-01 +5.21499038e-01 +2.05492809e-01 -4.75578398e-01 +2.14101747e-01 +6.51240408e-01 +2.88476557e-01 +9.38500762e-01 +1.93943605e-01 +6.16456807e-01 -6.33606553e-01 +8.17709267e-01 -2.74361596e-02 +1.66075230e-01 -5.60559221e-02 +2.01643452e-01 +4.67920780e-01 +3.75368744e-01 +1.03155565e+00 -3.16154748e-01 -3.19169834e-02 +1.64901227e-01 -1.08491510e-01 +1.67687107e-02 +1.46619454e-01 +1.56575069e-01 +1.39123248e-02 -8.45721141e-02 +1.69260520e-02 +2.39694342e-01 +1.28999144e-01 -3.94041121e-01 +2.21721604e-01 -7.35595077e-02 +2.19467725e-03 +2.36622468e-01 +1.96256757e-01 -3.33640426e-01 +1.01645172e-01 +4.30159271e-02 -1.92560107e-01 +3.52893800e-01 -9.77967605e-02 -1.21825956e-01 +2.15206265e-01 -5.82681954e-01 +2.30416864e-01 -1.10227555e-01 -2.03854933e-01 -4.93018925e-01 +7.97541067e-02 -4.78239477e-01 -6.11302078e-01 +1.93272769e-01 -4.52172577e-01 +9.08142984e-01 +7.01350212e-01 -9.61968064e-01 -9.51054767e-02 +2.20286965e-01 -4.23989415e-01 +3.25816363e-01 -8.28158081e-01 -4.12158191e-01 +8.62463564e-02 +4.16811593e-02 +2.62448102e-01 -3.90695512e-01 -1.17348656e-01 -3.61735761e-01 +2.17385907e-02 +1.50992736e-01 +4.74287510e-01 -4.16021675e-01 -5.66406190e-01 -4.48063351e-02 -2.81031758e-01 -4.93874252e-02 -2.72118688e-01 -6.31541312e-01 +3.63773763e-01 -3.55776310e-01 -3.93970639e-01 +1.07288063e-01 -2.96292663e-01 +1.20705895e-01 +5.88349812e-02 -6.86366409e-02 -1.85505584e-01 +7.92400166e-02 +2.46139169e-01 +9.04590786e-02 +1.09392442e-01 -3.13806295e-01 -8.25764537e-01 -2.32148245e-01 +3.09526771e-02 +7.77143091e-02 +1.30873621e-01 +1.86044291e-01 +6.02807067e-02 +9.12958756e-02 +2.74260372e-01 +5.85365951e-01 +2.00038731e-01 +1.37858897e-01 +2.85123233e-02 -1.71141699e-01 +3.02314721e-02 +3.95066917e-01 +2.24587247e-01 +2.13653129e-02 +1.63956672e-01 -4.73080963e-01 -4.83364202e-02 +1.92779049e-01 +5.61432898e-01 -2.20762670e-01 -4.17373292e-02 +2.20750168e-01 -9.67700005e-01 -1.56508595e-01 +2.51339346e-01 +2.18998939e-01 +3.83485824e-01 +1.47221595e-01 -8.14788789e-02 -1.61340773e-01 +9.28143620e-01 -8.63193870e-02 -1.98263749e-01 -3.40798587e-01 +1.24812424e-01 +3.71374369e-01 +1.59049053e-02 +1.15888543e-01 +2.40612015e-01 +1.91252872e-01 +9.43131298e-02 +6.18113540e-02 +7.93318033e-01 -3.15640531e-02 +6.05827212e-01 +1.75856873e-02 +1.06798923e-02 -2.68393785e-01 +2.00906649e-01 -8.88828114e-02 -1.99700445e-01 +1.14344575e-01 -4.13157284e-01 +1.60683662e-01 +1.75645038e-01 -2.38699600e-01 -3.02583188e-01 -1.65390760e-01 -9.89779681e-02 +9.10695642e-02 -5.22012077e-02 +1.32745519e-01 -1.08769603e-01 -8.76765251e-02 -4.41706553e-02 +1.75185785e-01 +8.18719715e-02 -2.56109327e-01 -5.01014650e-01 +2.88338959e-01 +1.43943593e-01 +3.25139999e-01 +1.30794957e-01 -6.89641088e-02 -1.57834768e-01 -5.66525646e-02 -3.97512718e-04 +6.99532092e-01 +1.29397884e-01 -2.92716682e-01 +2.02162817e-01 -6.33876771e-03 -3.47926885e-01 -5.16188629e-02 +1.70154646e-02 +5.77986181e-01 +4.34959214e-03 -5.44288516e-01 -7.62278497e-01 -3.50924075e-01 -4.06758279e-01 +2.41391793e-01 +4.43894207e-01 +3.11448812e-01 +3.37133557e-01 -1.43751323e-01 -5.24718761e-01 -2.11895436e-01 -4.26694810e-01 -1.20561171e+00 +4.52007174e-01 -2.56297410e-01 +2.98115671e-01 +1.37538612e-01 -8.04285109e-01 -6.82458878e-01 -2.36591592e-01 +2.32485220e-01 +3.85020435e-01 +5.12609541e-01 -1.62984207e-02 -8.02605510e-01 -7.67544985e-01 +1.52811825e-01 -7.79081509e-02 +1.88055754e-01 +1.99513793e-01 +1.31418243e-01 +1.33567482e-01 -1.18670054e-01 +3.36034328e-01 +1.34403361e-02 -1.93625525e-01 +4.96939272e-02 -4.14472789e-01 -2.92948186e-01 +3.18213105e-02 +5.00439480e-02 +2.46615097e-01 +7.48191252e-02 -2.04509780e-01 -4.86294180e-02 +2.32406810e-01 +2.14037463e-01 +2.68114984e-01 -4.28303301e-01 -3.22596580e-02 +2.53638804e-01 -2.99203366e-01 +4.13442813e-02 -1.54325098e-01 -1.18431579e-02 -1.88393399e-01 +1.63187265e-01 +2.52003878e-01 -3.28392833e-01 -1.12267509e-01 +4.81208004e-02 -4.72916126e-01 +2.68285900e-01 -4.81919050e-01 -3.09859663e-01 -7.29884684e-01 -2.76402950e-01 -1.31603144e-02 +6.74926162e-01 +6.03399992e-01 -5.44229329e-01 +1.11717594e+00 -3.77227098e-01 -8.92295599e-01 -3.73401105e-01 -2.45535016e-01 -2.37628594e-01 +3.87323767e-01 -1.34577915e-01 +1.03156082e-01 +7.10888654e-02 -1.78882331e-01 -1.56804733e-02 +3.45598787e-01 +3.16643953e-01 +2.36296952e-02 -1.29476652e-01 -3.40672195e-01 -7.11430758e-02 +5.31502925e-02 +2.94604003e-01 -2.34304089e-02 +5.03647745e-01 -5.40089250e-01 +4.59882706e-01 -3.68631519e-02 -4.42784764e-02 +2.18145568e-02 -1.69295222e-02 +1.21049851e-01 +4.85946268e-01 -5.71400113e-02 +6.13572240e-01 +1.80738255e-01 -1.49976075e-01 +1.08116329e-01 -5.08733988e-02 -6.58006817e-02 -7.09370598e-02 -1.22748889e-01 -1.11078598e-01 +2.46767581e-01 -3.09551388e-01 -6.21719994e-02 +8.57805848e-01 +2.94709146e-01 +3.27787906e-01 -3.20641808e-02 +3.49499404e-01 +2.96201825e-01 +4.99266565e-01 -2.04660837e-02 +3.83686811e-01 +4.26587433e-01 +4.48550850e-01 -2.60183634e-03 -3.29683721e-01 -7.29862452e-01 +1.01302290e+00 -3.70776564e-01 -3.95307019e-02 +1.36825156e+00 -2.30254292e-01 +1.40404606e+00 +7.50461400e-01 -6.44328296e-01 -1.35958835e-01 +3.33060622e-01 +1.88454717e-01 +1.22291565e-01 +1.43383309e-01 +6.41814411e-01 -4.79478389e-01 -6.65236652e-01 +8.04781556e-01 -5.96703403e-02 -5.57109237e-01 +8.32337320e-01 -2.72402197e-01 +5.64065337e-01 +9.17762458e-01 -4.46029037e-01 -3.69383954e-02 -9.03950781e-02 +1.90416664e-01 +1.31391853e-01 -9.61871631e-03 +1.42719999e-01 +4.28045034e-01 +1.84281260e-01 -2.56191250e-02 -1.99178636e-01 +1.69613436e-01 -4.37664002e-01 +5.68843246e-01 +4.91475493e-01 -1.12491801e-01 -6.42152429e-02 +1.72393575e-01 -2.26457804e-01 
#Parameter# /vanilla-lstm-builder/_1 {64,16} 16385 ZERO_GRAD
+9.16674137e-01 +8.27539146e-01 +1.29047978e+00 +2.92727828e-01 +4.67740506e-01 +1.70587170e+00 +3.58343124e-01 -7.69099593e-02 +1.95668066e+00 +7.89144695e-01 +9.00962174e-01 +2.19043061e-01 -1.56136677e-01 -4.88086015e-01 +6.43740773e-01 +1.48501825e+00 +1.28703788e-01 +6.39632165e-01 +1.02789059e-01 -3.55984390e-01 +8.88887271e-02 -7.17738509e-01 +4.30128753e-01 +1.71326444e-01 +3.75342757e-01 +6.61389709e-01 -4.18069929e-01 -6.25193939e-02 -7.49892116e-01 +1.72185004e-01 +1.57785833e-01 +5.21608949e-01 +4.27237391e-01 +4.77686197e-01 +2.48044312e-01 +5.33547759e-01 +4.85821098e-01 +6.09892070e-01 -2.67978221e-01 +1.33781314e-01 +7.48836040e-01 +1.86049238e-01 -1.25813112e-01 +1.74422979e-01 +5.30778289e-01 +8.33999753e-01 +7.81344235e-01 +1.14176393e+00 -2.87041843e-01 +1.49661750e-01 -9.41395238e-02 -6.46771431e-01 -5.37067115e-01 -4.35476094e-01 -2.53699601e-01 -1.55798137e-01 +2.62168914e-01 +4.01884317e-01 +2.24121567e-02 +3.01292390e-01 +1.07061259e-01 +9.00904834e-01 +5.38850546e-01 +2.90411174e-01 +2.93576606e-02 -4.28382754e-02 -6.30122662e-01 -9.28179622e-01 +7.18624234e-01 -6.45617187e-01 -8.80408883e-02 -2.26025507e-01 +4.93010413e-03 -3.86573672e-02 +4.76846904e-01 -3.83193851e-01 -6.40724599e-02 -1.36741549e-01 -8.11247975e-02 +4.58429545e-01 -3.95639807e-01 +1.09663308e+00 -8.86514306e-01 -8.60580057e-02 -5.37740350e-01 -1.61086842e-02 +7.27126956e-01 +6.88676178e-01 +3.17216754e-01 -9.98129230e-03 -8.09547007e-01 +2.59234458e-01 -1.48983851e-01 -2.07380369e-01 +1.61939859e-01 +7.97223002e-02 -1.31637037e-01 -2.61238843e-01 -7.03042746e-01 -1.06094289e+00 -1.01020806e-01 -6.07551932e-01 -5.64509869e-01 -1.09735203e+00 -1.24142274e-01 -7.72469282e-01 +7.76704133e-01 -6.42422616e-01 -4.25731212e-01 -2.33969033e-01 -7.26441085e-01 -2.66062587e-01 +3.50054711e-01 +6.21700212e-02 -4.58172500e-01 +1.15609840e-02 -6.06636293e-02 -3.77353519e-01 -8.52221772e-02 -2.57049859e-01 +4.87084299e-01 -1.41757011e-01 -9.27421674e-02 +9.59744155e-02 +4.94168997e-02 +2.40677550e-01 +8.25251400e-01 -4.79588360e-01 -1.54345438e-01 +1.87618107e-01 +8.03601980e-01 +1.10638201e+00 -5.14501691e-01 +6.49101511e-02 -8.96360427e-02 -2.31110394e-01 +5.57898581e-01 -1.75721094e-01 -1.62638351e-01 +4.30097431e-01 -5.97076535e-01 -4.13286775e-01 -1.95820019e-01 +4.59041089e-01 -7.40099624e-02 -7.47460544e-01 -6.72798634e-01 +3.57553959e-01 -4.21878040e-01 -4.19676453e-01 -5.48757851e-01 -6.32258773e-01 -1.02370977e+00 -2.54995555e-01 -2.39259392e-01 -4.39704359e-01 -1.26298532e-01 -3.24412793e-01 -3.83196414e-01 -8.65160227e-01 -4.10532862e-01 -4.19027805e-01 -1.06027722e-01 +4.30067360e-01 -7.76256740e-01 +9.60231125e-01 -5.75258672e-01 +4.04844165e-01 -4.70666081e-01 -1.73493981e-01 -3.84335995e-01 +7.13393316e-02 -1.21977329e+00 -7.90305197e-01 -1.25923499e-01 -3.85517895e-01 -9.05856550e-01 -1.25877023e-01 -1.09188557e-01 -1.81703269e-01 -3.22048038e-01 +1.81644142e-01 +1.15959004e-01 -2.15226546e-01 -1.69105738e-01 -2.73776948e-01 -7.11750150e-01 -3.69392633e-01 +4.68058921e-02 -7.84092367e-01 -3.46005768e-01 -1.05338567e-03 -3.27299356e-01 -2.78989613e-01 -2.29281425e-01 -8.17442000e-01 +8.81094217e-01 +3.91742527e-01 +3.19213723e-03 -1.99113533e-01 -9.43202078e-02 -3.00558895e-01 +3.49606693e-01 +7.21221447e-01 -1.88727915e-01 +1.84558690e-01 +1.95379913e-01 -2.74782926e-01 +7.34136879e-01 +9.74201635e-02 +1.16555445e-01 -1.01959372e+00 -8.43059868e-02 -4.84801888e-01 -1.22077696e-01 +4.74700660e-01 -4.98601675e-01 +1.36035576e-01 +1.21767186e-01 -5.77759087e-01 -3.62207144e-01 -6.36939287e-01 -2.73178309e-01 +2.57762462e-01 +1.69812500e-01 -3.62361103e-01 +2.81997979e-01 +1.00161687e-01 +4.84593540e-01 +2.95972556e-01 -2.48594195e-01 +4.21660393e-01 +2.22406201e-02 +1.86107844e-01 -2.72626489e-01 +6.11945689e-02 +4.75692213e-01 -3.09646159e-01 +1.19463876e-01 +1.18476503e-01 +1.63308188e-01 -6.30713820e-01 +8.62015069e-01 -2.51149572e-03 +4.47129130e-01 +1.94538772e-01 +3.14448893e-01 +1.18720925e+00 -7.17873752e-01 +3.75061780e-01 +2.46390238e-01 -1.44087136e-01 -8.59995246e-01 +2.96249717e-01 -6.82882011e-01 +5.16451478e-01 +6.18735015e-01 +3.15765947e-01 +4.60096508e-01 +5.50206542e-01 -4.16414291e-01 +6.78190470e-01 +5.62701106e-01 -3.15678507e-01 +7.60083377e-01 -4.05730754e-02 +3.18012536e-01 +6.36044323e-01 -4.66190696e-01 +2.94556797e-01 -4.57811028e-01 +3.02800119e-01 -6.12322628e-01 +3.22424710e-01 -3.00707489e-01 +4.54011828e-01 -2.09931836e-01 +4.82153684e-01 -2.46600419e-01 -4.97547269e-01 -1.76993445e-01 -2.43860453e-01 -7.41823971e-01 -6.53122962e-01 -6.94985762e-02 -2.59666204e-01 -4.52138893e-02 -1.51463374e-01 -1.25672251e-01 -2.32154921e-01 -4.49961841e-01 -3.64946485e-01 -6.48971975e-01 +5.91573238e-01 -9.74628687e-01 -5.49009919e-01 -4.54798043e-02 -7.04699278e-01 +2.29962081e-01 -4.39414412e-01 -7.41276383e-01 -5.68536997e-01 -2.56651431e-01 -3.93996119e-01 -6.03906453e-01 -1.51922563e-02 +1.09961882e-01 -1.92934915e-01 -5.52329481e-01 -4.65602838e-02 -1.71662599e-01 -2.53161222e-01 -2.34019175e-01 +1.59712285e-01 -7.14359939e-01 -1.84437811e-01 +1.75477490e-01 -2.80650817e-02 +3.41989994e-01 +1.34157717e-01 -1.96563080e-01 +8.41794014e-01 +9.71922815e-01 +1.38126981e+00 -1.09180725e+00 +8.22054625e-01 +1.85379401e-01 -9.27168012e-01 +8.56984675e-01 +3.97648692e-01 -1.79890120e+00 +3.35696727e-01 +2.01806545e-01 -1.38759696e+00 +1.27403930e-01 +6.24241054e-01 +6.80166662e-01 -3.68332863e-02 +6.88443184e-01 +2.97058430e-02 +8.20460439e-01 -2.70178527e-01 +1.97070241e-01 -4.19494838e-01 -3.06958497e-01 +6.15226448e-01 +5.41884661e-01 -3.83214593e-01 +4.97138530e-01 -2.69699097e-01 +1.31255671e-01 +3.10486138e-01 +3.84235233e-01 +6.17056608e-01 +5.08893073e-01 +1.34700441e+00 +4.02010605e-02 +5.15126407e-01 +6.17538869e-01 +9.35486495e-01 +5.66759348e-01 +7.25269735e-01 -5.69884121e-01 +4.19875264e-01 +7.88000584e-01 -5.34711666e-02 +4.49490637e-01 +7.73300827e-01 -8.03929716e-02 +3.59763801e-02 -1.05965994e-01 +9.69403014e-02 -6.82773888e-01 +2.00200360e-02 +5.82335740e-02 +5.16820371e-01 -1.52345702e-01 -1.48708552e-01 -1.36433274e-01 +3.01033527e-01 +8.14767122e-01 -6.70640886e-01 -5.47239900e-01 +1.19487196e-01 -8.51267576e-01 -2.64195830e-01 -3.46100152e-01 +5.21354854e-01 -5.84909558e-01 -6.50480151e-01 -6.03476048e-01 -1.98507771e-01 -4.97691363e-01 -2.21739754e-01 -1.18184283e-01 +5.25247097e-01 +3.36200833e-01 +4.62858081e-01 -1.24241352e-01 -2.17583075e-01 +5.09201527e-01 -6.89762175e-01 +5.25843561e-01 -8.97352546e-02 +2.66172388e-03 +5.97557798e-02 -5.83584905e-01 +2.47850999e-01 +1.84560776e-01 +2.00235188e-01 +3.75309944e-01 -4.57615048e-01 +1.88294336e-01 +2.53756762e-01 +7.61816949e-02 +2.50206083e-01 -4.11077172e-01 -4.81936336e-01 +5.94251335e-01 +6.02834284e-01 -3.36040348e-01 -1.22982711e-01 -1.47641584e-01 +6.03646874e-01 +2.24310949e-01 +5.02986789e-01 -8.59338582e-01 +2.32847646e-01 -4.37276252e-02 +1.54954150e-01 +2.62342423e-01 +3.21697086e-01 +1.00861736e-01 -4.44320619e-01 +4.96831030e-01 +5.16590774e-01 +2.72658706e-01 +7.43457496e-01 +3.24199915e-01 +6.52482212e-01 -9.91768658e-01 +5.95826805e-01 -3.93772423e-02 -4.93957520e-01 -1.51167020e-01 -3.45969230e-01 -6.98799849e-01 +4.77468163e-01 -8.54231268e-02 +9.76544440e-01 +6.72549427e-01 -5.61493397e-01 -4.34708565e-01 +4.80445772e-01 +6.19820654e-01 -3.74627888e-01 +4.57371056e-01 -2.12228388e-01 -1.98048979e-01 -3.45389009e-01 +8.30681801e-01 +1.51544034e-01 -2.65847236e-01 -6.27118886e-01 +5.46014495e-02 -2.48245612e-01 +4.77413654e-01 -3.49628150e-01 +3.27323526e-01 -1.18364990e+00 +4.48363781e-01 -1.96595266e-01 -4.19477940e-01 -2.80207902e-01 -3.86879086e-01 -5.70680559e-01 -6.58098936e-01 -7.42492452e-02 -5.21595240e-01 +7.16320515e-01 -6.15998209e-01 -4.56410408e-01 +3.76226246e-01 +9.65707526e-02 +9.10287201e-02 +6.28351808e-01 +1.92782264e-02 +9.88282204e-01 +1.49174631e-01 +2.34695181e-01 -9.73632932e-01 +2.25012451e-01 +8.87092292e-01 -1.09798856e-01 -2.30608930e-04 -2.35996291e-01 +7.33738905e-03 +6.14223003e-01 -2.79762238e-01 +4.57816184e-01 -7.61087358e-01 -4.44375962e-01 -2.77617961e-01 +6.30526364e-01 +5.85854292e-01 -1.25829577e-01 -5.07901967e-01 +4.43329275e-01 -2.35038027e-02 -4.64993387e-01 +1.84866473e-01 -6.90930843e-01 -5.79898715e-01 +1.74498977e-03 -7.85223007e-01 -1.17963910e+00 +5.28225824e-02 +9.75340605e-02 +4.80434336e-02 +9.24182907e-02 -2.79758155e-01 +7.04142034e-01 -1.94733039e-01 +2.22127959e-01 +4.96766753e-02 +6.65230691e-01 +3.05742264e-01 -7.13184237e-01 -1.95466205e-01 +1.33320022e+00 +1.66434012e-02 -5.67781448e-01 +4.29733068e-01 +3.75365078e-01 +2.42962614e-01 +4.10071760e-01 +8.81166458e-01 -1.04696818e-01 +7.28461623e-01 +5.63658416e-01 -5.59118748e-01 +6.22055233e-01 +4.03652638e-01 +6.06886089e-01 +5.24273850e-02 +3.97670448e-01 +5.88406473e-02 -8.09338033e-01 +5.90618551e-01 -4.87180740e-01 +5.89963436e-01 -5.57405829e-01 -3.35532904e-01 +1.73797109e-03 +3.61528248e-01 +1.42047763e-01 +8.49956155e-01 +6.63871527e-01 +1.23146791e-02 -2.18286738e-01 +6.69271350e-01 +3.33643496e-01 -2.41571248e-01 -7.79158156e-03 +6.20039165e-01 +8.04689080e-02 -2.64985651e-01 +1.29204556e-01 -1.44904181e-01 -7.65672103e-02 +9.54568863e-01 +1.08602151e-01 -2.95677006e-01 +3.36095095e-01 +9.30135325e-02 -3.98857445e-01 -2.26315856e-01 +3.20384130e-02 +5.10154188e-01 -1.08987391e+00 -7.87402332e-01 -4.58769530e-01 -9.71955895e-01 -4.11715418e-01 -6.49405479e-01 -3.76494288e-01 +1.03951164e-01 +7.50662446e-01 +1.60567716e-01 +1.23442650e+00 +9.08578634e-02 -7.53188133e-01 -1.14433043e-01 -2.86811101e-03 +3.35555196e-01 +2.27998823e-01 +2.86252350e-01 -9.37046260e-02 -2.04548985e-01 -9.38300863e-02 +2.29521021e-01 -6.45435512e-01 +1.81470588e-01 -8.05565417e-02 +3.06196678e-02 -1.64967731e-01 -4.34163004e-01 +1.73485577e-01 -1.92464720e-02 -2.61173934e-01 +9.67618585e-01 +9.03890848e-01 +3.88340086e-01 -2.67630309e-01 +8.36035788e-01 +1.12684333e+00 +2.01316580e-01 +7.00563252e-01 -7.58617759e-01 +2.73938149e-01 +8.61260891e-02 +1.00337267e+00 +3.44318599e-01 -2.76234061e-01 -3.93738359e-01 -2.10446402e-01 +7.57866442e-01 -7.89721459e-02 +1.65328652e-01 -6.24023616e-01 -1.43830538e-01 +1.54577894e-02 -9.46126878e-01 +4.88112986e-01 +2.64684081e-01 +3.17469299e-01 -3.73348929e-02 -1.99113980e-01 -5.21767378e-01 +2.77673542e-01 +4.43477958e-01 +5.16549587e-01 +3.89439434e-01 +5.61191142e-01 -8.18699449e-02 +1.05684929e-01 +5.81384242e-01 -9.95380282e-02 +6.76420093e-01 -8.55467096e-02 +7.33882934e-02 +4.56797540e-01 +1.30909560e-02 -1.66655630e-01 -2.08347574e-01 +3.08469981e-01 -1.90079808e-01 +2.40237936e-01 -3.77907425e-01 +4.01217192e-01 +5.81793953e-03 -2.52582550e-01 +9.43209291e-01 +3.31734210e-01 -7.45982885e-01 -9.85373855e-02 -5.09196639e-01 +5.13553739e-01 -2.08545044e-01 -3.42205852e-01 +2.10581616e-01 -8.97316635e-02 -3.12382460e-01 -2.13809639e-01 -6.75685823e-01 +1.43629983e-02 +9.54318941e-02 +2.34847561e-01 +1.62433654e-01 -7.83899128e-01 -7.15893805e-01 -2.59993821e-01 +8.08823884e-01 -2.00563818e-01 -5.52673578e-01 -4.47878122e-01 +1.41949415e-01 -2.07786828e-01 -2.26941630e-02 +1.27752557e-01 -2.33543850e-02 +6.97202012e-02 -6.06820546e-02 -4.08828199e-01 -3.51259649e-01 -1.42987400e-01 +2.01820612e-01 -5.36212862e-01 -3.01197976e-01 -5.50887436e-02 +7.19279468e-01 -2.34958500e-01 +1.89050332e-01 +5.24003357e-02 -2.38594174e-01 +4.26173151e-01 -2.36468256e-01 +1.67406034e-02 +2.50097066e-01 +6.83032796e-02 +5.84331632e-01 +8.39888573e-01 -3.63148570e-01 -3.81554440e-02 +2.79493660e-01 +8.22742641e-01 -6.57340765e-01 -7.09690332e-01 -1.80216059e-01 +9.39744473e-01 -1.44557180e-02 +1.04550159e+00 +3.74708921e-02 +8.25788915e-01 -2.81436294e-01 +1.73757095e-02 +9.42552328e-01 +6.27641499e-01 +1.91495121e-01 -9.94318724e-02 -1.69877321e-01 +6.98123991e-01 -3.30311745e-01 -2.23935962e-01 +3.11098993e-01 -2.87831336e-01 -1.42519802e-01 +4.37660545e-01 -6.35513186e-01 +1.91560507e-01 +3.20734620e-01 -2.01432109e-01 -2.60838829e-02 -6.04682684e-01 -7.80918717e-01 -8.52876306e-01 +6.37204409e-01 +7.09287869e-03 -8.32714081e-01 -7.23473787e-01 -5.34042478e-01 -1.52898788e-01 -4.74307477e-01 -3.74833494e-01 +4.11930650e-01 -4.78468746e-01 +1.58475071e-01 +6.18544407e-02 +4.13641810e-01 -4.89933074e-01 +2.46401519e-01 -1.25102848e-01 -3.98938775e-01 -9.92847383e-01 -8.45421076e-01 +4.43700589e-02 +9.54723135e-02 +2.80247897e-01 +4.52042893e-02 -2.19352290e-01 +1.05490960e-01 -5.97400188e-01 +6.69233382e-01 +2.46986691e-02 +3.66492987e-01 -2.69940108e-01 -1.50113069e-02 -6.52393043e-01 -1.45261422e-01 -1.04043126e+00 -2.28276085e-02 -6.97543681e-01 -9.69687328e-02 +5.56521475e-01 -1.03905000e-01 +6.29268438e-02 -9.93593454e-01 -2.11887479e-01 -3.94385248e-01 -1.02042675e-01 +4.94556516e-01 -8.13625306e-02 -9.20835853e-01 -5.62395990e-01 -5.09484172e-01 +8.19078743e-01 +1.94224551e-01 -4.98889536e-01 +1.13548309e-01 -1.84228703e-01 -1.24048853e+00 -4.64142531e-01 -6.91834450e-01 -7.01076269e-01 +3.67939249e-02 +2.46770769e-01 -2.62891918e-01 -5.36075234e-01 -1.12492371e+00 -8.12637329e-01 +5.29833853e-01 -1.24087930e+00 -8.05361688e-01 +2.45742038e-01 +4.68984187e-01 +6.23977697e-03 -3.13597113e-01 +7.51769066e-01 -3.20980698e-01 +9.54663008e-02 +1.34899989e-01 -7.09705353e-01 -5.36461830e-01 -8.74682903e-01 +1.14821517e+00 -4.63363737e-01 -9.03609321e-02 +1.74366370e-01 +2.61298597e-01 -6.61917865e-01 +6.65168881e-01 -5.55768788e-01 +4.44940716e-01 +2.44492009e-01 +2.95692623e-01 +5.88654518e-01 +2.73936629e-01 +4.04838264e-01 +6.39656961e-01 -8.44413936e-02 +9.18811560e-01 -2.28589345e-02 +8.05622876e-01 +1.04976797e+00 +4.87212569e-01 +3.18015814e-01 +4.66806382e-01 +3.48459721e-01 -1.58105299e-01 -1.88890070e-01 -3.74557883e-01 +5.03922284e-01 -1.40041053e-01 -1.13994956e-01 +5.95635734e-04 +6.55440092e-01 -7.44709596e-02 +1.37808666e-01 -2.88006842e-01 +1.43138155e-01 -3.20441544e-01 +6.59138739e-01 +2.39747316e-01 +2.27688998e-01 +5.14263734e-02 +9.32482183e-02 -7.30003655e-01 +2.40821242e-01 +2.96348602e-01 +2.47979432e-01 -3.24644744e-02 +2.38896221e-01 -1.25792801e-01 -5.78016281e-01 -6.89621717e-02 +1.80855468e-01 -3.98832351e-01 +5.94581723e-01 +5.07541418e-01 +2.04081357e-01 -9.31565687e-02 +1.71877369e-01 +1.78171054e-01 -4.81683254e-01 +1.49766311e-01 -8.73830914e-01 -3.45016509e-01 -8.35923433e-01 +7.21269011e-01 -4.67709512e-01 +5.28839469e-01 +4.90250111e-01 +3.63754898e-01 +6.92673028e-01 +6.53600931e-01 -1.32886752e-01 +1.63748816e-01 +5.02170324e-01 -4.60903704e-01 -5.06208777e-01 -6.51045293e-02 +3.06207687e-01 +2.77821839e-01 +3.15619111e-02 +1.05820343e-01 +7.39072502e-01 +9.78394568e-01 -5.45417750e-03 +1.92034557e-01 +3.34782153e-02 +5.78850985e-01 -4.60453182e-01 -5.84399700e-01 +7.17671812e-01 -1.35028884e-01 -1.37233555e-01 -5.88760525e-02 +3.84663790e-01 -1.99024994e-02 +2.26243183e-01 +8.51100564e-01 +7.90211037e-02 -4.26072091e-01 +6.61684386e-03 -4.74271417e-01 +1.14618409e+00 +5.56354582e-01 +3.58246446e-01 +5.16360641e-01 +4.56906021e-01 +6.21657223e-02 -3.41256112e-01 +3.99700403e-01 -2.03259230e-01 +4.27499801e-01 -1.02683701e-01 +1.49885207e-01 -1.48746386e-01 -2.79143810e-01 +6.53994381e-01 +8.45946610e-01 +5.63845098e-01 +1.41691178e-01 -1.38119563e-01 +3.25884908e-01 -1.86980166e-03 -1.24228261e-01 -9.16873991e-01 +3.64834577e-01 -1.21474355e-01 -9.52624679e-02 -2.54497856e-01 +7.28046671e-02 +2.00016245e-01 +6.73100352e-01 +4.24565226e-01 -3.25618163e-02 +8.78822327e-01 +5.61851621e-01 -4.42852467e-01 -7.95069814e-01 +2.92319566e-01 +8.50750878e-02 -1.37243882e-01 -1.33561742e+00 -8.96530747e-01 +1.98037061e-03 -5.91125131e-01 -1.47319093e-01 -2.56028354e-01 -9.01339769e-01 -3.35158855e-01 -3.32881153e-01 -2.86448509e-01 -4.15349305e-01 -4.81815398e-01 -8.35578423e-03 -3.24154496e-01 +1.75227523e-01 +3.88143748e-01 +6.47766232e-01 -6.49732873e-02 -2.40185082e-01 -3.48047167e-01 -7.62462199e-01 -6.28907904e-02 +6.68841124e-01 +1.99069187e-01 +3.28500420e-01 -3.36181343e-01 -4.04018849e-01 -2.07227916e-01 -9.59811211e-01 -8.30805302e-02 +3.50889742e-01 +8.53569150e-01 -8.24533939e-01 +2.64937878e-01 +6.44431651e-01 +7.94296563e-01 -4.06929940e-01 +9.88809645e-01 -5.95641673e-01 +3.61249208e-01 -2.89218187e-01 +3.25551182e-01 +2.81021714e-01 +2.85318680e-02 -7.60686025e-02 +5.12798488e-01 -9.73624140e-02 +1.53500900e-01 +3.03068846e-01 -6.74364924e-01 -7.27468133e-01 +4.38176066e-01 -6.56287074e-02 -2.79546916e-01 +4.34258580e-01 +1.88570395e-01 +7.15337455e-01 +1.69951454e-01 +2.27251008e-01 -3.69953781e-01 
#Parameter# /vanilla-lstm-builder/_2 {64} 1025 ZERO_GRAD
+7.38398552e-01 +2.09768578e-01 +7.06930578e-01 +7.20740914e-01 +6.88039541e-01 +3.73896688e-01 +7.60230199e-02 +1.06242466e+00 +3.27842355e-01 +4.55598772e-01 +5.69690406e-01 +5.01664817e-01 +1.01526916e+00 +5.71576297e-01 +2.26129919e-01 +2.06816241e-01 +3.31279367e-01 +2.99129430e-02 +7.17033669e-02 +1.15163952e-01 -9.77723971e-02 +6.25082627e-02 +1.46550223e-01 -1.35390967e-01 +3.16133946e-02 -2.40910843e-01 +1.76284146e-02 -6.97420478e-01 -1.45780861e-01 +1.24490529e-01 +2.74105489e-01 -2.95192413e-02 +7.66005754e-01 +1.76138148e-01 +3.50699455e-01 +5.05373061e-01 +3.76874626e-01 +1.99427053e-01 -2.27905773e-02 +2.86566973e-01 +7.83147365e-02 +2.25749612e-01 +9.72017348e-01 +2.57392991e-02 +3.74711365e-01 +9.49460030e-01 +2.34945610e-01 +1.32734820e-01 +2.10721374e-01 +1.66586936e-02 +1.11079857e-01 -1.45915434e-01 +2.44580775e-01 +2.45007396e-01 -3.13866511e-02 +1.71596348e-01 -1.59272477e-01 -5.03747053e-02 -6.19886667e-02 -7.01671615e-02 +2.01049939e-01 +1.31970912e-01 +4.90183830e-02 +1.99188903e-01 
#Parameter# /vanilla-lstm-builder_1/_0 {64,32} 32769 ZERO_GRAD
+1.45974994e-01 +2.42107242e-01 +3.90383065e-01 +2.62928102e-02 +1.16096176e-01 +1.13330826e-01 +1.78223312e-01 -2.37114117e-01 +3.04191172e-01 +4.24671382e-01 +7.51840770e-01 +4.40991193e-01 +3.87957573e-01 +2.45217327e-02 -1.30856596e-02 -3.71910721e-01 -1.47746220e-01 +6.54105306e-01 +1.13006316e-01 -5.08613408e-01 -1.03569515e-01 -2.45611519e-01 -4.67317939e-01 +5.48620760e-01 +7.77451992e-02 +7.90046677e-02 +1.01715915e-01 +2.72822022e-01 -7.25644603e-02 +6.22633798e-03 +6.23423085e-02 +8.92387237e-03 +5.84616959e-01 +2.60098696e-01 +1.18783399e-01 -3.72808278e-01 +1.81142479e-01 -4.33450401e-01 +6.12532534e-02 -9.46077518e-03 -2.73457058e-02 -2.80997247e-01 -6.20627761e-01 -6.87087536e-01 -1.52265191e-01 -3.98026705e-01 -1.30165040e-01 -1.09761514e-01 -4.96237367e-01 +2.06954911e-01 -1.91036403e-01 +1.13002650e-01 -1.69304833e-02 +4.60460000e-02 -4.35443968e-02 +1.79146156e-01 -2.74988301e-02 -1.35704562e-01 +2.28170469e-01 -4.47566807e-01 +1.09282844e-01 +3.86806756e-01 -2.46597812e-01 +4.90503535e-02 +6.29053712e-01 -1.32186577e-01 +1.75964624e-01 -9.19389799e-02 +5.34578003e-02 -1.98423475e-01 +1.54119968e-01 -2.53100339e-02 -1.03544123e-01 -7.33547688e-01 -8.45755160e-01 -5.22445217e-02 -2.55067293e-02 +6.78824633e-02 +2.06080332e-01 -1.11728564e-01 -3.66578966e-01 +2.15904117e-01 +1.29801422e-01 +6.04136944e-01 +3.29565525e-01 +2.77646445e-02 +6.50158003e-02 -3.78960997e-01 +6.78071473e-03 +9.03808057e-01 +9.32962298e-01 -6.38957739e-01 -7.07503110e-02 +7.41908252e-02 -8.40009823e-02 -1.11860089e-01 -3.29127014e-01 -2.95320600e-01 +3.06923896e-01 -1.24007650e-02 -2.87658870e-01 +5.93677647e-02 -1.87318884e-02 -1.82571366e-01 -3.05332124e-01 +1.21176161e-01 +3.07723105e-01 +1.66039526e-01 +4.12919462e-01 +2.63911366e-01 +8.27362388e-03 +2.17058554e-01 +9.75458324e-02 -3.20578516e-01 +1.06029458e-01 +5.05086919e-03 +1.44984022e-01 +2.35499859e-01 -1.79177076e-01 +4.79716301e-01 +4.82446373e-01 -1.23111539e-01 +1.29182264e-01 +2.55999178e-01 -4.56643701e-02 -9.97375324e-02 +1.63595676e-01 -2.27973282e-01 +2.08641693e-01 -5.39931320e-02 +4.02815640e-01 +2.68462598e-01 -5.63012734e-02 -1.86422780e-01 +5.50411195e-02 +5.77367991e-02 -3.07943702e-01 -1.96592852e-01 -2.38768950e-01 +4.94700968e-02 -9.45332274e-03 +1.77917853e-01 +3.50697219e-01 -2.07253965e-03 -4.49794829e-01 +7.22195268e-01 +4.63516474e-01 -1.73395187e-01 -2.62488425e-01 -3.04034770e-01 +2.49418810e-01 +5.99610984e-01 -5.84511571e-02 +4.52734739e-01 +7.96708465e-01 +8.83021057e-02 -2.40294933e-01 +6.08158231e-01 +5.40245414e-01 -3.56984943e-01 -7.99308896e-01 -1.08089805e-01 +2.29378715e-01 -2.77790964e-01 -3.09442431e-01 -2.45902002e-01 -4.23005670e-01 -1.80678535e-02 -5.83029509e-01 +9.15981457e-02 +1.09193929e-01 +4.86819148e-02 +4.61761206e-02 +5.04780829e-01 -2.98739821e-01 +1.25480875e-01 -5.25949359e-01 -2.75823306e-02 +3.62636775e-01 +6.16042800e-02 +4.78264801e-02 +2.14890137e-01 -3.73414308e-02 +2.10548997e-01 -1.97900519e-01 -6.27552330e-01 +4.24183875e-01 -3.05622429e-01 -5.38551696e-02 +5.10473102e-02 -1.05930194e-01 -2.47756749e-01 -1.64461091e-01 -1.98744327e-01 -2.93223143e-01 -8.43117163e-02 -7.92535916e-02 -3.52402143e-02 +1.38283864e-01 +8.87802988e-02 +1.11704457e+00 +6.38235956e-02 -7.49401867e-01 +1.84498355e-01 -4.71945014e-03 +1.38841979e-02 -3.48817140e-01 +2.55461097e-01 -1.99607790e-01 +8.98247957e-02 +2.26234682e-02 +5.71753800e-01 +9.62952077e-02 +3.50464284e-01 +1.27411664e-01 -5.89806676e-01 +7.16709346e-02 -3.29651177e-01 -6.67892277e-01 -7.19316065e-01 +8.47135410e-02 -2.86567688e-01 +4.96660694e-02 -1.48265660e-02 -5.07242858e-01 -4.36732136e-02 -1.86759502e-01 +3.47322494e-01 -1.77253559e-01 -1.14416771e-01 +6.06090613e-02 -3.10149401e-01 +7.54259586e-01 -5.66590726e-01 -4.94955838e-01 +1.27872205e+00 -1.03733085e-01 +7.68846333e-01 +8.21304917e-02 +6.98116362e-01 +2.11674765e-01 +6.23239219e-01 -5.46556234e-01 +5.66091955e-01 -1.67287607e-02 +7.17800781e-02 +1.19921096e-01 -4.39356029e-01 -8.27705301e-03 +1.59413040e-01 -3.47798675e-01 +1.21624574e-01 +7.49806641e-03 +2.39802822e-01 +1.70261174e-01 -2.79045731e-01 +2.80110836e-02 -5.78288972e-01 -3.00958529e-02 -4.04014796e-01 -9.62247923e-02 -7.36195594e-02 -2.28336364e-01 +3.29351664e-01 +6.76537603e-02 +1.07144371e-01 -6.59580976e-02 +3.33416224e-01 +2.29880288e-01 +1.45510957e-01 -2.14690357e-01 +1.13514744e-01 +4.57998663e-02 +1.22835374e+00 -7.50728324e-02 -4.55701083e-01 -1.01117007e-01 -4.31466937e-01 +1.07266217e-01 +3.72160077e-01 -3.35886836e-01 +4.66151476e-01 +3.79875332e-01 -3.35676104e-01 -1.88182443e-02 +2.80184776e-01 +3.52310896e-01 +2.52437264e-01 -6.04528844e-01 -5.73458016e-01 +4.29153115e-01 -3.89512509e-01 -5.40402651e-01 -5.73680818e-01 -1.60215169e-01 -4.06327173e-02 -1.28978595e-01 -1.96875185e-01 -3.92634213e-01 -3.19371194e-01 -1.14206180e-01 -3.58695984e-02 -3.37340266e-01 +3.18421870e-01 -8.03029835e-02 -8.13077614e-02 +3.53574574e-01 -3.61191213e-01 -1.76995590e-01 +4.23847698e-02 -2.44708285e-02 +2.68078268e-01 -2.87450045e-01 -3.19269091e-01 +2.91047215e-01 +9.39510167e-02 -2.28557512e-01 +5.31596303e-01 -2.19090149e-01 +1.07806958e-01 +5.36813796e-01 -2.89546937e-01 -2.43278340e-01 -4.42137122e-01 +2.74313018e-02 -8.64729211e-02 -4.08208445e-02 +4.17326123e-01 +1.96007654e-01 +6.96797483e-03 -4.12975878e-01 +4.13976878e-01 +2.59437293e-01 -1.99821338e-01 -3.21116328e-01 -2.95205593e-01 -3.99188064e-02 +2.69199550e-01 +2.03678459e-01 +5.27789533e-01 -4.41427603e-02 -1.59668416e-01 +3.17518920e-01 +4.57914807e-02 +9.63624716e-02 +3.72621357e-01 +2.18005568e-01 -6.13968253e-01 -4.88587916e-01 -3.86740923e-01 +1.42364040e-01 +1.50659218e-01 +2.39417940e-01 -4.83987927e-01 +5.19281983e-01 -2.85378069e-01 -1.11453153e-01 -4.51692343e-01 -2.73011744e-01 -5.89332521e-01 -8.09828937e-02 -7.37943277e-02 -4.26196694e-01 -4.58205581e-01 +2.48441279e-01 +3.09081852e-01 -6.56207323e-01 +3.77669066e-01 +3.39197814e-02 -7.37153888e-02 +1.54314125e-02 -3.21199261e-02 -1.13812298e-01 +5.08085847e-01 +4.07744795e-02 +3.77633214e-01 +4.84170884e-01 -7.89568722e-02 -1.83226112e-02 +3.85544568e-01 +4.75175045e-02 +2.57678628e-01 -2.99335510e-01 -1.92407861e-01 +2.40026101e-01 +3.33543539e-01 -1.00956291e-01 -7.24357188e-01 -2.28429809e-01 -1.76259369e-01 -1.52402952e-01 +3.59843701e-01 +6.12392463e-02 +6.00190833e-02 +1.61787465e-01 +5.73010743e-01 +6.32347986e-02 +2.35955834e-01 +5.49426973e-01 -4.69653726e-01 +4.62225109e-01 +2.83934981e-01 -7.47599751e-02 +9.96874571e-01 -2.63578836e-02 -1.65627271e-01 -2.86459625e-01 -2.60411948e-01 +3.93351674e-01 -4.78713185e-01 -2.50611037e-01 -6.97551727e-01 +2.09200442e-01 -2.18078807e-01 -6.47209048e-01 +2.43972078e-01 +2.94103235e-01 +2.16996208e-01 -2.92019874e-01 -1.74550503e-01 +4.05148715e-02 +3.89210463e-01 +9.96810123e-02 +6.34881794e-01 +2.45459229e-01 +8.43338609e-01 +5.24874449e-01 +6.09943211e-01 +2.99295366e-01 +5.44883907e-01 -1.76144823e-01 -4.06825840e-01 +9.98262316e-03 +2.70949483e-01 -3.23685676e-01 -2.00924538e-02 +1.21118519e-02 +1.83757946e-01 +1.31361289e-02 -2.81251013e-01 +6.60134153e-03 +4.96191025e-01 -8.10637295e-01 +1.75187275e-01 -7.85522312e-02 +1.75150260e-02 +4.11380827e-02 +1.67159319e-01 -4.82338756e-01 +5.19583821e-01 -1.88669428e-01 +9.37743038e-02 -1.69956148e-01 +1.94309190e-01 -1.29145771e-01 -9.28755477e-02 -7.68477889e-03 +5.85592806e-01 +7.21819758e-01 -2.01302528e-01 -4.54717800e-02 +4.86665480e-02 -4.95288409e-02 -1.55354708e-01 +3.97392549e-02 -6.97966293e-02 -4.04720843e-01 -8.53038847e-01 -4.85095739e-01 +1.10144362e-01 -2.78390139e-01 +5.54644108e-01 +2.96859026e-01 -7.44259000e-01 -4.89270270e-01 +3.46653640e-01 -3.24934363e-01 +2.00891629e-01 +4.35942471e-01 +2.42458478e-01 -2.24894896e-01 +9.56323206e-01 +5.56784635e-03 -2.93469340e-01 +3.88125122e-01 -4.88859862e-01 -5.63480482e-02 +5.28252602e-01 +2.01264963e-01 -6.22367859e-01 -6.53396249e-01 -2.34063357e-01 -5.66188931e-01 -4.49652404e-01 +3.31642106e-02 -3.61737125e-02 -1.34322755e-02 +5.99027202e-02 -1.83810085e-01 +7.79557526e-02 -1.15507543e-01 -1.41285956e-01 +8.67123827e-02 -1.88810050e-01 -4.53186423e-01 -9.15095359e-02 +4.79089804e-02 -3.59238625e-01 +9.36465934e-02 +1.38454691e-01 -2.30692089e-01 +2.08397955e-01 -4.33329344e-01 -8.52408558e-02 -3.21128100e-01 +1.78775415e-01 -3.99671555e-01 -1.86317593e-01 -1.31780207e-01 -2.60503590e-01 -7.60525763e-01 +3.19294214e-01 +2.88646698e-01 -1.21790186e-01 -1.33417115e-01 -5.96646488e-01 -1.58941209e-01 +4.85913604e-02 -1.33594871e-01 +4.86501098e-01 +9.48437274e-01 -1.51804495e+00 -6.75527275e-01 +3.01802158e-01 -9.18344915e-01 +6.40133739e-01 -1.62162989e-01 +5.71140349e-02 +3.08665223e-02 +6.28305018e-01 -1.04832821e-01 +1.58084370e-02 -6.04778230e-01 -9.05829892e-02 -6.94710612e-02 +3.31511766e-01 +2.80478537e-01 -3.79650474e-01 -5.34906648e-02 +8.97312164e-02 -1.38228938e-01 -5.93936220e-02 -2.08429709e-01 +9.77021009e-02 -1.82375714e-01 -7.31737733e-01 -7.84587190e-02 -5.40060878e-01 -1.47856802e-01 -2.56488472e-01 +1.48979038e-01 -5.54178417e-01 -1.20994851e-01 +3.36647093e-01 -4.77781240e-03 -1.86350733e-01 +1.59779981e-01 -5.45086451e-02 -1.56340778e-01 -4.31325376e-01 +6.11704230e-01 -4.38334763e-01 -3.60662192e-02 +3.13997269e-01 +6.95061013e-02 -9.40069407e-02 -7.01393902e-01 +4.08562899e-01 -2.62449861e-01 +6.16611302e-01 -6.34749174e-01 -6.33380637e-02 -2.86186278e-01 -2.56932713e-02 +2.51326680e-01 -2.47567624e-01 -3.06281716e-01 -2.48633876e-01 +1.82500333e-01 +1.03485756e-01 -1.01655811e-01 +9.24045146e-02 -3.18127424e-01 -2.88600717e-02 -3.55461061e-01 -2.10514382e-01 -1.52980417e-01 +9.94230434e-03 +2.07423732e-01 -3.63941630e-03 +3.59636396e-01 -7.01065004e-01 -2.98846871e-01 -2.98460364e-01 -2.60600358e-01 +1.12541449e+00 +1.70699462e-01 +1.71203539e-01 -6.67608321e-01 +7.64092803e-01 -4.98329550e-01 -1.49414595e-02 +3.30078363e-01 -1.10502519e-01 -3.70993316e-01 +5.02589583e-01 +2.58266050e-02 +4.38631214e-02 -1.17417894e-01 +5.89386046e-01 +7.55953714e-02 +1.08656192e+00 -1.09890319e-01 +6.23418726e-02 +4.13374156e-02 -2.70651542e-02 -3.87727439e-01 +5.09881914e-01 +1.48670124e-02 +2.27063783e-02 +1.09142303e-01 -3.52078915e-01 -4.26844239e-01 +5.50360531e-02 -2.21736088e-01 -2.68972099e-01 -3.59955393e-02 -1.79077774e-01 +9.55037847e-02 +6.57098070e-02 -2.74487376e-01 -1.75436258e-01 -8.10114816e-02 +3.28507036e-01 +4.75767702e-01 +5.44774421e-02 -1.15383685e-01 +5.35022095e-03 +1.74865097e-01 +5.17531931e-01 +3.28972280e-01 -2.37892568e-01 -7.59721324e-02 -2.67506242e-01 -2.97616422e-01 +2.86558986e-01 +8.27661991e-01 -6.74128890e-01 -9.56913173e-01 +7.48378113e-02 -3.59412968e-01 +4.53201711e-01 -7.68364146e-02 -2.69823987e-02 +1.80981472e-01 -7.03012288e-01 -7.87445128e-01 +2.50973552e-01 -3.11504394e-01 -3.20375949e-01 +5.06277263e-01 -2.14111909e-01 +4.46889073e-01 +5.46014942e-02 -5.95445514e-01 +1.06079437e-01 -1.27533063e-01 +1.38935745e-01 -6.72547221e-02 +2.13259771e-01 +5.28416514e-01 -5.33777736e-02 +2.80861743e-02 -1.00186944e-01 -3.27179819e-01 -7.87799954e-02 +9.10189077e-02 +1.08912349e-01 -1.86720639e-01 +4.61735308e-01 +2.05929413e-01 -8.37013200e-02 -2.99493879e-01 +1.45054758e-01 +3.39354694e-01 -4.19318676e-01 +2.99254581e-02 +5.07837892e-01 -4.07032579e-01 +1.77757069e-01 +2.48475932e-02 -3.45970591e-04 -1.07622035e-01 -2.91662831e-02 +1.41319279e-02 -2.95230355e-02 +2.03568652e-01 +1.74282566e-01 +2.79830545e-01 +1.92478269e-01 +4.34067518e-01 -4.43557441e-01 +7.87976682e-01 +4.32258070e-01 +3.21395367e-01 +1.01004273e-01 +3.87442447e-02 -2.00826645e-01 +8.21394175e-02 -1.29697355e-03 +3.07165295e-01 -3.14295925e-02 +1.65349305e-01 +3.49679500e-01 +8.91500041e-02 +3.61502469e-01 +1.07390001e-01 +3.60420644e-01 -5.88475391e-02 -5.86958051e-01 -4.76868898e-01 +5.53623855e-01 +6.31527007e-02 -3.01020384e-01 +2.47010458e-02 +2.43696943e-02 +8.20175558e-02 +1.87361345e-01 +8.93955380e-02 +1.04790084e-01 -1.97829753e-01 -3.69656235e-01 -7.43068382e-02 +3.89020368e-02 +4.15529132e-01 -6.67569041e-01 -3.59804690e-01 +1.25656411e-01 -3.20762336e-01 -1.94143072e-01 +9.58721638e-02 +2.84881175e-01 -1.57700971e-01 +2.23256588e-01 -5.66213906e-01 +8.22093636e-02 -2.29063988e-01 +6.90041482e-02 +2.33229965e-01 -4.52809125e-01 -1.00019552e-01 -1.39291184e-02 +1.81881823e-02 -3.01460087e-01 +8.44949856e-02 +2.09670141e-01 -1.69979185e-01 -9.15485620e-02 +2.03984350e-01 +4.03129518e-01 -2.04434022e-01 +1.01663999e-01 -1.80384964e-01 -1.32052116e-02 -2.97980666e-01 +5.45874462e-02 -3.83928232e-02 -7.55476177e-01 -5.34725130e-01 -3.52795780e-01 -1.90372810e-01 +4.50598449e-02 -4.06181253e-02 -1.19698055e-01 +2.34432116e-01 -3.83511722e-01 +6.06559455e-01 +2.68181920e-01 +3.90679449e-01 +1.02786869e-01 -3.23804855e-01 -2.36936897e-01 -7.06153154e-01 +1.57575399e-01 +2.68322855e-01 +5.48117340e-01 +5.19930959e-01 +2.78887182e-01 -2.81471521e-01 -1.44964814e-01 +2.04563200e-01 +1.42219633e-01 +1.32995129e-01 +3.22470888e-02 -1.85884401e-01 +1.07146412e-01 -1.98973402e-01 -3.13297868e-01 -3.28777462e-01 -2.91631997e-01 +1.48197338e-01 -8.04201886e-02 -9.87001583e-02 -5.13512611e-01 +1.63898945e-01 -1.50320558e-02 +9.60772336e-01 -4.06958759e-01 -1.90079749e-01 +3.23983639e-01 -2.95046329e-01 +3.42571847e-02 +3.19355220e-01 +2.34795526e-01 -1.51853576e-01 -1.36587068e-01 -1.14466652e-01 +2.96163380e-01 -1.38804298e-02 -2.16968462e-01 +5.60863376e-01 -1.82283998e-01 +1.71763997e-03 +4.08123344e-01 +1.03582764e+00 +6.18066430e-01 +5.03412306e-01 +1.14907339e-01 +2.57625192e-01 +1.01511285e-01 +7.39386976e-02 -7.22018778e-02 +1.40102282e-01 +2.50963181e-01 +1.07853971e-02 +3.01020592e-01 +2.93242693e-01 +4.46784906e-02 +2.91369289e-01 -5.82704067e-01 -1.58428803e-01 +2.90769219e-01 +2.51589328e-01 +1.72685638e-01 +3.96805644e-01 -9.58162174e-02 +1.04005456e-01 -4.43977863e-01 -2.56916225e-01 +8.77479732e-01 -7.09623545e-02 +8.56534243e-01 +1.00222218e+00 -6.94149911e-01 +1.61659941e-01 +2.67308801e-01 -6.47334397e-01 -2.64008120e-02 -4.20533530e-02 -5.30777359e-03 +8.16262886e-02 +6.74620569e-01 -1.52493060e-01 +4.72218513e-01 +5.56006193e-01 +7.70286843e-02 +2.16890462e-02 +7.78227225e-02 +4.93833311e-02 +3.41321409e-01 -4.06856239e-01 +4.69838202e-01 +2.67739266e-01 -1.05910793e-01 -2.66062319e-01 +5.61273098e-02 +1.94172606e-01 -2.47347906e-01 -1.35818109e-01 +2.84767933e-02 +8.64603296e-02 +1.24961846e-01 +1.03944726e-01 -9.85680073e-02 -1.54314622e-01 -2.54029572e-01 -2.11815968e-01 -5.35333157e-01 +2.05075555e-02 -2.23996818e-01 +1.45078585e-01 +3.39043468e-01 -3.74984384e-01 +5.80714270e-02 +4.46073681e-01 +7.64823109e-02 +6.08137131e-01 +1.68601051e-01 -1.61723152e-01 +3.35811675e-01 -5.67618432e-03 +3.10399294e-01 -4.13805842e-01 -4.58890587e-01 -1.30959302e-01 +2.76291907e-01 -9.10527352e-03 +3.47146541e-01 -4.68655348e-01 -4.82210368e-01 +1.80993497e-01 -1.75990537e-01 -4.84358639e-01 +4.02079433e-01 +1.25868157e-01 -6.42608762e-01 +6.13131642e-01 -3.75431441e-02 +5.58379889e-01 -7.51944482e-01 -2.59902366e-02 +4.39139217e-01 +8.44772011e-02 +1.09911421e-02 +2.70641595e-01 -4.59109843e-01 +7.07270861e-01 -5.35518765e-01 -3.89929086e-01 +2.13233858e-01 +3.85372080e-02 -4.08903778e-01 +2.79525638e-01 +2.76110768e-01 -3.78005579e-02 +7.36149788e-01 -1.99154511e-01 -1.47895440e-01 +4.40321676e-02 -1.56375125e-01 -1.64002597e-01 -1.21102825e-01 -5.97727001e-01 +2.64295548e-01 -1.83617145e-01 +2.59863555e-01 +3.28851771e-03 +2.35644177e-01 -7.94503465e-02 +1.02605000e-01 -4.16832089e-01 -1.58962712e-01 +1.12385057e-01 +2.04698190e-01 -1.39080986e-01 +9.06110033e-02 -6.58956766e-02 -6.31112278e-01 -3.26224715e-01 +2.80818865e-02 -2.49578282e-02 +2.19702274e-01 +1.16952017e-01 +4.56167370e-01 -3.56199205e-01 +2.85795271e-01 +3.89504768e-02 +7.93410242e-01 -2.12860286e-01 -5.83173931e-01 -2.82268733e-01 -3.41490299e-01 +2.26244584e-01 +4.88758951e-01 +4.32085916e-02 -5.95334411e-01 -9.78190601e-02 +4.95922476e-01 +3.02043676e-01 +2.99431801e-01 +8.61998320e-01 -1.14470832e-01 -5.52487433e-01 +2.56038141e-02 -2.43848309e-01 +3.39875929e-02 +1.86625823e-01 -1.23964719e-01 +5.03338985e-02 +2.97991753e-01 -1.99205369e-01 -2.69740880e-01 -4.99269813e-01 +2.17212066e-01 +5.90401031e-02 +1.89771384e-01 -5.60887307e-02 +2.27873504e-01 -7.43821025e-01 +5.48838496e-01 +8.57648104e-02 -6.93792701e-02 +2.29987875e-01 +1.45766977e-02 -2.28647545e-01 -3.90353620e-01 -3.11437547e-01 -9.64701027e-02 -3.59627302e-03 -7.51582906e-02 -5.01348376e-02 -2.00185612e-01 -3.57388347e-01 +3.09571832e-01 +7.32357949e-02 -1.13172643e-01 -1.44473121e-01 -9.04637948e-02 +2.01242119e-02 -6.52478188e-02 -1.56114310e-01 +4.99982685e-01 -4.97935265e-01 -6.90072119e-01 -5.62787533e-01 +1.48322776e-01 -6.65723607e-02 +3.44450682e-01 +1.15442276e-01 +1.02632632e-02 -1.11698002e-01 -8.79514292e-02 +4.33984488e-01 +5.31679332e-01 +1.03688769e-01 -9.39711109e-02 +3.25884283e-01 -7.39050031e-01 -7.74566233e-02 +6.47090137e-01 +4.59558547e-01 -9.65676680e-02 +3.81243110e-01 +5.19499958e-01 -1.53977767e-01 +1.50604561e-01 -4.45006996e-01 -4.09995049e-01 +4.57555950e-02 -1.41710982e-01 -2.59633362e-01 +3.28374237e-01 -2.01489627e-01 -2.69026101e-01 -7.00102329e-01 +2.08172128e-01 +7.78938174e-01 +9.60978568e-02 +1.05549127e-01 -1.12364113e-01 +1.64253488e-01 -3.81199211e-01 +3.09206754e-01 -2.92135715e-01 +7.04526484e-01 -3.30787510e-01 +1.25228703e-01 +7.79555365e-02 -2.42671347e-03 +2.35499859e-01 -2.55324751e-01 -1.49974525e-01 -1.71512336e-01 +2.99423158e-01 -4.92531098e-02 -2.04673469e-01 +2.11926833e-01 +3.29159163e-02 +3.25092226e-02 +6.48436964e-01 +8.92307222e-01 +1.57851934e-01 +1.17257372e-01 +2.35055953e-01 +3.30899656e-01 +7.57890269e-02 +4.56263451e-03 -3.48676085e-01 -5.12774050e-01 +1.02430746e-01 +2.67156124e-01 +2.84307599e-01 +1.20342478e-01 -1.18301310e-01 -2.55404234e-01 -2.35676333e-01 -5.04057467e-01 +5.46870887e-01 +1.74692765e-01 -2.57859737e-01 +1.75121412e-01 -4.54693407e-01 +2.38371328e-01 -2.22753137e-01 -3.41197312e-01 -1.31219804e-01 -3.68169069e-01 +3.22090805e-01 +4.96094495e-01 -8.33576024e-02 +4.10563320e-01 +1.55794933e-01 -4.43157554e-01 -9.87537503e-02 +4.12164718e-01 +3.10169369e-01 +1.04837582e-01 +2.86599755e-01 -8.84824097e-02 +6.31902754e-01 +8.49729359e-01 +6.65362179e-01 +2.42364138e-01 +1.21912313e+00 -1.42836750e-01 -5.93343452e-02 -2.38842666e-01 +3.23942304e-01 +1.90815568e-01 +1.27941892e-02 +1.25217438e-01 +1.54667109e-01 -2.19920054e-01 -2.91181624e-01 +1.38607517e-01 +3.23487908e-01 -3.96001220e-01 +1.90404251e-01 +9.26412269e-02 -5.90787888e-01 +1.05821542e-01 -4.42816205e-02 -4.30074424e-01 -7.16174990e-02 -2.92310983e-01 -8.66325423e-02 -2.42926314e-01 -2.28044584e-01 -3.80137831e-01 -1.36412352e-01 -1.35657489e-01 -1.04746655e-01 -2.08278984e-01 -3.14944774e-01 -1.83437973e-01 +4.86719273e-02 -6.63427114e-02 +5.99967688e-02 -2.43160024e-01 +7.80408144e-01 +5.38047552e-01 -3.18426222e-01 +1.55284107e-02 +4.99827266e-02 -1.14485741e-01 +7.00351834e-01 +1.39369220e-01 -3.17697614e-01 -2.45968372e-01 +8.37613642e-01 +2.45218694e-01 +6.07194364e-01 -7.53993019e-02 +2.17444007e-03 -9.70947087e-01 +4.13178623e-01 +3.39039594e-01 +1.01737930e-02 -2.96774387e-01 -3.00372273e-01 -2.72431403e-01 -2.84831412e-02 -2.33353123e-01 -2.12815061e-01 -6.70148671e-01 +3.66012961e-01 -1.05624713e-01 +2.67234385e-01 +8.63065720e-02 +1.51747195e-02 +1.93761840e-01 -1.49535865e-01 -1.74391687e-01 +4.71318275e-01 +1.12302564e-02 -1.69751540e-01 +2.24460438e-02 -6.22508302e-02 -2.93912381e-01 -7.08899945e-02 +6.98682070e-02 -8.40238854e-02 -4.25479934e-02 -1.52163669e-01 -7.87599608e-02 +3.53550985e-02 +4.95259643e-01 -8.05405796e-01 +2.90184647e-01 -6.07931137e-01 -1.68836415e-01 -1.50452584e-01 +2.36853510e-01 +8.76945164e-03 +3.12645555e-01 +9.57782939e-02 -3.74497101e-02 +6.05934739e-01 -3.07961017e-01 +6.93437904e-02 +6.10707588e-02 -1.71011522e-01 -4.57294643e-01 +6.74767733e-01 +5.53747714e-01 -1.05332524e-01 -1.26314670e-01 -8.27103257e-01 +6.47318780e-01 -1.50550216e-01 -2.13852197e-01 +6.59052670e-01 +3.50734353e-01 -6.02721334e-01 -2.07748517e-01 -1.01983273e+00 -9.33242068e-02 -4.02889326e-02 -1.24193564e-01 -3.98717999e-01 +5.29831827e-01 -3.09606403e-01 -3.22004348e-01 -5.21617234e-01 +2.11359605e-01 -1.34601504e-01 +9.27640498e-02 +4.69019040e-02 +2.49960035e-01 -7.52576888e-01 -3.43525916e-01 -1.06595092e-01 -2.87378669e-01 -3.97714317e-01 +2.08192002e-02 -2.45617963e-02 +2.36295030e-01 -7.43474901e-01 +1.10630162e-01 +1.30149722e-02 -3.99941981e-01 +3.61133873e-01 +5.15588462e-01 -1.14457086e-01 +4.94222790e-02 +5.75501285e-02 -1.70357451e-01 +1.14251271e-01 -1.98329940e-01 +5.61599135e-02 -5.47063708e-01 -2.83556849e-01 -1.95836909e-02 +9.88595858e-02 -1.87697127e-01 +2.26486959e-02 -2.57056892e-01 +2.03686297e-01 +6.50075555e-01 +9.89620686e-01 +3.35089713e-01 +9.61585417e-02 +2.91045338e-01 -1.43316351e-02 -4.05042708e-01 +2.02164322e-01 +3.85191619e-01 -9.30516794e-03 -6.06224000e-01 -1.93986669e-01 -3.65625381e-01 -1.78127900e-01 -4.30111140e-01 +6.63367808e-02 +6.77166104e-01 -9.64273691e-01 -6.88674271e-01 -2.34153997e-02 +1.81521311e-01 +4.06734288e-01 +5.14058471e-01 -2.55824506e-01 -1.81537479e-01 +7.72590563e-02 -4.52845842e-01 +2.19797149e-01 +2.70550817e-01 -1.47144496e-01 +8.90182108e-02 +7.03418255e-02 +5.52360356e-01 -2.30416991e-02 -3.47658128e-01 +4.11821038e-01 +4.50528622e-01 +6.83190107e-01 -2.72434652e-01 +8.22070360e-01 -3.20872337e-01 +9.87835228e-01 -1.72563612e-01 +1.52510673e-01 -4.92326394e-02 +1.32903364e-02 +1.02622502e-01 -6.46645784e-01 -7.44287610e-01 +4.09696586e-02 -6.13256991e-02 +1.68136194e-01 -5.15942425e-02 +3.66743386e-01 -1.65008172e-01 -2.16859160e-03 +5.29505312e-01 -2.92842001e-01 +7.76285306e-02 -4.83107597e-01 +3.57439697e-01 -1.92367390e-01 +4.96248066e-01 -2.85549425e-02 +3.87752056e-01 +4.84999329e-01 +6.91837370e-02 +1.46715686e-01 -3.13015133e-02 -2.98969686e-01 -8.85770395e-02 +2.00966433e-01 +1.63956136e-02 +4.47522439e-02 +4.33551997e-01 +5.67854226e-01 +2.58903414e-01 -1.41306326e-01 -1.68586627e-01 -5.21153450e-01 -2.50042826e-01 +7.55124211e-01 +7.06922039e-02 -9.09053147e-01 +2.40210176e-01 -4.42212492e-01 +4.28323336e-02 -2.64481336e-01 +4.38042134e-01 -5.17589927e-01 +3.38106871e-01 +2.75769562e-01 +2.11791009e-01 -8.63655955e-02 +3.36626828e-01 -2.75358319e-01 +4.10188586e-01 -2.96638831e-02 -2.37608165e-01 -4.16082919e-01 +1.13058157e-01 -7.91257545e-02 -2.02874005e-01 +3.22523862e-01 +1.05342813e-01 +9.19788480e-02 -1.85295999e-01 +1.43951491e-01 +1.53322354e-01 +3.19013074e-02 +5.94101846e-02 +1.71282366e-01 +1.33640200e-01 -6.91581294e-02 +3.36917043e-02 +3.07014465e-01 -3.96620780e-02 +4.54137534e-01 +3.48270744e-01 -3.67944300e-01 +3.69601510e-02 +2.89959073e-01 +7.11838067e-01 +3.30355316e-01 +4.21492219e-01 +7.77182728e-02 +6.49435148e-02 +2.68997610e-01 +1.94955431e-02 -5.09470463e-01 -2.40001708e-01 +1.98326677e-01 +1.89827129e-01 +8.75627846e-02 +1.15007266e-01 -5.86358458e-02 -1.14609435e-01 -8.77505600e-01 -8.00589249e-02 +6.15316570e-01 +2.59498835e-01 -1.90161597e-02 +4.32457060e-01 -2.76995003e-01 +2.30400980e-01 +4.02217619e-02 -5.71201667e-02 +5.67630231e-01 -4.28864658e-01 +1.43436491e+00 +6.79528773e-01 -3.15399200e-01 -3.27835292e-01 +1.85417339e-01 -3.42650205e-01 -1.90409482e-01 +1.05656497e-02 +2.09743634e-01 -1.15563348e-01 +2.89457232e-01 -1.52409628e-01 +8.82633999e-02 +1.09270537e+00 +5.68186224e-01 +4.15766597e-01 +6.26131475e-01 +1.09981857e-01 +3.66829336e-02 +2.89414525e-01 +1.62183091e-01 +2.33091891e-01 -1.01979673e-01 +6.07371703e-02 +1.00764908e-01 +5.02597354e-02 -2.48454764e-01 -2.76025712e-01 +1.99105337e-01 -2.24912673e-01 +4.78915662e-01 -9.12591536e-03 -5.03566265e-01 +3.63043904e-01 -1.28131613e-01 -3.94984037e-01 +1.78501993e-01 -2.17873398e-02 +5.58923185e-01 +2.67167985e-01 +6.75437972e-02 -3.92028600e-01 -1.30423620e-01 -4.27996576e-01 -3.44153553e-01 -6.17444851e-02 +3.88637148e-02 -4.66674566e-01 +4.30904984e-01 -8.52191299e-02 +3.20700526e-01 -3.37056547e-01 -2.00943500e-01 -1.31205261e-01 -9.59461629e-02 +3.56323898e-01 -9.32217464e-02 -1.22113883e-01 -1.64882198e-01 -5.78826010e-01 -6.79058284e-02 -5.65543100e-02 +6.46976888e-01 +5.48918843e-01 +3.81606609e-01 +3.70831311e-01 -9.58225280e-02 +5.39144762e-02 +2.33569667e-01 +1.33467123e-01 +3.39695513e-01 +1.84085995e-01 +3.68113518e-01 +3.48835140e-01 -1.12037092e-01 -2.47453347e-01 -3.51773828e-01 -5.00372827e-01 +4.51884121e-01 -1.14296742e-01 -4.45005596e-01 +2.68482178e-01 -3.44918162e-01 +7.62496144e-02 +5.90300709e-02 +6.60492107e-02 +2.07781821e-01 +5.91237918e-02 -4.30673301e-01 -6.80415258e-02 -9.17832479e-02 -1.28525868e-01 +7.34280124e-02 -1.48201257e-01 +1.48361117e-01 -7.60286525e-02 -3.99469823e-01 -2.01610118e-01 +4.26480263e-01 -4.38087098e-02 -1.20068491e-01 +1.89489171e-01 -4.15487260e-01 +2.37230301e-01 +9.38121527e-02 -2.81666756e-01 +5.03664970e-01 -1.83925763e-01 -8.71312618e-02 -4.03894149e-02 +2.81420648e-01 +1.27519310e-01 -1.55974478e-01 +1.46162778e-01 -4.51188296e-01 +4.68836993e-01 -2.28835806e-01 -2.89966613e-02 +2.99220413e-01 +6.16410635e-02 +8.28806683e-02 +5.42459898e-02 -4.54861730e-01 -1.53115205e-02 +7.28911042e-01 +4.88044202e-01 -6.84116960e-01 -2.71412820e-01 -3.11965615e-01 -5.21317422e-01 +5.64383119e-02 +1.95906460e-01 -2.03836247e-01 +3.57418388e-01 -5.92284322e-01 -8.34434628e-02 -1.03943132e-01 +8.05033371e-02 -6.63289726e-02 +9.44418535e-02 +1.13212690e-01 +1.47782611e-02 -9.28376317e-01 +8.94377753e-02 -7.42626846e-01 -4.54526506e-02 -2.64272690e-01 +7.11360693e-01 -4.53106880e-01 +1.82825118e-01 -6.26057088e-01 -8.80765468e-02 -1.13877235e-02 +3.99260558e-02 +4.34965372e-01 -2.62090147e-01 -2.83667985e-02 +1.15144765e-02 +5.56529343e-01 +1.46768037e-02 +3.29248846e-01 +1.21852249e-01 +1.58721749e-02 -1.94041073e-01 -3.34969461e-01 +3.26377332e-01 -4.82788920e-01 +4.01212633e-01 +2.25651890e-01 -1.37722701e-01 +1.13752849e-01 +1.24418117e-01 -1.61665022e-01 +7.93940127e-02 +3.68411452e-01 -1.90892950e-01 +2.93063492e-01 -3.80842119e-01 +1.85013935e-01 +2.48304620e-01 -5.00697434e-01 -5.82649171e-01 +1.93526685e-01 +3.78491759e-01 +1.40807331e-02 +3.28058928e-01 -7.24670649e-01 +3.45587134e-01 -1.95798233e-01 -1.00312613e-01 +1.35615304e-01 +6.27143204e-01 -1.00225024e-02 +9.21821535e-01 +3.82061601e-01 +4.32605714e-01 -7.07641616e-02 -4.77550775e-01 +3.47190231e-01 +3.48006517e-01 +2.24439934e-01 +5.32469928e-01 -2.61471778e-01 +3.98347199e-01 +1.78952694e-01 +4.05239433e-01 +5.68700969e-01 -1.55410310e-02 -1.50050849e-01 +4.75646913e-01 -1.12348929e-01 -3.19710493e-01 +5.38922191e-01 +9.89692211e-02 -3.15086961e-01 +1.37318015e-01 -2.58285683e-02 -4.70296293e-01 -2.30755687e-01 +7.60292122e-03 +3.00412893e-01 -3.76911640e-01 +3.14255118e-01 -4.80585955e-02 -1.83564991e-01 -1.61982819e-01 +4.24646199e-01 +5.63142240e-01 +3.07272196e-01 +3.33120823e-01 -9.01531652e-02 -1.03464685e-01 -4.07098055e-01 +4.68101382e-01 +4.77413423e-02 -4.94597495e-01 -2.57286783e-02 -9.00462866e-02 -2.72546709e-01 -3.18683088e-02 +7.31542856e-02 +5.23108900e-01 +1.67583272e-01 -7.90186599e-02 +8.60783577e-01 +6.08227313e-01 -1.70528159e-01 +5.41773364e-02 +1.45680867e-02 +1.65901333e-01 +3.09374541e-01 +1.69639379e-01 +6.09225392e-01 +3.22552294e-01 +8.75057951e-02 -1.25890300e-01 +6.71877682e-01 -1.20423585e-01 -4.92960095e-01 -2.56145626e-01 +2.29187563e-01 +1.91504136e-01 -2.97356904e-01 -1.55302480e-01 +3.09387684e-01 -5.81158698e-02 +2.10665032e-01 -6.85199857e-01 +3.94553244e-01 +6.56475127e-01 +1.85438022e-01 +2.96672642e-01 +5.17676294e-01 -1.85884178e-01 +1.90210775e-01 -2.64519781e-01 -8.16855505e-02 +1.55194104e-01 +7.25311488e-02 +2.38738686e-01 +2.51648813e-01 -1.22536086e-01 +2.95884341e-01 -5.73006868e-02 -2.71301866e-01 +3.70264173e-01 -4.51046616e-01 -2.78198663e-02 -7.55375437e-03 +1.98411539e-01 -2.11783230e-01 +1.71087891e-01 -3.93790543e-01 -2.57482767e-01 -3.77809405e-01 -4.98708747e-02 +3.47362049e-02 -1.12927705e-01 -2.73830652e-01 +5.44012666e-01 +4.28377807e-01 +4.05425206e-02 +1.30677491e-01 -2.42165923e-01 +6.28808916e-01 +2.57051382e-02 +2.40822017e-01 +1.91067368e-01 -6.73321187e-01 -9.03871655e-01 +4.05823261e-01 +2.32812405e-01 +3.50920528e-01 -4.95493442e-01 -3.94062102e-01 +2.47995421e-01 -4.65017736e-01 -7.66245008e-01 -3.29112494e-03 +3.08749437e-01 -9.21386778e-01 -3.92574146e-02 -3.57901379e-02 +3.95538390e-01 -1.87757090e-01 -1.65366724e-01 +7.41487145e-01 +1.00319147e-01 +5.84807210e-02 +2.06846654e-01 -4.52584147e-01 +8.30839932e-01 -3.60662669e-01 -5.45347631e-01 +3.34004492e-01 -2.27361113e-01 -5.21544993e-01 +4.20596749e-01 +2.39443690e-01 -4.93104756e-02 +1.02326632e+00 -6.08766735e-01 +6.74940869e-02 -1.68590397e-02 -4.30204868e-02 +1.33479042e-02 -4.21473354e-01 -4.41392809e-02 +4.50400084e-01 -2.55158782e-01 -1.29795715e-01 +1.28558595e-02 +4.83307153e-01 -2.51692057e-01 -8.04952085e-02 +1.44976050e-01 -1.81733653e-01 -8.80862866e-03 +1.55127808e-01 +2.20935196e-01 -3.26999187e-01 +1.18223935e-01 +3.20766777e-01 +3.99176210e-01 +2.81073570e-01 -1.22497290e-01 -1.78361550e-01 -1.09291598e-01 -7.18208849e-01 +7.10758939e-02 -1.61165997e-01 +2.32337549e-01 +3.91263962e-01 +4.65066880e-01 -5.64831257e-01 -4.14604783e-01 +2.34202057e-01 +3.64212203e-03 +6.56928182e-01 +3.87736224e-02 +3.22912902e-01 +2.34617740e-01 +1.68304875e-01 -6.65329456e-01 +2.19350561e-01 -2.51741469e-01 +5.48169091e-02 -6.43116236e-01 +2.62008727e-01 +6.51647091e-01 -3.40747565e-01 -4.80164379e-01 -6.36437654e-01 -4.22852546e-01 +2.14364573e-01 -6.04283325e-02 -4.31721568e-01 -4.53288943e-01 -5.67614019e-01 -1.48197070e-01 -8.53556674e-03 -3.40222269e-01 +2.18744487e-01 -3.10711730e-02 -3.42798352e-01 -6.07307479e-02 -2.72667725e-02 -2.40490571e-01 +1.45547882e-01 +3.06971818e-01 +1.51455969e-01 +1.89678613e-02 -3.53971362e-01 +3.41286182e-01 -3.84601414e-01 +1.04570366e-01 +2.56368726e-01 -3.37399721e-01 -1.16635457e-01 +6.98030412e-01 -2.24108964e-01 +1.01311058e-01 -3.19435000e-01 +2.71466911e-01 +1.35390326e-01 +3.30768973e-01 +2.03989476e-01 +1.94950998e-01 -3.05927008e-01 -4.64463294e-01 +2.80893445e-01 +1.00715933e-02 +1.28511131e-01 +3.95788848e-01 +1.48604989e-01 +3.75243932e-01 -5.68383813e-01 -6.53684378e-01 +3.60761136e-01 +5.82314432e-02 -3.84794772e-01 -4.72953498e-01 -6.44798696e-01 -2.81085104e-01 +3.06598365e-01 -4.72272485e-02 -5.52572250e-01 -2.31324539e-01 -4.19014186e-01 +7.87822485e-01 -2.95483381e-01 +1.05432078e-01 -1.67046678e+00 -2.31246650e-01 +1.94073573e-01 -1.12751365e-01 +1.54455870e-01 +2.70341724e-01 -3.27566475e-01 +6.54792860e-02 -7.13601056e-03 -1.89838901e-01 +1.11204438e-01 -1.35754235e-03 -1.51023671e-01 +5.18275499e-01 +3.06593388e-01 -2.58392274e-01 +1.90561369e-01 +2.30305731e-01 -2.97485888e-01 +1.08169571e-01 +8.91265944e-02 -1.33841544e-01 +8.37248340e-02 -6.32078588e-01 +6.77206665e-02 -1.90931767e-01 +1.92280531e-01 -7.52276406e-02 +9.41627249e-02 +1.74767330e-01 -1.79368362e-01 -1.29866913e-01 +1.62805706e-01 -2.79333536e-02 -2.70732921e-02 -2.72449553e-01 -6.66330308e-02 -1.38759598e-01 -9.54207331e-02 +3.18325967e-01 -3.63812774e-01 -4.16915208e-01 -3.41246724e-01 -1.34711027e-01 -2.00628310e-01 -2.51054734e-01 -1.05737925e-01 +3.57774198e-01 -1.08238304e+00 -7.04959810e-01 +5.55007279e-01 -1.86023377e-02 +2.95354009e-01 -2.36950904e-01 -6.28569365e-01 -1.28935024e-01 -3.83507833e-02 +8.02933350e-02 -3.09181541e-01 -3.04973483e-01 +1.19394109e-01 +1.38594702e-01 +3.58842947e-02 -4.15267557e-01 -5.03644906e-02 -4.06759560e-01 +3.23983192e-01 -2.03619808e-01 +4.61870253e-01 -2.62279630e-01 +2.97382902e-02 +1.09661989e-01 +2.41277907e-02 +1.90192640e-01 +6.64683580e-01 +4.57938155e-03 +4.49748784e-01 +3.60175461e-01 +3.44552100e-01 +4.55038130e-01 -1.04791284e-01 -7.29112029e-02 +1.70425013e-01 -1.40774474e-01 +1.30311638e-01 +1.46297485e-01 -4.56485040e-02 -6.50462881e-02 +1.13701828e-01 -4.43482190e-01 +2.62077540e-01 -4.51372005e-02 -8.86389837e-02 +4.47488934e-01 -2.24743843e-01 +1.70298815e-01 +7.14265764e-01 +1.01200962e+00 +3.51891369e-01 +2.92145967e-01 +2.31677622e-01 +2.12257072e-01 +1.71861589e-01 -3.46888393e-01 -2.88112104e-01 -6.30665869e-02 -9.14059654e-02 +3.73598903e-01 -1.16278321e-01 -3.62678058e-02 -1.78918749e-01 +1.89198256e-01 -9.92893755e-01 -3.59422445e-01 +3.38554323e-01 -1.74924850e-01 +2.26035178e-01 +3.80920172e-01 -5.95420241e-01 -6.17690645e-02 -3.18335891e-02 -1.44644067e-01 +3.51820558e-01 -2.77352542e-01 +8.25742900e-01 +2.06362858e-01 -4.06297952e-01 +4.57754403e-01 +1.16770431e-01 -3.16461861e-01 -3.23063195e-01 +2.23953828e-01 +1.15377948e-01 -1.81372806e-01 +5.48872888e-01 -1.80744931e-01 +5.10579884e-01 +9.22911167e-01 -4.51631062e-02 +6.19617224e-01 +3.89860541e-01 +6.77879676e-02 -3.19862068e-01 +5.88679053e-02 -4.90455180e-02 +3.65669996e-01 +4.02464159e-03 -1.67375222e-01 -5.73292524e-02 +3.95083316e-02 -1.36276409e-01 +9.38290078e-03 +2.51127630e-01 -9.24031958e-02 +3.16559702e-01 +7.58600831e-02 -6.03360176e-01 +3.15477461e-01 -2.11837500e-01 
#Parameter# /vanilla-lstm-builder_1/_1 {64,16} 16385 ZERO_GRAD
+5.84759675e-02 +4.00544912e-01 -3.38265076e-02 -4.47723478e-01 -3.30213159e-01 -3.34245205e-01 +3.29578936e-01 -5.14940023e-01 -1.21775448e-01 +9.92955625e-01 +6.24765098e-01 +1.67770660e+00 -1.01109602e-01 +3.05595756e-01 +1.45931172e+00 -2.59833932e-01 +3.01501811e-01 -3.09354633e-01 -4.95084733e-01 +3.21363449e-01 -1.63582787e-01 +3.52801383e-01 +8.63038376e-02 -4.24760938e-01 -3.05979759e-01 -1.98429137e-01 -4.24088426e-02 +1.57956004e+00 -2.54296333e-01 -1.51871234e-01 +3.06470603e-01 +1.15488902e-01 -8.65094185e-01 -3.41057479e-01 +2.68715799e-01 -8.44849274e-02 -4.40206051e-01 +3.11926067e-01 -5.76169975e-02 +5.54993570e-01 -1.77006543e-01 +1.43339050e+00 +1.40566933e+00 +2.50691678e-02 +6.88530445e-01 +2.58015692e-01 -4.71746862e-01 +4.04261261e-01 -3.92502576e-01 -6.30389675e-02 +4.73966785e-02 -2.09845349e-01 +7.29161859e-01 +4.59727138e-01 -6.90241754e-01 -5.01223020e-02 -5.93016386e-01 +1.31257489e-01 -4.37523782e-01 -1.46494925e-01 -6.20084405e-01 -2.31434405e-01 +5.16464531e-01 +1.46446198e-01 +2.44822711e-01 -7.25725412e-01 -2.14362413e-01 +2.41413236e-01 -5.31742096e-01 +7.20213115e-01 +1.38954282e-01 -6.16121702e-02 -2.47995600e-01 -6.60269558e-01 -1.32805035e-01 -1.14702475e+00 -1.21157281e-01 -4.76312675e-02 -1.77013189e-01 +3.44068378e-01 +4.26681876e-01 -1.80951841e-02 -2.38315016e-01 +3.70651156e-01 -4.88685817e-01 -1.23155348e-01 +3.74850929e-02 +5.68028390e-01 +4.99354661e-01 -3.44617553e-02 +3.22797835e-01 +3.04782480e-01 +4.96478885e-01 +4.30770308e-01 -1.50405103e-02 -3.68646942e-02 +9.63202342e-02 -3.86180162e-01 -3.10394555e-01 +6.32138312e-01 -1.60618380e-01 +8.18194151e-01 -7.53148258e-01 +2.13370308e-01 -3.55366655e-02 -9.66582656e-01 -4.42970902e-01 +8.29850137e-01 -7.47050822e-01 +9.62422322e-03 +1.57913521e-01 -1.43719628e-01 +1.10355556e-01 -3.06886360e-02 -2.97020674e-01 -1.43952399e-01 +3.24138641e-01 +2.66632773e-02 -7.14672133e-02 -9.53243449e-02 -3.07895005e-01 -3.99245292e-01 +2.59904414e-01 +4.75727394e-02 -2.02562630e-01 -4.28178459e-01 +6.16821349e-01 +3.92374806e-02 +7.27913439e-01 -2.64148682e-01 -9.29277182e-01 -3.62576783e-01 +2.81283766e-01 -4.93016541e-01 +2.42953241e-01 +3.85156013e-02 -1.76118866e-01 -2.55319059e-01 -3.37863863e-01 -5.87798476e-01 -3.83951575e-01 -6.19611681e-01 -1.23387957e+00 -4.96654779e-01 +4.26537693e-01 +5.03678210e-02 +4.61101443e-01 -8.22722852e-01 +2.49385722e-02 +4.30078387e-01 +7.10121334e-01 -2.95793355e-01 -5.55511951e-01 -1.93788588e-01 -1.17933914e-01 +5.74934602e-01 +1.23654328e-01 +2.53696352e-01 -3.78934108e-02 +6.81764424e-01 +2.93092996e-01 +2.84163281e-02 -1.69166997e-01 +2.16068849e-01 +1.45017952e-01 -1.13440312e-01 +2.69265532e-01 +1.72469333e-01 -6.14335179e-01 -4.68136787e-01 -2.83754677e-01 -3.12604755e-01 -8.91086459e-02 -4.82336968e-01 -9.45970774e-01 -1.16643079e-01 +3.86110246e-01 +4.23821583e-02 +6.51953742e-02 -8.85479972e-02 -2.57160604e-01 -6.17874935e-02 +6.10288560e-01 +1.96149930e-01 -3.44546854e-01 -5.32353759e-01 +4.50811714e-01 +7.17130721e-01 +4.91635859e-01 -4.01649803e-01 -9.43626538e-02 +6.10105157e-01 +4.28742439e-01 +5.08601725e-01 -3.58904563e-02 +3.26852202e-01 +3.95899355e-01 -1.02500677e+00 +6.59049690e-01 -1.19663075e-01 -7.21357316e-02 +1.26286364e+00 +9.45917368e-01 +1.76960540e+00 -1.83369115e-01 +2.07814991e-01 +1.15888381e+00 -7.89776981e-01 +3.63150656e-01 -3.53770047e-01 +1.71340257e-01 +7.28168488e-01 +2.20784515e-01 +4.20439452e-01 -6.85238689e-02 -9.17084813e-01 +2.24116668e-01 -7.16991648e-02 -2.13911161e-01 +2.10656509e-01 -2.54707456e-01 -5.09288311e-01 +3.82782638e-01 -3.97516757e-01 +4.01311219e-01 +7.64196292e-02 +7.83846378e-02 +1.22120135e-01 -2.58611262e-01 +2.19718795e-02 +1.89643130e-01 -1.68483973e-01 -1.80355832e-01 +8.11228991e-01 +6.24385893e-01 -4.53325570e-01 +2.55424649e-01 +2.17120036e-01 +6.01397872e-01 -1.28083751e-01 +1.06144476e+00 -2.61337519e-01 +4.61061805e-01 +1.15554667e+00 -6.04162276e-01 -4.30049300e-01 +7.20460653e-01 -6.87162057e-02 +3.38759087e-02 +2.76498377e-01 +3.13855223e-02 +6.03129268e-01 +2.31650546e-01 +6.83827922e-02 +7.70628154e-01 -4.41435203e-02 -1.36145115e-01 -1.76954076e-01 +7.12313473e-01 +1.19198196e-01 -1.67957231e-01 +2.52507299e-01 -2.36811519e-01 +3.34346034e-02 +2.98661411e-01 +1.51838735e-01 +8.08433667e-02 -8.88479590e-01 +2.19218582e-01 +5.85140228e-01 -7.41157293e-01 +1.40582398e-01 -9.79701698e-01 -4.56265695e-02 -2.99900055e-01 +3.95748794e-01 -4.48732413e-02 -8.07265460e-01 -2.46316358e-01 +1.79571033e-01 +2.16493219e-01 -4.41226922e-02 +2.37344831e-01 -3.34324956e-01 -1.45063341e-01 -4.02419567e-01 -1.22079507e-01 -5.13091445e-01 +5.96071601e-01 -1.28254727e-01 -1.05118426e-02 +5.61371334e-02 +4.62949306e-01 -3.35913539e-01 +3.54031414e-01 -7.92042494e-01 +4.36530411e-01 -8.89816344e-01 -8.05466294e-01 +1.73823595e-01 -3.99954230e-01 -2.47516200e-01 +9.79744375e-01 -3.70918006e-01 -1.98147207e-01 +5.07024646e-01 -4.78289612e-02 +8.55382904e-02 -5.36810994e-01 +5.62026910e-02 +6.78308487e-01 -3.64381015e-01 +2.62016766e-02 +3.19875777e-01 -1.88978168e-03 -2.98717320e-01 +1.17975473e-01 +5.20198122e-02 -7.56654918e-01 +2.12180257e-01 +2.24765584e-01 -1.55395433e-01 -7.02475011e-01 -1.49638981e-01 +2.92960592e-02 -7.96791136e-01 -5.47101974e-01 -4.13379520e-01 -5.62257528e-01 -1.15771091e+00 -1.30487466e+00 -1.05402493e+00 -1.07550752e+00 -1.06857136e-01 -1.84718847e+00 -1.22341692e+00 +7.18888402e-01 +7.53578603e-01 -3.18418920e-01 -1.74790728e+00 +2.29461089e-01 -8.95908177e-01 +7.57333860e-02 +7.75469780e-01 -4.23797160e-01 +2.51355410e-01 +2.17617765e-01 +3.79189342e-01 -4.12737310e-01 -2.07723677e-01 -2.11433053e-01 -1.03207397e+00 +3.72213721e-01 +1.96430758e-01 -2.54588425e-01 -1.69948772e-01 +2.01133013e-01 -7.88811684e-01 -5.97104311e-01 -1.01995981e+00 -4.43499871e-02 -1.04123867e+00 -7.76953459e-01 -1.11501897e-02 -9.14831340e-01 -3.03745657e-01 -9.06212032e-01 -9.40031230e-01 -3.37575674e-01 -7.13414252e-02 +2.98646212e-01 -1.69061705e-01 -5.13153553e-01 +4.23320889e-01 +6.28937557e-02 +7.17276558e-02 +2.29971871e-01 -3.76729108e-02 +7.02461693e-03 -6.64241835e-02 -3.78591388e-01 +1.66193783e-01 -9.42558050e-02 -3.26742560e-01 +1.54157653e-01 +2.73449630e-01 -2.82286048e-01 -2.27896288e-01 -2.25500539e-01 -6.94851100e-01 -1.22738920e-01 +1.99957848e-01 -2.05367833e-01 +5.94655037e-01 +3.79790306e-01 +1.30788648e+00 -5.26708663e-01 -8.62552598e-02 +7.14362681e-01 -4.59158272e-01 +9.88760531e-01 +7.16715157e-02 +9.73952189e-02 +9.95082706e-02 +2.69066423e-01 +7.57908583e-01 +5.04113317e-01 -4.99276847e-01 +9.99884978e-02 +5.00481687e-02 +1.26870498e-01 +1.41826376e-01 +4.41636927e-02 +1.00316361e-01 -3.08970176e-03 +2.22262263e-01 -5.56120053e-02 +2.57422596e-01 +8.66603702e-02 +3.00688613e-02 -1.43293411e-01 +7.07615316e-01 -4.52134274e-02 +6.38459444e-01 -2.47505233e-01 +1.31584251e+00 +1.09570205e+00 -5.97535491e-01 +2.56931812e-01 +2.12256163e-01 -5.85366786e-01 +3.43480647e-01 +4.63874191e-01 -1.40291691e-01 +1.57642037e-01 +2.12626308e-01 +2.87288696e-01 +4.01488245e-01 -1.34492725e-01 +2.60004044e-01 -1.16175696e-01 +2.82224327e-01 -4.09359448e-02 +4.35319632e-01 -2.57934362e-01 -6.04191907e-02 +9.58004594e-01 -2.83010840e-01 -5.74009195e-02 -9.79844332e-02 +4.71399903e-01 +4.85886663e-01 +1.04411387e+00 +1.11476682e-01 +7.62874186e-01 +3.10073681e-02 +1.23056158e-01 +8.11887145e-01 +9.04908329e-02 +2.31039256e-01 -2.27423515e-02 +2.14073747e-01 -1.65934429e-01 -1.54445440e-01 +2.76428729e-01 -1.86662957e-01 +4.84394841e-02 -2.60245144e-01 -1.47452980e-01 +5.69912314e-01 +2.97905803e-01 -8.69455278e-01 -5.97709615e-04 -2.13793665e-01 -3.84580716e-02 +5.91547310e-01 +3.34930941e-02 -2.70826221e-01 +4.59482297e-02 +3.43703240e-01 +4.61714298e-01 -1.47413686e-01 -1.35926321e-01 +4.93424773e-01 +8.19626927e-01 -1.44616008e-01 +3.40104073e-01 +4.12274711e-02 -1.01374105e-01 +1.25554994e-01 -2.21828356e-01 -6.55904889e-01 +2.86068261e-01 -3.75110865e-01 +1.54609770e-01 +4.10027772e-01 +3.03276539e-01 +2.56942987e-01 +2.90103048e-01 +6.61551893e-01 -3.44257981e-01 -6.41653180e-01 +3.05444747e-01 -1.48879260e-01 -1.25700369e-01 -5.14878571e-01 +1.40409067e-01 +9.71165478e-01 +4.45926458e-01 -8.51369649e-02 +3.85816276e-01 +2.12021023e-01 -6.22592747e-01 +3.12042028e-01 -5.99420846e-01 +9.06568095e-02 -1.22018516e-01 +2.39607677e-01 -7.52745941e-02 -1.44888520e+00 -4.15796608e-01 +1.38168976e-01 -1.17219687e+00 -1.26930758e-01 -4.19943810e-01 +8.99074078e-01 -1.11801040e+00 -4.51526418e-02 -2.10195005e-01 -4.55871165e-01 -4.42534655e-01 -2.33038932e-01 -4.70135391e-01 -1.45796764e+00 -2.19913065e-01 -1.07220560e-01 -2.27245212e-01 +1.09845661e-01 -7.26827905e-02 +4.81939137e-01 -2.22283110e-01 -7.03908682e-01 +5.39775431e-01 -7.72343636e-01 -8.85813475e-01 -5.72867513e-01 -8.25694799e-01 +2.05421418e-01 +1.04330793e-01 -1.39496398e+00 -9.56223309e-01 -1.30855572e+00 +1.71459556e-01 -9.11797345e-01 -1.07516694e+00 +8.93063605e-01 -6.39480114e-01 +1.13478117e-01 -4.77689177e-01 -4.56428051e-01 -2.90198416e-01 +4.53528643e-01 +5.69460154e-01 -1.37884200e-01 +3.09728831e-02 +6.06760144e-01 -1.69186145e-01 -2.39441931e-01 -3.30109745e-01 +5.36348939e-01 -7.24431515e-01 +3.65650892e-01 -3.12599868e-01 -1.38749659e+00 -4.58690166e-01 +4.51960713e-01 -5.54722100e-02 -3.76682878e-01 +6.91933855e-02 +8.19325298e-02 -5.81273079e-01 +8.08982909e-01 -4.11315560e-01 -7.84368575e-01 -2.84491237e-02 -5.88586271e-01 -6.72037721e-01 -4.94920373e-01 +3.35503705e-02 +6.19314551e-01 +6.11377023e-02 +4.09721345e-01 -2.54254103e-01 +4.20656830e-01 -6.93556890e-02 +4.67610806e-01 -2.96473980e-01 -7.04750240e-01 -4.82031077e-01 +6.54202700e-01 +7.72454143e-02 -2.44787298e-02 +8.41856971e-02 +4.19353396e-01 +7.79815763e-02 +4.06996340e-01 +6.51591599e-01 -2.08571665e-02 -4.57998604e-01 -3.32639575e-01 +3.52723151e-02 +8.75719562e-02 +2.60686636e-01 -5.39174303e-02 -4.80651051e-01 -1.69964135e-02 -9.83410478e-02 -4.35225576e-01 -3.92197162e-01 +9.85560477e-01 -6.68543354e-02 +7.38218501e-02 +6.50222778e-01 -2.75468498e-01 -5.25471509e-01 -3.18013714e-03 +5.24012029e-01 -1.71951503e-01 +1.65022239e-01 +5.19960523e-01 -4.24349070e-01 +2.82466412e-01 +4.18281853e-01 -1.09415218e-01 -2.47417122e-01 -1.82042018e-01 -5.14661610e-01 -5.03390133e-01 +5.79937063e-02 -9.24912617e-02 +4.96173138e-03 -2.44342849e-01 +3.44057560e-01 +2.70996392e-01 +5.40949285e-01 -4.02060449e-01 +3.64769310e-01 +3.07772040e-01 +2.26998508e-01 +5.59307396e-01 +4.22150970e-01 +8.25734794e-01 -3.79362732e-01 -2.44924769e-01 -3.67181212e-01 +7.65153989e-02 -4.76725131e-01 -2.80637652e-01 +3.62797558e-01 -1.93950102e-01 +9.62775052e-02 +4.76792842e-01 +2.45780572e-01 -6.45555317e-01 -5.38266040e-02 -1.12907149e-01 +2.49167830e-02 +3.97962451e-01 -3.24125022e-01 -2.41501555e-01 -6.27131239e-02 -1.65032119e-01 -1.47006974e-01 -1.46065712e-01 +1.31170809e-01 -2.78164987e-02 +7.73280710e-02 -1.53508276e-01 +3.20778489e-01 +2.12999031e-01 -2.26706699e-01 -3.21452558e-01 -2.36696199e-01 -4.63617295e-01 +3.02532762e-01 +2.29120731e-01 -1.44965714e-02 +4.24246758e-01 +2.68444180e-01 +1.01577818e-01 -1.42031699e-01 +6.40753031e-01 -2.52191395e-01 -1.83571458e-01 +2.92764068e-01 +2.07144441e-03 +1.26462385e-01 +2.91250404e-02 -4.02671605e-01 +5.03031015e-01 +2.22378597e-02 +2.96975654e-02 +8.92346725e-02 +1.60772964e-01 +1.21723127e+00 +4.83352333e-01 +2.47292921e-01 -7.49858975e-01 +8.04033756e-01 +1.01452895e-01 +6.49939954e-01 +1.08322573e+00 +2.14629784e-01 +1.61520708e+00 +7.84854829e-01 +5.37462421e-02 +3.68270785e-01 +6.80830896e-01 -4.59542781e-01 +5.87227978e-02 +6.41083717e-01 +4.77222770e-01 +2.50665247e-01 -2.49951452e-01 -4.42974977e-02 -3.13606799e-01 +3.33170235e-01 -2.03439474e-01 +5.58581948e-01 +2.34740496e-01 +2.17555389e-01 +8.90009761e-01 -1.79228023e-01 -3.52961183e-01 -4.54569697e-01 +1.79265946e-01 +5.51011682e-01 +9.92663085e-01 +5.39040744e-01 -2.33991556e-02 +8.31360221e-01 -2.42032215e-01 +4.29554284e-01 +6.07133746e-01 +4.88957942e-01 +8.84878099e-01 +7.95012295e-01 -8.09810698e-01 +3.10834665e-02 -7.87591487e-02 -2.03610569e-01 -3.21766019e-01 +9.63921428e-01 +1.51642263e-01 +3.37190032e-01 +3.44787896e-01 -4.27249700e-01 -4.97437596e-01 +5.93603909e-01 +2.11516604e-01 -6.33102894e-01 -7.32937515e-01 +3.05864304e-01 +9.16759074e-01 +3.87906730e-01 -8.16516429e-02 +2.61884332e-01 +5.22920132e-01 +5.15431464e-01 +5.08340061e-01 +8.24177563e-02 +9.29915786e-01 +1.58042237e-01 +3.77073251e-02 +2.56214797e-01 +1.01555727e-01 -6.03840500e-02 +2.32944176e-01 -5.30618131e-02 +1.09512687e+00 -5.29141054e-02 -1.60173282e-01 +5.96555352e-01 +2.25980744e-01 +1.61071539e-01 -4.35128629e-01 +1.89382240e-01 +4.24575865e-01 +1.65844709e-01 +6.72934175e-01 +3.32204074e-01 -4.20520633e-01 +2.40786761e-01 -4.16002721e-01 +5.44566251e-02 +2.29498707e-02 +2.22601548e-01 +3.60659719e-01 -5.21977944e-03 +6.81433260e-01 +4.44607645e-01 -1.07421823e-01 +3.87222141e-01 +1.80469885e-01 -3.19955319e-01 +7.34921336e-01 +2.84881026e-01 +4.22602773e-01 +9.94014218e-02 +3.04898620e-01 +3.81851941e-01 +4.88909483e-01 +5.90853512e-01 +7.28970826e-01 -2.82051153e-02 +7.72250831e-01 -9.79537740e-02 -2.03921184e-01 +2.93219179e-01 +2.67405778e-01 -4.28486794e-01 +1.60895109e-01 -5.34422509e-02 -1.01127580e-01 -2.59984910e-01 +2.01300621e-01 -2.87011743e-01 +7.59759665e-01 -5.48815608e-01 -1.13022752e-01 +6.58586979e-01 -1.71684787e-01 -6.17842615e-01 -4.65352297e-01 -8.77024531e-01 +5.85212827e-01 -5.64291894e-01 +4.29248780e-01 -3.74000967e-01 -8.62498105e-01 -7.48054326e-01 -8.48428428e-01 -7.63537884e-01 -6.35573387e-01 -3.28831315e-01 -5.74628890e-01 -3.03539429e-02 +6.06111765e-01 -3.35088521e-01 -2.29912058e-01 +8.96277428e-02 +3.83668572e-01 -3.24840575e-01 +4.85197544e-01 -1.61073312e-01 +1.88417926e-01 -1.11912517e-03 +1.95652228e-02 +2.47992039e-01 +3.16751331e-01 -3.89063269e-01 +6.17056251e-01 +1.02075839e+00 +1.18271589e-01 -7.01956749e-01 -1.17416799e+00 -6.07032299e-01 +6.20207608e-01 -2.81900048e-01 +1.16641831e+00 -6.74012363e-01 -8.93724322e-01 +6.81927800e-02 -6.11669183e-01 -1.02941871e+00 +9.42017853e-01 -3.60909134e-01 +3.49030524e-01 +4.29526120e-01 +4.49865043e-01 -9.34433818e-01 +9.01014060e-02 +1.91881415e-02 -3.56918454e-01 +1.06738555e+00 +4.07600939e-01 -9.02025044e-01 -1.83174890e-02 -3.29289287e-01 +1.47904918e-01 -3.98454338e-01 -4.92764890e-01 -8.51754248e-01 -4.70801622e-01 +8.90216470e-01 -5.60240090e-01 +3.97257775e-01 +3.23357463e-01 +7.13955045e-01 -2.54104823e-01 +9.55894515e-02 -1.19013980e-01 +3.43118995e-01 +9.69745070e-02 +6.55749917e-01 +6.47585094e-01 +5.82414210e-01 +9.33112919e-01 +4.00647819e-02 +1.27313805e+00 +5.87278247e-01 -1.51624665e-01 +5.36684096e-01 +4.76640463e-02 +1.23670056e-01 +5.49242258e-01 +1.72033057e-01 +1.48890287e-01 -2.25087062e-01 -2.99516618e-01 -2.56169379e-01 +7.64471292e-02 -6.48799166e-03 +6.24985814e-01 +2.55022198e-01 -2.78635442e-01 +4.90356833e-01 +1.47695780e-01 -2.64825374e-01 +1.28993377e-01 +3.07583928e-01 +2.94508487e-01 +1.59550473e-01 +3.84481877e-01 +5.08963406e-01 +1.18051305e-01 +1.24597572e-01 +7.65670419e-01 +1.49888217e-01 -3.27416748e-01 -2.07488425e-02 +1.81979194e-01 -3.28040868e-01 +4.51976061e-02 -6.54060021e-02 -2.66142070e-01 +5.44659095e-03 +6.26385927e-01 -4.24502313e-01 -3.24656606e-01 +2.71475405e-01 -8.41115862e-02 -4.38789129e-01 -2.75281399e-01 +6.67491779e-02 +1.03497513e-01 +4.58737127e-02 -7.50859231e-02 -3.25107425e-01 +3.14121276e-01 -2.23526344e-01 +7.73866028e-02 -4.05938953e-01 +4.27061953e-02 -3.32535394e-02 +6.40742421e-01 -1.78955067e-02 +1.15509498e+00 +5.56994498e-01 +4.88499135e-01 +8.24443638e-01 +1.55897886e-01 +1.02677846e+00 -1.33297253e+00 +1.05883193e+00 +6.95333779e-01 -3.84374797e-01 -2.51489133e-01 +2.19215095e-01 +8.63669753e-01 +3.52769792e-01 +7.60703504e-01 +1.64837554e-01 -2.56426483e-01 +5.13760410e-02 -2.22782597e-01 +4.15852517e-02 -1.35835841e-01 +8.57785225e-01 +9.06541422e-02 -6.59938276e-01 +1.07948673e+00 +3.62145633e-01 +4.49190974e-01 +3.21295932e-02 +3.51573601e-02 +3.27215075e-01 +7.56099999e-01 +5.01758695e-01 +1.42848420e+00 -3.50179881e-01 +1.20965171e+00 +1.26008236e+00 -5.69629312e-01 +6.90979481e-01 -6.39104843e-01 +6.71808779e-01 +6.79876149e-01 -1.21712580e-01 -4.90064360e-02 -2.55932570e-01 +5.86328283e-02 +1.88779265e-01 -7.66383648e-01 -1.49412319e-01 +2.37525105e-01 -4.97947276e-01 -2.07115933e-01 +1.65902823e-01 -1.16005927e-01 +5.80946505e-01 -1.60207957e-01 +4.20588732e-01 +2.39552423e-01 
#Parameter# /vanilla-lstm-builder_1/_2 {64} 1025 ZERO_GRAD
