#Parameter# /vanilla-lstm-builder/_0 {64,32} 32769 ZERO_GRAD
-6.20464273e-02 -1.24281041e-01 +2.47734889e-01 -4.12621140e-01 -3.06787670e-01 +1.24408729e-01 -3.24807577e-02 -3.80450904e-01 -7.08575547e-01 -3.42974305e-01 -1.85236827e-01 -3.31631750e-01 +2.41053134e-01 +9.18434784e-02 -1.90506399e-01 +1.46692261e-01 -1.61753204e-02 -7.92470947e-02 -5.03616452e-01 +4.86889243e-01 -4.51723695e-01 +3.34360480e-01 -7.60859847e-01 -3.53479445e-01 -1.69685379e-01 -4.27865714e-01 -3.42159957e-01 -2.00341284e-01 -6.06038749e-01 -3.04048002e-01 +3.01297367e-01 +3.79090086e-02 +4.35094446e-01 +8.65373984e-02 -2.95875460e-01 -3.68378639e-01 -3.68021101e-01 -3.05930704e-01 +7.03015402e-02 -5.62743008e-01 -3.07526469e-01 -9.39302564e-01 +9.09798086e-01 +4.52348441e-02 -5.48351854e-02 +7.94723704e-02 -2.60924160e-01 -3.00522055e-02 -4.14543390e-01 -3.53835791e-01 -1.51235759e-01 -9.36777368e-02 -9.19568613e-02 +1.31762549e-01 -4.71487157e-02 -4.84729148e-02 -4.90532428e-01 -9.36125219e-01 -4.83971208e-01 -9.04154964e-03 +9.22028869e-02 -6.34672046e-02 +1.66555807e-01 +2.17513405e-02 -2.87535097e-02 +1.35777786e-01 -7.86003411e-01 +2.58794934e-01 -3.97488326e-02 -2.10553318e-01 -3.40139747e-01 +1.89363718e-01 -4.92438227e-01 -2.50296503e-01 -9.27324966e-02 +3.79195184e-01 -4.93790120e-01 +9.49381962e-02 -6.01239540e-02 +3.66073638e-01 -3.27132970e-01 +6.72605157e-01 +1.80555642e-01 -1.66193739e-01 +7.83892095e-01 +5.97413599e-01 +4.81841713e-01 -8.90801400e-02 -2.84050435e-01 -2.65805185e-01 +4.58628356e-01 +5.53304851e-01 +1.27702013e-01 +2.24097930e-02 +7.48737812e-01 +2.62739360e-01 +3.12885672e-01 -5.06236315e-01 +6.60778359e-02 -6.83315516e-01 -9.00970176e-02 +6.32971346e-01 +2.24645466e-01 -9.16922912e-02 +1.82645768e-01 +1.03802182e-01 -7.91357607e-02 +7.85945714e-01 -9.06486716e-03 -4.03596610e-01 +7.93189943e-01 -1.09367922e-01 -4.94431555e-01 -8.17824379e-02 +1.68165177e-01 +5.06419921e-03 -6.29708841e-02 -1.16075560e-01 -4.24315184e-01 -5.13670333e-02 +1.22441150e-01 +1.95959769e-02 +1.68226659e-01 -2.59423316e-01 -7.80181959e-02 +1.07759265e-02 -1.70097813e-01 -1.52957803e-02 +3.30571160e-02 -2.05809072e-01 +9.03007239e-02 -2.43950814e-01 -3.67455631e-01 -2.32251391e-01 -3.12555760e-01 -7.31019825e-02 -3.14658344e-01 -3.95439267e-01 +1.10208742e-01 -8.13318118e-02 -2.59883162e-02 -7.62048140e-02 -2.84061879e-02 +2.75705243e-04 +5.86339347e-02 -2.98275322e-01 -2.31964052e-01 -5.47124624e-01 +4.24390554e-01 +7.88135052e-01 +3.59571427e-01 -7.30483830e-01 -9.75690708e-02 +3.53954136e-01 +2.57668883e-01 -1.46374181e-01 -4.19513911e-01 -3.40971708e-01 -7.59420767e-02 +3.50365460e-01 +1.29766464e-01 -3.93735528e-01 -3.08678299e-01 -2.89405912e-01 -3.50078493e-01 +1.15366149e+00 +1.34387732e+00 -8.36047173e-01 +2.77964294e-01 +6.99176043e-02 +1.23607564e+00 -1.04747467e-01 -4.19791251e-01 -9.38577801e-02 -7.55102575e-01 -4.21634503e-02 -6.48990333e-01 -1.73061043e-01 -1.33188084e-01 -1.45794988e-01 +4.86457795e-02 -1.24214999e-01 -4.18261550e-02 -3.47211584e-02 -1.87886823e-02 -6.85460687e-01 -1.34930834e-01 -1.41220450e-01 -3.06426380e-02 -5.41914860e-03 -2.04853192e-01 +4.46855192e-05 +1.78356878e-02 -2.71496207e-01 -9.64507535e-02 -2.50391841e-01 -6.62584186e-01 +3.60622585e-01 -3.25089723e-01 -2.29321033e-01 -8.91306758e-01 +5.34087420e-01 +1.97139412e-01 -4.53242689e-01 -2.02984005e-01 -3.39255065e-01 +6.53592944e-02 -1.61340728e-01 +3.59551728e-01 -3.15711439e-01 -8.80702883e-02 +5.61471760e-01 -3.19944948e-01 -1.05047190e+00 -7.03020751e-01 -2.87957862e-02 +2.63460547e-01 -4.04393882e-01 -6.30722106e-01 -6.00045502e-01 +1.03668965e-01 -2.51333505e-01 -4.55802470e-01 +5.73130287e-02 +3.80833298e-01 +1.43621787e-01 +5.69035351e-01 +2.50760108e-01 +1.02876775e-01 -5.45786440e-01 -5.44132054e-01 -6.49762452e-01 -4.31215465e-01 -4.23013359e-01 +3.80275369e-01 -1.22207366e-01 -1.49699911e-01 -4.09601666e-02 +2.83568144e-01 +7.14431107e-02 -2.20126659e-01 -3.65034863e-02 -1.28050625e-01 -3.59615177e-01 -1.63930990e-02 +3.56732681e-02 +5.53139113e-02 -2.00738668e-01 +2.16635428e-02 +2.45018259e-01 -4.65692639e-01 +2.45259464e-01 -5.48673309e-02 +6.26512468e-02 +3.69249433e-01 +1.42912894e-01 -2.65830636e-01 -2.60999590e-01 -1.54992506e-01 -4.41190392e-01 -5.06424047e-02 +2.28067756e-01 -4.35122222e-01 -4.91591603e-01 -1.09237008e-01 -7.89610982e-01 -7.00758025e-02 -4.13016021e-01 +2.39072710e-01 -2.80670255e-01 +1.97116226e-01 +2.34278828e-01 +6.73563123e-01 +4.21509862e-01 -3.80483866e-01 +9.01488304e-01 -3.92628282e-01 +2.62974322e-01 +8.38540867e-02 +1.07146633e+00 -4.33218330e-02 +2.79526636e-02 +6.12630062e-02 +7.74526894e-02 -8.95488169e-03 +3.76475334e-01 -9.87266898e-01 +2.60611892e-01 +2.90425867e-01 +6.08154714e-01 -5.68518519e-01 +7.77659953e-01 -3.27553786e-02 -2.20833376e-01 -4.69593257e-01 +1.53191701e-01 -2.02542260e-01 -3.88630688e-01 +3.03872555e-01 -6.65430665e-01 -5.09406924e-01 -7.47126788e-02 -8.79983962e-01 +2.39111096e-01 +5.77053547e-01 -2.16686517e-01 -1.67564988e-01 -2.39579529e-01 +1.01800874e-01 +1.61390990e-01 -1.59291819e-01 -2.09061559e-02 +1.78619474e-01 -4.00959030e-02 -2.82622308e-01 +8.47569108e-02 +8.24006125e-02 -6.13048673e-02 +2.79781222e-01 +3.42863910e-02 +1.70628220e-01 +9.11877826e-02 +8.60971212e-01 +4.89798009e-01 -2.73562614e-02 -1.70973688e-02 -4.01447594e-01 -1.05950661e-01 -2.52657533e-02 -2.43512288e-01 -6.28749549e-01 +3.02552581e-01 -9.55978315e-03 +4.02774304e-01 -1.72948614e-01 -1.44154564e-01 -4.27519500e-01 -1.78170934e-01 -5.03125250e-01 -4.25066382e-01 -2.60464810e-02 +3.63355935e-01 -8.48816633e-01 -3.89266573e-02 -3.66537005e-01 -3.04881960e-01 -5.18092453e-01 +2.54395872e-01 +1.39362663e-01 -8.48214865e-01 +1.94872066e-01 -1.82668641e-01 +6.45823330e-02 -5.60016632e-01 +2.78353155e-01 +4.10068966e-02 -4.89591286e-02 -1.21497869e-01 +5.18394232e-01 -4.19093519e-01 +1.12680292e+00 -3.54724884e-01 +1.35350478e+00 -2.83715814e-01 +1.78522870e-01 +4.05991338e-02 +2.37411320e-01 +1.27150044e-01 -8.72361511e-02 +1.50708586e-01 -3.11431140e-01 -1.39189675e-01 +1.30126834e-01 -2.24503595e-02 -6.10880777e-02 +6.65758625e-02 +2.01798528e-01 -1.58060994e-02 +2.57395178e-01 +3.53839472e-02 +6.40029013e-02 +1.96109653e-01 -2.63420463e-01 +1.47433579e-02 -8.81427050e-01 -9.53327417e-02 -9.39657837e-02 -8.45172763e-01 -3.41917396e-01 +4.24095422e-01 -9.22132730e-02 +2.37683252e-01 -3.17450136e-01 -1.35293260e-01 +5.24280313e-03 -6.00540936e-01 +3.32312919e-02 -3.77718985e-01 +1.13035411e-01 +1.84994731e-02 -4.53174919e-01 -4.40223366e-01 +3.42362374e-01 +4.08611089e-01 -5.41020274e-01 -4.21399802e-01 -3.66048247e-01 -7.91786492e-01 -8.09591040e-02 +7.69008696e-01 -2.39627048e-01 -7.36207664e-01 +4.79434401e-01 -1.52927026e-01 -3.23771201e-02 +6.40729070e-02 -6.10347807e-01 +8.44850659e-01 +4.22802806e-01 -1.41989693e-01 +9.65683460e-02 -7.10103571e-01 -9.18692648e-01 -1.89608663e-01 -1.05198395e+00 +6.94709495e-02 -1.31033790e+00 +4.31041904e-02 +5.78086674e-01 +1.24496976e-02 +6.96795166e-01 -2.89319575e-01 +6.94406927e-02 +1.52064577e-01 +4.55821492e-02 -2.53800787e-02 -2.14828730e-01 +3.24894428e-01 -1.96469665e-01 +1.41593531e-01 -1.53636979e-02 +3.98257002e-02 -1.29446968e-01 +4.55930382e-02 +3.60117666e-02 +1.43789202e-01 +3.61740261e-01 -1.89410970e-01 +2.88780570e-01 -1.53612226e-01 +8.17625463e-01 +5.65429509e-01 +3.03118587e-01 +4.77379978e-01 +2.56596088e-01 +1.52934611e-01 +3.24853510e-01 +7.48964369e-01 +2.17598930e-01 -5.90848960e-02 +7.45146692e-01 +4.00049627e-01 -4.78264801e-02 -4.71104905e-02 +4.30076391e-01 -2.01193646e-01 +2.35251505e-02 +9.25908703e-03 +3.18177700e-01 -1.00373077e+00 +3.07041109e-01 -1.24020684e+00 -2.22619712e-01 +1.15565971e-01 -4.52562571e-01 -4.83301699e-01 -5.14888689e-02 -5.38249135e-01 +1.98429585e-01 -4.27013546e-01 +6.98301971e-01 +3.30505103e-01 +5.89233935e-01 +3.55390251e-01 +2.76832789e-01 -6.20906949e-01 +2.96626210e-01 -1.84114754e-01 +1.81259453e-01 +6.45484507e-01 +4.45250690e-01 +8.36158469e-02 +4.92161572e-01 +5.26094198e-01 -1.02620035e-01 +3.51542294e-01 +3.11789244e-01 -1.08657200e-02 -2.42715329e-01 -1.04225211e-01 -9.18570254e-03 +1.88439414e-02 +2.94437200e-01 -6.07318757e-03 -6.27811626e-02 +6.37320399e-01 -7.36114243e-03 +2.46488065e-01 +1.48986891e-01 -1.04818903e-02 -7.45671859e-04 +2.63842195e-02 -6.24969959e-01 -9.83681977e-02 -3.77008736e-01 -5.35971105e-01 -8.45561251e-02 -8.31390545e-02 -5.29538691e-01 -4.40270513e-01 +4.45994660e-02 -7.18130350e-01 +7.30680674e-02 -3.87858450e-02 -2.89101869e-01 -8.59974176e-02 +6.20198669e-03 +5.58760643e-01 +7.51599252e-01 +1.79837331e-01 +2.13645458e-01 +2.00257733e-01 -5.53616211e-02 +5.43490529e-01 +4.26126152e-01 -1.30478159e-01 -8.14799786e-01 +9.85869467e-01 +4.17444378e-01 -3.27608883e-01 -2.15088814e-01 +1.12579502e-01 -3.23958635e-01 -3.49585205e-01 +2.61500150e-01 +7.92108178e-01 -4.04357836e-02 +2.50117332e-01 +2.29117826e-01 -3.04003537e-01 +2.26658627e-01 -4.76628721e-01 +2.86007494e-01 +9.01275054e-02 +4.62910384e-02 +1.20472334e-01 +5.06153256e-02 +4.77637321e-01 +1.13489248e-01 -1.10411488e-01 +1.93143412e-01 -2.38094047e-01 -4.20407712e-01 -4.02906239e-01 +2.46597990e-01 +6.27684236e-01 -1.18431248e-01 -1.76247284e-02 -5.47571182e-02 -2.79448211e-01 -1.30717799e-01 -2.32760772e-01 +5.87926567e-01 -1.20686111e-03 +1.04195895e-02 -8.60115588e-02 +3.28424908e-02 -4.43334937e-01 -1.28459483e-01 -3.35130394e-02 -5.68787336e-01 -3.61376435e-01 -3.44324738e-01 -1.27301544e-01 -3.15435708e-01 -4.54407901e-01 +4.40906442e-04 -2.82451004e-01 -3.22574675e-01 -2.29333729e-01 -1.25772789e-01 -1.78497881e-01 +7.03960717e-01 -4.60970551e-02 -9.54123735e-01 +2.08318591e-01 -2.85926133e-01 +4.61855918e-01 +3.35225224e-01 -1.16440982e-01 +2.08826095e-01 -4.02450949e-01 +1.04678117e-01 -8.10519099e-01 -5.82384348e-01 -2.32253060e-01 +2.08034724e-01 +6.93523288e-02 -8.37660283e-02 -2.57002413e-01 -2.99603254e-01 +3.44155431e-01 -3.13697577e-01 +4.99185443e-01 +2.77009755e-01 -2.14042678e-01 +1.04407981e-01 -7.16099381e-01 +1.16668940e+00 -1.35932550e-01 -2.55590916e-01 -5.01760662e-01 -5.62493503e-01 +1.36788171e-02 -9.26897883e-01 -1.40300602e-01 +5.29785678e-02 -1.46853030e-01 -7.18945786e-02 -8.12980011e-02 -1.92307517e-01 -1.41665429e-01 -5.73660508e-02 -3.19722593e-01 -2.57114410e-01 +8.05645511e-02 +4.41750176e-02 +9.90868583e-02 -5.40408082e-02 -6.99191093e-02 +3.61412138e-01 +4.96989628e-03 -1.88223511e-01 +4.12825733e-01 +2.11297255e-02 +2.14265108e-01 -6.47589192e-02 +3.71522725e-01 +2.82568157e-01 +5.16080916e-01 -4.35157027e-03 +5.78029603e-02 -5.80948405e-02 -2.09248617e-01 -3.54701467e-02 -3.69891882e-01 -1.93225220e-01 +3.13103229e-01 -1.49270728e-01 +2.76017249e-01 -6.00962520e-01 -8.83442998e-01 +3.52433681e-01 +3.97340544e-02 -4.81707156e-02 +5.52549779e-01 -1.98072661e-02 -1.99264720e-01 +5.00821888e-01 -4.12802517e-01 +6.25327528e-01 -2.83658206e-01 +1.78520724e-01 +1.72486044e-02 +2.30026152e-03 +3.00113052e-01 +1.92561701e-01 +9.07959417e-02 -4.56884168e-02 +8.11953843e-01 -3.28548223e-01 +4.35471386e-02 -6.90616965e-01 +6.40192330e-01 +6.06709681e-02 -1.78521156e-01 +4.06579345e-01 +3.30330908e-01 +1.51825681e-01 +1.84125856e-01 +4.11390305e-01 +3.39371115e-01 -1.69250414e-01 -5.31435609e-01 -1.21498138e-01 +7.05179721e-02 +3.10134083e-01 +2.02271298e-01 +1.82282597e-01 -3.16779804e-03 -1.53903320e-01 +2.21952900e-01 -1.21458150e-01 +6.83554262e-02 +1.14230484e-01 -1.47781178e-01 +3.81665856e-01 +5.10214984e-01 +2.87706107e-01 +4.19053674e-01 -7.10730627e-02 +3.53605360e-01 +2.17711657e-01 +1.77541003e-01 -2.34529763e-01 +8.95637348e-02 +6.64970875e-01 -9.73762423e-02 -5.27556054e-02 -4.22486722e-01 +4.81435776e-01 +2.07999438e-01 -3.88222933e-01 +1.11928202e-01 +1.42388940e-01 -9.41596568e-01 +4.30033773e-01 +3.13093573e-01 -2.81014949e-01 +2.02835605e-01 -7.94243962e-02 -3.60203892e-01 +3.29859138e-01 +5.91080971e-02 -6.41630590e-02 -1.24617808e-01 +4.10670280e-01 +3.43976736e-01 -5.06872654e-01 +8.82810414e-01 +1.33699462e-01 -2.97970444e-01 -5.36454678e-01 +6.85083985e-01 -4.50582981e-01 +3.92935574e-01 -8.47572327e-01 +3.40433687e-01 -1.32469763e-03 -3.74183692e-02 -3.55218351e-01 +4.03798461e-01 +4.79579747e-01 +1.44382045e-01 -1.03261496e-03 +4.01408911e-01 -1.76723719e-01 +7.61943012e-02 -1.57076597e-01 +1.18250862e-01 -2.40067542e-01 +4.36563224e-01 +8.04234371e-02 +1.49337471e-01 +3.74834418e-01 +2.01294139e-01 +1.58965200e-01 -5.58270514e-02 +4.78113502e-01 -3.88802998e-02 +3.82000506e-01 +3.62336278e-01 +3.92727077e-01 -3.58555645e-01 +7.20976740e-02 +5.91091695e-04 +1.41840428e-01 -2.99630724e-02 -5.13776094e-02 +1.48982182e-01 -3.60047817e-01 +2.34687212e-03 -1.60988361e-01 -2.43468344e-01 -1.68806225e-01 -3.22745711e-01 +3.86288166e-01 -7.43031641e-03 +3.18860382e-01 +3.10250372e-01 -6.58902526e-01 +1.68372720e-01 +6.99205756e-01 -7.36700833e-01 -3.61651391e-01 +6.68588281e-01 +3.47469658e-01 +1.34028792e-01 -4.87318188e-01 -1.24554578e-02 -5.06301261e-02 -3.81940514e-01 -4.71344441e-02 -3.73332411e-01 +5.14908209e-02 +4.61057752e-01 +1.40426278e-01 +3.94080460e-01 +8.67891729e-01 -1.24363750e-01 +2.04423249e-01 -1.94586471e-01 -7.99443200e-02 -5.97231448e-01 +9.73240361e-02 +1.11899283e-02 +1.10397905e-01 -1.32140130e-01 +2.44590193e-01 -2.34105155e-01 -2.45266091e-02 -7.90918916e-02 +6.65561557e-01 +2.11067185e-01 +4.05445665e-01 -2.79394984e-01 +2.20386386e-02 -7.64176846e-02 -6.92548752e-01 -2.58121222e-01 -2.46185511e-02 +1.90583393e-02 -3.29459533e-02 +1.65244773e-01 -4.16045785e-01 -8.34834397e-01 +1.44142732e-02 -1.88941240e-01 -2.81055886e-02 -6.31945431e-02 -6.59704328e-01 -4.34461325e-01 +2.02167053e-02 +6.13252036e-02 -3.12458783e-01 -2.83457726e-01 +2.81765342e-01 +5.84771872e-01 -4.74080443e-01 +4.14301991e-01 +4.08543311e-02 -9.14624929e-02 -2.15714816e-02 +9.86256242e-01 -1.56942040e-01 -7.70245314e-01 -7.02008903e-01 +3.94782454e-01 +1.56610906e-01 +3.77801478e-01 -1.44626796e-01 +1.60062909e-01 +3.95330817e-01 +2.90036052e-01 -1.85898528e-01 -4.06574249e-01 +4.14719619e-02 -1.06914520e+00 -1.99158087e-01 +2.07373410e-01 +3.02090943e-01 -6.69174969e-01 -1.88652173e-01 -2.71558642e-01 +1.31484509e-01 +2.42919296e-01 +4.11295146e-02 +5.81609793e-02 +5.47726810e-01 -2.31539190e-01 -4.98696387e-01 -1.68852270e-01 +3.51920687e-02 +1.90993100e-01 -6.05054433e-03 +1.81347698e-01 +1.03828153e-02 -9.56800282e-02 -3.10820550e-01 -5.47966540e-01 -1.06731899e-01 -1.42522842e-01 -3.79824154e-02 -1.68205425e-01 -1.74502477e-01 -2.09386181e-02 +1.77747771e-01 +1.67777818e-02 +3.67540121e-01 +4.63912673e-02 -2.19431117e-01 -3.84977013e-01 -2.26130802e-02 -2.74780035e-01 +8.40987563e-02 -2.91945934e-01 -1.89930096e-01 -2.13959590e-02 +1.70315281e-01 +1.63259506e-01 -4.03963119e-01 -2.06841603e-02 +4.49696064e-01 +3.00808817e-01 -7.81929214e-03 -2.30996087e-01 -1.27696767e-01 +8.24296832e-01 -9.32837948e-02 +1.22908878e+00 +1.24382481e-01 -5.07140040e-01 -3.72514576e-01 +5.00473559e-01 -4.80952524e-02 +1.36287868e-01 -3.20970774e-01 +7.92052925e-01 +2.18085185e-01 -4.65878129e-01 +1.39750674e-01 +6.09691322e-01 -1.28067257e-02 +3.89334917e-01 +7.59716213e-01 +2.26169109e-01 +1.02426648e+00 +1.96367830e-01 +8.08106422e-01 -2.67167360e-01 +1.04308091e-02 +2.12345347e-01 -7.81355262e-01 +4.08000678e-01 -1.67381674e-01 +9.94023010e-02 -3.44987512e-01 -3.43045453e-03 +2.89455682e-01 +3.53569597e-01 +1.27900794e-01 -9.71932933e-02 -8.05496350e-02 -1.43171579e-01 +2.63287313e-02 +9.63240415e-02 +1.03838354e-01 -4.56685349e-02 -8.97025615e-02 -1.07604489e-02 -7.46105552e-01 -3.61254722e-01 +8.77297968e-02 +2.83750385e-01 +2.68659331e-02 +2.08329067e-01 -5.84483087e-01 +9.72646847e-03 -4.48308170e-01 +6.38036653e-02 -4.65448529e-01 -4.54537243e-01 -3.12726110e-01 -4.71323997e-01 -2.66442448e-01 -1.19028497e+00 +9.80292141e-01 -2.48063624e-01 -1.08363748e+00 -8.14558387e-01 -3.02692622e-01 -8.60481679e-01 +2.81594396e-01 -6.93387151e-01 +4.90312517e-01 -1.09139428e-01 +8.17858458e-01 -4.70317751e-01 -7.01602161e-01 -1.23708224e+00 +7.14228079e-02 -5.86770594e-01 -4.36403722e-01 +4.96476948e-01 -5.19253850e-01 +1.10897116e-01 -7.12415576e-01 +7.14792237e-02 -4.46069092e-01 +1.80618078e-01 -3.52800518e-01 +2.18856424e-01 +2.66266167e-01 -2.33478814e-01 +1.50133803e-01 -7.21864223e-01 -5.78473866e-01 -5.32476604e-01 -1.46729231e-01 -2.18806714e-01 +5.08282194e-03 -2.23776087e-01 -1.31708443e-01 +1.00733660e-01 +1.50569703e-03 +2.10721225e-01 +8.22784677e-02 +2.08894789e-01 +1.24434605e-01 +4.63066027e-02 +1.31659433e-01 +2.40011975e-01 +1.57910347e-01 +2.21189693e-01 +1.60929918e-01 -2.38829419e-01 -7.91088715e-02 -4.75258559e-01 -4.12942320e-01 +7.95087039e-01 +5.11745989e-01 +3.18378091e-01 +1.55189067e-01 +3.68643671e-01 +1.30482212e-01 -4.68436986e-01 +3.92211825e-01 -5.98620713e-01 -2.60052651e-01 +5.42838573e-02 +1.09163441e-01 +8.01577643e-02 +2.39107937e-01 +3.67253453e-01 +5.53799868e-01 -4.88062739e-01 +3.19714725e-01 +1.52399138e-01 -2.91286439e-01 +5.55189252e-01 +8.74568343e-01 -3.63020867e-01 +2.10109353e-01 +1.28096986e+00 -1.23667979e+00 +2.76428491e-01 -2.32880026e-01 +5.46560287e-01 -3.44917834e-01 +9.80712175e-02 +3.71998698e-01 -4.49497439e-02 -2.80905187e-01 +5.65144062e-01 -5.43981612e-01 +5.89575358e-02 -1.00775428e-01 +7.56678507e-02 -2.05782339e-01 +3.73576760e-01 -3.94401252e-01 +1.58809230e-01 +2.26787567e-01 -5.00982068e-02 +1.56264171e-01 +2.11563289e-01 +1.15550891e-01 +1.08706892e-01 -2.51104031e-02 -5.70253022e-02 -6.25303686e-02 +4.07440990e-01 -2.17522159e-01 +4.26783599e-02 +4.38236333e-02 -2.68861294e-01 +2.64451355e-01 +1.55557720e-02 -5.01544952e-01 +3.68811637e-02 +1.57040596e-01 -1.49200812e-01 +2.82427371e-01 +3.98837626e-01 -4.36023980e-01 -3.08227062e-01 -2.81771589e-02 -7.03002512e-01 -1.63264677e-01 -2.15994701e-01 +1.59621790e-01 +3.59512568e-01 +3.83046716e-01 +4.20863122e-01 -4.83442098e-01 +8.52082431e-01 +7.69031823e-01 +7.72672832e-01 -1.44571468e-01 +2.90931851e-01 -1.12911665e+00 +9.23688471e-01 -4.46142972e-01 -1.30606554e-02 -2.27156460e-01 +3.86639684e-01 +4.82942373e-01 +2.02825934e-01 -6.08557314e-02 +3.99059623e-01 -4.13692109e-02 +4.31790128e-02 +3.69930118e-01 -7.21549913e-02 +1.69584513e-01 -5.89690991e-02 +2.76461220e-03 +2.16534868e-01 +3.29000145e-01 -5.13083339e-01 +1.13183725e+00 +5.73270768e-02 -1.40011003e-02 +8.58130634e-01 +8.28711092e-02 +3.27360660e-01 -4.36105728e-02 -8.91276747e-02 -9.84244347e-02 -3.05550486e-01 +2.76831478e-01 +2.18451038e-01 -1.79386988e-01 +1.76703855e-01 +2.31318235e-01 -2.90634036e-02 -1.85835660e-02 -3.66520174e-02 +1.27918879e-02 -7.82852918e-02 +1.42268002e-01 +3.08923200e-02 -7.71214724e-01 +9.29524153e-02 +2.81596422e-01 -4.39971060e-01 -4.28711399e-02 +8.48994702e-02 -2.19603345e-01 -2.32974201e-01 -1.01810239e-01 -7.94502914e-01 -8.18011835e-02 -3.80096167e-01 +1.53730094e-01 +1.49320737e-01 +1.45631668e-03 +2.38653898e-01 +7.87605882e-01 +9.86335278e-02 +6.59868121e-02 +6.01176262e-01 -1.89212948e-01 +6.78017318e-01 -8.69991779e-02 -3.62641141e-02 -8.82687569e-01 +2.33495325e-01 -2.00606510e-01 -6.70436144e-01 +6.24861494e-02 -2.84142405e-01 -4.44284797e-01 -1.21650659e-01 -4.22310159e-02 +1.10575604e+00 -3.07581961e-01 +5.74988067e-01 +1.69763461e-01 -3.37367028e-01 -9.76081714e-02 -1.00257704e-02 -2.62818843e-01 -2.38902792e-01 -2.23585159e-01 +1.57480702e-01 -4.39225286e-02 +3.69067699e-01 -3.26690823e-01 +1.61366045e-01 +1.64394468e-01 -1.56902537e-01 -1.25574246e-01 -5.70834458e-01 +9.88879651e-02 +4.08008695e-01 -4.32059526e-01 +1.66972786e-01 +2.25958094e-01 -1.73476011e-01 -1.56386867e-01 +6.38217032e-02 +6.09158397e-01 +2.50756234e-01 +1.10717237e-01 +1.31414202e-03 -1.38850972e-01 -7.47479200e-02 +3.87831591e-02 +5.97534299e-01 -5.48820086e-02 -4.93413419e-01 -3.46300840e-01 +7.52170309e-02 -4.72600423e-02 -3.68729383e-01 +2.47392967e-01 -9.40414891e-02 -3.70545268e-01 +3.94929767e-01 -1.61341548e-01 +1.39634028e-01 -7.69438624e-01 +2.02639267e-01 -4.60232168e-01 -1.44992185e+00 +6.59413099e-01 +3.02354574e-01 -2.68989116e-01 -5.28746665e-01 -4.83501004e-03 -1.63336068e-01 +2.04027832e-01 +4.41638291e-01 -4.56603050e-01 -9.92931247e-01 +7.15594709e-01 -6.17327571e-01 +5.25608063e-01 -6.76373541e-01 -7.53579959e-02 -6.57085717e-01 -8.44828308e-01 -4.43715192e-02 +5.83765626e-01 -9.25152302e-01 +6.50951207e-01 -2.67661244e-01 +1.43365407e+00 -5.99434853e-01 +1.31838918e-01 -2.03279540e-01 +3.22709471e-01 -2.65091479e-01 -1.38864279e-01 -8.65949877e-03 -2.14115888e-01 -2.12825343e-01 +6.16769902e-02 -6.26520962e-02 +4.43821624e-02 -2.32917629e-02 +1.92951083e-01 +4.76538464e-02 +2.04428509e-01 -1.32849172e-03 -1.10479454e-02 +8.71615037e-02 -3.23674440e-01 +8.03263187e-02 -2.63784975e-01 +8.83238204e-03 +7.77627528e-02 -2.51762420e-01 -3.74553531e-01 +2.76854962e-01 -4.90947366e-01 -3.99766147e-01 -4.64263037e-02 -1.40078768e-01 -2.43256584e-01 -3.53483886e-01 -1.55878395e-01 -9.80017632e-02 +1.64908156e-01 -4.81340230e-01 +1.03619921e+00 -3.30077916e-01 +4.46581632e-01 +1.51185831e-02 -8.46696556e-01 +8.90060812e-02 +7.09514081e-01 +5.45717657e-01 +2.41123736e-01 +6.66482151e-01 +3.66512723e-02 -5.00814319e-01 +5.59932411e-01 -2.97328919e-01 -1.05811846e+00 +8.39157879e-01 -3.63065273e-01 +2.22501010e-02 +1.97424382e-01 +3.90288949e-01 +1.04019694e-01 +6.93292856e-01 -5.68709411e-02 +6.75101757e-01 +1.06501698e-01 +5.73084414e-01 -6.33307278e-01 +4.29522514e-01 -3.05777550e-01 -2.96158552e-01 -4.58806485e-01 +3.47289741e-01 -2.37040997e-01 -9.50846896e-02 +2.18419343e-01 -1.08070202e-01 +2.21164748e-01 -4.31098901e-02 -1.02879271e-01 +1.18433662e-01 +3.43517601e-01 -1.30232023e-02 -1.16633482e-01 -1.71842262e-01 +1.09048262e-01 -7.82506838e-02 -5.51579110e-02 -4.27147113e-02 -7.54649162e-01 -3.18431884e-01 -2.35123843e-01 -1.23290531e-01 -3.99178535e-01 -1.43948011e-02 +1.62632808e-01 -3.38418126e-01 -3.75856221e-01 -1.31708309e-01 -3.24084938e-01 +2.06686817e-02 -6.23402148e-02 -9.75494608e-02 -1.45778269e-01 +1.73563227e-01 +3.82073700e-01 +1.00367144e-01 -2.94712514e-01 +4.69511122e-01 -1.79687187e-01 +6.44727826e-01 -5.50486863e-01 +3.51306677e-01 -3.05323809e-01 +1.36311650e-01 -7.31123865e-01 +5.09488247e-02 -1.63870439e-01 -2.37345144e-01 +1.27423942e+00 +4.48439181e-01 +6.23721600e-01 +8.29390436e-03 +2.60840893e-01 -1.20341837e-01 -2.97744036e-01 -1.03453562e-01 -7.28445709e-01 -4.82962549e-01 -6.14241481e-01 -1.72115695e-02 -8.86159778e-01 +2.38233972e-02 +3.72311145e-01 -3.49593908e-02 +8.66251588e-01 -2.38424987e-01 +2.86502093e-02 -2.64485598e-01 -1.10389948e-01 -7.60414004e-02 -1.87020034e-01 -3.25540826e-02 +3.19587737e-02 -1.61691338e-01 -2.79750943e-01 -5.16091824e-01 -2.91317189e-03 +3.91000174e-02 -4.67013189e-04 +2.16817129e-02 +3.44822593e-02 +1.37206644e-01 -2.50578552e-01 -1.14757314e-01 +1.99543595e-01 -3.84135187e-01 -1.10285453e-01 -1.32933622e-02 +3.34028304e-01 +2.46388861e-03 -1.88774601e-01 -4.83052433e-01 -2.18434036e-02 -4.84601073e-02 +1.88070282e-01 -1.60535589e-01 -6.84251338e-02 +3.63784015e-01 +3.04362506e-01 +1.07654624e-01 -3.99457693e-01 +4.51906592e-01 +6.36404574e-01 +6.47926450e-01 -1.63007870e-01 -9.53969136e-02 -1.17395557e-01 +5.55464506e-01 -3.46500389e-02 +1.70071736e-01 +2.27592006e-01 +2.75144458e-01 -1.09868273e-01 +6.25782251e-01 +1.00874640e-01 +8.16410407e-02 -2.25563943e-02 +4.78647202e-01 +1.02113701e-01 +1.72005132e-01 +1.26524106e-01 -2.64203310e-01 +6.52341694e-02 -4.25481349e-02 +3.47469896e-01 -7.30887830e-01 +2.02318132e-02 +2.43322819e-01 -5.95459223e-01 +4.16902363e-01 -4.67437506e-01 +6.69209361e-02 -4.31422532e-01 -2.08954647e-01 +7.36413524e-03 +2.41513357e-01 +1.20387033e-01 -1.38782114e-01 -7.40298152e-01 -2.70649046e-01 -4.34329331e-01 +1.02709591e-01 +1.81289598e-01 -8.64960402e-02 -7.59037733e-02 -7.01147467e-02 -3.60307962e-01 -2.59593815e-01 -1.99548125e-01 -9.08069536e-02 -5.08324683e-01 -8.02772701e-01 -4.08154875e-01 -6.01203382e-01 -2.89280742e-01 -7.18764365e-01 -2.26217620e-02 -5.74163318e-01 -5.41077554e-01 -1.38546064e-01 +5.90516301e-03 -2.47516688e-02 -2.27846071e-01 -6.22565091e-01 -5.02645850e-01 -4.77751672e-01 -4.35725451e-01 +2.81839252e-01 -6.88914001e-01 -7.21772909e-02 +2.76968807e-01 -4.83814210e-01 -1.14424057e-01 +2.39087865e-02 -5.80008626e-01 -3.81394178e-01 +2.31427714e-01 +1.22060269e-01 +2.50019580e-01 -4.48250175e-01 +5.94178922e-02 -4.59677339e-01 -7.85212815e-01 -1.18334077e-01 -1.36972412e-01 -1.03360820e+00 +4.89808768e-01 -6.13074541e-01 +9.07297671e-01 -8.70177209e-01 +3.67927730e-01 -8.44867289e-01 +8.60225186e-02 -7.59592652e-01 +3.54688764e-02 -1.87936336e-01 -2.15290338e-01 -3.26446861e-01 +2.22371444e-02 +5.01852855e-02 +1.48071587e-01 -3.18622664e-02 -3.39320362e-01 -2.66535014e-01 -2.00683206e-01 +1.17380962e-01 -1.35980546e-01 -1.32810295e-01 +7.40783587e-02 +9.43388268e-02 +2.32933566e-01 -1.08803511e-01 -1.46387696e-01 +7.59658873e-01 +1.76504850e-01 +1.73250616e-01 -3.98572057e-01 -3.44276011e-01 +2.26068601e-01 +2.44027510e-01 -3.34274434e-02 -1.90739527e-01 -8.37938637e-02 +7.39479885e-02 -6.53183222e-01 -3.90163958e-01 +2.53854529e-03 -3.60081643e-01 -6.91650271e-01 -1.20272493e+00 -4.32447046e-01 -1.15017271e+00 +4.53490704e-01 -5.38793430e-02 +6.52066290e-01 -5.73562145e-01 +7.48665988e-01 -6.74009502e-01 -3.16274911e-01 -7.28659213e-01 -7.84605145e-01 -3.95159990e-01 +1.22481175e-01 -2.81659842e-01 -1.06201626e-01 +7.39078270e-03 -6.33741915e-01 -2.95222789e-01 +2.20336080e-01 +3.26342970e-01 +1.25235524e-02 +2.42054492e-01 +5.42777359e-01 -4.60997730e-01 -3.23470756e-02 -8.15841556e-01 -6.04394138e-01 -3.93345088e-01 +5.11990368e-01 -8.56670726e-04 +6.48163632e-02 +4.84088697e-02 -1.31707087e-01 -1.19454786e-01 -1.98637918e-02 +1.37261227e-01 +5.62775910e-01 +8.39617729e-01 +3.79536957e-01 +1.63174272e-01 -2.45924518e-01 +3.12450789e-02 +8.17933083e-02 -3.64682749e-02 +4.59362119e-01 +1.79976195e-01 -3.58021796e-01 -2.26675138e-01 -3.42081279e-01 -7.89216831e-02 +5.75092316e-01 +1.60929590e-01 -2.72900537e-02 +4.03821319e-01 +6.66528702e-01 -2.74370044e-01 +2.77261466e-01 -5.87038219e-01 -3.16657573e-01 -7.12722838e-02 -4.57580954e-01 -1.17091322e+00 -8.64386797e-01 -5.06533682e-01 -2.51721412e-01 -2.70014912e-01 -1.27724797e-01 -1.00364351e+00 +2.99795806e-01 -1.84592620e-01 -2.17574492e-01 -1.93930537e-01 -4.14855480e-01 -1.86144292e-01 +5.49945235e-01 +6.84256107e-02 -5.46409965e-01 -2.56574064e-01 +5.39803684e-01 +9.67793819e-03 +5.06643653e-02 -5.25494933e-01 +2.61860579e-01 -2.91323274e-01 -1.38830736e-01 +3.19993436e-01 +2.37582207e-01 -4.48447645e-01 +6.93139136e-01 -5.98069131e-02 +8.63930583e-02 -5.25061965e-01 -8.35659280e-02 +3.60720366e-01 -8.89071971e-02 +3.03869635e-01 -8.86903107e-02 +8.09681136e-03 +3.92095506e-01 -2.88805008e-01 -3.73331696e-01 -9.86905843e-02 -8.50899592e-02 +7.85677508e-02 -4.76225168e-01 +2.66246721e-02 +2.69505456e-02 -9.06441063e-02 +1.01735628e+00 +1.48847342e-01 -2.38773108e-01 +2.67752588e-01 +3.12939137e-01 -1.76691264e-01 +6.87894747e-02 -1.99064791e-01 +1.27297923e-01 +6.58664882e-01 +2.48950735e-01 +4.93618876e-01 -4.31129158e-01 +4.33590868e-03 -2.62694895e-01 -1.37407959e-01 +6.64010867e-02 -3.86631906e-01 -2.70748317e-01 -8.09668064e-01 -6.72487020e-02 +4.52101324e-03 +7.80863345e-01 -9.55277503e-01 +1.65997371e-01 +2.90558860e-02 +4.59448308e-01 +1.65706649e-01 +1.41871616e-01 +8.30733925e-02 +4.99833792e-01 -3.78549159e-01 +2.60206580e-01 -3.53242457e-01 +5.65449178e-01 -3.03881854e-01 +9.45889279e-02 +9.68189836e-02 +4.19247836e-01 -1.94214657e-01 +1.72801033e-01 +5.33381522e-01 -4.92180586e-01 -3.75718981e-01 +5.47208846e-01 -3.09943646e-01 +3.60357046e-01 -1.61587432e-01 +4.67905365e-02 +1.80335626e-01 +3.04918736e-02 +4.13222015e-01 -1.16399638e-01 -3.13194454e-01 +2.43130088e-01 -2.11326212e-01 -1.03213198e-01 -5.06444760e-02 +2.12100387e-01 -1.39316414e-02 -2.19819486e-01 -1.12036087e-01 -2.97911048e-01 -4.40664068e-02 -4.45526689e-01 -4.12747115e-01 -4.75580901e-01 -4.86850590e-01 +5.69289923e-02 -1.87794536e-01 +5.42180896e-01 +1.95000261e-01 +4.67381239e-01 -7.28467166e-01 +2.70443410e-01 +3.23940009e-01 +5.89058511e-02 +1.40701488e-01 +3.17673087e-01 +8.06989372e-02 +1.26666009e-01 +6.68717444e-01 +3.21513385e-01 -1.43210664e-01 +1.04024494e+00 +1.01220417e+00 +3.76125723e-01 +4.97575641e-01 +5.38088232e-02 -5.85878730e-01 +1.34646428e+00 +5.85361660e-01 -2.77480155e-01 +1.08343923e+00 -9.82972741e-01 -3.98959368e-02 -5.90445340e-01 +5.78890085e-01 -4.58660930e-01 +2.67289579e-01 +8.49039182e-02 +2.57947892e-01 +2.33875126e-01 +7.18181074e-01 +7.37339675e-01 -6.40580878e-02 +7.47133136e-01 -3.51926208e-01 -3.08302879e-01 +1.33908913e-01 -6.10498905e-01 +1.11961357e-01 +1.25337288e-01 -2.05240592e-01 +7.28327483e-02 -5.33317141e-02 +3.21651995e-01 -3.35377827e-02 +1.20326743e-01 -1.99135765e-03 +1.60831675e-01 -3.36360633e-02 -2.08914727e-02 -1.43183440e-01 -1.47927627e-01 -1.91114277e-01 -1.35783656e-02 +2.00933591e-02 -1.17104538e-01 +1.01976089e-01 -4.22352612e-01 +9.26603302e-02 +7.85295516e-02 +1.27528869e-02 +3.97938013e-01 -1.05620865e-02 +1.79669678e-01 +6.09907269e-01 -1.21367564e-02 +1.25507042e-01 -1.39639691e-01 +8.36348236e-02 +5.02746224e-01 -2.33034402e-01 -4.50520962e-01 +4.73720692e-02 +5.65069020e-01 +1.45020396e-01 -1.55879214e-01 -1.00072575e+00 -6.43839896e-01 -3.15053701e-01 +3.64807993e-02 -6.33329690e-01 -3.81729573e-01 +2.12939218e-01 +1.29652351e-01 +2.21759543e-01 +5.54039598e-01 -4.61456835e-01 -7.75935233e-01 +1.09147705e-01 +5.30518293e-01 -6.53284490e-01 +6.02914691e-02 -8.88985861e-03 -4.04536456e-01 +2.62983918e-01 -2.56743938e-01 +1.30355611e-01 -3.31450522e-01 +6.04052365e-01 +1.08675919e-01 +4.77169007e-01 +1.23273957e+00 -5.85098207e-01 -1.04771495e-01 -8.60903710e-02 +4.00534213e-01 +1.69619381e-01 +5.81482500e-02 -4.18636799e-01 +1.05945982e-01 +1.55693710e-01 +2.93907106e-01 +3.10908873e-02 +9.36148241e-02 -1.51583746e-01 -6.36227906e-01 -2.52791643e-01 -1.14602171e-01 +1.16280444e-01 -1.92817405e-01 -1.21161856e-01 -3.40578258e-01 -4.83960032e-01 -1.51102409e-01 -1.03965357e-01 +5.97183347e-01 +1.99876979e-01 -5.25959432e-01 -2.96932459e-01 +1.25130311e-01 -3.86395335e-01 -6.26333198e-03 -1.01911217e-01 -6.70127347e-02 +2.34175444e-01 -3.35541099e-01 +1.06909998e-01 -5.49768329e-01 +2.71301061e-01 -2.07411811e-01 +6.70831144e-01 -4.44059134e-01 -6.97832167e-01 -3.85875046e-01 -4.13994104e-01 +1.26811236e-01 -4.08912897e-01 -4.32436854e-01 +1.32620320e-01 +9.56753314e-01 +2.30030462e-01 -1.03423148e-01 +3.46041858e-01 +3.45809273e-02 -1.38178812e-02 -1.61385164e-01 -2.79326499e-01 -2.73782909e-01 -2.07224205e-01 -3.67931455e-01 -8.41439486e-01 +7.68638253e-01 -1.59103155e-01 +1.41181543e-01 +8.88615549e-02 +7.02918544e-02 +1.39481798e-01 -3.69010091e-01 +4.38758917e-02 -4.52090353e-02 +2.23618254e-01 -1.82076305e-01 +8.19411948e-02 -4.23694924e-02 -1.66176274e-01 -5.50938725e-01 -5.39794445e-01 -1.53326362e-01 +9.87648889e-02 +3.19432765e-02 +8.99560004e-02 -5.22684539e-03 -6.32685348e-02 +4.84234616e-02 -6.28498793e-02 -6.33656606e-02 -8.65273476e-02 -1.68480903e-01 -4.04296935e-01 -6.10291779e-01 -5.74374795e-01 -8.00188556e-02 -2.05353543e-01 -5.51251471e-01 +7.53150433e-02 -3.06895554e-01 +1.21896435e-02 +2.57354558e-01 -2.27163076e-01 +9.69203532e-01 -2.53924638e-01 -5.14070868e-01 +5.07717073e-01 -8.96080732e-01 +6.71059728e-01 -1.34745210e-01 +9.00107443e-01 -2.40321070e-01 -3.69491965e-01 -6.80265725e-02 +2.16896161e-01 -1.16824470e-01 -3.13536912e-01 -4.05753464e-01 +5.07708564e-02 +6.29675984e-01 -3.90255898e-01 -3.59354079e-01 +7.53387690e-01 +9.65869427e-02 +3.07974786e-01 +5.47695518e-01 +4.04458493e-01 +5.61080396e-01 +1.06836699e-01 +6.35425687e-01 -1.14998631e-01 +2.38243639e-01 +6.87909424e-01 -6.88054919e-01 +7.93617845e-01 -1.86123028e-01 -1.72804028e-01 -2.17361987e-01 -4.49828804e-03 +1.62846908e-01 +2.59943992e-01 +5.37487417e-02 -9.33052450e-02 -1.40987739e-01 -5.12295485e-01 +1.25634909e-01 +3.45669985e-02 +2.11493045e-01 -1.97012603e-01 +1.02459230e-01 -1.26494721e-01 +4.40455228e-01 -3.51284780e-02 -6.80761635e-01 -2.85007991e-02 -2.36498073e-01 -4.39620465e-01 -2.76566416e-01 -8.78050685e-01 -1.68059811e-01 -4.17342871e-01 +1.49165869e-01 +1.05995774e-01 -5.04500747e-01 +1.83739424e-01 +3.50336581e-01 +1.06679760e-01 +3.54124099e-01 -4.35254604e-01 +5.83574057e-01 +4.37051862e-01 -8.82487893e-01 +3.18898499e-01 +3.18806060e-02 +9.57385659e-01 +1.03933699e-01 -2.09019214e-01 +3.02731544e-01 +6.91868132e-03 +5.08698463e-01 +4.88145918e-01 -2.74283409e-01 -2.01911747e-01 -5.33784389e-01 +2.12037817e-01 -8.85498896e-02 -5.89346550e-02 +2.52115518e-01 +5.05843341e-01 +1.64568443e-02 +2.27466390e-01 -2.26008967e-01 -4.39814925e-01 -5.39268374e-01 -3.90525088e-02 -1.83175951e-01 +1.93823650e-01 -7.80649930e-02 -7.31499791e-02 +5.27136803e-01 -2.47902691e-01 +1.40646294e-01 -5.37128411e-02 +1.28247872e-01 -8.73908699e-02 +2.20123176e-02 -5.30406013e-02 +2.51574457e-01 -3.17092419e-01 +8.45797639e-03 -9.59667042e-02 -2.26820737e-01 -1.78306177e-01 +1.59850940e-01 -1.40436040e-02 
#Parameter# /vanilla-lstm-builder/_1 {64,16} 16385 ZERO_GRAD
-2.91552365e-01 -2.32164279e-01 -1.05197287e+00 -7.57599652e-01 -7.68204033e-01 -7.10607946e-01 -4.56842840e-01 -2.58162543e-02 -2.84119427e-01 -2.09306985e-01 -7.50350237e-01 -6.93083465e-01 -6.44993901e-01 +1.58665732e-01 -1.64746487e+00 -7.36685395e-01 +5.86782455e-01 -5.91603458e-01 -4.34981972e-01 +9.56340849e-01 -2.62726843e-01 +2.09164187e-01 -1.69696048e-01 -1.08765483e-01 +8.89488518e-01 -4.29458112e-01 +1.11941755e+00 +4.93076928e-02 +2.54240125e-01 -1.98203146e-01 -1.61579311e-01 +7.47981519e-02 +3.47534537e-01 +2.15480670e-01 -1.91318405e+00 -6.12798750e-01 -1.28483593e-01 -5.15892029e-01 -4.91607994e-01 +5.11654615e-01 +1.69213489e-01 +2.40222394e-01 +1.06449127e+00 -7.34688401e-01 -1.55836082e+00 +1.89064682e-01 -6.35790646e-01 -9.20590878e-01 +5.88794708e-01 -3.13269615e-01 -4.88157779e-01 +3.23712260e-01 -3.74996215e-01 -1.88282833e-01 -4.90403950e-01 -2.39078198e-02 +2.84378022e-01 +5.49775600e-01 +6.29408360e-01 +1.19054429e-01 +3.54805797e-01 +4.39827591e-02 +2.18002975e-01 +3.25019479e-01 +6.74052179e-01 +3.46455932e-01 +1.21007407e+00 +8.71470392e-01 -5.03789596e-02 +1.51735052e-01 +1.31992102e-01 -2.46396646e-01 +3.63588393e-01 -2.70949155e-01 +9.00563419e-01 +6.06927752e-01 +9.96090114e-01 -1.29962400e-01 +1.36271030e-01 -2.17995606e-02 -5.22302151e-01 +7.73670733e-01 +1.28046557e-01 -3.05667043e-01 -5.02338260e-02 +7.04391897e-01 -6.64052134e-03 -5.60566075e-02 +5.67150414e-01 +5.91304481e-01 -1.33453067e-02 -1.43702373e-01 -1.85148269e-01 +5.03083289e-01 +6.62322760e-01 +4.84898418e-01 +3.46955836e-01 -7.53850818e-01 +6.18530095e-01 -6.89255714e-01 -3.04963052e-01 +9.40897688e-02 +7.93617487e-01 -1.38685775e+00 +8.37140083e-01 +1.72049999e-01 +1.08595163e-01 -3.83979917e-01 +9.24458086e-01 +2.96328664e-01 +3.76213253e-01 +1.94734931e-02 -2.46220022e-01 +4.82945859e-01 +6.85448572e-02 -2.03139797e-01 -4.11993176e-01 -9.73673224e-01 +4.68886942e-01 -1.33375823e+00 -1.54728070e-01 +1.71548888e-01 +1.42238569e-02 +1.72216132e-01 -3.90484542e-01 -2.86054574e-02 +5.02128243e-01 +8.90090704e-01 -9.32222366e-01 +7.80316293e-02 +5.20631492e-01 +5.86556733e-01 -2.16329351e-01 -7.29885474e-02 -3.81985843e-01 -1.11425623e-01 -1.87736094e-01 +2.66362965e-01 -3.93476844e-01 +3.87748897e-01 +1.74597293e-01 -1.28222957e-01 +5.85957527e-01 -5.95372558e-01 -1.72951126e+00 +1.66232258e-01 -3.70869264e-02 -9.43950593e-01 -1.90832764e-01 -1.54443428e-01 +1.20318778e-01 +7.53739104e-02 -4.40687597e-01 +4.39108729e-01 +1.97049707e-01 +2.08809420e-01 -1.13484107e-01 -2.19450191e-01 +2.96175957e-01 -2.73769647e-01 -1.03415692e+00 -3.77180904e-01 -2.62031555e-01 +5.50958931e-01 -1.64206192e-01 -3.22425157e-01 +3.82225066e-01 +2.31236890e-01 -3.85242343e-01 +1.82820708e-01 -8.86585951e-01 +1.95311699e-02 -4.00417924e-01 -2.02518120e-01 -1.34263471e-01 +2.60658979e-01 -3.22956704e-02 +2.10429534e-01 -9.94718745e-02 -2.38541346e-02 -3.04268897e-01 -2.89448231e-01 -2.81643085e-02 -7.02157259e-01 -3.39245126e-02 -2.28303894e-01 +2.82695927e-02 +4.13516879e-01 -4.06211972e-01 +4.37988192e-01 +5.42826094e-02 +8.37766007e-02 +8.53017688e-01 -6.01252839e-02 +2.88513631e-01 +7.39653826e-01 -2.75032669e-01 +2.15168938e-01 -6.72335774e-02 +1.06735438e-01 +3.67718935e-01 +1.11386828e-01 -4.29239571e-01 -2.46461198e-01 +4.36601251e-01 -2.76473947e-02 +9.69399884e-02 -1.83367021e-02 -2.60408401e-01 -1.49245650e-01 -5.60580671e-01 +3.26295272e-02 -4.12786812e-01 +5.99302053e-02 +5.47384501e-01 -7.10806310e-01 +4.04441237e-01 -6.63746357e-01 +5.57374597e-01 -3.18272501e-01 -2.89602369e-01 +1.47621945e-01 -1.90565854e-01 +2.26254389e-01 +6.69436753e-01 -7.85715640e-01 -1.81169122e-01 -8.53598356e-01 -9.73548412e-01 -5.52402079e-01 +3.60955596e-02 -1.47841024e+00 +5.10898456e-02 -1.88702881e-01 -7.36664087e-02 -8.53212655e-01 +8.97612512e-01 -1.91522703e-01 -8.95153701e-01 -1.97647721e-01 -5.64275026e-01 -2.21500069e-01 -3.88730556e-01 -8.70684028e-01 +3.20003122e-01 -5.41109502e-01 +1.69452056e-01 +1.57217115e-01 -1.75944313e-01 +3.99615556e-01 -4.03481305e-01 -6.62238121e-01 +4.74068016e-01 -2.98022598e-01 +3.97394225e-02 +5.60480714e-01 +6.98763788e-01 -5.25280237e-01 -4.47117358e-01 -2.50815541e-01 -4.12834167e-01 -2.88297832e-01 +1.85710281e-01 -1.72882482e-01 -3.13018560e-01 -4.08540247e-03 +1.51837960e-01 -5.02228379e-01 +7.72269769e-03 +2.16812283e-01 -1.31115511e-01 +3.74611884e-01 +7.24077404e-01 -3.38677406e-01 -4.19241488e-01 -1.92324489e-01 -5.89188159e-01 -5.20026907e-02 +4.88277264e-02 +2.67016709e-01 -4.20354694e-01 -3.06313992e-01 -1.09959781e-01 -1.13560453e-01 -4.91155922e-01 -4.51271385e-01 -1.25336275e-01 -3.36742103e-01 +4.36063230e-01 +3.53589475e-01 -2.12425664e-02 -5.83345406e-02 -2.12750927e-01 +5.10386527e-01 -5.96910298e-01 -4.34459560e-02 -7.90483207e-02 -6.32488966e-01 +4.22003567e-02 +1.97629303e-01 -5.53636104e-02 -4.67930496e-01 +1.60120398e-01 -3.85267735e-01 +1.88711941e-01 +3.73004191e-02 -4.48231995e-01 +1.81300968e-01 -1.22257277e-01 +8.52092385e-01 +3.99707675e-01 +7.37447441e-01 -1.17875651e-01 -6.47074431e-02 -5.34535110e-01 -4.76677418e-01 +2.32246712e-01 -3.43983024e-01 -4.16721791e-01 -7.59376526e-01 +3.28366280e-01 -2.30355874e-01 -2.94651359e-01 +3.34907800e-01 -7.40301460e-02 -2.94045925e-01 -3.16413254e-01 +2.28027254e-01 +1.82178646e-01 +2.12130547e-02 +4.77448940e-01 -3.59365046e-01 +2.65117675e-01 +1.60361361e-02 +9.27504674e-02 -3.42370957e-01 +7.94232011e-01 -4.70940173e-01 -5.04850388e-01 +3.76663208e-01 -7.08755553e-02 -4.11441982e-01 -4.89800684e-02 +1.89574271e-01 +1.00685798e-01 +1.31085098e-01 +7.93354332e-01 +9.57652777e-02 +4.03648466e-01 -4.62988257e-01 -1.69132695e-01 -1.02948093e+00 +7.64655769e-02 +1.41470470e-02 +2.54447699e-01 -3.31082851e-01 -3.91450644e-01 +2.49841556e-01 +2.10398793e-01 +1.67381674e-01 +2.70039767e-01 +1.33816488e-02 +4.89241779e-01 -3.17428410e-01 +7.15091944e-01 -2.38105997e-01 -7.84270406e-01 -2.58190870e-01 -3.97978961e-01 -5.48151910e-01 -3.11708629e-01 -5.10917783e-01 +6.51631951e-01 +1.33090138e+00 +7.07529336e-02 +1.18187535e+00 +7.09505141e-01 +3.32077742e-01 -5.22410750e-01 -9.57321346e-01 +4.82873291e-01 -6.40978158e-01 -7.47138262e-01 -1.53424323e+00 -4.28820819e-01 +3.51250678e-01 -6.39046878e-02 -7.14384794e-01 -3.33385020e-01 +1.91448063e-01 -5.09394765e-01 +2.05202371e-01 -7.13371575e-01 -4.90853697e-01 -8.21836948e-01 +1.71029794e+00 -1.85357451e+00 -1.54847890e-01 +1.06263310e-01 +2.47989565e-01 -2.19497100e-01 +9.36112404e-01 +9.24763456e-02 +5.66058338e-01 +3.61221850e-01 +1.86341241e-01 -1.55380771e-01 +1.59687877e+00 +4.73708242e-01 -1.11888540e+00 -1.54945207e+00 +1.86139774e+00 -1.48997295e+00 +5.13115823e-01 -6.42264903e-01 +7.50031620e-02 +4.82821129e-02 +1.48056462e-01 +9.48120773e-01 +8.56560469e-01 +1.21263766e+00 +1.93057418e+00 -2.39013776e-01 -1.53019607e-01 -2.06936106e-01 -1.33178890e+00 -1.38356793e+00 +1.28455973e+00 -7.79944509e-02 +3.19038242e-01 +8.34231555e-01 +2.29093388e-01 +2.97946513e-01 +2.41177499e-01 +5.78323722e-01 -1.66916981e-01 +1.90051392e-01 +2.42989048e-01 +1.88258246e-01 +1.24605551e-01 -7.00848550e-02 +7.72721171e-01 +3.56014460e-01 +3.79075527e-01 +8.72898519e-01 +5.17626524e-01 +1.53980225e-01 +2.24535629e-01 +7.71435201e-01 -1.63513750e-01 -3.33453238e-01 +5.07432103e-01 -1.46694789e-02 +4.61882383e-01 -9.47644532e-01 -6.83831453e-01 -5.41731417e-01 -5.95888734e-01 +1.60086513e-01 -5.30461371e-01 +1.13867410e-01 -8.63130987e-02 +4.34437245e-01 +1.56887546e-02 -6.14776850e-01 -2.55944848e-01 +3.74902844e-01 -5.61404347e-01 -5.24233319e-02 +9.58136737e-01 -2.98273027e-01 -1.94422334e-01 -5.91359913e-01 +4.95314896e-01 +9.16049063e-01 +1.31736457e-01 -1.93524674e-01 +3.00992429e-01 +8.37868825e-02 +1.37084559e-01 +2.63549499e-02 +1.10420680e+00 -9.26187098e-01 +9.75288212e-01 +9.50792253e-01 +4.20821309e-01 -8.72773468e-01 +1.62758446e+00 -9.73982036e-01 -1.85119938e-02 -2.98681647e-01 +3.71979862e-01 -7.53889382e-01 -4.72699106e-01 -1.60351068e-01 +9.10106972e-02 -2.12525472e-01 +1.23271562e-01 +3.53887051e-01 -1.34490657e+00 +7.04969913e-02 +2.56832302e-01 -2.84765869e-01 +3.50357704e-02 +6.35407984e-01 +7.23801672e-01 -2.21550781e-02 -2.67543286e-01 +4.45136398e-01 -5.04793637e-02 +2.51913428e-01 +7.80053949e-03 -6.02567255e-01 +1.16244309e-01 -4.61203694e-01 -1.41868100e-01 -6.09731913e-01 -3.13540488e-01 +1.33211493e-01 -6.04362309e-01 -2.49851570e-01 -3.94234598e-01 +4.02268767e-01 +1.64374076e-02 -2.24244967e-01 -3.27822238e-01 +1.03952236e-01 -6.50102496e-01 +9.39592719e-01 +3.89748290e-02 -2.24242359e-01 -8.31651807e-01 -8.23313177e-01 +1.13223232e-02 +4.98106331e-01 -4.12157290e-02 +1.32190764e-01 +1.03952602e-01 +6.41988933e-01 +5.05190482e-03 +1.72572121e-01 -1.02864414e-01 -6.18051708e-01 -4.12416875e-01 -2.25304127e-01 +5.00645079e-02 +7.68969536e-01 +5.80835462e-01 +2.17187166e-01 +1.77983455e-02 -1.56763959e+00 -1.66353330e-01 -2.58115306e-02 +1.19357383e+00 +3.06291848e-01 -3.47548068e-01 +1.18019655e-01 +4.42694247e-01 +5.96608400e-01 -4.89126623e-01 -3.24926764e-01 +2.75939137e-01 -5.59597254e-01 -7.04729632e-02 -4.61347818e-01 -5.81822872e-01 -5.22363007e-01 -6.96440339e-01 -1.83448061e-01 -3.03260446e-01 +3.97526890e-01 +6.14969507e-02 -1.53816819e-01 -5.55713801e-03 -3.50241750e-01 +5.40554345e-01 -3.59663144e-02 +2.45287016e-01 +9.44675386e-01 -2.88745135e-01 -8.62762153e-01 +1.33163497e-01 +8.08623016e-01 -5.88176548e-01 +4.52361822e-01 -1.12038839e+00 -2.50133216e-01 +1.28886133e-01 +7.35703468e-01 -2.45201677e-01 +1.57739386e-01 -6.74326360e-01 -2.01576967e-02 +2.50201643e-01 -5.08221209e-01 -2.56278634e-01 -2.90692061e-01 +5.10913491e-01 +6.15395010e-02 +7.41449177e-01 +4.09095660e-02 +1.62404373e-01 -4.90197986e-01 -2.67811096e-03 -4.45803732e-01 +7.23677218e-01 -1.67884260e-01 +1.73920482e-01 +2.27094591e-01 +2.79342562e-01 +5.26357889e-01 +2.32781196e+00 +1.11231208e+00 +3.90403420e-01 -9.09335315e-01 +1.04411793e+00 +4.01844919e-01 +5.84785879e-01 -1.06299715e-02 -1.28287628e-01 +1.33816302e-01 -3.06784391e-01 +7.24340975e-01 -1.27837479e-01 -1.78041577e-01 +5.01791477e-01 +6.07006326e-02 -4.48814303e-01 +4.24213223e-02 -1.24241316e+00 +3.42649668e-01 -1.24563825e+00 +2.11743098e-02 +1.93579793e-01 +4.25984234e-01 +8.49347591e-01 -1.02325052e-01 +2.00621352e-01 +3.74631047e-01 +1.17090082e+00 -7.03764617e-01 -4.46437709e-02 -8.89414132e-01 -5.96347213e-01 -9.42895651e-01 -3.25745344e-01 +4.78756130e-01 -3.05891961e-01 +1.48050874e-01 +1.59577712e-01 +5.26966862e-02 +6.81112826e-01 -1.23318338e+00 -3.43524158e-01 +2.79935971e-02 -2.10450038e-01 +1.71509415e-01 -2.36986145e-01 -2.95972675e-01 -4.56178933e-01 -2.96722203e-01 +1.49616271e-01 -3.39444906e-01 +7.26990938e-01 -2.07924619e-01 -5.56472719e-01 -6.46513402e-01 -3.02902330e-02 +2.01289296e-01 +8.55127275e-02 -5.62498093e-01 -2.42249727e-01 +1.00156024e-01 +4.27357197e-01 -4.87714887e-01 +6.50074184e-01 -2.99597502e-01 -1.94558918e-01 -1.08688283e+00 -4.28699166e-01 +1.68791130e-01 -2.48690590e-01 +5.46324551e-01 -1.49260029e-01 -1.25850415e+00 -1.13271521e-02 +2.02745974e-01 -1.21843851e+00 +3.62357616e-01 +1.71938762e-01 -1.96053088e-01 -8.05925727e-02 -2.88488001e-01 -2.85642058e-01 +1.25248227e-02 -9.63278264e-02 -5.58091819e-01 -1.44173771e-01 -3.34581971e-01 -9.62043330e-02 +7.98074678e-02 -1.76690921e-01 -1.65001273e-01 +4.54009056e-01 -3.63532364e-01 +1.95892721e-01 -7.16660991e-02 -4.59903330e-01 -2.44480610e-01 -5.78033805e-01 +5.15648961e-01 -1.98495328e-01 -2.89699912e-01 -1.28901675e-01 +6.31680861e-02 -2.17986763e-01 -1.30509055e+00 -1.50129139e-01 -8.87724161e-01 -7.97236383e-01 +3.45578611e-01 -2.31352091e-01 +1.69132315e-02 +1.02192962e+00 +1.88349351e-01 -1.31137654e-01 -1.52454600e-01 +1.83530629e-01 -3.31642516e-02 +6.42274618e-01 -6.88502565e-02 +6.36136472e-01 -6.05115473e-01 -8.22085515e-02 +6.04494512e-01 -3.88836771e-01 -2.22077265e-01 -3.45663607e-01 -1.01743412e+00 +2.54838943e-01 -5.49669750e-03 -5.25577009e-01 +9.07187104e-01 -6.98129237e-02 -5.45666814e-01 +3.48528028e-01 -2.72144288e-01 -1.57210097e-01 -1.42886245e+00 +3.03654492e-01 -3.35965574e-01 -4.04792011e-01 +5.11269808e-01 +4.38630670e-01 +4.06394690e-01 +3.05985957e-01 -3.37658376e-01 -4.75592315e-01 -9.21376422e-02 +1.17151931e-01 -1.55615853e-02 -4.24483679e-02 +4.51719552e-01 -4.99165386e-01 -4.02603418e-01 +7.71121755e-02 -5.83465219e-01 +6.85858727e-02 +1.80655092e-01 -2.53974795e-01 +5.92341781e-01 +5.03111601e-01 -1.13587901e-01 +5.35578310e-01 -1.92053646e-01 +2.27910936e-01 +3.84475924e-02 -2.89529443e-01 +6.40832663e-01 +1.70306917e-02 +4.72175032e-01 -1.18461698e-01 -5.01887321e-01 +8.41254056e-01 +1.24888086e+00 +4.61266711e-02 +3.22405361e-02 +3.24577421e-01 -4.62315321e-01 +1.66115314e-01 +1.95071418e-02 +6.19551301e-01 -5.15491962e-01 +6.79835975e-02 +5.84357083e-01 -1.01141572e-01 -1.30799025e-01 +1.01773567e-01 -4.58545119e-01 +5.65013170e-01 -3.34706157e-01 +8.53889287e-01 +6.44636273e-01 +3.60819608e-01 +1.24533820e+00 +7.38515079e-01 -1.42112926e-01 +5.64226747e-01 -5.57703665e-03 +5.56221187e-01 +6.05857670e-01 +3.06698501e-01 +4.56656784e-01 +5.33433378e-01 +2.14581698e-01 +4.85329688e-01 +1.37598276e-01 +4.39673632e-01 -4.66375709e-01 -5.04488871e-02 -3.53600457e-02 +7.93026805e-01 -4.97939199e-01 +3.38449538e-01 +2.42944255e-01 +5.16085804e-01 +4.11535315e-02 +2.75899887e-01 -4.93935585e-01 +1.79873526e-01 +6.64539933e-01 +7.58343488e-02 -3.08576167e-01 +6.65797293e-01 +7.77215481e-01 +1.29324841e+00 +9.86756623e-01 +1.46411151e-01 -4.50701118e-02 +3.31328362e-01 +1.25165260e+00 +9.86499265e-02 -1.76852822e-01 +3.45729858e-01 +6.17401123e-01 +5.64554818e-02 +4.69751030e-01 +2.49274522e-02 -3.58979493e-01 -1.31598841e-02 +3.23239028e-01 +2.21809670e-01 +6.02336586e-01 +5.11131948e-03 -2.91799396e-01 +2.26765245e-01 -9.00537670e-02 +5.47520399e-01 +1.82967842e-01 +5.86116724e-02 +6.40698552e-01 +3.96301985e-01 +7.47680902e-01 -1.06411160e-03 -4.12681699e-01 +8.31223875e-02 -3.08915019e-01 +1.74290352e-02 +2.20886320e-01 -4.31082547e-01 +6.23775601e-01 +4.97834980e-01 -1.18069120e-01 +1.54650375e-01 -1.90262452e-01 -1.23054124e-02 +6.51477501e-02 +4.68545519e-02 -7.37245753e-02 +3.42540056e-01 +2.85058826e-01 +9.33454812e-01 -3.19674164e-01 +2.85360822e-03 -4.22049612e-01 -2.05377638e-01 -5.32688379e-01 -7.75131941e-01 -1.81120872e-01 -5.91695786e-01 -3.71856123e-01 +3.50560039e-01 +4.74869043e-01 +2.55051464e-01 +1.95267558e-01 +1.32661462e-01 -3.17402095e-01 +3.27189803e-01 -1.33773044e-01 +2.55771250e-01 +6.50355518e-01 +1.97060749e-01 +3.93439502e-01 -2.40479290e-01 +7.25337267e-01 -3.41783881e-01 +8.87484252e-02 -7.95476913e-01 -3.53305996e-03 +8.97664905e-01 -1.56101382e+00 +1.91695318e-01 -5.74663460e-01 +2.04063326e-01 +2.12964669e-01 +4.31566089e-02 +2.52621382e-01 -1.88416466e-01 +3.59269947e-01 +2.31018960e-01 +1.09134458e-01 +6.62890494e-01 -2.50232130e-01 +1.00588351e-01 -1.79149136e-01 -2.59404421e-01 +2.72644579e-01 +4.97688770e-01 -3.95309746e-01 +8.81869495e-01 -8.28140438e-01 +1.02687049e+00 +4.05943334e-01 -4.52666044e-01 +2.11854768e+00 +7.92559564e-01 -1.73009306e-01 -1.56861886e-01 +9.11954138e-03 +1.09942511e-01 -1.59909296e+00 -8.75543728e-02 -1.38948942e-02 +3.64849180e-01 +2.30716780e-01 -3.83640383e-03 +1.00590229e+00 +1.28964201e-01 +4.24633212e-02 -2.48069122e-01 +6.38018906e-01 -5.52212857e-02 -2.10208803e-01 -5.44893682e-01 -1.05967224e-01 +5.03055930e-01 -8.99635136e-01 -2.25176886e-01 -1.87410578e-01 +3.87532443e-01 -2.77259827e-01 +1.79777786e-01 +2.40315467e-01 -1.66799188e-01 +4.34028715e-01 +1.22557744e-01 +2.81685591e-01 -9.78279859e-02 +4.84292477e-01 +1.27520338e-01 -6.32422343e-02 -1.11532241e-01 -6.72938153e-02 +6.10153556e-01 +9.78483707e-02 +2.15666935e-01 -1.89596519e-01 +1.38234854e-01 +2.94818193e-01 -2.90002018e-01 +7.36986518e-01 +2.07821310e-01 +8.65193754e-02 -2.32712716e-01 -3.59051853e-01 +2.88830996e-01 -4.49052393e-01 -3.20633620e-01 -2.43753716e-01 +3.29209596e-01 +3.29180479e-01 +5.35204828e-01 -2.67809182e-01 +6.67907149e-02 +1.17378898e-01 -8.19188833e-01 -3.43982466e-02 +9.96718109e-02 +6.85586393e-01 -5.08293927e-01 -6.55580172e-03 +5.80689199e-02 -3.55101615e-01 -1.26430690e-02 -1.33725271e-01 +3.86202931e-01 +3.08078408e-01 +3.94910425e-01 +1.87722698e-01 +6.37011886e-01 +1.04369247e+00 +4.83673573e-01 -9.40310359e-01 -1.20773733e+00 -3.80161554e-01 -2.45856896e-01 -8.08004200e-01 -6.27206624e-01 -2.69968778e-01 +6.00922704e-01 -1.17464817e+00 +9.15193856e-01 +7.70271897e-01 +1.55121040e+00 
#Parameter# /vanilla-lstm-builder/_2 {64} 1025 ZERO_GRAD
+3.80638361e-01 +4.10580486e-01 +1.77065864e-01 +7.28710890e-01 +1.82113811e-01 +6.52034640e-01 +2.35204995e-01 +3.34757566e-01 +6.04709029e-01 +2.46398628e-01 +6.35652065e-01 +5.69244087e-01 +5.91023266e-01 +9.19540897e-02 +4.40756619e-01 +1.34850278e-01 -1.10870984e-03 +1.76147938e-01 -1.75480217e-01 -4.09087479e-01 +6.58190250e-02 +6.31441593e-01 +1.80023223e-01 +6.16486929e-02 +5.03380841e-04 +1.39652595e-01 +3.81063065e-03 -2.27529809e-01 -8.95870775e-02 +7.64249712e-02 -4.05434489e-01 +9.35275853e-01 +9.12904441e-01 +1.84079826e-01 +3.80103558e-01 +7.00412869e-01 +4.89738196e-01 +3.39047700e-01 -2.52708018e-01 +6.61911607e-01 +1.77748635e-01 +6.30248785e-01 -2.42483616e-01 +5.41583896e-01 +5.24002135e-01 +3.03478390e-01 +9.83973891e-02 +4.74375039e-01 -7.67698064e-02 -1.50346756e-01 +1.61067606e-03 +4.27053012e-02 +1.73755556e-01 -1.28276199e-01 -3.29888426e-02 +1.69207275e-01 +2.65368670e-01 -3.67332995e-03 -1.59509331e-02 -2.85543501e-01 +1.39391553e-02 -2.30551273e-01 -1.79526895e-01 -1.86309621e-01 
#Parameter# /vanilla-lstm-builder_1/_0 {64,32} 32769 ZERO_GRAD
-2.33189628e-01 +2.95159101e-01 -2.44433619e-02 +2.52306551e-01 -8.94153267e-02 +2.59397656e-01 +2.68942267e-01 +5.15613742e-02 -1.70098096e-01 +4.24065394e-03 +9.37748179e-02 +1.35082453e-01 -5.88989966e-02 +1.93369105e-01 +2.64547038e-04 -1.34825222e-02 +3.61775100e-01 -1.64211355e-02 +8.39500427e-02 -2.79118866e-02 -5.10943420e-02 +4.71088529e-01 +4.21426632e-02 +1.06694961e+00 +8.88688266e-01 -1.05745278e-01 +1.51650205e-01 +1.90128699e-01 +2.81801403e-01 +4.59986091e-01 +3.57180923e-01 +3.22498590e-01 +2.51214862e-01 +1.47761088e-02 -5.80387533e-01 -4.83279407e-01 +1.27911165e-01 +2.70476043e-01 +3.86718750e-01 +2.98398226e-01 +3.30164760e-01 +1.39863402e-01 -1.12660520e-01 +9.52039510e-02 +1.21591650e-01 +1.69908389e-01 +5.43337166e-01 +2.63567984e-01 +1.94548503e-01 -2.21906919e-02 +4.27402332e-02 -2.80726641e-01 -2.30692044e-01 +4.15161550e-01 -2.83788204e-01 +1.72511846e-01 -6.84502363e-01 +3.23112160e-01 -1.86675891e-01 -2.80699939e-01 -2.88879257e-02 -5.83814681e-02 -6.23724818e-01 -3.12618285e-01 -1.10429585e-01 -9.45084244e-02 -6.29173443e-02 +2.11642161e-01 -2.15879411e-01 +2.98110425e-01 +1.76549673e-01 -4.85656023e-01 -9.73964632e-02 +1.78333223e-01 +9.17840227e-02 -6.28896177e-01 -1.76069111e-01 +1.29783869e-01 -8.58389065e-02 -3.06134015e-01 +1.98668882e-01 +4.11173612e-01 -5.87238252e-01 -1.76187921e-02 -4.46696550e-01 -2.39709511e-01 -2.12995429e-02 -4.04928893e-01 +2.12822050e-01 -4.95086610e-01 -6.10814869e-01 -2.63820402e-03 +5.17408907e-01 -2.30772018e-01 -4.57842320e-01 +4.57652330e-01 +3.95202219e-01 +5.58054566e-01 +3.77737522e-01 +4.95015606e-02 -1.05987728e+00 +1.77713990e-01 -2.81473368e-01 -1.87330097e-01 -2.27012545e-01 -4.30952221e-01 +3.96239489e-01 -6.70024306e-02 +2.43251935e-01 -3.66986841e-01 -7.87338689e-02 -2.69821763e-01 +2.37710685e-01 -1.33667439e-01 -1.45119697e-01 -3.53855602e-02 +1.52811572e-01 -8.02863687e-02 -2.25224882e-01 -1.28240705e-01 -1.30593225e-01 -1.41518340e-01 -2.30359778e-01 +8.44972022e-03 +3.23393971e-01 +2.38056898e-01 -5.09418584e-02 -1.18507765e-01 -1.67733103e-01 +2.31660181e-03 +1.43982209e-02 +3.84605536e-03 +2.73256928e-01 +1.84453443e-01 +9.49767083e-02 -1.27706915e-01 -7.70754591e-02 +8.28199312e-02 -1.22310109e-01 +1.24054037e-01 -1.96669266e-01 -1.60389453e-01 -9.73547921e-02 +1.39202371e-01 +3.03206474e-01 +3.21603805e-01 +1.12213477e-01 -3.55716884e-01 +2.39551961e-02 -1.78821627e-02 +8.69504631e-01 +6.39035463e-01 +7.29203284e-01 -9.98219326e-02 +1.12419173e-01 +3.59840132e-02 +4.70607221e-01 +5.93553782e-01 -3.11820120e-01 -3.08410496e-01 -5.21518923e-02 +2.23047554e-01 -6.19494393e-02 -1.83987305e-01 -8.21300820e-02 +9.13987085e-02 +4.94251192e-01 +2.78129205e-02 +2.51369953e-01 -5.99047691e-02 +2.72167236e-01 -4.72529046e-02 +7.89947450e-01 +4.99004185e-01 +6.45041317e-02 -2.36386999e-01 +3.34749758e-01 +9.64984447e-02 +7.61364251e-02 -6.96516782e-02 -2.42261946e-01 +1.62439033e-01 -3.10241371e-01 +1.93547368e-01 -5.02224863e-01 -3.07553522e-02 -2.37384856e-01 +1.47622213e-01 +4.56295133e-01 +1.86225191e-01 -3.02889407e-01 -3.12357664e-01 +5.32353878e-01 -3.12304556e-01 +3.26861113e-01 +5.30870594e-02 -4.54398334e-01 +3.08854818e-01 -6.36941016e-01 +3.23533058e-01 -2.87714124e-01 +1.89682797e-01 -2.15659782e-01 -4.43651944e-01 +2.81725153e-02 +1.70271486e-01 -3.10260743e-01 +2.85066903e-01 +3.17986965e-01 -5.54717660e-01 -1.79562345e-02 -9.73180756e-02 +8.42050970e-01 -2.86761113e-02 -8.71666223e-02 +5.67519724e-01 -5.23953661e-02 -3.25064838e-01 +5.22395253e-01 +6.10843837e-01 +1.29433930e+00 +2.88457125e-01 +5.92996120e-01 +2.75667310e-01 +6.58318251e-02 -4.08356905e-01 +2.18440682e-01 -4.01964188e-01 -3.32653433e-01 +1.31153256e-01 -6.16697147e-02 +4.62600261e-01 -4.08848912e-01 -4.90040302e-01 -4.66984689e-01 -3.30925375e-01 +9.73372757e-02 -1.00020528e-01 -7.23432958e-01 +2.96271205e-01 -2.92330552e-02 +1.65071607e-01 +4.01494280e-02 -3.24268818e-01 +2.51512796e-01 -1.20877899e-01 +7.08321854e-02 -4.38608713e-02 -7.51141692e-03 +1.90382421e-01 +5.75164892e-02 +5.76705486e-02 -2.34034777e-01 -1.51939899e-01 +1.38825364e-02 +1.43847749e-01 +4.00836281e-02 +2.97625333e-01 +9.19110551e-02 +2.97507733e-01 -3.02273124e-01 +3.20003508e-03 -2.68146515e-01 +9.98378173e-02 +1.68561518e-01 -1.46177024e-01 +1.25314906e-01 +1.64528415e-01 +1.29934907e-01 +1.16562126e-02 +8.96528065e-02 -2.14118093e-01 +5.30865669e-01 -2.54094094e-01 +3.40289235e-01 -7.81109214e-01 +1.60874188e-01 -2.68634539e-02 -3.75049531e-01 -2.59861082e-01 +2.91110622e-03 -6.38138473e-01 +4.13556159e-01 -5.64953685e-01 -6.05315089e-01 -6.33742630e-01 -3.83459255e-02 +5.68836927e-01 +3.84749174e-01 -2.71153867e-01 -5.69448829e-01 -3.75188857e-01 +3.20283920e-01 -1.90656811e-01 -1.77174181e-01 +3.84843171e-01 +2.29295135e-01 -8.68308991e-02 -7.13041663e-01 +9.99559611e-02 -4.49165404e-01 -3.04331571e-01 +1.03840217e-01 +1.55648604e-01 -3.58626962e-01 -3.09762567e-01 -2.09371611e-01 -6.06594570e-02 +1.15770372e-02 +1.20018378e-01 +1.94379911e-02 -1.49114296e-01 +3.65731232e-02 -2.17627920e-02 -1.33528769e-01 -4.26487058e-01 -4.89044994e-01 -3.57506484e-01 +1.72203220e-02 -9.38786119e-02 +1.18803523e-01 -4.19819385e-01 -2.94478107e-02 +6.28924288e-04 +2.97410935e-01 +6.92049563e-02 +3.56319934e-01 +3.01287740e-01 +1.66375786e-01 +1.52327001e-01 +3.67917567e-01 +9.37560797e-02 -6.03849664e-02 +1.53522968e-01 +9.21164632e-01 -3.79455499e-02 +1.60373822e-02 +1.93101972e-01 +8.37171018e-01 +1.81633919e-01 +3.82039398e-01 +4.45582196e-02 -6.62762346e-03 +6.79797530e-02 -2.32479021e-01 -1.03839859e-01 -2.28890076e-01 -1.27206519e-01 +3.67175251e-01 +8.49779665e-01 -2.78526157e-01 -8.58831108e-01 +1.22486940e-02 +3.86938840e-01 +2.47849524e-01 -2.59703636e-01 +4.83776480e-01 -2.11344510e-02 +1.80939347e-01 +2.10081100e-01 -2.12809414e-01 -6.01438403e-01 +3.21947277e-01 -2.59586334e-01 +8.47667083e-02 +8.60766530e-01 -2.46160716e-01 -1.05083354e-01 +3.00973147e-01 +4.13330793e-02 -1.37142077e-01 +3.70581985e-01 -3.95125449e-02 +3.62355202e-01 +2.47117683e-01 +2.91719705e-01 -8.77837390e-02 -5.97941101e-01 -1.41905919e-01 +6.52453676e-02 +2.76405394e-01 -2.07380027e-01 -7.29353502e-02 +2.61090063e-02 +8.81008506e-02 -8.36117379e-03 -2.84861594e-01 -5.43184936e-01 +1.58543199e-01 -5.96668832e-02 -3.35948497e-01 +1.07359141e-01 -2.17402562e-01 -4.56806272e-01 -5.88708278e-03 +2.80446947e-01 -3.38265181e-01 -1.15868971e-01 -1.68884397e-01 -1.99544448e-02 -3.84536684e-01 -3.56826901e-01 -3.63391548e-01 +1.43120432e+00 -3.40390354e-01 +2.97443986e-01 +2.16805816e-01 -9.67434525e-01 -5.07634580e-01 -5.02976358e-01 +1.15774047e+00 +1.49158046e-01 -7.57596135e-01 -1.32686228e-01 +3.07851374e-01 +3.47015038e-02 -3.56544793e-01 -4.52650338e-01 -2.71131605e-01 +5.86560130e-01 -1.89246818e-01 -2.75573522e-01 +1.14003837e-01 -3.79339680e-02 -4.20543104e-01 +5.83338857e-01 +2.61499554e-01 +5.97362578e-01 -2.03468204e-01 -2.43319213e-01 +2.85752594e-01 +6.86320066e-02 +1.57456696e-01 -1.59626171e-01 +1.21245511e-01 +9.94887874e-02 +2.06666306e-01 -9.07265916e-02 +1.68630421e-01 -2.94643138e-02 -2.99623478e-02 +1.14094913e-01 -6.32957667e-02 -8.58826190e-02 -3.61622542e-01 +1.29739136e-01 +1.89696565e-01 +2.44219959e-01 -3.51492465e-02 -2.76619911e-01 +2.47643292e-01 +6.05904639e-01 -5.57649493e-01 -6.77742809e-02 -6.62171319e-02 +5.25749326e-01 +6.54364169e-01 +1.08526208e-01 -8.49358179e-03 +6.86857775e-02 +4.83823389e-01 +2.09976822e-01 +4.20074195e-01 -9.98092815e-02 +4.33794595e-02 -1.50452361e-01 -2.16651857e-02 +4.34691310e-01 +8.53574336e-01 +2.52841532e-01 +1.87931001e-01 +7.71871433e-02 +3.38948339e-01 +6.15095720e-02 -9.07072425e-02 -1.00974612e-01 -4.30458069e-01 -3.58169526e-01 +6.46283805e-01 -4.04229946e-02 -1.34751096e-01 -2.19479173e-01 +4.96968508e-01 +2.36568972e-01 -3.55663002e-02 -1.87307090e-01 -2.40098182e-02 +9.57506076e-02 +5.70340931e-01 +2.91867167e-01 -3.75509381e-01 +2.06374854e-01 +1.59258097e-02 -1.66495308e-01 -2.30083793e-01 -1.56936586e-01 -7.32926846e-01 +3.69279712e-01 +3.89527828e-01 -5.36110662e-02 -2.03384504e-01 -5.90528622e-02 +1.21381171e-01 +1.07388973e-01 +1.58765361e-01 +2.22871397e-02 +3.16274166e-01 +4.13809717e-01 -3.58211324e-02 -1.87695816e-01 +8.91866570e-04 +6.31907135e-02 -9.12408307e-02 +1.35412902e-01 +3.77990991e-01 +2.60457490e-03 -4.62571830e-01 +3.03446263e-01 +7.55183756e-01 +2.11634040e-01 +3.77538413e-01 -3.17506731e-01 +2.09878221e-01 +2.53378004e-01 -1.48501813e-01 +1.89162359e-01 -4.75489460e-02 -2.58378148e-01 +1.77829906e-01 +9.38385651e-02 +9.58107933e-02 +7.80315399e-02 +9.24543962e-02 -1.76452070e-01 -4.16913688e-01 +6.29451917e-03 +3.79387975e-01 -7.29173541e-01 -1.31149665e-01 -6.93034112e-01 -9.93513107e-01 -2.45789438e-01 -7.88267910e-01 -3.15320164e-01 +5.40196300e-02 +3.16143744e-02 -4.84202430e-02 -7.79542024e-04 +9.27261263e-02 +1.31620497e-01 +2.67879456e-01 +1.96264740e-02 +8.29974532e-01 +2.45046079e-01 -1.70738384e-01 +5.02354085e-01 +4.09905434e-01 +1.35358080e-01 +4.77644317e-02 +1.51816294e-01 -2.67940629e-02 -4.75052804e-01 -9.32995901e-02 +4.39511612e-02 -3.15935880e-01 +1.59453675e-01 -1.40609086e-01 +7.15708733e-02 -9.58330929e-02 -2.08262458e-01 -3.05488527e-01 -3.50111067e-01 -7.27321878e-02 -7.53749833e-02 -7.10993260e-02 -9.47067976e-01 -2.88384743e-02 +2.12164849e-01 +1.92166463e-01 +3.13604325e-01 -2.81834960e-01 +3.84824544e-01 +2.43148059e-01 +1.04174368e-01 -5.07920654e-03 +5.96205175e-01 -7.69196227e-02 +1.89930066e-01 -9.86712873e-02 +4.92147952e-01 +2.30454892e-01 -1.01671793e-01 -1.55048266e-01 -8.14802721e-02 -1.67090371e-02 -4.29724604e-01 -3.01077902e-01 -1.64919615e-01 +2.49247596e-01 +7.84184396e-01 +6.38692826e-02 -2.45883435e-01 -1.06915019e-01 +3.81244808e-01 +1.91872072e+00 +9.19893384e-01 +2.20886111e-01 -1.57342821e-01 -1.43069640e-01 +4.06960607e-01 -5.96253514e-01 -5.33736050e-01 -5.35605736e-02 +5.57945669e-01 +1.20221868e-01 -3.94352945e-03 -1.64258733e-01 -1.91118777e-01 -6.46807393e-03 -2.45708928e-01 +4.50783253e-01 +3.79177153e-01 +4.11406517e-01 -4.92672622e-01 +1.12656176e-01 +5.84839880e-02 +4.45148945e-02 -2.91710943e-01 -4.84952033e-02 +6.44071624e-02 -1.87957793e-01 +1.01800665e-01 -6.90164328e-01 -1.92669053e-02 -6.23641685e-02 -1.03070751e-01 +1.50540814e-01 +2.04613164e-01 -8.59971568e-02 +5.15599921e-02 +1.57187372e-01 +8.44901204e-02 -5.08054614e-01 -5.96145429e-02 -1.90379605e-01 -9.37323943e-02 -3.62269014e-01 +7.72389919e-02 +1.83645651e-01 +1.97910830e-01 -6.54986054e-02 -9.01369900e-02 +3.42909694e-01 -1.96924582e-01 -7.75466934e-02 +1.43275103e-02 +5.62795028e-02 -2.85429716e-01 +1.13992654e-01 -6.12316802e-02 -5.54906987e-02 -4.81707342e-02 -6.46165684e-02 -2.64034301e-01 -2.27893829e-01 +1.20670557e+00 +1.26834974e-01 -1.18023917e-01 +1.05770564e+00 -1.48356885e-01 +7.20542148e-02 +8.84411633e-02 -1.27428338e-01 +1.59133762e-01 +6.03037298e-01 +1.42598316e-01 -2.92778276e-02 -3.87272477e-01 -1.20055377e-01 +5.10019660e-02 -5.31147778e-01 -1.90903962e-01 -1.37579262e-01 -1.62492637e-02 -1.78957045e-01 -9.77064297e-02 +5.44709451e-02 +1.06875390e-01 +1.70310009e-02 +2.38424137e-01 +1.84838921e-01 +2.01844677e-01 +7.23056495e-01 -1.00592601e+00 +2.63372213e-01 -1.91307962e-01 -4.02935501e-03 -5.73319718e-02 +4.77875412e-01 +4.38038021e-01 +4.07190114e-01 +1.31462544e-01 +6.49046421e-01 +5.12545943e-01 +2.35937104e-01 +2.99760342e-01 -2.93697327e-01 -4.18036208e-02 -1.16457246e-01 -1.93440154e-01 +1.09669067e-01 -6.27786443e-02 +2.04791293e-01 -6.13876730e-02 +2.82054581e-02 -1.72801152e-01 +4.39587027e-01 -8.71568769e-02 -1.03576683e-01 +1.26361862e-01 +9.89413932e-02 -1.15840085e-01 +4.43083281e-03 -1.60201326e-01 +5.35218477e-01 +1.14802428e-01 -3.38228971e-01 -3.96619961e-02 +2.30076790e-01 +7.63151944e-01 +1.08337037e-01 -3.48191053e-01 -6.53141558e-01 -4.12527740e-01 +2.74693668e-01 +2.41916314e-01 -3.46007869e-02 +5.87321930e-02 +1.96797833e-01 -5.31349331e-02 +2.69342512e-01 -3.31147820e-01 -3.58854264e-01 +3.46220359e-02 +2.02282727e-01 +2.99058884e-01 -4.52301711e-01 +4.00410034e-02 -8.50529969e-01 -3.95881355e-01 -1.49467260e-01 +8.67312700e-02 -4.08280730e-01 -7.44193941e-02 +3.48540872e-01 +1.29720286e-01 +1.45208672e-01 -2.13160664e-01 +4.73518670e-01 -1.66900805e-04 +2.17952967e-01 -1.69753611e-01 +6.42071187e-01 +1.52026609e-01 -1.26996234e-01 -1.04516894e-02 +2.01405406e-01 +4.41702187e-01 -3.46649766e-01 -3.26679528e-01 +7.38562942e-02 -5.00086546e-02 +7.77792692e-01 +4.63508349e-03 -7.84148216e-01 -1.67319447e-01 -5.36944389e-01 +2.23688424e-01 -1.92846388e-01 -4.72598344e-01 -5.51314354e-01 -5.44622183e-01 +1.72201306e-01 +2.38744274e-01 +8.02422285e-01 -1.44096032e-01 +2.52141237e-01 -4.20233846e-01 -6.51949465e-01 -2.95961380e-01 +5.52428782e-01 -5.41919842e-02 +1.32719716e-02 -3.45577337e-02 -2.15912219e-02 -6.86912760e-02 +3.54085416e-01 +8.88161838e-01 -9.59212959e-01 +4.46232826e-01 +3.63937140e-01 -2.49716118e-01 +4.60018396e-01 +3.69153649e-01 +2.00760916e-01 -4.79296952e-01 +4.27595139e-01 +1.53628562e-03 -2.07363740e-01 -4.27106321e-01 +7.06341922e-01 -7.46315941e-02 -2.97774374e-01 +3.03660929e-01 -1.27173796e-01 +3.71479243e-02 +1.63016751e-01 +3.57516557e-01 -4.38475609e-01 +8.43470097e-02 -1.65602833e-01 +1.31165519e-01 +7.42639452e-02 -2.76773661e-01 +1.37512162e-01 +3.76387984e-02 -3.21092755e-01 -1.20677985e-01 +1.67408347e-01 +1.29056543e-01 -2.59647518e-02 -5.01201190e-02 -4.68223900e-01 +2.01141179e-01 -2.11913735e-01 -1.36602879e-01 +3.84314060e-02 +2.85064995e-01 +3.42701823e-02 +2.01330513e-01 -3.41279864e-01 -1.26719074e-02 +2.92513929e-02 -1.23577766e-01 -6.32230639e-02 +2.23642606e-02 -9.08841565e-02 -1.42898113e-01 +3.81110497e-02 +1.35893440e-02 -4.33417708e-01 -1.83236986e-01 -6.75601304e-01 -4.48508114e-01 -2.86337554e-01 +3.83963495e-01 +2.62858719e-01 -6.70855641e-01 -2.28540942e-01 -1.51920915e-01 -2.19270408e-01 +5.84350042e-02 -6.88069686e-02 -1.11524954e-01 +3.10927987e-01 -1.63680553e-01 -5.15852094e-01 -2.57736593e-01 -1.08661436e-01 +2.71312445e-01 +3.93431872e-01 +1.63221911e-01 +4.68410432e-01 +1.45429015e-01 +1.53539525e-02 -3.93361822e-02 +4.79489803e-01 +4.12330687e-01 +1.73062652e-01 +1.41023695e-01 +3.22462887e-01 -4.93062399e-02 +1.40425399e-01 -1.88132614e-01 -2.02207476e-01 +2.42611870e-01 -4.94653583e-01 +9.93336141e-02 -5.32335699e-01 +1.65775612e-01 -3.31105471e-01 +1.58673018e-01 +3.88386250e-01 +9.45791155e-02 -4.00669694e-01 -4.40691859e-01 +2.74612278e-01 -2.99798269e-02 +1.70081213e-01 +1.46890804e-01 +1.53036579e-01 -1.84948042e-01 +1.20215073e-01 +1.19445458e-01 +2.51716018e-01 +2.27717400e-01 +2.41721988e-01 +1.70143336e-01 +6.10333048e-02 +7.87619129e-02 +3.33001971e-01 -7.26449713e-02 -3.09340805e-01 +5.99022388e-01 +1.37025779e-02 -4.13242668e-01 +8.39672863e-01 +2.44096041e-01 -3.18426937e-01 +3.67306352e-01 +3.41561466e-01 +1.71843544e-01 -1.84166327e-01 +1.35512613e-02 -7.55127907e-01 -3.52008402e-01 +2.53872067e-01 -7.69481540e-01 +1.33373260e-01 +4.48135883e-01 -2.95488507e-01 +1.46772891e-01 +1.95280820e-01 -2.17333995e-02 -5.63983507e-02 +1.59751371e-01 +5.73763847e-01 -1.41031025e-02 +5.92394769e-02 -8.78576115e-02 +2.69130975e-01 -3.05229276e-01 -2.28888497e-01 -2.62944192e-01 +1.98363028e-02 -1.84742168e-01 -2.57147431e-01 +1.80971265e-01 -5.70912004e-01 +8.27837229e-01 +1.57264903e-01 +6.55017138e-01 +3.87254846e-03 -2.42101416e-01 -3.28384712e-02 -9.20431092e-02 +8.19452852e-02 -1.32077366e-01 -2.34170780e-02 -2.65152752e-01 +1.02378808e-01 +1.15466863e-01 +1.76770389e-02 -1.59660339e-01 -5.48628330e-01 -2.96629548e-01 -2.42101699e-01 +1.70932919e-01 -4.47449833e-01 +2.50272363e-01 -7.14950636e-02 -1.50297374e-01 -4.54625875e-01 -2.53418437e-03 +1.90788418e-01 -5.73871806e-02 -1.84277207e-01 -3.36106688e-01 +1.48700684e-01 +1.39161274e-01 +1.06641185e+00 +2.37613127e-01 +6.66732669e-01 -9.39717889e-01 -1.81580976e-01 -5.87973654e-01 +2.05127299e-01 +5.22657752e-01 +1.40307951e+00 +7.74425983e-01 -4.02149677e-01 -3.62691283e-01 -1.15671955e-01 -4.95272696e-01 +2.94324666e-01 +4.32491660e-01 +1.96618930e-01 +9.89862755e-02 -2.05783457e-01 +1.39375776e-01 -7.37916350e-01 -1.31872684e-01 +4.27573919e-02 +2.39878699e-01 -3.25258762e-01 -1.24000721e-01 -2.23999664e-01 -2.81549871e-01 -4.09001745e-02 +3.25676709e-01 +1.59904510e-01 -2.48876482e-01 +1.39770610e-02 -1.18174940e-01 +2.47284979e-01 +1.47553265e-01 -5.58158644e-02 -2.67653555e-01 -5.07799312e-02 -5.28483242e-02 -4.78587858e-02 +4.12128083e-02 +1.32542908e-01 +3.56102109e-01 -3.04022491e-01 +2.91026592e-01 -1.88253090e-01 -1.40087128e-01 +5.52969277e-01 -1.28849506e-01 -6.15530014e-01 -1.32533815e-02 +4.64813143e-01 -1.67325914e-01 +1.49505138e-01 -3.83227527e-01 -3.99955243e-01 -1.36821330e-01 -2.87891030e-01 -9.41992998e-02 -5.11765301e-01 -4.89242971e-02 -7.53466010e-01 -2.92894710e-03 -3.17017108e-01 -3.80084336e-01 -4.31622006e-02 -5.86214542e-01 +2.23457720e-03 +9.91233289e-01 +1.61284775e-01 +5.25899172e-01 -1.51840711e+00 -3.45675170e-01 -1.35524333e-01 +6.37549609e-02 -4.89367157e-01 +1.94905058e-01 -6.90299809e-01 +3.54844958e-01 -6.28506064e-01 +1.78658143e-01 -3.05172861e-01 +2.50106633e-01 -7.39978328e-02 +1.38931960e-01 -1.41115174e-01 +1.11910604e-01 +1.81574021e-02 -4.19546187e-01 +7.26970017e-01 +1.64081194e-02 -3.04093271e-01 -1.47562340e-01 +8.90243053e-02 -5.31657226e-02 +3.01971026e-02 -1.35024264e-01 -5.85360974e-02 -7.82003775e-02 -1.40610740e-01 +5.22776902e-01 -1.72635093e-01 -1.30098119e-01 -5.74995913e-02 -8.64770263e-02 -1.35013998e-01 +9.10514966e-03 -6.38384074e-02 +2.66742259e-01 -1.60421617e-02 -5.64276576e-02 -4.78533888e-03 +7.00588971e-02 -8.77312794e-02 +1.72167882e-01 +2.75146991e-01 -1.22288674e-01 +5.42295873e-01 +3.33119094e-01 -4.81981002e-02 -1.88180894e-01 +4.71531093e-01 +1.14576042e-01 +3.41440111e-01 +8.24374333e-02 +6.69829965e-01 +7.22577453e-01 -1.90995872e-01 -8.89695361e-02 -4.67994571e-01 -3.69623363e-01 +3.52665275e-01 -3.06764126e-01 +2.45391931e-02 +3.84528972e-02 -3.84222746e-01 +1.44349948e-01 -4.12316322e-01 -4.82196957e-01 +1.48999974e-01 +4.33540851e-01 +2.64913201e-01 -1.04285777e-01 -1.02246180e-01 -1.69237003e-01 +6.25288725e-01 -2.51035839e-01 +2.09514216e-01 -7.92191252e-02 +1.01924598e-01 +2.70525455e-01 +2.55197883e-01 -2.00335070e-01 +1.88792706e-01 +5.36717713e-01 +4.27024961e-01 -4.67049062e-01 -3.16179037e-01 +2.85838872e-01 -2.89504249e-02 +3.80705357e-01 -1.83618292e-02 +1.85750321e-01 -3.44919637e-02 -2.64773041e-01 -5.42798162e-01 -6.40513778e-01 -1.24428473e-01 -7.45071411e-01 +2.48282533e-02 -2.30251864e-01 +1.45533681e-01 +4.35782939e-01 +1.35541156e-01 -3.90883148e-01 -7.39693046e-01 +1.62561014e-01 +4.53284055e-01 +3.43675107e-01 +6.72262311e-02 -2.05494434e-01 +2.61458874e-01 +6.66917205e-01 +1.37634918e-01 +1.12697273e-01 +1.46549493e-01 -2.34807506e-01 -2.36962155e-01 -6.33451641e-01 +3.70650262e-01 +3.29721570e-01 +6.44036293e-01 +3.60316515e-01 -1.75652474e-01 -3.87382329e-01 +1.70198739e-01 -5.98460078e-01 +5.35245180e-01 -6.22187436e-01 -8.54776800e-01 +3.52787814e-04 -4.50332195e-01 +1.53210625e-01 -1.37831509e-01 +6.82337657e-02 -1.57645985e-01 +1.10818431e-01 +2.10612729e-01 -4.18508202e-02 +2.02913582e-01 +2.60962367e-01 +3.30850519e-02 +3.16429824e-01 -1.29360259e-01 +5.50031126e-01 +7.20859021e-02 +1.34877980e-01 +5.31647980e-01 +1.09271124e-01 -9.87586677e-02 -5.61659217e-01 -4.98730280e-02 +7.74414986e-02 +1.54787481e-01 +1.10493928e-01 -1.07209012e-02 +1.27425253e-01 -1.05384521e-01 -4.05152738e-01 -5.46774343e-02 -4.29356694e-01 -3.26884180e-01 -2.88722575e-01 -1.53305884e-02 -3.16736102e-01 -2.35689461e-01 -1.33877993e-01 -1.20625161e-01 +4.41665888e-01 -5.25264144e-01 +9.83744040e-02 +4.12780136e-01 +3.09864372e-01 -6.92192733e-01 +1.98916167e-01 +2.64971793e-01 -5.14025912e-02 -1.89255759e-01 +1.37298048e-01 +8.82757306e-01 +1.52875438e-01 +1.12469949e-01 +5.26276648e-01 +2.46844605e-01 -1.13502480e-02 +2.56414324e-01 -4.22052503e-01 +3.58328521e-01 -4.29052040e-02 -1.00668304e-01 -6.81953251e-01 -6.52041614e-01 +2.47258097e-01 +5.04526138e-01 +4.56898779e-01 -6.52727008e-01 -1.89234674e-01 +4.55321878e-01 -2.33312268e-02 -4.83648218e-02 +1.00937329e-01 +2.04823036e-02 +2.53799349e-01 +8.93285200e-02 -2.29768716e-02 +4.33100723e-02 -3.57858896e-01 +3.44822973e-01 -1.02003470e-01 +1.38775021e-01 +4.01717275e-01 -3.76283526e-02 -5.87427914e-01 +9.60915014e-02 +2.39920616e-01 -4.68940614e-03 +2.28988379e-01 -1.29433461e-02 +1.34359211e-01 +6.24808371e-02 +1.52639955e-01 +4.19029184e-02 -5.30196071e-01 -1.71920165e-01 +8.41227397e-02 +1.57327294e-01 +1.48542300e-01 -1.23916157e-01 +1.08507730e-01 +3.04250810e-02 +1.67478859e-01 -3.74442875e-01 -7.61450052e-01 +6.25458002e-01 -7.50162899e-02 -6.56324506e-01 +4.84021008e-02 -6.72961399e-02 +3.12357843e-01 +1.15966290e-01 +5.13266362e-02 -7.91922271e-01 -4.61498499e-01 -3.24734360e-01 +6.89785182e-02 -5.59755743e-01 -2.03935578e-01 +4.02956188e-01 -6.59221470e-01 -1.21632300e-01 -4.91494328e-01 +6.05921805e-01 -1.50091872e-01 +2.32742652e-01 +4.38467264e-02 +6.07930541e-01 +9.52435359e-02 +1.42464459e-01 -6.23269901e-02 -1.19906437e+00 -7.68187523e-01 -2.97593355e-01 +1.32476464e-01 +4.27275866e-01 +1.25382364e-01 -1.76165104e-01 -7.16869757e-02 +9.04911458e-02 -6.18305564e-01 -1.13002455e+00 -1.68448370e-02 +6.93805456e-01 +1.25380278e-01 +4.11160111e-01 -1.26491368e-01 -1.04671729e+00 -2.16470614e-01 +2.56163806e-01 -1.87595293e-01 -2.98001736e-01 +1.33042857e-01 +1.08321644e-01 -1.28854960e-01 +1.30210696e-02 -3.78353298e-02 +6.57129884e-02 -1.83783188e-01 +1.16439216e-01 +7.79487332e-03 -4.94536050e-02 +2.11177915e-01 +4.99712348e-01 -1.30081952e-01 -6.75581619e-02 +4.32094991e-01 +5.08841947e-02 +2.55535692e-01 -4.76430088e-01 -2.98585236e-01 +5.07027268e-01 -7.53974691e-02 -4.61347729e-01 +2.19971493e-01 -3.59247863e-01 -1.68915436e-01 +5.00258923e-01 -1.07444070e-01 -1.95414290e-01 -3.77907008e-02 +2.48621792e-01 -4.02281493e-01 +3.46016914e-01 -5.73977768e-01 +4.34835106e-01 +8.91622543e-01 -7.05939889e-01 +9.84026194e-01 +7.25725174e-01 -7.63675213e-01 -2.02490926e-01 -7.54545867e-01 +8.42100263e-01 +3.50891352e-01 +6.10421896e-01 +4.12680596e-01 +1.36431828e-01 -2.19944835e-01 +1.22453198e-01 -5.28935075e-01 +1.44976482e-01 +2.41517067e-01 +1.55344754e-01 +4.71966892e-01 +5.18674850e-01 +1.56408161e-01 -6.64533496e-01 -2.13997751e-01 +2.59012967e-01 +1.18492804e-01 +5.82883894e-01 +7.57714748e-01 +4.11284059e-01 +1.18610241e-01 -6.97031915e-02 -1.02261938e-02 -3.44723538e-02 +1.37983095e-02 +6.15664572e-02 +9.64982156e-03 +1.84559748e-02 -8.36842060e-02 +2.84667581e-01 +7.11162835e-02 -2.65830725e-01 -1.22053139e-01 -8.99946243e-02 -1.50586754e-01 +1.71555623e-01 +5.24688326e-02 +3.23554426e-01 +8.86123925e-02 -5.42113855e-02 +5.59345699e-06 +4.98221368e-01 +3.28507721e-01 +1.52885184e-01 -1.73087925e-01 -2.23311670e-02 +1.39835820e-01 -1.55445367e-01 +1.29700646e-01 -1.92061942e-02 -1.27520384e-02 -6.04332313e-02 +4.03286219e-01 +1.96180701e-01 -2.04791248e-01 +1.79573789e-01 -5.05834937e-01 -4.13489759e-01 -1.26292244e-01 +4.22917813e-01 +1.07735135e-01 +4.57087785e-01 +1.96073577e-01 -1.36123645e+00 -2.86685765e-01 +1.98321462e-01 -4.76964504e-01 +8.21016207e-02 +3.07707042e-01 -3.92816514e-01 -3.80814075e-02 +9.24725384e-02 +2.65162647e-01 +3.06886941e-01 +2.55196959e-01 +6.14284456e-01 +1.72741741e-01 +3.24979201e-02 +1.39004171e-01 +2.05189630e-01 -2.17829901e-03 -2.16800496e-02 +1.66213036e-01 -1.88096955e-01 -4.81645107e-01 +1.86088249e-01 -3.27601373e-01 -6.94044352e-01 +1.04971743e+00 -1.14288874e-01 +3.60890746e-01 -1.53193519e-01 +1.81650165e-02 -5.44127785e-02 -2.34646678e-01 -3.29276502e-01 -1.65501013e-01 -4.03325260e-01 -9.61240232e-02 -1.19091474e-01 -8.99411738e-03 +2.77667969e-01 +1.48900151e-01 +1.21234976e-01 +2.19436903e-02 -4.03327607e-02 +3.07707369e-01 -7.58787870e-01 +6.75198957e-02 +1.69825107e-02 -1.42299160e-01 -1.12030745e-01 +2.43179232e-01 +1.75029598e-02 +2.13006273e-01 +1.21186443e-01 +3.75520378e-01 +1.18466258e-01 -3.60114425e-01 +8.77264813e-02 +2.44000316e-01 -2.07644194e-01 +6.73797429e-01 +3.36296931e-02 -8.54328215e-01 -5.43331742e-01 -4.36095387e-01 +1.24236798e+00 +4.85367358e-01 +1.65721148e-01 -6.70285970e-02 +4.18464959e-01 -4.02337521e-01 +1.81793407e-01 -6.02818489e-01 +2.87337810e-01 -2.92174667e-02 +4.36639711e-02 +2.85988420e-01 +2.78909951e-01 -2.13810861e-01 -9.43465531e-02 -1.08194195e-01 +3.65288138e-01 +4.32306737e-01 +1.67661265e-01 +6.64251745e-02 +3.34008634e-01 +2.56133616e-01 -3.62357683e-02 -1.62141412e-01 -1.05017669e-01 +1.60844475e-01 +1.14391752e-01 -1.80901901e-03 -7.14373030e-03 -9.28491950e-02 -1.26047790e-01 -5.33910096e-02 -8.05698559e-02 -1.10366881e-01 -1.49823278e-01 -8.26962739e-02 +8.76003935e-04 -1.67158306e-01 -2.74017423e-01 +1.91570476e-01 +4.96955924e-02 -1.88347608e-01 -4.76171225e-01 -2.28378609e-01 -3.54899094e-02 +3.63033146e-01 +1.36156067e-01 -2.05917731e-01 +7.60684237e-02 -1.35745451e-01 +1.22314803e-01 +2.62077898e-01 +1.53176129e-01 -1.39837787e-01 +1.69329062e-01 +2.44308427e-01 +5.63442945e-01 +2.92188704e-01 +6.74777627e-01 -5.06847575e-02 -5.07022858e-01 +2.58739263e-01 -2.81182379e-01 -1.03362463e-01 +1.02751899e+00 +3.13429117e-01 -6.90464452e-02 +2.29926586e-01 -1.12391293e-01 -6.55705854e-02 +4.87121373e-01 +1.89574018e-01 +4.54076767e-01 -2.00239345e-01 -4.14508969e-01 -1.89933553e-01 -4.23565149e-01 -2.86518872e-01 -2.24806531e-03 -1.65354356e-01 -4.15437639e-01 -1.95435494e-01 -2.75100265e-02 -4.20143068e-01 -1.37786239e-01 +2.83213586e-01 -2.87246052e-02 +3.04305196e-01 +2.16561660e-01 -4.01161402e-01 +3.40028673e-01 -1.61375061e-01 +5.75500131e-02 -2.60482788e-01 -4.66816016e-02 +2.07740933e-01 -3.73698622e-02 +9.01896209e-02 +4.49951917e-01 +5.22574067e-01 +9.76498649e-02 -2.41843611e-01 +7.32574984e-02 +1.23938605e-01 +2.46920839e-01 -3.48837286e-01 +3.94892484e-01 +2.01477453e-01 +1.99967295e-01 +1.87010914e-01 -5.44791639e-01 -3.00941855e-01 -5.13268895e-02 +1.99629769e-01 +3.39764714e-01 +2.62681961e-01 -8.79428864e-01 +5.67274928e-01 -7.77061105e-01 +1.05393589e+00 -4.58398283e-01 +4.03241873e-01 +2.85224207e-02 +6.87381625e-02 -6.55953407e-01 +2.76918411e-01 +5.42282090e-02 +9.78235066e-01 -2.89172500e-01 -1.27672181e-01 +8.59217644e-01 -7.68332124e-01 +5.54092452e-02 +1.35554641e-01 -4.12745953e-01 -2.83424079e-01 +6.13971591e-01 +6.90061867e-01 +3.39939184e-02 +5.98328412e-01 +8.07929635e-01 +8.48202631e-02 +6.32268116e-02 +8.19888636e-02 +2.13822111e-01 +2.88719814e-02 +2.65581816e-01 +3.30976754e-01 -1.35187298e-01 +1.54540211e-01 +2.54242867e-01 -1.57047361e-01 -9.57865119e-02 -2.71919407e-02 +8.80843550e-02 +1.34944335e-01 -1.58312246e-01 +3.26947123e-01 -1.15037542e-02 +2.14313731e-01 +4.99469861e-02 +3.27266663e-01 -2.98364431e-01 +3.06794465e-01 -1.46449000e-01 -2.68566489e-01 -1.59245834e-01 +7.37767756e-01 +1.28256947e-01 -8.36850852e-02 +3.79581213e-01 -3.52654397e-01 +1.82085320e-01 +1.37797132e-01 -6.06995940e-01 -3.51797342e-01 +9.55849364e-02 +2.79594064e-01 -1.43785074e-01 -1.78440511e-01 +2.67700464e-01 +5.98973989e-01 -3.11128467e-01 -2.42641978e-02 +1.16342224e-01 +2.55313426e-01 +2.76896983e-01 +3.88961583e-01 -2.56960988e-01 +3.87522399e-01 -6.57603383e-01 -5.49531996e-01 +7.04432607e-01 +1.67268842e-01 +6.05220556e-01 -1.20789893e-01 +2.98580855e-01 -1.00189961e-01 +1.58942536e-01 -6.73172474e-02 +8.54958057e-01 +2.07756415e-01 -2.50316560e-01 -5.35314940e-02 +4.26698238e-01 -1.01696827e-01 +3.64400715e-01 -3.46485496e-01 -1.43702194e-01 +8.86967257e-02 -3.57397757e-02 +1.44160548e-02 -1.69037819e-01 +4.95611846e-01 +1.30468011e-01 -1.07417144e-01 -8.65844861e-02 -1.43149719e-01 -6.94394708e-02 -1.83632970e-01 +1.48572577e-02 +3.55972610e-02 +2.49112278e-01 +7.19354868e-01 +4.47124839e-01 +5.85278630e-01 +8.18353891e-03 +1.79913118e-01 -1.55293196e-01 +3.68130617e-02 +6.63120270e-01 +2.99384773e-01 -9.23604444e-02 -2.35934645e-01 -1.04477316e-01 -3.34581852e-01 +1.52676910e-01 -2.68517494e-01 +1.13656156e-01 +1.35937199e-01 -1.89259812e-01 +7.84540549e-03 +5.75292483e-02 -1.61544532e-02 +3.60361308e-01 +6.71232641e-01 -3.43195438e-01 +2.99731195e-01 -5.71992993e-01 -4.65374380e-01 -6.89555053e-03 -6.46441698e-01 +4.62429702e-01 -3.95701863e-02 -3.61375272e-01 +5.31531930e-01 -9.11403596e-01 -5.97468078e-01 -7.83819795e-01 -6.64507329e-01 +8.14506710e-02 +4.57620829e-01 -2.77330577e-01 +4.17321891e-01 -2.86722720e-01 +9.53727961e-02 +8.49594921e-02 -7.83420146e-01 +2.78902084e-01 +3.45047295e-01 +1.06758006e-01 +3.52799922e-01 +4.09693182e-01 -6.14087433e-02 +5.17480401e-03 -4.81921047e-01 -2.45607391e-01 -1.40598908e-01 -2.46996716e-01 -8.65733474e-02 -1.52276203e-01 +2.50595715e-02 -1.83137760e-01 -1.39356256e-01 +2.17974596e-02 +2.40725935e-01 -5.21318913e-01 -4.84008938e-01 -6.10380433e-02 -7.95536712e-02 -1.51711807e-01 -5.77672720e-02 +3.52004260e-01 -6.38814829e-03 -8.99464544e-03 +1.10638298e-01 +4.48293865e-01 +8.15602466e-02 -7.07693398e-01 -1.73062444e-01 -1.05663680e-01 +4.98944595e-02 -3.45077991e-01 -4.41996813e-01 +1.16245439e-02 +1.93201229e-02 +4.49095070e-02 +1.52296513e-01 -5.55394888e-01 -6.84450865e-01 -1.16258822e-01 +1.35674834e-01 +9.81098935e-02 -4.69865024e-01 -4.69256282e-01 -4.07535210e-02 +5.29805571e-02 -4.27713282e-02 -1.00182283e+00 +6.29406989e-01 +8.88661981e-01 +3.60292196e-03 +2.18132176e-02 +3.85861576e-01 -4.95398194e-01 +1.10941408e-02 +1.32587835e-01 -1.31165117e-01 -4.56857264e-01 +2.32795384e-02 -5.18890202e-01 -1.46477014e-01 -2.64999181e-01 -6.47916734e-01 -1.33558124e-01 -1.72467768e-01 +9.32883546e-02 -3.95150572e-01 -2.39310995e-01 +3.43180507e-01 +9.69668105e-02 +4.40188974e-01 -1.50840014e-01 +7.58758932e-02 +5.88026524e-01 -6.02475345e-01 +1.59972027e-01 -1.21941604e-01 +1.66318104e-01 +4.53637660e-01 -3.70879918e-02 -2.35980988e-01 +2.53166318e-01 -2.68168338e-02 +1.73607036e-01 -8.83695558e-02 -7.71017745e-02 +1.37598932e-01 +4.18709040e-01 +1.62057370e-01 -8.05281520e-01 +2.10611269e-01 +6.75139487e-01 +2.48842910e-01 +4.83192205e-02 -4.12493885e-01 -4.60924447e-01 +3.40008050e-01 +2.88870454e-01 +3.29444110e-01 +1.30527586e-01 -9.44178477e-02 +3.24625939e-01 +4.41931158e-01 -2.46094584e-01 +8.39604378e-01 -3.98870319e-01 +1.14273453e+00 -3.85814101e-01 +1.67016715e-01 +4.34339672e-01 +1.39554292e-02 +3.09401929e-01 +3.40801120e-01 +1.43420100e-01 +2.72019118e-01 +1.11357701e+00 -1.13570653e-01 +2.59115100e-01 +2.61106491e-01 -5.27758956e-01 -2.65605152e-01 -7.91666731e-02 +4.78847384e-01 +6.71693385e-01 +5.40128350e-01 +2.33868420e-01 +3.74792814e-01 +1.29760891e-01 +2.76654512e-01 +5.14251411e-01 +3.48599374e-01 +6.40685081e-01 +4.45378393e-01 +3.07485685e-02 -1.06129972e-02 +2.13013306e-01 -2.64505118e-01 -1.46290585e-01 +2.21733272e-01 -1.47741109e-01 +2.53933012e-01 -6.91921949e-01 +1.23255529e-01 -1.15821429e-01 -2.27310285e-01 +6.17826283e-02 -3.20452787e-02 -5.73536813e-01 +2.92299449e-01 +2.06574708e-01 +2.13684499e-01 +2.77702153e-01 -4.80005965e-02 -3.99777219e-02 +5.99866845e-02 +7.23099858e-02 -6.09074011e-02 +7.14799166e-01 -1.24338314e-01 +2.12909523e-02 +1.29098848e-01 +4.04638439e-01 +1.02495544e-01 +1.37152269e-01 +8.54687113e-03 -1.24570251e-01 +3.95689666e-01 +7.37507567e-02 -4.23158318e-01 +3.09832871e-01 +1.71945229e-01 -1.07066417e+00 +6.23664260e-01 +5.39421976e-01 +1.53877214e-03 -4.33769941e-01 -4.13493931e-01 +1.24895416e-01 -2.10058451e-01 +9.57961828e-02 +1.01184696e-01 +1.66064695e-01 +8.32591299e-03 -1.95095018e-01 -1.96329534e-01 +3.64062458e-01 -4.09997813e-02 +9.51472670e-02 +5.08414388e-01 +4.83882278e-01 -8.16734321e-03 -1.74820453e-01 +1.13122240e-01 +4.77088422e-01 -6.88441545e-02 -4.80955206e-02 +9.15377140e-02 +3.90965343e-02 -4.52185005e-01 -2.79689044e-01 +8.56654793e-02 -4.99415159e-01 +6.13541126e-01 -2.49591246e-02 +4.45492715e-01 -3.69187668e-02 -1.76112413e-01 +2.90217176e-02 -2.28544131e-01 +1.64433524e-01 -4.63712364e-01 +2.59570144e-02 -3.73805016e-01 -1.48574996e-03 +1.28275156e-01 +8.23716447e-03 +7.37804770e-02 -1.45512387e-01 -1.68229893e-01 -2.48306140e-01 -4.24593806e-01 -5.19638844e-02 +2.24188954e-01 +1.71472475e-01 +9.92153212e-02 -2.51606584e-01 -3.37470323e-01 -4.89340365e-01 +4.93164212e-02 +4.53269750e-01 -9.89004150e-02 +5.37687957e-01 -8.04678082e-01 -5.16322494e-01 +6.86969399e-01 -3.50493252e-01 -2.51185000e-01 +4.02525067e-01 +5.06710589e-01 -5.46239436e-01 -1.30142224e+00 +1.15847456e+00 -1.48668990e-01 -4.64984864e-01 +3.14736098e-01 +8.46934438e-01 +1.43498078e-01 +7.30635881e-01 +7.32403621e-02 +3.80739123e-01 +3.15147117e-02 -9.55729857e-02 -3.19071323e-01 +1.21187866e-01 +2.59086013e-01 -2.94574071e-02 -4.48618643e-02 +2.21895903e-01 +3.00280809e-01 -3.20485145e-01 +3.91096860e-01 +3.01954240e-01 -1.29647359e-01 -6.13516808e-01 -1.00785322e-01 +1.18074588e-01 -2.35820353e-01 -1.25348806e-01 -2.74679065e-01 +4.37224098e-02 +1.45077825e-01 -1.88937113e-01 -3.16967607e-01 +5.80179989e-02 -2.81718262e-02 -2.48890519e-02 -1.29215926e-01 
#Parameter# /vanilla-lstm-builder_1/_1 {64,16} 16385 ZERO_GRAD
+5.46044052e-01 +2.95884997e-01 -1.54698059e-01 -1.29108563e-01 -9.97398913e-01 -8.47633421e-01 +6.19568348e-01 -1.60863936e+00 -5.59003532e-01 -1.11987543e+00 +4.87484336e-01 -2.42233828e-01 -1.50408709e+00 -4.11409847e-02 -3.26688290e-01 -6.31670237e-01 -2.38366842e-01 -2.88161546e-01 -1.48745164e-01 -2.58191347e-01 -8.36150795e-02 -1.22023180e-01 -1.11208521e-01 +1.43699899e-01 +3.97241265e-01 -4.90571022e-01 -6.04202330e-01 +3.48312885e-01 +1.74898207e-02 +2.46957421e-01 -3.68071854e-01 -3.43459845e-01 +4.71443295e-01 +4.51303786e-03 +1.31708458e-01 -8.11621666e-01 -1.47703075e+00 -5.07415771e-01 +7.44217277e-01 -1.20957863e+00 -2.16381475e-01 -1.24678314e+00 +1.52138129e-01 -4.04394597e-01 +6.26713276e-01 +1.06613052e+00 +1.13482428e+00 +3.89372289e-01 -1.10659800e-01 +1.49582222e-01 -4.40416455e-01 +2.48928174e-01 -2.41398245e-01 +3.36599350e-02 -5.97130060e-02 +1.17764333e-02 -3.17949086e-01 +4.26384881e-02 +1.50091305e-01 +2.15756252e-01 -1.18311845e-01 -3.63672167e-01 +1.44030988e-01 +2.74654657e-01 -3.47667634e-02 -1.41680881e-01 +2.00432777e-01 +3.01076353e-01 -8.06050599e-01 -9.67674255e-01 +4.57925886e-01 -6.96418583e-01 +3.54781896e-01 -1.91247985e-01 +9.17303145e-01 -9.37097847e-01 +3.84600431e-01 +7.20683575e-01 -5.76634169e-01 -7.14227974e-01 +7.78978109e-01 +1.78000152e-01 +4.44155008e-01 -4.84659940e-01 -5.55986285e-01 +6.82462871e-01 +1.72086671e-01 +1.17431891e+00 +7.35021412e-01 -3.31723094e-01 +8.15266892e-02 +7.56480277e-01 +7.55683659e-03 +1.53692412e+00 -2.85726696e-01 -2.01073512e-01 -4.70215440e-01 +1.59770045e-02 +4.25778180e-01 -1.97680011e-01 -1.57618380e+00 -1.72076866e-01 +4.47777361e-01 +3.31310481e-01 -1.87165603e-01 -3.03699434e-01 +5.73864281e-01 -9.68707800e-01 +1.71607041e+00 +7.07898557e-01 +9.43915546e-01 -3.15666825e-01 +5.44468760e-01 +4.24445838e-01 -9.57203329e-01 +9.43894327e-01 -1.84292197e-01 +1.12662874e-01 -4.62022960e-01 +3.76142144e-01 -4.61836606e-01 +4.44419056e-01 -1.14387602e-01 -9.80114579e-01 -2.36686245e-01 -2.24577993e-01 -1.75284773e-01 -4.55739558e-01 +1.77033961e+00 +5.79421282e-01 -3.35266232e-01 +1.18008423e+00 +7.03758419e-01 -6.69351339e-01 -1.43116519e-01 +1.53159952e+00 +5.53496122e-01 +3.04314047e-01 +3.34405035e-01 -5.74950725e-02 +1.04971814e+00 -1.02351293e-01 +1.05238092e+00 +1.42279041e+00 -1.86184242e-01 +6.93997443e-01 +4.90658075e-01 +8.19778979e-01 +8.50841582e-01 +9.87240970e-01 +1.14449970e-01 +3.40255618e-01 -9.46210995e-02 -1.43563405e-01 +9.54498947e-01 +2.05918014e-01 +1.16532469e+00 +1.73886687e-01 +8.46598387e-01 +4.04580116e-01 +2.63891637e-01 +1.57576215e+00 +5.83685189e-02 +7.94903994e-01 +4.96351391e-01 +6.61492467e-01 +2.14431345e-01 +1.86427999e+00 +4.38125521e-01 +7.22113013e-01 +9.52999175e-01 +8.55507731e-01 +2.48022109e-01 +1.04742944e+00 +1.42154384e+00 -7.33957812e-02 +2.44423389e-01 +1.33499533e-01 +2.43297383e-01 -5.65770447e-01 -1.07466526e-01 -4.07604814e-01 -3.68796974e-01 +4.24226433e-01 +6.16955105e-03 +6.88883141e-02 -1.04673281e-01 -1.62141889e-01 -2.04662263e-01 +3.52145970e-01 -5.59804678e-01 -5.96043468e-01 -4.45857882e-01 +7.22840667e-01 +5.55508018e-01 -8.83969963e-01 +3.38798642e-01 +8.40692043e-01 -4.93880689e-01 +1.27735242e-01 -6.95603669e-01 +3.37008864e-01 +7.86791980e-01 -3.24558288e-01 +6.34891629e-01 -4.85336035e-01 +9.59042132e-01 +7.92478085e-01 +6.10081077e-01 +2.33354852e-01 -5.87426007e-01 -6.09921098e-01 -4.00497556e-01 +1.33766389e+00 +1.67215303e-01 +1.33815721e-01 +6.30249977e-01 -2.17559338e-02 -1.83626413e-01 +2.72201508e-01 -2.39108384e-01 +1.68697044e-01 -3.88055414e-01 -1.76969483e-01 -1.14633977e-01 -3.39310318e-02 +4.31594342e-01 -4.79732484e-01 -2.62907762e-02 +8.29952300e-01 +2.59857208e-01 +8.95633101e-02 -2.75755107e-01 +2.53706843e-01 -3.66433680e-01 +2.86705103e-02 +7.54389822e-01 -5.26798248e-01 +1.07390404e+00 -7.76757449e-02 +6.86691701e-02 +4.40742284e-01 -4.79249388e-01 +3.38373601e-01 -5.56563556e-01 +8.33981752e-01 -5.81483305e-01 +4.17791188e-01 +2.86507308e-01 +5.95556498e-01 -1.71244100e-01 -3.51747602e-01 -1.84346288e-01 -3.06848496e-01 -1.74467519e-01 -5.07260799e-01 +5.33407331e-01 +1.42921138e+00 +6.45642132e-02 +1.95403352e-01 +1.18984771e+00 +1.42510414e+00 +1.55425858e+00 +7.72678733e-01 +2.32866347e-01 +5.24347164e-02 +2.09653854e+00 +9.11113977e-01 -1.82029903e-01 +3.63926023e-01 +2.66408825e+00 +1.11724722e+00 +6.14306867e-01 -7.35314131e-01 +8.90072465e-01 -4.24197823e-01 +3.37760389e-01 +1.26686901e-01 +6.27851069e-01 +2.60282874e-01 +8.46953273e-01 -8.35165203e-01 +3.26013416e-01 +1.62576333e-01 +1.19656205e+00 +5.76316476e-01 +2.37717405e-01 -6.00079238e-01 -7.52251148e-01 +3.58923703e-01 +3.96054052e-02 -2.35595673e-01 +6.70039117e-01 +9.71645653e-01 +8.62158388e-02 +1.02405655e+00 -1.37702569e-01 -5.43952167e-01 +1.79266012e+00 +8.38539541e-01 -3.28294098e-01 -7.02611983e-01 +1.85702395e+00 +1.82848364e-01 -2.31331196e-02 +6.23799264e-01 +3.58973324e-01 +6.04024410e-01 -3.18858474e-01 +1.08379692e-01 +2.00327709e-01 +2.87451565e-01 +2.30085328e-01 -4.14887629e-02 +6.68263197e-01 -1.33606479e-01 -6.22091055e-01 -4.06097919e-01 +1.40480548e-01 +1.23809837e-01 +1.20485283e-01 -3.81564915e-01 -3.20672154e-01 -6.67864501e-01 -9.02270060e-03 +5.34047902e-01 -7.33828902e-01 +4.78951931e-01 +1.30580693e-01 +6.71730459e-01 -2.73622662e-01 +1.75713096e-02 +2.33677223e-01 -2.07825050e-01 -1.36773145e+00 -2.32218727e-01 -7.54071474e-02 +3.62767130e-01 -2.78844684e-01 +2.01732278e-01 +6.06523454e-01 -1.88664168e-01 -3.73344421e-02 -2.44598553e-01 -3.67744386e-01 -7.63438940e-02 +3.35155725e-01 -4.52169806e-01 -4.04182255e-01 -7.09669113e-01 -4.05853361e-01 +4.72523034e-01 +1.25893843e+00 -4.23750699e-01 +1.78901896e-01 +7.80923665e-01 +6.45151973e-01 -1.91248268e-01 -4.23671901e-02 +2.39287481e-01 +4.07939613e-01 +1.37685835e+00 -1.14107490e+00 +1.17959821e+00 +2.36828297e-01 +1.10477817e+00 -1.18367052e+00 +8.65986705e-01 -3.19849759e-01 -6.42924726e-01 +4.50636953e-01 -5.54890335e-01 -1.46157250e-01 +3.97070318e-01 +2.93908536e-01 -5.66379130e-01 +6.77841067e-01 +4.82935816e-01 -4.10962850e-01 +6.14227653e-01 -1.39610202e-03 -2.88983792e-01 +4.17877287e-02 +1.94002122e-01 -6.38583660e-01 +1.37201214e+00 -1.89622235e+00 -2.75452256e-01 -1.49635923e+00 -1.32498538e+00 -2.19495639e-01 -2.04236388e+00 -2.78938800e-01 -1.70355284e+00 -3.21825296e-01 +1.94900587e-01 -1.60866725e+00 -1.87609005e+00 -8.75109807e-02 -1.40371934e-01 -7.07338631e-01 -2.25885361e-01 -1.03206909e+00 +1.82503927e-02 -8.64410937e-01 +4.53953110e-02 +3.02252993e-02 +4.22846638e-02 +3.90092015e-01 -1.47510082e-01 +7.47295618e-01 +8.93380404e-01 -8.99295390e-01 -5.27752638e-01 -4.73935604e-01 -5.21047115e-01 -1.18349099e+00 +8.61632109e-01 -1.06428087e+00 +1.21658333e-01 -1.10157335e+00 -2.63904393e-01 -2.97606170e-01 -1.77614439e+00 -1.88878700e-01 -4.98337209e-01 -6.46191016e-02 +1.14736927e+00 -2.44492099e-01 +1.55928791e-01 +6.84462488e-01 +6.81694031e-01 +2.89896205e-02 -3.83635610e-01 -4.14419137e-02 +4.45256948e-01 -4.71822798e-01 +4.78728026e-01 -1.57259434e-01 +1.98427793e-02 +5.19402444e-01 -8.75709593e-01 +4.20239568e-01 -1.93956882e-01 +8.24131548e-01 +2.99500853e-01 +4.68596637e-01 +2.93134945e-03 +6.32775009e-01 -7.96880424e-01 -3.98633666e-02 +2.78081238e-01 -4.02437776e-01 -7.29086399e-01 +2.63785885e-04 +6.83265150e-01 +7.69135773e-01 -4.40089732e-01 -1.73148751e-01 -1.87187999e-01 -1.71043754e-01 +6.02996051e-01 -2.35789374e-01 +4.14490581e-01 -2.24045962e-01 +2.45856166e-01 -4.06979509e-02 -8.84354413e-02 +1.16015434e-01 -1.07571326e-01 -6.68977275e-02 -1.70412496e-01 +4.16666448e-01 -2.06693918e-01 -7.88575351e-01 -2.62222469e-01 +1.07006177e-01 +6.63284838e-01 -9.77104381e-02 -1.90298721e-01 +9.35180902e-01 -1.02798812e-01 +3.65768492e-01 +2.42655009e-01 -3.10456038e-01 -7.31962472e-02 +6.85905814e-01 +7.17502296e-01 +4.47865754e-01 +8.81755471e-01 -7.44136035e-01 +2.93095648e-01 +2.53408217e+00 +1.44676399e+00 +2.08744273e-01 +4.45469648e-01 +5.89104116e-01 +4.37239170e-01 +9.04901773e-02 -3.63298357e-01 +4.98367697e-01 +1.40300781e-01 -5.26563600e-02 -1.31803244e-01 -4.32041615e-01 +7.26114154e-01 -4.45866257e-01 +2.75045693e-01 -1.94805726e-01 -5.03417611e-01 -3.12569737e-01 -2.20894918e-01 +3.35571975e-01 +2.89851159e-01 +7.37510562e-01 -4.47235376e-01 +1.83814943e-01 -1.64393723e-01 +1.14222430e-02 +2.16997698e-01 -4.60160285e-01 +1.34407961e+00 -3.05634499e-01 +8.38830411e-01 +2.22496286e-01 -4.11471631e-03 -5.17620564e-01 +8.25531259e-02 -8.41383860e-02 +7.62210369e-01 +4.85426113e-02 +7.99624920e-01 +9.72789228e-02 +6.53433681e-01 +5.70143014e-02 -9.14740190e-02 -2.67316371e-01 -3.15354913e-01 +3.78073931e-01 -3.52173865e-01 +3.22279513e-01 -1.03972375e-01 +2.19569933e-02 +8.63770992e-02 +9.81025491e-03 -1.29113898e-01 +5.99881530e-01 +7.10073531e-01 +6.15315378e-01 +5.10376617e-02 -4.50910211e-01 -5.87006360e-02 -5.92117786e-01 +6.33037806e-01 +1.48921445e-01 -6.76214471e-02 -4.24919397e-01 -2.26049349e-01 -4.92515713e-01 -7.04986870e-01 -1.43513367e-01 -5.01422048e-01 -4.19865519e-01 +2.11502567e-01 -6.54696047e-01 +1.82588711e-01 -6.37574375e-01 -4.59710926e-01 +4.35432822e-01 +1.45819202e-01 -6.43726408e-01 +2.06395581e-01 +4.65091407e-01 +2.77012646e-01 +2.21091241e-01 -1.85240477e-01 -7.83806443e-02 -1.66024554e+00 -7.12549761e-02 +5.41115761e-01 +6.40444815e-01 +8.96086693e-01 -2.16117889e-01 +7.16766775e-01 +7.14054286e-01 +1.09988737e+00 -4.11104500e-01 -1.95086372e+00 +3.33916008e-01 +1.56744230e+00 -1.93330467e-01 +7.96161413e-01 +6.94035947e-01 +5.34003973e-01 +8.12383771e-01 +8.19101110e-02 +3.47907692e-01 -4.72700417e-01 -1.03373611e+00 -2.17400551e-01 -1.02559423e+00 -6.61102235e-01 +1.41766369e-01 +5.93325675e-01 +5.56135774e-01 +1.54004598e+00 +4.47842441e-02 -3.82929206e-01 +2.76660454e-02 -5.27516961e-01 +7.22206593e-01 +5.91029227e-01 +8.98870230e-01 +3.70020829e-02 -7.20940173e-01 +4.54732895e-01 -1.35574827e-03 +6.04254790e-02 +1.82847306e-01 -4.84487146e-01 +7.78756320e-01 +5.12615442e-01 -4.17137891e-01 +4.14427906e-01 +9.51823592e-02 +1.30656675e-01 -4.79357332e-01 -8.49876180e-02 -5.06351233e-01 -4.76616658e-02 +8.27330530e-01 +1.66756883e-01 -2.41507202e-01 +1.84253767e-01 +4.02591616e-01 -6.03863597e-01 -1.30717844e-01 +7.33722806e-01 -4.56005275e-01 +1.95463598e-01 +1.07559741e+00 +2.79144239e+00 +2.25585867e-02 +4.14492637e-01 +1.14830530e+00 +1.13358510e+00 +8.84521723e-01 +2.15131178e-01 -1.73874810e-01 -2.69285560e-01 +4.38948214e-01 -2.75594682e-01 +7.45667875e-01 -2.44843677e-01 +8.95509005e-01 -4.89391625e-01 -2.87157357e-01 +6.79382980e-01 +3.84057462e-01 +2.67325699e-01 -5.06550133e-01 +9.28601086e-01 -4.21269506e-01 -2.56660849e-01 -9.76921152e-03 -1.57742649e-01 -1.14614993e-01 +6.30976975e-01 +5.48081994e-01 -4.04737622e-01 +5.80294549e-01 -3.49860072e-01 -2.74439692e-01 +1.99987185e+00 +1.47203967e-01 +3.38804394e-01 +6.16681218e-01 +1.77389371e+00 +6.91573381e-01 +6.27817750e-01 -1.60188287e-01 -4.89345372e-01 +4.56512749e-01 +8.33546877e-01 +3.22085470e-01 +2.71578789e-01 +1.27137089e+00 -1.18395492e-01 -2.28857130e-01 -3.51080924e-01 +1.61705106e-01 -1.61098287e-01 +2.57404260e-02 +3.78975600e-01 +1.33082073e-03 -4.60302681e-01 +9.10041690e-01 +6.98354691e-02 +6.80810869e-01 -5.77642955e-02 +4.60409850e-01 +4.87834573e-01 -2.54174560e-01 +4.29548919e-01 +6.17917538e-01 -5.56628287e-01 -3.86139035e-01 +2.36536205e-01 -5.52908182e-01 -1.27908373e+00 +8.06219518e-01 -9.66595352e-01 -1.50611207e-01 -6.36265874e-01 +1.59178400e+00 -4.98195767e-01 +5.51930547e-01 -3.08753997e-01 +3.71539928e-02 +1.20335966e-01 -4.43743020e-01 -2.91303933e-01 -2.23786101e-01 +5.96823931e-01 +1.23991417e-02 +2.62643963e-01 +5.48213542e-01 +9.06934500e-01 +1.63316473e-01 -5.52433074e-01 -9.33054611e-02 +4.67212358e-03 -2.76401103e-01 -1.54254511e-01 +2.27495924e-01 -9.68551636e-03 +5.86236596e-01 +7.43126154e-01 -1.37530100e+00 +8.24880242e-01 -5.55396199e-01 -1.18126594e-01 +6.44987822e-01 -2.37995327e-01 +5.71465418e-02 -7.87227035e-01 +1.55480123e+00 -9.69821513e-01 -8.14465404e-01 +5.55099130e-01 +2.18558741e+00 -6.71355128e-01 +5.22297025e-01 -2.23365694e-01 -4.09234911e-01 -1.15072355e-01 -3.41983974e-01 -3.99452120e-01 -1.00282037e+00 +2.74568617e-01 -5.04035763e-02 -2.60002017e-01 -4.65638101e-01 -2.90656447e-01 +1.83090791e-01 -3.68929505e-01 -2.44504437e-01 -2.07866356e-01 +3.52137387e-01 -5.67824543e-01 +7.88023114e-01 +2.00369939e-01 -7.55423307e-01 +2.52796501e-01 -4.08803105e-01 +9.07515064e-02 -1.48084033e+00 -6.24969304e-01 +2.22826228e-01 -6.23460352e-01 +4.52062815e-01 -4.65161264e-01 -4.34420019e-01 -1.18737507e+00 -2.95994639e-01 -2.71656713e-03 -1.34660220e+00 -4.86536950e-01 -1.13777554e+00 -1.08152652e+00 -3.05937648e-01 -4.08127308e-01 -9.07414615e-01 +3.01563859e-01 +1.48856267e-01 -1.44000918e-01 -1.65467784e-01 -7.52308965e-01 -3.34036618e-01 -5.66820204e-01 -4.93919522e-01 -5.98766208e-02 -4.64223832e-01 -8.18938255e-01 -1.23454857e+00 +5.54499567e-01 -5.78361332e-01 -1.41857302e+00 -1.37541604e+00 -1.24551475e+00 -3.22894454e-01 -1.54923439e+00 -8.33128035e-01 -1.41479385e+00 -9.95983720e-01 -1.26193964e+00 -4.62646127e-01 -6.10663831e-01 -7.99565464e-02 -4.09781486e-01 +2.31483296e-01 -2.88456917e-01 -6.80922687e-01 -6.56749368e-01 +2.66634941e-01 +2.36128956e-01 -7.00982034e-01 -1.12315223e-01 +3.33793521e-01 -1.74475648e-02 +1.76562533e-01 +2.75440574e-01 +2.95057237e-01 -1.29287648e+00 -4.80251491e-01 -7.75896370e-01 -2.96787247e-02 -6.53831720e-01 -1.49047995e+00 +9.40844953e-01 -7.66012669e-01 -1.45837927e+00 -8.16786349e-01 -5.93062162e-01 +1.40192583e-01 +5.50544500e-01 -1.39199615e+00 -1.21377087e+00 -2.65028834e-01 +5.02549887e-01 -6.13058925e-01 -1.15793034e-01 -8.11167061e-01 -3.60361516e-01 -6.36466801e-01 -1.05504856e-01 -3.39464098e-01 +1.29473567e+00 +1.75905570e-01 +5.34505606e-01 +5.16676366e-01 +1.01851046e-01 +5.76851130e-01 +9.28359926e-01 -1.10241997e+00 -1.82195857e-01 -5.22006691e-01 -1.13350916e+00 -1.19094300e+00 +3.02693993e-02 -1.87212896e+00 +1.73010994e-02 -5.39708972e-01 -9.60987806e-01 +5.38774990e-02 -3.48529547e-01 -6.24100089e-01 -8.37294936e-01 -1.47894514e+00 -1.29694176e+00 -2.05324203e-01 +1.19714335e-01 -6.27527982e-02 -1.98397804e-02 -2.16454893e-01 -4.03686255e-01 +1.94673166e-01 -1.96174532e-01 -2.86262095e-01 +1.77460328e-01 -3.31176102e-01 -2.94943780e-01 +9.99780968e-02 +6.23167455e-01 -2.99860016e-02 -2.09925592e-01 -5.69114983e-01 +1.74230349e+00 -1.35389698e+00 -3.59456122e-01 -7.16809928e-01 +6.74883902e-01 +8.48147333e-01 -3.63290340e-01 -6.13154113e-01 -3.61524791e-01 -1.07080626e+00 -2.71270275e-01 -3.10917258e-01 -1.13135672e+00 -8.76443624e-01 -4.96846884e-01 -3.11076969e-01 -2.89600700e-01 -4.62039769e-01 -1.09355032e-01 -5.74642956e-01 +6.82400942e-01 +1.59699127e-01 +6.51513517e-01 +4.67454374e-01 -2.06065536e-01 +4.05220628e-01 +1.19372264e-01 -2.96354234e-01 -2.03423485e-01 +1.42783418e-01 -3.27292569e-02 -1.13299906e+00 +9.85098839e-01 -1.25110030e+00 +3.93628240e-01 -8.50190639e-01 +4.43776041e-01 -5.70373654e-01 -5.93658507e-01 +2.81867664e-02 -6.14896059e-01 -2.70641536e-01 -5.04544854e-01 -1.02294993e+00 -5.82728803e-01 +1.42892575e+00 -8.04125220e-02 -1.97698832e-01 +1.61823064e-01 -9.74035040e-02 +2.68745810e-01 -4.23932612e-01 +3.32303084e-02 -8.00165355e-01 +2.43410975e-01 -1.74254924e-01 -3.59019041e-02 -3.35630849e-02 -1.05085477e-01 +4.65804338e-01 -5.11978269e-01 -2.83699900e-01 -8.69515687e-02 -4.24410611e-01 -1.08613642e-02 +5.99457264e-01 +2.11592942e-01 +2.84917593e-01 +1.63639337e-01 -5.00737965e-01 +6.40018880e-01 -5.01222670e-01 -1.68162689e-01 +1.27021587e+00 -3.45234051e-02 +4.25142795e-01 +7.58124292e-02 +5.29364824e-01 +1.62137017e-01 -2.13204801e-01 +6.45648360e-01 -1.85953942e-03 +9.13040221e-01 -1.79856166e-01 +2.11737052e-01 +7.90122032e-01 -5.57555497e-01 -4.61884528e-01 -2.57857710e-01 +8.95725965e-01 +3.13489407e-01 -3.87401670e-01 +2.57708669e-01 -1.24843605e-01 -3.62872601e-01 -6.85609281e-01 +3.96834314e-01 +3.58308583e-01 +9.53985214e-01 +5.06567895e-01 +5.91066122e-01 +4.95364457e-01 -1.07465252e-01 -7.15416849e-01 -4.93191123e-01 +1.17601979e+00 +6.45841300e-01 -4.21572238e-01 -1.07434198e-01 -2.57497191e-01 -6.39389932e-01 -2.65739858e-01 -1.55075490e-01 +2.82205716e-02 +6.05091900e-02 +1.39714703e-01 +3.94391179e-01 -4.64050695e-02 +2.15514153e-01 +3.80739719e-01 -2.73718275e-02 +2.58987993e-01 -5.91412246e-01 -5.11910394e-02 -2.64811248e-01 +2.43061349e-01 -1.29872739e-01 
#Parameter# /vanilla-lstm-builder_1/_2 {64} 1025 ZERO_GRAD
