#Parameter# /vanilla-lstm-builder/_0 {64,32} 32769 ZERO_GRAD
+9.04400051e-02 +2.55136669e-01 +5.70965521e-02 -1.78333312e-01 +6.66395109e-03 -1.98168069e-01 -4.30130333e-01 -6.92857921e-01 -2.06692323e-01 -1.81993216e-01 +8.68166983e-02 -4.89286542e-01 +7.58521557e-01 +1.59809798e-01 -1.74131155e-01 -2.92635034e-03 -7.60225117e-01 -2.38751441e-01 +2.82357097e-01 +2.68858112e-02 -6.94366693e-01 +1.49394953e+00 -1.43182591e-01 +3.38386714e-01 +1.58019394e-01 +2.46279221e-02 -5.33818603e-01 +5.70063949e-01 -4.30075824e-01 -4.71201897e-01 +9.48534608e-02 -2.35100806e-01 -7.54959583e-01 -1.50201973e-02 +1.00623667e+00 -3.50852907e-01 +4.32478450e-02 +4.04186454e-03 -5.48806190e-01 -7.03068912e-01 +4.15559560e-02 -3.62388551e-01 +8.46099317e-01 +2.92910278e-01 -9.05443192e-01 +8.83663818e-02 +2.01265007e-01 -5.02894342e-01 +1.12685122e-01 -2.05842823e-01 +3.00622076e-01 -2.27595359e-01 +4.81749140e-02 -1.46634355e-01 +1.07059553e-02 -1.12930499e-01 -2.51128320e-02 +1.64325591e-02 +8.06077898e-01 -3.78218815e-02 +1.88685179e-01 -1.46201411e-02 +1.86656117e-01 +4.02399421e-01 -1.51973590e-01 +3.87123898e-02 +1.27059966e-01 -1.92619786e-01 -7.65438378e-02 +2.42279947e-01 -1.26225740e-01 +1.93342909e-01 -1.63567930e-01 +2.28614926e-01 +1.11325108e-01 -5.21795332e-01 -2.72573441e-01 -7.41495550e-01 -5.77916671e-03 +1.09328717e-01 -3.39521617e-01 +6.69008017e-01 -1.46323189e-01 +5.16007900e-01 +7.58200437e-02 +2.33339563e-01 -1.66152835e-01 +4.89735782e-01 +7.03086480e-02 -1.64706126e-01 -4.17524517e-01 -4.12270762e-02 -2.42701486e-01 +3.13559592e-01 -4.59048375e-02 +2.85444826e-01 -5.77155232e-01 +2.97066215e-02 -1.18383385e-01 -4.23912764e-01 +1.86769116e+00 -2.30881348e-01 -3.23202312e-01 +4.08913270e-02 -5.04236937e-01 -4.78366137e-01 -2.06620825e-05 +3.94218862e-01 +2.08379850e-01 -2.16927141e-01 +1.40626088e-01 -1.24364287e-01 -2.38112137e-02 -4.77336258e-01 +6.98448196e-02 +3.81544116e-03 +3.01473252e-02 +2.32092254e-02 +3.53889726e-02 +3.67766261e-01 +7.72084221e-02 -9.63402912e-02 -7.35291047e-03 +4.05207872e-02 -8.54033679e-02 -3.25535387e-02 -1.18817464e-01 +6.81674778e-01 -2.98661292e-01 +3.11412424e-01 +1.08693339e-01 -7.68983483e-01 +1.03077821e-01 -3.35427672e-01 +7.35035300e-01 +7.57303298e-01 +2.94402659e-01 +4.62746859e-01 -2.20776960e-01 -8.58997181e-02 -6.64382219e-01 +1.86020225e-01 -3.85382734e-02 +5.91100335e-01 +8.90112281e-01 +3.50047529e-01 +8.67083482e-03 -6.94019020e-01 -4.41435724e-01 +1.35451329e+00 -9.49125290e-01 -6.71752691e-02 +1.41276193e+00 +3.58377159e-01 -1.34603035e+00 +6.10916257e-01 -6.66120291e-01 +6.13559306e-01 +7.77999461e-01 -9.91790593e-02 +1.26235628e+00 +6.10234797e-01 +6.58492386e-01 +1.56127661e-01 +8.04565027e-02 +4.39307809e-01 +3.21519941e-01 +5.27461588e-01 +7.82198787e-01 +1.60211539e+00 +6.76256046e-02 +5.23909628e-01 -5.08666098e-01 +7.27820635e-01 +3.87948155e-01 +3.94394815e-01 -1.11932144e-01 -1.68203324e-01 +1.35959119e-01 +5.36629677e-01 +3.67846154e-02 -4.30140108e-01 +5.98030817e-03 +1.02160886e-01 +5.34434505e-02 -5.52449822e-02 +8.11797529e-02 -4.53800172e-01 +3.45595647e-03 +1.63094297e-01 -5.77340238e-02 -2.68697161e-02 -9.17283967e-02 -7.28069916e-02 +4.56922241e-02 -1.55976892e-01 +6.14550002e-02 +2.99571842e-01 +2.43667066e-01 +6.24519646e-01 +6.61385953e-02 -6.37683943e-02 +3.63499597e-02 +1.52331209e-02 -4.35075432e-01 -3.31650734e-01 -1.81047052e-01 -6.06371500e-02 +4.55368310e-01 +4.92352873e-01 +7.24934578e-01 +3.85037288e-02 -1.03577711e-01 +9.47379619e-02 -1.90048233e-01 -1.01904243e-01 -5.59107125e-01 -2.46731997e-01 +7.63898015e-01 -6.01682961e-01 +6.92164898e-01 +5.26225835e-04 -3.26688856e-01 +7.95750856e-01 +1.16501737e+00 +4.43616770e-02 -5.03944643e-02 +3.09945911e-01 +1.19557515e-01 +2.49853864e-01 +2.33271077e-01 +7.58723170e-02 +3.05068880e-01 +7.06621706e-01 +1.81822851e-01 +9.81513038e-02 +9.20118511e-01 +2.50486404e-01 +1.47543341e-01 +1.06244922e+00 -1.20121613e-01 +4.29331064e-02 +7.05624223e-02 +8.89605731e-02 -6.65936232e-01 +3.10944710e-02 -1.46302544e-02 +3.10544729e-01 -4.23456617e-02 +6.61605522e-02 -1.36014804e-01 -1.21142967e-02 +1.24347754e-01 -7.51571581e-02 -4.96560574e-01 -2.23661914e-01 -8.27963829e-01 +5.79683222e-02 +5.16049266e-01 -3.37899774e-01 -1.23234279e-01 -6.55116498e-01 +3.22077692e-01 +5.63743293e-01 -1.47601247e-01 -6.80936202e-02 -2.38095641e-01 -8.27302337e-02 -1.81770861e-01 -4.60583270e-01 -1.42030388e-01 -3.77999216e-01 -1.80717692e-01 -1.48086607e-01 -8.33986819e-01 +3.32697600e-01 -1.65884361e-01 +4.49134558e-01 -1.13313091e+00 +5.12081683e-01 -4.55831766e-01 -9.92048979e-01 +4.62328166e-01 -5.63544154e-01 -1.90524068e-02 +1.32633641e-01 -1.69429451e-01 +5.71932912e-01 +2.79961258e-01 -1.92732438e-01 -5.21371603e-01 -5.68239600e-04 +6.48063838e-01 -2.16013044e-01 -6.67995363e-02 -2.88543515e-02 +1.86540395e-01 +9.98741910e-02 +4.24998075e-01 -2.31433973e-01 +6.70606494e-01 +3.35844308e-02 +4.81927007e-01 +2.25188211e-01 -1.16077855e-01 -5.46872258e-01 -2.43690670e-01 +7.54715979e-01 -1.00096703e+00 -2.96296805e-01 -5.11619523e-02 +6.36825621e-01 -2.28302047e-01 +1.62336931e-01 +4.87301201e-02 +1.48759708e-01 +1.02902867e-01 -7.22237304e-02 -1.80585280e-01 +5.94782233e-02 +2.84199923e-01 -3.35143387e-01 +8.70979682e-04 +1.25270449e-02 -1.16937086e-01 +5.29915430e-02 -8.31930220e-01 +3.70016806e-02 -1.37783408e-01 -2.25938503e-02 +2.81495508e-02 +1.00831084e-01 -5.13938844e-01 +2.77496666e-01 -2.77303290e-02 -1.34309277e-01 -4.31600451e-01 -6.56287968e-02 -7.28568137e-01 +6.20081782e-01 +1.90496862e-01 -2.46863425e-01 +4.92866814e-01 +1.51827872e-01 -2.00507253e-01 -5.92455149e-01 -4.25703228e-01 +2.69351661e-01 +7.78302252e-01 -4.95070428e-01 -8.21192682e-01 -1.55126899e-01 -2.97109753e-01 -2.25045040e-01 -3.14739734e-01 +1.75793648e-01 +2.40585163e-01 -7.41748884e-02 -7.58561790e-02 -2.45353356e-02 -4.88423645e-01 -1.89966008e-01 -2.82328397e-01 +6.90199658e-02 +2.35722929e-01 -3.77230465e-01 -5.09000361e-01 -1.96472287e-01 +3.60470936e-02 +1.23309605e-01 +2.86307216e-01 -1.95487767e-01 +2.57076234e-01 +3.69050354e-01 +1.68855526e-02 -2.24015176e-01 -2.99959958e-01 +5.06372988e-01 +1.62349328e-01 +1.23495877e+00 -5.01468897e-01 -4.30516392e-01 +6.13679588e-01 -2.15180382e-01 +1.16201985e+00 -2.28835925e-01 -6.36673927e-01 +4.55939770e-01 -7.59902075e-02 -1.47156253e-01 -6.14621937e-01 -6.31693840e-01 +7.67267123e-02 -2.01914102e-01 +1.44325634e-02 +6.02406085e-01 -1.51231438e-01 +1.25183612e-01 +1.91683605e-01 -7.26791546e-02 -1.57755166e-01 -7.53494501e-02 +1.13008118e+00 +8.34978670e-02 -1.99873134e-01 +2.78296024e-01 +1.41145968e+00 -4.84985918e-01 +3.72656673e-01 +4.14104640e-01 +1.93208560e-01 +4.19847637e-01 +1.81024730e-01 -4.75983739e-01 -1.16775297e-01 +1.35646507e-01 +2.32882425e-01 +6.81767404e-01 +2.25608543e-01 +7.82369152e-02 -7.62800932e-01 +1.25338063e-01 +4.13534433e-01 +4.36775506e-01 -3.03653389e-01 +4.44869518e-01 +3.25493664e-01 +3.50251317e-01 -3.04915398e-01 -2.53618479e-01 -2.84539700e-01 +4.33019906e-01 +2.50123769e-01 +2.94060498e-01 +1.46270514e-01 -5.69631517e-01 +1.50070429e-01 +6.15513474e-02 -3.03030983e-02 -1.05278015e+00 +1.38627335e-01 -1.52698740e-01 +2.58996904e-01 -1.63921162e-01 -7.03650415e-02 -3.21875955e-03 -8.47508162e-02 -1.42063335e-01 -1.85455948e-01 +1.72447249e-01 -5.85861085e-03 +4.91808563e-01 -4.65728581e-01 -6.35482147e-02 +1.68053329e-01 -1.09976284e-01 +1.31680012e-01 -5.30243590e-02 -1.90100912e-02 -1.12799749e-01 +9.85081017e-01 +2.15723485e-01 +1.84902340e-01 -6.37474597e-01 -2.72144765e-01 -2.56227195e-01 -2.14613806e-02 +3.60985190e-01 -9.21327025e-02 -4.67799939e-02 +2.94098854e-01 +5.65361321e-01 +2.08129480e-01 +2.49780193e-01 +1.12457991e+00 +6.52557090e-02 +8.54565874e-02 -4.87355858e-01 +1.34592757e-01 -4.21561837e-01 -1.35704887e+00 +4.65662867e-01 -3.40427369e-01 +1.18566908e-01 -4.70275849e-01 -5.52847743e-01 -1.52368367e+00 +3.54452878e-02 -1.36230677e-01 -1.08874118e+00 +1.22239745e+00 -4.35469538e-01 -7.75330305e-01 +3.45231034e-02 +1.17854273e+00 -3.30009133e-01 +5.65232523e-03 +1.97352052e-01 +6.26827702e-02 +1.13359094e-01 -2.05181733e-01 -1.23592272e-01 +5.49671724e-02 +9.63495895e-02 -6.81181327e-02 +7.67802298e-02 -1.68763503e-01 +8.11064243e-02 +1.59615651e-01 +4.99386042e-02 +5.01754731e-02 +1.42272338e-02 +8.38975981e-02 +9.85148996e-02 +2.67469674e-01 -1.37380706e-02 +1.84240378e-02 -2.99692333e-01 -6.24749780e-01 -4.47750866e-01 +1.64355878e-02 +1.24943540e-01 +6.47831932e-02 -3.53197634e-01 +1.82687670e-01 +3.58958721e-01 +1.31754160e-01 +1.14769749e-01 -5.82245290e-01 -2.18939885e-01 -1.13469779e+00 +1.14248052e-01 -8.24108049e-02 +4.84723866e-01 -2.48762872e-02 +2.43293718e-01 +1.82847038e-01 +9.25577525e-03 -1.75095284e+00 +4.75433171e-01 -7.55789280e-01 -2.58829445e-01 -1.06241822e-01 -3.04387540e-01 -5.49323082e-01 -6.45842254e-02 +4.82343912e-01 -4.06729341e-01 +1.56058207e-01 -9.54321623e-02 -1.49898320e-01 +2.66215717e-03 -2.10692763e-01 -7.40802437e-02 +1.48399115e-01 +2.25688592e-01 -3.55341107e-01 -3.80843580e-02 +5.05537130e-02 -5.48189104e-01 +1.27601653e-01 -1.77194431e-01 +9.59250331e-02 -1.29987404e-01 +9.10420120e-01 -5.37388176e-02 +1.74920578e-02 -2.10279897e-01 -9.46607906e-03 +5.98417595e-03 +3.21526915e-01 +1.81649402e-02 -1.53176010e-01 -1.34973556e-01 +7.14671612e-01 +2.71703571e-01 -6.30123243e-02 +6.31940886e-02 +8.54745209e-01 +8.79169106e-02 -2.08071783e-01 -2.39482790e-01 +2.57792205e-01 +8.56721401e-02 +1.09175697e-01 +6.24401689e-01 -2.60599613e-01 -1.71701714e-01 -1.08461753e-01 +4.25349474e-01 +1.15133837e-01 +4.85238694e-02 -1.61787912e-01 +3.06445003e-01 -1.25084376e+00 +6.18698418e-01 +3.59391689e-01 +5.48740327e-01 +2.35006958e-01 +9.63195324e-01 -9.04478207e-02 +3.55083292e-04 -1.96588725e-01 -7.81723931e-02 +1.72904044e-01 -2.61918008e-01 +9.95360836e-02 -8.92361403e-02 -9.28434372e-01 -2.47049481e-02 -1.50489300e-01 -3.75018179e-01 +6.52040303e-01 -2.26764396e-01 -2.79386163e-01 +1.95628077e-01 -3.03070903e-01 -5.96646190e-01 -7.77982175e-02 +2.76489556e-01 +1.11003809e-01 -1.45545453e-01 +5.04667521e-01 -5.24771750e-01 +6.14539012e-02 -1.48910031e-01 -1.10572629e-01 -3.63597088e-02 +3.85292917e-01 +7.45444074e-02 +9.49412137e-02 -1.16896316e-01 -1.71172246e-01 +1.05749086e-01 -1.50351405e-01 +4.83485579e-01 -2.55815208e-01 -2.09536403e-01 +2.61996299e-01 +4.89529431e-01 +2.56774098e-01 +1.96573045e-03 +3.97243589e-01 -2.18544647e-01 +2.61741817e-01 -1.65924355e-01 -1.53151542e-01 +1.06367625e-01 +3.75742130e-02 +2.20949039e-01 -1.58175677e-01 +2.95628637e-01 +1.00981258e-01 +4.75954890e-01 +2.27464736e-02 +3.35014518e-03 +8.41364190e-02 -2.31725782e-01 -6.41724050e-01 +3.39251608e-01 -4.50154915e-02 +1.25844643e-01 +3.37981194e-01 +3.55521709e-01 -1.19526908e-01 -1.43290162e-01 -6.95892334e-01 +3.82218271e-01 +7.20520243e-02 -4.64599840e-02 -1.77308708e-01 -5.17172277e-01 -2.73688138e-01 -2.12886438e-01 +1.46133071e-02 +1.14026919e-01 +1.63291290e-01 -9.88443345e-02 +9.16958675e-02 -6.00601792e-01 +2.19302043e-01 -3.18261772e-01 -4.43769455e-01 -7.09421277e-01 -3.70711423e-02 +1.82228446e-01 -8.03354502e-01 -1.69433236e-01 -8.84379819e-02 +1.05049744e-01 -1.29792094e-01 +7.10373744e-02 +4.02330220e-01 +2.18128026e-01 -4.59108092e-02 -3.14542115e-01 -3.20386231e-01 +3.68758112e-01 +3.56356837e-02 +4.74519134e-01 -3.98963660e-01 -4.41206306e-01 +7.68843174e-01 -3.00571322e-01 +4.99201298e-01 -8.77069831e-02 -6.46632537e-02 +1.16635546e-01 -1.08010620e-01 -5.79954088e-01 -4.58475232e-01 -3.93538654e-01 +2.31470093e-01 +1.03435069e-01 +3.27809975e-02 +3.31212819e-01 +7.38463132e-03 +3.52260888e-01 +3.83672237e-01 +1.33912399e-01 +4.06497270e-02 -4.13227439e-01 +6.12546802e-01 -7.45526314e-01 -6.17991328e-01 +1.68212280e-01 +6.85744464e-01 -6.26642704e-01 +3.30898076e-01 +1.63883299e-01 +3.32268059e-01 +2.26675227e-01 -2.75762528e-01 -1.45686731e-01 +8.85138288e-02 +7.68965259e-02 +9.66029346e-01 +4.93978858e-01 +3.48701537e-01 +1.15483738e-01 -3.39510977e-01 -1.40644982e-01 +3.98059070e-01 -3.29923898e-01 +8.74970704e-02 +2.03564978e+00 +8.75434577e-01 +8.08227241e-01 +1.70524940e-01 +1.06699854e-01 +2.48915702e-01 +4.86067742e-01 +1.23671681e-01 +2.32751489e-01 +1.47925079e-01 -5.20163238e-01 -7.80280828e-02 -1.74701095e-01 +2.77331267e-02 -4.29549515e-01 -3.21570821e-02 -1.13803558e-01 +1.87450632e-01 -2.47210696e-01 +2.74344444e-01 +7.07402304e-02 +8.65223333e-02 -2.49366879e-01 -1.56428844e-01 -2.00230941e-01 -1.19164005e-01 -1.77917987e-01 -1.32966563e-01 +1.90557152e-01 +8.57329309e-01 +1.93923399e-01 -1.38768703e-01 -2.21719384e-01 -6.50074854e-02 +1.13172673e-01 -1.70457736e-01 -5.61922371e-01 -7.05001056e-02 -2.75625795e-01 +5.90440154e-01 +5.90477824e-01 +8.70859027e-01 +3.66158247e-01 +9.78917181e-02 -1.24069631e-01 -2.02124760e-01 +4.14847791e-01 -2.75743067e-01 -3.01247150e-01 +1.07913327e+00 -6.78813040e-01 +5.15136123e-01 +3.58003020e-01 -1.18673839e-01 +5.35928249e-01 +5.21009743e-01 +8.36851895e-02 -6.08862400e-01 +9.18071195e-02 -4.66707759e-02 -1.17095374e-02 -7.08899053e-04 +1.02874227e-01 +6.31564949e-03 +1.49665967e-01 +2.68693626e-01 -1.40141159e-01 +4.95963901e-01 -1.55300632e-01 +1.33874059e-01 +5.83703458e-01 -6.04008697e-02 +1.21315764e-02 +4.62828763e-02 +1.94626734e-01 -1.12659717e+00 -2.76148296e-03 -9.29395854e-03 +4.20688719e-01 -1.36446289e-03 +5.37344590e-02 +1.47989783e-02 +7.85643011e-02 +2.52505660e-01 +1.60863012e-01 -9.49158967e-01 -4.48220670e-02 -3.12058806e-01 +3.71339560e-01 -7.36032784e-01 -3.08788717e-01 +1.89656094e-01 +5.35936952e-01 +3.84358689e-02 +2.18860120e-01 -4.80172396e-01 +2.00857386e-01 +8.15000534e-01 -2.53685594e-01 +1.39843047e-01 -2.18759298e-01 -3.20193410e-01 +5.34260608e-02 +4.83673841e-01 +3.77024859e-01 -3.52681667e-01 -1.98097788e-02 +2.97178745e-01 -1.27871171e-01 -2.34320338e-04 -3.95606011e-01 +3.25336844e-01 +5.51147938e-01 -6.88357294e-01 -1.94697708e-01 +1.15954190e-01 +7.22812042e-02 +5.50158262e-01 -4.20357823e-01 -2.58412331e-01 -1.34788463e-02 +2.21322536e-01 +2.91480541e-01 +1.68122336e-01 +5.41742332e-02 -5.36941774e-02 -4.38029654e-02 -1.44888461e-01 -3.82988900e-01 -5.49617767e-01 +1.60690561e-01 -2.17263237e-01 -5.87465577e-02 -2.18287006e-01 -2.39902318e-01 -2.13423431e-01 +8.27053338e-02 +1.05121098e-01 +7.95604810e-02 +9.47411656e-02 +3.86563763e-02 +2.97584653e-01 +4.31292176e-01 +1.34396330e-02 -1.01464055e-01 -8.35655257e-02 -1.72800347e-01 -1.44503728e-01 +8.27731267e-02 -3.97739410e-02 -9.21322331e-02 -7.39380300e-01 +1.84793994e-01 +1.81178078e-01 +8.47508311e-02 -2.14746386e-01 +2.56891418e-02 +1.13930121e-01 +2.66243368e-01 -1.02191590e-01 -2.82042450e-03 -5.87381721e-01 -8.24789405e-02 +5.44962823e-01 +1.58335850e-01 +1.13668315e-01 -9.29520190e-01 -1.25292194e+00 +8.23208317e-03 -8.78048182e-01 +3.80564362e-01 -3.44219878e-02 -3.68170381e-01 -2.82156557e-01 +4.33298856e-01 -9.68204439e-01 -9.56157804e-01 +4.94339019e-01 -2.03673556e-01 -2.62409061e-01 -3.45867872e-02 -1.83226645e-01 +9.23700705e-02 -1.41922009e+00 -2.64373332e-01 -9.30033445e-01 +2.20871970e-01 +4.14984524e-01 -1.14273894e+00 -1.35296345e+00 -3.24287742e-01 -2.18374997e-01 -1.43716371e+00 +2.07630500e-01 -7.24602818e-01 +1.69865713e-02 -2.22469881e-01 +2.89011910e-03 +1.55533804e-02 -4.28307503e-02 -3.15908879e-01 -2.98937827e-01 +3.98104101e-01 -8.93793523e-01 -8.94794837e-02 +6.50054812e-02 +4.11236197e-01 -1.61153927e-01 +2.41877794e-01 -2.68510789e-01 +1.07256196e-01 +1.17026754e-01 +5.79161122e-02 -1.05523713e-01 +4.99594770e-02 -4.48692948e-01 -2.41824329e-01 +3.32535267e-01 -3.12165469e-01 -5.53713799e-01 -6.22313321e-01 +5.51981449e-01 +5.84597826e-01 -1.72830194e-01 +2.18808219e-01 -2.88544893e-02 +4.09115195e-01 +6.16824515e-02 -2.47410685e-01 -1.77647322e-01 -1.31962419e+00 -5.01229823e-01 +2.90127277e-01 -8.86834800e-01 +9.69783068e-01 +2.57584900e-02 +4.10769463e-01 -7.34483123e-01 +8.33042145e-01 -1.78002334e+00 -1.33515596e+00 +1.93665139e-02 -3.09082717e-01 +4.96895581e-01 -8.04639578e-01 -4.72049080e-02 -3.91811989e-02 -3.06960374e-01 -3.33010763e-01 -7.01747715e-01 +2.89598048e-01 +1.42538279e-01 -6.30826235e-01 -1.00972104e+00 -3.18408236e-02 +2.13526338e-01 -1.36136502e-01 +7.53895283e-01 -2.40702793e-01 -2.01828927e-01 -2.58818008e-02 +5.68973124e-01 +2.19574764e-01 -2.26935633e-02 +1.60516798e-01 +3.05786848e-01 +2.24436209e-01 -4.07207340e-01 -6.15910530e-01 +1.74954198e-02 +1.08877718e-01 -8.53005052e-01 +5.92915952e-01 +7.94083476e-01 +2.65706360e-01 +3.03008437e-01 -1.61318734e-01 +1.44506037e-01 -3.05599242e-01 -3.48119110e-01 +1.73144490e-01 +1.68391541e-01 -1.10099770e-01 +1.04070209e-01 +6.85495185e-03 +1.22473173e-01 +1.88629746e-01 -1.04720920e-01 -1.03198951e-02 -4.40492406e-02 +2.81307459e-01 +3.35790098e-01 +2.05189243e-01 -1.17152698e-01 -2.66139135e-02 +2.84772366e-01 -5.82139850e-01 -5.45920789e-01 -2.54174441e-01 +1.00073792e-01 -3.38814348e-01 -4.58907098e-01 -4.23700809e-02 -3.48316014e-01 -1.89059764e-01 +2.30005577e-01 +5.44591583e-02 +2.31918082e-01 -1.09852038e-01 +4.57142323e-01 -6.09886289e-01 +6.06035888e-01 -2.37909824e-01 -1.98699068e-02 +4.51737761e-01 -4.34659928e-01 +2.89984792e-01 +1.94631591e-01 -2.50831008e-01 +9.14930880e-01 +4.87042904e-01 -4.26897466e-01 -5.53637743e-01 -2.61644751e-01 +3.22240293e-01 -1.33595437e-01 -3.87804598e-01 -3.11065346e-01 +3.94387126e-01 -3.37344706e-02 +1.09266013e-01 -4.40694466e-02 -3.44987623e-02 -1.34031415e-01 -3.95471007e-02 -3.71775717e-01 +3.61140043e-01 +4.26075794e-02 +1.41267003e-02 +9.39390957e-02 +8.94418955e-02 +2.36116096e-01 -1.14113283e+00 -5.28248549e-01 +1.62958458e-01 +9.15219560e-02 +2.17417106e-01 +4.15179491e-01 -6.72550261e-01 +3.87892902e-01 +2.21890152e-01 -1.17610745e-01 -1.12370417e-01 -1.98272571e-01 -5.52422047e-01 +3.73102337e-01 -1.65733472e-01 -1.93245150e-02 -5.02821565e-01 +4.41098988e-01 +1.89651653e-01 +5.12379766e-01 -4.12589461e-01 -1.96368098e+00 +6.68450296e-01 -9.73508894e-01 +3.85943741e-01 +1.20364755e-01 +2.90888786e-01 +2.51985312e-01 -1.37567580e-01 -8.61202478e-01 +1.20915435e-01 +9.15395692e-02 +1.59942120e-01 +5.95921762e-02 -5.36601543e-02 -1.03943616e-01 +9.93505418e-02 -5.17857015e-01 -9.60715950e-01 -1.59512490e-01 -1.52404368e-01 +5.95634520e-01 -9.46850240e-01 +4.10848558e-01 -5.83932340e-01 -6.15911245e-01 +2.94560999e-01 +2.28045970e-01 +1.48422763e-01 -4.42842916e-02 -3.11132502e-02 -3.63512218e-01 +3.61876070e-01 -5.82703948e-01 -2.75046200e-01 -4.18129891e-01 +3.05538476e-01 -9.53309238e-02 -2.01360166e-01 -3.16362865e-02 -1.43508881e-01 +5.08467294e-02 +2.56881118e-01 -2.78788805e-01 +9.25143808e-02 -2.06111714e-01 -7.53086497e-05 -3.58347148e-01 +1.37269258e-01 +2.74662882e-01 +4.80674319e-02 -3.21017802e-01 +1.94751948e-01 -1.85165867e-01 -8.55077337e-03 +1.50908753e-01 +2.14629591e-01 +2.04053223e-01 +3.15693736e-01 -1.55204743e-01 -5.92892244e-02 +3.29047740e-01 -9.76074859e-02 +1.35478213e-01 -1.84863612e-01 -4.12032127e-01 -5.44387758e-01 +3.32687870e-02 -5.68743087e-02 -2.79481024e-01 +3.95866871e-01 +3.62895161e-01 -1.74724713e-01 +2.79689878e-01 -1.02274679e-01 +3.90385509e-01 -3.86601947e-02 +1.85828909e-01 -1.19534351e-01 +5.27076781e-01 +7.64714062e-01 -6.96491838e-01 +3.08105618e-01 +6.04328560e-03 -2.62918591e-01 +8.67628872e-01 +2.72485286e-01 -6.15208969e-02 -5.61099291e-01 -9.43288952e-02 +4.15016621e-01 -3.56564105e-01 +1.15713052e-01 -3.12780499e-01 +6.12360954e-01 -5.91306426e-02 +5.69574200e-02 -1.42252013e-01 +1.49077764e-02 +1.41806975e-01 +1.43194392e-01 -9.91298407e-02 +1.80404663e-01 -2.16974303e-01 -4.88848090e-02 +1.78184763e-01 +7.95830041e-02 +1.22676797e-01 -9.42772150e-01 -4.94587243e-01 +3.63685131e-01 -5.89148462e-01 -7.76449859e-01 +4.48399663e-01 +7.61501729e-01 +3.30008715e-01 +1.83957294e-01 -3.88803691e-01 +3.09544262e-02 +1.74301609e-01 +1.06274541e-02 +6.33260727e-01 -1.15379386e-01 -2.52371728e-01 +7.73294643e-02 +1.26944140e-01 +1.18312761e-01 -1.42922893e-01 +3.22491258e-01 -2.03603595e-01 +9.58029628e-02 -8.00727844e-01 +9.73650590e-02 -1.49451792e-01 -2.97001153e-01 -6.60541475e-01 -6.40609190e-02 -9.51496512e-03 +1.63832083e-02 +5.03234446e-01 -6.11411214e-01 +7.40225241e-03 -2.07692072e-01 +6.29212797e-01 +3.16309154e-01 +1.83688432e-01 +3.88067449e-03 -8.04089662e-03 -7.41339087e-01 +4.93170559e-01 +2.82456785e-01 +1.35686491e-02 -4.92513865e-01 -6.31778240e-01 +3.42856169e-01 -4.16842431e-01 -3.53099823e-01 -1.62832707e-01 -9.34941843e-02 +2.87902474e-01 +1.26126707e-01 -9.78787392e-02 -4.99949276e-01 +2.38733634e-01 +2.19712153e-01 +1.25659220e-02 +7.67535642e-02 +2.55066484e-01 -1.59999639e-01 +1.37834668e-01 +1.90462381e-01 -5.22345379e-02 -1.16599701e-01 -7.87896365e-02 -3.66666675e-01 -1.62941009e-01 +3.26350302e-01 -2.33257174e-01 +1.68603554e-01 +3.55401397e-01 +4.22980368e-01 +6.29365146e-02 -1.38380393e-01 -2.16716915e-01 +2.77578801e-01 -5.61388247e-02 -2.98867375e-01 +2.00618848e-01 -1.55690730e-01 +1.29938856e-01 +1.19006701e-01 +3.01597983e-01 +9.23532665e-01 +4.99512792e-01 -4.57925916e-01 +7.92849183e-01 +9.80262101e-01 +3.67257334e-02 +8.90587643e-02 +1.33156633e+00 -1.05179119e+00 +3.13786268e-01 +5.15579581e-01 -2.39363194e-01 +3.33993614e-01 -4.87321466e-01 +5.24051413e-02 -1.04156148e+00 +2.42263705e-01 -5.09770475e-02 -2.04736456e-01 +1.78607717e-01 +1.04156017e+00 -4.36861634e-01 -2.87088305e-01 -2.05883637e-01 -7.31732488e-01 +1.09716758e-01 -3.35361928e-01 -2.51307953e-02 +4.65845950e-02 -1.47469893e-01 +1.91989034e-01 -1.60541788e-01 +8.08888376e-01 -8.40365767e-01 +1.43168345e-01 -2.36467868e-02 +5.53274691e-01 +3.18504386e-02 +1.02286890e-01 -6.19506836e-01 +2.22194746e-01 -2.26568103e-01 +4.58114743e-02 -3.01473767e-01 -1.47820815e-01 -4.10413831e-01 -6.99416772e-02 +6.52065054e-02 -1.11039810e-01 -2.28196844e-01 -2.78988302e-01 +3.35503072e-01 -1.90886676e-01 -2.57885158e-01 +6.11859560e-02 -2.07166389e-01 -6.58553019e-02 -1.78140819e-01 -1.18214810e+00 +7.92773366e-02 +2.68262401e-02 -4.93493557e-01 +8.81586432e-01 -4.55344319e-01 +3.43618721e-01 +6.97572483e-03 +7.61849403e-01 +1.57323390e-01 +8.70798409e-01 +5.72477952e-02 -5.76063544e-02 -2.70140707e-04 -2.78900504e-01 -1.06722131e-01 +3.86992007e-01 -2.35103041e-01 +6.52063727e-01 -2.17959568e-01 +5.60279265e-02 -1.73764810e-01 -5.36809444e-01 +2.19273835e-01 -3.78404289e-01 -2.38715187e-01 +1.82155430e-01 -5.46302319e-01 -3.58318985e-01 +2.40838706e-01 +3.74889642e-01 +3.01526040e-01 -2.06180915e-01 +5.11666834e-01 +4.41345712e-03 +6.54089004e-02 -1.15461445e+00 +4.14621383e-02 +2.56671935e-01 +2.08773091e-02 +2.00890135e-02 +1.29849494e-01 +1.65218249e-01 +8.64295512e-02 -1.65486872e-01 -7.35128596e-02 +1.49850808e-02 -3.85976881e-02 -8.34185444e-03 -1.94126070e-01 +1.70008779e+00 +3.60924602e-02 +8.19383487e-02 +3.77797276e-01 -8.90116096e-02 -1.66553289e-01 -6.77442700e-02 -3.96314681e-01 -3.56775492e-01 +2.00327009e-01 +1.47755980e-01 +5.00388667e-02 -5.97745359e-01 -1.99845955e-01 +2.59375125e-02 +2.76095778e-01 +2.23386332e-01 -2.39969790e-01 -2.33162969e-01 -1.21339333e+00 +1.74439549e-01 +2.74235576e-01 +2.23250479e-01 -9.58898365e-02 +2.48946965e-01 +1.95759144e-02 -1.62862703e-01 -8.64530087e-01 +1.67720020e-01 -1.00507796e+00 -1.43659590e-02 -1.38186395e-01 +1.58346400e-01 -3.99749696e-01 -1.11402206e-01 +1.51717871e-01 -4.08575982e-01 +3.40600282e-01 +9.08816513e-03 -8.47551152e-02 +1.62549123e-01 -2.65933305e-01 +2.14845464e-02 +1.43759638e-01 +1.66300088e-01 +7.40032527e-04 +1.63188446e-02 +3.63177434e-02 -2.69057006e-01 +1.52342603e-01 -2.26499602e-01 +9.99777988e-02 -6.58370089e-03 +4.95149463e-01 -2.64966749e-02 -9.04771686e-03 -1.18788101e-01 +3.25607993e-02 +2.68603042e-02 +3.88663709e-01 +1.86453208e-01 -4.94330414e-02 -5.37417457e-02 +4.25419062e-01 +4.09908444e-01 +5.25928617e-01 -1.98842466e-01 -5.36555827e-01 -1.20610289e-01 +1.92782208e-01 +2.73611963e-01 -6.98929429e-01 -6.91069543e-01 -3.62208873e-01 -8.86511803e-02 +2.24966213e-01 +1.13728106e-01 +5.13790607e-01 +5.46947837e-01 -2.07133159e-01 +7.52367452e-02 -6.32859588e-01 -1.52783036e-01 +8.53789806e-01 +6.80586025e-02 -3.27128805e-02 -4.79843944e-01 +8.29830408e-01 -5.07219791e-01 +3.26919034e-02 -2.21195459e-01 -2.23011076e-01 +1.21895447e-01 +6.25548065e-02 -8.87803555e-01 +3.77304137e-01 -5.30076265e-01 +1.57977398e-02 -2.47787144e-02 +6.36044562e-01 +2.86401629e-01 -1.74289361e-01 +7.51112103e-02 -2.20635861e-01 -5.81916571e-01 +8.84416774e-02 +1.86333209e-01 +1.75113484e-01 +2.79555410e-01 -2.65329462e-02 +3.44555348e-01 -4.43574935e-01 -5.39529696e-02 +4.42619994e-02 +2.88997114e-01 +5.94073653e-01 -4.78715241e-01 +1.12452850e-01 +1.91357508e-02 +1.55733809e-01 -2.80741416e-02 +6.09324314e-03 +3.34897339e-02 +3.46913546e-01 -1.89849168e-01 +2.37886101e-01 -4.55831513e-02 +6.94399104e-02 -2.05597848e-01 +1.59298062e-01 -3.55025738e-01 -7.38527551e-02 -4.81464639e-02 +5.77059500e-02 +1.60117939e-01 -2.09391817e-01 -1.15044050e-01 +5.41890636e-02 -1.47791117e-01 -1.97682939e-02 +1.70702294e-01 -6.30768955e-01 -2.20761076e-01 +7.39726573e-02 +1.60753489e-01 +4.51115370e-01 +1.32139429e-01 +7.80659258e-01 -2.61771560e-01 +4.09257829e-01 -6.12576663e-01 +3.38200033e-01 -4.39827532e-01 -2.53214061e-01 +2.59511650e-01 +1.15766573e+00 +5.23537956e-02 +4.63036746e-01 +2.71857053e-01 -3.11231494e-01 +3.48340929e-01 +1.54052222e+00 +2.88596321e-02 +1.44095585e-01 -1.28973141e-01 +9.25836526e-03 +6.89408541e-01 +1.25935042e+00 +4.47215885e-01 +2.93356448e-01 +1.57899499e+00 -5.19512355e-01 +1.95673987e-01 +1.09668660e+00 +1.59173861e-01 -2.15386719e-01 +2.10208967e-01 -3.44932824e-02 +4.02099907e-01 -5.24953492e-02 -1.02434978e-01 -6.71304688e-02 +2.70492524e-01 -2.44753901e-02 -8.08347762e-02 +4.78609763e-02 -5.17929718e-02 -2.39682674e-01 -3.51409316e-02 +9.90480632e-02 -3.76607515e-02 -1.31218746e-01 -1.30744755e-01 +2.61621028e-01 -2.73291431e-02 -5.26155114e-01 +4.22443211e-01 +3.49193454e-01 -8.75012353e-02 -1.94011167e-01 -1.49724483e-01 -3.01818877e-01 -1.38760522e-01 -5.50162978e-02 -8.42117071e-02 +1.93390384e-01 -1.86482340e-01 -5.93920983e-02 -1.72296092e-01 +7.72460163e-01 -4.82991524e-02 +1.54701293e+00 -3.98417562e-01 -1.36734819e+00 -3.07288766e-01 +5.05158976e-02 -2.19222784e-01 +3.04240845e-02 +3.17503989e-01 +3.48804563e-01 +1.16414882e-01 +3.36985737e-01 -2.09982887e-01 +2.07780376e-01 -1.67318866e-01 +2.56966352e-01 +1.85320497e-01 +2.02764615e-01 +2.33379140e-01 -9.69351470e-01 +3.50033551e-01 +5.77993393e-01 +2.73285657e-01 +3.88818592e-01 +2.17536032e-01 -2.09133163e-01 +2.34127700e-01 +2.61363965e-02 +1.92440838e-01 -1.36530563e-01 +1.20044008e-01 -1.53327202e-02 +2.69853711e-01 -6.09731339e-02 -2.29221536e-03 -2.21198037e-01 +3.33245583e-02 -8.90899301e-02 -2.03697830e-01 -1.82658900e-02 -1.47610947e-01 -3.71791199e-02 -1.61412328e-01 +6.72925711e-02 +3.26780677e-01 -1.50931567e-01 -1.05480783e-01 -5.62623978e-01 +4.13719445e-01 +8.29128742e-01 -2.64097959e-01 -1.68338761e-01 -6.66777313e-01 +2.87879705e-01 +2.17788428e-01 +8.64712447e-02 +1.57587603e-01 -1.04706302e-01 -1.42161012e-01 -7.69108161e-02 +4.37122881e-02 -2.91177612e-02 -7.17840940e-02 -5.31497836e-01 -1.47164628e-01 -1.26315117e+00 +3.97554711e-02 -2.38940820e-01 +1.33092487e+00 -2.69701540e-01 +2.50261486e-01 +1.63587406e-01 -3.85178864e-01 -1.61917031e-01 -6.11928552e-02 -3.27737629e-01 +1.88875586e-01 -2.72408277e-01 +8.20959434e-02 -1.07127893e+00 -1.09618276e-01 -4.46428001e-01 -3.45435768e-01 +3.14481288e-01 -1.04329348e+00 -8.96816671e-01 -2.45509163e-01 -1.76999837e-01 -1.57494700e+00 +6.76405311e-01 +2.00167242e-02 -1.51874691e-01 -4.55513149e-01 +4.02608365e-01 +1.54336505e-02 +1.39175765e-02 -7.74928987e-01 -3.03227186e-01 +1.10560991e-01 -1.30189275e-02 -1.99803278e-01 -4.19796146e-02 +8.29560086e-02 -4.46273461e-02 +9.21509787e-02 -6.72988370e-02 +6.40313178e-02 -6.49713203e-02 -8.46893340e-02 +1.92339152e-01 +2.97604889e-01 -3.66593432e-03 +2.72710949e-01 -8.61182436e-02 -3.95030916e-01 -7.07138330e-02 +5.51421046e-01 -2.40794316e-01 -1.78464979e-01 -1.58971682e-01 +1.14289254e-01 +4.31595832e-01 -4.70383346e-01 +6.43113971e-01 -3.50737944e-02 -3.81317616e-01 +4.28314209e-02 -6.17761970e-01 +5.43062150e-01 -6.08104281e-02 +2.57340848e-01 -1.53236404e-01 -4.19163108e-01 -4.20252383e-01 +7.20902681e-01 +3.57857347e-02 +1.00243062e-01 -9.42052543e-01 +1.09534569e-01 -1.23048043e+00 +3.48135412e-01 +2.65159577e-01 -2.49442786e-01 -5.49254537e-01 +3.33872169e-01 +3.54153335e-01 -7.04241544e-02 +6.62431419e-01 -1.22937553e-01 -6.74999118e-01 -4.17269945e-01 -3.23262483e-01 -3.16653222e-01 +1.24226615e-01 -9.60508943e-01 -3.80588442e-01 -2.04390392e-01 -3.30812663e-01 -1.16797253e-01 -1.21068329e-01 -6.55129701e-02 +9.13913026e-02 -3.83585170e-02 -5.40944226e-02 -1.88113332e-01 +3.98682535e-01 +4.92814749e-01 +2.23775372e-01 +3.95273836e-03 -3.01262550e-02 -2.41975486e-01 +1.45204350e-01 -1.01200119e-01 -8.92400369e-03 +1.51998043e-01 -3.02135557e-01 +7.82357305e-02 +3.99384052e-01 +4.57766414e-01 +1.01838503e-02 -3.53508443e-01 +4.23260778e-01 +1.33413747e-01 +5.74246049e-01 +3.50127280e-01 -1.76115721e-01 -4.05041397e-01 -6.87439263e-01 -1.30236298e-01 +5.43741047e-01 +2.47994646e-01 +5.60682952e-01 -3.51410240e-01 +2.18557529e-02 -6.87113345e-01 -2.64085829e-01 +7.75964737e-01 -5.45538664e-01 -2.52229244e-01 +5.41510224e-01 +1.57028660e-01 -9.03846547e-02 +1.07098430e-01 -4.01473999e-01 +1.28399777e+00 -6.25470757e-01 +2.36835510e-01 +3.20512265e-01 +1.62364721e-01 +1.54255897e-01 +1.51029766e-01 +1.84195563e-02 +2.94645011e-01 +1.16239107e+00 +1.13383782e+00 +8.00575435e-01 +7.65258491e-01 -3.06227744e-01 +3.26574683e-01 -3.94577801e-01 +9.78730693e-02 +4.81385887e-02 +3.31446618e-01 +3.23967598e-02 -9.76261795e-02 -6.02888286e-01 +2.27622822e-01 -5.85773848e-02 +2.09687576e-01 -2.92758673e-01 +1.15327127e-01 +1.98732391e-01 -2.62820780e-01 -2.90711105e-01 -1.48594985e-02 -2.90634483e-01 +3.38101685e-02 -1.11911230e-01 +1.01665877e-01 -4.09566700e-01 -1.43960506e-01 -9.18522120e-01 +8.39071050e-02 +3.33844833e-02 +6.73210680e-01 +1.29457533e-01 -5.54752462e-02 -3.72892201e-01 -2.41896421e-01 -1.74543321e-01 +3.70588839e-01 +1.78060047e-02 -8.23426396e-02 +2.48453751e-01 +5.42486489e-01 +3.38079304e-01 -5.59536934e-01 +3.12194020e-01 -1.11452818e+00 +5.04086614e-01 -9.62712884e-01 +6.86500907e-01 -1.04610002e+00 +9.96345580e-02 +6.30633175e-01 +2.81336367e-01 +3.41104835e-01 +7.91889369e-01 +5.07078826e-01 +1.09144771e+00 -1.02926165e-01 +2.50410587e-01 -3.61610144e-01 +1.93805080e-02 +3.90113324e-01 -4.14670885e-01 -1.99203387e-01 -1.99391112e-01 -3.45535457e-01 +3.88565272e-01 -8.14386383e-02 -6.52115464e-01 +2.60642678e-01 +5.68885326e-01 +1.50196820e-01 -7.55791068e-01 +1.92341864e-01 -1.83283716e-01 +1.92162856e-01 +1.80492997e-02 -1.01212569e-01 -1.17614478e-01 +2.84560502e-01 +5.25938392e-01 -7.81808123e-02 +1.09217860e-01 -1.62514821e-01 -5.08561969e-01 -3.18287313e-01 +6.55589998e-02 +1.55390203e-01 -1.99086949e-01 -4.80445504e-01 -2.97357410e-01 -2.58912414e-01 +3.95745665e-01 +3.01249951e-01 -1.88041806e-01 -3.20819199e-01 -2.76197046e-02 +3.07083093e-02 +1.79181218e-01 +1.51955456e-01 +1.50546245e-03 +1.63377255e-01 +3.06978047e-01 +2.60832369e-01 +3.33871245e-01 -1.46469176e+00 -1.52215660e+00 +1.27473980e-01 +1.56743079e-01 +6.20144188e-01 -1.27699006e+00 +1.12259650e+00 -4.46125388e-01 +7.77631223e-01 -1.47603226e+00 -1.32914758e+00 +3.08148235e-01 -7.77525008e-02 -2.37533405e-01 -5.61901391e-01 -5.25719523e-01 +4.34889674e-01 -7.47646928e-01 +1.57656699e-01 -2.62515962e-01 +1.99133024e-01 +3.26623529e-01 -3.09825033e-01 -8.05753052e-01 +2.28478923e-01 +3.88426244e-01 -1.83325067e-01 +1.26058078e+00 -5.23049772e-01 -6.70506239e-01 -8.09883606e-03 +6.12540185e-01 +2.52223521e-01 +7.30067044e-02 +6.06146306e-02 +7.24586174e-02 +6.69935122e-02 -4.78451818e-01 -3.03380460e-01 -3.49080473e-01 +2.05466850e-03 -5.34492195e-01 +2.64736891e-01 +4.30689842e-01 +2.16468498e-01 +1.02559060e-01 -9.58097503e-02 +6.46227896e-02 +8.03485140e-02 +4.25532646e-02 +1.44217134e-01 +1.14397421e-01 -7.04653561e-01 -2.15707079e-01 +6.28093258e-02 +4.09177959e-01 +6.29979610e-01 +2.26454735e-01 +6.59301132e-02 +1.75917208e-01 -1.94862783e-01 -1.72393490e-02 +8.81186798e-02 -7.87181333e-02 -1.71653122e-01 -3.86894137e-01 +6.47081852e-01 +2.07070410e-01 +2.09371239e-01 -3.59396994e-01 -8.38743299e-02 -2.87843555e-01 +6.02309227e-01 -3.84984434e-01 -3.01603407e-01 -5.00860870e-01 -3.18567038e-01 -1.05892098e+00 +3.67933124e-01 +8.20432156e-02 +1.48421943e-01 -6.87541008e-01 +2.25830972e-01 +4.65269387e-01 -2.11892575e-02 +1.00124359e+00 -1.24779117e+00 -8.31942260e-01 -2.44791806e-01 +4.67077196e-02 -2.89845765e-01 +1.40809476e+00 -4.34891015e-01 -2.95189768e-01 +2.75899842e-02 -5.30928895e-02 +5.19015431e-01 -3.26088443e-02 -9.82802082e-03 +6.68147951e-02 +1.05440184e-01 +4.14006002e-02 -8.16119850e-01 +3.89413893e-01 +2.84995764e-01 +7.89133683e-02 -1.97700914e-02 -4.17538136e-02 +5.89053566e-03 +3.82681221e-01 -9.07052755e-02 -1.03858612e-01 +8.72936472e-02 
#Parameter# /vanilla-lstm-builder/_1 {64,16} 16385 ZERO_GRAD
-7.92162716e-01 +3.91661316e-01 -3.19454260e-02 +3.70306104e-01 -6.13487422e-01 +1.81383401e-01 -2.03494564e-01 +6.77363396e-01 +7.47810483e-01 -2.41294317e-02 -6.75611570e-02 +1.37300897e+00 +5.49576283e-02 +5.76786578e-01 +2.45855615e-01 -2.76005685e-01 -3.56866121e-01 -1.50509369e+00 +1.34128273e+00 +2.23464513e+00 -4.49909955e-01 -4.51711029e-01 +2.08307251e-01 +2.93019027e-01 -2.10172907e-01 +9.29895341e-01 -3.03385407e-01 +3.41781646e-01 +9.22395289e-01 +7.34376550e-01 +1.87552679e+00 -1.55532682e+00 -8.35116133e-02 -3.74562711e-01 +3.95305939e-02 +5.14181972e-01 -5.45919657e-01 -5.49891889e-01 +8.90919268e-01 -3.02231479e-02 +8.71000290e-02 +1.24719478e-01 -1.73932299e-01 +9.63489652e-01 +5.30684032e-02 +6.80603504e-01 -1.57211673e+00 +1.16224158e+00 +4.56058830e-02 -8.87258291e-01 -5.04308462e-01 +1.79037973e-01 -5.11105135e-02 -1.04353428e+00 +1.20789802e+00 +1.82185605e-01 -6.03229366e-02 -8.45802844e-01 -8.41612220e-02 +4.28841859e-01 +8.11398029e-01 +2.67177433e-01 -3.21321964e-01 +6.41526222e-01 -1.21249259e+00 +6.79592252e-01 +1.36691344e+00 +7.37168081e-03 +8.67310166e-01 +2.61245579e-01 -2.94557244e-01 -6.57528937e-01 +1.45174301e+00 -1.58147048e-02 +6.47549272e-01 -1.13446742e-01 -1.03782856e+00 -1.40131485e+00 +4.64357078e-01 +1.50356328e+00 -1.55471623e+00 -1.06625152e+00 -4.42180991e-01 +5.12616038e-01 +7.65366852e-01 -2.06042111e-01 +2.09293172e-01 +5.16072333e-01 -3.24240699e-02 -3.80892903e-02 -1.27999580e+00 +5.34876406e-01 -1.11492395e+00 +1.34594619e+00 -3.92573982e-01 +3.45535398e-01 -6.92038059e-01 +1.21505246e-01 -1.58303976e-01 -4.09434400e-02 +3.36513162e-01 +1.99296683e-01 -2.83197075e-01 -3.37545365e-01 +6.69114530e-01 -4.87196803e-01 +1.08222914e+00 +1.19366288e-01 +7.18865693e-01 +7.19732761e-01 +1.44325376e+00 +4.38538969e-01 -6.53064787e-01 +4.89730358e-01 +3.30967277e-01 -2.87357986e-01 -5.22748053e-01 +5.65311551e-01 -1.15976894e+00 -4.38989818e-01 -4.86374468e-01 +6.79745898e-02 +3.37532133e-01 +4.70481962e-01 +1.06849849e-01 -4.07265157e-01 +1.16758215e+00 -2.93490052e-01 -9.67525721e-01 +5.89969575e-01 +4.94427860e-01 -1.65534365e+00 -2.68374354e-01 +2.28916138e-01 -7.92407274e-01 -1.85003936e+00 -1.71612000e+00 -7.10864902e-01 +5.42394482e-02 +8.33427832e-02 -1.84600627e+00 -1.91650137e-01 +6.04589164e-01 +8.49610746e-01 +7.37785280e-01 +7.49463022e-01 -1.28157938e+00 +1.24701655e+00 +5.46156526e-01 +8.35963428e-01 +2.18195009e+00 +5.18994927e-01 -8.31420183e-01 -4.10163522e-01 +5.73011637e-01 +1.75832182e-01 -1.15185606e+00 -6.81677103e-01 -9.42488611e-01 +1.20044398e+00 +1.15758598e+00 +6.07136190e-01 +5.90868473e-01 -1.08837318e-02 +4.24912214e-01 -8.35038200e-02 +1.73432326e+00 +3.82974148e-01 +2.22139806e-01 +2.08251357e-01 +4.36686158e-01 +2.43245170e-01 +8.83766532e-01 +1.17956288e-01 +1.36080968e+00 +1.69546127e-01 +9.68155622e-01 +7.22515881e-01 -6.90899193e-01 -1.41154155e-01 -2.95639038e-01 +3.07114244e-01 -1.68427169e+00 -8.22759092e-01 -3.54000270e-01 +6.46133125e-01 +3.17649543e-01 -5.66793203e-01 -3.83922569e-02 +1.23764910e-01 +1.25708556e+00 -6.44580841e-01 +1.73880041e-01 -8.68239641e-01 +2.69329518e-01 -1.10242987e+00 -4.64709014e-01 -9.18035984e-01 +5.57241857e-01 -6.01913095e-01 +1.96017064e-02 +1.90336362e-01 -1.15798116e-02 -9.88369942e-01 +1.09397507e+00 -2.34501153e-01 -1.96029380e-01 -4.01539616e-02 -7.99730420e-01 -5.35718977e-01 +3.51384044e-01 -5.09296834e-01 -7.07628250e-01 -9.75239813e-01 -1.34961855e+00 +5.47584713e-01 +1.58146039e-01 +1.34778425e-01 +9.93937626e-02 +1.04809272e+00 -1.82028204e-01 +1.20363005e-01 +1.99509099e-01 -7.59177744e-01 -2.92168349e-01 -9.47524011e-01 +1.32582819e+00 -2.18209103e-01 +1.52080134e-01 +4.12492931e-01 -2.44575500e-01 +5.71735680e-01 +4.79281098e-01 +1.01705945e+00 -7.44555473e-01 +7.72904992e-01 +7.16456711e-01 +4.02916014e-01 +1.71109885e-01 -1.45156312e+00 -2.52375007e-01 -5.17862856e-01 +8.24006915e-01 -1.47370017e+00 +6.03182793e-01 +3.23242396e-02 +1.64480639e+00 -2.78242558e-01 +7.85813749e-01 -4.18908596e-01 +5.40575027e-01 +4.49721999e-02 -8.13186407e-01 -2.07876965e-01 +2.36207038e-01 -1.35294244e-01 +8.49608898e-01 -2.61491686e-01 +5.07290781e-01 +1.04156768e+00 +8.14334691e-01 +6.05584264e-01 +4.40954775e-01 +1.34111059e+00 +8.69363666e-01 +7.90865362e-01 +1.45223653e+00 +1.07597721e+00 -4.83595729e-02 +2.19940758e+00 +8.68392527e-01 -6.67363167e-01 -4.90205698e-02 -1.27915412e-01 +6.20646738e-02 +6.69467092e-01 -3.21483999e-01 +9.41789746e-01 +1.59202850e+00 -1.59335554e-01 +7.75440514e-01 +7.27382898e-01 -8.81664753e-02 -4.40309137e-01 -3.34180683e-01 -1.17352366e+00 +3.62565964e-01 +5.68051934e-01 +1.50422990e+00 +4.81487513e-01 -6.18539870e-01 +2.86006331e+00 +2.78529644e-01 +1.10741055e+00 +5.45196772e-01 +2.88843244e-01 +1.29640937e+00 +8.08793128e-01 -1.87887490e-01 -4.03201938e-01 +3.08302492e-01 +9.24508512e-01 -2.18064174e-01 +2.58240676e+00 -2.29595065e-01 +2.72705555e-01 -4.53974903e-01 +3.47233295e-01 -9.44219410e-01 -8.57299566e-01 +1.49208808e+00 -2.72321612e-01 +3.07197154e-01 +7.49649048e-01 -8.27544570e-01 -1.62985647e+00 +4.38508481e-01 +7.25119829e-01 +2.76215285e-01 -1.07184482e+00 +8.85804892e-02 -1.24662185e+00 +4.39143300e-01 +2.51194000e-01 -6.46958888e-01 +2.11484879e-01 +1.77232742e+00 -1.12950587e+00 -1.16800964e+00 +6.74371719e-02 +1.09240472e+00 +7.86033332e-01 -9.40857172e-01 +9.18675959e-01 +3.11640173e-01 -8.32153261e-01 -3.88036430e-01 -4.86151487e-01 -9.87414941e-02 +6.45708919e-01 -2.23660207e+00 -8.76600444e-01 -2.71920413e-01 -1.30355406e+00 +1.25334573e+00 +1.92542732e-01 -4.36472669e-02 -7.19217598e-01 +7.23601639e-01 +5.82623661e-01 -8.96863937e-01 -1.20500469e+00 +3.00403923e-01 -2.56727010e-01 -1.68006048e-01 -1.59600973e+00 -1.53402519e+00 -7.72407532e-01 +3.51980984e-01 +5.72469056e-01 -7.18135297e-01 -8.11665416e-01 +9.88534927e-01 +9.76523817e-01 +1.86115459e-01 +6.34605825e-01 +1.19452572e+00 -2.11673148e-04 -1.96781754e-01 +1.54675990e-01 +3.64015609e-01 -7.88679793e-02 +6.24226332e-01 -1.62347066e+00 +4.05634373e-01 -3.82748037e-03 +5.09108126e-01 -1.33324775e-03 -4.49242368e-02 +7.19633460e-01 -2.92711616e-01 -6.19474463e-02 +6.09842002e-01 +7.66092420e-01 +3.30784976e-01 -2.59764671e-01 +2.04793885e-01 -3.39306146e-01 +2.85228267e-02 -1.64586556e+00 +3.91698442e-02 -3.90955210e-01 +1.38651803e-01 +9.42080498e-01 -1.10203803e+00 -3.11445282e-03 +3.17757607e-01 +1.39968467e+00 -1.65273631e+00 -1.17577267e+00 +3.50492948e-04 +1.71943367e-01 +7.93146968e-01 -4.72459674e-01 -9.08054054e-01 -1.33368242e+00 +2.18782020e+00 +8.98556709e-01 +5.19087613e-01 -5.05370438e-01 -4.42157149e-01 -1.07057643e+00 +1.95107162e-01 +5.73017955e-01 +1.02183354e+00 -1.49636960e+00 -9.73324955e-01 -1.20080018e+00 +3.04468602e-01 -8.09312344e-01 -1.30249166e+00 -1.55636287e+00 -1.33970726e+00 +2.26436049e-01 -2.05646709e-01 -2.10716933e-01 -7.50132859e-01 -1.33598208e+00 -1.99164808e+00 -1.02985072e+00 -7.00127520e-03 +7.62702703e-01 +8.59958291e-01 -1.33740664e-01 -1.31695843e+00 +1.01486254e+00 +2.69696638e-02 -4.80811357e-01 -5.65970004e-01 +6.12297840e-02 +6.80795252e-01 -5.02797902e-01 +2.61569694e-02 -3.88301700e-01 +1.14558053e+00 +1.21319783e+00 -9.80722718e-03 +1.74976155e-01 +1.41920056e-02 -1.93319947e-01 +7.10553527e-01 -1.19177067e+00 -1.75898838e+00 -1.69040769e-01 +1.04555416e+00 +1.21723938e+00 -2.86377370e-01 +1.13426065e+00 -4.74928379e-01 -7.13220686e-02 +5.01165874e-02 +9.90099013e-02 -1.51039660e+00 -3.91381890e-01 -2.56421655e-01 -8.38564634e-01 -1.38547257e-01 +1.78919528e-02 -7.29810953e-01 -1.30881059e+00 +1.26510179e+00 +6.69325471e-01 +1.81188792e-01 -3.67433310e-01 +6.95743918e-01 -1.03280342e+00 -1.98776260e-01 +1.85437918e-01 -1.98558256e-01 -1.14856851e+00 -9.65329170e-01 -6.77950680e-01 -2.17931360e-01 -4.81467277e-01 -1.24174249e+00 -5.79555109e-02 -8.84005129e-01 +7.25391686e-01 +4.27067578e-01 -6.47364616e-01 -6.24177516e-01 -1.00799352e-01 -1.02958381e+00 +8.13972712e-01 -6.05400689e-02 -9.30479467e-01 +1.23492050e+00 +5.18449783e-01 -3.61389428e-01 +6.01826645e-02 -2.18311727e-01 +2.15406343e-01 +1.44879293e+00 -2.44524330e-01 +4.49299991e-01 -9.40974116e-01 -7.18011200e-01 -7.24687278e-01 +1.22326541e+00 +1.08693588e+00 +3.44541311e-01 -9.71565604e-01 +6.05398953e-01 +1.04349285e-01 -2.55108804e-01 +2.17149854e+00 +6.76659048e-01 -2.87033737e-01 +9.38956961e-02 +1.20670786e-02 +1.13441980e+00 -9.15907416e-03 +1.73467278e+00 +1.43892035e-01 -4.21365649e-01 -5.45998700e-02 -6.95772409e-01 -2.83545256e-01 -4.27764505e-01 -9.73779500e-01 +1.42803884e+00 -1.20782959e+00 +1.64859593e-01 -3.11787158e-01 +9.14984584e-01 -1.42724669e+00 +1.13891184e+00 +1.27817476e+00 -7.04499632e-02 -1.31450987e+00 +1.64375782e+00 +4.29915071e-01 +2.98118323e-01 -9.72093821e-01 -3.37046444e-01 -1.21059740e+00 +4.28310603e-01 -3.07095259e-01 +1.12248683e+00 -7.51912355e-01 -1.11073780e+00 -2.16706324e+00 +1.00438118e-01 -1.45523205e-01 +8.61135006e-01 -7.03176737e-01 -1.61246133e+00 -1.32460535e-01 -2.35918093e+00 +9.98547316e-01 +7.64378726e-01 +7.22066224e-01 -6.06964827e-01 -8.06952834e-01 +3.11378334e-02 +7.99999535e-01 -7.10717201e-01 -6.14824831e-01 -8.68861496e-01 -3.25785726e-01 -1.82264224e-01 -8.47399473e-01 +1.72174767e-01 +3.30143273e-01 +4.83967572e-01 -1.33146152e-01 -4.20263633e-02 +5.80313325e-01 +1.60288364e-02 -1.52190089e+00 +6.77397251e-01 -6.29384995e-01 -1.48377985e-01 +4.19456482e-01 -1.95252582e-01 +4.30159956e-01 -5.66235840e-01 -1.48441100e+00 -3.07797283e-01 -1.00846112e+00 -9.20193613e-01 +8.21627319e-01 +8.52244377e-01 +1.42624044e+00 -1.09614062e+00 -1.99489069e+00 +4.36554402e-01 -9.11043465e-01 -2.72717676e-03 -1.88617036e-01 -2.42272541e-01 -1.04267049e+00 +4.42945331e-01 -4.36529189e-01 -1.43151152e+00 -1.57181442e+00 -1.16703033e+00 +1.09693980e+00 +7.50168502e-01 +3.72191578e-01 -8.52662206e-01 +4.86975253e-01 +1.67871714e-01 -3.24461430e-01 +2.90342808e-01 -7.23443806e-01 +2.16616020e-01 +2.62597591e-01 -1.46470383e-01 +2.36307889e-01 +3.33888620e-01 -7.06667602e-01 +6.24135137e-01 -3.64363104e-01 -4.70716208e-01 -2.52594829e-01 -6.38078928e-01 -1.43431497e+00 -1.78170398e-01 +9.56837654e-01 -2.20748201e-01 -4.41319533e-02 -3.61666977e-02 -2.89053261e-01 +5.58448909e-03 -6.69906855e-01 -2.97158480e-01 -3.41783345e-01 +4.02789354e-01 -4.85960096e-01 +1.47459078e+00 +2.44088316e+00 -7.94407606e-01 -1.47769853e-01 -1.06358182e+00 +7.97361314e-01 -1.34136379e+00 -8.75978112e-01 -9.36811790e-02 -8.73327479e-02 +8.99304867e-01 -3.27044100e-01 -4.42430496e-01 +1.27838859e-02 -5.54456234e-01 +2.68302965e+00 +7.43007660e-01 +6.84001088e-01 +1.26790538e-01 +7.98776627e-01 -2.47169942e-01 +8.59540939e-01 +1.23125780e+00 +3.50356847e-02 -4.87084389e-01 -1.19527303e-01 -3.58622611e-01 +7.68262327e-01 -6.70022428e-01 -1.11762619e+00 -4.82142627e-01 +3.47851902e-01 +7.09579706e-01 +1.27070105e+00 +5.64991236e-01 -2.86221832e-01 +3.06070626e-01 +6.78705812e-01 +2.85923421e-01 +3.44136804e-02 +3.39225680e-01 +7.35001206e-01 +4.18486074e-02 -9.75505590e-01 +1.37062633e+00 +6.69407904e-01 +4.35745604e-02 -2.80902147e-01 +6.53919339e-01 +2.13173851e-01 +6.79576457e-01 -1.94259807e-01 +2.83492297e-01 +1.92027271e-01 -1.15999913e+00 -5.06663859e-01 +1.69553950e-01 -8.08165781e-03 -7.95672894e-01 +7.68285155e-01 -3.85807395e-01 -1.05069900e+00 +8.33525285e-02 +7.98349440e-01 +2.09789455e-01 +1.68706387e-01 +7.64428139e-01 -2.30414778e-01 -3.79785180e-01 +5.49451727e-03 +8.81517112e-01 +7.45030463e-01 -9.71337557e-01 -3.30232054e-01 -6.90573275e-01 -2.40395680e-01 +3.09258968e-01 +7.11364269e-01 -1.27319419e+00 +1.05853117e+00 -7.72844732e-01 -4.30436105e-01 -8.35175276e-01 +3.87209374e-03 -2.31058931e+00 +1.64185452e+00 -1.68602854e-01 +7.23424256e-01 -3.28548819e-01 -6.46855772e-01 -4.30101842e-01 +1.02413021e-01 +6.72835886e-01 -3.97769898e-01 -7.49998450e-01 -9.86495674e-01 +6.65842414e-01 -1.69551909e-01 -1.92201719e-01 +1.43819916e+00 +9.80628878e-02 +1.40314376e+00 -1.82650208e-01 +2.28297114e+00 +6.73921287e-01 -4.57081854e-01 +7.62058735e-01 +1.38505232e+00 +1.04101121e+00 +3.30641913e+00 +1.92037523e+00 -6.85550645e-02 -8.59738588e-01 -5.51321626e-01 +3.11252415e-01 +4.91860181e-01 -1.01428986e+00 +1.19463789e+00 +6.41171396e-01 +7.25000441e-01 +9.39781845e-01 -7.16032505e-01 -6.14375055e-01 -7.30942130e-01 -1.00432348e+00 +9.06083822e-01 +4.68213558e-02 -6.65363193e-01 -3.50992054e-01 -4.47583705e-01 +3.48322213e-01 -9.22958314e-01 +9.43825126e-01 -5.65679491e-01 -5.11438191e-01 -2.69439250e-01 +3.66793573e-01 -8.60943973e-01 -2.66940594e+00 -1.03327417e+00 -2.50784308e-01 -5.37338793e-01 -1.70837700e+00 -6.37365520e-01 +3.12276781e-02 -7.16602802e-01 +2.27132416e+00 +7.70803928e-01 -9.24884260e-01 -1.83566380e+00 +7.55286753e-01 +5.98772287e-01 -5.49115121e-01 +8.00812721e-01 +1.41756624e-01 +7.56659567e-01 +9.25030231e-01 +1.67161226e+00 +2.12965083e+00 -1.53692639e+00 -2.95093417e-01 -9.02714252e-01 +4.14734155e-01 -1.33284450e+00 -1.66850650e+00 -7.93205798e-01 -8.85657609e-01 -5.72049975e-01 +7.29588449e-01 -1.01057363e+00 -4.80717659e-01 -1.13818181e+00 -2.19497967e+00 -2.30184719e-01 -5.25622785e-01 -2.07366332e-01 +4.70065683e-01 -4.98346567e-01 -3.65346581e-01 +1.25612751e-01 -3.85853231e-01 +1.08492352e-01 +2.47148424e-01 +2.09069476e-01 +4.86051142e-01 -8.26465130e-01 +4.55223322e-01 +3.12610239e-01 -3.49302180e-02 -7.25484133e-01 +5.46891868e-01 +9.43651080e-01 -6.33030310e-02 +2.81978786e-01 +5.65622747e-01 +1.14025521e+00 +4.75562721e-01 -4.12595540e-01 -1.11374140e+00 +2.42545649e-01 +1.02984703e+00 -2.47271299e-01 +8.38963211e-01 -6.55032992e-01 -1.53613791e-01 -8.31286728e-01 -1.49538532e-01 -5.63509464e-01 -8.06825399e-01 -3.09157223e-01 +7.99072325e-01 -4.74162370e-01 -6.97176754e-02 -8.37139070e-01 -4.69583035e-01 -5.61220407e-01 +8.32319140e-01 +7.31352568e-01 -4.64815587e-01 -7.45955348e-01 +6.88583434e-01 +1.12402225e+00 +1.16886067e+00 -8.98318291e-01 -4.44569647e-01 -3.10934037e-01 +8.17790270e-01 -2.30978593e-01 +5.65142095e-01 -7.71395266e-01 -1.02236986e+00 -3.38416934e-01 -6.34685233e-02 +1.84843808e-01 +1.32514015e-01 -9.54970658e-01 -4.63738978e-01 -2.42814168e-01 -9.32581544e-01 -3.36468071e-01 -3.28110725e-01 -1.27591878e-01 -6.99463069e-01 +5.31736799e-02 +6.07896030e-01 -7.12826669e-01 +1.63769615e+00 -2.38400280e-01 +7.75360048e-01 +4.03909266e-01 +4.98022586e-01 +4.72313941e-01 +1.52593815e+00 +5.74235171e-02 +1.63338259e-01 -5.98533545e-03 -9.27720308e-01 +6.95513427e-01 +1.03573048e+00 -1.04552627e+00 -4.87793654e-01 -1.39395699e-01 -7.08067119e-01 -6.15855873e-01 -1.48388207e-01 -1.27501643e+00 +6.22995734e-01 -9.90928888e-01 -2.28866768e+00 -2.30316848e-01 -5.34739792e-01 +2.35420585e-01 -6.40187599e-03 +3.84194225e-01 -3.79367441e-01 +3.05094779e-01 -8.91393423e-01 -1.32274401e+00 +1.27300680e-01 +3.33552599e-01 +4.69788224e-01 -1.63046014e+00 -9.49390709e-01 +2.28547311e+00 +5.37641764e-01 -5.94951272e-01 -5.63119113e-01 +9.94367123e-01 +9.83446956e-01 -5.43943644e-01 +3.07181537e-01 -8.29607546e-01 +3.74678254e-01 -1.18649638e+00 +7.42773175e-01 -2.16448456e-01 -3.76599491e-01 +4.27340597e-01 -2.32450441e-01 +1.82161570e+00 -2.23301277e-01 +4.01722282e-01 +1.10583854e+00 -1.47380263e-01 -1.23985481e+00 -7.33841896e-01 -3.72939706e-01 -1.95938647e-02 -1.81048736e-01 +2.55671650e-01 +7.36161649e-01 +6.20417535e-01 +5.90307355e-01 +2.35387936e-01 +4.09384631e-02 +5.23272753e-01 -8.77899766e-01 -1.90011650e-01 -5.03876865e-01 -2.79024065e-01 +1.87459573e-01 -1.99856088e-01 -1.45101094e+00 +6.07992232e-01 -1.07034731e+00 -1.55094042e-01 +3.54300514e-02 -4.03226525e-01 -7.53592001e-03 -9.87216473e-01 -8.71660471e-01 +1.25927579e+00 -4.97138321e-01 +5.25709450e-01 +6.17823124e-01 -6.14344954e-01 +1.68365557e-02 -2.02461049e-01 -3.75727192e-02 +8.88091624e-01 +1.87153369e-01 +3.87338400e-01 -9.71542776e-01 +9.73254979e-01 +6.94014847e-01 +6.62608206e-01 +5.53882778e-01 +2.33261704e+00 +6.81928873e-01 -5.47037184e-01 +4.88385051e-01 +4.16692585e-01 +1.20473512e-01 +2.45706010e+00 +9.92036104e-01 +2.10988069e+00 +4.19695795e-01 +2.74448507e-02 +8.12935114e-01 -1.28594730e-02 +1.26659572e+00 -1.10384509e-01 +1.36006892e-01 +1.68145621e+00 -1.63676977e+00 -8.23300630e-02 -1.36463451e+00 +6.67882621e-01 -1.14089239e+00 -1.92606509e-01 +7.87034333e-01 -5.63409567e-01 +1.95807844e-01 +2.04457879e-01 -1.63657457e-01 +1.19845107e-01 -4.28117335e-01 +6.34993970e-01 +5.57098448e-01 -2.24441797e-01 -4.10067886e-01 -1.00441682e+00 -7.05372453e-01 -5.72962403e-01 
#Parameter# /vanilla-lstm-builder/_2 {64} 1025 ZERO_GRAD
+5.97218096e-01 +5.88255525e-01 +3.57981086e-01 +1.69687057e+00 +1.33728302e+00 +1.03257060e+00 +1.04748440e+00 +2.74898678e-01 +6.65536821e-01 +6.95663631e-01 +2.90828109e-01 +9.15636420e-01 +7.43789613e-01 +3.17242980e-01 +1.01203358e+00 +1.19034147e+00 -4.45511162e-01 -7.25076348e-02 -4.93659794e-01 +1.24072485e-01 -9.22282875e-01 -5.74850619e-01 -2.78492361e-01 -2.46645838e-01 -8.25970948e-01 -8.12860548e-01 -2.45541558e-01 -1.26555121e+00 +2.74330676e-01 -2.87755758e-01 +3.69935818e-02 -6.50307417e-01 +5.31969070e-01 +4.50911492e-01 +6.16113186e-01 +9.82611895e-01 +6.90560043e-01 +1.20618951e+00 +3.71410280e-01 +3.80168825e-01 +8.93540382e-01 -5.13645224e-02 +7.59912550e-01 +5.14392197e-01 +4.57094640e-01 +6.71329081e-01 +8.90210152e-01 +6.94693267e-01 +3.42764050e-01 -1.67612676e-02 -1.62962317e-01 -1.05157150e-02 +1.33683130e-01 -2.72938311e-01 -2.17971176e-01 +1.60303060e-02 -2.62558103e-01 +3.48650187e-01 +3.53176333e-02 +2.01187164e-01 +2.64908761e-01 +3.79958674e-02 +1.22278206e-01 +5.25803082e-02 
#Parameter# /vanilla-lstm-builder_1/_0 {64,32} 32769 ZERO_GRAD
+2.22227335e-01 +7.77269304e-02 -3.23037833e-01 +1.37433738e-01 -1.17263779e-01 -4.19663489e-01 -1.66796714e-01 -3.49927768e-02 +5.53930551e-02 -4.88401026e-01 -1.08999893e-01 +4.34428751e-01 +2.12181374e-01 +7.54794553e-02 -1.01665884e-01 -3.63055706e-01 -2.54269131e-02 +1.05659924e-02 -5.02820373e-01 -4.54716355e-01 -4.04258400e-01 +3.51233274e-01 +8.02057683e-01 -2.45071784e-01 -1.57111466e-01 +1.64684236e-01 -8.61847281e-01 -1.25698566e+00 -1.17171872e+00 -1.95314482e-01 -4.57415700e-01 +8.66933703e-01 +1.87455043e-01 -1.65958047e-01 -2.13539124e-01 +6.39638631e-03 +5.11132032e-02 +4.52315480e-01 +1.35605205e-02 -3.07047874e-01 -2.84939766e-01 -9.28408951e-02 +2.56839573e-01 -7.72751914e-03 -4.83241975e-01 +5.32407045e-01 -5.31676292e-01 +5.26610196e-01 -3.53698015e-01 +1.22526780e-01 +8.64605606e-01 +1.52535930e-01 +5.69357038e-01 -3.69949788e-02 -2.81795720e-03 +1.31620243e-01 +6.03621125e-01 +6.34678662e-01 -3.70885320e-02 -1.07299812e-01 -1.96210027e-01 +1.46025687e-01 +5.90671957e-01 -1.11880116e-01 +1.05533190e-01 +3.96262482e-02 +2.45162934e-01 -1.54659763e-01 +8.03727031e-01 +1.95818152e-02 -1.58920899e-01 -3.15430239e-02 +3.83904502e-02 +1.35038793e-01 -3.47879559e-01 -1.59248099e-01 +4.56701852e-02 +6.70808926e-02 -5.64477891e-02 -8.91879946e-02 -4.33121115e-01 -2.33152449e-01 +2.58261085e-01 +2.19025612e-01 -4.99718711e-02 -2.34251004e-02 +1.92971211e-02 +4.90479529e-01 +1.94210544e-01 +3.90529364e-01 -4.08469945e-01 +7.88181573e-02 +5.16932905e-01 +2.86512934e-02 +4.60930616e-01 -4.76087332e-01 +1.08134367e-01 -4.99642044e-01 +6.62671387e-01 -4.57313478e-01 -3.18524092e-01 +2.29446083e-01 -3.96990001e-01 +8.11397970e-01 -2.10030884e-01 -5.27512372e-01 -7.44903207e-01 +2.02236220e-01 -1.45735458e-01 -8.18051636e-01 -1.23283647e-01 -9.94623527e-02 -1.54798059e-02 +1.10345976e-02 -2.31921270e-01 -6.11450104e-03 -6.61799431e-01 -6.20599138e-03 -5.68516016e-01 -3.56997073e-01 -6.54526472e-01 +4.43713274e-03 +9.22720209e-02 +1.82706341e-01 +3.36203337e-01 +3.10746402e-01 -2.64720172e-01 +4.94630963e-01 +1.35744721e-01 +1.14697389e-01 +1.46726802e-01 +2.60219216e-01 -1.80077478e-01 +2.47425482e-01 -2.86521226e-01 +8.54512230e-02 -2.79547632e-01 -4.54001836e-02 +8.30759406e-02 -1.00765005e-01 -1.03879118e+00 -2.76946817e-02 -2.37230435e-01 +4.84103292e-01 +9.20415342e-01 -1.30853340e-01 -3.32413763e-01 +3.71654570e-01 -5.03088653e-01 -2.83424646e-01 +9.85727370e-01 +4.34516847e-01 -1.93027407e-01 +4.67515290e-02 +7.61128306e-01 -1.22046202e-01 -1.93678498e-01 -6.24608956e-02 -3.24029356e-01 -5.98934479e-02 -9.43819061e-02 +7.16663480e-01 -2.72718221e-01 +3.75209659e-01 -1.68233607e-02 -6.09600618e-02 -5.50455712e-02 +1.47582158e-01 -8.20599571e-02 +2.66114175e-01 +1.01913095e+00 +6.07217014e-01 +8.12984645e-01 +3.75700176e-01 +2.02893287e-01 +3.59677136e-01 -2.66949516e-02 +4.23456877e-02 -2.38329887e-01 +3.60974044e-01 -1.16191715e-01 -6.15905337e-02 +6.60854951e-02 -2.72325575e-01 +1.60975903e-01 +1.47747874e-01 -5.52124530e-02 +3.72168198e-02 -2.74838030e-01 +1.32056296e-01 +2.53247708e-01 +7.33419806e-02 -2.57921636e-01 -6.27120584e-02 +5.21108270e-01 +2.89051561e-03 -3.38308290e-02 +1.67548031e-01 +5.49917936e-01 +1.88547298e-02 -4.35418516e-01 +1.66314822e-02 +2.63269514e-01 -4.06206042e-01 -6.77868277e-02 -7.82668054e-01 +3.39641832e-02 -5.92483401e-01 -2.71513108e-02 -1.38586044e-01 +9.57370818e-01 -2.39211977e-01 +3.22187632e-01 -3.44939470e-01 -8.09477687e-01 -1.96630172e-02 +4.72168997e-02 +2.72885829e-01 +1.34146586e-01 +3.05850983e-01 +7.30229855e-01 +2.72144079e-01 +9.48958337e-01 -2.64690369e-02 -7.79238017e-03 +2.55483575e-03 +9.38252389e-01 -8.06991160e-02 +2.32164145e-01 -6.24179482e-01 +1.77942291e-01 +7.49475956e-01 -6.86183348e-02 +7.85337687e-02 -5.70257664e-01 -1.49386123e-01 +2.67999560e-01 -3.10510248e-01 +3.69680107e-01 -3.11362177e-01 -2.03395113e-01 -2.30149888e-02 -3.55482787e-01 -1.83405727e-01 -4.91862029e-01 -7.33468980e-02 +2.15740334e-02 -1.61856085e-01 -3.36074889e-01 -7.23754317e-02 -2.22224109e-02 -2.88559556e-01 +3.51251632e-01 -2.94982672e-01 -2.73687243e-01 +5.43446422e-01 +1.59754843e-01 +1.84544921e-01 +2.77263880e-01 -3.88204217e-01 -3.04779038e-02 -4.97821838e-01 +6.33836746e-01 -1.33218169e-01 -1.67972356e-01 -1.58529893e-01 +5.98596828e-03 -3.42804909e-01 +2.57380128e-01 -1.76229864e-01 +3.69607389e-01 -8.86676833e-02 -3.94144207e-01 -6.47889674e-01 +1.49909541e-01 +2.91569177e-02 -2.21067876e-01 -1.59327686e+00 -8.65703821e-01 -3.48146349e-01 +8.68357494e-02 +6.13070011e-01 -1.05589855e+00 -1.47131383e-01 +4.06973250e-02 +3.44073564e-01 +1.31684974e-01 +4.95620787e-01 -2.29358658e-01 -2.51159251e-01 +2.58625835e-01 -2.40667015e-01 -1.65342376e-01 -3.66170973e-01 +6.62530065e-02 +4.10317421e-01 +3.03799957e-01 +3.86957526e-02 -4.33205247e-01 -1.58571288e-01 +1.50376812e-01 +5.46068363e-02 +4.12309706e-01 -7.88485855e-02 +1.72920071e-03 +1.23346552e-01 -1.78986564e-01 +6.35865144e-03 -1.02176689e-01 -4.33112197e-02 -6.74138814e-02 +2.28858441e-01 +7.12372884e-02 -4.91727665e-02 -4.82292771e-01 +5.03410213e-02 +4.77071702e-02 +2.90464640e-01 +8.92253816e-02 +4.73630995e-01 +1.72295362e-01 +2.37849914e-02 +2.87074484e-02 +1.16063200e-01 +5.39200865e-02 -3.28046739e-01 +2.39746168e-01 +1.16167769e-01 +1.20976001e-01 +3.92429650e-01 -2.95064569e-01 +1.02813251e-01 +1.11872457e-01 +1.07245952e-01 -2.54510313e-01 +3.15284401e-01 +7.50618696e-01 -3.83198500e-01 -9.22127604e-01 +2.03523077e-02 +2.21610919e-01 -1.82990626e-01 +3.42229917e-03 +2.24127039e-01 -1.33701012e-01 +7.59949446e-01 -5.91648817e-01 +2.05381274e-01 -1.94233060e-01 +8.02175581e-01 -1.27750322e-01 -7.31115937e-01 +2.31875643e-01 -4.83893842e-01 +9.85293016e-02 -1.88349709e-01 -4.55449849e-01 -1.61534280e-01 +2.14618489e-01 +1.65505737e-01 -5.47620237e-01 -1.46129757e-01 -3.15964788e-01 -5.24427950e-01 -3.33427131e-01 +4.30044264e-01 -2.71532029e-01 +3.62744689e-01 -6.61423206e-02 -1.85252190e-01 +2.70749889e-02 -6.33650184e-01 +8.63981619e-02 +6.13061249e-01 +1.69609059e-02 -1.62954390e-01 -1.56635925e-01 -1.01373494e-01 +4.00166303e-01 +3.99432272e-01 +1.24651790e-01 -3.01724464e-01 -3.92188802e-02 +1.64339781e-01 -3.92077923e-01 +1.19267486e-01 -3.96879584e-01 +3.10721248e-01 -2.19583333e-01 +5.66169024e-02 -8.58554125e-01 -1.69752371e-02 -1.20314635e-01 +3.23025048e-01 -6.91409647e-01 -2.69079775e-01 +1.09708540e-01 +1.98713526e-01 -4.95388448e-01 -2.76931435e-01 +2.93765366e-01 +1.34046838e-01 +5.76030254e-01 -3.49658072e-01 +1.84576884e-01 +5.49805224e-01 +4.14901525e-01 +1.48581475e-01 +1.23600913e-02 -2.11825013e-01 +1.02783531e-01 -1.69391528e-01 -6.08708799e-01 -2.53077567e-01 -3.48710150e-01 +2.68957019e-01 -3.72746438e-02 -2.90600270e-01 +1.27848638e-02 -2.09303170e-01 +3.80407125e-01 +1.07744567e-01 -2.84177512e-01 -5.75436890e-01 -1.89225465e-01 -1.96100906e-01 +6.73773363e-02 -1.50962278e-01 -1.09352835e-01 -2.45289922e-01 +2.18528062e-01 +6.29301071e-02 -1.25497818e-01 +5.17915934e-02 +4.69008386e-01 +1.42997757e-01 +4.45155263e-01 -1.89346015e-01 +1.44437000e-01 -1.16170943e-01 +1.13455266e-01 +2.42360100e-01 +1.59363329e-01 -4.18359637e-02 -5.60573712e-02 -2.78994441e-01 -2.20032241e-02 -2.83020705e-01 +1.70493960e-01 +1.48461655e-01 +9.34964046e-02 -1.96258519e-02 -1.45388484e-01 +3.80258188e-02 +4.73862290e-01 -4.25149351e-02 -1.71409488e-01 -1.40072480e-01 +7.54727870e-02 +5.28589129e-01 +3.89170736e-01 -3.21527123e-01 +2.01051161e-01 +4.69879776e-01 +9.34554487e-02 +2.16545343e-01 -3.39022100e-01 +5.52933514e-01 -4.11091179e-01 -1.27011061e-01 +4.10665214e-01 +4.23448890e-01 +1.15264989e-01 -1.88801035e-01 -7.93665722e-02 -7.99619913e-01 -8.26754391e-01 -4.90096897e-01 -5.91408849e-01 -4.28018779e-01 +3.03204775e-01 +4.40605313e-01 -1.36194825e+00 +1.57665491e-01 -1.55398801e-01 +6.08991981e-01 -3.12460810e-01 -3.27184230e-01 -1.72909826e-01 -7.48989657e-02 +2.97771454e-01 +1.88568048e-02 -5.87999523e-01 +4.95147049e-01 +8.04446414e-02 -1.51949689e-01 +1.46670967e-01 -5.42398170e-02 +1.61639273e-01 -3.02192960e-02 +4.31808680e-01 -1.18238255e-01 +8.38358551e-02 +7.41694689e-01 +5.72307885e-01 +1.70309126e-01 -2.16852322e-01 -3.34466845e-02 -1.69261128e-01 -7.77749196e-02 +3.77969414e-01 -3.84830624e-01 +5.55562198e-01 +8.49431753e-02 -2.08200276e-01 +3.11831627e-02 +2.01002866e-01 -3.03442664e-02 -1.68511152e-01 -6.06942456e-03 +6.00111485e-01 -1.77349210e-01 +7.68341959e-01 +2.56293237e-01 +4.33883667e-02 +6.04183495e-01 +1.84754670e-01 +4.62116539e-01 +1.02884015e-02 +1.24676395e-02 -1.31165874e+00 +1.89024091e-01 -9.76129770e-01 +2.49074370e-01 +8.60527754e-01 -1.36962250e-01 -5.37952363e-01 -1.64796323e-01 -7.80170858e-02 -1.92929655e-01 -1.20600522e+00 -3.52074951e-01 -1.06841719e+00 +1.87434614e-01 +1.82955474e-01 -6.04694150e-02 -2.67331064e-01 +3.30731064e-01 -4.09303039e-01 +8.34783971e-01 -1.36915566e-02 -6.34981453e-01 -1.35261372e-01 -1.25127688e-01 +7.81014919e-01 +8.75415802e-02 -3.90192270e-01 +5.37291348e-01 -3.93692881e-01 +2.38811642e-01 -1.28233770e-03 +8.56757089e-02 +3.73506576e-01 -5.49854189e-02 +7.71233737e-01 +8.36000741e-01 -2.77227070e-02 -2.69181039e-02 +4.48731899e-01 +2.15644002e-01 +1.23970613e-01 +4.58119303e-01 -2.82080233e-01 +1.57456651e-01 +2.71959215e-01 -1.95639357e-01 +4.87591565e-01 +1.09674074e-01 +3.50677907e-01 -4.01885390e-01 +6.41738832e-01 -2.05996558e-01 +5.01387417e-01 -8.50552693e-02 +2.33403191e-01 +2.87510395e-01 -1.81710675e-01 -7.56000876e-02 +3.86950374e-01 +1.96427926e-01 +2.21354038e-01 +2.20041156e-01 +2.19212607e-01 +2.69402683e-01 -3.98894310e-01 +6.28643930e-01 +5.74956357e-01 +7.63044536e-01 +1.17502618e+00 -9.16060507e-02 +6.68214560e-02 -2.16987297e-01 -4.15985495e-01 +9.61472690e-02 +3.86497200e-01 +5.56166582e-02 +5.52800953e-01 -5.56744576e-01 +1.33799121e-01 +1.54930845e-01 +3.97099435e-01 +2.10108072e-01 -3.85183692e-01 +7.13366747e-01 -1.04090922e-01 +1.62701920e-01 -3.88232857e-01 -3.26926261e-01 +9.13282037e-02 +3.83370370e-01 -1.66868031e-01 -4.42675315e-02 +7.41204480e-03 +9.97677166e-03 +1.23854242e-01 -1.01359330e-01 -1.76228717e-01 -3.57980281e-01 -1.82404727e-01 +1.95104435e-01 -2.80095302e-02 -1.64832190e-01 -5.83527803e-01 -3.08920085e-01 +2.00811580e-01 +2.15803206e-01 +2.89096951e-01 +7.05699017e-03 -2.83086270e-01 +3.58206332e-01 +2.49894783e-01 +8.43040645e-02 -1.25253856e-01 +6.71383217e-02 +5.41303195e-02 -6.60825551e-01 +6.91463888e-01 +2.61774123e-01 +4.53795731e-01 +1.02096610e-01 +1.73140794e-01 +2.44591355e-01 +1.59814775e-01 +2.59170860e-01 -1.84271351e-01 +3.02092671e-01 +3.85580093e-01 -4.50047284e-01 -9.79137659e-01 +6.02061599e-02 -4.14148793e-02 +6.15948558e-01 +3.33249778e-01 +2.24568486e-01 -3.37915391e-01 +4.42005545e-01 -1.55798227e-01 +4.49051946e-01 -4.75225270e-01 +6.97168589e-01 -3.16991657e-01 -9.31207299e-01 +6.25415966e-02 -7.56420866e-02 -1.90217212e-01 +2.18372732e-01 -4.14330810e-01 -2.30924398e-01 +4.49387223e-01 -2.82375425e-01 -1.47593692e-01 +3.36473227e-01 +3.78639668e-01 -2.52287954e-01 -1.75253242e-01 +8.53132963e-01 -4.06116724e-01 +6.04037464e-01 +5.49578555e-02 -1.03656814e-01 -4.25569117e-02 -4.50705916e-01 +1.15772799e-01 +7.19430864e-01 +1.38481289e-01 +1.42781481e-01 -2.77434066e-02 -6.66607618e-02 +2.47559905e-01 +2.66227216e-01 -3.13985646e-02 -2.38072872e-02 -2.59308200e-02 -3.22472304e-01 -4.48073968e-02 +2.60896832e-01 -2.86332011e-01 +3.37793797e-01 -1.62209123e-01 +2.06926465e-01 -1.06196618e+00 -1.23401299e-01 +1.84923992e-01 -3.56496900e-01 -1.29608465e-02 +3.83426510e-02 +2.99947523e-02 -9.92184803e-02 +1.54340779e-02 +4.90548797e-02 +6.77001178e-02 +1.21354744e-01 -6.52266145e-01 -2.76651651e-01 -2.42088288e-01 -3.75215352e-01 +3.05006653e-01 -9.72573400e-01 -7.65022933e-02 +1.53677240e-01 +2.19373822e-01 -1.58921480e-01 -8.72378230e-01 +1.69417068e-01 -8.72291625e-01 +6.07285202e-01 +3.18517387e-02 +2.79385030e-01 -3.48870307e-01 +1.77566662e-01 +5.06936252e-01 +1.49985656e-01 +4.51155268e-02 -5.65765083e-01 +2.57756680e-01 -2.73840487e-01 +4.55443323e-01 -1.04739115e-01 +1.65425390e-01 +5.56648731e-01 +4.19847369e-02 +1.65497825e-01 -1.58870980e-01 +1.54192701e-01 +5.98212957e-01 +2.43452564e-01 +3.91146868e-01 -1.96381107e-01 +5.38944490e-02 +2.36831456e-02 +2.69467711e-01 +2.41010115e-01 -4.30705920e-02 -8.45024288e-02 -3.13743263e-01 -4.33294654e-01 +1.57013670e-01 -4.69621718e-01 -4.40626144e-01 +1.76084340e-02 +2.83340335e-01 -1.70414567e-01 -5.45053519e-02 +3.93817216e-01 +2.30473444e-01 -7.40140229e-02 -7.79109120e-01 +2.33898386e-01 -8.62114489e-01 -4.02088732e-01 +6.65967613e-02 -6.75314665e-01 +2.06691787e-01 -4.08095896e-01 +9.48821381e-03 -2.70891696e-01 +1.30637240e+00 +1.19690545e-01 +8.70546460e-01 +7.44491490e-03 -1.09450424e+00 +9.62942615e-02 +5.29073358e-01 +2.62154043e-01 -2.11153671e-01 +3.46256077e-01 +8.23743224e-01 -4.10613678e-02 +9.14540291e-01 +4.50888798e-02 -1.62653416e-01 +1.08883055e-02 +5.61347485e-01 -3.20598364e-01 +3.07919770e-01 -6.03949189e-01 +1.12641752e-02 +6.07197344e-01 +1.68547019e-01 +1.14324450e-01 -8.30948412e-01 -1.68990508e-01 +3.83594811e-01 -5.29911816e-01 +1.73452944e-01 -3.15286011e-01 -1.14944331e-01 -2.31788158e-02 +1.17476303e-02 +5.74701093e-02 -2.40579247e-01 -7.35820293e-01 +1.72470380e-02 -4.67706658e-02 -2.63588399e-01 -7.77008757e-02 -2.73154974e-01 -4.33005542e-01 +3.28871578e-01 -1.68892145e-01 -3.52513492e-01 +5.93608439e-01 +3.89439277e-02 -1.83953598e-01 +2.96148121e-01 +9.61826444e-02 +1.53964683e-01 +2.03641444e-01 +5.32349618e-03 -2.77304858e-01 +1.20968312e-01 -2.26752572e-02 +5.17394245e-01 -1.03671797e-01 -1.89247668e-01 +3.64444613e-01 -2.07843885e-01 +4.14867759e-01 +6.68252230e-01 -7.61236921e-02 +1.05999053e+00 -1.67334720e-01 +2.81922698e-01 +3.87218326e-01 +1.12330429e-01 +1.53331876e+00 +1.21625274e-01 +7.45459080e-01 +1.71628743e-01 +6.88451171e-01 +1.40379298e+00 -1.65619224e-01 +1.06085801e+00 -7.85270929e-01 +7.24207222e-01 +3.56584303e-02 +4.28929418e-01 -4.32097226e-01 -5.90026498e-01 +1.65971324e-01 -4.02121454e-01 +9.93875265e-01 -5.07282317e-01 -3.38523597e-01 -4.89372134e-01 +6.65941894e-01 -1.25864565e-01 -5.25501072e-01 +3.94936837e-02 -2.40503877e-01 +1.98123474e-02 -1.28339916e-01 -5.32803357e-01 +2.97680646e-02 -5.87642610e-01 +8.58259946e-02 -2.08771706e-01 +6.08458696e-03 -4.45345074e-01 -1.22008197e-01 +2.99363971e-01 +3.05668917e-02 +2.25855440e-01 +1.06823854e-01 -3.98729891e-01 -9.49501246e-02 +1.97736666e-01 +2.08118469e-01 +4.48945850e-01 -2.98247665e-01 -1.67267293e-01 -8.14429462e-01 +6.87174976e-01 +4.55735847e-02 -3.71661484e-01 -1.63599461e-01 -1.34045348e-01 +2.18075812e-01 +1.52296603e-01 +4.44767065e-02 +4.60047066e-01 +5.14868915e-01 -6.45922601e-01 -3.09488863e-01 -1.00054169e+00 +3.29089761e-02 -9.20241177e-01 -1.56009817e+00 -4.84559804e-01 +1.76629469e-01 -1.17514774e-01 -8.11068192e-02 -7.03336656e-01 -6.47789299e-01 -1.07978725e+00 +1.85344629e-02 -6.48212194e-01 -7.49568716e-02 -3.55572402e-01 -8.06000605e-02 -1.02352643e+00 -1.86816648e-01 -3.16938937e-01 +1.84557997e-02 +1.07040189e-01 +3.38585004e-02 +2.04957008e-01 +2.87747562e-01 +1.99964389e-01 -9.83014777e-02 -2.01708168e-01 +4.35679168e-01 -2.08228067e-01 -1.08118728e-01 +2.99877733e-01 +3.69118191e-02 -1.07820801e-01 +3.44441249e-03 +1.98650405e-01 -6.19424060e-02 +2.21496578e-02 +6.19235158e-01 +5.36600292e-01 -4.23883554e-03 -4.30278212e-01 -8.05325434e-02 -2.56071538e-01 +3.30748051e-01 +2.49135360e-01 +1.27816334e-01 +3.75755936e-01 +4.75344867e-01 +2.15599924e-01 -1.25608429e-01 -3.97824377e-01 +1.12496298e-02 +4.50053215e-02 -1.71745732e-01 -5.01220882e-01 -3.26177806e-01 -2.99187034e-01 +5.37121892e-01 +2.13236600e-01 -2.51365840e-01 +1.74506418e-02 -1.17352873e-01 -4.37332273e-01 -6.78880036e-01 -2.68313289e-02 +1.47084236e-01 +7.61118472e-01 -1.16832577e-01 -8.78011525e-01 -2.07649283e-02 +1.82726905e-02 +1.67563871e-01 -7.19973862e-01 -4.82392132e-01 +3.78415465e-01 +7.83836022e-02 +1.17948377e+00 +1.04649439e-01 +2.95046717e-01 -1.48424178e-01 +5.58438778e-01 -5.17497361e-01 -1.26167744e-01 -2.48300895e-01 -1.52964611e-03 +9.88110378e-02 -5.64776361e-01 +5.72973527e-02 -5.22775114e-01 -3.71246159e-01 -1.90927804e-01 +4.30691838e-01 -2.43326038e-01 +8.71687979e-02 -2.25755006e-01 -5.62754273e-02 +4.42222387e-01 +1.32176168e-02 -1.27673298e-01 -1.04172174e-02 +3.55828792e-01 +2.25056186e-01 -2.95542330e-01 +4.78059053e-02 -1.85818374e-02 +5.18134572e-02 +1.62700564e-01 -2.21682101e-01 +2.02562287e-02 +9.67487171e-02 +1.08037293e-01 +1.52736217e-01 +9.52345431e-02 +1.10148333e-01 -2.42839366e-01 -4.79547262e-01 +6.43792331e-01 +2.19862559e-03 -8.34312215e-02 -5.46496987e-01 +4.25233424e-01 +2.39207000e-01 +2.92623490e-01 -1.98422112e-02 -4.55158800e-02 +2.41153136e-01 -1.32436737e-01 -2.95659184e-01 -1.28028059e+00 +2.19773069e-01 -2.76703507e-01 -2.59067804e-01 -8.23513031e-01 -1.69807702e-01 -6.69236124e-01 +2.01570570e-01 -2.47667972e-02 +5.07158339e-02 -5.49569964e-01 +4.47737366e-01 -4.79238242e-01 +1.41232699e-01 -3.01078558e-01 +2.65225351e-01 -3.64124745e-01 +1.02914803e-01 +1.30940959e-01 -5.08963287e-01 +5.42969227e-01 -2.16651380e-01 +1.69038117e-01 +5.55521548e-01 +4.04435277e-01 -3.41583759e-01 -5.75569607e-02 +1.20152020e+00 +7.14036971e-02 +1.81906760e-01 +6.90368861e-02 -2.40374908e-01 -6.06974307e-03 -3.42196636e-02 +4.89203453e-01 +1.19830452e-01 +4.14617151e-01 +5.89260578e-01 +6.39880061e-01 -1.98492721e-01 -1.52759209e-01 -2.02050120e-01 -4.09437984e-01 -3.52722675e-01 +3.79870504e-01 -2.80858129e-01 +7.81885162e-02 +1.32999569e-01 -6.67214245e-02 +2.34354332e-01 -3.28986287e-01 -3.20496649e-01 +6.42903984e-01 -1.35366246e-02 +3.18298578e-01 -2.92720586e-01 +4.97004420e-01 +1.49184331e-01 +4.03863698e-01 -1.20465159e-01 +1.45466536e-01 -8.18603486e-03 -4.93628681e-01 -4.70184088e-02 +4.26839799e-01 -3.35296631e-01 -2.60118455e-01 -2.97520816e-01 -1.04449213e+00 -1.36879668e-01 +3.41021180e-01 +8.93359005e-01 -2.82495022e-01 +7.21568227e-01 -3.92527044e-01 -7.17060208e-01 -1.49237260e-01 +2.06428483e-01 -8.08040261e-01 +2.67153025e-01 -2.97828376e-01 -3.64901572e-01 +8.33303690e-01 -5.95159888e-01 +3.59144300e-01 -2.86592931e-01 +4.20315474e-01 +3.51657093e-01 +3.75424147e-01 -2.60076582e-01 +3.79115671e-01 -1.42023740e-02 +4.74534661e-01 +3.25194329e-01 +1.77404024e-02 +4.20689285e-02 +1.33594107e-02 +2.33383507e-01 +1.27488285e-01 -2.17148304e-01 +1.84313595e-01 +3.77021968e-01 +4.17537957e-01 +1.11751199e-01 -7.39195108e-01 -7.55145866e-03 -1.29661456e-01 +3.08928788e-01 +2.05535844e-01 -2.80525927e-02 -1.07282065e-01 +5.32351173e-02 +2.43044749e-01 +9.46876332e-02 -2.06169605e-01 +5.61071038e-02 -6.39271662e-02 -1.50326148e-01 +3.26126814e-01 -8.74932289e-01 +3.86230499e-01 +1.92607716e-01 -9.67972726e-02 -1.33475304e-01 -1.71059504e-01 +6.10193133e-01 -1.03870053e-02 +8.02527964e-01 -4.37778741e-01 -5.92289753e-02 +6.70569718e-01 +6.86096200e-06 -6.84565306e-01 +9.96229202e-02 -2.47694314e-01 +5.95631480e-01 +1.71155393e-01 +1.54293805e-01 +8.22620749e-01 +2.93179840e-01 +7.09159791e-01 -9.73628759e-02 +1.00875229e-01 +3.32550913e-01 -3.86221170e-01 +3.27732533e-01 -2.86599575e-03 -4.38805185e-02 +5.11495113e-01 +2.00914323e-01 -4.92527708e-02 -5.29737025e-03 +3.97820175e-02 -2.46686265e-02 +3.52783054e-02 +1.09574032e+00 +1.98025912e-01 -2.39709690e-01 -5.50937690e-02 -1.10786393e-01 -2.05757275e-01 -3.21870595e-02 +3.53267826e-02 -3.65307517e-02 +1.79783583e-01 +5.14928281e-01 -1.81880549e-01 -6.57021627e-02 +5.73324859e-02 -1.76431820e-01 -1.67669021e-02 -5.33159435e-01 -6.34283721e-02 -4.72568572e-01 +5.37562929e-02 -1.25762910e-01 +2.58071542e-01 +5.50876595e-02 -4.85454351e-01 -2.72548199e-01 +2.21335217e-02 +1.30351275e-01 -4.65484053e-01 -1.37573421e-01 -3.43175605e-02 +3.69556367e-01 -2.75317222e-01 +2.03679681e-01 -4.03813601e-01 +2.29069069e-01 -8.63460749e-02 -4.82123047e-01 -3.37795615e-01 -1.42304003e-01 -6.43171012e-01 -8.29980195e-01 -1.83891878e-01 +6.76783264e-01 -1.66121140e-01 +1.07592568e-01 +4.20001537e-01 -2.29725689e-02 -5.09639144e-01 -2.50848711e-01 -2.89846450e-01 -2.02189181e-02 +2.19842643e-01 +1.40435174e-01 -2.44289368e-01 +6.93292590e-03 +1.84846818e-01 +6.28523007e-02 +2.82399893e-01 +2.65482605e-01 -7.58812763e-03 +3.61287355e-01 +1.82711646e-01 -7.17413202e-02 -2.66455740e-01 +8.74137759e-01 -2.72528082e-01 +2.62332380e-01 -9.71298292e-02 -2.01737359e-02 +4.92958948e-02 +2.11844385e-01 +6.78991228e-02 +1.17020071e-01 -1.66455090e-01 +5.86814106e-01 +7.10580230e-01 +4.23433363e-01 -2.02233270e-01 -8.43705907e-02 -3.60203594e-01 +5.46580255e-01 +4.76885200e-01 -2.14374945e-01 -4.61235762e-01 -1.23259954e-01 +3.74196053e-01 -4.14112389e-01 +1.87781513e-01 +2.74575979e-01 +5.84870398e-01 -7.00188335e-03 -2.42542382e-02 +4.29813385e-01 -3.52386057e-01 -5.30249715e-01 +7.53185153e-02 -1.99457575e-02 +7.33582005e-02 +6.02442086e-01 +4.25000817e-01 -8.81701335e-02 -1.07068002e+00 +7.52787709e-01 -4.41849947e-01 -7.11568177e-01 -4.72642303e-01 +7.09922194e-01 +2.32710913e-01 -3.32126081e-01 -3.91691141e-02 -2.92593110e-02 -1.01880431e+00 -2.89922535e-01 -6.25795186e-01 -5.51731586e-01 -2.17709541e-01 +2.28387073e-01 -3.39385629e-01 -3.40625256e-01 -9.07487422e-02 -6.08887494e-01 -3.47286612e-02 -7.52416579e-03 +3.02340299e-01 +1.80728927e-01 -3.06658119e-01 -6.88458532e-02 +5.03385998e-02 -3.97909105e-01 +2.47808605e-01 -3.43781173e-01 +4.02011395e-01 -9.94427428e-02 -2.59186417e-01 +4.37523499e-02 +1.31638378e-01 -3.18365157e-01 +1.35093685e-02 -1.16222300e-01 +3.45651746e-01 -9.20172930e-02 -4.59523976e-01 +2.80120760e-01 -7.17966706e-02 -2.27476982e-03 +1.62591323e-01 -2.64359042e-02 -1.48446396e-01 +2.28613481e-01 +3.18973243e-01 -1.86990798e-01 +1.10806026e-01 +6.58831149e-02 -3.98554914e-02 -1.36650443e-01 +2.16242269e-01 +2.48003632e-01 -7.76576877e-01 -1.88663110e-01 +1.76264003e-01 -2.21914038e-01 +9.33447778e-02 +1.04541108e-01 +2.44736090e-01 +5.32447636e-01 -3.39528434e-02 +3.59562904e-01 -1.32132277e-01 -2.70751059e-01 +5.65724790e-01 -9.30571556e-02 +1.03733413e-01 -6.16844535e-01 -6.53433383e-01 -5.81311285e-01 +2.06381723e-01 -7.05642521e-01 +2.62761980e-01 +3.71800452e-01 -5.41187264e-02 -2.28807434e-01 +9.59829316e-02 -3.57189067e-02 -2.22781241e-01 +3.40550691e-01 -4.22290206e-01 +1.74995527e-01 -1.70428634e-01 -5.18247068e-01 -5.63146807e-02 +8.50978374e-01 -1.86630338e-01 -6.43215895e-01 -1.65615678e-01 -1.41054362e-01 +1.11566678e-01 +1.85263842e-01 -1.06347643e-01 +1.06158547e-01 -6.73249304e-01 -1.28554434e-01 -2.27246165e-01 -4.83789414e-01 -4.02977645e-01 -2.37607569e-01 -1.02580398e-01 +3.16729665e-01 +4.57656235e-01 +1.96364641e-01 -3.46934080e-01 +1.13033974e+00 +2.65069187e-01 +1.11698620e-01 +7.78002515e-02 -3.21403295e-01 +5.14190197e-01 +7.33355433e-02 +1.08312264e-01 +9.54030603e-02 +6.29532993e-01 +3.60043436e-01 +1.15790516e-01 -1.64358765e-02 +2.16052249e-01 +5.00185966e-01 +2.22684428e-01 +2.28099123e-01 -3.93563867e-01 +7.72974417e-02 -4.95361418e-01 +5.60689867e-01 -1.44051218e+00 -2.23484248e-01 +5.91539264e-01 -4.35134798e-01 -5.64669788e-01 -6.54616356e-02 +2.28407726e-01 -2.87781447e-01 -1.17245698e+00 -3.81707668e-01 -8.54598939e-01 +2.65749812e-01 +5.77296764e-02 -1.52661338e-01 +1.20782644e-01 +4.18640047e-01 -4.02229875e-01 +9.77483988e-01 +7.17216432e-02 -5.58718860e-01 +1.79514527e-01 -1.18355274e-01 +6.65841222e-01 -1.90737635e-01 -4.45698112e-01 +3.27836365e-01 -9.60814208e-03 +4.54737812e-01 +9.62293446e-02 +1.15309455e-01 +4.72859204e-01 +1.48560125e-02 +5.25432467e-01 +7.49036491e-01 -1.06097452e-01 -1.07897244e-01 +8.25757980e-01 +1.88676804e-01 +1.81329064e-02 +3.07882786e-01 -5.17177761e-01 +5.30231833e-01 +6.06444359e-01 +8.38556513e-02 -4.54652727e-01 +7.17750043e-02 -3.40039402e-01 +1.06359817e-01 -4.90453571e-01 -3.35721791e-01 -1.10835147e+00 +1.55657336e-01 -2.44108841e-01 -4.13603008e-01 -5.27268946e-01 +1.85271025e-01 -5.60392439e-01 +3.98356766e-01 -5.78895092e-01 -8.76096934e-02 +5.77892968e-03 -5.63749000e-02 -2.63493329e-01 -5.81340313e-01 -2.88319468e-01 -2.05912858e-01 +4.07433212e-01 -1.12895451e-01 -1.16694212e-01 -8.14580321e-02 -2.06902951e-01 -2.58023024e-01 -1.85468972e-01 -2.42982820e-01 +2.90927231e-01 +3.09502900e-01 +5.57790816e-01 -2.18881249e-01 +4.70391810e-02 -1.42191172e-01 -1.91628814e-01 +1.94040775e-01 -1.25861362e-01 +3.09851259e-01 -2.40997896e-01 -1.58369988e-01 -4.16966140e-01 +4.28215042e-02 -3.87888014e-01 +6.69592083e-01 -4.14047360e-01 +2.23461136e-01 -2.93119043e-01 +9.67827216e-02 +1.35947436e-01 +2.92327344e-01 +3.71522643e-02 -1.25409648e-01 -4.19803672e-02 +3.32104892e-01 +1.50077716e-02 +2.07276389e-01 +1.90316588e-02 -1.66821033e-01 -1.54335618e-01 -2.59850681e-01 +1.82486236e-01 -6.27366662e-01 -4.17132735e-01 -9.84437987e-02 -1.40233278e-01 +1.52960559e-03 +1.14464685e-01 +3.13056499e-01 -1.37952566e-01 -4.75021601e-02 +2.02870399e-01 +1.94426969e-01 +2.07391679e-01 -5.51847875e-01 -6.45515844e-02 -1.72059998e-01 -1.00386471e-01 -8.05193186e-01 +8.53135064e-03 -3.16238627e-02 +1.12614048e+00 -2.72935957e-01 +1.14655113e+00 +1.10084713e-01 -4.97484773e-01 -2.13564143e-01 +2.03500673e-01 +1.13791004e-01 +1.74583539e-01 +4.81819659e-01 +1.38716853e+00 +5.95574558e-01 +8.73806417e-01 +2.55363852e-01 -1.86101124e-01 +8.05340484e-02 +9.41190004e-01 +7.39670396e-02 +4.12388563e-01 -4.92241383e-01 +9.79338214e-02 +3.94067138e-01 +3.80840242e-01 +3.01546101e-02 -3.86380553e-01 +4.96869013e-02 +1.06867063e+00 -4.95057970e-01 +7.00717449e-01 -2.57720262e-01 -2.35148445e-02 -8.04048628e-02 -3.31801474e-01 -3.31694186e-02 -4.20390964e-01 +5.03638200e-02 +2.26093177e-02 -6.89902961e-01 -1.00389373e+00 -3.36046964e-01 +1.06908545e-01 -5.93538918e-02 +3.51774484e-01 -5.85124314e-01 -1.03085768e+00 -5.64483516e-02 -4.24207836e-01 -1.20033473e-01 -2.72312641e-01 +2.17837766e-01 -5.93862176e-01 +1.21230707e-01 -4.62219119e-01 -5.07686548e-02 -7.80804157e-02 -3.69294673e-01 +2.39946187e-01 -3.12311016e-03 -2.02449888e-01 -3.51358950e-01 -2.33008683e-01 -5.10050356e-01 -3.27214211e-01 -1.12851024e-01 +6.68617725e-01 -5.08103669e-01 +9.78517056e-01 +4.29722756e-01 -5.69093764e-01 +6.93561509e-02 +5.21512032e-01 +3.77756923e-01 +4.89820868e-01 +6.85933232e-02 +8.45680356e-01 -4.52452838e-01 +5.91596544e-01 +5.74111044e-01 -2.46276870e-01 +5.09909093e-01 +6.23229444e-01 -5.76325953e-01 +7.72597313e-01 -3.73239726e-01 +1.03294753e-01 +4.19073969e-01 +1.67347386e-01 -3.02578568e-01 -3.51480216e-01 +3.98832321e-01 +1.87533975e-01 -2.10441463e-02 +2.19801888e-01 +2.76397258e-01 -7.27479085e-02 +1.26319947e-02 +1.20576233e-01 +2.27250099e-01 -1.39287412e-01 -5.91631293e-01 +5.60184002e-01 -6.80666342e-02 -6.15900457e-01 -1.18387006e-01 +7.72605184e-03 -1.89255178e-01 +4.49851155e-01 -3.33617538e-01 -4.13009912e-01 +5.76642193e-02 +6.74307704e-01 +1.14900693e-01 +1.75214022e-01 -4.64942716e-02 +2.82455385e-01 -6.54480398e-01 +4.03986543e-01 -1.51365891e-01 +1.07295834e-01 -1.97498724e-01 -6.96149915e-02 +1.14975929e-01 +1.14151426e-01 +2.14176238e-01 +4.96196032e-01 +5.87890863e-01 -3.81388038e-01 +1.45079613e-01 -5.08870363e-01 +3.43444288e-01 -7.05300033e-01 -2.94894516e-01 +2.31821746e-01 +2.34716535e-02 -2.24951394e-02 +3.31272304e-01 -7.44169354e-01 -2.42921963e-01 -7.70390630e-01 +4.56568375e-02 -7.10543692e-01 +1.94181293e-01 +1.46954685e-01 -1.37009025e-01 -8.78402412e-01 +2.58663446e-01 -3.04678053e-01 +1.84196219e-01 -8.24897438e-02 -3.64707053e-01 -1.65257767e-01 +1.21880591e-01 +5.32413125e-01 -1.71745829e-02 +1.85854975e-02 +3.64132494e-01 +5.81796393e-02 +2.03321815e-01 +2.15763450e-01 +1.37198865e-01 -2.22003341e-01 -1.34233937e-01 +7.05554411e-02 +2.84476310e-01 -5.00426255e-02 +3.30119282e-01 +2.55959123e-01 +7.60998651e-02 -8.23626965e-02 +1.67602807e-01 -2.16042414e-01 +8.80203009e-01 +8.29799250e-02 +2.73825884e-01 -4.99778911e-02 +1.04008801e-01 +5.62739551e-01 +4.99285787e-01 +6.90952897e-01 +1.86023206e-01 -3.98231924e-01 +3.44206952e-02 -2.74208486e-01 +6.11355044e-02 -2.03619838e-01 +2.14355931e-01 -3.36231470e-01 +2.36652479e-01 +6.19513728e-02 +3.96783650e-01 -2.85613779e-02 -1.97551697e-01 -8.15800577e-03 +2.03555778e-01 +3.32923502e-01 +1.86232045e-01 +2.42916346e-01 -2.20139045e-03 +3.68899167e-01 +5.59109628e-01 -5.39466023e-01 -4.49224412e-01 +1.15744460e+00 +2.38117084e-01 +1.20674145e+00 -7.56421626e-01 +5.77890694e-01 -4.74799663e-01 -7.55926371e-01 +2.37292051e-01 -1.01987278e+00 +8.13912928e-01 -6.21958673e-01 +8.91955048e-02 -4.90335107e-01 -6.16222262e-01 +1.27701787e-02 +2.39483103e-01 +2.62700081e-01 -3.21793735e-01 -3.91548574e-01 -3.11459929e-01 -5.21994233e-02 -6.33665472e-02 -1.74778238e-01 +1.46106213e-01 -4.37656134e-01 +2.96048616e-04 -4.16206926e-01 +3.54722166e-03 -3.89033467e-01 +1.01542056e-01 +1.37751549e-01 -1.01165041e-01 +2.43346900e-01 +5.60301282e-02 -2.43748635e-01 -7.85068609e-03 +4.64334428e-01 -2.30239809e-01 +2.47315317e-02 -9.16119292e-02 +2.62729198e-01 +3.13395321e-01 +4.51413006e-01 +8.59630853e-03 +7.25257814e-01 -1.28875419e-01 +1.02372348e+00 -9.68653858e-01 +4.12162244e-01 -1.66491672e-01 +5.31389832e-01 -2.24218369e-01 +9.17057022e-02 +2.09346823e-02 -3.21035981e-01 -2.22476140e-01 -2.40754277e-01 -4.56578434e-01 -3.10635060e-01 -9.90849882e-02 -5.47651835e-02 +1.26470134e-01 +1.10214937e+00 -1.68935046e-01 -4.13803011e-01 +2.07670122e-01 -4.56214488e-01 +3.24583977e-01 -5.46145320e-01 +4.04119492e-01 +6.53429627e-02 +1.28327817e-01 +5.55611551e-01 -4.66491729e-01 +4.96329963e-01 -4.04150672e-02 +1.06267083e+00 +2.12956116e-01 +3.25428486e-01 -2.03332260e-01 +9.84371483e-01 -5.36128402e-01 +1.22139692e+00 -1.09415520e-02 +2.89230973e-01 +2.20506750e-02 -2.30000079e-01 -1.69464767e-01 -2.06077993e-02 +1.02011517e-01 -3.58178616e-02 -6.91685677e-01 +1.51950359e-01 -7.88251162e-02 -2.10000455e-01 +2.33622432e-01 -5.18767200e-02 +3.34914386e-01 +5.26149874e-04 +1.42354473e-01 -3.98143381e-01 -2.38025084e-01 -2.63809532e-01 +4.35791701e-01 -3.85082930e-01 -5.15583038e-01 -3.04075092e-01 -4.17808369e-02 +1.06628155e-02 -7.95067176e-02 -2.36457505e-04 -7.95684755e-02 -7.69146681e-01 +1.31463960e-01 -3.89283508e-01 +3.18061084e-01 +1.76277861e-01 +6.65210187e-01 -2.20426828e-01 -5.44119298e-01 -7.06961930e-01 -5.50686657e-01 -4.19343203e-01 +3.69973868e-01 -2.74236854e-02 +3.29177305e-02 +6.97712600e-01 +4.64203238e-01 -7.44257212e-01 +3.85604888e-01 -9.23547328e-01 +2.09630728e-01 -1.53430089e-01 +2.81488389e-01 -1.07684171e+00 +1.81805193e-01 +5.56076229e-01 -2.76235640e-01 -5.69142066e-02 +2.13481799e-01 +1.53205991e-01 +1.47346640e-02 +1.13217384e-01 +3.27233166e-01 +2.62834102e-01 +6.57304943e-01 -1.81810424e-01 +1.57804608e-01 +1.48436993e-01 +1.46466151e-01 -2.28335917e-01 -2.33039409e-02 +1.18771166e-01 +6.31437302e-02 -2.19197363e-01 +6.89424276e-01 +7.16745973e-01 +7.43423179e-02 -7.35901222e-02 -1.51039213e-01 -5.93200922e-01 +7.95985013e-02 +4.61466730e-01 -5.92593789e-01 +1.54231131e-01 +1.21116169e-01 +2.67579108e-01 -3.64054918e-01 -1.54532522e-01 +1.96850955e-01 +5.47038734e-01 -5.83730862e-02 -4.11772847e-01 +2.02764291e-02 +4.81770025e-04 +3.98907274e-01 +5.34784973e-01 -2.39745066e-01 +9.25655812e-02 -1.90266088e-01 -8.41490626e-01 -2.15366855e-01 -4.75269139e-01 +1.26005083e-01 +5.76015294e-01 +6.17277250e-02 -1.71195611e-01 +2.14138001e-01 +4.31620985e-01 -1.35089904e-01 -9.25945878e-01 -1.09160590e+00 -2.53998220e-01 -3.90034795e-01 +1.08467782e+00 -4.05233866e-03 +4.23553176e-02 -2.50337243e-01 +7.87407309e-02 +5.03449738e-02 -2.70298988e-01 +2.19788253e-01 +3.63446951e-01 -2.31951818e-01 -2.78619260e-01 +1.67641625e-01 -6.91957697e-02 -6.63764775e-01 -2.61359274e-01 +7.32005527e-03 -1.76110432e-01 +2.46633943e-02 -3.68585497e-01 -3.36146615e-02 +3.81164283e-01 -3.02835107e-02 +1.50643080e-01 +1.32003818e-02 +6.66656554e-01 +2.63132274e-01 -7.79674873e-02 +1.67457283e-01 +7.45351054e-03 -3.98894306e-03 +3.60033393e-01 -1.06537104e-01 -7.21364021e-02 +1.66611925e-01 +4.65203434e-01 +5.26617765e-01 +7.97778189e-01 +2.96953648e-01 +6.64254352e-02 -1.51003823e-01 -3.82694423e-01 -2.23047838e-01 +3.27996910e-02 -6.64010970e-03 +2.50009179e-01 -3.29252124e-01 -2.28201747e-01 +1.75490245e-01 +5.55689959e-03 +5.20216286e-01 -1.09931089e-01 +4.94860001e-02 +4.08844292e-01 +1.57530457e-01 +2.44141877e-01 -5.95033169e-01 +3.77466738e-01 -5.62814772e-01 +5.22514939e-01 +3.82666677e-01 -2.93342233e-01 +3.25083822e-01 +4.14133132e-01 -6.07701600e-01 +2.87021399e-01 -8.83046985e-01 +7.37576604e-01 -1.28047377e-01 -2.58479267e-01 +7.23973691e-01 -2.28591725e-01 +5.67072332e-01 -2.04105362e-01 +1.54092997e-01 -3.30263913e-01 -1.82774410e-01 -1.64398551e-01 -1.52252242e-01 +5.73014766e-02 -2.34137833e-01 -1.15059413e-01 +8.32326710e-04 -1.73678640e-02 +1.76248640e-01 -1.26163274e-01 +1.97161272e-01 -7.50323310e-02 -7.98101421e-04 -4.24279839e-01 +1.98524967e-01 +9.59056467e-02 +1.41171679e-01 +1.60453424e-01 +5.96519373e-02 +1.49143012e-02 -1.37606226e-02 -7.60614723e-02 -2.01831549e-01 
#Parameter# /vanilla-lstm-builder_1/_1 {64,16} 16385 ZERO_GRAD
+8.14348280e-01 -1.64030656e-01 -1.41543612e-01 -1.26556599e+00 +1.09156001e+00 -1.91616857e+00 +1.31485569e+00 -1.06160796e+00 +5.78393996e-01 +1.85696781e-01 +7.31677562e-02 -2.41839960e-01 +8.83035302e-01 -9.47209239e-01 +1.41841853e+00 +1.93344057e-01 +2.66076207e-01 +4.43453938e-01 +6.83620930e-01 -3.54051813e-02 -4.22094256e-01 -1.07741170e-01 -3.83302748e-01 +1.09261501e+00 +3.61310355e-02 +3.45087528e-01 +5.30804515e-01 -7.81153217e-02 -1.57996386e-01 -5.90807199e-01 +2.48203520e-02 -2.68164128e-01 +2.89284438e-01 +5.79194844e-01 +8.31454694e-02 +1.19423375e-01 +9.56283033e-01 -2.08122492e+00 -7.57400393e-01 +1.06588483e+00 +8.48137915e-01 +1.75866127e-01 -1.05891979e+00 +1.19287543e-01 +8.19172740e-01 -3.94302875e-01 +1.15314078e+00 -6.93013847e-01 -3.30376625e-01 +2.21017599e-01 -8.48877728e-01 -3.07143629e-01 -5.97327650e-02 -4.02465492e-01 -1.28495619e-01 -5.77039778e-01 +6.87454194e-02 -1.37761250e-01 -3.53833795e-01 -2.26994514e-01 -1.07051589e-01 +5.46771049e-01 +1.01649605e-01 -5.93246877e-01 +6.14983857e-01 +8.26952755e-01 +1.88447721e-02 +4.61147577e-01 +8.24133396e-01 +9.64914858e-01 +1.03654504e+00 +1.21902323e+00 +3.15518290e-01 +1.02496195e+00 +6.06248677e-01 +6.71443880e-01 -6.98321164e-02 -1.46259060e-02 +6.80999339e-01 -4.57950741e-01 -5.43585494e-02 +1.23539805e+00 +5.29293776e-01 +1.13390946e+00 +1.72375217e-01 +4.87264693e-01 -5.31555593e-01 +3.31853509e+00 -2.10907742e-01 -3.01292449e-01 -1.98465392e-01 +3.96674573e-01 +3.41520131e-01 +1.76973069e+00 +2.31663257e-01 +4.13927078e-01 +1.52753103e+00 +3.21947128e-01 +7.08015680e-01 +6.11976683e-01 +5.28632343e-01 +3.69900644e-01 -1.57818735e-01 +1.47025251e+00 +2.12642670e+00 +3.87843817e-01 +6.47003829e-01 -3.04291725e-01 +5.04844904e-01 -4.06543076e-01 +9.82470214e-01 -4.84238565e-01 -2.43196115e-01 -1.35975942e-01 -6.86230734e-02 -8.91503170e-02 +4.99170311e-02 -7.12119997e-01 -4.06603813e-01 -2.67353684e-01 -4.16220203e-02 +4.38026845e-01 -7.96137154e-01 -5.60483277e-01 -2.17902079e-01 +3.88556927e-01 +3.85891616e-01 -3.97329271e-01 +8.88968885e-01 -3.60043384e-02 -7.95019031e-01 +4.67297481e-03 -2.40472242e-01 -7.80985802e-02 +4.95752782e-01 +1.58520136e-02 +1.48332715e-02 +7.76370168e-02 +6.45358562e-01 +8.68885100e-01 -1.02080017e-01 -1.96389258e-01 +2.35573933e-01 +2.54777998e-01 -1.21917057e+00 -4.59162116e-01 +5.31331420e-01 -8.25592160e-01 -3.65248956e-02 -2.26522058e-01 -3.79405111e-01 -2.78901607e-01 -2.17770219e-01 +5.90275228e-01 -3.88999097e-02 -2.62407959e-01 +2.13435769e-01 -1.96767464e-01 +2.48162657e-01 +4.61291790e-01 +5.96134700e-02 -1.34672296e+00 +5.36414385e-01 -2.03098607e+00 -1.30444622e+00 -1.03721941e+00 -1.04727834e-01 -3.87460113e-01 -1.81004548e+00 -1.63910575e-02 +7.79305622e-02 -1.40433764e+00 +1.48357823e-01 -4.57050800e-01 +8.91894326e-02 +4.38878417e-01 -3.94101888e-01 -3.32073914e-03 -5.25307357e-01 -5.47180139e-02 +7.81625211e-01 +4.68773663e-01 -6.32434845e-01 -3.59329730e-01 +3.41302633e-01 -5.49217872e-02 +3.63317519e-01 +3.51282731e-02 -1.78861216e-01 +7.75442943e-02 -2.38971651e-01 -2.93725938e-01 +1.02496910e+00 +5.36595523e-01 -6.07157290e-01 -1.81829751e-01 +7.60937691e-01 +5.14210761e-01 +1.36096919e+00 -3.72461736e-01 +1.49202347e-01 -1.16566859e-01 +4.55447108e-01 +7.26619139e-02 +1.90675247e+00 -5.07559717e-01 +8.26108873e-01 +1.46683156e-01 +6.33810878e-01 +3.18541616e-01 +7.68529773e-01 +1.00498176e+00 -9.45633799e-02 +1.13348556e+00 +1.69615611e-01 +3.31429124e-01 -4.69086282e-02 -4.99026924e-01 +4.21911597e-01 +5.06078422e-01 +3.21022309e-02 -1.01502347e+00 +1.52152315e-01 +6.76044822e-01 +1.53164148e+00 +1.45976603e-01 +2.98097283e-01 -3.50106120e-01 +1.79319620e+00 +6.76124170e-02 -2.23970056e-01 +6.94723547e-01 -1.54761687e-01 -3.08383912e-01 +1.63887292e-01 +2.66469091e-01 +9.39766645e-01 -6.56378493e-02 +5.86229503e-01 -2.62178421e-01 +7.07379937e-01 +2.57473946e-01 -2.24650018e-02 -4.72217977e-01 +1.94921643e-02 +6.08938456e-01 +5.95330000e-01 -4.28149551e-01 -2.34999716e-01 -3.59249935e-02 -8.14534366e-01 +2.96087772e-01 -1.36030182e-01 +1.09228051e+00 +2.71894243e-02 +6.29878402e-01 +2.40296051e-01 -1.02551624e-01 +6.04911447e-02 -3.08571339e-01 -1.01951194e+00 -8.44066620e-01 +5.22233665e-01 +1.83951631e-01 -4.39828604e-01 -3.76691908e-01 -6.91287458e-01 -2.58851290e-01 -7.80133188e-01 +7.85231829e-01 -6.77065551e-02 -5.32276571e-01 -5.50680637e-01 +1.22404709e-01 +8.80091488e-02 -1.31738290e-01 +3.03783059e-01 -5.48740268e-01 +3.90867591e-01 -1.38436413e+00 +3.24047267e-01 +9.85017121e-01 +1.14555299e-01 -3.35507214e-01 +7.93832317e-02 -2.49296114e-01 -1.80661336e-01 +1.05109429e+00 -5.44432282e-01 -3.46901953e-01 +3.40452522e-01 -1.82145739e+00 -5.25187552e-01 -1.63333452e+00 +4.88179177e-01 -1.25702009e-01 -5.61996937e-01 +6.35053635e-01 -1.05444044e-01 -1.14565849e-01 -7.75179684e-01 +6.84516057e-02 -4.18786317e-01 +9.87282842e-02 -2.15728506e-01 -4.26443785e-01 -6.23020291e-01 -3.23467910e-01 +1.25629649e-01 +4.09702241e-01 -1.38473004e-01 -5.09786248e-01 -8.13229457e-02 -9.01313066e-01 +4.77215886e-01 +2.39657417e-01 +1.15714133e-01 -1.59647867e-01 -7.77169764e-02 -3.55775058e-02 -4.32270527e-01 +1.09314573e+00 +2.92010754e-01 +5.27208805e-01 +4.63671200e-02 +2.39667371e-01 +6.31798983e-01 +6.63939774e-01 -1.90540120e-01 +8.43974128e-02 +9.95540380e-01 +1.93278760e-01 -1.61250591e+00 +7.32644618e-01 -6.18153155e-01 +9.38312113e-01 +1.39928997e+00 +2.26691931e-01 +3.91438365e-01 -5.42698741e-01 -1.04088895e-01 -1.12972051e-01 -1.82491560e-02 -5.01714051e-01 +4.05372769e-01 +7.29893267e-01 -4.74146724e-01 -5.87189674e-01 +1.43021327e-02 +8.83259237e-01 +1.01713322e-01 -1.16046600e-01 +1.99621171e-01 +4.32436503e-02 +5.71920037e-01 +9.37292516e-01 -5.96072078e-02 +1.52295649e+00 +6.47058666e-01 -1.15674332e-01 +9.83176291e-01 +2.21741557e-01 +7.66861022e-01 +6.86501205e-01 -7.29952514e-01 +5.41296363e-01 -1.60801500e-01 +1.11284947e+00 +3.94788176e-01 +4.03813571e-01 +8.00962821e-02 -1.91447407e-01 -3.99708778e-01 -2.03849766e-02 +1.58332437e-01 +2.42707562e-02 -3.61750759e-02 -1.80485964e-01 +8.98658693e-01 -3.98643702e-01 -1.64019480e-01 +1.23583280e-01 -7.46180117e-02 -1.06596982e+00 +4.09085512e-01 +1.78828061e-01 +1.12851536e+00 +4.25381035e-01 -5.68487525e-01 -6.08282924e-01 -5.51424146e-01 -1.75088823e+00 +3.96942310e-02 +6.59956872e-01 -1.34406769e+00 +8.36112738e-01 +8.31118524e-01 +2.50735193e-01 +5.97862341e-02 +7.43015289e-01 +3.95458519e-01 -3.08088422e-01 -4.07101452e-01 +7.20931470e-01 +1.20201014e-01 +6.13842607e-01 +9.89099890e-02 -1.19649597e-01 -4.12862301e-02 +5.46769083e-01 +1.13549912e+00 +4.69102353e-01 +1.00867353e-01 +7.32716024e-02 +4.34477553e-02 -1.19197913e-01 +4.67275381e-01 +8.51014137e-01 -1.45460498e+00 +2.45047688e-01 -6.31627440e-01 +5.92642307e-01 +1.08990681e+00 -9.65960145e-01 -2.99974060e+00 -1.48553157e+00 +9.80900109e-01 -6.04314685e-01 -1.28872550e+00 +1.69526860e-01 -1.42870176e+00 +5.91709375e-01 +1.17025423e+00 -2.68215418e-01 -6.16950035e-01 +1.08140647e+00 +1.47000626e-01 -1.01820612e+00 -1.33120441e+00 -6.87511638e-02 +3.52754474e-01 +8.01081955e-02 -1.38668191e+00 +6.63545549e-01 +2.85598516e-01 -5.49661577e-01 -3.08237821e-01 -1.15068436e-01 +5.93953431e-01 -8.00389528e-01 +3.32678944e-01 -1.43488503e+00 -8.18234682e-01 -4.29353528e-02 +1.33184528e+00 -2.07262349e+00 -1.79433580e-02 -9.75920618e-01 +8.71689677e-01 -1.35956788e+00 +9.23864305e-01 -1.71731198e+00 -4.24364984e-01 -1.60089886e+00 -3.84489626e-01 -1.46019650e+00 -7.00952709e-01 -4.24568653e-01 +2.46540427e-01 +3.08310449e-01 -3.20613772e-01 +1.01447701e+00 +3.56245637e-01 +8.24458122e-01 -3.62264737e-02 -8.72462690e-01 -7.58947479e-03 -1.46830964e+00 +1.74631163e-01 +1.27460301e+00 +1.08465958e+00 -1.33880126e+00 +4.27909225e-01 -3.42085212e-01 +3.31252277e-01 -1.54974508e+00 -6.51847124e-01 +1.57394838e+00 +4.06723410e-01 +1.01487577e-01 -9.93666828e-01 -1.90531206e+00 -1.00218832e+00 -2.15405846e+00 -6.56324327e-01 -1.02708292e+00 -3.59522104e-01 -6.46064460e-01 +8.17163289e-01 -2.39155069e-01 +8.07126909e-02 -1.51864424e-01 +1.23737550e+00 +6.09805644e-01 -3.00477237e-01 -2.29743440e-02 -2.84757495e-01 +1.40911353e+00 +9.22857597e-03 +1.15157217e-01 +7.36975074e-02 +2.58632123e-01 -3.21056783e-01 +5.61928213e-01 +2.39964962e-01 +3.84339184e-01 -1.08053124e+00 -6.01641357e-01 +4.34388429e-01 +1.06216734e-02 -6.38316751e-01 -3.62706095e-01 -7.64568150e-01 -3.57018076e-02 -7.93436587e-01 +5.81121087e-01 -1.66748855e-02 -1.09956312e+00 +3.20024014e-01 +5.25066197e-01 -9.13980305e-02 +9.48278189e-01 +3.18079293e-01 -1.80122405e-01 -7.99211636e-02 -1.18683016e+00 +5.66586971e-01 +4.61750150e-01 +5.66654988e-02 -2.17312425e-01 -6.22906871e-02 +2.29475319e-01 +2.88907021e-01 +1.30055761e+00 -5.61811805e-01 -1.61763653e-02 +4.50288504e-02 -2.50963330e-01 -2.38802940e-01 -4.43082601e-01 +5.72590768e-01 +3.86191130e-01 -1.23725623e-01 +4.89184946e-01 +3.48754644e-01 +1.32477596e-01 -7.19254851e-01 +5.78205287e-03 -9.66361701e-01 +1.24432504e-01 -1.15782447e-01 +5.26993811e-01 -3.67356896e-01 -4.35379148e-01 -4.77610976e-01 +5.81299663e-01 +8.68356004e-02 -2.18048885e-01 -4.74221349e-01 +6.17154092e-02 +4.24592078e-01 -3.35106999e-01 +6.58139467e-01 +2.12768108e-01 -2.47007653e-01 -6.81457072e-02 +1.17233865e-01 -2.39888072e-01 -7.43988007e-02 +7.25973547e-02 -9.65218782e-01 -3.24375868e-01 +2.25896597e-01 -1.46510616e-01 -1.52400875e+00 -5.97860754e-01 +5.88261068e-01 +2.77899444e-01 -1.20573449e+00 -1.03737593e+00 -8.46968174e-01 +8.97182301e-02 -1.82794020e-01 +7.18655765e-01 +3.47328991e-01 +1.07797301e+00 -3.10783744e-01 +2.50757396e-01 -3.36383313e-01 +8.94061208e-01 +3.28380644e-01 +6.44955397e-01 +3.21628988e-01 -2.57614672e-01 +5.00865169e-02 +7.63238817e-02 +3.60790700e-01 +7.38850355e-01 -9.87306833e-02 -1.41430068e+00 +1.40768993e+00 -8.01431179e-01 -1.37255073e+00 -1.19966972e+00 -2.55450845e-01 +2.42401218e+00 -1.13434672e+00 +6.17867827e-01 +3.70085359e-01 -6.34095311e-01 -8.21951509e-01 -1.04399061e+00 -8.60003114e-01 -1.52541026e-01 -3.23979467e-01 -3.22696388e-01 +3.42965961e-01 -1.03639317e+00 -3.96607593e-02 +3.68449092e-01 +5.20842314e-01 +3.58522624e-01 +2.95310467e-01 -2.26817623e-01 -8.62509087e-02 +6.52737319e-02 -2.36699924e-01 +5.66711128e-01 +1.36894092e-01 +6.95097029e-01 -5.32890558e-01 -3.78800519e-02 +6.46665767e-02 +4.24591839e-01 -7.21510530e-01 +8.03970456e-01 +2.30792329e-01 +1.02178907e+00 -6.70091152e-01 +3.45229730e-02 -2.06588104e-01 +1.14831436e+00 -1.14087999e+00 -4.10445452e-01 -9.44676340e-01 -4.04449701e-01 -2.28731349e-01 +6.35323346e-01 +1.11512743e-01 -9.14146364e-01 -4.87472117e-01 -8.73697698e-01 +1.79435536e-01 -4.21625078e-01 -1.48095965e-01 +4.72346127e-01 -1.16732371e+00 +3.27241793e-02 -8.07441846e-02 +6.53712869e-01 -5.82707286e-01 +4.69681509e-02 -8.00339103e-01 -4.51727122e-01 +1.02228594e+00 +9.21331495e-02 -3.95322472e-01 +7.38030970e-01 +1.11311984e+00 -2.71497577e-01 -8.30529809e-01 +3.80443066e-01 +5.47629952e-01 +8.17090392e-01 -6.28723279e-02 +1.66618660e-01 +6.88743219e-02 +5.96153975e-01 +3.71614397e-01 -6.73957765e-02 -1.02939598e-01 -4.15028572e-01 +1.95862204e-01 +5.41481912e-01 +2.80627996e-01 +1.62992403e-02 +6.11366034e-02 -1.03286244e-02 +3.64106059e-01 +1.17111184e-01 -5.25376618e-01 +9.66533870e-02 +8.26783419e-01 -3.22439343e-01 -6.72064185e-01 +6.74937805e-03 -6.71160102e-01 -1.02083671e+00 -6.18212402e-01 -1.32895720e+00 -1.26784635e+00 +5.96510172e-01 -4.06888962e-01 -7.95705736e-01 +6.81090593e-01 +4.28478122e-01 -8.47790778e-01 +5.76941907e-01 +2.09572598e-01 +1.08335245e+00 +2.47826546e-01 -6.04906678e-01 +5.12538493e-01 -6.00302994e-01 +1.09910876e-01 -6.57911003e-01 -9.84220147e-01 +7.06036091e-01 -2.82679081e-01 +1.47924709e+00 -4.16487038e-01 -9.84971106e-01 +1.04231372e-01 +7.30831027e-01 +1.47565901e-01 -5.03877774e-02 -2.21717930e+00 -2.60321766e-01 -1.72983634e+00 -2.02163652e-01 -2.48107359e-01 -7.36471474e-01 -1.04534841e+00 -3.43913317e-01 -1.62348956e-01 +1.16806138e+00 +1.67573869e-01 +5.53598583e-01 +1.24952972e+00 +6.04123175e-01 +3.54408920e-01 +2.89105296e-01 +1.46857500e-01 +9.02508572e-02 -7.10100591e-01 -1.54726779e+00 +2.15941697e-01 +7.92984664e-01 -3.87744256e-03 -1.08358957e-01 -3.18620913e-03 +8.01589265e-02 +7.91432261e-01 -6.16965771e-01 +2.59184390e-01 +8.81619036e-01 +6.65800050e-02 -2.34323889e-02 +6.36716545e-01 -2.77508020e-01 +1.02748558e-01 -5.02725661e-01 +5.01798987e-01 -3.19588393e-01 -2.04306960e-01 -4.57660049e-01 +1.31119931e+00 +1.20777683e-02 -4.55182582e-01 -5.18895507e-01 +1.62085748e+00 -1.46082724e-02 +1.24771595e+00 -5.69097281e-01 -4.49550934e-02 -6.63326263e-01 -4.90853250e-01 -5.24075985e-01 -8.68795142e-02 -2.73721609e-02 -8.17294598e-01 +2.33307615e-01 -3.50802302e-01 -8.32423627e-01 -8.69879797e-02 +7.48068392e-02 -3.66049111e-01 -9.46444929e-01 -2.29098558e-01 -9.46246922e-01 +8.75948370e-01 -2.40229860e-01 -1.99088007e-01 +2.47424692e-01 +9.21630263e-01 -2.36470476e-02 -3.67854178e-01 -7.79736266e-02 +9.91219521e-01 -4.48036343e-01 -6.29760444e-01 -9.80729759e-01 +5.50682783e-01 -2.15652555e-01 +8.81199896e-01 -1.48853588e+00 +5.67018449e-01 +7.38639772e-01 -1.32612139e-01 +2.69914299e-01 +4.72620502e-02 -7.79051363e-01 -1.28989685e+00 -8.48612636e-02 -1.26579925e-01 -1.16658442e-01 -1.15332997e+00 -6.42300606e-01 +2.23190095e-02 +4.28078949e-01 -3.62135842e-02 -6.84522271e-01 -1.28430700e+00 +7.60113657e-01 -5.15975058e-01 +4.95947689e-01 +1.07430744e+00 +1.12846768e+00 -7.39419103e-01 +1.52954304e+00 -1.74392909e-01 -5.22076964e-01 +1.21863019e+00 -1.30997468e-02 +3.74692470e-01 -5.30572891e-01 -4.24618512e-01 -3.24910969e-01 +9.46219444e-01 +9.34707522e-01 +2.23503396e-01 +2.00316235e-01 -2.05541179e-01 +1.34278715e-01 +1.67260960e-01 +3.04478049e+00 -1.91812575e-01 -3.24575633e-01 -3.06601495e-01 -1.65040970e-01 -6.63212001e-01 +1.75768483e+00 -2.48936921e-01 +7.03244433e-02 +5.45823157e-01 +4.47997272e-01 +1.05335161e-01 +1.75865078e+00 -5.64671457e-01 +2.15401578e+00 -7.25980178e-02 +8.55100691e-01 +7.90175438e-01 -9.26651061e-01 +1.32502329e+00 +4.12632465e-01 -6.21474564e-01 -1.28241509e-01 -5.42430639e-01 -3.98241460e-01 +2.97545314e-01 +7.48893917e-01 +3.38910073e-01 +7.64178514e-01 -6.84238851e-01 -9.03708637e-01 -6.10695422e-01 +1.36859283e-01 -3.10364276e-01 +1.63341969e-01 +5.03264517e-02 -6.86810493e-01 -2.29071006e-01 -2.20690861e-01 +1.70959488e-01 -1.42896914e+00 -5.57269037e-01 +4.56386745e-01 +3.18659037e-01 +7.01656044e-01 -6.66464746e-01 +1.60736144e-01 -2.78347820e-01 +6.43872738e-01 -1.01705635e+00 -2.90302336e-01 +3.32663536e-01 +7.41018832e-01 -9.27405775e-01 -1.54090822e-02 -7.33190119e-01 +5.75320661e-01 -4.95341450e-01 +5.99822879e-01 -7.76161775e-02 +6.96072578e-01 -4.67905290e-02 +3.24855328e-01 +7.89470673e-01 -9.37368162e-03 +2.00719297e-01 +9.34269071e-01 +3.26438159e-01 -8.56446207e-01 +1.77861199e-01 +7.71042585e-01 +3.49872798e-01 +6.10817969e-01 -7.52395093e-01 -5.44147730e-01 +2.68695056e-01 -2.64417768e-01 -6.47214532e-01 +3.91786128e-01 -2.57111251e-01 +3.87805134e-01 -6.78077281e-01 +6.52432024e-01 +1.24742401e+00 +3.12269479e-01 -5.81494570e-01 -2.47786701e-01 -8.19496453e-01 +1.10289824e+00 -3.52780372e-01 +1.18458606e-01 +3.14774066e-01 +1.32640764e-01 -3.12071204e-01 +4.96943831e-01 +9.51743364e-01 +4.99575794e-01 +2.44602978e-01 +3.75252068e-01 +6.88885272e-01 +1.95470437e-01 -2.63739675e-01 +1.11030735e-01 +4.39141184e-01 +6.13236606e-01 -8.80894125e-01 -5.30822814e-01 -5.32209039e-01 -1.97786108e-01 -1.65112233e+00 -7.28714883e-01 -2.34169459e+00 -1.03086281e+00 -1.54413831e+00 -2.23363185e+00 +8.31671894e-01 -1.15454173e+00 -1.57388306e+00 -3.21307331e-01 -2.14498806e+00 +4.68679219e-01 +2.50172704e-01 -6.93975508e-01 -7.73679376e-01 -2.25879326e-01 -7.14065433e-01 -8.00403178e-01 +7.03297734e-01 -2.25188589e+00 -6.89715147e-01 -1.13022232e+00 +9.79781449e-01 -3.53472769e-01 -5.29664934e-01 -4.35405374e-01 -5.53376913e-01 -4.01623100e-01 -1.08007812e+00 -8.20177853e-01 -2.47242451e+00 +1.51846933e+00 -7.40497947e-01 +8.10177565e-01 +3.31102431e-01 -8.91129196e-01 -9.57012892e-01 -1.78803253e+00 +2.77755588e-01 +5.77429682e-03 -2.32796162e-01 +5.95281236e-02 -1.80536354e+00 +3.99846882e-01 -9.00564969e-01 -8.24262977e-01 +6.75685346e-01 -1.23568940e+00 -3.07179213e-01 +1.28460693e+00 +8.17925751e-01 -1.76340848e-01 +8.57376873e-01 -7.69908167e-03 +5.64577162e-01 +5.03899038e-01 -1.59929879e-02 -4.58378881e-01 +3.67943138e-01 -5.14448024e-02 
#Parameter# /vanilla-lstm-builder_1/_2 {64} 1025 ZERO_GRAD
